~o
<STREAMINFO> 1 39
<VECSIZE> 39<NULLD><MFCC_D_A_0><DIAGC>
~h "b"
<BEGINHMM>
<NUMSTATES> 5
<STATE> 2
<MEAN> 39
 3.153472e+00 8.010317e+00 -5.462939e+00 2.812412e+00 1.010106e+01 -5.067874e+00 -1.149690e-01 -5.807003e+00 -1.303878e+01 -5.814508e+00 -2.198662e+00 -7.362033e-01 6.814851e+01 -2.054475e+00 -8.469898e-02 6.480545e-01 5.822192e-01 5.243871e-01 6.773235e-01 1.964538e+00 1.561031e-01 3.538470e-02 -5.035990e-03 2.746249e-01 7.522703e-01 -1.266801e+00 -1.972080e-01 -3.111662e-01 -1.416377e-01 -4.563079e-01 -7.399411e-01 5.186093e-03 3.286634e-02 3.457822e-01 8.243783e-01 3.897410e-02 4.294180e-02 1.393831e-02 -3.456580e-01
<VARIANCE> 39
 2.836703e+01 6.557581e+01 1.317859e+02 5.545999e+01 1.037532e+02 1.001166e+01 3.109442e+01 2.242383e+01 1.142529e+01 5.612195e+01 1.002150e+00 3.614028e+01 5.327861e+01 5.264328e-01 3.568847e+00 3.358190e+00 4.017550e+00 2.164636e+00 2.680014e+00 2.097250e+00 5.381903e+00 2.986935e+00 1.736735e+00 2.524294e-01 1.450339e+00 1.703605e+00 2.283264e-01 2.840429e-01 6.142302e-01 2.812942e-01 4.657328e-01 6.057166e-01 5.524752e-01 1.309869e+00 1.895778e-01 4.525122e-01 4.663637e-02 5.224432e-01 1.949764e-01
<GCONST> 1.103268e+02
<STATE> 3
<MEAN> 39
 -2.415132e+00 6.903993e+00 -7.980630e+00 1.047450e+00 4.000971e+00 -1.469696e+00 5.994073e+00 -7.852551e+00 -5.112341e+00 -2.874206e+00 -1.064898e+00 -1.948450e+00 6.114796e+01 -1.074779e+00 -1.383061e+00 -8.798450e-01 -6.941947e-01 -1.224137e+00 2.672808e-01 -5.322590e-01 -1.929354e+00 8.875740e-01 2.024282e-01 1.300773e+00 -2.134853e-01 -7.289544e-01 2.591909e-01 2.490365e-02 3.853542e-01 -4.009205e-02 4.475026e-01 -6.891792e-01 -3.357626e-01 -2.273328e-01 -6.706638e-01 -6.609960e-02 1.427338e-01 1.576793e-03 7.124817e-01
<VARIANCE> 39
 3.554377e+01 1.319281e+01 1.113441e+02 9.436658e+01 2.674452e+01 2.780520e+01 8.257912e+00 4.097895e+01 1.946541e+01 2.130747e+01 6.480146e+00 3.152816e+01 2.053758e+01 7.143503e-01 2.474133e+00 2.663296e+00 2.865933e+00 6.010398e+00 5.712643e+00 1.159818e+00 4.033448e+00 2.252877e+00 2.806427e+00 7.222027e-01 1.908100e+00 1.952971e+00 3.140820e-01 5.758824e-01 7.217132e-01 8.081045e-01 9.727417e-01 1.608000e+00 5.960833e-01 8.420436e-01 4.457141e-01 3.149835e-01 2.568211e-01 2.777784e-01 4.720080e-01
<GCONST> 1.165625e+02
<STATE> 4
<MEAN> 39
 -3.277405e+00 7.333426e+00 1.094401e+00 4.587900e+00 8.093619e+00 -6.089165e+00 -1.624623e+00 -9.122671e+00 -9.574542e+00 -8.407947e+00 1.536284e+00 -2.192948e+00 6.477994e+01 3.933661e-02 2.131318e-01 5.997922e-01 4.723201e-01 1.077659e-01 -3.021878e-01 -4.758019e-02 6.133743e-02 7.595007e-02 -8.512994e-02 -2.237821e-01 5.692039e-03 1.904217e-01 3.950895e-02 -5.343780e-02 4.388446e-03 1.074195e-01 -3.054544e-02 -3.331157e-02 9.315551e-02 1.306143e-01 8.287320e-02 8.436794e-03 -1.789522e-01 -1.101680e-02 8.124959e-02
<VARIANCE> 39
 2.987784e+01 5.887263e+01 4.015263e+01 7.625088e+01 6.903010e+01 6.446011e+01 2.876589e+01 1.843260e+01 6.922047e+01 2.536412e+01 1.687183e+01 2.230177e+01 4.512210e+01 4.620733e+00 6.860668e+00 2.239096e+00 4.219380e+00 6.755420e+00 1.079763e+01 4.817629e+00 2.859611e+00 8.172383e+00 3.174736e+00 1.829030e+00 1.017684e+00 5.793355e+00 1.065083e+00 1.359178e+00 2.444612e-01 6.035709e-01 1.109261e+00 2.013332e+00 1.115469e+00 4.868096e-01 1.029685e+00 6.931400e-01 2.612172e-01 1.948352e-01 1.072836e+00
<GCONST> 1.327137e+02
<TRANSP> 5
 0.000000e+00 1.000000e+00 0.000000e+00 0.000000e+00 0.000000e+00
 0.000000e+00 6.372368e-01 3.627632e-01 0.000000e+00 0.000000e+00
 0.000000e+00 0.000000e+00 6.450770e-01 3.549230e-01 0.000000e+00
 0.000000e+00 0.000000e+00 0.000000e+00 8.544818e-01 1.455183e-01
 0.000000e+00 0.000000e+00 0.000000e+00 0.000000e+00 0.000000e+00
<ENDHMM>
~h "d"
<BEGINHMM>
<NUMSTATES> 5
<STATE> 2
<MEAN> 39
 -7.223679e+00 6.385840e+00 -2.855030e+00 4.942142e+00 -2.466689e+00 2.727412e+00 1.017641e+01 4.199072e+00 8.924171e+00 -4.730695e+00 -4.342286e+00 -8.060922e+00 5.661547e+01 -8.040602e-01 -7.773648e-01 -2.702800e-01 8.583152e-01 1.012683e+00 -1.600089e-01 -8.927837e-01 -6.881811e-02 7.860525e-01 5.282949e-01 1.495973e-01 4.748285e-01 -4.948196e-01 1.709841e-01 6.164238e-02 2.563484e-03 1.117397e-01 -4.187662e-02 -2.058895e-01 -3.174685e-01 -4.540813e-01 -6.477970e-01 -2.764608e-01 7.467068e-02 9.132968e-02 8.110057e-02
<VARIANCE> 39
 2.289530e+01 3.177740e+01 4.058940e+01 2.367989e+01 1.270620e+01 2.467335e+01 2.169346e+01 1.102851e+01 1.593881e+01 2.024183e+01 1.291864e+01 2.827372e+01 2.173764e+00 5.227954e-01 3.999383e-01 6.590551e-01 1.268758e+00 1.439923e+00 1.559070e+00 1.870361e+00 1.732679e+00 3.212973e+00 8.557860e-01 1.863589e+00 8.260864e-01 1.815438e-01 1.010335e-01 9.370615e-02 9.219276e-02 1.831166e-01 3.205092e-01 2.269710e-01 2.079717e-01 1.381217e-01 2.163170e-01 1.432549e-01 2.763395e-01 1.313242e-01 2.786284e-02
<GCONST> 8.350816e+01
<STATE> 3
<MEAN> 39
 -1.175994e+01 3.372037e+00 -4.621440e+00 6.800774e+00 2.126943e+00 2.724259e+00 5.698312e+00 1.264678e+00 6.737458e+00 -6.583571e+00 -1.629141e+00 -6.644219e+00 5.291710e+01 -1.975979e-01 -8.765177e-02 -3.562181e-02 -8.493767e-02 -1.228428e-01 -4.478191e-02 -2.004507e-02 -1.261459e-01 -1.149757e-01 -8.969972e-02 9.558342e-02 7.462131e-02 -1.716669e-01 2.264220e-02 4.046978e-02 1.678718e-02 -1.462525e-02 -5.691549e-02 7.592519e-03 2.802432e-02 7.601362e-02 4.675569e-02 1.520062e-02 -1.969006e-02 -3.866208e-02 1.118639e-02
<VARIANCE> 39
 3.175264e+00 6.855948e+00 1.715808e+01 1.787347e+01 1.573057e+01 2.004950e+01 1.488235e+01 1.898029e+01 1.543104e+01 1.275439e+01 1.214094e+01 1.297923e+01 5.513454e+00 2.864881e-01 4.280665e-01 8.883325e-01 1.093807e+00 1.312801e+00 9.927258e-01 1.176081e+00 1.623255e+00 1.369402e+00 7.501488e-01 1.082186e+00 9.708222e-01 1.193656e-01 4.363445e-02 7.186322e-02 1.429020e-01 2.181023e-01 2.990342e-01 1.732589e-01 1.845295e-01 2.873872e-01 2.853323e-01 1.324047e-01 2.228357e-01 1.392885e-01 1.889827e-02
<GCONST> 7.481764e+01
<STATE> 4
<MEAN> 39
 -1.496328e+01 8.513045e-01 -8.828518e-01 9.918457e+00 -4.740024e-01 1.566527e+00 6.241726e+00 -1.481414e-02 5.134356e+00 -2.963274e+00 1.181026e-01 -1.605339e+00 4.960397e+01 -2.971135e-02 3.308630e-02 1.680202e-02 3.232326e-02 2.344731e-02 4.369151e-02 3.834507e-02 6.672659e-02 2.950029e-02 1.442287e-02 2.469800e-02 2.775393e-02 -7.956649e-02 7.908796e-03 -1.296154e-02 -5.941344e-03 -3.386993e-03 9.124892e-03 1.776482e-03 2.943680e-03 -5.868911e-03 -9.274824e-03 -1.206900e-02 -1.115766e-02 2.318481e-03 8.610180e-03
<VARIANCE> 39
 6.011320e+00 2.416455e+01 8.265320e+00 1.185488e+01 3.499237e+01 2.882532e+01 1.450897e+01 1.588700e+01 1.725999e+01 2.605425e+01 1.380712e+01 3.957547e+01 5.117580e+01 1.760726e-01 6.010964e-01 4.779492e-01 8.613060e-01 7.802452e-01 1.029383e+00 1.298809e+00 1.230613e+00 1.382699e+00 1.066068e+00 1.225790e+00 1.150842e+00 2.061372e-01 3.791357e-02 1.347227e-01 9.741321e-02 1.821423e-01 1.438968e-01 1.874238e-01 2.653353e-01 2.443775e-01 2.901692e-01 2.242970e-01 2.468341e-01 2.062721e-01 3.492147e-02
<GCONST> 8.149173e+01
<TRANSP> 5
 0.000000e+00 1.000000e+00 0.000000e+00 0.000000e+00 0.000000e+00
 0.000000e+00 7.645237e-01 2.354762e-01 0.000000e+00 0.000000e+00
 0.000000e+00 0.000000e+00 9.344481e-01 6.555188e-02 0.000000e+00
 0.000000e+00 0.000000e+00 0.000000e+00 9.800279e-01 1.997219e-02
 0.000000e+00 0.000000e+00 0.000000e+00 0.000000e+00 0.000000e+00
<ENDHMM>
~h "f"
<BEGINHMM>
<NUMSTATES> 5
<STATE> 2
<MEAN> 39
 -1.536977e+01 1.230542e+00 -5.242105e+00 7.762616e+00 4.939021e+00 7.956380e-01 7.592413e+00 -2.941538e+00 2.470615e+00 -3.415255e+00 8.407056e-01 -1.339235e+00 5.910867e+01 -6.331246e-01 -2.300045e-01 -8.798023e-02 -1.016477e-01 2.431949e-01 -1.394428e-01 6.655464e-02 2.973185e-02 1.993106e-01 -2.824686e-02 -8.416521e-03 1.779396e-01 2.914683e-01 1.907507e-01 5.161423e-02 4.876772e-03 -5.923482e-02 -2.690667e-02 -7.620874e-02 -1.072232e-01 -6.015896e-02 -1.006399e-01 -1.135532e-02 -2.672745e-02 -8.453132e-02 1.032190e-02
<VARIANCE> 39
 5.620897e+01 5.719207e+01 4.893926e+01 6.324580e+01 9.062025e+01 8.715470e+01 4.399184e+01 5.281261e+01 6.083144e+01 5.921816e+01 3.875142e+01 4.953069e+01 1.037481e+02 2.422179e+00 2.245040e+00 1.608284e+00 1.718143e+00 2.727204e+00 2.573870e+00 2.967376e+00 2.734910e+00 3.027576e+00 2.360875e+00 2.352050e+00 2.086597e+00 1.030638e+00 4.172326e-01 4.188229e-01 2.977805e-01 3.529374e-01 5.286236e-01 4.829735e-01 6.079443e-01 5.231160e-01 5.170023e-01 4.498233e-01 4.591070e-01 4.131014e-01 1.588395e-01
<GCONST> 1.237774e+02
<STATE> 3
<MEAN> 39
 -1.878500e+01 -4.875245e-01 -4.264912e+00 4.637073e+00 7.910052e+00 -1.539952e+00 5.318966e+00 -4.777026e+00 -1.682070e+00 -2.029197e+00 1.603857e+00 -7.523474e-01 5.617703e+01 2.641865e+00 8.403215e-01 -6.098006e-01 -1.443624e+00 -9.411421e-01 -6.553981e-01 -7.744051e-01 -3.774828e-01 -3.472907e-01 -2.580622e-01 -6.613570e-01 -7.001261e-01 5.833213e-01 1.199373e+00 3.268414e-01 -1.267258e-01 -5.288107e-01 -7.841615e-01 -3.149917e-01 -1.831711e-01 -1.110659e-01 -8.315758e-02 -4.592980e-02 -2.500706e-01 -2.099154e-01 5.131203e-01
<VARIANCE> 39
 5.653682e+01 5.282795e+01 4.601349e+01 5.006625e+01 1.142569e+02 6.640816e+01 7.177367e+01 5.927208e+01 6.127519e+01 1.121776e+02 4.988913e+01 4.151971e+01 1.506687e+02 1.000764e+01 6.158010e+00 3.719569e+00 6.922575e+00 6.803184e+00 5.460289e+00 4.742361e+00 4.275850e+00 5.150714e+00 5.068556e+00 2.606257e+00 3.184624e+00 3.050189e+00 8.285437e-01 7.856973e-01 5.946491e-01 9.927405e-01 1.278566e+00 1.205169e+00 1.006812e+00 8.150563e-01 1.034924e+00 1.006227e+00 5.388334e-01 6.831191e-01 5.010088e-01
<GCONST> 1.443137e+02
<STATE> 4
<MEAN> 39
 -2.349455e+00 -3.767027e+00 -2.830151e+00 -5.621460e+00 -8.003047e+00 -9.907270e-02 -2.271069e+00 -5.680842e+00 -9.396045e-01 -5.646951e+00 -1.183742e+00 -2.275647e+00 5.449159e+01 4.263958e+00 9.531780e-01 -6.853717e-01 -2.514678e+00 -2.151858e+00 -9.015610e-01 -5.646246e-01 -4.258043e-01 -3.785142e-01 -4.117292e-01 -3.393140e-01 -8.009598e-01 2.424159e+00 -4.720862e-01 -3.414896e-01 -7.662364e-03 2.993173e-01 8.976123e-02 -9.254599e-02 1.027615e-01 1.946221e-01 1.390858e-01 1.445606e-01 2.081895e-01 6.834102e-03 4.932452e-02
<VARIANCE> 39
 6.659357e+01 2.453926e+02 8.250903e+01 1.332513e+02 1.619743e+02 8.694648e+01 7.113158e+01 6.939281e+01 4.425987e+01 3.455739e+01 3.754762e+01 3.155812e+01 1.399984e+02 1.090528e+01 7.324170e+00 3.986673e+00 1.043400e+01 7.708811e+00 8.706823e+00 5.118629e+00 5.499572e+00 4.284769e+00 4.437551e+00 4.309892e+00 4.107649e+00 5.664541e+00 1.341628e+00 9.237564e-01 4.449635e-01 1.186419e+00 8.397080e-01 7.177944e-01 4.817944e-01 6.754331e-01 4.976861e-01 6.424448e-01 4.799587e-01 5.837401e-01 5.734384e-01
<GCONST> 1.462764e+02
<TRANSP> 5
 0.000000e+00 1.000000e+00 0.000000e+00 0.000000e+00 0.000000e+00
 0.000000e+00 8.873425e-01 1.126575e-01 0.000000e+00 0.000000e+00
 0.000000e+00 0.000000e+00 6.522612e-01 3.477388e-01 0.000000e+00
 0.000000e+00 0.000000e+00 0.000000e+00 5.693761e-01 4.306240e-01
 0.000000e+00 0.000000e+00 0.000000e+00 0.000000e+00 0.000000e+00
<ENDHMM>
~h "g"
<BEGINHMM>
<NUMSTATES> 5
<STATE> 2
<MEAN> 39
 -7.183626e+00 6.423084e+00 -3.361588e+00 1.034199e+01 2.366934e+00 2.048522e+00 6.365488e+00 -2.932567e+00 4.977868e+00 -5.485101e+00 6.518589e-02 -4.103753e+00 6.143929e+01 4.717360e-01 5.859292e-01 3.425878e-01 2.795792e-01 6.256674e-01 -1.650006e-03 -1.272469e-01 -1.585979e-01 -2.596279e-01 -1.066776e-01 -2.626503e-02 -1.914681e-01 1.105262e-01 -1.947064e-02 3.968566e-03 7.217504e-02 -6.390753e-02 -7.915792e-02 -1.163837e-02 -6.876997e-03 6.768061e-02 -7.958645e-03 9.148248e-02 2.125597e-01 5.068209e-02 -4.090562e-02
<VARIANCE> 39
 4.546495e+01 5.174735e+01 7.079312e+01 2.883822e+01 5.103019e+01 2.794242e+01 3.234092e+01 3.634300e+01 5.295950e+01 3.271241e+01 1.916940e+01 4.428961e+01 2.851770e+01 1.500783e+00 3.199555e+00 2.684790e+00 1.924872e+00 1.613782e+00 1.397147e+00 2.885257e+00 2.334803e+00 2.954410e+00 1.954118e+00 2.238859e+00 2.258902e+00 6.493031e-01 2.559996e-01 4.189389e-01 4.113248e-01 3.772531e-01 2.630653e-01 1.752645e-01 5.917073e-01 4.554612e-01 5.507937e-01 3.143688e-01 2.910436e-01 4.468833e-01 1.050111e-01
<GCONST> 1.132892e+02
<STATE> 3
<MEAN> 39
 -6.718821e+00 9.662578e+00 -3.187891e-01 1.111639e+01 1.908768e+00 4.141831e+00 7.892970e+00 -7.922632e-01 5.362847e+00 -4.107460e+00 3.580110e+00 -4.018990e+00 5.916765e+01 -3.028041e-02 -7.598041e-03 1.619197e-02 -6.248196e-02 -1.246852e-01 5.589499e-03 -8.372035e-02 3.074392e-01 3.730653e-02 8.140466e-02 1.686670e-01 1.479367e-01 -8.901061e-02 -5.030185e-02 -1.296407e-01 -1.440438e-01 -1.005173e-01 -3.377761e-02 -2.808367e-02 5.944873e-03 -2.036166e-02 -1.024864e-01 -1.803458e-02 -1.200983e-01 3.704406e-03 8.629323e-02
<VARIANCE> 39
 8.843065e+01 2.975100e+01 6.131686e+01 3.917472e+01 4.496903e+01 2.819472e+01 2.690071e+01 3.511202e+01 4.445548e+01 3.745266e+01 2.780551e+01 2.996504e+01 2.137226e+01 2.049922e-01 3.362505e-01 5.179254e-01 7.614092e-01 1.113731e+00 1.228680e+00 1.393912e+00 1.036444e+00 1.420332e+00 1.647123e+00 1.710090e+00 8.850362e-01 8.323726e-02 1.097566e-01 1.430582e-01 1.744704e-01 2.294422e-01 2.703133e-01 2.739639e-01 2.757625e-01 2.514536e-01 4.473985e-01 3.766961e-01 3.318843e-01 1.954930e-01 6.714924e-02
<GCONST> 9.453136e+01
<STATE> 4
<MEAN> 39
 -2.344265e+00 6.939544e+00 -5.519806e+00 6.205067e+00 2.666918e+00 5.986407e-01 4.640893e+00 4.620165e-01 1.419988e+00 -9.419209e+00 2.440377e+00 -6.909521e+00 6.553028e+01 -6.059853e-02 -2.117901e-01 -9.476100e-02 -2.170398e-01 -1.877335e-01 -5.307334e-02 -3.457102e-02 3.903899e-02 -1.256392e-02 4.706306e-02 -2.562770e-03 1.611977e-02 2.217380e-01 -4.715214e-02 -1.269017e-01 -1.135827e-01 -2.425890e-01 -8.748352e-03 -7.818005e-02 2.336482e-01 -1.139447e-01 -1.865081e-01 2.721610e-02 -4.915775e-02 -3.021719e-02 2.726623e-01
<VARIANCE> 39
 5.398577e+01 2.835036e+01 4.833348e+01 3.632379e+01 3.573264e+01 8.756451e+01 2.910912e+01 3.729304e+01 3.510123e+01 6.946221e+01 2.474405e+01 3.290787e+01 5.101130e+01 2.214105e+00 1.555340e+00 1.960660e+00 2.152558e+00 2.649631e+00 3.987665e+00 2.763582e+00 2.604581e+00 2.624607e+00 3.993412e+00 2.747492e+00 2.209347e+00 1.006873e+00 5.349987e-01 2.566845e-01 3.636879e-01 4.971498e-01 5.825249e-01 7.910261e-01 6.933499e-01 5.929358e-01 5.994603e-01 8.009816e-01 6.427179e-01 4.484581e-01 4.130112e-01
<GCONST> 1.228992e+02
<TRANSP> 5
 0.000000e+00 1.000000e+00 0.000000e+00 0.000000e+00 0.000000e+00
 0.000000e+00 7.798097e-01 2.201903e-01 0.000000e+00 0.000000e+00
 0.000000e+00 0.000000e+00 7.766711e-01 2.233289e-01 0.000000e+00
 0.000000e+00 0.000000e+00 0.000000e+00 7.911728e-01 2.088272e-01
 0.000000e+00 0.000000e+00 0.000000e+00 0.000000e+00 0.000000e+00
<ENDHMM>
~h "k"
<BEGINHMM>
<NUMSTATES> 5
<STATE> 2
<MEAN> 39
 -1.313265e+01 1.499588e+00 1.786333e+00 2.835711e+00 -2.520792e-01 1.135728e+00 2.827851e+00 -4.030375e+00 7.815026e-01 -4.150650e+00 -4.591595e-01 -2.358445e+00 5.550564e+01 -6.436133e-01 4.221806e-01 2.750437e-01 -1.147518e-01 -2.950729e-01 -1.035775e-01 1.372955e-01 4.678232e-01 -1.993147e-01 6.406108e-02 4.054088e-01 2.106370e-01 -6.178857e-01 1.005108e-01 -5.195028e-02 4.427868e-02 9.600842e-02 -5.943552e-02 -2.414557e-01 -9.976202e-02 -2.373139e-01 -3.707926e-02 1.966719e-01 1.372662e-01 3.972952e-02 7.710355e-02
<VARIANCE> 39
 1.109586e+02 6.786033e+01 1.168733e+02 6.828660e+01 8.845805e+01 1.114941e+02 1.061840e+02 7.683514e+01 4.166305e+01 5.858827e+01 4.934779e+01 4.073063e+01 1.319236e+02 4.030895e-01 1.552744e+00 2.962116e+00 1.564916e+00 2.071769e+00 1.431767e+00 2.319589e+00 2.137990e+00 1.946858e+00 2.070117e+00 1.555651e+00 1.504181e+00 4.946243e-01 1.090751e-01 2.474906e-01 3.988692e-01 2.795770e-01 3.929712e-01 4.301512e-01 5.699177e-01 5.227966e-01 3.670036e-01 3.801645e-01 4.299190e-01 2.143222e-01 9.300187e-02
<GCONST> 1.178507e+02
<STATE> 3
<MEAN> 39
 -1.534284e+01 -7.429629e-02 2.092167e+00 1.710135e+00 -2.485453e+00 -1.134070e+00 1.219005e+00 -4.491051e+00 1.572673e+00 -2.912084e+00 -7.967289e-02 -8.739497e-01 5.400484e+01 -4.859810e-01 2.033946e-01 8.517974e-02 1.171204e-01 -1.420102e-01 -1.402606e-01 3.969631e-03 1.655575e-01 5.684277e-02 3.180878e-01 2.020746e-01 2.131659e-01 -4.665989e-01 1.553823e-01 -9.433647e-02 -1.904058e-02 1.466209e-01 1.233227e-01 -8.350354e-02 2.757686e-02 -2.399861e-01 -3.058061e-02 6.550005e-02 -1.623477e-02 -1.790872e-03 1.390236e-01
<VARIANCE> 39
 1.116536e+02 6.405779e+01 1.186912e+02 5.616351e+01 5.394307e+01 1.074645e+02 1.009668e+02 5.739071e+01 4.236553e+01 5.208327e+01 4.211532e+01 4.565311e+01 1.593182e+02 3.249149e-01 1.051604e+00 1.963341e+00 1.631086e+00 1.704073e+00 1.835864e+00 2.824524e+00 2.099422e+00 2.182324e+00 1.821422e+00 2.192901e+00 1.215291e+00 3.951696e-01 6.302735e-02 1.437964e-01 2.346409e-01 1.931596e-01 2.228882e-01 2.018543e-01 2.639983e-01 4.351086e-01 2.794078e-01 3.021642e-01 2.622995e-01 2.098611e-01 4.402104e-02
<GCONST> 1.099036e+02
<STATE> 4
<MEAN> 39
 -5.439759e+00 4.647441e-01 -1.907667e+00 5.925419e+00 3.442200e+00 5.535608e+00 5.585503e+00 5.561809e-01 3.205153e+00 -4.667808e+00 1.307406e+00 -2.783525e+00 5.471365e+01 -1.589847e-02 2.125193e-02 6.924532e-03 6.299898e-02 5.081129e-02 -2.143498e-03 5.349840e-02 -2.414075e-02 1.719576e-02 5.571727e-02 3.592288e-03 4.768545e-02 -4.161800e-02 1.721578e-02 -3.067830e-02 -2.310955e-02 -3.512903e-03 1.060297e-02 1.199845e-03 1.913744e-02 -4.427954e-03 7.093708e-03 -1.408546e-02 -2.180285e-02 -7.322665e-03 1.328044e-02
<VARIANCE> 39
 9.845260e+01 4.876668e+01 2.698378e+01 2.708812e+01 4.571169e+01 3.412814e+01 3.743341e+01 2.763866e+01 2.539251e+01 3.104568e+01 2.486187e+01 3.023490e+01 1.161861e+02 2.617693e-01 5.028000e-01 7.039610e-01 1.007107e+00 1.146706e+00 1.436338e+00 1.564448e+00 1.715281e+00 1.889256e+00 1.800521e+00 1.705418e+00 1.294161e+00 1.018711e-01 5.002994e-02 9.578750e-02 1.422292e-01 1.680748e-01 2.246880e-01 2.927657e-01 2.905931e-01 3.228871e-01 3.812597e-01 3.802688e-01 3.637739e-01 2.564792e-01 2.000616e-02
<GCONST> 9.555910e+01
<TRANSP> 5
 0.000000e+00 1.000000e+00 0.000000e+00 0.000000e+00 0.000000e+00
 0.000000e+00 6.467113e-03 9.935329e-01 0.000000e+00 0.000000e+00
 0.000000e+00 0.000000e+00 2.992616e-01 7.007384e-01 0.000000e+00
 0.000000e+00 0.000000e+00 0.000000e+00 8.881919e-01 1.118081e-01
 0.000000e+00 0.000000e+00 0.000000e+00 0.000000e+00 0.000000e+00
<ENDHMM>
~h "l"
<BEGINHMM>
<NUMSTATES> 5
<STATE> 2
<MEAN> 39
 -5.753115e+00 7.856748e+00 3.015980e+00 8.746859e+00 6.834881e-01 4.088242e-01 4.885234e+00 -2.413517e+00 2.930207e+00 -5.774738e+00 -2.029956e+00 -5.361330e+00 5.665759e+01 -4.915715e-01 -4.756875e-02 1.254503e-01 1.452982e-01 1.450484e-01 3.453238e-01 2.132791e-01 3.941756e-01 3.569579e-01 3.716068e-02 -1.551294e-02 -4.708743e-02 -4.084907e-01 -1.955195e-02 -9.397248e-02 -3.978971e-02 9.292223e-03 3.042080e-02 -1.008696e-02 -1.636183e-02 -7.035974e-02 -4.872476e-02 5.797933e-02 6.207252e-02 2.151508e-02 8.850601e-03
<VARIANCE> 39
 2.633469e+01 3.506268e+01 3.273877e+01 6.288065e+01 5.126159e+01 3.912999e+01 3.503462e+01 4.521186e+01 3.209797e+01 2.821716e+01 1.709542e+01 3.810984e+01 2.588384e+01 5.685658e-01 1.082763e+00 1.626804e+00 1.538973e+00 1.489890e+00 1.711034e+00 1.664153e+00 2.041946e+00 1.945935e+00 1.672749e+00 1.067921e+00 1.037415e+00 2.102102e-01 6.066093e-02 1.433639e-01 2.098601e-01 2.397373e-01 2.306169e-01 3.085913e-01 3.106626e-01 3.540993e-01 3.403065e-01 2.826688e-01 1.709624e-01 1.897442e-01 2.553604e-02
<GCONST> 9.794107e+01
<STATE> 3
<MEAN> 39
 -1.358308e+01 8.913524e-01 -1.113183e+00 6.537195e+00 -5.659932e+00 -2.705120e+00 5.255564e+00 -3.986555e+00 2.510776e+00 4.503197e-01 -5.818785e-01 2.222861e+00 5.379257e+01 -1.058335e-01 -3.773854e-02 -4.934081e-02 8.480259e-03 4.060305e-02 4.653198e-02 4.340610e-02 6.276082e-02 7.849323e-02 4.391400e-02 7.069103e-02 3.801110e-02 -1.172176e-01 1.772996e-02 6.296195e-03 2.819421e-02 1.770290e-02 6.415052e-03 9.659822e-03 3.278698e-03 -5.627763e-03 -1.603425e-02 -2.024056e-02 -2.647841e-02 -3.492884e-02 1.646950e-02
<VARIANCE> 39
 1.174558e+01 2.053461e+01 8.974673e+00 9.842512e+00 1.985985e+01 1.508398e+01 1.670198e+01 1.782009e+01 1.565317e+01 1.622657e+01 1.400360e+01 1.707434e+01 1.347458e+01 3.029491e-01 6.708410e-01 5.965914e-01 7.067838e-01 9.272491e-01 1.146685e+00 1.583327e+00 1.558541e+00 1.447454e+00 1.521658e+00 1.407649e+00 1.263817e+00 2.296758e-01 5.409935e-02 1.111710e-01 9.818894e-02 1.351715e-01 1.703760e-01 2.251497e-01 3.366913e-01 3.130753e-01 2.925315e-01 3.462622e-01 2.883633e-01 2.259447e-01 3.830484e-02
<GCONST> 8.183010e+01
<STATE> 4
<MEAN> 39
 -1.206417e+01 3.314595e+00 5.545521e-01 9.908058e+00 4.074433e+00 4.892327e+00 5.752127e+00 6.939502e-02 4.374720e+00 -6.111848e+00 5.409489e-01 -5.121550e+00 5.000416e+01 -3.263531e-02 -1.337315e-02 4.162202e-03 3.149134e-02 4.647903e-03 3.273384e-02 1.511823e-02 3.860008e-02 -1.093270e-02 -1.823880e-02 2.956919e-04 -1.769782e-02 -8.721834e-02 -6.668497e-04 -1.110224e-02 -8.089744e-03 -1.122324e-02 -7.987269e-03 -1.048968e-02 -9.265140e-03 -1.594270e-02 -7.127877e-03 1.054228e-02 4.166252e-03 1.025809e-02 6.826072e-03
<VARIANCE> 39
 8.311425e+01 8.234946e+00 1.318557e+01 2.004050e+01 1.267945e+01 1.314645e+01 1.391050e+01 1.961340e+01 1.488397e+01 1.490259e+01 1.586684e+01 1.312611e+01 8.012078e+01 1.233135e-01 2.568716e-01 4.523176e-01 5.478695e-01 8.478147e-01 1.021840e+00 1.189423e+00 1.347685e+00 1.178991e+00 1.142804e+00 1.077485e+00 9.795235e-01 3.837783e-02 2.219487e-02 5.054102e-02 9.050745e-02 1.046695e-01 1.661302e-01 1.990010e-01 2.396564e-01 2.720571e-01 2.622246e-01 2.250164e-01 2.096265e-01 1.940439e-01 7.311408e-03
<GCONST> 7.366234e+01
<TRANSP> 5
 0.000000e+00 1.000000e+00 0.000000e+00 0.000000e+00 0.000000e+00
 0.000000e+00 8.195619e-01 1.804381e-01 0.000000e+00 0.000000e+00
 0.000000e+00 0.000000e+00 9.208266e-01 7.917333e-02 0.000000e+00
 0.000000e+00 0.000000e+00 0.000000e+00 9.636056e-01 3.639436e-02
 0.000000e+00 0.000000e+00 0.000000e+00 0.000000e+00 0.000000e+00
<ENDHMM>
~h "m"
<BEGINHMM>
<NUMSTATES> 5
<STATE> 2
<MEAN> 39
 3.827727e+00 1.193122e+01 5.748205e+00 7.979335e+00 -6.008886e+00 -8.445706e+00 -2.111328e+00 -8.158818e+00 -3.501364e+00 -7.688145e+00 -6.549880e+00 -3.661540e-01 6.442513e+01 5.009056e-03 1.110579e-01 9.307007e-02 6.758481e-02 1.623444e-02 5.865510e-02 -4.792715e-03 1.238834e-03 -2.755378e-02 -8.044381e-02 -5.726170e-02 1.956631e-02 -2.506568e-02 -2.069601e-02 -2.277889e-02 -1.432729e-02 6.143647e-04 3.832171e-02 3.059977e-02 2.012978e-02 -8.370911e-03 -1.789472e-02 -5.512152e-04 2.699096e-02 1.781584e-02 -5.794680e-03
<VARIANCE> 39
 4.418740e+01 3.075366e+01 5.354031e+01 4.053667e+01 4.308247e+01 3.575726e+01 5.830039e+01 2.623392e+01 3.788738e+01 2.356204e+01 2.038032e+01 3.523437e+01 1.321368e+01 1.367161e+00 1.091029e+00 1.770576e+00 1.608254e+00 1.694450e+00 2.002025e+00 2.913169e+00 1.711440e+00 2.420986e+00 1.295828e+00 1.164132e+00 1.798028e+00 3.074078e-01 1.550251e-01 1.610724e-01 1.853773e-01 1.898916e-01 2.329222e-01 2.668198e-01 3.681303e-01 2.876630e-01 4.046955e-01 1.923152e-01 1.913764e-01 2.603358e-01 3.989367e-02
<GCONST> 1.013415e+02
<STATE> 3
<MEAN> 39
 -6.307774e+00 6.830016e+00 7.480542e+00 1.529106e+01 -6.518446e-01 -6.164210e+00 2.732282e+00 -7.041305e+00 -1.705951e+00 -4.538770e+00 -3.163746e+00 -2.269970e+00 5.962770e+01 -2.107661e-01 -4.793018e-01 -2.153445e-01 3.490115e-02 8.191325e-02 -5.046163e-02 5.115513e-02 1.677272e-01 1.036445e-01 6.310814e-02 3.764857e-02 3.013836e-02 -2.658674e-02 -1.948063e-02 -4.296494e-02 -3.505177e-02 -9.818396e-02 -6.627226e-02 -6.544211e-02 -2.042772e-02 2.732086e-02 2.813360e-02 4.268439e-02 -5.268624e-03 -4.663755e-03 7.317252e-03
<VARIANCE> 39
 3.669721e+01 7.687268e+01 3.223727e+01 2.502432e+01 3.278913e+01 9.592509e+01 5.489454e+01 3.178135e+01 2.694826e+01 3.688864e+01 1.753693e+01 3.052670e+01 1.526619e+01 1.948483e+00 3.708384e+00 1.953891e+00 2.010221e+00 1.945285e+00 3.680687e+00 2.934385e+00 2.071095e+00 1.830459e+00 2.641086e+00 1.845869e+00 1.070656e+00 8.282648e-01 2.053462e-01 5.105084e-01 3.032848e-01 3.234672e-01 4.036672e-01 5.467432e-01 4.775163e-01 2.769167e-01 3.260829e-01 4.462073e-01 3.371122e-01 1.650445e-01 1.209396e-01
<GCONST> 1.118905e+02
<STATE> 4
<MEAN> 39
 -1.362846e+01 -1.821813e-01 -1.564894e+00 7.678703e+00 -4.432319e+00 -8.863244e-01 4.620234e+00 -3.685894e+00 3.597736e+00 -1.288354e+00 -1.169536e-01 4.558060e-01 5.303999e+01 -9.250185e-02 -4.828943e-02 -5.853465e-02 -7.862541e-02 -5.760955e-02 -2.372418e-02 3.713513e-02 7.566371e-03 4.420711e-02 7.928200e-02 1.067359e-01 7.906274e-02 -9.975903e-02 3.079205e-02 2.917567e-03 -1.715289e-03 5.592822e-03 1.906055e-02 -2.177484e-03 4.552979e-03 1.190666e-02 1.073309e-02 -8.685287e-03 -2.558163e-02 -2.345250e-02 1.735449e-02
<VARIANCE> 39
 1.473514e+01 3.097043e+01 1.134351e+01 1.891427e+01 4.750470e+01 3.246798e+01 1.511804e+01 1.592445e+01 1.633777e+01 3.077909e+01 1.426357e+01 3.118622e+01 2.903907e+01 2.180300e-01 7.064098e-01 6.738485e-01 6.047302e-01 8.964255e-01 1.110716e+00 1.577974e+00 1.290249e+00 1.567470e+00 1.532409e+00 1.259085e+00 9.741333e-01 2.221048e-01 4.772540e-02 1.375179e-01 1.336348e-01 1.064493e-01 1.738960e-01 2.218882e-01 3.174827e-01 2.583319e-01 3.170693e-01 3.266603e-01 2.685858e-01 1.852127e-01 4.615086e-02
<GCONST> 8.581574e+01
<TRANSP> 5
 0.000000e+00 1.000000e+00 0.000000e+00 0.000000e+00 0.000000e+00
 0.000000e+00 9.447709e-01 5.522909e-02 0.000000e+00 0.000000e+00
 0.000000e+00 0.000000e+00 9.010735e-01 9.892648e-02 0.000000e+00
 0.000000e+00 0.000000e+00 0.000000e+00 9.334128e-01 6.658716e-02
 0.000000e+00 0.000000e+00 0.000000e+00 0.000000e+00 0.000000e+00
<ENDHMM>
~h "n"
<BEGINHMM>
<NUMSTATES> 5
<STATE> 2
<MEAN> 39
 -1.183557e+00 2.793861e+00 2.105004e+00 4.424243e+00 -6.499272e-02 -5.242329e+00 -1.838712e+00 -5.311436e+00 -1.799400e+00 -2.125245e+00 -2.937735e+00 -2.209829e+00 5.731167e+01 1.196156e-01 1.100401e+00 7.709815e-01 6.112644e-01 -9.202491e-02 2.667852e-01 -1.480631e-01 -4.438575e-01 -2.596920e-01 -1.070749e-01 -3.494788e-01 -4.076680e-01 -4.798511e-01 -5.411534e-03 -8.448222e-02 -6.088197e-02 6.848811e-02 -3.863916e-02 1.629974e-01 4.466196e-03 1.017969e-01 2.727467e-02 -7.070273e-02 7.162149e-02 -5.469773e-02 -2.479698e-03
<VARIANCE> 39
 5.262919e+01 8.016531e+01 1.061258e+02 1.109826e+02 1.396529e+02 1.066015e+02 1.216255e+02 6.741654e+01 7.197007e+01 6.986462e+01 4.672340e+01 6.059719e+01 1.019163e+02 2.243915e+00 2.393248e+00 2.757752e+00 3.794232e+00 4.499851e+00 5.749859e+00 5.261556e+00 4.424263e+00 4.215917e+00 4.077427e+00 2.909577e+00 2.448387e+00 1.778723e+00 1.867494e-01 3.465650e-01 4.800994e-01 5.771227e-01 6.723411e-01 8.370394e-01 8.191634e-01 7.694034e-01 7.183259e-01 5.894123e-01 5.532458e-01 4.633677e-01 1.520089e-01
<GCONST> 1.357652e+02
<STATE> 3
<MEAN> 39
 1.905282e+00 8.761522e+00 3.382622e+00 1.103037e+01 2.914968e-01 -7.225895e+00 -5.839419e+00 -9.467136e+00 -1.578551e+00 -5.136178e+00 -6.116883e+00 -2.763149e+00 6.110061e+01 -3.085670e-01 3.104789e-01 2.637414e-01 1.343789e-01 -3.060887e-01 8.098651e-01 5.359309e-01 2.545114e-01 6.011574e-02 -1.789836e-01 3.746276e-02 -2.318947e-01 -4.084510e-01 -1.270776e-01 -2.910374e-01 -1.065229e-01 -8.717292e-02 -8.033882e-03 -7.958620e-02 1.020425e-01 1.642848e-01 1.542539e-02 5.802464e-02 1.646729e-01 1.254694e-01 5.316999e-02
<VARIANCE> 39
 3.891957e+01 4.511255e+01 3.181613e+01 3.437310e+01 6.320749e+01 6.122617e+01 7.302161e+01 3.748579e+01 3.904502e+01 3.121033e+01 3.607068e+01 4.614272e+01 5.781661e+01 1.016771e+00 1.780978e+00 1.540176e+00 1.855929e+00 1.864074e+00 3.730380e+00 3.967177e+00 2.757706e+00 2.759014e+00 2.126822e+00 2.130749e+00 3.607034e+00 8.160675e-01 1.431211e-01 3.192795e-01 2.301641e-01 3.071692e-01 3.223521e-01 6.596771e-01 6.711196e-01 4.424144e-01 4.825507e-01 4.009328e-01 3.790393e-01 6.320143e-01 1.209970e-01
<GCONST> 1.168011e+02
<STATE> 4
<MEAN> 39
 -5.223523e+00 1.606665e+00 2.955750e+00 8.227348e+00 -3.231463e+00 -5.159897e-01 -1.142345e+00 -4.392447e+00 -3.767282e-01 -4.951979e+00 -1.971548e+00 -1.624832e+00 5.002904e+01 -7.314123e-01 -6.342244e-01 -3.330077e-01 -1.368717e-01 -6.747616e-03 4.402816e-01 5.718207e-01 4.756459e-01 2.499415e-01 1.924726e-01 4.810883e-01 2.914959e-01 -3.642517e-01 9.302262e-03 -2.673395e-01 -1.138840e-01 -1.795195e-01 -8.033760e-03 -2.363429e-01 -1.036876e-01 -4.615730e-02 3.280771e-04 1.032646e-01 3.405873e-02 6.841195e-02 2.033796e-01
<VARIANCE> 39
 4.998307e+01 1.223367e+02 3.709659e+01 4.318583e+01 9.030365e+01 4.278088e+01 6.221358e+01 3.687243e+01 3.669904e+01 3.503111e+01 3.381713e+01 2.989068e+01 1.217636e+02 1.143551e+00 2.010028e+00 1.778266e+00 2.110067e+00 2.339346e+00 2.602856e+00 2.525893e+00 2.300251e+00 2.762790e+00 2.245558e+00 2.217238e+00 2.005828e+00 7.513972e-01 2.272151e-01 4.649073e-01 3.352022e-01 4.254926e-01 5.605342e-01 5.524948e-01 5.316230e-01 5.366812e-01 4.757249e-01 4.676371e-01 4.397739e-01 3.691717e-01 1.853053e-01
<GCONST> 1.197757e+02
<TRANSP> 5
 0.000000e+00 1.000000e+00 0.000000e+00 0.000000e+00 0.000000e+00
 0.000000e+00 5.996068e-01 4.003932e-01 0.000000e+00 0.000000e+00
 0.000000e+00 0.000000e+00 6.458576e-01 3.541423e-01 0.000000e+00
 0.000000e+00 0.000000e+00 0.000000e+00 6.431680e-01 3.568320e-01
 0.000000e+00 0.000000e+00 0.000000e+00 0.000000e+00 0.000000e+00
<ENDHMM>
~h "r"
<BEGINHMM>
<NUMSTATES> 5
<STATE> 2
<MEAN> 39
 5.508906e+00 9.739531e-01 -6.673510e+00 2.681152e+00 -1.607534e+00 -7.046909e+00 -5.058037e+00 -5.814110e+00 -6.335459e+00 -4.253003e+00 -4.259511e-01 -2.202878e+00 6.138167e+01 -4.209740e-02 3.731738e-01 -4.388334e-01 5.371177e-02 6.173292e-01 4.212154e-01 -1.074478e-01 -2.201426e-01 -1.769720e-01 1.094817e-01 1.329275e-01 8.955766e-02 -3.876466e-01 -1.542097e-01 2.888597e-02 2.440640e-01 -3.598089e-03 -7.187930e-02 -4.649750e-02 -3.478626e-02 4.664942e-02 1.491542e-01 5.639794e-02 -3.382960e-02 1.601038e-02 -2.943561e-02
<VARIANCE> 39
 4.862051e+01 9.901134e+01 7.464539e+01 1.043586e+02 1.161679e+02 8.224798e+01 1.303477e+02 1.109251e+02 9.401727e+01 6.295342e+01 5.206940e+01 5.112809e+01 6.543935e+01 7.934201e-01 1.591104e+00 2.970237e+00 2.720527e+00 3.311102e+00 3.534404e+00 4.667408e+00 4.411620e+00 3.720142e+00 2.544110e+00 2.600714e+00 1.980013e+00 6.642504e-01 8.895463e-02 2.467391e-01 3.513902e-01 3.816316e-01 5.026088e-01 5.623078e-01 8.213769e-01 7.493408e-01 5.150006e-01 4.722291e-01 4.313055e-01 3.988598e-01 7.734462e-02
<GCONST> 1.265887e+02
<STATE> 3
<MEAN> 39
 2.251070e+00 4.798776e+00 -1.743161e+00 1.034459e+01 3.220303e+00 -1.159631e+01 -6.862847e+00 -1.273391e+01 -1.052019e+01 -3.445332e+00 2.915521e-01 -3.538935e+00 6.434545e+01 -1.866592e-01 1.218189e-01 2.549997e-01 1.531600e-02 5.010468e-02 -1.869461e-01 4.717633e-02 4.233766e-01 2.689990e-01 4.714645e-03 -1.810736e-01 -7.912023e-02 -1.029282e-01 -4.557358e-02 8.044796e-03 7.675098e-02 -2.453554e-02 -7.955261e-02 6.030871e-02 9.034261e-02 6.444683e-02 8.723329e-02 -6.064307e-02 -8.846998e-02 -1.601940e-02 -2.406925e-02
<VARIANCE> 39
 2.998775e+01 5.823799e+01 7.236856e+01 1.075175e+02 1.053627e+02 9.529998e+01 1.010649e+02 5.061403e+01 5.823972e+01 4.268075e+01 4.775568e+01 5.271416e+01 3.658367e+01 2.616726e-01 5.639904e-01 1.160011e+00 1.616039e+00 1.325542e+00 2.047309e+00 1.778385e+00 1.810135e+00 1.894809e+00 1.566950e+00 1.482017e+00 1.282972e+00 1.568382e-01 3.076725e-02 7.870025e-02 1.345278e-01 1.631756e-01 1.606145e-01 2.405041e-01 2.329263e-01 2.909683e-01 2.778220e-01 2.179290e-01 2.608979e-01 2.078291e-01 1.669819e-02
<GCONST> 1.002669e+02
<STATE> 4
<MEAN> 39
 3.217558e-01 -5.188080e+00 -3.111817e+00 -7.352004e-02 -4.477728e+00 -3.252565e+00 -2.204072e+00 -2.125987e-01 -3.243015e-02 -3.488564e+00 -1.649698e+00 -1.782820e+00 5.180761e+01 -3.932866e-01 2.294980e-01 2.927519e-01 5.819927e-02 9.802391e-02 4.590659e-01 2.043644e-01 -2.403079e-02 1.646891e-01 -6.855421e-02 -7.360563e-02 -2.180146e-02 -3.971750e-01 -2.855372e-02 6.785403e-03 6.057753e-03 -9.970495e-03 -1.605024e-02 5.982568e-02 1.159467e-02 -2.417311e-02 -1.319962e-02 1.444484e-03 3.990975e-02 1.423645e-02 -1.865629e-02
<VARIANCE> 39
 2.950079e+01 1.095664e+02 1.049172e+02 1.093172e+02 9.901808e+01 8.333449e+01 9.953504e+01 7.440581e+01 7.320957e+01 4.633677e+01 3.378229e+01 3.563630e+01 1.181472e+02 3.882231e-01 9.749175e-01 1.100585e+00 1.435161e+00 1.560934e+00 2.152923e+00 2.388217e+00 2.239182e+00 2.328916e+00 1.968085e+00 1.925123e+00 1.530237e+00 3.253879e-01 5.855267e-02 1.431724e-01 1.702108e-01 1.892418e-01 2.600876e-01 3.567075e-01 3.457178e-01 3.464910e-01 3.901031e-01 3.523376e-01 3.237459e-01 2.970004e-01 3.453296e-02
<GCONST> 1.104739e+02
<TRANSP> 5
 0.000000e+00 1.000000e+00 0.000000e+00 0.000000e+00 0.000000e+00
 0.000000e+00 6.708134e-01 3.291866e-01 0.000000e+00 0.000000e+00
 0.000000e+00 0.000000e+00 8.027545e-01 1.972455e-01 0.000000e+00
 0.000000e+00 0.000000e+00 0.000000e+00 8.041386e-01 1.958614e-01
 0.000000e+00 0.000000e+00 0.000000e+00 0.000000e+00 0.000000e+00
<ENDHMM>
~h "s"
<BEGINHMM>
<NUMSTATES> 5
<STATE> 2
<MEAN> 39
 -1.261026e+01 -1.222298e+00 1.148556e+00 1.778188e+00 -1.259015e-01 3.641602e-02 -6.770309e-01 -4.846310e+00 -7.569819e-01 -2.416462e+00 5.155029e-01 -1.448626e+00 5.548981e+01 -1.123225e+00 -6.928315e-01 9.062567e-01 -6.835883e-01 -6.753474e-02 2.089845e-02 5.521042e-01 -3.745021e-01 6.784191e-01 9.643424e-02 3.516791e-01 4.606589e-02 1.026421e+00 -2.221680e-01 -8.010768e-03 3.751611e-02 -1.210861e-01 3.779760e-02 -8.470969e-02 1.404175e-01 5.288742e-02 4.255060e-02 -2.350692e-02 7.266785e-02 3.076720e-02 1.154626e-01
<VARIANCE> 39
 9.882128e+01 7.045953e+01 1.265376e+02 1.157538e+02 1.793594e+02 1.362464e+02 1.668258e+02 8.880403e+01 6.507137e+01 7.666541e+01 4.147327e+01 8.495797e+01 2.067034e+02 6.454533e+00 4.393237e+00 8.496451e+00 6.810236e+00 5.301593e+00 8.015976e+00 5.852631e+00 4.152790e+00 4.567850e+00 4.228907e+00 3.367703e+00 3.284647e+00 3.274016e+00 6.450999e-01 6.307945e-01 1.078378e+00 9.480721e-01 8.133247e-01 1.101886e+00 9.300172e-01 7.369052e-01 7.361606e-01 6.793265e-01 6.591950e-01 5.902316e-01 4.853994e-01
<GCONST> 1.490076e+02
<STATE> 3
<MEAN> 39
 -1.970325e+01 5.111661e-01 3.750670e+00 4.468251e+00 -1.580368e+00 -9.466868e-01 6.416325e+00 -5.363116e+00 4.569442e+00 -1.814681e+00 3.593385e+00 -1.385576e+00 5.846912e+01 -9.466614e-01 -3.272916e-01 3.540429e-01 -5.162497e-01 -1.786268e-01 -1.590345e-01 2.902582e-01 2.483802e-01 1.145966e-01 -5.976219e-02 2.058222e-01 2.431579e-01 5.173534e-01 3.655381e-01 1.185186e-01 -2.065569e-01 9.989482e-02 6.325178e-02 3.739452e-02 -2.746346e-01 7.936303e-02 -2.184201e-01 -1.490086e-01 -2.178857e-01 -4.963625e-02 -1.874249e-01
<VARIANCE> 39
 7.641517e+01 9.258938e+01 1.732150e+02 9.791537e+01 1.025664e+02 9.598245e+01 8.025258e+01 7.076573e+01 6.160190e+01 4.880714e+01 4.059381e+01 4.905972e+01 1.173905e+02 3.218633e+00 2.609499e+00 3.009843e+00 3.560191e+00 2.708705e+00 2.782634e+00 3.254838e+00 3.093384e+00 2.218166e+00 1.849698e+00 2.520299e+00 1.713631e+00 1.177374e+00 4.290377e-01 3.067347e-01 6.388328e-01 7.777789e-01 6.367767e-01 5.184548e-01 7.343364e-01 6.188945e-01 5.412931e-01 3.745283e-01 3.709574e-01 3.417815e-01 1.860675e-01
<GCONST> 1.303902e+02
<STATE> 4
<MEAN> 39
 -2.373663e+01 -1.973627e+00 5.052621e+00 -2.050286e+00 5.888590e-01 -1.233119e+00 4.892372e+00 -5.283914e+00 3.836584e+00 -1.758892e+00 1.732825e+00 -2.596617e-01 5.747685e+01 5.523278e-02 -1.197101e-01 -1.766736e-01 4.725044e-02 -8.214548e-02 5.835418e-02 -9.472600e-02 7.572174e-02 -2.112579e-02 -9.949343e-02 -1.412098e-01 1.847414e-02 -1.322807e-01 3.015751e-01 1.575186e-03 -7.564840e-02 1.236536e-01 -3.348627e-02 -3.937912e-02 -1.189082e-01 -9.023964e-02 -1.049663e-01 -1.953300e-02 -9.328564e-02 -1.784182e-02 -6.458420e-02
<VARIANCE> 39
 6.617519e+01 9.254134e+01 1.904444e+02 1.083233e+02 9.379270e+01 8.854130e+01 7.085506e+01 4.881063e+01 4.800306e+01 4.636262e+01 3.615263e+01 4.228746e+01 1.371609e+02 1.047050e+00 1.091391e+00 1.543189e+00 1.666344e+00 1.676202e+00 2.018401e+00 2.193784e+00 2.260476e+00 1.997387e+00 1.748044e+00 1.550959e+00 1.331352e+00 7.187555e-01 2.004707e-01 2.374839e-01 2.307963e-01 2.724353e-01 2.959777e-01 3.683524e-01 3.832803e-01 4.235154e-01 3.882990e-01 3.215418e-01 3.008013e-01 2.527010e-01 8.564916e-02
<GCONST> 1.160485e+02
<TRANSP> 5
 0.000000e+00 1.000000e+00 0.000000e+00 0.000000e+00 0.000000e+00
 0.000000e+00 7.177075e-01 2.822925e-01 0.000000e+00 0.000000e+00
 0.000000e+00 0.000000e+00 4.777096e-01 5.222905e-01 0.000000e+00
 0.000000e+00 0.000000e+00 0.000000e+00 7.874786e-01 2.125214e-01
 0.000000e+00 0.000000e+00 0.000000e+00 0.000000e+00 0.000000e+00
<ENDHMM>
~h "t"
<BEGINHMM>
<NUMSTATES> 5
<STATE> 2
<MEAN> 39
 -3.629644e+00 1.483764e+00 1.126418e+00 1.041508e+01 3.453086e+00 -6.945710e+00 -1.774377e+00 -8.692715e+00 -3.176579e+00 -3.415609e+00 -2.411223e-01 -3.925290e+00 6.230260e+01 8.005002e-01 4.521423e-01 -7.970484e-01 -4.095900e-01 -3.491052e-01 -3.019502e-01 -3.094338e-01 -1.362778e-01 -4.752746e-01 -3.876664e-01 2.938226e-01 2.116884e-01 5.171475e-02 -4.246989e-01 -3.044067e-01 -9.443785e-02 -2.989784e-01 -2.614891e-01 1.441312e-01 3.267080e-01 2.890697e-01 2.174623e-01 9.795489e-02 8.665916e-02 9.163976e-02 -1.336377e-01
<VARIANCE> 39
 7.009296e+01 7.321890e+01 6.184309e+01 7.439867e+01 1.107700e+02 1.013921e+02 1.068748e+02 8.512493e+01 8.299362e+01 6.359866e+01 5.040656e+01 7.246650e+01 1.009091e+02 2.122569e+00 3.714400e+00 2.633882e+00 2.470112e+00 1.876449e+00 5.165077e+00 4.122456e+00 3.406375e+00 5.248818e+00 3.519261e+00 2.822542e+00 2.189260e+00 1.227975e+00 4.351752e-01 6.750271e-01 5.186724e-01 4.149848e-01 4.778862e-01 5.328303e-01 6.350269e-01 7.950882e-01 5.412124e-01 5.882555e-01 6.008101e-01 4.408343e-01 2.725576e-01
<GCONST> 1.336940e+02
<STATE> 3
<MEAN> 39
 -4.321133e+00 1.033582e+00 2.470502e-01 9.415891e+00 1.401973e+00 -8.470364e+00 -2.255420e+00 -8.163145e+00 -3.524196e+00 -2.904691e+00 2.516871e-01 -2.573918e+00 6.151148e+01 1.453072e-01 1.127083e-01 -6.160461e-01 -5.272476e-01 -4.569719e-01 4.471508e-02 3.523674e-01 3.637889e-01 -3.181681e-02 -2.237804e-01 6.445938e-02 2.324024e-01 -2.964005e-01 -2.784666e-01 -9.411719e-02 8.784473e-02 -6.477373e-02 -8.775638e-02 2.430313e-01 2.094242e-01 1.356421e-01 1.635238e-01 3.853434e-02 -3.827418e-02 -2.243513e-02 -1.414273e-01
<VARIANCE> 39
 7.841311e+01 6.176730e+01 6.493923e+01 6.877486e+01 1.039613e+02 1.143138e+02 1.302278e+02 8.111777e+01 1.016134e+02 6.710484e+01 4.628949e+01 5.944592e+01 1.091093e+02 1.388791e+00 1.528142e+00 1.760397e+00 1.745460e+00 2.198792e+00 3.620003e+00 3.024201e+00 2.500795e+00 2.959357e+00 3.309868e+00 2.469007e+00 1.928315e+00 8.558508e-01 2.455397e-01 4.341740e-01 3.352739e-01 2.744674e-01 3.448427e-01 4.224807e-01 4.260276e-01 5.369788e-01 6.687281e-01 5.427873e-01 4.330424e-01 3.116375e-01 1.348455e-01
<GCONST> 1.252686e+02
<STATE> 4
<MEAN> 39
 -2.573183e+00 1.238529e+00 -6.108905e+00 5.757290e-01 -1.392863e+00 -3.738005e+00 4.705985e+00 -2.457317e+00 -2.969017e+00 -5.358343e+00 -1.107111e+00 -1.270311e+00 6.342223e+01 1.188400e-01 5.444461e-02 -1.372434e-01 -1.645157e-01 -3.958087e-01 2.629931e-01 9.858236e-02 4.528182e-01 1.458440e-01 -1.976988e-01 7.323063e-02 -1.098494e-02 -4.190691e-01 -5.648394e-02 3.670748e-02 1.530772e-01 1.064993e-01 5.310612e-02 2.903713e-02 -5.185492e-02 -9.822461e-04 2.557908e-02 9.135053e-02 7.525866e-03 -7.799826e-02 -4.708910e-02
<VARIANCE> 39
 9.430151e+01 1.021319e+02 7.387032e+01 1.004879e+02 8.448562e+01 1.493262e+02 1.041310e+02 6.972594e+01 9.912529e+01 6.355339e+01 5.162565e+01 5.648266e+01 1.924277e+02 1.338812e+00 1.082736e+00 1.377554e+00 1.474510e+00 1.758208e+00 2.750438e+00 2.318876e+00 2.273046e+00 2.395530e+00 2.302016e+00 1.908389e+00 1.834369e+00 7.602297e-01 1.906822e-01 2.168263e-01 2.234738e-01 2.242758e-01 2.504674e-01 5.030437e-01 4.392246e-01 3.067749e-01 5.175453e-01 3.929017e-01 3.376226e-01 2.740739e-01 8.719090e-02
<GCONST> 1.204179e+02
<TRANSP> 5
 0.000000e+00 1.000000e+00 0.000000e+00 0.000000e+00 0.000000e+00
 0.000000e+00 2.444377e-01 7.555623e-01 0.000000e+00 0.000000e+00
 0.000000e+00 0.000000e+00 1.901568e-01 8.098432e-01 0.000000e+00
 0.000000e+00 0.000000e+00 0.000000e+00 6.140868e-01 3.859132e-01
 0.000000e+00 0.000000e+00 0.000000e+00 0.000000e+00 0.000000e+00
<ENDHMM>
~h "v"
<BEGINHMM>
<NUMSTATES> 5
<STATE> 2
<MEAN> 39
 -7.335265e-01 -5.363780e+00 -5.042484e+00 4.544348e-01 -9.808026e-01 -9.445416e+00 -3.846171e+00 -3.854890e+00 -1.660770e+00 -2.458517e+00 1.727932e+00 -2.880095e+00 6.773827e+01 -1.347962e-01 1.852243e-01 4.573352e-01 1.400684e-01 -1.513584e-01 -4.682323e-01 -4.223474e-01 1.941153e-02 -1.324595e-01 -3.133073e-01 1.399624e-01 8.916886e-02 -3.455305e-02 -1.487742e-02 -5.032824e-02 -1.188080e-02 -3.735100e-02 3.604208e-02 5.643449e-02 -3.581285e-02 -1.355381e-02 -2.604909e-02 -2.733790e-02 -8.151934e-02 1.335215e-02 -1.051756e-02
<VARIANCE> 39
 1.162814e+02 1.047313e+02 1.089316e+02 9.076758e+01 2.068798e+02 1.081697e+02 1.110679e+02 9.743301e+01 7.942535e+01 5.477955e+01 8.629681e+01 6.957607e+01 1.091536e+02 7.728303e+00 3.635233e+00 2.679100e+00 5.425419e+00 4.467219e+00 7.989632e+00 4.789365e+00 4.121077e+00 4.112355e+00 4.590563e+00 4.204113e+00 2.587781e+00 3.258379e+00 9.430677e-01 5.315254e-01 4.985563e-01 7.742783e-01 7.060137e-01 1.510156e+00 8.837190e-01 7.158971e-01 7.079550e-01 8.635098e-01 8.565910e-01 3.621604e-01 4.891968e-01
<GCONST> 1.460217e+02
<STATE> 3
<MEAN> 39
 -3.720520e+00 -5.019949e+00 -1.695659e+00 9.334288e-01 -2.085342e+00 -7.878773e+00 -5.396007e+00 -8.709045e+00 -1.035828e+00 -3.005151e+00 -2.537811e+00 -2.802381e+00 6.163065e+01 -2.330145e-01 9.217755e-01 4.130035e-01 5.367922e-01 1.099193e-01 9.819044e-01 1.668309e-01 -8.933176e-02 1.273635e-01 3.485902e-02 -3.691150e-01 -1.730657e-02 -1.384198e+00 -5.672429e-02 1.827624e-01 -5.593794e-02 -1.942753e-03 6.537051e-02 2.227043e-01 1.432795e-01 1.733134e-01 2.075317e-01 3.117320e-02 5.877012e-02 4.280343e-02 -1.397524e-01
<VARIANCE> 39
 1.457615e+02 6.837715e+01 6.051849e+01 1.201676e+02 1.928599e+02 9.835698e+01 1.263772e+02 1.266230e+02 9.265406e+01 1.117330e+02 9.639445e+01 5.861460e+01 1.226479e+02 2.255010e+00 3.198322e+00 2.230242e+00 3.569375e+00 4.376199e+00 5.552289e+00 4.340507e+00 5.188887e+00 4.162529e+00 5.673530e+00 4.375902e+00 2.236239e+00 1.403855e+00 2.753806e-01 3.878924e-01 3.248925e-01 5.575381e-01 6.114490e-01 6.907825e-01 6.939035e-01 7.703339e-01 6.479039e-01 8.667060e-01 7.511649e-01 4.188811e-01 1.894804e-01
<GCONST> 1.393079e+02
<STATE> 4
<MEAN> 39
 -3.620870e+00 -5.309380e+00 1.662791e+00 1.453703e+00 -7.336447e+00 -1.295326e+00 -2.531457e+00 -8.126342e-01 2.404924e+00 -4.344952e+00 -1.226992e+00 7.852015e-01 4.768256e+01 -4.847564e-01 2.621134e-01 2.471390e-02 2.819334e-01 3.337785e-01 3.782711e-01 6.360761e-02 1.702324e-01 2.013603e-01 2.586906e-01 2.912675e-01 1.688670e-01 -5.970531e-01 -5.190855e-03 -2.375085e-01 -4.699818e-02 -7.361262e-02 -7.876104e-02 -1.664167e-01 3.855138e-02 -2.438672e-02 -4.972900e-02 6.929463e-02 2.129330e-02 -3.672872e-02 1.716844e-01
<VARIANCE> 39
 4.838642e+01 1.312477e+02 4.129317e+01 6.078499e+01 1.092466e+02 5.959054e+01 6.421001e+01 4.102479e+01 6.957901e+01 3.713952e+01 3.709891e+01 3.004264e+01 1.137126e+02 1.313175e+00 1.847173e+00 1.933186e+00 2.023584e+00 3.489152e+00 3.183032e+00 2.710614e+00 2.400208e+00 3.564068e+00 2.268076e+00 2.096978e+00 1.892045e+00 9.460531e-01 1.746259e-01 3.013778e-01 2.754981e-01 3.391530e-01 5.926196e-01 4.821632e-01 5.445488e-01 4.864467e-01 5.984586e-01 4.169852e-01 3.984932e-01 3.818274e-01 1.416320e-01
<GCONST> 1.213474e+02
<TRANSP> 5
 0.000000e+00 1.000000e+00 0.000000e+00 0.000000e+00 0.000000e+00
 0.000000e+00 7.931867e-01 2.068133e-01 0.000000e+00 0.000000e+00
 0.000000e+00 0.000000e+00 7.561585e-01 2.438415e-01 0.000000e+00
 0.000000e+00 0.000000e+00 0.000000e+00 8.428590e-01 1.571409e-01
 0.000000e+00 0.000000e+00 0.000000e+00 0.000000e+00 0.000000e+00
<ENDHMM>
~h "w"
<BEGINHMM>
<NUMSTATES> 5
<STATE> 2
<MEAN> 39
 -1.007167e+01 4.663325e+00 -1.277242e+00 7.728050e+00 3.784097e-02 -3.149538e+00 3.721475e-01 -6.709825e+00 -1.875605e+00 -2.797287e+00 9.389890e-01 -2.479651e+00 5.107608e+01 1.745776e+00 9.880867e-01 4.824643e-01 -3.624693e-01 -6.608666e-01 -9.743337e-01 -6.572502e-01 -6.623568e-01 -4.821551e-01 -1.780063e-01 -3.834346e-01 -9.998908e-02 1.049630e+00 3.867749e-01 -4.099117e-02 -1.488073e-01 -2.836043e-01 -2.681719e-01 -2.336204e-01 -1.443995e-01 -4.979683e-02 -6.471114e-02 5.344937e-02 2.008165e-02 -2.815911e-02 2.844274e-01
<VARIANCE> 39
 7.425058e+01 1.165709e+02 6.052865e+01 6.880707e+01 1.055593e+02 1.069293e+02 7.030155e+01 1.018641e+02 5.435086e+01 7.947491e+01 4.429111e+01 3.787706e+01 1.684022e+02 5.530282e+00 7.482199e+00 5.105721e+00 5.029198e+00 7.357474e+00 7.192266e+00 6.573999e+00 5.197855e+00 3.838441e+00 4.010602e+00 3.405246e+00 2.195341e+00 3.555187e+00 7.599361e-01 1.301931e+00 1.022328e+00 9.631206e-01 1.171865e+00 1.065634e+00 1.266782e+00 1.149432e+00 7.983778e-01 7.938771e-01 4.382963e-01 4.454819e-01 5.854799e-01
<GCONST> 1.466373e+02
<STATE> 3
<MEAN> 39
 3.678142e+00 1.249698e+01 1.990682e+00 1.309175e+00 -1.073141e+01 -1.039349e+01 -6.859453e+00 -6.059227e+00 -1.533189e+00 -1.882322e+00 -2.684424e+00 -2.077366e+00 5.538757e+01 1.154172e+00 -6.114892e-01 -1.185834e+00 -1.736751e+00 -1.158441e+00 -9.532583e-01 7.322426e-01 9.976791e-01 4.772388e-01 8.380189e-02 -2.495289e-01 -6.112656e-02 1.314438e+00 -3.128774e-01 -4.764172e-01 -3.529469e-01 -8.504806e-02 4.117305e-01 4.408372e-01 5.128989e-01 2.225234e-01 -5.571168e-02 -1.812736e-01 -2.722799e-03 -7.151586e-03 -1.347845e-03
<VARIANCE> 39
 3.841430e+01 5.254333e+01 3.289985e+01 7.061157e+01 9.175308e+01 1.017724e+02 1.311331e+02 5.645615e+01 6.497733e+01 7.451553e+01 3.712863e+01 4.534312e+01 8.292721e+01 1.099495e+00 2.426676e+00 2.532907e+00 3.106007e+00 3.891995e+00 5.611256e+00 7.203195e+00 5.764369e+00 4.346874e+00 3.567351e+00 1.912249e+00 2.971263e+00 9.794798e-01 2.015264e-01 3.061383e-01 3.507026e-01 3.494868e-01 7.716056e-01 6.101676e-01 9.345490e-01 7.033902e-01 7.243773e-01 6.424543e-01 3.997522e-01 4.836769e-01 9.109583e-02
<GCONST> 1.288714e+02
<STATE> 4
<MEAN> 39
 6.871418e+00 2.148309e+00 -9.826289e+00 -7.969007e+00 -9.870180e+00 -6.365230e+00 1.470194e+00 1.852171e+00 -6.858862e-01 -7.295253e+00 -1.989921e+00 -2.802972e+00 6.236673e+01 -3.315706e-02 -1.490916e+00 -1.185162e+00 -2.709264e-01 1.634441e+00 1.407053e+00 1.924413e-01 -2.768418e-01 -6.834338e-01 -4.868648e-01 5.927804e-01 6.322096e-02 7.494906e-01 -1.705129e-01 1.103685e-01 3.551046e-01 4.585738e-01 1.898556e-01 -5.561732e-02 -4.091244e-01 -3.528222e-01 -1.123339e-02 2.075726e-01 9.817611e-02 -2.858345e-02 -1.776820e-01
<VARIANCE> 39
 3.578523e+01 8.002847e+01 6.425291e+01 1.252397e+02 1.336514e+02 2.405348e+02 1.766456e+02 9.691469e+01 7.679709e+01 4.985578e+01 5.931239e+01 4.722103e+01 7.150370e+01 5.049117e-01 1.689035e+00 1.859466e+00 2.806631e+00 4.135336e+00 3.565750e+00 5.235739e+00 3.791686e+00 3.648814e+00 3.580351e+00 3.189666e+00 3.065689e+00 7.925900e-01 9.214132e-02 2.109146e-01 2.034750e-01 3.112596e-01 5.684571e-01 7.055870e-01 6.980132e-01 5.178131e-01 5.700955e-01 4.893946e-01 4.965628e-01 4.928542e-01 6.598673e-02
<GCONST> 1.269702e+02
<TRANSP> 5
 0.000000e+00 1.000000e+00 0.000000e+00 0.000000e+00 0.000000e+00
 0.000000e+00 7.324019e-01 2.675981e-01 0.000000e+00 0.000000e+00
 0.000000e+00 0.000000e+00 7.424242e-01 2.575758e-01 0.000000e+00
 0.000000e+00 0.000000e+00 0.000000e+00 7.864932e-01 2.135068e-01
 0.000000e+00 0.000000e+00 0.000000e+00 0.000000e+00 0.000000e+00
<ENDHMM>
~h "z"
<BEGINHMM>
<NUMSTATES> 5
<STATE> 2
<MEAN> 39
 -9.186373e+00 8.182645e+00 -1.200924e+00 3.134172e+00 1.131410e+00 -5.089499e+00 -1.401834e+00 -2.490799e+00 -3.771780e+00 -2.893912e+00 -2.330418e-01 -2.236379e+00 4.901783e+01 -5.387090e-02 1.343437e+00 9.639164e-01 -5.259588e-01 -4.908822e-01 -1.133736e+00 -3.268387e-01 -1.115861e+00 1.848382e-02 -8.949399e-01 -2.949927e-01 -1.727393e-01 1.409702e+00 -6.903547e-02 -7.400187e-02 1.818639e-01 -6.994071e-02 -1.277125e-01 9.424251e-02 -2.593420e-02 -1.001378e-01 1.586563e-01 -3.921471e-02 -9.424480e-03 4.511336e-02 1.410341e-01
<VARIANCE> 39
 9.219141e+01 8.214828e+01 7.771515e+01 5.897243e+01 1.872141e+02 1.318269e+02 6.333627e+01 8.877612e+01 9.792829e+01 8.271832e+01 2.733744e+01 4.968745e+01 1.729374e+02 3.817256e+00 3.534858e+00 3.247229e+00 4.046376e+00 7.310086e+00 1.075709e+01 6.178499e+00 4.570108e+00 5.607538e+00 4.469617e+00 2.028731e+00 3.121287e+00 2.433658e+00 6.286039e-01 6.293426e-01 7.682313e-01 7.697626e-01 1.252787e+00 1.576050e+00 1.267938e+00 1.124036e+00 9.782841e-01 6.983362e-01 3.812689e-01 6.629986e-01 4.418688e-01
<GCONST> 1.450034e+02
<STATE> 3
<MEAN> 39
 -1.672715e+01 8.120330e+00 1.035725e+01 7.773664e-01 2.374506e+00 -6.591763e+00 7.140915e-01 -9.185940e+00 -1.205984e+00 -5.132722e+00 -1.024731e+00 2.585115e-01 6.249133e+01 2.655545e-02 -9.571592e-01 1.182279e+00 -2.937005e-01 -5.460194e-01 -2.095085e-01 -4.330463e-01 -1.979126e-01 2.246581e-01 2.318738e-01 -8.193946e-02 4.037977e-01 6.080247e-01 3.972603e-01 -1.198560e-01 -1.175134e-01 1.324569e-01 -1.291764e-01 -7.422810e-02 -2.283444e-01 1.952457e-02 -2.425690e-01 5.685435e-02 6.090957e-02 -5.889586e-02 -1.649038e-02
<VARIANCE> 39
 1.089644e+02 9.257732e+01 1.979135e+02 8.426962e+01 1.063379e+02 2.156470e+02 7.446774e+01 7.549671e+01 7.870337e+01 4.885214e+01 9.998197e+01 6.984628e+01 1.183172e+02 8.437774e+00 2.432751e+00 7.543727e+00 5.747765e+00 4.682521e+00 6.596258e+00 4.691214e+00 4.955641e+00 5.627544e+00 3.028175e+00 3.221471e+00 2.676848e+00 9.087276e-01 8.147140e-01 3.262968e-01 8.814328e-01 7.090901e-01 7.202241e-01 9.439065e-01 7.748640e-01 8.392368e-01 6.673752e-01 5.993013e-01 5.931217e-01 4.811487e-01 1.518434e-01
<GCONST> 1.427679e+02
<STATE> 4
<MEAN> 39
 -6.127678e+00 -4.349748e+00 1.789535e+01 1.177734e+00 -1.052112e+01 -2.796098e+00 -1.473728e+01 -9.195540e+00 -5.642873e+00 -2.836733e+00 -7.144636e-01 8.491121e-01 6.216582e+01 2.372984e+00 -1.486465e+00 -7.821584e-01 9.069834e-01 -7.362975e-01 -1.241835e+00 -1.117060e+00 5.694340e-01 -2.864174e-01 6.192019e-02 4.478652e-01 -3.946112e-01 9.949433e-01 -3.301521e-01 9.545421e-02 -6.954976e-01 9.616712e-02 4.951360e-01 -4.276297e-02 4.122543e-01 3.099224e-01 3.892937e-01 -5.311735e-02 7.299282e-02 -4.914062e-02 -2.168279e-01
<VARIANCE> 39
 7.329505e+01 7.087873e+01 8.702802e+01 9.914263e+01 1.127644e+02 2.702481e+02 1.326534e+02 1.188817e+02 1.633237e+02 5.511597e+01 5.144158e+01 5.461237e+01 9.776690e+01 4.491577e+00 3.310165e+00 1.175385e+01 7.443843e+00 6.978940e+00 9.298882e+00 5.978448e+00 7.020123e+00 5.770003e+00 4.434415e+00 3.750881e+00 2.742707e+00 2.488971e+00 5.947313e-01 5.975227e-01 5.422361e-01 8.091407e-01 7.809933e-01 1.342234e+00 8.658848e-01 9.197665e-01 8.517901e-01 7.983761e-01 4.586409e-01 4.500629e-01 1.621573e-01
<GCONST> 1.466582e+02
<TRANSP> 5
 0.000000e+00 1.000000e+00 0.000000e+00 0.000000e+00 0.000000e+00
 0.000000e+00 7.509632e-01 2.490368e-01 0.000000e+00 0.000000e+00
 0.000000e+00 0.000000e+00 8.643909e-01 1.356091e-01 0.000000e+00
 0.000000e+00 0.000000e+00 0.000000e+00 7.527915e-01 2.472085e-01
 0.000000e+00 0.000000e+00 0.000000e+00 0.000000e+00 0.000000e+00
<ENDHMM>
~h "aa"
<BEGINHMM>
<NUMSTATES> 5
<STATE> 2
<MEAN> 39
 -1.015888e+01 -1.238363e+00 2.922822e+00 4.911476e+00 3.407081e+00 -3.698534e+00 9.497199e+00 -5.538394e+00 -1.543061e+00 -1.003083e+00 5.841917e-01 -5.046203e+00 6.232313e+01 -1.578965e+00 -1.001566e+00 1.771001e+00 -3.288196e-01 8.556153e-03 -4.723938e-01 -1.700791e-01 -7.875713e-01 -3.254986e-01 4.078920e-01 1.604672e-01 -2.393253e-01 9.770626e-01 -1.690956e-02 4.399091e-02 7.119894e-02 7.084954e-02 1.297324e-02 -6.731597e-02 -1.522284e-01 2.085385e-02 3.406897e-02 -4.855280e-02 7.603767e-02 -5.736504e-02 3.072489e-02
<VARIANCE> 39
 1.219243e+02 7.091404e+01 1.188789e+02 7.246664e+01 6.295254e+01 9.108790e+01 1.191524e+02 8.563441e+01 4.450143e+01 6.292174e+01 4.418703e+01 4.233054e+01 9.272151e+01 5.813676e+00 5.373597e+00 6.368267e+00 8.251417e+00 6.007277e+00 6.999613e+00 6.369357e+00 9.426131e+00 5.037327e+00 5.547770e+00 3.595232e+00 2.444790e+00 5.044121e+00 9.170203e-01 8.906974e-01 9.782234e-01 1.454239e+00 8.891416e-01 1.122812e+00 8.857825e-01 1.650084e+00 9.931068e-01 9.315661e-01 6.243306e-01 4.051697e-01 9.082929e-01
<GCONST> 1.490277e+02
<STATE> 3
<MEAN> 39
 -1.889500e+01 -8.927714e+00 1.097365e+01 3.231671e+00 -1.529932e-01 -6.040467e+00 5.483613e+00 -7.131907e+00 -2.069250e+00 1.697959e+00 3.314849e+00 -2.794809e+00 6.493935e+01 8.980218e-01 2.543321e-01 -2.310783e-01 1.055671e+00 2.764648e-01 -2.268894e-03 -8.108627e-01 -1.243197e-01 -7.613245e-01 3.783609e-01 -9.237094e-02 -1.474153e-01 -7.325798e-01 5.238388e-01 3.624299e-01 -3.501592e-01 1.909860e-01 -9.280540e-02 6.793404e-02 -4.567493e-02 -4.447459e-02 -7.560269e-02 -1.370156e-01 -6.749646e-02 -1.443319e-01 -1.958914e-01
<VARIANCE> 39
 9.594288e+01 4.906753e+01 4.932059e+01 6.658099e+01 9.088827e+01 6.103976e+01 6.522347e+01 5.170714e+01 4.628188e+01 5.272665e+01 3.404973e+01 4.571833e+01 3.352744e+01 4.709977e+00 3.085330e+00 2.895956e+00 2.182473e+00 2.236762e+00 3.397441e+00 3.007191e+00 2.203541e+00 2.559930e+00 2.122170e+00 2.287539e+00 1.685703e+00 1.067985e+00 4.872384e-01 3.805296e-01 6.001114e-01 4.921691e-01 3.843235e-01 6.216249e-01 4.819247e-01 5.154614e-01 7.444538e-01 4.635724e-01 4.480605e-01 3.248103e-01 2.095868e-01
<GCONST> 1.249022e+02
<STATE> 4
<MEAN> 39
 -5.330444e+00 -1.488210e-01 1.742789e+00 1.016398e+01 3.535980e+00 -5.478891e+00 1.379219e+00 -8.714980e+00 -7.825662e+00 -1.408112e+00 3.315832e+00 -6.986716e+00 6.146555e+01 9.515899e-01 1.054593e+00 -1.266380e+00 -2.213728e-01 -3.920427e-01 5.319731e-01 5.104835e-01 4.758596e-01 3.111317e-01 -8.472537e-01 1.602603e-01 2.661503e-01 -5.183399e-01 -4.290479e-01 -9.899186e-02 1.371689e-01 -2.971967e-01 1.875525e-02 3.295996e-02 1.315176e-01 2.550355e-01 5.466369e-01 2.201743e-02 -1.958468e-01 2.127446e-01 -2.101790e-02
<VARIANCE> 39
 7.592927e+01 8.232619e+01 3.971692e+01 3.510715e+01 7.346928e+01 6.390168e+01 5.106023e+01 4.458269e+01 5.608762e+01 5.719553e+01 4.554575e+01 8.713393e+01 7.360020e+01 3.368317e+00 3.500219e+00 3.192609e+00 3.867040e+00 2.181713e+00 4.149090e+00 3.035345e+00 3.371601e+00 8.613855e+00 3.347061e+00 2.778824e+00 2.620649e+00 1.502610e+00 3.109859e-01 6.865893e-01 5.892791e-01 4.784748e-01 3.791939e-01 7.000341e-01 6.403500e-01 4.871458e-01 1.212084e+00 4.409980e-01 4.101483e-01 4.449025e-01 2.354161e-01
<GCONST> 1.306888e+02
<TRANSP> 5
 0.000000e+00 1.000000e+00 0.000000e+00 0.000000e+00 0.000000e+00
 0.000000e+00 7.786940e-01 2.213059e-01 0.000000e+00 0.000000e+00
 0.000000e+00 0.000000e+00 7.514325e-01 2.485675e-01 0.000000e+00
 0.000000e+00 0.000000e+00 0.000000e+00 7.001614e-01 2.998386e-01
 0.000000e+00 0.000000e+00 0.000000e+00 0.000000e+00 0.000000e+00
<ENDHMM>
~h "ae"
<BEGINHMM>
<NUMSTATES> 5
<STATE> 2
<MEAN> 39
 -1.212972e+01 -1.326316e+01 2.625375e+00 7.827306e+00 1.100805e+01 -1.213608e+01 2.801961e+00 -4.508872e+00 -3.546680e+00 -7.515938e+00 3.114898e+00 -3.657958e-01 6.564219e+01 -7.271234e-01 -5.374660e-01 6.463753e-01 4.047066e-01 3.813191e-01 -2.967441e-01 -6.119893e-01 2.327613e-01 -1.567668e-02 -2.525313e-01 5.190472e-03 -7.259289e-02 5.350586e-02 1.290789e-01 3.735438e-02 -2.636503e-01 -1.366128e-01 1.261597e-01 -1.066637e-01 -3.573989e-02 -1.027994e-01 2.125427e-01 1.067804e-01 -2.215445e-01 7.592496e-02 4.638831e-02
<VARIANCE> 39
 1.496524e+02 1.337794e+02 6.198786e+01 3.047279e+01 6.314247e+01 5.539872e+01 8.119955e+01 4.318602e+01 7.601215e+01 2.608545e+01 2.775732e+01 3.469111e+01 1.871971e+01 1.418804e+01 9.542072e+00 8.498712e+00 3.797641e+00 3.180891e+00 4.717304e+00 3.538252e+00 4.670366e+00 8.112627e+00 2.689053e+00 3.246343e+00 1.921925e+00 1.867186e+00 1.573835e+00 8.541814e-01 1.143800e+00 7.474070e-01 4.371331e-01 1.136434e+00 7.499704e-01 7.791141e-01 1.453218e+00 4.993117e-01 4.643086e-01 3.838413e-01 4.428083e-01
<GCONST> 1.383154e+02
<STATE> 3
<MEAN> 39
 -6.028160e+00 -6.042188e+00 2.678795e+00 1.614433e+01 1.810302e+00 -1.228406e+01 -7.701313e+00 -7.038184e+00 7.562164e+00 -2.614094e+00 -8.303193e+00 -7.970346e-01 6.454173e+01 5.566032e-02 2.983969e-01 -3.118096e-01 -7.643565e-01 -3.088928e-01 6.409085e-02 1.434338e-01 1.058516e-01 1.046985e-01 -3.512365e-02 -2.687310e-01 -3.735090e-01 8.394167e-03 2.456835e-01 1.909240e-01 -9.157416e-02 -3.769661e-01 -3.394561e-01 -1.289647e-01 1.267754e-02 5.636683e-02 -2.097114e-01 -1.103123e-01 1.286947e-01 1.064254e-01 1.041639e-01
<VARIANCE> 39
 4.946011e+01 1.685063e+02 2.813545e+01 3.464254e+01 5.143968e+01 2.573465e+01 5.829334e+01 1.875566e+01 7.684009e+01 3.654452e+01 3.270693e+01 2.626994e+01 1.381599e+01 4.227887e+00 1.274588e+01 3.000998e+00 3.348004e+00 3.014334e+00 3.011327e+00 4.348061e+00 2.518073e+00 4.332312e+00 2.934788e+00 3.596501e+00 1.885540e+00 1.399858e+00 2.797969e-01 1.017256e+00 5.090919e-01 5.371857e-01 4.013944e-01 4.818119e-01 7.644207e-01 4.127924e-01 5.236829e-01 3.690847e-01 3.666773e-01 2.715807e-01 1.722164e-01
<GCONST> 1.237223e+02
<STATE> 4
<MEAN> 39
 -9.301042e+00 -6.186437e+00 3.380874e-01 3.326041e+00 5.351814e+00 -1.575406e+01 4.535779e+00 -1.402976e+00 -2.474123e+00 -1.384561e+01 -7.259087e-01 6.838653e-01 6.571727e+01 -1.016033e+00 -9.310318e-01 7.336932e-01 -5.599912e-02 -2.307397e-01 -4.531505e-01 1.506470e-01 2.429849e-01 2.016751e-01 5.919981e-02 5.934252e-01 4.707434e-02 2.434711e-01 -1.342245e-02 7.375722e-02 9.007932e-02 1.792547e-01 1.454281e-01 1.371743e-01 -1.114242e-01 -1.628042e-01 -3.325419e-02 1.264704e-01 5.979601e-02 -4.690003e-02 -9.465583e-02
<VARIANCE> 39
 2.187923e+02 1.678021e+02 9.803938e+01 1.637568e+01 1.090073e+02 3.510813e+01 5.525597e+01 5.952439e+01 6.299492e+01 3.193730e+01 9.635056e+01 1.617809e+01 1.772560e+01 4.583470e+00 3.590963e+00 2.791337e+00 2.065691e+00 4.270241e+00 3.388978e+00 2.907295e+00 4.802125e+00 4.554935e+00 2.416974e+00 3.224213e+00 1.473538e+00 1.120562e+00 4.651538e-01 4.063926e-01 5.483243e-01 3.502823e-01 5.388151e-01 6.956427e-01 5.094182e-01 7.448888e-01 7.445511e-01 3.645212e-01 4.484434e-01 2.447747e-01 1.715575e-01
<GCONST> 1.271409e+02
<TRANSP> 5
 0.000000e+00 1.000000e+00 0.000000e+00 0.000000e+00 0.000000e+00
 0.000000e+00 8.625044e-01 1.374956e-01 0.000000e+00 0.000000e+00
 0.000000e+00 0.000000e+00 8.238403e-01 1.761597e-01 0.000000e+00
 0.000000e+00 0.000000e+00 0.000000e+00 8.795540e-01 1.204461e-01
 0.000000e+00 0.000000e+00 0.000000e+00 0.000000e+00 0.000000e+00
<ENDHMM>
~h "ah"
<BEGINHMM>
<NUMSTATES> 5
<STATE> 2
<MEAN> 39
 3.035607e+00 -4.478874e+00 -5.117658e+00 -2.619238e+00 -1.694445e+00 -2.243167e+00 -5.189768e+00 -4.125395e+00 -1.644353e+00 -5.089656e+00 -7.893375e-01 -3.405946e+00 6.009052e+01 -2.420026e-01 -2.721179e-01 5.114390e-01 8.134491e-01 -4.947697e-02 -6.196514e-01 1.900425e-01 1.999290e-01 -1.104739e-01 1.720600e-01 -2.857725e-01 -1.045856e-01 -1.736179e-01 -1.353248e-01 3.413430e-01 1.658698e-01 8.400660e-02 9.696528e-03 1.399876e-01 3.999937e-02 -3.196612e-03 3.314579e-02 -2.661629e-02 -3.288839e-02 -2.794851e-02 -2.559203e-01
<VARIANCE> 39
 2.711443e+01 8.025648e+01 7.130451e+01 1.331655e+02 1.422720e+02 1.168320e+02 1.207974e+02 8.931808e+01 7.897563e+01 6.712461e+01 1.251088e+02 8.428239e+01 7.390618e+01 6.504750e-01 2.927486e+00 1.741709e+00 2.954675e+00 2.992017e+00 4.060718e+00 3.531604e+00 4.242407e+00 3.876517e+00 3.860182e+00 3.544623e+00 2.822174e+00 1.282355e+00 1.395877e-01 3.153024e-01 3.233444e-01 3.039296e-01 5.520179e-01 6.806177e-01 6.088403e-01 7.446649e-01 6.820588e-01 7.228567e-01 6.941653e-01 5.098752e-01 9.604648e-02
<GCONST> 1.311095e+02
<STATE> 3
<MEAN> 39
 7.274745e-01 2.634065e-01 -2.832587e+00 5.738360e+00 2.774728e+00 -6.160646e+00 4.685840e-01 -7.896941e+00 -7.627174e+00 -3.653465e+00 1.024245e+00 -5.110248e+00 6.210873e+01 -2.960230e-01 1.077034e+00 7.303367e-01 9.660720e-01 1.156795e-01 4.801219e-01 -6.880406e-01 -5.153720e-01 5.634247e-01 -1.325704e-01 -4.284697e-01 -1.895661e-01 -9.765047e-01 -1.582911e-02 7.407660e-02 1.042010e-01 1.790334e-02 -7.948199e-02 2.152857e-02 -1.109666e-01 6.225542e-02 1.593091e-01 -1.626757e-01 -1.662764e-01 9.186371e-02 -5.363113e-02
<VARIANCE> 39
 1.920755e+01 7.396992e+01 5.389822e+01 1.004464e+02 1.048922e+02 6.020388e+01 1.108027e+02 9.782288e+01 4.890482e+01 5.427286e+01 5.536341e+01 4.421927e+01 7.094707e+01 4.919127e-01 1.147236e+00 1.063992e+00 2.052053e+00 2.404044e+00 2.496639e+00 3.197421e+00 3.503939e+00 2.803200e+00 3.267428e+00 3.172892e+00 1.919266e+00 5.086923e-01 6.628896e-02 2.020088e-01 1.758251e-01 3.405015e-01 3.511651e-01 5.159490e-01 5.176926e-01 5.828665e-01 3.639657e-01 4.538662e-01 4.181850e-01 2.868195e-01 9.564802e-02
<GCONST> 1.169823e+02
<STATE> 4
<MEAN> 39
 3.762791e+00 9.243666e+00 3.776596e+00 8.732733e+00 -3.885821e+00 -6.995108e+00 -7.257680e+00 -9.196081e+00 -1.523403e+00 -6.390297e+00 -5.050884e+00 -1.036359e+00 6.015144e+01 -2.768016e-01 3.651485e-01 3.563837e-01 1.843284e-01 3.367745e-02 2.173656e-01 1.482342e-01 6.188499e-02 1.884410e-01 3.707990e-02 -1.203489e-01 -3.856133e-02 -3.383854e-01 -4.627283e-02 -6.201680e-02 -1.847931e-02 -3.469341e-02 1.330520e-02 2.726704e-02 8.804622e-02 9.486950e-03 -7.108530e-02 4.862609e-02 4.949694e-02 -5.275995e-03 6.318237e-03
<VARIANCE> 39
 3.008228e+01 6.749273e+01 3.440887e+01 6.027223e+01 8.561538e+01 4.708657e+01 6.409298e+01 3.616330e+01 3.444800e+01 4.560247e+01 3.408684e+01 2.503209e+01 5.822547e+01 4.180701e-01 8.833652e-01 8.458329e-01 1.335871e+00 1.302644e+00 1.297287e+00 1.752858e+00 1.706070e+00 1.924987e+00 1.680031e+00 1.596951e+00 1.619616e+00 3.132954e-01 5.066569e-02 1.219775e-01 1.230207e-01 2.030339e-01 1.963884e-01 2.234789e-01 3.079190e-01 3.352014e-01 3.477765e-01 3.143911e-01 2.901328e-01 2.731499e-01 4.016519e-02
<GCONST> 1.007265e+02
<TRANSP> 5
 0.000000e+00 1.000000e+00 0.000000e+00 0.000000e+00 0.000000e+00
 0.000000e+00 6.527323e-01 3.472677e-01 0.000000e+00 0.000000e+00
 0.000000e+00 0.000000e+00 6.942408e-01 3.057592e-01 0.000000e+00
 0.000000e+00 0.000000e+00 0.000000e+00 8.452927e-01 1.547073e-01
 0.000000e+00 0.000000e+00 0.000000e+00 0.000000e+00 0.000000e+00
<ENDHMM>
~h "ao"
<BEGINHMM>
<NUMSTATES> 5
<STATE> 2
<MEAN> 39
 4.836309e+00 1.148203e+01 -2.670153e+00 -4.071950e+00 -1.110481e+01 -1.510283e+01 -5.960237e-01 -3.353653e+00 -5.286310e-01 -2.657591e+00 -4.526720e+00 -7.894419e+00 6.408290e+01 2.340247e+00 6.327627e-01 3.666610e-01 -3.572325e-01 -2.780088e+00 -2.460859e+00 -1.225790e+00 6.655202e-01 -3.515622e-02 1.081173e+00 -1.539276e-01 -7.947212e-01 7.192710e-01 -1.309355e+00 -8.236142e-01 -2.244977e-01 4.096856e-01 1.165921e+00 8.557844e-01 4.243244e-01 9.449907e-02 -2.209737e-02 -5.884529e-02 1.965065e-01 4.067684e-01 -2.624146e-01
<VARIANCE> 39
 2.396269e+01 7.432535e+01 2.953752e+01 1.098709e+02 5.466176e+01 1.605250e+02 1.150590e+02 3.496866e+01 3.944854e+01 4.226492e+01 2.414697e+01 6.403727e+01 4.063341e+01 4.958042e+00 3.961721e+00 1.170692e+00 3.002818e+00 7.210738e+00 6.542961e+00 4.225063e+00 2.643947e+00 3.476225e+00 3.167984e+00 1.546739e+00 2.131768e+00 7.100449e-01 3.770977e-01 5.525455e-01 2.893260e-01 5.984021e-01 8.470250e-01 8.086032e-01 6.396521e-01 4.025221e-01 4.403670e-01 4.756700e-01 3.776315e-01 4.130044e-01 2.024266e-01
<GCONST> 1.267695e+02
<STATE> 3
<MEAN> 39
 6.668035e+00 1.256173e+01 -3.396969e+00 7.898893e-01 -1.336164e+01 -1.695569e+01 -3.884147e+00 -3.811129e+00 7.093967e-01 -3.966615e+00 -3.974658e+00 -8.189669e+00 6.429098e+01 1.285896e-01 -4.127496e-01 -5.892071e-01 -3.512686e-01 3.798192e-01 7.823464e-01 4.560982e-01 -1.166954e-01 -6.851310e-01 -2.591461e-01 2.489020e-01 6.687441e-02 1.530384e-01 -7.408933e-02 -5.738514e-02 -1.175012e-01 -4.050716e-02 3.209019e-01 2.314383e-01 1.144872e-01 -1.635109e-01 -2.095344e-01 -3.736635e-03 5.685892e-02 1.197806e-01 -2.111421e-03
<VARIANCE> 39
 1.477731e+01 6.091642e+01 3.232423e+01 6.591615e+01 3.752179e+01 7.905126e+01 1.450370e+02 2.741652e+01 5.325209e+01 5.238233e+01 2.844866e+01 4.602438e+01 2.458611e+01 1.659104e-01 5.520124e-01 8.523843e-01 8.413260e-01 1.476790e+00 1.624740e+00 1.969967e+00 1.631783e+00 2.138349e+00 1.348979e+00 1.200128e+00 1.269168e+00 1.537026e-01 6.100115e-02 8.190435e-02 1.065531e-01 1.686521e-01 2.414625e-01 3.217702e-01 3.805223e-01 2.737512e-01 2.354612e-01 2.547071e-01 2.786609e-01 2.235983e-01 2.791200e-02
<GCONST> 9.636456e+01
<STATE> 4
<MEAN> 39
 7.526899e+00 -9.632103e-01 -8.793484e+00 -1.481040e+01 -9.525287e+00 -4.308125e-01 1.332025e-01 -2.422730e+00 -3.910309e+00 -6.280147e-02 -8.773202e-01 -4.501546e+00 6.128217e+01 -3.273945e-03 -7.418240e-01 -4.812942e-01 8.631798e-01 7.288938e-01 -4.719392e-02 6.392991e-02 -1.819946e-02 -3.997815e-01 3.730814e-01 3.551198e-01 2.402322e-02 -4.877353e-02 -2.205463e-02 9.742847e-03 3.358464e-02 1.569692e-01 3.689104e-02 -9.749996e-02 -5.966417e-02 -7.650668e-03 5.885229e-02 -6.027798e-03 1.659675e-02 -1.738679e-02 -2.616365e-02
<VARIANCE> 39
 1.194659e+01 1.013377e+02 4.354765e+01 1.152704e+02 1.409561e+02 2.837084e+02 8.943012e+01 1.258324e+02 9.212944e+01 6.280535e+01 5.070016e+01 6.347589e+01 8.646751e+01 1.783576e-01 1.410759e+00 1.044827e+00 2.091004e+00 2.513591e+00 3.833542e+00 2.169181e+00 5.436960e+00 3.037704e+00 3.081121e+00 3.447246e+00 2.471246e+00 3.077508e-01 2.946950e-02 1.886562e-01 1.473956e-01 1.725493e-01 3.004984e-01 4.504699e-01 4.139446e-01 6.252421e-01 3.981290e-01 5.879788e-01 5.277908e-01 4.170906e-01 3.025178e-02
<GCONST> 1.170775e+02
<TRANSP> 5
 0.000000e+00 1.000000e+00 0.000000e+00 0.000000e+00 0.000000e+00
 0.000000e+00 5.984514e-01 4.015485e-01 0.000000e+00 0.000000e+00
 0.000000e+00 0.000000e+00 8.342704e-01 1.657296e-01 0.000000e+00
 0.000000e+00 0.000000e+00 0.000000e+00 8.753493e-01 1.246506e-01
 0.000000e+00 0.000000e+00 0.000000e+00 0.000000e+00 0.000000e+00
<ENDHMM>
~h "ay"
<BEGINHMM>
<NUMSTATES> 5
<STATE> 2
<MEAN> 39
 3.510077e+00 -1.274108e+00 -3.250175e+00 1.320975e+00 -3.254619e+00 -5.537931e+00 -3.903501e+00 -4.601776e+00 -2.809731e+00 -3.334064e+00 -2.164106e+00 -2.736831e+00 6.225925e+01 1.306404e+00 -2.322062e+00 -1.657187e+00 -1.982938e+00 -1.788729e-02 -6.039063e-01 4.402302e-01 7.638042e-01 -1.589603e-02 1.061723e-02 -1.878048e-02 3.802483e-01 2.538624e+00 -5.759436e-01 -1.240635e-01 2.175449e-02 4.018827e-02 3.543796e-01 3.791558e-01 1.093112e-01 1.332640e-01 1.770837e-01 -1.144396e-02 1.494589e-02 2.878156e-02 -3.258664e-01
<VARIANCE> 39
 4.644347e+01 1.087397e+02 1.136301e+02 1.173802e+02 1.266763e+02 1.105119e+02 1.284409e+02 9.396072e+01 6.020660e+01 5.964828e+01 8.247171e+01 5.775474e+01 1.415155e+02 5.409288e+00 6.314248e+00 6.455063e+00 4.352435e+00 9.575894e+00 7.426898e+00 8.598211e+00 7.521839e+00 4.808816e+00 5.246070e+00 5.991633e+00 5.941404e+00 2.416455e+00 1.079363e+00 1.138827e+00 1.143304e+00 9.346069e-01 1.477724e+00 1.204789e+00 1.171358e+00 1.390028e+00 8.364426e-01 7.579915e-01 9.404104e-01 8.524563e-01 7.157708e-01
<GCONST> 1.535638e+02
<STATE> 3
<MEAN> 39
 6.415819e+00 -1.047730e+01 -1.184003e+01 -7.973536e+00 2.388364e+00 -3.592148e+00 -2.970059e+00 -2.093882e+00 3.353215e-01 -2.282530e+00 -1.396725e+00 -4.603514e+00 6.969625e+01 6.495459e-03 -1.749592e-01 1.883502e-03 4.160043e-01 2.084179e-01 3.136672e-02 -1.886928e-01 1.585822e-02 3.068970e-01 -1.567721e-01 -2.613763e-01 1.545169e-01 -2.349183e-01 -7.399645e-02 2.323977e-01 1.282298e-01 2.055981e-01 -1.315847e-02 -8.106063e-02 -8.805598e-02 -4.448077e-02 -1.528101e-02 4.835317e-02 2.619798e-02 3.444182e-02 -1.852268e-01
<VARIANCE> 39
 2.402186e+01 7.315344e+01 7.611022e+01 1.423309e+02 1.108390e+02 2.051833e+02 2.299433e+02 7.167436e+01 7.189845e+01 8.130934e+01 8.298280e+01 7.823777e+01 3.970385e+01 6.620635e-01 1.164192e+00 2.326952e+00 2.517645e+00 2.808477e+00 5.320321e+00 2.962834e+00 3.004837e+00 2.695618e+00 2.819421e+00 2.898980e+00 2.485091e+00 5.340967e-01 1.812971e-01 2.532136e-01 3.733919e-01 3.669822e-01 4.706254e-01 7.658945e-01 6.566842e-01 5.490899e-01 4.934766e-01 5.608135e-01 5.296718e-01 4.874911e-01 1.733940e-01
<GCONST> 1.275881e+02
<STATE> 4
<MEAN> 39
 4.105231e+00 -5.551356e+00 -7.798579e+00 2.151505e-01 -6.318253e-01 -5.810634e+00 -1.387125e+00 -4.170719e+00 -8.727497e-01 -3.861774e+00 -4.825170e+00 4.192616e-01 6.660636e+01 -1.398056e-01 1.856167e-01 4.907492e-01 4.427722e-01 3.249509e-02 -3.553265e-01 -2.285002e-01 -1.462340e-01 -1.590127e-01 1.571549e-01 1.810623e-01 -7.743786e-03 -1.788879e-01 -4.158753e-02 8.595880e-02 1.246673e-01 6.298828e-02 -3.689194e-02 1.109015e-03 5.597991e-02 -3.736450e-02 -5.052776e-02 -1.909397e-02 -2.397663e-03 -5.860399e-02 -4.496981e-02
<VARIANCE> 39
 3.154336e+01 1.029967e+02 6.922836e+01 4.887227e+01 1.061979e+02 1.081976e+02 1.263676e+02 5.935720e+01 4.399580e+01 5.426090e+01 6.163432e+01 4.492710e+01 5.484560e+01 1.622061e-01 5.007377e-01 1.110521e+00 1.203246e+00 1.567911e+00 1.450650e+00 1.779558e+00 1.396464e+00 1.598976e+00 1.438385e+00 1.586259e+00 1.090351e+00 1.534647e-01 2.554275e-02 7.084113e-02 1.170686e-01 1.478175e-01 1.686535e-01 2.354488e-01 2.475970e-01 2.194680e-01 2.260027e-01 2.304562e-01 2.287131e-01 1.820754e-01 1.989270e-02
<GCONST> 9.832735e+01
<TRANSP> 5
 0.000000e+00 1.000000e+00 0.000000e+00 0.000000e+00 0.000000e+00
 0.000000e+00 7.031686e-01 2.968314e-01 0.000000e+00 0.000000e+00
 0.000000e+00 0.000000e+00 8.262057e-01 1.737943e-01 0.000000e+00
 0.000000e+00 0.000000e+00 0.000000e+00 9.156264e-01 8.437361e-02
 0.000000e+00 0.000000e+00 0.000000e+00 0.000000e+00 0.000000e+00
<ENDHMM>
~h "eh"
<BEGINHMM>
<NUMSTATES> 5
<STATE> 2
<MEAN> 39
 -1.076571e+01 1.409775e+00 2.073152e+00 1.710574e+00 3.488550e+00 -1.724786e-01 4.368408e+00 -6.715569e+00 1.975023e-01 -1.914108e+00 7.156020e-01 -2.563553e+00 6.315511e+01 2.156764e+00 -4.300611e-01 -6.180013e-01 1.213324e-02 -3.717600e-01 -1.040882e+00 -8.288741e-01 -4.028815e-01 -7.448351e-01 2.178151e-02 -4.858863e-01 1.427190e-01 9.664382e-01 1.849664e-01 -7.828960e-02 -1.292396e-01 1.622560e-02 -4.436369e-02 -1.693335e-01 -4.994959e-02 2.642945e-01 3.694309e-02 -6.659920e-02 2.891512e-02 -3.291067e-02 1.149734e-01
<VARIANCE> 39
 1.345208e+02 4.603823e+01 9.250682e+01 9.513400e+01 7.055650e+01 9.340323e+01 8.272463e+01 8.400500e+01 5.126146e+01 4.007344e+01 4.244658e+01 5.488536e+01 9.547260e+01 1.152017e+01 4.115788e+00 5.250828e+00 4.092927e+00 3.393262e+00 6.106883e+00 5.065586e+00 4.768421e+00 5.372865e+00 3.985781e+00 3.514437e+00 2.618109e+00 2.795897e+00 1.466896e+00 5.142242e-01 4.380474e-01 5.042956e-01 4.904407e-01 9.020245e-01 6.456244e-01 7.722522e-01 8.216336e-01 6.304700e-01 4.799579e-01 4.344929e-01 4.406706e-01
<GCONST> 1.401762e+02
<STATE> 3
<MEAN> 39
 -2.242455e+00 -7.257218e+00 -3.282826e+00 -1.299933e+00 -8.267500e-01 -7.576212e+00 2.208462e+00 2.280294e+00 -2.215131e+00 -2.189934e+00 1.093440e+00 -1.023791e+00 7.431820e+01 5.721183e-01 -2.940404e-01 -5.201707e-01 1.837617e-01 -1.800794e-01 7.944449e-02 8.960375e-02 4.568267e-01 2.627030e-01 -2.701615e-01 -2.093624e-01 -1.708407e-01 -8.508570e-02 -3.182872e-01 2.361752e-01 8.221277e-02 9.861054e-02 1.898275e-01 2.926590e-01 1.563566e-01 -1.389166e-01 -1.789380e-02 1.855771e-02 1.878063e-03 3.455237e-02 -2.474428e-01
<VARIANCE> 39
 5.345545e+01 6.536395e+01 4.754322e+01 7.715498e+01 7.972281e+01 7.821452e+01 6.292567e+01 1.268524e+02 8.952124e+01 5.313671e+01 4.882987e+01 5.569022e+01 1.721075e+02 1.523499e+00 2.793953e+00 2.450453e+00 2.626162e+00 3.783569e+00 3.972552e+00 2.206558e+00 4.166874e+00 3.260886e+00 2.522467e+00 2.767394e+00 3.328334e+00 1.572864e+00 5.371581e-01 4.287009e-01 3.059599e-01 4.836828e-01 6.911632e-01 6.491458e-01 6.581665e-01 6.562080e-01 8.603371e-01 5.103072e-01 6.023047e-01 5.731001e-01 2.806402e-01
<GCONST> 1.321318e+02
<STATE> 4
<MEAN> 39
 -9.352936e-01 -4.979815e-01 -6.314400e+00 8.695422e+00 -1.629170e+00 5.284718e+00 2.834586e+00 3.838896e-01 -5.903899e-01 -1.301829e+00 -2.050231e+00 -4.593660e+00 6.812551e+01 7.863340e-02 8.774487e-02 -4.328418e-02 2.775010e-02 8.964198e-02 1.173704e-02 -3.556982e-02 3.177449e-02 8.306236e-02 2.422714e-02 -2.057263e-01 -6.710205e-02 -8.972124e-02 -2.469691e-02 8.348003e-02 6.053835e-02 -1.033104e-02 -4.940197e-03 -5.656617e-02 -2.784534e-02 6.119899e-03 -9.387559e-03 2.458813e-02 6.331821e-02 -1.507172e-02 -3.113442e-02
<VARIANCE> 39
 3.445987e+01 3.517046e+01 6.793705e+01 8.262992e+01 5.667005e+01 1.136889e+02 4.960845e+01 4.916430e+01 4.877338e+01 4.070611e+01 3.752627e+01 4.985418e+01 4.518104e+01 5.202224e-01 9.551902e-01 1.063942e+00 1.234836e+00 1.664224e+00 1.734328e+00 2.073874e+00 1.915720e+00 1.634902e+00 1.670102e+00 1.995219e+00 1.583697e+00 2.016302e-01 1.331675e-01 1.729876e-01 2.393450e-01 2.609506e-01 3.730371e-01 3.522034e-01 3.793364e-01 4.023502e-01 2.950194e-01 3.171529e-01 4.147470e-01 2.865719e-01 4.090778e-02
<GCONST> 1.073366e+02
<TRANSP> 5
 0.000000e+00 1.000000e+00 0.000000e+00 0.000000e+00 0.000000e+00
 0.000000e+00 7.657405e-01 2.342595e-01 0.000000e+00 0.000000e+00
 0.000000e+00 0.000000e+00 6.411631e-01 3.588369e-01 0.000000e+00
 0.000000e+00 0.000000e+00 0.000000e+00 8.517941e-01 1.482059e-01
 0.000000e+00 0.000000e+00 0.000000e+00 0.000000e+00 0.000000e+00
<ENDHMM>
~h "er"
<BEGINHMM>
<NUMSTATES> 5
<STATE> 2
<MEAN> 39
 -1.544119e+00 3.662019e+00 -5.082676e+00 6.190392e+00 9.868472e-01 -2.676361e+00 -1.033127e+00 -1.606449e+01 -8.935557e+00 -3.247894e+00 2.925986e+00 -1.284190e-01 6.191164e+01 -9.275351e-01 -7.924806e-01 7.128000e-01 3.346959e-01 -2.139913e-01 -2.288989e-01 1.491864e-01 4.611101e-01 6.842161e-01 3.381892e-01 -4.938309e-02 -9.736476e-03 -1.312989e-01 -2.815504e-01 -5.179040e-02 2.704570e-01 5.493387e-03 -2.117956e-02 8.026451e-02 1.996608e-01 2.277560e-01 2.155980e-01 3.536977e-02 -1.089101e-01 4.958163e-02 -9.079742e-02
<VARIANCE> 39
 5.551695e+01 4.528986e+01 6.361467e+01 4.344725e+01 5.683966e+01 5.892141e+01 4.878391e+01 4.932509e+01 6.846619e+01 7.136796e+01 4.043221e+01 2.842002e+01 1.951060e+01 1.982473e+00 2.749843e+00 2.880411e+00 1.943703e+00 2.280163e+00 4.101913e+00 3.684532e+00 2.382993e+00 2.029637e+00 2.022065e+00 1.746705e+00 1.136196e+00 1.001462e+00 2.389133e-01 4.804045e-01 2.808017e-01 3.621365e-01 4.212027e-01 7.925986e-01 6.230541e-01 4.005071e-01 4.155320e-01 3.765260e-01 2.922138e-01 2.311346e-01 1.848973e-01
<GCONST> 1.185972e+02
<STATE> 3
<MEAN> 39
 -1.514727e+01 -4.916692e+00 4.585151e+00 5.792307e+00 -2.566360e+00 -5.848903e-01 6.991655e+00 -7.487734e+00 2.973073e-01 1.827585e+00 2.842726e+00 5.949705e-01 5.982866e+01 -2.171826e-01 3.745917e-01 -5.162114e-02 6.117695e-02 -2.795337e-02 2.266608e-01 1.446603e-01 3.771363e-01 3.882031e-01 -8.598747e-02 -1.629598e-01 7.223095e-02 -5.014580e-01 7.312816e-02 9.788536e-02 -4.882128e-02 8.356067e-02 7.302356e-02 -4.036565e-02 -2.843600e-02 -2.916047e-02 -2.858858e-02 -2.979505e-02 -1.482421e-02 2.962674e-03 -2.631564e-02
<VARIANCE> 39
 7.635484e+01 4.982268e+01 1.713972e+02 5.956287e+01 5.364840e+01 7.150915e+01 5.936523e+01 3.699883e+01 4.135971e+01 5.487070e+01 4.361057e+01 3.360886e+01 2.905008e+01 1.329001e+00 2.473309e+00 3.208810e+00 2.500668e+00 2.000361e+00 2.290628e+00 2.533979e+00 2.333122e+00 2.200257e+00 1.961539e+00 2.262871e+00 1.192784e+00 1.040916e+00 1.485168e-01 4.739798e-01 4.110519e-01 3.238617e-01 3.448879e-01 3.588095e-01 3.743460e-01 4.104027e-01 3.919040e-01 4.024788e-01 3.549778e-01 2.090285e-01 1.905458e-01
<GCONST> 1.178138e+02
<STATE> 4
<MEAN> 39
 -1.645974e+01 3.486255e+00 -7.981263e-01 1.008838e+01 1.263137e-01 2.029762e+00 5.912687e+00 -1.631825e+00 4.941060e+00 -2.784847e+00 8.236825e-01 -1.883021e+00 4.842938e+01 -3.030985e-02 2.041996e-02 3.153902e-02 8.531044e-03 1.724026e-02 1.135032e-02 2.486372e-02 4.209863e-02 3.650667e-02 1.975953e-02 -4.131023e-02 -8.700522e-03 -7.432958e-02 1.128023e-02 -1.356738e-02 -1.169929e-02 4.112908e-03 2.185812e-03 -3.217886e-03 -4.964735e-03 -1.842231e-02 -7.027954e-03 5.926110e-03 1.163819e-02 3.663625e-05 1.517043e-02
<VARIANCE> 39
 1.222560e+01 1.630548e+01 1.404301e+01 1.676310e+01 2.800764e+01 2.750962e+01 1.588752e+01 1.720362e+01 1.774972e+01 3.105500e+01 1.531601e+01 3.597532e+01 2.517576e+01 1.551487e-01 3.986256e-01 5.290539e-01 6.511425e-01 8.509798e-01 1.012315e+00 1.105457e+00 1.241376e+00 1.286603e+00 1.283856e+00 1.199854e+00 1.008721e+00 7.691595e-02 3.204515e-02 7.024910e-02 9.877418e-02 1.246647e-01 1.658366e-01 1.850517e-01 2.102169e-01 2.301031e-01 2.599390e-01 2.550830e-01 2.440156e-01 2.014284e-01 1.592266e-02
<GCONST> 7.811482e+01
<TRANSP> 5
 0.000000e+00 1.000000e+00 0.000000e+00 0.000000e+00 0.000000e+00
 0.000000e+00 7.994009e-01 2.005991e-01 0.000000e+00 0.000000e+00
 0.000000e+00 0.000000e+00 8.590617e-01 1.409383e-01 0.000000e+00
 0.000000e+00 0.000000e+00 0.000000e+00 9.700496e-01 2.995041e-02
 0.000000e+00 0.000000e+00 0.000000e+00 0.000000e+00 0.000000e+00
<ENDHMM>
~h "ey"
<BEGINHMM>
<NUMSTATES> 5
<STATE> 2
<MEAN> 39
 -8.487168e+00 -2.879828e+00 8.788738e-02 3.840225e+00 4.377011e-01 -4.464686e+00 -3.119043e+00 -3.999161e+00 -3.896397e-01 -3.070646e-01 1.191493e+00 -2.176517e+00 5.312702e+01 1.269829e+00 -9.684379e-01 4.848262e-01 -5.562506e-01 -5.699528e-01 -2.351657e+00 -9.157555e-01 -6.325843e-01 -5.477194e-01 2.898881e-01 -1.412948e-01 -6.514208e-01 2.556152e+00 2.408367e-02 4.917863e-02 1.064315e-01 -1.954361e-02 7.549528e-02 -8.749115e-02 -8.057629e-02 -2.072875e-02 -3.906741e-03 -9.428777e-03 4.867654e-02 -6.729541e-02 8.582785e-02
<VARIANCE> 39
 7.176494e+01 7.636098e+01 1.099727e+02 1.647143e+02 2.307494e+02 2.129624e+02 1.124967e+02 8.195204e+01 6.416776e+01 1.048292e+02 6.829292e+01 4.666101e+01 2.081911e+02 4.485550e+00 5.130692e+00 8.153464e+00 1.052002e+01 1.211050e+01 1.239197e+01 8.407732e+00 6.235511e+00 6.406567e+00 7.651897e+00 4.946592e+00 3.130907e+00 6.355068e+00 6.672111e-01 8.989072e-01 1.070808e+00 1.577884e+00 1.858886e+00 2.109286e+00 1.253784e+00 1.059832e+00 1.152574e+00 1.229088e+00 7.812247e-01 5.549530e-01 1.432917e+00
<GCONST> 1.588171e+02
<STATE> 3
<MEAN> 39
 -1.550469e+00 -1.655606e+00 2.730809e+00 1.494323e+01 6.744834e+00 -2.436687e+01 -9.050578e+00 -7.532470e+00 -6.467875e+00 -2.262379e+00 -1.613292e-01 -9.964598e+00 6.727496e+01 -3.392334e-01 6.752465e-01 5.482307e-01 1.934357e-01 -1.637205e-01 6.737572e-01 -3.339731e-02 -3.465142e-02 4.894734e-01 -3.414379e-01 -3.771772e-01 -9.336212e-02 -5.750148e-01 -1.241381e-01 1.483097e-01 -3.555695e-02 -1.066251e-01 -5.363675e-02 4.136667e-01 1.487729e-01 -4.037581e-02 9.910782e-02 -4.711058e-02 -2.494433e-02 2.127243e-01 -2.590741e-01
<VARIANCE> 39
 2.484061e+01 4.527293e+01 2.949403e+01 1.553809e+02 1.629020e+02 1.165896e+02 1.068580e+02 6.684157e+01 7.595092e+01 3.457188e+01 5.917870e+01 5.122138e+01 3.742023e+01 5.283840e-01 9.551932e-01 9.543201e-01 2.036417e+00 2.584690e+00 3.545875e+00 2.091043e+00 2.000826e+00 2.988609e+00 2.207595e+00 1.982567e+00 2.042709e+00 7.183302e-01 1.527977e-01 2.197570e-01 2.091101e-01 3.596695e-01 4.629977e-01 4.205802e-01 4.102218e-01 3.791978e-01 4.662254e-01 3.984190e-01 3.562711e-01 3.371775e-01 1.600661e-01
<GCONST> 1.168390e+02
<STATE> 4
<MEAN> 39
 -5.799819e+00 3.120843e+00 1.267996e+01 -3.920980e+00 -1.179779e+01 -5.611925e+00 -7.148740e+00 -1.111802e+01 -2.581868e+00 -3.133312e+00 -1.266545e+00 -7.603264e-01 5.494434e+01 -4.898149e-01 5.382207e-01 -3.070742e-01 2.504343e-01 4.064820e-01 5.734172e-01 -1.235721e-01 -9.578036e-02 -2.190532e-01 -1.073587e-01 -2.731514e-02 2.668032e-01 -1.166872e+00 -3.921105e-02 -1.172438e-01 -9.501304e-02 5.585360e-02 9.521847e-02 -1.247296e-02 1.465188e-01 7.664823e-02 -5.568630e-02 2.607025e-02 6.326984e-02 -2.766533e-02 2.021099e-02
<VARIANCE> 39
 3.736750e+01 5.545416e+01 1.218909e+02 1.945132e+02 1.306763e+02 1.062184e+02 6.165576e+01 5.399646e+01 6.595365e+01 5.543775e+01 7.518200e+01 4.427872e+01 1.401570e+02 6.971390e-01 1.507952e+00 2.140812e+00 3.004410e+00 2.334675e+00 3.199565e+00 2.962771e+00 3.633088e+00 3.197526e+00 1.784773e+00 2.665735e+00 2.191445e+00 8.078995e-01 7.826293e-02 1.991403e-01 2.833986e-01 4.324216e-01 4.516920e-01 4.008272e-01 5.131100e-01 5.330486e-01 6.911266e-01 3.497574e-01 4.854238e-01 3.957392e-01 1.310737e-01
<GCONST> 1.235173e+02
<TRANSP> 5
 0.000000e+00 1.000000e+00 0.000000e+00 0.000000e+00 0.000000e+00
 0.000000e+00 8.079360e-01 1.920640e-01 0.000000e+00 0.000000e+00
 0.000000e+00 0.000000e+00 8.285807e-01 1.714193e-01 0.000000e+00
 0.000000e+00 0.000000e+00 0.000000e+00 8.393449e-01 1.606552e-01
 0.000000e+00 0.000000e+00 0.000000e+00 0.000000e+00 0.000000e+00
<ENDHMM>
~h "hh"
<BEGINHMM>
<NUMSTATES> 5
<STATE> 2
<MEAN> 39
 5.196803e+00 6.018288e-01 -4.865907e+00 -1.256581e+00 -7.148301e+00 -2.073446e+01 1.094057e+01 1.001148e+01 -1.652584e+00 -5.534642e+00 -2.951440e+00 1.063386e+00 7.333126e+01 4.663653e-02 2.909212e-01 2.108832e-01 1.278345e-01 -1.547349e-01 -6.003999e-03 -3.479702e-01 1.263966e-01 3.844632e-01 -2.526846e-01 9.338571e-02 -1.179071e-01 -2.765732e-01 -2.615080e-02 4.019826e-02 6.001809e-02 8.500002e-02 -1.422314e-03 1.236769e-01 -1.877583e-02 -6.413551e-02 -1.413986e-03 -1.532710e-02 3.703357e-02 -4.442636e-02 -3.927747e-02
<VARIANCE> 39
 1.960536e+01 3.811255e+01 4.244847e+01 1.529489e+01 7.134441e+01 9.222092e+01 2.454483e+02 6.044146e+01 4.895398e+01 1.488903e+02 2.398056e+01 1.133625e+02 2.827016e+01 6.154326e-01 1.216795e+00 1.936414e+00 1.493596e+00 1.748695e+00 3.783705e+00 3.177724e+00 1.889168e+00 2.555026e+00 3.427119e+00 1.609255e+00 1.689679e+00 5.759035e-01 8.302174e-02 1.502611e-01 2.557289e-01 2.274154e-01 3.001626e-01 4.688873e-01 5.114065e-01 2.626014e-01 4.783362e-01 5.535917e-01 2.794163e-01 3.556161e-01 8.655731e-02
<GCONST> 1.131007e+02
<STATE> 3
<MEAN> 39
 7.127351e+00 1.179325e+01 4.983148e+00 1.546299e+00 -1.479982e+01 -1.207411e+01 -7.393623e+00 -2.713220e+00 9.021541e+00 -3.934643e+00 -8.202670e+00 9.810677e-01 6.479179e+01 -2.942157e-01 2.819435e-01 1.690444e-01 2.469841e-01 2.140987e-01 4.047346e-01 3.897107e-01 -9.489710e-02 6.622986e-02 3.620988e-01 2.364855e-01 -1.487835e-01 -2.631986e-01 -3.188730e-02 -3.269567e-02 -5.172266e-03 3.338704e-02 5.817068e-02 3.736435e-02 8.125092e-02 -4.279260e-03 -6.759013e-02 2.487517e-02 -7.568320e-03 1.029012e-02 4.022193e-03
<VARIANCE> 39
 1.791321e+01 2.219837e+01 1.991947e+01 1.057553e+01 3.527896e+01 6.240086e+01 1.083281e+02 4.819844e+01 3.018073e+01 2.459523e+01 3.394893e+01 3.136546e+01 6.610989e+00 6.619360e-01 9.151991e-01 1.005046e+00 9.212987e-01 1.503382e+00 2.783751e+00 3.038374e+00 1.646742e+00 1.448801e+00 1.436655e+00 1.097531e+00 1.195158e+00 4.022820e-01 5.198159e-02 1.555888e-01 1.307644e-01 1.196064e-01 1.954002e-01 3.449554e-01 2.969685e-01 2.170984e-01 1.890410e-01 1.686096e-01 2.105109e-01 2.391747e-01 4.577233e-02
<GCONST> 9.336400e+01
<STATE> 4
<MEAN> 39
 -1.058209e+00 5.326743e+00 1.865523e+00 6.627594e+00 3.327384e-01 -2.784396e-01 3.880791e+00 -9.850605e-01 2.648410e+00 -4.060396e+00 1.059471e+00 -9.537255e-01 6.244095e+01 -5.389014e-02 1.875491e-02 3.772850e-02 1.444634e-02 5.025946e-02 8.000066e-02 -5.724292e-02 -9.961871e-02 -9.112072e-03 -2.342104e-03 1.925429e-02 4.794390e-02 -3.301166e-02 2.178593e-03 -1.563074e-02 8.863005e-04 -1.627158e-02 -5.826460e-03 -1.815840e-02 -4.822825e-03 4.468806e-03 5.368226e-04 -3.770993e-04 7.363004e-03 2.418260e-03 1.363966e-02
<VARIANCE> 39
 1.641955e+01 8.962111e+00 2.310346e+01 1.612473e+01 6.426885e+01 4.124401e+01 2.710587e+01 2.794553e+01 3.217027e+01 2.880057e+01 1.798571e+01 3.859839e+01 5.331229e+00 3.962915e-01 4.952287e-01 7.826755e-01 8.687001e-01 1.343320e+00 1.310177e+00 1.997832e+00 1.789413e+00 2.129120e+00 1.603405e+00 1.372359e+00 1.464357e+00 1.486133e-01 6.973447e-02 9.606872e-02 1.506098e-01 1.644784e-01 2.603417e-01 2.470739e-01 3.603861e-01 3.331306e-01 4.010891e-01 3.050607e-01 2.520813e-01 2.616872e-01 2.734773e-02
<GCONST> 9.000795e+01
<TRANSP> 5
 0.000000e+00 1.000000e+00 0.000000e+00 0.000000e+00 0.000000e+00
 0.000000e+00 9.048567e-01 9.514330e-02 0.000000e+00 0.000000e+00
 0.000000e+00 0.000000e+00 8.939326e-01 1.060675e-01 0.000000e+00
 0.000000e+00 0.000000e+00 0.000000e+00 9.810055e-01 1.899451e-02
 0.000000e+00 0.000000e+00 0.000000e+00 0.000000e+00 0.000000e+00
<ENDHMM>
~h "ih"
<BEGINHMM>
<NUMSTATES> 5
<STATE> 2
<MEAN> 39
 -1.320717e+01 2.224386e-01 6.105111e+00 2.136917e+00 2.227017e+00 -4.636211e+00 -3.225916e+00 -1.017328e+01 -3.368136e-01 -3.897500e+00 -7.536457e-01 -2.614815e+00 6.113377e+01 3.544574e+00 1.152225e-01 -8.279316e-01 1.337531e+00 4.753583e-01 -1.912177e+00 -2.002605e+00 -6.754709e-01 -1.802531e+00 -2.585148e-01 -4.406297e-02 -2.791586e-01 8.833356e-01 2.897936e-01 -2.258528e-01 -1.159128e-01 -6.110932e-03 2.033331e-01 -4.919361e-01 -6.391468e-02 1.193613e-01 -2.432670e-01 2.228115e-01 1.741900e-01 -1.265096e-01 4.576195e-01
<VARIANCE> 39
 1.428959e+02 7.489530e+01 8.684509e+01 1.135193e+02 1.006091e+02 9.938884e+01 1.086579e+02 7.928459e+01 6.242933e+01 3.996569e+01 3.866942e+01 3.477661e+01 9.889941e+01 8.715041e+00 7.090939e+00 5.751028e+00 4.652380e+00 5.303219e+00 7.872102e+00 5.241863e+00 4.262350e+00 5.165233e+00 2.895646e+00 3.532489e+00 2.804050e+00 2.953046e+00 1.568607e+00 9.571414e-01 4.738674e-01 6.391320e-01 7.752643e-01 1.146566e+00 1.196294e+00 7.565340e-01 8.733548e-01 5.502419e-01 5.250068e-01 3.793562e-01 4.261158e-01
<GCONST> 1.441679e+02
<STATE> 3
<MEAN> 39
 -2.526038e+00 -6.825368e-01 6.038490e-02 1.230388e+01 1.266846e+01 -1.553292e+01 -6.254172e+00 -1.016383e+01 -5.744905e+00 -4.166876e+00 1.818439e+00 -6.668478e+00 6.650541e+01 9.472734e-02 9.541995e-02 -1.854634e-01 -1.616826e-01 -1.279122e-01 3.768228e-01 3.077087e-01 -2.752086e-01 -5.339705e-02 6.667979e-02 8.070374e-02 3.141512e-01 -9.321003e-02 -2.644286e-01 4.068790e-02 7.953885e-02 -2.554260e-01 -1.519862e-01 3.772952e-01 1.858493e-01 -2.533124e-02 1.693382e-01 -2.808657e-02 -8.372435e-02 7.809558e-02 -1.023042e-01
<VARIANCE> 39
 3.103395e+01 6.818509e+01 2.830148e+01 6.464298e+01 1.063289e+02 1.593293e+02 7.682267e+01 7.596693e+01 5.741687e+01 5.778053e+01 4.265067e+01 7.503392e+01 5.564280e+01 2.816470e+00 5.438997e+00 2.312139e+00 5.064050e+00 5.422097e+00 1.144331e+01 4.511070e+00 3.668423e+00 4.737640e+00 4.552397e+00 3.153350e+00 3.720023e+00 3.891449e+00 5.727969e-01 1.091591e+00 3.754061e-01 9.008819e-01 8.402090e-01 1.882498e+00 9.681187e-01 7.470943e-01 9.808335e-01 9.014525e-01 6.268207e-01 5.929706e-01 7.215310e-01
<GCONST> 1.416099e+02
<STATE> 4
<MEAN> 39
 -4.574020e+00 -4.510963e+00 3.435537e+00 -1.309488e-01 -5.781260e+00 -7.393927e+00 -6.307996e+00 -4.910876e+00 -1.625553e+00 -3.894992e+00 3.361132e+00 -1.934748e+00 6.055438e+01 -4.942896e-01 -7.255867e-01 3.730352e-01 -5.358112e-01 -1.090556e-01 -6.781356e-03 5.742328e-01 -1.257524e-01 1.402831e-01 2.743164e-01 -1.226871e-01 -8.766181e-02 5.307990e-01 -2.362567e-01 1.261541e-01 1.584317e-01 2.672540e-01 1.334586e-01 7.656529e-02 5.469776e-02 7.822850e-02 2.212040e-01 -1.602455e-02 -4.828843e-02 -1.049881e-01 -1.210567e-01
<VARIANCE> 39
 8.810213e+01 1.609874e+02 1.301357e+02 9.927329e+01 2.919047e+02 2.133809e+02 2.584451e+02 1.712323e+02 6.805668e+01 9.198572e+01 7.801092e+01 6.302108e+01 1.083751e+02 6.145297e+00 5.764747e+00 9.054189e+00 8.233098e+00 8.215009e+00 1.147112e+01 6.396978e+00 5.810128e+00 5.274249e+00 5.055347e+00 3.217735e+00 3.703834e+00 5.649098e+00 6.685478e-01 8.639247e-01 1.243887e+00 8.487992e-01 1.235060e+00 1.734766e+00 1.167480e+00 1.038950e+00 9.479362e-01 9.766694e-01 6.827152e-01 8.250542e-01 6.546069e-01
<GCONST> 1.572871e+02
<TRANSP> 5
 0.000000e+00 1.000000e+00 0.000000e+00 0.000000e+00 0.000000e+00
 0.000000e+00 6.083182e-01 3.916818e-01 0.000000e+00 0.000000e+00
 0.000000e+00 0.000000e+00 8.185867e-01 1.814133e-01 0.000000e+00
 0.000000e+00 0.000000e+00 0.000000e+00 7.552975e-01 2.447025e-01
 0.000000e+00 0.000000e+00 0.000000e+00 0.000000e+00 0.000000e+00
<ENDHMM>
~h "iy"
<BEGINHMM>
<NUMSTATES> 5
<STATE> 2
<MEAN> 39
 1.779765e+00 -8.436341e+00 1.000610e+01 5.543069e+00 -1.303200e+01 -1.215380e+01 -1.507327e+01 -2.675282e+00 -2.959005e+00 -8.342370e+00 3.231614e+00 -4.228964e+00 5.823492e+01 -4.342055e-02 3.128774e-01 -2.654203e-01 1.346755e-01 4.488352e-02 4.416730e-01 4.114430e-01 7.735777e-02 3.960872e-03 2.288029e-01 -3.557760e-01 1.639669e-02 -5.243849e-01 -1.229057e-01 6.238613e-02 -1.164896e-01 -9.165578e-02 7.606591e-02 2.158438e-01 1.895016e-01 -8.110885e-02 3.914883e-03 1.370184e-01 -3.778305e-02 4.765188e-02 -1.061839e-01
<VARIANCE> 39
 5.563088e+01 1.327438e+02 8.115549e+01 1.819561e+02 2.451759e+02 9.115800e+01 1.153668e+02 7.114194e+01 7.488191e+01 7.091193e+01 7.502049e+01 7.298307e+01 7.648083e+01 1.092172e+00 1.565826e+00 3.331485e+00 1.827224e+00 2.969451e+00 3.263213e+00 3.518476e+00 2.777410e+00 3.707596e+00 3.502575e+00 3.104127e+00 2.418820e+00 1.241145e+00 1.290661e-01 2.161919e-01 2.412746e-01 3.390695e-01 3.914982e-01 5.531293e-01 6.555732e-01 5.102876e-01 6.893930e-01 5.481947e-01 5.496895e-01 4.558392e-01 1.170113e-01
<GCONST> 1.292137e+02
<STATE> 3
<MEAN> 39
 -6.483271e+00 4.053218e+00 9.831922e+00 9.242622e+00 -3.591863e+00 -3.788011e+00 -6.236385e+00 -1.045105e+01 -4.662550e+00 -2.256666e-01 -3.839423e+00 -2.508202e+00 5.451170e+01 -7.432393e-01 -2.670054e-01 -9.195607e-01 -6.554240e-01 -4.032657e-02 1.065475e+00 1.156692e+00 4.909283e-02 3.576572e-01 2.282894e-01 -9.411297e-02 3.202520e-01 -7.294614e-01 1.589470e-02 -1.259019e-01 -1.174023e-01 -7.078917e-02 -8.152364e-02 -9.864795e-02 2.865575e-02 1.992620e-01 3.022643e-02 -1.053932e-01 1.600312e-01 6.724018e-02 4.744111e-02
<VARIANCE> 39
 4.390855e+01 5.448756e+01 1.190482e+02 1.110767e+02 1.801086e+02 6.862403e+01 8.566502e+01 7.120383e+01 4.083315e+01 8.303058e+01 3.788134e+01 5.195860e+01 8.626121e+01 1.336817e+00 2.357596e+00 2.711342e+00 2.774739e+00 2.747936e+00 3.670131e+00 3.739819e+00 2.534772e+00 2.713324e+00 2.764184e+00 2.263413e+00 2.513807e+00 5.291627e-01 1.355223e-01 3.952459e-01 4.095558e-01 3.585937e-01 4.711301e-01 5.813153e-01 6.661450e-01 3.929529e-01 3.932880e-01 5.628852e-01 3.635665e-01 3.329570e-01 8.363685e-02
<GCONST> 1.245183e+02
<STATE> 4
<MEAN> 39
 -7.421939e+00 -2.651095e+00 3.378702e+00 6.715715e+00 -2.502436e+00 1.927377e+00 -3.921240e-01 -1.689189e+00 1.686859e-01 -2.603633e+00 -1.838462e+00 4.987992e-03 4.722978e+01 -1.585146e-01 -1.786878e-01 -6.104742e-01 1.162228e-01 2.784232e-01 3.187139e-01 4.538111e-01 5.339641e-01 1.827155e-01 6.743552e-03 3.409715e-01 2.048803e-01 -2.925985e-01 5.002724e-02 -2.377481e-03 3.748538e-02 -3.816032e-02 -1.978775e-02 -1.213442e-01 -6.659023e-02 -3.555877e-02 -6.232458e-02 -5.033507e-02 1.024808e-02 -1.493178e-02 1.054839e-01
<VARIANCE> 39
 4.444346e+01 1.031437e+02 2.920906e+01 6.885464e+01 1.202527e+02 9.335638e+01 7.319617e+01 5.927916e+01 3.452399e+01 3.973488e+01 4.183422e+01 3.701105e+01 1.203111e+02 7.828053e-01 1.190207e+00 1.828319e+00 2.363588e+00 2.262237e+00 2.600920e+00 2.767300e+00 2.050266e+00 2.728290e+00 2.547001e+00 2.222085e+00 1.889222e+00 2.799926e-01 1.081480e-01 1.976417e-01 2.998787e-01 3.612885e-01 3.849252e-01 4.368429e-01 3.847810e-01 3.565322e-01 4.273707e-01 5.525290e-01 4.577830e-01 3.353399e-01 7.682898e-02
<GCONST> 1.160546e+02
<TRANSP> 5
 0.000000e+00 1.000000e+00 0.000000e+00 0.000000e+00 0.000000e+00
 0.000000e+00 7.232233e-01 2.767767e-01 0.000000e+00 0.000000e+00
 0.000000e+00 0.000000e+00 6.624600e-01 3.375400e-01 0.000000e+00
 0.000000e+00 0.000000e+00 0.000000e+00 6.829751e-01 3.170249e-01
 0.000000e+00 0.000000e+00 0.000000e+00 0.000000e+00 0.000000e+00
<ENDHMM>
~h "ng"
<BEGINHMM>
<NUMSTATES> 5
<STATE> 2
<MEAN> 39
 -5.190333e+00 -6.016791e+00 5.600549e+00 7.711160e+00 5.753197e+00 -9.522701e+00 8.500376e+00 -6.255578e+00 -3.006262e+00 3.867798e+00 -1.349831e+00 -1.034404e+01 7.019918e+01 2.514098e-01 1.026672e-01 -6.453260e-02 2.738373e-01 8.193543e-02 2.705581e-01 -2.534980e-01 -1.673985e-01 -1.979871e-01 -1.436774e-01 -2.038961e-01 -1.478172e-01 -3.295272e-01 1.634680e-01 1.100545e-01 -9.469191e-02 1.038204e-01 -9.518174e-02 1.245630e-02 -1.502884e-01 1.116618e-01 6.410275e-02 -1.800726e-01 1.382491e-03 1.358542e-01 -1.139232e-01
<VARIANCE> 39
 6.400589e+01 3.864466e+01 3.242736e+01 3.601642e+01 3.032696e+01 4.821107e+01 4.808000e+01 5.587474e+01 7.002734e+01 1.176508e+02 3.347129e+01 2.374307e+01 3.028122e+01 7.795610e+00 3.300957e+00 3.204862e+00 3.140134e+00 2.587410e+00 5.927756e+00 3.952832e+00 5.604523e+00 7.631051e+00 1.060058e+01 1.782200e+00 2.769281e+00 3.211982e+00 1.376924e+00 4.881651e-01 3.426591e-01 4.137793e-01 5.306299e-01 1.049139e+00 7.439061e-01 9.487126e-01 1.281758e+00 1.582420e+00 3.990506e-01 4.426184e-01 5.652013e-01
<GCONST> 1.345018e+02
<STATE> 3
<MEAN> 39
 -5.216843e+00 4.654546e+00 8.074046e+00 1.577941e+01 -2.020030e+00 -4.798843e+00 1.774682e+00 -6.262156e+00 -5.433057e-01 -2.997989e+00 -3.725677e+00 -1.586457e+00 6.088094e+01 -2.701327e-01 8.969285e-03 3.808620e-02 4.341538e-02 1.071636e-01 3.253632e-01 3.119943e-01 1.755871e-01 7.926296e-03 -4.646508e-02 9.067890e-02 1.193462e-01 -2.030065e-01 -4.714357e-02 -1.164236e-01 -7.208895e-02 -7.331175e-02 -8.030605e-03 -4.801602e-03 2.079225e-02 1.774698e-02 2.440796e-02 7.469209e-02 8.418737e-02 3.450427e-02 -1.202773e-03
<VARIANCE> 39
 2.258261e+01 6.316047e+01 2.483477e+01 1.655527e+01 3.855969e+01 3.908295e+01 3.755665e+01 1.952744e+01 2.503975e+01 2.814551e+01 1.885904e+01 2.344155e+01 8.087316e+00 1.460842e+00 5.766631e+00 2.690514e+00 1.626868e+00 1.939912e+00 3.496404e+00 3.174191e+00 1.941871e+00 2.476012e+00 2.412201e+00 1.888360e+00 1.568582e+00 8.350405e-01 2.040928e-01 8.816417e-01 5.282905e-01 3.512595e-01 3.724138e-01 5.811781e-01 6.294524e-01 3.799780e-01 5.083258e-01 4.998806e-01 3.897156e-01 2.988027e-01 1.737490e-01
<GCONST> 1.120166e+02
<STATE> 4
<MEAN> 39
 -9.879398e+00 1.674146e+00 2.030090e+00 1.054370e+01 2.371707e+00 3.303649e+00 8.630359e+00 -2.055272e-01 3.209216e+00 -1.960237e-01 1.713165e+00 -1.516835e-01 5.567025e+01 -6.133181e-02 -1.055816e-01 -1.218383e-01 -1.599558e-01 -1.204960e-01 -2.637333e-02 -1.044266e-02 7.101956e-03 3.761179e-02 -8.773251e-03 2.593474e-02 5.724854e-02 -5.430243e-02 1.888817e-02 1.372152e-02 1.969711e-02 2.905823e-02 9.841994e-03 -1.157319e-02 -1.775907e-02 -2.332657e-02 -2.468698e-02 -6.405178e-03 -3.147568e-02 -2.481768e-02 1.503949e-02
<VARIANCE> 39
 2.470292e+01 2.512856e+01 1.056079e+01 1.826760e+01 4.447785e+01 3.156317e+01 2.151976e+01 2.255758e+01 2.307977e+01 3.228910e+01 1.157944e+01 2.641935e+01 4.625934e+00 2.289608e-01 6.537079e-01 6.387469e-01 9.447919e-01 1.098578e+00 1.353639e+00 1.375159e+00 1.209996e+00 1.286456e+00 1.146409e+00 8.914384e-01 9.214271e-01 1.033309e-01 3.210868e-02 9.858478e-02 1.051431e-01 1.737404e-01 2.238688e-01 2.990532e-01 2.819300e-01 2.060946e-01 2.062851e-01 2.157988e-01 1.522827e-01 1.680215e-01 1.828431e-02
<GCONST> 8.100800e+01
<TRANSP> 5
 0.000000e+00 1.000000e+00 0.000000e+00 0.000000e+00 0.000000e+00
 0.000000e+00 8.933939e-01 1.066060e-01 0.000000e+00 0.000000e+00
 0.000000e+00 0.000000e+00 9.540048e-01 4.599522e-02 0.000000e+00
 0.000000e+00 0.000000e+00 0.000000e+00 9.725298e-01 2.747024e-02
 0.000000e+00 0.000000e+00 0.000000e+00 0.000000e+00 0.000000e+00
<ENDHMM>
~h "ow"
<BEGINHMM>
<NUMSTATES> 5
<STATE> 2
<MEAN> 39
 -4.943430e+00 8.192632e-01 -5.937191e+00 -9.865450e-01 8.793791e-01 -1.172647e+00 2.708988e+00 -3.655184e+00 -3.215111e+00 -2.124602e+00 -5.315235e-01 -4.015772e+00 5.990913e+01 1.335665e+00 -6.615369e-01 -5.346609e-01 -1.417901e+00 -4.060380e-01 -1.291430e+00 -3.672658e-01 -3.588900e-01 -7.808977e-01 -4.366502e-02 -3.754641e-01 -5.419101e-01 2.301943e+00 1.757604e-01 7.595121e-02 4.971851e-02 2.187260e-01 -2.947220e-02 -8.604095e-02 -2.304158e-01 6.845219e-02 1.596420e-01 -1.534797e-01 -3.852188e-02 4.607839e-03 -1.086471e-01
<VARIANCE> 39
 9.855250e+01 7.989851e+01 6.634078e+01 1.090280e+02 1.898360e+02 1.290868e+02 1.319520e+02 9.922557e+01 1.091503e+02 7.501814e+01 6.820419e+01 6.499076e+01 2.366120e+02 7.806822e+00 3.457148e+00 3.791852e+00 9.222631e+00 6.962950e+00 9.847105e+00 8.095248e+00 7.015455e+00 8.667117e+00 5.525436e+00 6.869288e+00 4.355417e+00 7.637669e+00 1.142040e+00 5.394056e-01 6.533533e-01 1.505048e+00 1.111890e+00 1.437811e+00 1.236774e+00 1.182875e+00 1.292426e+00 9.171838e-01 1.208015e+00 8.082756e-01 1.464532e+00
<GCONST> 1.572888e+02
<STATE> 3
<MEAN> 39
 4.088624e+00 3.957320e+00 -7.224753e+00 -3.688329e+00 -3.962019e+00 -6.093652e+00 2.761307e+00 -6.087936e+00 -7.090419e+00 -7.538857e+00 4.456369e-01 -4.846610e+00 6.621165e+01 -1.268155e-01 2.777218e-01 1.333323e-01 4.311367e-01 -2.034742e-02 1.492196e-01 -1.282823e-01 1.748999e-01 1.298558e-01 -5.693435e-01 -1.118595e-01 3.509302e-01 -5.110157e-01 -2.035153e-01 9.079855e-02 1.145155e-01 1.364190e-01 8.920357e-02 1.723683e-01 1.901357e-02 -5.268208e-02 8.420244e-02 8.302633e-02 1.001949e-02 6.950008e-03 -1.904879e-01
<VARIANCE> 39
 4.145440e+01 5.603419e+01 5.150921e+01 1.301698e+02 9.672412e+01 1.939000e+02 1.069941e+02 1.229205e+02 9.939404e+01 7.426682e+01 1.387561e+02 1.009481e+02 1.066057e+02 9.033511e-01 1.250145e+00 1.620726e+00 2.541500e+00 2.692479e+00 3.962826e+00 2.552108e+00 3.822088e+00 3.451664e+00 2.486778e+00 3.306727e+00 2.447537e+00 8.666431e-01 1.304891e-01 1.992724e-01 2.290685e-01 4.257375e-01 5.069278e-01 5.810820e-01 4.571470e-01 6.962501e-01 5.772667e-01 4.813367e-01 5.420908e-01 5.004811e-01 1.108363e-01
<GCONST> 1.278361e+02
<STATE> 4
<MEAN> 39
 8.366078e-01 1.825338e+00 -6.063566e+00 -6.395056e+00 -9.288400e+00 2.165775e-01 -4.591902e+00 -1.503386e+00 -1.852886e+00 -3.182788e+00 -2.087483e+00 -3.674917e-02 5.069514e+01 -5.034419e-01 1.582407e-01 1.866616e-01 4.778998e-01 1.301130e-01 2.129668e-01 1.400620e-01 3.885422e-02 2.534491e-02 3.972018e-02 1.186343e-01 6.542632e-02 -6.686003e-01 -3.584851e-02 -5.297705e-02 -1.643047e-02 2.421886e-02 5.875362e-02 -6.084021e-03 1.830233e-02 -3.150635e-02 -6.520969e-03 4.531025e-02 3.858793e-02 -1.030163e-02 4.545837e-03
<VARIANCE> 39
 6.364249e+01 1.092937e+02 5.638799e+01 9.439291e+01 1.357437e+02 1.171881e+02 8.857844e+01 5.592673e+01 5.422031e+01 7.002112e+01 4.174662e+01 4.644265e+01 1.448015e+02 7.724634e-01 1.307185e+00 1.235111e+00 1.751577e+00 2.163725e+00 2.134812e+00 2.100540e+00 2.000080e+00 1.938377e+00 1.985571e+00 1.892165e+00 1.554440e+00 3.742690e-01 6.372756e-02 1.580625e-01 1.782878e-01 2.412312e-01 3.093861e-01 3.530235e-01 3.448019e-01 3.364984e-01 3.104559e-01 3.288100e-01 3.297496e-01 2.606910e-01 4.169158e-02
<GCONST> 1.132387e+02
<TRANSP> 5
 0.000000e+00 1.000000e+00 0.000000e+00 0.000000e+00 0.000000e+00
 0.000000e+00 7.435213e-01 2.564787e-01 0.000000e+00 0.000000e+00
 0.000000e+00 0.000000e+00 7.533983e-01 2.466017e-01 0.000000e+00
 0.000000e+00 0.000000e+00 0.000000e+00 8.814474e-01 1.185526e-01
 0.000000e+00 0.000000e+00 0.000000e+00 0.000000e+00 0.000000e+00
<ENDHMM>
~h "sh"
<BEGINHMM>
<NUMSTATES> 5
<STATE> 2
<MEAN> 39
 -5.785692e+00 7.150689e-01 8.228255e+00 8.264805e+00 -9.540649e-01 -1.024144e+01 2.793463e+00 -2.328384e+00 -4.798683e-01 -5.972477e+00 -2.569815e+00 -1.841895e+00 6.647653e+01 -1.045824e+00 -1.448290e+00 4.421440e-01 3.509673e-01 5.579218e-01 3.681967e-01 1.802545e-01 3.130801e-01 7.451293e-01 3.994026e-01 6.007717e-02 4.876695e-01 -1.398813e-01 1.127884e-02 -1.362547e-02 -1.262841e-02 2.178507e-02 9.150345e-02 -8.543866e-02 -7.945401e-02 -9.986059e-02 -4.670208e-02 -6.239093e-02 -5.209797e-02 1.916763e-02 1.289418e-02
<VARIANCE> 39
 1.043164e+02 1.322972e+02 5.070432e+01 2.910918e+01 7.211349e+01 3.838584e+01 8.766702e+01 3.721659e+01 6.740494e+01 1.663762e+01 4.554793e+01 5.834446e+01 2.133831e+01 5.481442e+00 8.682378e+00 3.220322e+00 3.108395e+00 2.639231e+00 2.454479e+00 5.352938e+00 2.823390e+00 7.033344e+00 2.255076e+00 2.519755e+00 1.780954e+00 1.211068e+00 6.629797e-01 1.094618e+00 4.790363e-01 5.130270e-01 3.978328e-01 5.768809e-01 8.854904e-01 5.116680e-01 7.835026e-01 2.753310e-01 6.023186e-01 4.574055e-01 2.720867e-01
