~o
<STREAMINFO> 1 39
<VECSIZE> 39<NULLD><MFCC_D_A_0><DIAGC>
~h "b"
<BEGINHMM>
<NUMSTATES> 5
<STATE> 2
<MEAN> 39
 3.470287e+00 7.252957e+00 -6.161650e+00 2.255864e+00 1.037308e+01 -5.006204e+00 -3.001758e-01 -5.441157e+00 -1.268121e+01 -5.516431e+00 -2.238547e+00 -1.281754e+00 6.862782e+01 -1.957011e+00 -8.446171e-02 6.023788e-01 6.285648e-01 5.457982e-01 6.887697e-01 1.945507e+00 -7.596465e-02 -7.761616e-02 6.747383e-02 2.760094e-01 6.572250e-01 -1.198365e+00 -2.210253e-01 -2.549700e-01 -1.377065e-01 -4.163070e-01 -6.451694e-01 -3.876328e-02 3.361763e-02 3.109610e-01 7.385418e-01 2.949217e-02 4.750916e-02 8.197522e-02 -3.205879e-01
<VARIANCE> 39
 2.840815e+01 7.130270e+01 1.323219e+02 5.741014e+01 9.905107e+01 9.503307e+00 2.988684e+01 2.335629e+01 1.288521e+01 5.438403e+01 9.711989e-01 3.899345e+01 5.403102e+01 6.534006e-01 3.365311e+00 3.201067e+00 3.823874e+00 2.048748e+00 2.529228e+00 1.983469e+00 5.965350e+00 3.027811e+00 1.724659e+00 2.380596e-01 1.517123e+00 1.683932e+00 2.246893e-01 3.200202e-01 5.794474e-01 2.917130e-01 5.876472e-01 6.031319e-01 5.209365e-01 1.255232e+00 3.005382e-01 4.281851e-01 4.432102e-02 5.691816e-01 1.942553e-01
<GCONST> 1.111210e+02
<STATE> 3
<MEAN> 39
 -2.878509e+00 6.911437e+00 -7.266302e+00 1.586005e+00 3.666341e+00 -1.564496e+00 5.801404e+00 -7.853864e+00 -5.349447e+00 -3.193346e+00 -9.138266e-01 -1.818838e+00 6.068097e+01 -1.042382e+00 -1.374281e+00 -8.662400e-01 -8.208842e-01 -1.066858e+00 -9.087803e-02 -5.843080e-01 -1.757272e+00 9.883813e-01 2.544001e-01 1.271444e+00 -2.472313e-01 -5.615269e-01 3.200157e-01 8.450521e-02 3.935781e-01 -4.478374e-02 4.766405e-01 -6.784738e-01 -3.536081e-01 -2.053563e-01 -6.180040e-01 -7.095487e-02 1.040018e-01 -3.366601e-03 7.399053e-01
<VARIANCE> 39
 3.680815e+01 1.241201e+01 1.127927e+02 9.333963e+01 2.693144e+01 2.630073e+01 8.354123e+00 3.854119e+01 1.920308e+01 2.164356e+01 6.457343e+00 2.992029e+01 2.275937e+01 6.888602e-01 2.328544e+00 2.507389e+00 2.948622e+00 6.047323e+00 7.405686e+00 1.133525e+00 4.262849e+00 2.276652e+00 2.682411e+00 6.922139e-01 1.812756e+00 2.282000e+00 3.539216e-01 5.979903e-01 6.799892e-01 7.604081e-01 9.283259e-01 1.514597e+00 5.654870e-01 7.998222e-01 4.631201e-01 2.965906e-01 2.653533e-01 2.616841e-01 4.558002e-01
<GCONST> 1.164277e+02
<STATE> 4
<MEAN> 39
 -3.600235e+00 7.153005e+00 9.522405e-01 4.430295e+00 8.078955e+00 -6.083554e+00 -1.425825e+00 -9.152342e+00 -9.311931e+00 -8.752444e+00 1.343337e+00 -2.496376e+00 6.487822e+01 -1.729371e-01 -1.531688e-01 6.831733e-01 4.526116e-01 3.505968e-01 -3.819039e-01 3.652586e-02 -1.983578e-02 2.239607e-02 -7.788654e-02 -2.693847e-01 -1.173983e-01 4.456746e-01 8.090694e-02 -7.168765e-02 2.120070e-02 1.918947e-01 2.338198e-02 -1.465566e-02 1.242797e-02 7.283095e-02 3.403488e-02 3.541308e-02 -8.730843e-02 4.285926e-03 9.667505e-02
<VARIANCE> 39
 3.343814e+01 6.513363e+01 3.873897e+01 7.446271e+01 6.848443e+01 6.413837e+01 2.931805e+01 1.966341e+01 6.865579e+01 2.655102e+01 1.841547e+01 2.293280e+01 4.635951e+01 5.416706e+00 9.343976e+00 2.217069e+00 4.150920e+00 7.803405e+00 1.053165e+01 4.744992e+00 2.824050e+00 7.747553e+00 3.084744e+00 1.892789e+00 1.344144e+00 7.091521e+00 1.142268e+00 1.396064e+00 2.494816e-01 6.945596e-01 1.208040e+00 1.981521e+00 1.245452e+00 5.354144e-01 1.034783e+00 6.812842e-01 3.695423e-01 1.981105e-01 1.105030e+00
<GCONST> 1.349973e+02
<TRANSP> 5
 0.000000e+00 1.000000e+00 0.000000e+00 0.000000e+00 0.000000e+00
 0.000000e+00 6.579375e-01 3.420625e-01 0.000000e+00 0.000000e+00
 0.000000e+00 0.000000e+00 6.661117e-01 3.338883e-01 0.000000e+00
 0.000000e+00 0.000000e+00 0.000000e+00 8.591066e-01 1.408934e-01
 0.000000e+00 0.000000e+00 0.000000e+00 0.000000e+00 0.000000e+00
<ENDHMM>
~h "d"
<BEGINHMM>
<NUMSTATES> 5
<STATE> 2
<MEAN> 39
 -6.573359e+00 7.190015e+00 -3.064933e+00 4.984949e+00 -1.412934e+00 4.130474e+00 9.982085e+00 3.081404e+00 7.776774e+00 -6.000025e+00 -5.395067e+00 -9.318648e+00 5.664080e+01 -1.069104e+00 -9.996284e-01 -1.771389e-01 8.252504e-01 7.147794e-01 -9.704238e-02 -7.024594e-01 -9.184557e-02 7.612010e-01 5.552444e-01 3.712682e-01 5.424210e-01 -6.275702e-01 9.791785e-02 -6.402988e-03 -1.154161e-01 -5.607112e-02 -1.380851e-02 -2.824567e-01 -3.227776e-01 -2.409479e-01 -4.397161e-01 -1.848173e-01 1.026503e-01 1.798125e-01 6.443356e-02
<VARIANCE> 39
 1.855224e+01 2.748880e+01 3.393859e+01 2.378839e+01 1.387474e+01 1.906518e+01 2.155178e+01 1.533880e+01 1.944426e+01 2.055516e+01 2.369996e+01 2.201171e+01 4.484947e+00 7.031403e-01 5.549161e-01 6.579127e-01 1.228981e+00 1.787784e+00 1.371736e+00 2.047958e+00 2.226339e+00 3.472010e+00 7.205743e-01 2.053357e+00 9.916304e-01 2.252542e-01 9.101070e-02 1.281656e-01 1.535723e-01 2.707269e-01 2.133408e-01 2.933719e-01 2.875044e-01 2.707571e-01 3.427601e-01 1.353896e-01 3.288167e-01 1.477774e-01 2.177601e-02
<GCONST> 8.825351e+01
<STATE> 3
<MEAN> 39
 -1.325928e+01 3.501111e+00 -4.056302e+00 7.351076e+00 2.003051e+00 3.383716e+00 6.133421e+00 1.673701e+00 6.928841e+00 -6.284615e+00 -7.622966e-01 -6.035111e+00 5.062527e+01 -1.176073e-01 1.920293e-02 3.885645e-02 1.503790e-02 -2.480754e-02 1.007011e-02 3.582914e-02 6.024153e-02 -1.030968e-02 -2.347197e-02 4.120310e-02 4.945194e-02 -1.653815e-01 2.389673e-02 1.188427e-02 1.552548e-03 7.974464e-04 -2.868095e-02 -1.015954e-02 -6.400722e-03 6.423099e-03 8.937354e-04 -5.871185e-05 -1.825965e-02 -2.857892e-02 1.241631e-02
<VARIANCE> 39
 4.112977e+00 4.086096e+00 1.286275e+01 1.465984e+01 1.372003e+01 1.424751e+01 1.341326e+01 1.546321e+01 1.230954e+01 1.293999e+01 1.220227e+01 1.113440e+01 1.173709e+01 1.808436e-01 2.936376e-01 5.699589e-01 8.292152e-01 9.610258e-01 8.874664e-01 9.338714e-01 1.152198e+00 9.703010e-01 7.902226e-01 1.036603e+00 8.180405e-01 6.626368e-02 3.422901e-02 6.012673e-02 9.604955e-02 1.601684e-01 2.227861e-01 1.655208e-01 1.646724e-01 2.241752e-01 2.036155e-01 1.523040e-01 2.106720e-01 1.350092e-01 1.181440e-02
<GCONST> 6.744676e+01
<STATE> 4
<MEAN> 39
 -1.495847e+01 -2.956249e-01 -4.301441e-02 1.044917e+01 -1.577557e+00 4.033675e-01 6.147253e+00 -7.328463e-01 4.424091e+00 -1.755449e+00 7.183699e-02 -5.292571e-02 5.040584e+01 -1.526755e-02 -1.581227e-02 -2.258733e-02 2.775701e-02 1.103245e-02 4.117169e-02 3.259328e-02 2.905289e-02 1.285291e-02 -2.817052e-03 -8.244761e-03 5.300524e-03 -4.705395e-02 1.363025e-02 -1.123791e-02 -3.266603e-03 1.491014e-02 3.202394e-02 1.606988e-02 5.210194e-03 -1.069722e-03 -7.729210e-03 -1.701150e-02 -1.482413e-03 3.955647e-03 1.912939e-02
<VARIANCE> 39
 7.545540e+00 2.774629e+01 5.755672e+00 1.049500e+01 3.940299e+01 3.309159e+01 1.610093e+01 1.614223e+01 1.890901e+01 2.637363e+01 1.471772e+01 4.327266e+01 6.545309e+01 2.060694e-01 7.712985e-01 5.922544e-01 9.677861e-01 8.549448e-01 1.125992e+00 1.531936e+00 1.382834e+00 1.690767e+00 1.168645e+00 1.279331e+00 1.302583e+00 2.715210e-01 4.942701e-02 1.751291e-01 1.225462e-01 2.052255e-01 1.697195e-01 1.999444e-01 3.197613e-01 2.845298e-01 3.624012e-01 2.472015e-01 2.623168e-01 2.483586e-01 5.326634e-02
<GCONST> 8.662160e+01
<TRANSP> 5
 0.000000e+00 1.000000e+00 0.000000e+00 0.000000e+00 0.000000e+00
 0.000000e+00 8.086759e-01 1.913241e-01 0.000000e+00 0.000000e+00
 0.000000e+00 0.000000e+00 9.645810e-01 3.541899e-02 0.000000e+00
 0.000000e+00 0.000000e+00 0.000000e+00 9.725966e-01 2.740342e-02
 0.000000e+00 0.000000e+00 0.000000e+00 0.000000e+00 0.000000e+00
<ENDHMM>
~h "f"
<BEGINHMM>
<NUMSTATES> 5
<STATE> 2
<MEAN> 39
 -1.433742e+01 1.287585e+00 -5.268482e+00 7.996362e+00 4.611855e+00 1.156826e+00 7.596250e+00 -3.275407e+00 2.062645e+00 -3.694245e+00 8.618160e-01 -1.253433e+00 5.947224e+01 -5.981069e-01 -2.191317e-01 -7.198890e-02 -9.482183e-02 2.186670e-01 -9.067835e-02 9.900886e-02 7.669009e-02 2.375723e-01 -1.166116e-02 -3.719052e-04 1.999371e-01 2.371347e-01 1.822226e-01 5.350689e-02 4.232084e-03 -5.468949e-02 -2.742297e-02 -8.828503e-02 -1.092011e-01 -6.074332e-02 -8.810690e-02 -7.098440e-03 -2.050916e-02 -7.765730e-02 7.759049e-03
<VARIANCE> 39
 6.574218e+01 5.611174e+01 4.801149e+01 5.976391e+01 8.953123e+01 8.693748e+01 4.432696e+01 4.905753e+01 5.754934e+01 5.463587e+01 3.679961e+01 4.935562e+01 9.412197e+01 2.257147e+00 2.236931e+00 1.579524e+00 1.726745e+00 2.739858e+00 2.625667e+00 2.898619e+00 2.601303e+00 2.809182e+00 2.287354e+00 2.280377e+00 2.037299e+00 9.617661e-01 3.792370e-01 3.948232e-01 2.899403e-01 3.289983e-01 5.489576e-01 4.952848e-01 5.869046e-01 4.998028e-01 4.855278e-01 4.355076e-01 4.466191e-01 3.945638e-01 1.487579e-01
<GCONST> 1.225996e+02
<STATE> 3
<MEAN> 39
 -1.836998e+01 -5.117807e-01 -4.484467e+00 3.756304e+00 7.464518e+00 -1.339601e+00 4.706758e+00 -5.191248e+00 -1.428041e+00 -2.174580e+00 9.762470e-01 -6.250773e-01 5.591980e+01 2.754014e+00 9.407933e-01 -5.577089e-01 -1.405039e+00 -1.039923e+00 -6.720424e-01 -7.698107e-01 -4.055585e-01 -2.924288e-01 -1.712220e-01 -6.180516e-01 -6.784863e-01 6.828893e-01 1.179629e+00 3.650881e-01 -8.058223e-02 -4.221135e-01 -7.793360e-01 -3.596745e-01 -1.796674e-01 -7.122588e-02 -1.102817e-01 -4.096698e-02 -2.041910e-01 -2.326245e-01 4.889902e-01
<VARIANCE> 39
 5.417054e+01 5.452178e+01 4.709687e+01 6.794125e+01 1.112657e+02 7.423267e+01 7.723111e+01 6.219141e+01 5.773038e+01 1.068791e+02 5.144144e+01 4.313038e+01 1.503042e+02 1.040755e+01 6.391872e+00 3.674589e+00 7.295757e+00 7.508107e+00 5.824039e+00 4.835563e+00 4.624794e+00 4.950378e+00 5.007191e+00 2.500612e+00 3.220195e+00 3.297924e+00 8.141844e-01 8.299680e-01 6.009108e-01 1.179641e+00 1.253627e+00 1.188047e+00 9.647429e-01 8.804564e-01 9.624729e-01 9.930227e-01 5.624415e-01 7.154986e-01 5.106196e-01
<GCONST> 1.454125e+02
<STATE> 4
<MEAN> 39
 -2.722306e-01 -2.998320e+00 -2.550916e+00 -5.595378e+00 -9.193336e+00 -8.160381e-01 -2.382841e+00 -5.354641e+00 -1.433116e+00 -5.936982e+00 -7.945142e-01 -2.418272e+00 5.571788e+01 4.018714e+00 7.679611e-01 -6.887826e-01 -2.449503e+00 -2.154062e+00 -1.043139e+00 -6.635832e-01 -4.087471e-01 -4.677424e-01 -4.524488e-01 -2.712576e-01 -8.352856e-01 2.362957e+00 -7.455286e-01 -5.308878e-01 -4.556973e-02 2.833494e-01 2.643078e-01 4.552525e-02 1.571315e-01 1.839235e-01 1.695576e-01 1.884877e-01 2.014351e-01 9.069780e-02 -4.303520e-02
<VARIANCE> 39
 5.098557e+01 2.545897e+02 8.167417e+01 1.391072e+02 1.523834e+02 8.484150e+01 6.817204e+01 6.685419e+01 4.721776e+01 3.305799e+01 3.627069e+01 3.014266e+01 1.314488e+02 1.052981e+01 6.836687e+00 3.841746e+00 9.456928e+00 7.470090e+00 8.210472e+00 5.090175e+00 4.763381e+00 4.268132e+00 4.286114e+00 4.447011e+00 3.875566e+00 5.346852e+00 1.002727e+00 7.154385e-01 4.200384e-01 1.062654e+00 6.131616e-01 6.108764e-01 4.487842e-01 5.605634e-01 4.808778e-01 5.655390e-01 4.663106e-01 4.347826e-01 5.488810e-01
<GCONST> 1.432119e+02
<TRANSP> 5
 0.000000e+00 1.000000e+00 0.000000e+00 0.000000e+00 0.000000e+00
 0.000000e+00 8.962883e-01 1.037117e-01 0.000000e+00 0.000000e+00
 0.000000e+00 0.000000e+00 6.938214e-01 3.061786e-01 0.000000e+00
 0.000000e+00 0.000000e+00 0.000000e+00 5.743742e-01 4.256258e-01
 0.000000e+00 0.000000e+00 0.000000e+00 0.000000e+00 0.000000e+00
<ENDHMM>
~h "g"
<BEGINHMM>
<NUMSTATES> 5
<STATE> 2
<MEAN> 39
 -6.973315e+00 5.262779e+00 -3.062682e+00 9.805519e+00 2.053166e+00 1.935422e+00 5.789018e+00 -2.175448e+00 5.035585e+00 -5.890177e+00 1.516777e-01 -4.013318e+00 6.212804e+01 3.424082e-01 4.942718e-01 2.469177e-01 2.290687e-01 4.524345e-01 -1.645471e-02 -1.985754e-01 -5.454598e-02 -1.063138e-01 -1.191110e-01 -7.527423e-02 -1.750606e-01 1.164233e-01 -5.529933e-03 2.293618e-02 4.603881e-02 -4.555866e-02 -4.340033e-02 -1.323567e-03 -7.666675e-03 4.954130e-02 -1.121639e-03 5.732366e-02 1.426890e-01 4.022367e-02 -3.128634e-02
<VARIANCE> 39
 4.500782e+01 5.547264e+01 6.168356e+01 2.736331e+01 5.213160e+01 3.125605e+01 3.261531e+01 4.110043e+01 4.519987e+01 3.378053e+01 1.691858e+01 4.508747e+01 3.384814e+01 1.395792e+00 2.769202e+00 2.594070e+00 1.947188e+00 1.763786e+00 1.411395e+00 2.742795e+00 2.243089e+00 2.986448e+00 1.771196e+00 1.795810e+00 2.078451e+00 5.521695e-01 2.373959e-01 3.729592e-01 4.144583e-01 3.760775e-01 3.005139e-01 2.359864e-01 5.645940e-01 4.488131e-01 5.712990e-01 3.025041e-01 2.770302e-01 4.257239e-01 9.252644e-02
<GCONST> 1.125318e+02
<STATE> 3
<MEAN> 39
 -6.084867e+00 8.690528e+00 -1.163732e+00 1.125867e+01 1.565168e+00 3.758622e+00 6.969880e+00 -3.619196e-02 6.148131e+00 -4.596580e+00 3.518783e+00 -4.523901e+00 5.953490e+01 -2.576342e-02 -1.292371e-02 8.958407e-02 -9.883899e-02 -1.115364e-01 -4.255639e-02 -1.712713e-02 2.900975e-01 5.097479e-02 1.783538e-01 2.810723e-02 1.511081e-01 -8.990686e-02 -4.301073e-02 -1.337197e-01 -1.373090e-01 -1.155419e-01 5.111194e-03 -2.938228e-02 1.030734e-02 -3.026739e-02 -1.271197e-01 -3.042399e-02 -1.328607e-01 3.546984e-02 8.168486e-02
<VARIANCE> 39
 9.120727e+01 4.437712e+01 6.430666e+01 3.034619e+01 4.186221e+01 2.831885e+01 2.825361e+01 3.106599e+01 3.496340e+01 4.142360e+01 2.349078e+01 3.685257e+01 2.670890e+01 1.877213e-01 3.395273e-01 5.560841e-01 7.615425e-01 1.144080e+00 1.244844e+00 1.213728e+00 1.106794e+00 1.516229e+00 1.577118e+00 1.621537e+00 1.109507e+00 8.016977e-02 9.731074e-02 1.294779e-01 1.614637e-01 2.114527e-01 2.588955e-01 2.060638e-01 2.280285e-01 2.654485e-01 4.857100e-01 3.908699e-01 3.002455e-01 2.429942e-01 4.939152e-02
<GCONST> 9.393915e+01
<STATE> 4
<MEAN> 39
 -3.214756e+00 6.713561e+00 -3.923651e+00 7.111838e+00 1.904074e+00 -9.788346e-01 4.012791e+00 1.202879e+00 3.024945e+00 -8.888833e+00 1.798221e+00 -6.853175e+00 6.530747e+01 -7.640663e-02 -3.816802e-01 -3.331494e-01 -5.455245e-01 -2.171449e-01 -1.499507e-01 7.734575e-02 -6.103612e-02 -2.574987e-01 2.277981e-02 -1.317269e-01 8.213248e-02 4.631470e-01 -1.947153e-02 -1.781824e-01 -2.045851e-01 -3.491486e-01 3.040695e-03 -8.671965e-02 3.094483e-01 -3.003790e-01 -4.168080e-01 -5.012851e-02 -3.908741e-02 -4.039788e-02 4.312904e-01
<VARIANCE> 39
 6.926714e+01 3.903367e+01 5.368897e+01 4.179801e+01 4.132728e+01 8.492039e+01 3.049856e+01 3.340065e+01 3.070498e+01 8.541980e+01 2.171074e+01 4.134685e+01 6.897465e+01 2.732136e+00 1.875710e+00 2.863573e+00 2.719394e+00 2.414897e+00 3.885779e+00 3.534090e+00 2.536719e+00 2.856849e+00 4.607923e+00 2.497306e+00 2.198101e+00 1.525467e+00 6.386489e-01 3.088263e-01 4.223950e-01 5.377471e-01 5.629594e-01 8.653888e-01 7.998338e-01 6.950619e-01 7.862306e-01 9.882411e-01 6.536062e-01 4.373418e-01 4.994897e-01
<GCONST> 1.275016e+02
<TRANSP> 5
 0.000000e+00 1.000000e+00 0.000000e+00 0.000000e+00 0.000000e+00
 0.000000e+00 8.256991e-01 1.743010e-01 0.000000e+00 0.000000e+00
 0.000000e+00 0.000000e+00 7.943007e-01 2.056993e-01 0.000000e+00
 0.000000e+00 0.000000e+00 0.000000e+00 7.499585e-01 2.500415e-01
 0.000000e+00 0.000000e+00 0.000000e+00 0.000000e+00 0.000000e+00
<ENDHMM>
~h "k"
<BEGINHMM>
<NUMSTATES> 5
<STATE> 2
<MEAN> 39
 -1.270787e+01 1.373968e+00 2.053175e+00 2.984809e+00 -2.693873e-02 1.246992e+00 2.667917e+00 -4.187885e+00 -1.026881e-01 -4.534727e+00 -4.821257e-01 -2.090092e+00 5.551302e+01 -6.531485e-01 4.784223e-01 3.026261e-01 -2.052546e-02 -1.888693e-01 -4.717912e-02 8.518124e-02 5.410453e-01 -3.484727e-01 -1.141695e-02 1.104929e-01 1.479100e-02 -6.161850e-01 7.784475e-02 -2.890025e-02 3.970286e-02 4.710193e-02 -5.509668e-02 -2.528671e-01 -1.312475e-01 -2.274802e-01 7.194234e-02 3.051586e-01 1.597276e-01 2.477970e-02 4.463312e-02
<VARIANCE> 39
 1.091746e+02 6.639517e+01 1.171648e+02 7.410392e+01 8.254981e+01 1.143286e+02 1.110236e+02 8.255840e+01 4.552404e+01 5.702981e+01 4.547900e+01 4.382656e+01 1.357641e+02 4.536388e-01 1.546822e+00 3.041930e+00 1.710958e+00 2.797621e+00 1.812889e+00 2.017589e+00 2.291674e+00 1.535659e+00 2.408735e+00 2.205500e+00 1.603122e+00 5.261933e-01 1.273186e-01 2.425276e-01 4.172496e-01 3.065473e-01 4.618874e-01 4.294728e-01 5.699170e-01 5.380706e-01 4.221393e-01 3.955727e-01 4.222619e-01 2.355006e-01 1.114440e-01
<GCONST> 1.200337e+02
<STATE> 3
<MEAN> 39
 -1.369747e+01 -1.171247e-01 7.743639e-01 2.182349e+00 -2.446405e+00 -2.107174e+00 3.971706e-01 -4.638772e+00 3.382712e-01 -3.230371e+00 -6.288125e-01 -8.199303e-01 5.283438e+01 -5.060848e-01 3.012878e-01 6.555419e-02 2.314609e-01 4.307827e-02 -1.145209e-01 -6.153726e-02 2.494890e-01 2.317900e-01 5.253684e-01 1.946183e-01 2.158100e-01 -5.795311e-01 1.448347e-01 -9.377611e-02 -2.337839e-02 1.147401e-01 9.037766e-02 -8.219253e-02 7.025468e-02 -2.315195e-01 7.046494e-02 1.125593e-01 3.230917e-02 -2.455349e-02 1.319921e-01
<VARIANCE> 39
 9.673521e+01 5.674892e+01 1.088919e+02 5.551379e+01 5.639865e+01 1.122301e+02 9.636720e+01 6.021901e+01 4.200836e+01 4.677144e+01 3.826607e+01 3.361857e+01 1.602334e+02 3.744972e-01 1.118196e+00 2.159649e+00 1.589447e+00 1.961696e+00 1.690890e+00 2.824008e+00 2.462672e+00 2.555010e+00 1.933552e+00 2.292430e+00 1.253199e+00 4.263479e-01 6.551427e-02 1.375533e-01 2.364697e-01 1.906704e-01 2.728087e-01 2.548622e-01 2.487101e-01 4.539930e-01 2.752984e-01 3.119546e-01 2.516384e-01 1.869131e-01 4.470436e-02
<GCONST> 1.102600e+02
<STATE> 4
<MEAN> 39
 -2.354613e+00 -2.621724e-02 -1.829732e+00 5.032689e+00 3.436096e+00 5.807656e+00 5.022797e+00 5.677036e-01 2.534736e+00 -4.827929e+00 6.470003e-01 -2.873688e+00 5.710530e+01 -3.746438e-02 3.644979e-02 1.506233e-02 8.253723e-02 7.280309e-02 8.055735e-03 3.482981e-02 -3.900902e-02 4.016574e-02 6.152033e-02 6.877592e-03 2.278959e-02 -4.752785e-02 1.707288e-02 -3.415871e-02 -2.301843e-02 -1.878334e-03 1.712678e-03 -1.341382e-02 1.660485e-02 -8.445982e-03 -3.859089e-03 -2.757267e-02 -1.118461e-02 -1.047588e-04 1.928060e-02
<VARIANCE> 39
 5.796536e+01 5.529490e+01 3.134026e+01 2.661114e+01 5.150594e+01 3.634781e+01 3.805285e+01 2.961095e+01 2.350335e+01 3.328070e+01 2.409626e+01 2.839240e+01 9.625894e+01 2.741267e-01 5.377382e-01 7.536942e-01 1.088232e+00 1.150755e+00 1.417977e+00 1.579250e+00 1.764732e+00 1.994946e+00 1.896717e+00 1.875150e+00 1.254935e+00 1.050198e-01 5.387871e-02 1.024914e-01 1.505205e-01 1.804543e-01 2.286646e-01 2.989579e-01 2.985457e-01 3.239754e-01 3.966499e-01 3.893737e-01 3.992096e-01 2.431512e-01 2.475100e-02
<GCONST> 9.640704e+01
<TRANSP> 5
 0.000000e+00 1.000000e+00 0.000000e+00 0.000000e+00 0.000000e+00
 0.000000e+00 1.513692e-06 9.999985e-01 0.000000e+00 0.000000e+00
 0.000000e+00 0.000000e+00 3.199835e-01 6.800166e-01 0.000000e+00
 0.000000e+00 0.000000e+00 0.000000e+00 8.646764e-01 1.353237e-01
 0.000000e+00 0.000000e+00 0.000000e+00 0.000000e+00 0.000000e+00
<ENDHMM>
~h "l"
<BEGINHMM>
<NUMSTATES> 5
<STATE> 2
<MEAN> 39
 -4.813492e+00 5.224496e+00 3.138533e+00 7.671847e+00 2.179425e+00 2.452729e+00 6.390619e+00 -1.061309e-01 3.388528e+00 -4.871403e+00 -1.439041e+00 -4.767523e+00 5.764648e+01 -3.270620e-01 -8.054346e-02 4.515817e-02 1.092659e-02 4.532893e-02 2.680284e-01 1.015444e-01 2.464856e-01 3.075973e-01 1.298826e-01 7.472104e-02 -6.385737e-02 -2.972032e-01 -1.394092e-02 -4.612437e-02 8.297029e-03 4.159017e-02 1.323165e-02 -4.837396e-02 -7.235910e-02 -8.870080e-02 -5.982117e-02 -4.132780e-02 2.433925e-03 1.702352e-02 8.402211e-03
<VARIANCE> 39
 2.421226e+01 2.872022e+01 2.951621e+01 4.068601e+01 5.594533e+01 3.151222e+01 2.116187e+01 3.649235e+01 2.564504e+01 2.667445e+01 1.744273e+01 2.957386e+01 2.155077e+01 5.281742e-01 9.188721e-01 1.522904e+00 1.324303e+00 1.889895e+00 1.498728e+00 1.881885e+00 1.736786e+00 1.957867e+00 1.563499e+00 1.199064e+00 1.169287e+00 1.872165e-01 6.709759e-02 1.441206e-01 2.233525e-01 2.588051e-01 3.353787e-01 2.935950e-01 3.578998e-01 3.384495e-01 3.383227e-01 2.608064e-01 1.825207e-01 1.936098e-01 2.485077e-02
<GCONST> 9.588235e+01
<STATE> 3
<MEAN> 39
 -1.384396e+01 9.122865e-01 -1.129804e+00 6.596991e+00 -5.441649e+00 -2.611177e+00 5.295638e+00 -3.962564e+00 2.514686e+00 3.874515e-01 -5.764402e-01 2.261388e+00 5.348697e+01 -1.115625e-01 -6.685179e-03 -2.958566e-02 2.572403e-03 2.585987e-02 2.121330e-02 -1.200864e-04 3.942498e-03 7.347630e-02 4.309634e-02 5.724716e-02 1.551076e-02 -1.311794e-01 2.021542e-02 1.960716e-02 2.864119e-02 2.640439e-02 2.046644e-02 1.544422e-02 2.280199e-02 9.931144e-03 -1.363368e-02 -1.554389e-02 -4.311241e-02 -3.564377e-02 1.752135e-02
<VARIANCE> 39
 1.085422e+01 2.017184e+01 8.625666e+00 9.355525e+00 1.816957e+01 1.515154e+01 1.673143e+01 1.746631e+01 1.522020e+01 1.737247e+01 1.305524e+01 1.747244e+01 1.241633e+01 2.687062e-01 5.832439e-01 5.290271e-01 6.772699e-01 8.488278e-01 1.115785e+00 1.571402e+00 1.561778e+00 1.365925e+00 1.447425e+00 1.393861e+00 1.248867e+00 2.025026e-01 5.111575e-02 8.802333e-02 8.752994e-02 1.242819e-01 1.705952e-01 2.164583e-01 3.354978e-01 3.150445e-01 2.797596e-01 3.378680e-01 3.046480e-01 2.283389e-01 3.527293e-02
<GCONST> 8.004131e+01
<STATE> 4
<MEAN> 39
 -1.107609e+01 3.785787e+00 7.598534e-01 1.011517e+01 3.944694e+00 4.827566e+00 5.698138e+00 1.340372e-01 4.391682e+00 -6.161828e+00 1.247730e-01 -5.303123e+00 5.113012e+01 -3.263432e-02 -1.699087e-02 -2.344154e-03 3.353249e-02 3.655579e-02 6.776307e-02 3.669176e-02 6.381130e-02 -5.879133e-03 8.095952e-03 -9.819206e-04 -3.961613e-04 -7.522067e-02 1.430708e-03 -3.211444e-04 -5.135239e-03 -7.533590e-03 1.093234e-02 -9.916826e-03 2.724260e-03 6.931967e-03 -5.648087e-03 6.358149e-03 -2.515485e-03 -2.489853e-04 8.294090e-03
<VARIANCE> 39
 8.893996e+01 8.332583e+00 1.384354e+01 2.277498e+01 1.258189e+01 1.386959e+01 1.475868e+01 1.990575e+01 1.584103e+01 1.524562e+01 1.627959e+01 1.366422e+01 8.649838e+01 1.123898e-01 2.413658e-01 4.495823e-01 5.350561e-01 8.426606e-01 1.099488e+00 1.251534e+00 1.289765e+00 1.168503e+00 1.182465e+00 1.041413e+00 9.672492e-01 3.993983e-02 2.015303e-02 4.613408e-02 9.084611e-02 1.057539e-01 1.637380e-01 2.185279e-01 2.600512e-01 2.666176e-01 2.555278e-01 2.330319e-01 2.081794e-01 1.923112e-01 8.372534e-03
<GCONST> 7.426921e+01
<TRANSP> 5
 0.000000e+00 1.000000e+00 0.000000e+00 0.000000e+00 0.000000e+00
 0.000000e+00 8.773743e-01 1.226257e-01 0.000000e+00 0.000000e+00
 0.000000e+00 0.000000e+00 9.152941e-01 8.470583e-02 0.000000e+00
 0.000000e+00 0.000000e+00 0.000000e+00 9.522189e-01 4.778114e-02
 0.000000e+00 0.000000e+00 0.000000e+00 0.000000e+00 0.000000e+00
<ENDHMM>
~h "m"
<BEGINHMM>
<NUMSTATES> 5
<STATE> 2
<MEAN> 39
 5.457548e+00 1.251123e+01 6.538043e+00 6.794708e+00 -7.719594e+00 -9.205981e+00 -1.676496e+00 -7.775856e+00 -3.327398e+00 -8.484294e+00 -6.945188e+00 5.985563e-01 6.541466e+01 -3.077831e-03 3.850043e-02 4.060826e-02 5.566741e-02 3.916961e-04 1.412893e-03 6.021623e-03 3.615848e-02 4.252711e-02 7.453450e-03 -1.670727e-02 -1.955193e-02 -1.706512e-02 -2.218774e-02 -2.965351e-02 -1.018523e-02 1.787102e-02 4.842098e-02 1.485378e-02 3.694608e-03 -6.880086e-03 -2.279598e-02 4.906186e-03 6.876996e-03 1.798080e-02 -5.428039e-03
<VARIANCE> 39
 4.045019e+01 2.784736e+01 5.848576e+01 4.123178e+01 3.774051e+01 3.603629e+01 6.794588e+01 2.785215e+01 4.297573e+01 2.323644e+01 2.062221e+01 3.707708e+01 9.019951e+00 1.634801e+00 1.145084e+00 1.989936e+00 1.842476e+00 1.911901e+00 2.067090e+00 3.129879e+00 1.687145e+00 2.633902e+00 1.339530e+00 1.253669e+00 2.121560e+00 2.839074e-01 1.843901e-01 1.701395e-01 1.909353e-01 2.020579e-01 2.901112e-01 2.398534e-01 3.862248e-01 3.040049e-01 4.449054e-01 1.954727e-01 2.099438e-01 3.049384e-01 4.140763e-02
<GCONST> 1.030433e+02
<STATE> 3
<MEAN> 39
 -5.938955e+00 7.465434e+00 7.058931e+00 1.470907e+01 -7.025073e-01 -5.939146e+00 2.160086e+00 -7.217119e+00 -2.037839e+00 -4.377428e+00 -3.116566e+00 -2.549947e+00 5.950957e+01 -2.279861e-01 -3.393679e-01 -1.099671e-01 6.263380e-02 1.161629e-01 5.055756e-02 5.896446e-02 9.413544e-02 1.966613e-05 -2.553388e-02 -2.005629e-02 8.208709e-02 -6.154650e-02 -1.491958e-02 -1.842657e-02 -3.745732e-02 -1.178871e-01 -6.986293e-02 -1.225127e-02 3.743598e-03 3.955751e-03 8.893401e-04 2.080671e-02 8.680467e-03 1.469381e-02 -5.063362e-03
<VARIANCE> 39
 3.401702e+01 7.554880e+01 3.364434e+01 2.598512e+01 2.905828e+01 8.721298e+01 5.283680e+01 3.060007e+01 2.528466e+01 3.297781e+01 1.655978e+01 2.919547e+01 1.504694e+01 1.661064e+00 3.361085e+00 1.831289e+00 1.867518e+00 1.766899e+00 3.348129e+00 2.747221e+00 2.098038e+00 1.877354e+00 2.366455e+00 1.648251e+00 9.862800e-01 7.454513e-01 1.801243e-01 4.550781e-01 2.794877e-01 2.771170e-01 3.308700e-01 5.006543e-01 4.370266e-01 2.889275e-01 3.247190e-01 4.043221e-01 3.037508e-01 1.547652e-01 9.460975e-02
<GCONST> 1.089358e+02
<STATE> 4
<MEAN> 39
 -1.362881e+01 -2.011164e-01 -1.596787e+00 7.683717e+00 -4.427608e+00 -9.148942e-01 4.583821e+00 -3.692600e+00 3.572974e+00 -1.285752e+00 -1.670907e-01 4.553201e-01 5.303851e+01 -8.941771e-02 -4.342780e-02 -5.222580e-02 -7.368087e-02 -6.031434e-02 -3.662859e-02 2.585591e-02 -2.191416e-03 2.691462e-02 7.818335e-02 1.066132e-01 8.306699e-02 -9.864718e-02 2.919014e-02 4.712151e-03 -8.976918e-04 4.047815e-03 1.629614e-02 -1.917839e-03 8.197223e-03 1.191823e-02 9.158596e-03 -1.217914e-02 -2.342721e-02 -2.233411e-02 1.539027e-02
<VARIANCE> 39
 1.473903e+01 3.105632e+01 1.104479e+01 1.926297e+01 4.781328e+01 3.244249e+01 1.482882e+01 1.602135e+01 1.643690e+01 3.050770e+01 1.427587e+01 3.114503e+01 2.923243e+01 2.139214e-01 7.098845e-01 6.782150e-01 6.132273e-01 8.946099e-01 1.086958e+00 1.558714e+00 1.284440e+00 1.526258e+00 1.527260e+00 1.270401e+00 9.842675e-01 2.194482e-01 4.649110e-02 1.366796e-01 1.330870e-01 1.074796e-01 1.729198e-01 2.226005e-01 3.168368e-01 2.560892e-01 3.195454e-01 3.278069e-01 2.640992e-01 1.858374e-01 4.485285e-02
<GCONST> 8.567857e+01
<TRANSP> 5
 0.000000e+00 1.000000e+00 0.000000e+00 0.000000e+00 0.000000e+00
 0.000000e+00 9.302722e-01 6.972780e-02 0.000000e+00 0.000000e+00
 0.000000e+00 0.000000e+00 9.134117e-01 8.658832e-02 0.000000e+00
 0.000000e+00 0.000000e+00 0.000000e+00 9.329157e-01 6.708428e-02
 0.000000e+00 0.000000e+00 0.000000e+00 0.000000e+00 0.000000e+00
<ENDHMM>
~h "n"
<BEGINHMM>
<NUMSTATES> 5
<STATE> 2
<MEAN> 39
 -3.632081e-01 1.297585e+00 1.280605e+00 4.753741e+00 6.048254e-01 -6.568321e+00 -1.990046e+00 -4.937231e+00 -1.982786e+00 -2.587779e+00 -3.146291e+00 -2.416748e+00 5.888176e+01 1.255647e-01 1.199159e+00 9.125557e-01 5.761719e-01 -2.226336e-01 4.272750e-01 -1.202133e-01 -5.562976e-01 -2.184722e-01 -5.487747e-02 -2.627498e-01 -2.978889e-01 -5.956554e-01 -1.056283e-02 -3.127116e-02 -6.424998e-02 4.878940e-02 -3.559927e-02 2.047777e-01 3.151814e-02 5.348578e-02 5.120173e-02 -3.354973e-02 5.933543e-02 -7.141218e-02 -1.858144e-02
<VARIANCE> 39
 5.067340e+01 9.658287e+01 1.058578e+02 1.179244e+02 1.573928e+02 1.224542e+02 1.268219e+02 7.173808e+01 6.845883e+01 7.072612e+01 4.706569e+01 6.786396e+01 1.010887e+02 1.796817e+00 2.018999e+00 2.497151e+00 3.655063e+00 4.152730e+00 5.987807e+00 4.639686e+00 3.952481e+00 3.844346e+00 3.945328e+00 3.083145e+00 2.520437e+00 1.513262e+00 1.534495e-01 3.247967e-01 4.472991e-01 5.415208e-01 6.177227e-01 8.144846e-01 6.782871e-01 6.952875e-01 6.243817e-01 5.553867e-01 5.340511e-01 4.941712e-01 1.244734e-01
<GCONST> 1.342334e+02
<STATE> 3
<MEAN> 39
 2.126563e+00 9.343047e+00 3.596291e+00 1.055307e+01 -3.633406e-01 -6.442352e+00 -5.372230e+00 -9.393495e+00 -1.741167e+00 -5.401993e+00 -6.382215e+00 -2.714562e+00 6.118746e+01 -3.291331e-01 2.323192e-01 2.126070e-01 1.360664e-01 -2.095204e-01 6.408077e-01 5.537484e-01 3.245835e-01 1.470997e-01 -8.039625e-02 2.209818e-02 -2.317697e-01 -3.487450e-01 -1.441443e-01 -3.026713e-01 -1.008224e-01 -6.065923e-02 -1.136084e-02 -9.810542e-02 1.001004e-01 1.803921e-01 2.328503e-02 6.689344e-02 1.826442e-01 1.138457e-01 5.302882e-02
<VARIANCE> 39
 3.743539e+01 4.322897e+01 3.080580e+01 3.256450e+01 5.639146e+01 5.351766e+01 6.778742e+01 3.323553e+01 4.031755e+01 3.470729e+01 3.611405e+01 4.324304e+01 5.466994e+01 1.040251e+00 1.673759e+00 1.521794e+00 1.696852e+00 1.518336e+00 2.928428e+00 3.449424e+00 2.428556e+00 2.572190e+00 1.922400e+00 1.970637e+00 3.410059e+00 7.331631e-01 1.364203e-01 3.044281e-01 2.369014e-01 2.946724e-01 2.821015e-01 5.451153e-01 5.937635e-01 4.052069e-01 4.835682e-01 3.786421e-01 3.629887e-01 5.895061e-01 1.044957e-01
<GCONST> 1.139836e+02
<STATE> 4
<MEAN> 39
 -4.308481e+00 -5.921707e-01 2.936199e+00 7.182945e+00 -4.961454e+00 7.458313e-02 -1.984856e+00 -3.461107e+00 -1.407752e-01 -4.561434e+00 -1.962868e+00 -1.124919e+00 4.711827e+01 -7.333973e-01 -5.672637e-01 -3.028576e-01 -5.634267e-02 5.307237e-02 3.651550e-01 4.688416e-01 4.168474e-01 7.854379e-02 1.391905e-01 4.531056e-01 2.672784e-01 -3.829566e-01 4.535120e-03 -2.277240e-01 -9.126493e-02 -1.838374e-01 -3.095368e-02 -1.740108e-01 -9.582914e-02 -4.633466e-02 -1.329216e-04 7.069673e-02 3.336354e-02 7.310315e-02 1.706876e-01
<VARIANCE> 39
 3.286554e+01 1.517267e+02 3.888721e+01 4.682928e+01 9.630357e+01 4.680618e+01 6.557841e+01 4.131975e+01 4.147544e+01 3.763901e+01 3.274657e+01 2.939125e+01 1.384732e+02 1.102435e+00 1.939121e+00 1.900627e+00 2.050205e+00 2.650336e+00 2.924801e+00 2.630873e+00 2.506884e+00 3.106370e+00 2.615073e+00 2.332232e+00 2.025074e+00 6.763215e-01 2.046939e-01 4.184180e-01 3.263572e-01 3.990518e-01 5.857894e-01 6.112903e-01 5.172713e-01 5.786641e-01 5.281987e-01 4.934081e-01 4.592462e-01 3.526058e-01 1.645831e-01
<GCONST> 1.207818e+02
<TRANSP> 5
 0.000000e+00 1.000000e+00 0.000000e+00 0.000000e+00 0.000000e+00
 0.000000e+00 6.176057e-01 3.823943e-01 0.000000e+00 0.000000e+00
 0.000000e+00 0.000000e+00 6.666574e-01 3.333425e-01 0.000000e+00
 0.000000e+00 0.000000e+00 0.000000e+00 6.566838e-01 3.433162e-01
 0.000000e+00 0.000000e+00 0.000000e+00 0.000000e+00 0.000000e+00
<ENDHMM>
~h "r"
<BEGINHMM>
<NUMSTATES> 5
<STATE> 2
<MEAN> 39
 5.481378e+00 -1.334579e-01 -6.724964e+00 2.739978e+00 -8.468159e-01 -6.869244e+00 -5.677409e+00 -6.445062e+00 -5.669809e+00 -3.799114e+00 1.861027e-01 -2.256665e+00 6.242538e+01 1.642606e-03 3.679397e-01 -4.918516e-01 9.638274e-02 6.622631e-01 2.406042e-01 -6.486304e-02 9.861475e-03 -2.298100e-01 -6.602572e-02 1.673153e-01 1.107127e-01 -3.945732e-01 -1.596192e-01 5.638599e-02 2.525612e-01 -1.676626e-02 -4.727150e-02 -2.348172e-02 -1.336085e-02 4.510741e-02 9.435855e-02 4.908175e-02 -5.424268e-02 9.147186e-03 -3.177872e-02
<VARIANCE> 39
 5.034018e+01 1.028252e+02 8.139548e+01 1.009270e+02 1.051449e+02 8.438423e+01 1.338369e+02 1.018496e+02 9.961910e+01 7.289511e+01 5.546629e+01 5.026211e+01 4.835939e+01 7.946517e-01 1.580150e+00 2.907345e+00 2.690324e+00 3.213553e+00 3.573163e+00 4.756209e+00 4.117807e+00 3.595808e+00 2.911817e+00 2.641639e+00 2.097118e+00 6.044751e-01 9.179101e-02 2.310757e-01 3.372722e-01 3.752320e-01 4.874684e-01 5.540146e-01 8.298033e-01 6.599690e-01 5.047023e-01 4.905398e-01 4.736049e-01 3.883168e-01 6.902020e-02
<GCONST> 1.262187e+02
<STATE> 3
<MEAN> 39
 2.051107e+00 4.534966e+00 -1.304712e+00 1.052719e+01 3.245602e+00 -1.197956e+01 -7.107405e+00 -1.267431e+01 -1.040692e+01 -3.272747e+00 2.078206e-01 -3.696554e+00 6.439954e+01 -1.691220e-01 1.480589e-01 2.466143e-01 -2.988116e-02 3.079499e-03 -1.568885e-01 8.692835e-02 4.202765e-01 1.694092e-01 -2.066973e-03 -1.926201e-01 -7.230961e-02 -1.121876e-01 -4.350802e-02 1.129209e-02 6.802206e-02 -2.574320e-02 -8.656932e-02 8.074192e-02 1.043171e-01 5.058235e-02 7.722552e-02 -6.420633e-02 -7.429146e-02 -1.466477e-02 -2.743984e-02
<VARIANCE> 39
 3.146466e+01 6.125444e+01 7.321713e+01 1.101199e+02 1.045628e+02 9.548007e+01 1.007230e+02 5.221014e+01 5.624336e+01 4.150578e+01 4.804749e+01 5.376579e+01 3.260932e+01 2.695892e-01 5.447224e-01 1.082210e+00 1.569922e+00 1.304527e+00 1.978482e+00 1.669371e+00 1.695962e+00 1.900755e+00 1.481241e+00 1.413489e+00 1.185060e+00 1.673081e-01 3.077204e-02 7.770856e-02 1.398493e-01 1.627799e-01 1.557430e-01 2.423574e-01 2.305545e-01 2.853103e-01 2.734798e-01 2.069966e-01 2.592545e-01 2.088469e-01 1.761550e-02
<GCONST> 9.982955e+01
<STATE> 4
<MEAN> 39
 -1.013080e-01 -4.321742e+00 -4.152787e+00 4.526767e-01 -2.344872e+00 -2.901326e+00 -1.591186e+00 8.898281e-01 -2.842465e-01 -2.917799e+00 -1.054811e+00 -1.910815e+00 5.129704e+01 -4.044181e-01 2.546691e-01 3.167903e-01 1.802959e-01 1.007024e-01 3.838125e-01 2.052043e-01 3.307204e-03 1.772696e-01 -6.592551e-02 -3.964459e-02 4.862767e-02 -4.216750e-01 -2.261183e-02 -1.557446e-02 -1.176635e-02 -1.160654e-03 -2.607238e-02 5.984921e-02 2.637857e-02 -3.361642e-02 1.450324e-02 1.621200e-02 3.708665e-02 9.928368e-03 -6.643439e-03
<VARIANCE> 39
 3.228610e+01 1.080368e+02 9.300903e+01 1.182235e+02 1.008724e+02 9.865839e+01 9.437993e+01 8.045499e+01 7.354275e+01 4.639998e+01 3.235473e+01 3.350025e+01 1.078643e+02 4.216364e-01 8.996899e-01 1.232333e+00 1.613069e+00 1.552289e+00 2.299654e+00 2.400786e+00 2.210176e+00 2.338947e+00 1.949067e+00 1.764921e+00 1.525009e+00 3.296258e-01 5.202076e-02 1.293074e-01 1.801350e-01 2.088050e-01 2.624100e-01 3.772689e-01 3.471059e-01 3.467564e-01 3.982552e-01 3.445813e-01 2.898425e-01 2.966778e-01 3.301195e-02
<GCONST> 1.105784e+02
<TRANSP> 5
 0.000000e+00 1.000000e+00 0.000000e+00 0.000000e+00 0.000000e+00
 0.000000e+00 6.789433e-01 3.210567e-01 0.000000e+00 0.000000e+00
 0.000000e+00 0.000000e+00 7.964354e-01 2.035646e-01 0.000000e+00
 0.000000e+00 0.000000e+00 0.000000e+00 8.168083e-01 1.831918e-01
 0.000000e+00 0.000000e+00 0.000000e+00 0.000000e+00 0.000000e+00
<ENDHMM>
~h "s"
<BEGINHMM>
<NUMSTATES> 5
<STATE> 2
<MEAN> 39
 -1.255105e+01 -1.190954e+00 8.686011e-01 1.788977e+00 7.641473e-02 4.167307e-01 -3.332209e-01 -4.181893e+00 -5.707060e-01 -2.206918e+00 6.113680e-01 -1.067327e+00 5.508070e+01 -1.054855e+00 -7.084658e-01 8.447646e-01 -6.825870e-01 -4.140931e-02 3.211537e-02 5.409139e-01 -3.918961e-01 6.131707e-01 1.098450e-01 3.215857e-01 2.838499e-02 1.090567e+00 -2.397688e-01 -2.832803e-02 6.165525e-02 -1.243778e-01 1.406575e-02 -9.089998e-02 1.433360e-01 1.136640e-02 5.913516e-02 -2.064994e-02 8.619221e-02 2.697285e-02 1.332813e-01
<VARIANCE> 39
 9.687840e+01 7.047358e+01 1.196120e+02 1.133669e+02 1.732697e+02 1.374670e+02 1.667381e+02 8.844682e+01 6.526556e+01 7.882384e+01 4.244795e+01 8.777621e+01 1.932895e+02 6.086611e+00 4.185172e+00 8.522302e+00 6.973117e+00 5.314397e+00 8.097925e+00 5.876779e+00 4.192006e+00 4.526767e+00 4.498571e+00 3.496697e+00 3.267223e+00 3.444538e+00 6.055228e-01 6.325046e-01 1.045641e+00 1.000184e+00 8.363165e-01 1.181561e+00 9.415001e-01 7.072355e-01 7.159355e-01 7.125539e-01 6.697909e-01 6.188219e-01 5.131150e-01
<GCONST> 1.491512e+02
<STATE> 3
<MEAN> 39
 -2.065902e+01 -1.173134e-01 5.034939e+00 3.590583e+00 -3.210252e-01 -7.859218e-01 6.393822e+00 -6.247147e+00 4.270568e+00 -2.422454e+00 3.457637e+00 -2.292205e+00 6.004776e+01 -1.174968e+00 -2.490358e-01 3.614466e-01 -5.640274e-01 -4.306963e-02 -1.597599e-01 4.757913e-01 2.986530e-01 1.471721e-01 -1.357077e-01 2.828313e-01 2.121078e-01 4.385129e-01 4.813189e-01 1.342769e-01 -2.627773e-01 1.196784e-01 -3.124099e-04 2.114374e-03 -3.063974e-01 9.471104e-02 -2.559268e-01 -1.326134e-01 -2.234927e-01 -1.259544e-02 -2.337117e-01
<VARIANCE> 39
 7.130991e+01 9.622968e+01 1.827722e+02 1.115493e+02 1.059815e+02 9.346297e+01 8.415082e+01 7.135483e+01 6.491699e+01 4.420483e+01 4.018262e+01 4.554271e+01 1.180930e+02 3.062002e+00 2.943357e+00 2.544967e+00 3.988634e+00 2.747821e+00 2.960523e+00 2.903292e+00 3.153784e+00 2.376304e+00 1.976665e+00 2.438787e+00 1.861724e+00 1.017015e+00 3.609217e-01 3.393691e-01 6.507674e-01 9.086031e-01 7.293907e-01 5.227153e-01 6.625593e-01 7.165065e-01 5.682492e-01 3.970109e-01 3.158453e-01 3.730693e-01 2.083442e-01
<GCONST> 1.309534e+02
<STATE> 4
<MEAN> 39
 -2.316527e+01 -1.707817e+00 4.074782e+00 -7.464921e-01 4.953279e-01 -8.030411e-01 5.530083e+00 -4.833013e+00 3.740637e+00 -1.450060e+00 1.467590e+00 5.687880e-01 5.739684e+01 1.084740e-01 -9.224901e-02 -1.083751e-01 2.571243e-02 -6.839681e-02 8.528952e-03 -9.834283e-02 6.475075e-02 -5.568022e-03 -8.394783e-02 -1.241159e-01 3.838708e-02 -1.392367e-01 2.734352e-01 -1.093650e-02 -5.118076e-02 9.392406e-02 -4.039810e-02 -5.299785e-02 -1.143249e-01 -7.729959e-02 -7.998810e-02 -1.205587e-02 -7.491508e-02 -1.991426e-02 -3.994358e-02
<VARIANCE> 39
 6.287201e+01 8.390145e+01 1.757814e+02 1.092330e+02 8.378214e+01 9.239892e+01 7.176852e+01 4.987497e+01 4.595403e+01 4.437733e+01 3.960643e+01 4.578192e+01 1.189177e+02 1.033983e+00 1.231194e+00 1.624884e+00 1.616559e+00 1.774127e+00 1.996800e+00 2.311660e+00 2.243442e+00 2.100373e+00 1.839295e+00 1.525797e+00 1.392794e+00 7.572651e-01 2.112806e-01 2.410386e-01 2.352658e-01 2.948982e-01 3.246887e-01 3.773982e-01 4.174011e-01 4.361350e-01 4.161983e-01 3.449958e-01 3.147506e-01 2.532874e-01 9.672576e-02
<GCONST> 1.168406e+02
<TRANSP> 5
 0.000000e+00 1.000000e+00 0.000000e+00 0.000000e+00 0.000000e+00
 0.000000e+00 7.217619e-01 2.782382e-01 0.000000e+00 0.000000e+00
 0.000000e+00 0.000000e+00 4.768126e-01 5.231875e-01 0.000000e+00
 0.000000e+00 0.000000e+00 0.000000e+00 8.148293e-01 1.851707e-01
 0.000000e+00 0.000000e+00 0.000000e+00 0.000000e+00 0.000000e+00
<ENDHMM>
~h "t"
<BEGINHMM>
<NUMSTATES> 5
<STATE> 2
<MEAN> 39
 -4.112082e+00 1.545055e+00 2.362709e+00 1.070892e+01 3.774247e+00 -7.701699e+00 -2.628266e+00 -9.751129e+00 -4.658384e+00 -3.427820e+00 7.984187e-03 -4.587089e+00 6.356667e+01 1.379139e+00 7.591411e-01 -7.643887e-01 -1.322869e-01 -2.287539e-02 -6.940871e-01 -5.658736e-01 -4.802297e-01 -9.596927e-01 -3.932050e-01 3.264839e-01 -2.408325e-02 2.648261e-01 -4.932874e-01 -4.107707e-01 -1.391490e-01 -3.489839e-01 -3.163361e-01 1.566020e-01 3.702522e-01 3.386917e-01 2.675762e-01 1.222084e-01 5.338402e-02 1.226892e-01 -1.187457e-01
<VARIANCE> 39
 7.614539e+01 7.267062e+01 5.840294e+01 8.667088e+01 1.229509e+02 9.238201e+01 1.170224e+02 7.054599e+01 8.153870e+01 5.536374e+01 4.525773e+01 7.769820e+01 8.766078e+01 3.170947e+00 5.109083e+00 2.839058e+00 2.645895e+00 2.703528e+00 5.512061e+00 4.642481e+00 3.783641e+00 6.095946e+00 3.907565e+00 2.647717e+00 2.862222e+00 1.402320e+00 4.955247e-01 7.229723e-01 4.639773e-01 3.968379e-01 4.882078e-01 6.355487e-01 7.745969e-01 5.494967e-01 5.510315e-01 5.318332e-01 4.746615e-01 4.185387e-01 2.390692e-01
<GCONST> 1.351206e+02
<STATE> 3
<MEAN> 39
 -4.047298e+00 -6.197659e-01 -1.070532e+00 8.348563e+00 2.699973e+00 -1.030609e+01 7.316062e-01 -8.229290e+00 -4.207019e+00 -8.367653e-01 7.874064e-01 -4.130601e+00 6.502005e+01 2.352405e-01 4.322207e-02 -6.436631e-01 -6.153421e-01 -6.022095e-01 4.632767e-01 3.282373e-01 5.781082e-01 1.625246e-01 -1.342797e-01 -7.310627e-02 2.957688e-01 -2.183811e-01 -2.204813e-01 -7.322524e-02 1.028328e-01 -5.883085e-02 -7.976422e-02 2.578956e-01 1.150980e-01 1.929884e-01 1.856211e-01 -9.498790e-02 -5.149950e-02 5.382180e-02 -1.400738e-01
<VARIANCE> 39
 8.097515e+01 6.600861e+01 6.426139e+01 6.945228e+01 1.057564e+02 1.158162e+02 1.370391e+02 7.012334e+01 8.376974e+01 7.075146e+01 4.559868e+01 6.921855e+01 1.321341e+02 9.879119e-01 2.010451e+00 1.443843e+00 2.023405e+00 2.489063e+00 4.067097e+00 3.510290e+00 3.256939e+00 3.491013e+00 3.442288e+00 2.460353e+00 2.175988e+00 6.712397e-01 2.553382e-01 4.311232e-01 3.392547e-01 3.545965e-01 3.570356e-01 5.173289e-01 4.645359e-01 6.327073e-01 6.099054e-01 5.836720e-01 4.261823e-01 3.606702e-01 1.460288e-01
<GCONST> 1.270844e+02
<STATE> 4
<MEAN> 39
 -3.845697e+00 4.711608e+00 -6.542424e+00 -2.347579e+00 -2.535050e+00 -8.277523e-02 5.830194e+00 -1.685866e+00 -4.620801e+00 -5.678256e+00 -5.712494e-01 8.360473e-02 5.946715e+01 2.275310e-01 7.784308e-02 -7.700711e-02 -2.811560e-02 -1.786741e-01 1.775040e-01 -1.001045e-03 3.238448e-01 1.451350e-01 -1.866672e-01 2.607019e-02 -5.857354e-02 -4.136470e-01 -6.393525e-02 2.389268e-02 1.053612e-01 7.583938e-02 4.135107e-02 -1.238508e-02 -3.625266e-02 -3.989059e-03 3.925481e-02 5.140958e-02 -4.726661e-02 -7.567530e-02 -4.154134e-02
<VARIANCE> 39
 9.164736e+01 1.292096e+02 6.979839e+01 1.225998e+02 7.529359e+01 1.576558e+02 8.840498e+01 6.374680e+01 9.680608e+01 5.746531e+01 4.895317e+01 5.148213e+01 1.777937e+02 1.500634e+00 8.928868e-01 1.112953e+00 1.281360e+00 1.424521e+00 2.491972e+00 1.934723e+00 1.849177e+00 1.996201e+00 2.176122e+00 1.757182e+00 1.750578e+00 1.046905e+00 2.085360e-01 2.016370e-01 1.897456e-01 2.222598e-01 2.374887e-01 4.389766e-01 3.488806e-01 3.399401e-01 4.832108e-01 3.889989e-01 3.162100e-01 2.830549e-01 1.090371e-01
<GCONST> 1.185650e+02
<TRANSP> 5
 0.000000e+00 1.000000e+00 0.000000e+00 0.000000e+00 0.000000e+00
 0.000000e+00 3.352131e-01 6.647868e-01 0.000000e+00 0.000000e+00
 0.000000e+00 0.000000e+00 3.647310e-01 6.352690e-01 0.000000e+00
 0.000000e+00 0.000000e+00 0.000000e+00 6.578920e-01 3.421080e-01
 0.000000e+00 0.000000e+00 0.000000e+00 0.000000e+00 0.000000e+00
<ENDHMM>
~h "v"
<BEGINHMM>
<NUMSTATES> 5
<STATE> 2
<MEAN> 39
 -6.142212e-01 -6.622730e+00 -6.006509e+00 1.456120e+00 4.578944e-01 -1.156322e+01 -3.226095e+00 -4.135149e+00 -2.898121e+00 -2.783336e+00 2.812112e+00 -4.981294e+00 6.943157e+01 -3.821996e-01 3.979504e-01 5.642127e-01 3.100801e-01 8.509798e-02 6.383262e-02 -3.138349e-01 -1.042955e-01 -1.469168e-01 -2.849980e-01 6.284136e-02 6.369641e-02 -4.470391e-01 -1.941699e-02 8.009623e-02 3.411530e-02 -1.467885e-02 2.940992e-02 1.938838e-01 1.509977e-02 2.511997e-03 6.718623e-02 -2.021295e-02 -9.775531e-02 2.902522e-02 -1.186726e-01
<VARIANCE> 39
 1.380208e+02 9.970558e+01 1.015462e+02 8.899559e+01 2.421416e+02 1.047104e+02 1.129237e+02 1.002123e+02 8.818531e+01 6.853560e+01 7.106178e+01 5.483496e+01 8.871378e+01 4.728065e+00 3.057608e+00 2.229568e+00 4.251705e+00 3.621170e+00 7.782167e+00 4.148895e+00 3.592965e+00 4.379626e+00 4.809860e+00 4.339731e+00 2.425243e+00 3.001679e+00 7.178457e-01 4.725912e-01 4.468612e-01 7.210877e-01 6.015061e-01 1.299439e+00 7.627340e-01 6.294723e-01 7.981799e-01 9.002472e-01 7.561904e-01 3.786058e-01 4.443651e-01
<GCONST> 1.431260e+02
<STATE> 3
<MEAN> 39
 -2.450749e+00 -1.554627e+00 -1.387269e+00 5.105894e-03 -3.530034e+00 -4.527196e+00 -6.137685e+00 -9.225204e+00 1.998775e-01 -2.964402e+00 -4.156034e+00 -7.342843e-01 5.670988e+01 -6.354384e-01 1.138368e+00 7.025130e-01 3.822088e-01 -8.240563e-02 9.490947e-01 5.044399e-01 7.471806e-02 2.561056e-01 2.975823e-01 1.069256e-02 2.796926e-03 -1.448501e+00 -7.035021e-02 -1.430277e-02 -9.478859e-02 -5.429378e-02 5.754643e-02 -1.771031e-02 9.235516e-02 1.364495e-01 7.860523e-02 5.465309e-02 1.418895e-01 1.168282e-02 6.509362e-02
<VARIANCE> 39
 9.710078e+01 6.462057e+01 5.289896e+01 1.230153e+02 1.328838e+02 7.526755e+01 1.361897e+02 1.111082e+02 7.272739e+01 9.846428e+01 6.655331e+01 4.151046e+01 8.245791e+01 1.936085e+00 3.386517e+00 2.309611e+00 4.147900e+00 4.983546e+00 5.102978e+00 3.764839e+00 5.319530e+00 3.782953e+00 4.995511e+00 4.457188e+00 2.278933e+00 1.208093e+00 1.693809e-01 4.129730e-01 2.644967e-01 5.012869e-01 6.087287e-01 6.208895e-01 6.841769e-01 7.586421e-01 5.308744e-01 7.470574e-01 7.243573e-01 4.442720e-01 1.676774e-01
<GCONST> 1.349158e+02
<STATE> 4
<MEAN> 39
 -4.645104e+00 -5.267847e+00 2.216060e+00 1.823716e+00 -6.847104e+00 -6.322065e-01 -1.532896e+00 -7.633716e-01 2.299115e+00 -3.995085e+00 -6.886153e-01 1.121861e+00 4.805499e+01 -4.377801e-01 1.089850e-01 -7.513282e-02 2.528723e-01 3.087918e-01 1.133004e-01 -1.377123e-02 1.262293e-01 1.973885e-01 1.692801e-01 2.584948e-01 1.867137e-01 -4.753782e-01 6.783190e-02 -1.957354e-01 -7.274383e-02 -2.810628e-02 -7.662638e-02 -1.564219e-01 5.001516e-03 -5.283902e-02 -1.067332e-01 4.799865e-02 6.272512e-03 -2.888664e-02 1.515557e-01
<VARIANCE> 39
 5.403146e+01 1.255912e+02 4.000380e+01 5.679153e+01 1.018346e+02 5.605418e+01 6.332275e+01 4.826359e+01 6.888320e+01 3.634710e+01 3.156905e+01 2.803762e+01 1.183674e+02 1.384698e+00 1.602941e+00 1.798334e+00 1.794247e+00 3.045160e+00 2.753992e+00 2.768265e+00 2.342673e+00 3.253515e+00 2.098742e+00 1.998030e+00 1.874403e+00 7.175462e-01 1.625602e-01 2.764736e-01 2.782375e-01 3.237981e-01 5.398241e-01 5.033044e-01 5.317737e-01 4.723904e-01 5.886682e-01 4.046957e-01 4.173796e-01 3.454920e-01 1.217801e-01
<GCONST> 1.194919e+02
<TRANSP> 5
 0.000000e+00 1.000000e+00 0.000000e+00 0.000000e+00 0.000000e+00
 0.000000e+00 8.267355e-01 1.732645e-01 0.000000e+00 0.000000e+00
 0.000000e+00 0.000000e+00 7.374790e-01 2.625210e-01 0.000000e+00
 0.000000e+00 0.000000e+00 0.000000e+00 8.528432e-01 1.471568e-01
 0.000000e+00 0.000000e+00 0.000000e+00 0.000000e+00 0.000000e+00
<ENDHMM>
~h "w"
<BEGINHMM>
<NUMSTATES> 5
<STATE> 2
<MEAN> 39
 -8.645941e+00 5.685571e+00 -9.678163e-01 7.350431e+00 -1.380233e+00 -3.901020e+00 -7.478864e-01 -6.484289e+00 -2.638914e+00 -3.074340e+00 4.383038e-01 -2.850976e+00 5.080428e+01 1.884449e+00 1.015550e+00 4.890675e-01 -5.250792e-01 -8.259261e-01 -1.063437e+00 -6.889014e-01 -6.872006e-01 -4.065520e-01 -7.073975e-02 -3.702106e-01 -2.212802e-01 1.188450e+00 2.805930e-01 -7.316449e-02 -1.423532e-01 -2.758534e-01 -2.102699e-01 -1.941706e-01 -6.978147e-02 2.182118e-02 1.619709e-02 5.505298e-02 -1.216383e-02 -5.004003e-03 2.268485e-01
<VARIANCE> 39
 8.145158e+01 1.215696e+02 6.067706e+01 6.980355e+01 1.086245e+02 1.041027e+02 7.546810e+01 9.614981e+01 5.719918e+01 7.570518e+01 4.715799e+01 3.219736e+01 1.663762e+02 5.236649e+00 7.348464e+00 5.043892e+00 5.373935e+00 7.941823e+00 7.328278e+00 6.702672e+00 5.122650e+00 3.946970e+00 3.969449e+00 3.275089e+00 2.144673e+00 3.341781e+00 8.325927e-01 1.334819e+00 1.000344e+00 9.661886e-01 1.235778e+00 1.049584e+00 1.360633e+00 1.114612e+00 7.589874e-01 7.848235e-01 4.632252e-01 4.610570e-01 5.679331e-01
<GCONST> 1.468428e+02
<STATE> 3
<MEAN> 39
 4.885358e+00 1.171505e+01 1.568138e+00 -7.115120e-01 -1.189790e+01 -1.052478e+01 -6.751225e+00 -5.282320e+00 -1.430267e+00 -2.408199e+00 -3.080663e+00 -2.647385e+00 5.636596e+01 9.130089e-01 -8.266988e-01 -1.371684e+00 -1.757249e+00 -8.737137e-01 -7.911704e-01 9.787425e-01 1.247243e+00 4.876857e-01 -5.244492e-02 -3.302564e-01 -1.161595e-02 1.268439e+00 -2.895966e-01 -4.349237e-01 -3.012395e-01 1.090108e-02 4.789117e-01 4.356431e-01 4.585279e-01 1.780203e-01 -1.003942e-01 -2.045635e-01 5.307134e-02 6.905310e-02 -8.430583e-03
<VARIANCE> 39
 2.995290e+01 6.066032e+01 3.916317e+01 8.684271e+01 9.541046e+01 1.098231e+02 1.317492e+02 7.093185e+01 6.485474e+01 7.775003e+01 3.602330e+01 4.573809e+01 7.930967e+01 8.473065e-01 2.113334e+00 2.012298e+00 3.027918e+00 3.719679e+00 6.687528e+00 7.089861e+00 4.886659e+00 4.147357e+00 3.774980e+00 1.707161e+00 2.949589e+00 8.792246e-01 1.445394e-01 2.634581e-01 3.341422e-01 3.558129e-01 7.573259e-01 6.975321e-01 9.417402e-01 7.095814e-01 7.642781e-01 6.307564e-01 3.962172e-01 4.418204e-01 7.415993e-02
<GCONST> 1.278945e+02
<STATE> 4
<MEAN> 39
 6.576806e+00 1.857213e+00 -1.059082e+01 -6.529480e+00 -9.393220e+00 -8.905868e+00 3.422877e+00 2.876867e+00 -8.054779e-01 -6.960320e+00 -2.532156e+00 -2.994399e+00 6.439200e+01 -2.758840e-02 -1.437310e+00 -1.237157e+00 -1.182182e-01 1.739142e+00 1.569110e+00 2.096630e-01 -4.574639e-01 -7.625698e-01 -5.004404e-01 8.059098e-01 3.445723e-01 6.224627e-01 -1.441649e-01 1.862641e-01 3.872936e-01 4.490120e-01 1.672184e-01 -1.024718e-02 -4.759245e-01 -4.490611e-01 -3.858172e-02 2.338289e-01 1.619804e-01 -4.229647e-03 -1.951744e-01
<VARIANCE> 39
 3.397739e+01 8.432237e+01 5.547828e+01 1.123489e+02 1.132494e+02 2.452026e+02 1.867828e+02 1.075801e+02 8.057173e+01 4.569963e+01 5.439394e+01 4.679965e+01 6.770336e+01 3.808606e-01 1.665177e+00 1.794528e+00 1.995997e+00 3.706872e+00 3.228915e+00 5.216618e+00 3.439255e+00 3.706538e+00 3.293438e+00 3.321771e+00 2.854069e+00 6.508437e-01 8.138929e-02 1.743226e-01 1.811348e-01 2.982828e-01 4.859712e-01 7.722327e-01 6.857609e-01 4.088257e-01 5.503243e-01 4.962032e-01 4.736565e-01 4.963474e-01 6.186754e-02
<GCONST> 1.243414e+02
<TRANSP> 5
 0.000000e+00 1.000000e+00 0.000000e+00 0.000000e+00 0.000000e+00
 0.000000e+00 7.387271e-01 2.612729e-01 0.000000e+00 0.000000e+00
 0.000000e+00 0.000000e+00 7.528587e-01 2.471413e-01 0.000000e+00
 0.000000e+00 0.000000e+00 0.000000e+00 7.730541e-01 2.269459e-01
 0.000000e+00 0.000000e+00 0.000000e+00 0.000000e+00 0.000000e+00
<ENDHMM>
~h "z"
<BEGINHMM>
<NUMSTATES> 5
<STATE> 2
<MEAN> 39
 -9.169853e+00 8.119032e+00 -1.931277e+00 2.771435e+00 1.003992e+00 -4.696171e+00 -5.610002e-01 -3.874750e+00 -4.242499e+00 -3.099407e+00 -5.195774e-01 -2.728759e+00 4.791087e+01 2.379027e-01 6.234859e-01 1.422475e+00 -1.084582e+00 -4.195181e-01 -7.942932e-01 -1.912992e-01 -1.135596e+00 5.739871e-01 -5.762724e-01 -3.125407e-01 4.324210e-01 1.309867e+00 -3.828742e-02 -1.368574e-01 3.229523e-01 -2.204818e-01 -1.990524e-01 4.612877e-02 -9.685562e-02 -2.776937e-01 1.511141e-01 -3.125004e-02 -1.381464e-01 1.753118e-01 2.069583e-01
<VARIANCE> 39
 1.054405e+02 8.278127e+01 8.478700e+01 6.871432e+01 1.920740e+02 1.162089e+02 5.798087e+01 8.131107e+01 1.020067e+02 8.184901e+01 2.668047e+01 4.444019e+01 2.266005e+02 4.631187e+00 5.017915e+00 4.019312e+00 5.215684e+00 6.466155e+00 1.034124e+01 4.259194e+00 5.052878e+00 6.793957e+00 4.734432e+00 2.018845e+00 4.412697e+00 2.420875e+00 7.484972e-01 5.770526e-01 7.489767e-01 9.273204e-01 1.113205e+00 1.296493e+00 8.316073e-01 8.576204e-01 9.581574e-01 6.558080e-01 3.403107e-01 6.992124e-01 3.492894e-01
<GCONST> 1.452996e+02
<STATE> 3
<MEAN> 39
 -1.731546e+01 6.985410e+00 1.199591e+01 -1.575948e-03 4.252807e+00 -6.396708e+00 1.265092e+00 -9.941549e+00 -1.002443e+00 -5.244051e+00 -1.070161e+00 -5.283016e-02 6.342560e+01 -6.033378e-02 -8.532584e-01 1.070000e+00 -6.092720e-02 -5.094104e-01 -2.463327e-01 -4.481781e-01 -1.484130e-01 8.622903e-02 8.783984e-02 -1.421750e-03 1.778177e-01 6.378599e-01 4.420728e-01 -7.665047e-02 -2.003735e-01 2.311437e-01 -1.465033e-01 -9.984197e-02 -2.417793e-01 5.879943e-02 -3.231336e-01 4.474413e-02 1.151245e-01 -1.303103e-01 -5.089036e-02
<VARIANCE> 39
 1.112150e+02 9.340809e+01 2.048414e+02 8.493510e+01 9.680111e+01 2.512652e+02 7.400739e+01 8.126251e+01 8.769578e+01 5.100523e+01 1.136384e+02 7.842635e+01 1.143531e+02 9.345654e+00 2.686774e+00 7.826970e+00 5.496479e+00 5.328061e+00 7.060865e+00 5.225976e+00 5.208228e+00 5.367596e+00 3.061807e+00 3.435932e+00 2.138044e+00 1.005698e+00 8.638495e-01 3.754912e-01 9.141382e-01 6.636771e-01 7.783781e-01 1.048604e+00 8.298612e-01 1.034232e+00 7.073929e-01 5.948102e-01 6.667968e-01 4.610952e-01 1.841743e-01
<GCONST> 1.447281e+02
<STATE> 4
<MEAN> 39
 -7.874588e+00 -3.107300e+00 1.752724e+01 2.271298e-02 -9.573400e+00 -1.218368e+00 -1.427364e+01 -1.090477e+01 -6.925748e+00 -2.534189e+00 -1.320545e+00 5.167742e-01 6.138614e+01 2.504526e+00 -1.626376e+00 -3.759553e-01 8.018469e-01 -1.023055e+00 -1.333263e+00 -1.141346e+00 4.466712e-01 -5.937953e-01 7.852142e-02 4.440613e-01 -3.351113e-01 1.092627e+00 -3.428755e-01 7.451409e-02 -7.235509e-01 1.460207e-01 4.640319e-01 -4.035622e-02 4.577900e-01 4.527663e-01 4.875396e-01 -4.152643e-02 4.770642e-02 -8.246417e-02 -2.204768e-01
<VARIANCE> 39
 5.940639e+01 7.653580e+01 9.426276e+01 9.009806e+01 1.051576e+02 2.637770e+02 1.432568e+02 9.020026e+01 1.547626e+02 4.667727e+01 4.288530e+01 5.185940e+01 1.051906e+02 4.867413e+00 3.543912e+00 1.130163e+01 8.266207e+00 6.422791e+00 9.795266e+00 6.008737e+00 7.242009e+00 5.739943e+00 4.374646e+00 4.006990e+00 2.784910e+00 2.390569e+00 6.590869e-01 6.710320e-01 5.489350e-01 8.270735e-01 7.721440e-01 1.457557e+00 9.727759e-01 8.411199e-01 7.795636e-01 7.884958e-01 4.157529e-01 4.577892e-01 1.768758e-01
<GCONST> 1.463326e+02
<TRANSP> 5
 0.000000e+00 1.000000e+00 0.000000e+00 0.000000e+00 0.000000e+00
 0.000000e+00 7.370252e-01 2.629748e-01 0.000000e+00 0.000000e+00
 0.000000e+00 0.000000e+00 8.426834e-01 1.573166e-01 0.000000e+00
 0.000000e+00 0.000000e+00 0.000000e+00 7.239664e-01 2.760337e-01
 0.000000e+00 0.000000e+00 0.000000e+00 0.000000e+00 0.000000e+00
<ENDHMM>
~h "aa"
<BEGINHMM>
<NUMSTATES> 5
<STATE> 2
<MEAN> 39
 -4.294338e+00 -1.715331e-01 4.142624e-01 8.183027e+00 4.517981e+00 -5.471947e+00 9.787513e+00 -5.551614e+00 -2.470304e+00 -4.981149e-01 -3.354739e-01 -4.946147e+00 6.463977e+01 -1.358033e+00 -5.691487e-01 1.473535e+00 6.483527e-01 2.637667e-01 2.023912e-01 -2.193632e-01 -4.750337e-01 -1.758129e-01 3.393851e-01 2.594504e-01 -1.900174e-01 -1.829655e-03 -1.452277e-01 1.449731e-02 1.410786e-01 -1.362696e-01 -2.246675e-01 -9.274776e-02 -1.805098e-01 1.091637e-01 3.800343e-02 -1.444006e-01 7.283880e-02 -8.840353e-02 5.959098e-02
<VARIANCE> 39
 8.562974e+01 7.771335e+01 1.420199e+02 5.406732e+01 5.176019e+01 1.072528e+02 1.744494e+02 1.022977e+02 4.210928e+01 7.538383e+01 4.127639e+01 3.819489e+01 6.638420e+01 5.083148e+00 5.593479e+00 6.984008e+00 4.716599e+00 5.089881e+00 7.216368e+00 7.643313e+00 1.091468e+01 4.024905e+00 6.659825e+00 2.882885e+00 2.336245e+00 2.564028e+00 7.524464e-01 9.767663e-01 7.021153e-01 7.871391e-01 6.292769e-01 9.861359e-01 8.916229e-01 1.711931e+00 7.675002e-01 1.192094e+00 5.084911e-01 3.114188e-01 4.649658e-01
<GCONST> 1.448136e+02
<STATE> 3
<MEAN> 39
 -1.534424e+01 -6.748640e+00 9.103878e+00 7.378343e+00 -3.103983e+00 -5.051247e+00 6.843297e+00 -4.382504e+00 -5.271664e-01 -1.484764e+00 2.196459e+00 -2.146700e+00 6.599461e+01 -7.667266e-02 2.493033e-01 6.001159e-01 2.169745e-01 -2.341224e-01 -9.834795e-02 -2.908261e-01 1.942908e-01 -3.187986e-01 -1.444045e-01 -1.612766e-01 -4.162478e-02 -4.479825e-01 6.353744e-01 4.931118e-01 -2.707543e-01 2.095849e-01 8.542140e-02 -4.952354e-02 -1.531406e-01 -7.333956e-02 -8.640081e-02 2.978332e-02 -1.779222e-01 -1.407565e-01 -2.070142e-01
<VARIANCE> 39
 6.437817e+01 3.690306e+01 5.530109e+01 4.102669e+01 9.636459e+01 5.742460e+01 5.770436e+01 3.990689e+01 3.858033e+01 5.441624e+01 3.224849e+01 6.096744e+01 6.207444e+01 6.982137e+00 2.767215e+00 3.295196e+00 3.354240e+00 2.919271e+00 3.005171e+00 3.152054e+00 2.128572e+00 2.916390e+00 2.453914e+00 1.982908e+00 1.634515e+00 1.747880e+00 4.173978e-01 3.609409e-01 6.414180e-01 4.455695e-01 4.495087e-01 5.692036e-01 2.621289e-01 4.307654e-01 7.176178e-01 5.140028e-01 3.818131e-01 3.294806e-01 2.187126e-01
<GCONST> 1.247609e+02
<STATE> 4
<MEAN> 39
 -2.911033e+00 4.230797e+00 4.493139e+00 1.263196e+01 3.665082e-01 -7.350917e+00 -3.663339e-01 -6.439480e+00 -5.256953e+00 -4.542406e+00 -1.086927e+00 -5.859067e+00 6.140596e+01 1.028895e+00 8.231258e-01 -1.126870e+00 -7.635447e-01 -4.740225e-01 6.549425e-01 2.776864e-01 8.436361e-03 -1.248265e-01 -5.667149e-02 3.192386e-01 2.554565e-01 -3.171333e-01 -3.915935e-01 -2.247092e-01 -1.612550e-01 -2.733102e-01 8.403991e-02 1.949262e-01 1.706616e-01 2.004995e-02 5.037788e-01 1.280290e-01 1.269582e-01 2.230239e-01 7.810058e-03
<VARIANCE> 39
 4.675178e+01 4.161520e+01 4.895297e+01 4.364131e+01 5.319204e+01 4.911746e+01 6.278823e+01 5.480447e+01 4.001687e+01 4.645671e+01 2.746059e+01 6.982212e+01 4.247834e+01 4.903170e+00 3.805835e+00 3.589108e+00 4.014837e+00 2.004256e+00 3.919822e+00 4.041852e+00 3.593081e+00 6.878364e+00 2.222347e+00 1.689312e+00 2.285243e+00 1.408705e+00 4.258400e-01 7.320481e-01 5.921463e-01 5.889601e-01 3.636220e-01 6.524771e-01 7.994309e-01 5.963371e-01 1.275411e+00 3.655076e-01 2.989123e-01 4.722393e-01 2.797066e-01
<GCONST> 1.281228e+02
<TRANSP> 5
 0.000000e+00 1.000000e+00 0.000000e+00 0.000000e+00 0.000000e+00
 0.000000e+00 6.972083e-01 3.027917e-01 0.000000e+00 0.000000e+00
 0.000000e+00 0.000000e+00 7.071032e-01 2.928968e-01 0.000000e+00
 0.000000e+00 0.000000e+00 0.000000e+00 6.431502e-01 3.568498e-01
 0.000000e+00 0.000000e+00 0.000000e+00 0.000000e+00 0.000000e+00
<ENDHMM>
~h "ae"
<BEGINHMM>
<NUMSTATES> 5
<STATE> 2
<MEAN> 39
 -1.263107e+01 -1.287730e+01 3.619388e+00 7.423449e+00 1.059131e+01 -1.212696e+01 4.297807e+00 -4.382721e+00 -4.531786e+00 -7.240267e+00 3.616633e+00 -9.697374e-01 6.673639e+01 -5.019125e-01 -2.761210e-01 5.695994e-01 3.542622e-01 2.472572e-01 -1.781257e-01 -7.234638e-01 2.540323e-01 -4.255917e-02 -2.870713e-01 8.000474e-02 -7.249555e-02 -5.458150e-02 1.826343e-01 9.482069e-02 -2.742841e-01 -1.058818e-01 1.186909e-01 -4.674399e-02 -3.578612e-02 -1.228141e-01 2.437876e-01 1.177383e-01 -2.329007e-01 8.479878e-02 -7.534311e-04
<VARIANCE> 39
 1.379991e+02 1.264184e+02 6.387507e+01 2.729587e+01 5.947814e+01 5.168986e+01 8.470733e+01 4.022963e+01 8.153947e+01 2.341509e+01 2.968365e+01 3.102659e+01 2.797793e+01 1.402083e+01 8.254601e+00 8.056490e+00 2.843076e+00 2.682602e+00 4.424620e+00 3.748656e+00 4.311871e+00 8.432354e+00 2.482739e+00 3.138063e+00 2.042605e+00 2.145177e+00 1.497946e+00 6.880017e-01 1.075827e+00 7.025681e-01 4.511504e-01 1.022185e+00 7.687916e-01 6.857957e-01 1.391966e+00 4.756227e-01 5.228163e-01 3.780775e-01 4.346351e-01
<GCONST> 1.370548e+02
<STATE> 3
<MEAN> 39
 -5.700020e+00 -5.444628e+00 3.083059e+00 1.656493e+01 1.427948e+00 -1.226137e+01 -7.978869e+00 -7.061443e+00 7.515398e+00 -2.643532e+00 -7.841052e+00 -4.772289e-01 6.438753e+01 -4.564201e-02 1.386075e-01 -3.112957e-01 -5.253958e-01 -7.979731e-02 1.052689e-01 9.248332e-02 9.206135e-02 2.904252e-01 1.559328e-02 -4.659348e-01 -3.912572e-01 -7.128922e-02 2.144085e-01 9.392629e-02 -1.204785e-01 -4.190073e-01 -2.766639e-01 -1.503370e-01 2.415639e-02 5.091262e-02 -1.938679e-01 -1.063675e-01 5.858749e-02 9.462365e-02 1.375035e-01
<VARIANCE> 39
 4.962612e+01 1.699530e+02 2.194603e+01 2.517196e+01 4.595750e+01 2.769618e+01 5.143208e+01 1.994135e+01 7.504962e+01 3.210078e+01 3.526106e+01 3.143390e+01 1.300449e+01 4.336956e+00 1.341972e+01 2.685296e+00 4.151230e+00 3.683188e+00 2.800363e+00 3.732716e+00 2.265952e+00 4.763466e+00 2.792799e+00 3.459143e+00 1.717271e+00 1.254659e+00 3.110701e-01 1.181707e+00 5.129255e-01 5.027614e-01 4.006770e-01 5.420915e-01 8.356202e-01 4.641252e-01 6.107326e-01 3.514751e-01 4.012481e-01 2.816248e-01 1.794536e-01
<GCONST> 1.237500e+02
<STATE> 4
<MEAN> 39
 -7.767513e+00 -4.279371e+00 -6.048830e-02 3.357159e+00 4.675647e+00 -1.519433e+01 3.804990e+00 -1.730347e+00 -2.451242e+00 -1.377561e+01 -1.598540e+00 4.927406e-01 6.534419e+01 -9.344101e-01 -8.697703e-01 6.621754e-01 -1.843645e-01 -2.905150e-01 -5.116031e-01 2.492688e-01 2.628873e-01 2.188570e-01 1.061952e-01 5.188367e-01 4.887422e-02 2.505232e-01 -3.803570e-02 4.690772e-02 1.537607e-01 2.292509e-01 1.286871e-01 1.081470e-01 -6.853119e-02 -1.037983e-01 -3.119556e-02 1.362539e-01 1.015188e-01 -6.705320e-02 -8.473026e-02
<VARIANCE> 39
 2.110990e+02 1.671223e+02 9.470659e+01 1.653778e+01 1.161146e+02 3.899510e+01 5.714830e+01 5.942319e+01 6.334573e+01 3.222726e+01 9.207206e+01 1.673008e+01 1.588479e+01 4.369912e+00 3.590679e+00 3.010209e+00 2.361712e+00 4.136731e+00 3.564178e+00 3.052355e+00 4.857622e+00 4.424167e+00 2.367923e+00 3.255822e+00 1.451838e+00 1.094614e+00 4.516394e-01 4.007670e-01 5.377687e-01 3.556839e-01 5.501682e-01 6.810178e-01 4.948341e-01 7.098844e-01 8.043676e-01 3.687239e-01 4.226886e-01 2.310939e-01 1.696267e-01
<GCONST> 1.271674e+02
<TRANSP> 5
 0.000000e+00 1.000000e+00 0.000000e+00 0.000000e+00 0.000000e+00
 0.000000e+00 8.738395e-01 1.261605e-01 0.000000e+00 0.000000e+00
 0.000000e+00 0.000000e+00 8.297647e-01 1.702352e-01 0.000000e+00
 0.000000e+00 0.000000e+00 0.000000e+00 8.839040e-01 1.160961e-01
 0.000000e+00 0.000000e+00 0.000000e+00 0.000000e+00 0.000000e+00
<ENDHMM>
~h "ah"
<BEGINHMM>
<NUMSTATES> 5
<STATE> 2
<MEAN> 39
 2.884405e+00 -4.835980e+00 -5.011518e+00 -2.890997e+00 -1.087922e+00 -1.847290e+00 -4.234002e+00 -3.632842e+00 -2.355722e+00 -4.886664e+00 -8.486831e-01 -3.729583e+00 5.998911e+01 -2.553830e-01 -1.140289e-01 5.491035e-01 8.625538e-01 -1.127445e-02 -5.160478e-01 1.081070e-01 2.457327e-02 -1.614024e-01 2.760966e-01 -1.699726e-01 -1.852652e-01 -2.584771e-01 -8.630322e-02 3.083962e-01 1.373260e-01 9.151658e-02 -3.018744e-02 1.081516e-01 2.014366e-02 -1.116619e-02 5.483137e-02 -3.323822e-02 -6.845617e-02 -2.792365e-02 -2.310869e-01
<VARIANCE> 39
 2.409258e+01 8.335940e+01 6.973280e+01 1.261351e+02 1.311533e+02 1.125820e+02 1.213294e+02 8.306218e+01 7.717326e+01 6.484829e+01 1.171442e+02 7.456479e+01 7.263178e+01 6.167983e-01 2.781169e+00 1.562969e+00 2.439574e+00 3.385297e+00 3.944179e+00 3.142773e+00 4.109050e+00 3.686280e+00 3.630219e+00 3.473663e+00 2.688926e+00 1.227880e+00 1.273990e-01 2.770857e-01 3.002823e-01 2.759031e-01 5.571452e-01 6.905397e-01 5.582014e-01 7.234792e-01 6.441040e-01 6.560826e-01 6.490229e-01 4.550451e-01 9.887934e-02
<GCONST> 1.290312e+02
<STATE> 3
<MEAN> 39
 5.207174e-01 2.481625e+00 -2.682292e+00 7.561559e+00 3.156864e+00 -6.882678e+00 -2.960216e-01 -9.814769e+00 -7.579736e+00 -3.675821e+00 6.989052e-01 -5.251407e+00 6.174982e+01 -3.068027e-01 1.175025e+00 7.909591e-01 1.002505e+00 1.353102e-01 6.890456e-01 -8.400861e-01 -5.080109e-01 7.694102e-01 -2.914471e-01 -5.727994e-01 -1.501768e-01 -1.051616e+00 -5.152120e-02 2.281079e-02 1.251335e-01 -4.769934e-03 -6.786839e-02 5.100785e-02 -5.515615e-02 1.457040e-01 1.263661e-01 -2.121827e-01 -1.335633e-01 1.188539e-01 -3.351620e-02
<VARIANCE> 39
 1.938478e+01 5.139265e+01 5.206610e+01 1.030164e+02 1.065256e+02 5.412983e+01 1.114354e+02 9.411222e+01 4.451446e+01 5.950960e+01 5.325031e+01 4.182569e+01 7.722949e+01 4.857562e-01 9.358585e-01 9.760913e-01 2.336120e+00 2.045093e+00 2.395465e+00 3.261030e+00 3.496637e+00 2.566350e+00 3.268820e+00 2.978674e+00 1.959318e+00 4.302285e-01 5.731382e-02 2.112229e-01 1.476424e-01 3.696848e-01 3.032855e-01 5.045084e-01 5.384511e-01 5.490999e-01 3.344094e-01 4.780225e-01 3.855515e-01 2.720201e-01 8.527367e-02
<GCONST> 1.151617e+02
<STATE> 4
<MEAN> 39
 3.446291e+00 9.591203e+00 3.957911e+00 8.757848e+00 -3.834866e+00 -6.962910e+00 -7.252120e+00 -9.210445e+00 -1.302322e+00 -5.778354e+00 -4.945835e+00 -1.285454e+00 6.000733e+01 -2.400277e-01 3.412897e-01 3.333820e-01 1.831974e-01 3.215821e-02 2.255537e-01 1.435753e-01 6.543175e-02 1.359131e-01 -2.710287e-02 -1.175557e-01 4.794296e-03 -3.055204e-01 -3.635750e-02 -6.201415e-02 -2.141388e-02 -3.077488e-02 1.556719e-02 1.458065e-02 9.178448e-02 9.073710e-04 -8.557854e-02 2.973295e-02 4.404972e-02 2.582638e-03 1.638476e-02
<VARIANCE> 39
 3.043441e+01 6.383277e+01 3.329003e+01 5.761098e+01 8.535385e+01 4.387922e+01 6.104671e+01 3.452345e+01 3.232209e+01 4.340719e+01 3.402284e+01 2.307520e+01 5.706975e+01 3.732907e-01 8.274691e-01 8.033676e-01 1.285357e+00 1.321408e+00 1.244675e+00 1.826992e+00 1.674509e+00 1.898918e+00 1.708133e+00 1.602860e+00 1.458358e+00 2.899080e-01 4.698164e-02 1.147549e-01 1.215219e-01 1.999185e-01 1.923123e-01 2.004997e-01 3.032788e-01 3.210531e-01 3.322459e-01 3.180829e-01 2.890285e-01 2.434431e-01 3.759127e-02
<GCONST> 9.919895e+01
<TRANSP> 5
 0.000000e+00 1.000000e+00 0.000000e+00 0.000000e+00 0.000000e+00
 0.000000e+00 7.260779e-01 2.739222e-01 0.000000e+00 0.000000e+00
 0.000000e+00 0.000000e+00 6.422296e-01 3.577704e-01 0.000000e+00
 0.000000e+00 0.000000e+00 0.000000e+00 8.344688e-01 1.655311e-01
 0.000000e+00 0.000000e+00 0.000000e+00 0.000000e+00 0.000000e+00
<ENDHMM>
~h "ao"
<BEGINHMM>
<NUMSTATES> 5
<STATE> 2
<MEAN> 39
 5.202833e+00 1.179059e+01 -2.828503e+00 -3.693623e+00 -1.142011e+01 -1.657122e+01 5.818480e-02 -3.098303e+00 -1.175216e-01 -1.688182e+00 -4.584669e+00 -8.828805e+00 6.468375e+01 1.754112e+00 2.440430e-01 2.700582e-01 -9.646752e-02 -2.197366e+00 -2.097269e+00 -9.368749e-01 7.528093e-01 5.761722e-02 1.088281e+00 -6.984479e-02 -6.436037e-01 5.243980e-01 -1.192720e+00 -6.995740e-01 -2.162242e-01 3.326232e-01 1.181249e+00 9.529268e-01 4.080080e-01 5.402645e-02 -1.086239e-02 -1.603956e-01 1.851473e-01 3.894434e-01 -2.571538e-01
<VARIANCE> 39
 1.889209e+01 7.812532e+01 2.653455e+01 1.018341e+02 4.665850e+01 1.553668e+02 1.207944e+02 3.425500e+01 3.946466e+01 4.670483e+01 2.550566e+01 6.103585e+01 3.936022e+01 4.002635e+00 3.065016e+00 1.062428e+00 1.878163e+00 6.839146e+00 6.438438e+00 3.498920e+00 2.523366e+00 3.463150e+00 2.869443e+00 1.428356e+00 1.971220e+00 5.385655e-01 4.156643e-01 5.837612e-01 2.531259e-01 4.459364e-01 8.069622e-01 6.635908e-01 6.272091e-01 3.355125e-01 4.011537e-01 4.793513e-01 3.557534e-01 3.844257e-01 1.277030e-01
<GCONST> 1.230314e+02
<STATE> 3
<MEAN> 39
 6.877808e+00 1.243511e+01 -3.734339e+00 -1.480986e+00 -1.349046e+01 -1.534354e+01 -3.882513e+00 -3.675068e+00 1.794032e-01 -4.327474e+00 -4.548952e+00 -6.848064e+00 6.290409e+01 1.260806e-01 -3.526528e-01 -5.529412e-01 -3.722715e-01 3.302421e-01 8.037273e-01 5.193635e-01 -1.367493e-01 -6.293561e-01 -2.256396e-01 2.389341e-01 -2.475423e-02 1.132938e-01 -5.072146e-02 -6.479942e-02 -1.284864e-01 -5.882349e-02 2.767145e-01 1.796085e-01 1.185805e-01 -1.647492e-01 -2.050340e-01 2.238921e-02 6.374555e-02 8.782504e-02 2.111160e-02
<VARIANCE> 39
 1.483635e+01 5.505815e+01 3.330069e+01 1.253125e+02 3.728072e+01 9.205200e+01 1.234371e+02 2.561139e+01 5.511857e+01 4.439943e+01 2.926319e+01 5.430235e+01 4.034770e+01 1.324590e-01 4.701973e-01 7.500616e-01 7.866801e-01 1.329081e+00 1.493245e+00 1.808959e+00 1.403034e+00 1.791038e+00 1.273249e+00 1.183010e+00 1.104538e+00 1.419130e-01 3.860912e-02 6.655265e-02 9.435678e-02 1.577757e-01 2.149641e-01 2.621964e-01 3.258837e-01 2.598949e-01 2.308043e-01 2.003779e-01 2.506696e-01 2.144556e-01 2.341644e-02
<GCONST> 9.397508e+01
<STATE> 4
<MEAN> 39
 7.332000e+00 -9.959806e-01 -8.760022e+00 -1.355443e+01 -9.630260e+00 -5.943264e-03 1.065765e+00 -3.866556e+00 -4.189370e+00 2.959541e-01 1.507184e-01 -5.412776e+00 6.301736e+01 -2.250472e-02 -9.536858e-01 -6.046520e-01 8.823924e-01 9.559492e-01 3.725903e-02 -6.784617e-02 -2.727594e-01 -5.553225e-01 5.659117e-01 4.841331e-01 1.106613e-02 2.244978e-02 -1.396421e-02 2.169418e-02 7.206827e-02 2.070573e-01 2.398612e-02 -1.646208e-01 -1.022124e-01 4.756425e-02 9.794485e-02 -3.042463e-02 -2.562035e-02 -1.344168e-02 -3.804189e-02
<VARIANCE> 39
 1.242525e+01 1.021480e+02 4.591965e+01 1.136627e+02 1.479463e+02 3.034211e+02 1.004618e+02 1.216465e+02 1.045140e+02 6.637756e+01 5.079725e+01 6.685172e+01 7.903577e+01 1.746213e-01 1.266768e+00 1.068062e+00 2.199423e+00 2.516018e+00 4.066687e+00 2.301992e+00 6.024776e+00 3.396043e+00 2.787507e+00 3.825645e+00 2.677100e+00 2.961175e-01 3.111125e-02 2.052833e-01 1.607646e-01 1.646820e-01 3.198047e-01 4.555685e-01 4.499763e-01 7.054527e-01 4.442440e-01 6.201767e-01 5.850418e-01 4.550471e-01 3.131358e-02
<GCONST> 1.186739e+02
<TRANSP> 5
 0.000000e+00 1.000000e+00 0.000000e+00 0.000000e+00 0.000000e+00
 0.000000e+00 6.023121e-01 3.976879e-01 0.000000e+00 0.000000e+00
 0.000000e+00 0.000000e+00 8.365873e-01 1.634128e-01 0.000000e+00
 0.000000e+00 0.000000e+00 0.000000e+00 8.583524e-01 1.416476e-01
 0.000000e+00 0.000000e+00 0.000000e+00 0.000000e+00 0.000000e+00
<ENDHMM>
~h "ay"
<BEGINHMM>
<NUMSTATES> 5
<STATE> 2
<MEAN> 39
 3.518327e+00 -1.209939e+00 -3.222691e+00 1.862445e+00 -2.508034e+00 -5.482390e+00 -3.663013e+00 -4.771497e+00 -3.146939e+00 -3.383845e+00 -2.172433e+00 -2.682322e+00 6.225085e+01 1.248384e+00 -2.325061e+00 -1.610827e+00 -2.022026e+00 -1.201466e-01 -6.336564e-01 5.080469e-01 7.363288e-01 -1.446114e-01 1.963527e-01 7.340855e-02 3.780794e-01 2.521834e+00 -5.430430e-01 -1.212173e-01 3.101404e-02 8.167538e-03 3.096668e-01 3.523022e-01 1.175138e-01 1.234196e-01 2.143704e-01 2.007097e-02 -1.040568e-02 -6.069639e-03 -2.922814e-01
<VARIANCE> 39
 4.730669e+01 1.088956e+02 1.094618e+02 1.170079e+02 1.305925e+02 1.140394e+02 1.294277e+02 9.160732e+01 5.912062e+01 6.258012e+01 8.105441e+01 5.861530e+01 1.471638e+02 5.286658e+00 6.382833e+00 6.338015e+00 4.652457e+00 9.457919e+00 7.365865e+00 8.843184e+00 7.625154e+00 5.362166e+00 6.180513e+00 6.212466e+00 5.771398e+00 2.335285e+00 1.067441e+00 1.153553e+00 1.115693e+00 9.556734e-01 1.444893e+00 1.203493e+00 1.243369e+00 1.389872e+00 9.312186e-01 8.983312e-01 9.902260e-01 8.711604e-01 7.343976e-01
<GCONST> 1.543686e+02
<STATE> 3
<MEAN> 39
 6.358356e+00 -1.078602e+01 -1.170299e+01 -7.872507e+00 2.488995e+00 -4.280665e+00 -1.729146e+00 -1.743321e+00 1.232527e-01 -1.788693e+00 -1.602962e+00 -5.040609e+00 7.018768e+01 2.772408e-02 -1.697738e-01 -5.248344e-02 4.549948e-01 2.075055e-01 -2.671137e-02 -1.621604e-01 4.850692e-03 2.828139e-01 -1.680040e-01 -2.618636e-01 1.455522e-01 -2.153085e-01 -6.058475e-02 2.279515e-01 1.208940e-01 2.260889e-01 4.313522e-03 -1.055016e-01 -1.072060e-01 -1.681953e-02 -2.389732e-02 3.532635e-02 7.768391e-03 1.429565e-02 -1.786560e-01
<VARIANCE> 39
 2.371552e+01 6.668769e+01 7.438739e+01 1.382502e+02 1.022225e+02 2.173159e+02 2.444966e+02 6.825363e+01 6.992585e+01 8.633612e+01 8.312240e+01 7.410327e+01 4.416299e+01 6.782184e-01 1.066530e+00 2.239549e+00 2.474736e+00 2.872933e+00 4.807908e+00 2.889642e+00 2.990055e+00 2.581834e+00 2.623083e+00 2.726815e+00 2.679049e+00 4.662184e-01 1.804649e-01 2.425089e-01 3.663892e-01 3.768753e-01 4.782176e-01 7.213176e-01 6.059872e-01 5.479534e-01 4.685951e-01 5.513811e-01 5.157098e-01 5.068318e-01 1.664279e-01
<GCONST> 1.267769e+02
<STATE> 4
<MEAN> 39
 4.328854e+00 -5.141137e+00 -8.744278e+00 2.426089e-01 -8.024807e-02 -6.102293e+00 -1.523189e+00 -4.326778e+00 -9.895145e-01 -3.971451e+00 -4.801523e+00 5.649162e-01 6.709267e+01 -1.264341e-01 8.614498e-02 4.102743e-01 4.382038e-01 1.323183e-01 -3.338107e-01 -2.832068e-01 -1.049367e-01 -1.272191e-01 1.629142e-01 1.256144e-01 -3.616015e-02 -1.235371e-01 -4.720837e-02 7.694979e-02 1.586170e-01 6.972878e-02 -4.531708e-02 -1.733141e-02 5.326731e-02 -2.846051e-02 -5.196165e-02 -1.421210e-02 -9.532512e-03 -5.769809e-02 -4.163583e-02
<VARIANCE> 39
 3.295602e+01 1.032380e+02 6.015804e+01 4.583123e+01 9.683078e+01 1.068298e+02 1.254729e+02 5.671801e+01 4.438551e+01 5.289525e+01 6.288712e+01 4.624860e+01 5.426284e+01 1.515875e-01 3.918310e-01 9.502295e-01 1.078825e+00 1.298976e+00 1.377489e+00 1.567396e+00 1.361935e+00 1.440502e+00 1.408953e+00 1.373139e+00 1.047878e+00 1.274730e-01 2.465727e-02 6.220243e-02 9.607471e-02 1.357311e-01 1.554308e-01 2.097076e-01 2.381052e-01 1.984303e-01 2.021872e-01 2.139098e-01 1.997424e-01 1.734893e-01 1.958040e-02
<GCONST> 9.539745e+01
<TRANSP> 5
 0.000000e+00 1.000000e+00 0.000000e+00 0.000000e+00 0.000000e+00
 0.000000e+00 7.112648e-01 2.887352e-01 0.000000e+00 0.000000e+00
 0.000000e+00 0.000000e+00 8.301370e-01 1.698630e-01 0.000000e+00
 0.000000e+00 0.000000e+00 0.000000e+00 9.059008e-01 9.409921e-02
 0.000000e+00 0.000000e+00 0.000000e+00 0.000000e+00 0.000000e+00
<ENDHMM>
~h "eh"
<BEGINHMM>
<NUMSTATES> 5
<STATE> 2
<MEAN> 39
 -9.937707e+00 8.972632e-01 2.417696e+00 2.666774e+00 2.376513e+00 -1.482301e+00 3.424191e+00 -7.147590e+00 -8.599830e-02 -1.871860e+00 -1.746922e-01 -1.988837e+00 6.335774e+01 2.645192e+00 -1.832668e-01 -5.532330e-01 7.155499e-02 -4.896681e-01 -1.358722e+00 -1.034351e+00 -2.293297e-01 -7.581264e-01 -1.698158e-01 -4.973574e-01 1.103873e-01 9.412094e-01 2.101043e-01 -7.684504e-02 -1.512721e-01 -6.724483e-02 -9.401634e-02 -1.874600e-01 -1.216482e-01 2.810200e-01 1.037183e-01 -1.110353e-01 -3.163942e-02 6.225767e-04 1.442605e-01
<VARIANCE> 39
 1.370085e+02 4.744426e+01 8.085394e+01 9.159247e+01 8.232247e+01 9.330573e+01 9.343420e+01 8.155025e+01 5.479193e+01 3.451567e+01 5.708941e+01 5.452929e+01 9.354586e+01 1.150539e+01 4.369858e+00 5.170605e+00 4.374866e+00 4.461731e+00 6.885892e+00 5.858501e+00 5.114827e+00 5.334019e+00 3.915764e+00 3.597118e+00 2.290022e+00 2.711844e+00 1.533751e+00 6.312360e-01 4.542408e-01 4.973015e-01 5.349277e-01 9.857101e-01 8.179959e-01 8.265934e-01 8.373128e-01 5.562083e-01 5.058343e-01 3.192980e-01 4.137862e-01
<GCONST> 1.413643e+02
<STATE> 3
<MEAN> 39
 -5.782225e-01 -7.122596e+00 -3.477381e+00 -2.469300e+00 -1.414340e+00 -7.850476e+00 8.348300e-01 2.400797e+00 -1.444563e+00 -2.264777e+00 -6.710916e-01 -3.649466e-01 7.386550e+01 5.969965e-01 -5.070922e-01 -6.337015e-01 -2.169828e-03 -2.979937e-02 2.990729e-01 1.424052e-02 4.538737e-01 3.713694e-01 -3.583400e-01 -2.977419e-01 -1.424866e-01 6.133751e-03 -4.734724e-01 1.846629e-01 1.021041e-01 1.405542e-01 1.526185e-01 3.396226e-01 1.502481e-01 -1.758800e-01 9.362738e-03 4.395446e-02 7.848407e-02 3.059081e-02 -3.002682e-01
<VARIANCE> 39
 3.689907e+01 6.812451e+01 3.859846e+01 8.013456e+01 9.513837e+01 6.518208e+01 7.746101e+01 1.179741e+02 8.963543e+01 5.549888e+01 8.026533e+01 6.213386e+01 1.601723e+02 1.445063e+00 2.949060e+00 2.148595e+00 2.867336e+00 3.885593e+00 3.698847e+00 2.414826e+00 4.030996e+00 3.004406e+00 2.664299e+00 2.692805e+00 3.186020e+00 1.842019e+00 5.251843e-01 3.475159e-01 3.016058e-01 4.516045e-01 8.239289e-01 7.022511e-01 6.303672e-01 6.064618e-01 6.761651e-01 5.403328e-01 5.853778e-01 5.731893e-01 2.890913e-01
<GCONST> 1.320052e+02
<STATE> 4
<MEAN> 39
 1.808808e-01 -3.584480e-01 -6.617308e+00 8.802748e+00 -1.481910e+00 4.243894e+00 2.033496e+00 5.058859e-01 -5.948675e-01 -2.076725e+00 -1.725135e+00 -4.623248e+00 6.843769e+01 5.895140e-02 4.588449e-02 -8.959024e-02 5.679071e-02 6.472169e-02 4.126372e-03 -5.587972e-02 -8.867661e-03 1.161126e-01 7.589531e-02 -1.667561e-01 -1.383105e-02 -7.856134e-02 -4.977763e-02 8.369236e-02 8.961165e-02 -2.319986e-02 5.170840e-04 -2.226171e-02 2.579925e-03 -1.656668e-03 -1.136477e-02 4.949363e-02 5.256419e-02 -3.198618e-02 -3.511730e-02
<VARIANCE> 39
 1.860818e+01 3.541424e+01 5.918033e+01 8.639554e+01 6.010286e+01 1.123402e+02 5.588915e+01 4.831436e+01 5.038470e+01 4.164597e+01 3.846314e+01 4.313139e+01 4.103874e+01 4.775415e-01 8.913825e-01 1.050913e+00 1.255376e+00 1.771923e+00 1.697283e+00 1.959803e+00 1.809642e+00 1.474675e+00 1.698814e+00 1.934468e+00 1.629944e+00 1.933817e-01 1.074435e-01 1.784248e-01 2.284511e-01 2.625846e-01 3.972198e-01 3.601186e-01 3.837772e-01 3.787159e-01 2.596095e-01 3.219776e-01 3.934350e-01 2.964469e-01 3.802990e-02
<GCONST> 1.058760e+02
<TRANSP> 5
 0.000000e+00 1.000000e+00 0.000000e+00 0.000000e+00 0.000000e+00
 0.000000e+00 7.777615e-01 2.222385e-01 0.000000e+00 0.000000e+00
 0.000000e+00 0.000000e+00 6.800249e-01 3.199751e-01 0.000000e+00
 0.000000e+00 0.000000e+00 0.000000e+00 8.483537e-01 1.516463e-01
 0.000000e+00 0.000000e+00 0.000000e+00 0.000000e+00 0.000000e+00
<ENDHMM>
~h "er"
<BEGINHMM>
<NUMSTATES> 5
<STATE> 2
<MEAN> 39
 -3.425615e-01 5.753608e+00 -6.668714e+00 5.207937e+00 8.797374e-01 -2.127906e+00 -2.309336e+00 -1.780523e+01 -1.138763e+01 -1.968098e+00 4.595284e+00 3.671642e-01 6.190462e+01 -6.999753e-01 -1.778246e-01 4.216794e-01 6.307687e-01 3.414943e-01 1.160800e-01 -1.348943e-01 3.556059e-01 7.188353e-01 2.613761e-01 -9.845650e-02 2.049359e-02 -4.631063e-01 -2.045348e-01 -5.425865e-02 1.953542e-01 1.110378e-01 -1.405509e-02 -8.208324e-03 1.971321e-01 2.879158e-01 2.597756e-01 -3.521161e-02 -1.813563e-01 -1.637496e-02 -8.216178e-02
<VARIANCE> 39
 4.306002e+01 1.687594e+01 4.082175e+01 2.985441e+01 4.055149e+01 3.586669e+01 4.020972e+01 4.204086e+01 5.845517e+01 6.614427e+01 3.609279e+01 3.317404e+01 1.960801e+01 7.004483e-01 9.448597e-01 1.269629e+00 1.095354e+00 1.098856e+00 1.446294e+00 2.242082e+00 2.575778e+00 1.943823e+00 1.915557e+00 1.779197e+00 1.043303e+00 4.337058e-01 1.241570e-01 2.384193e-01 1.478498e-01 1.849853e-01 2.331165e-01 3.702273e-01 4.838790e-01 2.794355e-01 2.769039e-01 2.843162e-01 2.851332e-01 2.367994e-01 6.032348e-02
<GCONST> 1.020271e+02
<STATE> 3
<MEAN> 39
 -1.400511e+01 -3.908444e+00 3.170379e+00 6.733374e+00 -1.770559e+00 -9.110460e-01 6.027887e+00 -8.045343e+00 -6.206947e-01 1.692138e+00 3.027645e+00 8.814181e-01 5.944747e+01 -3.884150e-01 -1.652287e-01 8.625225e-02 -5.012513e-02 -2.429215e-01 4.513894e-02 3.254283e-01 3.685647e-01 3.674197e-01 2.314706e-02 -8.928362e-02 8.506752e-02 -2.410140e-01 4.218556e-02 7.255653e-02 -1.472588e-02 -2.194434e-02 2.138447e-02 -2.889201e-02 -3.267328e-02 -5.103054e-02 -5.479137e-02 -5.553224e-03 -1.663735e-04 -3.945174e-03 1.944341e-03
<VARIANCE> 39
 6.946806e+01 5.117690e+01 1.454218e+02 5.533638e+01 5.474947e+01 6.817180e+01 5.517380e+01 3.576966e+01 4.532906e+01 5.320549e+01 4.304331e+01 3.081335e+01 2.977156e+01 2.215327e+00 3.683755e+00 3.865482e+00 2.489984e+00 2.278923e+00 3.373909e+00 3.084515e+00 2.651146e+00 2.626326e+00 2.136551e+00 2.322614e+00 1.502770e+00 1.572123e+00 2.169365e-01 5.264416e-01 4.674721e-01 3.833163e-01 3.989223e-01 5.382212e-01 4.497239e-01 4.633707e-01 4.637898e-01 4.151257e-01 3.717096e-01 2.625248e-01 2.561609e-01
<GCONST> 1.226303e+02
<STATE> 4
<MEAN> 39
 -1.646122e+01 3.479307e+00 -8.063664e-01 1.010000e+01 1.387170e-01 2.051086e+00 5.939238e+00 -1.621033e+00 4.947462e+00 -2.799485e+00 8.383977e-01 -1.879853e+00 4.843936e+01 -3.018945e-02 2.069580e-02 2.336357e-02 4.262008e-03 1.750601e-02 8.289747e-03 2.217550e-02 5.050473e-02 4.132632e-02 1.091774e-02 -4.218543e-02 -5.317781e-03 -7.559353e-02 1.221490e-02 -1.437879e-02 -1.173407e-02 2.941454e-03 2.200382e-03 -5.137361e-03 -7.186958e-03 -1.895982e-02 -8.689548e-03 9.198922e-03 1.331988e-02 8.194786e-04 1.619508e-02
<VARIANCE> 39
 1.220609e+01 1.625827e+01 1.443540e+01 1.671631e+01 2.811713e+01 2.731482e+01 1.576973e+01 1.748511e+01 1.775303e+01 3.111388e+01 1.531167e+01 3.581283e+01 2.529869e+01 1.546489e-01 3.995219e-01 5.155584e-01 6.529852e-01 8.562091e-01 1.002278e+00 1.108090e+00 1.217128e+00 1.288472e+00 1.275370e+00 1.195673e+00 1.012884e+00 7.722159e-02 3.280018e-02 6.981648e-02 9.942433e-02 1.235717e-01 1.653086e-01 1.858246e-01 2.098814e-01 2.327833e-01 2.592188e-01 2.568793e-01 2.461517e-01 2.010457e-01 1.624484e-02
<GCONST> 7.815395e+01
<TRANSP> 5
 0.000000e+00 1.000000e+00 0.000000e+00 0.000000e+00 0.000000e+00
 0.000000e+00 8.151993e-01 1.848007e-01 0.000000e+00 0.000000e+00
 0.000000e+00 0.000000e+00 8.930420e-01 1.069580e-01 0.000000e+00
 0.000000e+00 0.000000e+00 0.000000e+00 9.701769e-01 2.982314e-02
 0.000000e+00 0.000000e+00 0.000000e+00 0.000000e+00 0.000000e+00
<ENDHMM>
~h "ey"
<BEGINHMM>
<NUMSTATES> 5
<STATE> 2
<MEAN> 39
 -8.381064e+00 -3.197162e+00 1.765558e-01 3.943197e+00 5.298732e-01 -5.098051e+00 -3.349792e+00 -4.134976e+00 -3.251966e-01 -2.528806e-01 1.298298e+00 -2.326737e+00 5.373668e+01 1.252654e+00 -9.627452e-01 5.026365e-01 -5.401118e-01 -5.456704e-01 -2.319294e+00 -9.358901e-01 -6.100073e-01 -5.471314e-01 2.779177e-01 -1.402408e-01 -6.421795e-01 2.510427e+00 3.422088e-03 8.427857e-02 1.030533e-01 -5.864078e-03 6.230307e-02 -5.964386e-02 -5.604422e-02 -1.432577e-02 -8.951370e-03 -4.757778e-02 3.368708e-02 -6.697350e-02 3.928007e-02
<VARIANCE> 39
 7.587177e+01 7.348245e+01 1.116697e+02 1.646471e+02 2.330596e+02 2.142287e+02 1.097973e+02 8.104288e+01 6.635381e+01 1.058148e+02 7.057703e+01 4.931382e+01 2.110909e+02 4.402353e+00 5.000258e+00 7.940651e+00 1.029141e+01 1.182051e+01 1.225573e+01 8.184612e+00 6.194069e+00 6.345402e+00 7.417482e+00 4.887460e+00 3.077600e+00 6.286791e+00 6.780517e-01 9.148813e-01 1.064789e+00 1.554953e+00 1.816878e+00 2.113561e+00 1.255532e+00 1.041210e+00 1.152751e+00 1.238356e+00 8.114658e-01 5.585654e-01 1.441782e+00
<GCONST> 1.587666e+02
<STATE> 3
<MEAN> 39
 -1.567105e+00 -1.981450e+00 2.886874e+00 1.510561e+01 6.714404e+00 -2.492558e+01 -8.999147e+00 -7.336390e+00 -6.597407e+00 -2.327969e+00 1.754950e-01 -9.986319e+00 6.766001e+01 -3.182616e-01 6.916415e-01 5.654033e-01 3.157164e-01 -1.614034e-01 6.718692e-01 -4.380542e-02 -1.264563e-02 5.266033e-01 -3.913090e-01 -3.613330e-01 -8.997530e-02 -5.939751e-01 -1.173189e-01 1.392198e-01 -2.824291e-02 -1.067095e-01 -7.679677e-02 4.261056e-01 1.331569e-01 -5.965077e-02 1.201072e-01 -2.913504e-02 -4.520381e-02 1.987942e-01 -2.600963e-01
<VARIANCE> 39
 3.095384e+01 4.139398e+01 2.984274e+01 1.587356e+02 1.685006e+02 1.149808e+02 1.053478e+02 6.803880e+01 7.805254e+01 3.324247e+01 5.841223e+01 5.361288e+01 3.896313e+01 4.549874e-01 8.772618e-01 9.065989e-01 1.845624e+00 2.376585e+00 3.096338e+00 1.929084e+00 1.996181e+00 2.788872e+00 2.134300e+00 1.853569e+00 1.853023e+00 5.975319e-01 1.376752e-01 1.986990e-01 1.972579e-01 3.504465e-01 4.360940e-01 3.709422e-01 3.966824e-01 3.925855e-01 4.503588e-01 3.694065e-01 3.485594e-01 3.251825e-01 1.270296e-01
<GCONST> 1.150754e+02
<STATE> 4
<MEAN> 39
 -6.085927e+00 3.225893e+00 1.171094e+01 -2.676286e+00 -1.052920e+01 -5.364126e+00 -6.878207e+00 -1.038068e+01 -2.452729e+00 -2.894589e+00 -1.519322e+00 -8.825123e-01 5.374143e+01 -5.121648e-01 4.859460e-01 -2.957697e-01 1.529033e-01 2.801799e-01 6.191842e-01 -8.218859e-02 -4.561084e-02 -1.727414e-01 -7.157467e-02 -2.705828e-02 2.474550e-01 -1.154334e+00 -3.772937e-02 -1.159583e-01 -7.431313e-02 2.558156e-02 5.908379e-02 -7.105326e-03 1.246255e-01 1.038650e-01 -3.794199e-02 5.198089e-02 5.164961e-02 -2.609517e-02 1.582296e-02
<VARIANCE> 39
 4.046244e+01 5.093337e+01 1.179601e+02 1.975159e+02 1.329379e+02 9.889555e+01 6.205516e+01 5.876683e+01 5.961585e+01 5.459662e+01 6.958995e+01 4.403534e+01 1.502806e+02 6.309515e-01 1.619298e+00 2.048908e+00 2.896623e+00 2.307865e+00 3.051644e+00 2.968781e+00 3.595840e+00 3.123322e+00 1.804919e+00 2.772778e+00 2.461790e+00 7.479339e-01 6.504998e-02 1.841165e-01 2.299656e-01 4.013472e-01 3.766673e-01 3.536359e-01 4.549623e-01 5.273522e-01 6.024773e-01 3.233343e-01 4.441330e-01 4.006940e-01 1.024648e-01
<GCONST> 1.217688e+02
<TRANSP> 5
 0.000000e+00 1.000000e+00 0.000000e+00 0.000000e+00 0.000000e+00
 0.000000e+00 8.132403e-01 1.867596e-01 0.000000e+00 0.000000e+00
 0.000000e+00 0.000000e+00 8.158619e-01 1.841381e-01 0.000000e+00
 0.000000e+00 0.000000e+00 0.000000e+00 8.495033e-01 1.504967e-01
 0.000000e+00 0.000000e+00 0.000000e+00 0.000000e+00 0.000000e+00
<ENDHMM>
~h "hh"
<BEGINHMM>
<NUMSTATES> 5
<STATE> 2
<MEAN> 39
 4.873366e+00 2.182649e-01 -4.848060e+00 -4.956234e-01 -6.045564e+00 -1.957816e+01 1.225357e+01 9.093687e+00 -1.489194e+00 -4.782427e+00 -2.926477e+00 4.275511e-01 7.335439e+01 8.632586e-02 3.049687e-01 1.484843e-01 5.524822e-02 -1.449356e-01 5.515109e-02 -3.077752e-01 1.861101e-01 2.601068e-01 -3.233461e-01 3.343615e-02 -2.762033e-02 -2.955128e-01 -1.765710e-02 3.500893e-02 3.628483e-02 4.054301e-02 -5.140206e-03 6.772310e-02 -4.805327e-02 -4.129791e-02 6.724550e-03 -1.221851e-02 4.562142e-02 -3.954151e-02 -2.687149e-02
<VARIANCE> 39
 1.960302e+01 3.581874e+01 4.195996e+01 2.413581e+01 7.226530e+01 9.739519e+01 2.458835e+02 7.111189e+01 4.897609e+01 1.541503e+02 2.431738e+01 1.131235e+02 2.745755e+01 6.255783e-01 1.242028e+00 2.024118e+00 1.722367e+00 1.790657e+00 3.605483e+00 3.039160e+00 1.887333e+00 2.749366e+00 3.266799e+00 1.659914e+00 1.806399e+00 5.795756e-01 8.326072e-02 1.518628e-01 2.746663e-01 2.756495e-01 3.059067e-01 4.553968e-01 5.089676e-01 2.712112e-01 4.744749e-01 5.578783e-01 2.871808e-01 3.617966e-01 8.685745e-02
<GCONST> 1.143580e+02
<STATE> 3
<MEAN> 39
 7.266543e+00 1.174044e+01 4.906782e+00 1.418081e+00 -1.502804e+01 -1.285660e+01 -7.534822e+00 -2.158692e+00 8.879955e+00 -4.376172e+00 -8.286214e+00 1.304813e+00 6.493324e+01 -3.035732e-01 2.794288e-01 2.011726e-01 2.310823e-01 2.050126e-01 3.999782e-01 3.178835e-01 -1.102742e-01 9.546910e-02 3.986979e-01 2.515587e-01 -1.489033e-01 -2.581447e-01 -3.831461e-02 -3.606929e-02 -9.645152e-03 3.104403e-02 5.499252e-02 6.285394e-02 8.402251e-02 -2.228909e-02 -6.449786e-02 3.459013e-02 1.699308e-02 9.382421e-03 9.741344e-04
<VARIANCE> 39
 1.725385e+01 2.078529e+01 2.004969e+01 1.007608e+01 3.430624e+01 7.561562e+01 1.026640e+02 5.969556e+01 3.047470e+01 2.802963e+01 3.182660e+01 2.998832e+01 6.703663e+00 6.462907e-01 8.676714e-01 9.907222e-01 9.028497e-01 1.553940e+00 2.958913e+00 3.121305e+00 1.635550e+00 1.459751e+00 1.450267e+00 1.106209e+00 1.199957e+00 3.941331e-01 5.116020e-02 1.510195e-01 1.279272e-01 1.108229e-01 1.957633e-01 3.668853e-01 2.939073e-01 2.284207e-01 1.877910e-01 1.648565e-01 2.240969e-01 2.332050e-01 4.489130e-02
<GCONST> 9.354756e+01
<STATE> 4
<MEAN> 39
 -1.169808e+00 5.454948e+00 2.003527e+00 6.517373e+00 -1.528538e-01 -2.511916e-01 3.900912e+00 -1.050449e+00 2.697932e+00 -3.944970e+00 1.118289e+00 -8.051007e-01 6.244798e+01 -4.777861e-02 2.481313e-02 1.793352e-02 1.025851e-02 4.322262e-02 5.815366e-02 -6.291157e-02 -1.016129e-01 -1.209874e-02 4.817246e-03 3.833203e-02 4.055448e-02 -3.191733e-02 5.288089e-03 -1.376449e-02 -4.318730e-04 -1.265350e-02 2.072981e-03 -1.774059e-02 5.287041e-03 6.552577e-03 -8.187812e-03 -5.177516e-03 5.775718e-03 -1.914153e-04 1.628445e-02
<VARIANCE> 39
 1.679030e+01 8.665264e+00 2.258514e+01 1.533940e+01 6.215396e+01 4.249660e+01 2.498504e+01 2.830071e+01 3.224954e+01 2.853951e+01 1.739051e+01 3.937675e+01 5.345945e+00 4.011679e-01 4.770569e-01 7.608867e-01 7.991586e-01 1.132206e+00 1.274368e+00 1.899407e+00 1.806717e+00 2.081486e+00 1.558095e+00 1.358669e+00 1.431748e+00 1.314847e-01 7.126930e-02 9.637857e-02 1.529989e-01 1.537426e-01 2.295414e-01 2.441468e-01 3.563663e-01 3.411737e-01 4.027086e-01 2.964714e-01 2.497258e-01 2.560554e-01 2.590297e-02
<GCONST> 8.898940e+01
<TRANSP> 5
 0.000000e+00 1.000000e+00 0.000000e+00 0.000000e+00 0.000000e+00
 0.000000e+00 9.067354e-01 9.326463e-02 0.000000e+00 0.000000e+00
 0.000000e+00 0.000000e+00 8.970358e-01 1.029642e-01 0.000000e+00
 0.000000e+00 0.000000e+00 0.000000e+00 9.799793e-01 2.002071e-02
 0.000000e+00 0.000000e+00 0.000000e+00 0.000000e+00 0.000000e+00
<ENDHMM>
~h "ih"
<BEGINHMM>
<NUMSTATES> 5
<STATE> 2
<MEAN> 39
 -1.322844e+01 4.288449e-01 5.567161e+00 2.443237e+00 1.750388e+00 -4.718354e+00 -2.782227e+00 -9.999418e+00 -8.573300e-02 -3.788968e+00 -6.273562e-01 -2.227393e+00 6.089946e+01 3.579770e+00 6.978631e-03 -6.010031e-01 1.309050e+00 3.475424e-01 -1.899853e+00 -2.076010e+00 -6.313473e-01 -1.619138e+00 -2.764389e-01 -1.254639e-01 -2.106757e-01 8.983189e-01 2.776028e-01 -2.393353e-01 -1.014996e-01 -1.276409e-02 2.180299e-01 -4.658425e-01 -9.694678e-02 1.039249e-01 -2.317936e-01 2.279803e-01 1.805304e-01 -1.366111e-01 4.802616e-01
<VARIANCE> 39
 1.366660e+02 7.554247e+01 9.110104e+01 1.137995e+02 9.969211e+01 9.758757e+01 1.144686e+02 7.835115e+01 5.912724e+01 3.824309e+01 3.803952e+01 3.467078e+01 9.294291e+01 8.524975e+00 7.266994e+00 6.893286e+00 5.315855e+00 6.004961e+00 7.621017e+00 5.228642e+00 3.998212e+00 5.294837e+00 2.769652e+00 3.619902e+00 2.862523e+00 2.911091e+00 1.542395e+00 9.284754e-01 5.060567e-01 6.741778e-01 7.542868e-01 1.122787e+00 1.164392e+00 7.462502e-01 8.416287e-01 5.498562e-01 5.391551e-01 3.835587e-01 3.954947e-01
<GCONST> 1.442765e+02
<STATE> 3
<MEAN> 39
 -2.414734e+00 -7.725113e-01 9.782801e-02 1.229153e+01 1.277703e+01 -1.575948e+01 -6.396843e+00 -1.007451e+01 -5.722254e+00 -4.064006e+00 1.891510e+00 -6.779727e+00 6.663948e+01 1.054048e-01 9.534742e-02 -1.775028e-01 -1.363696e-01 -1.163732e-01 3.747318e-01 2.677198e-01 -2.974924e-01 -4.351848e-02 5.132876e-02 6.771335e-02 3.088955e-01 -8.678196e-02 -2.852979e-01 4.615582e-02 6.883135e-02 -2.634778e-01 -1.515733e-01 4.045808e-01 1.899528e-01 -4.255417e-02 1.679087e-01 -3.512424e-02 -9.319995e-02 7.736029e-02 -1.126827e-01
<VARIANCE> 39
 2.992929e+01 6.756340e+01 2.738475e+01 6.565488e+01 1.050888e+02 1.559611e+02 7.774952e+01 7.543568e+01 5.833077e+01 5.901009e+01 4.294669e+01 7.664764e+01 5.547159e+01 2.857897e+00 5.525216e+00 2.238784e+00 5.001332e+00 5.389876e+00 1.161520e+01 4.321276e+00 3.673245e+00 4.822348e+00 4.624599e+00 3.159228e+00 3.740368e+00 3.948080e+00 5.880859e-01 1.085529e+00 3.794082e-01 8.873324e-01 8.515382e-01 1.840763e+00 9.731035e-01 7.269779e-01 9.772512e-01 9.088616e-01 6.342548e-01 5.999216e-01 7.176325e-01
<GCONST> 1.415967e+02
<STATE> 4
<MEAN> 39
 -4.992800e+00 -3.966736e+00 5.019006e+00 1.156696e+00 -4.593376e+00 -5.811916e+00 -1.058014e+01 -8.740556e+00 -2.137195e+00 -6.586314e+00 3.883386e+00 -3.190422e+00 6.032744e+01 -5.971442e-01 -8.633528e-01 4.963214e-01 -8.475202e-01 -1.987101e-01 -1.348359e-01 5.091907e-01 -1.536032e-01 1.292804e-02 1.974578e-01 -1.200792e-01 -1.467107e-01 7.874652e-01 -2.290681e-01 8.416764e-02 1.769816e-01 2.341011e-01 6.940839e-02 9.222743e-03 1.041118e-01 1.461983e-01 2.509311e-01 4.339422e-02 -3.332004e-02 -1.261344e-01 -8.819731e-02
<VARIANCE> 39
 9.325011e+01 1.771285e+02 1.162989e+02 9.792485e+01 3.338864e+02 2.160883e+02 2.070408e+02 1.197583e+02 7.350450e+01 6.237356e+01 8.163631e+01 5.994088e+01 9.320595e+01 7.655513e+00 5.963566e+00 1.014520e+01 8.883651e+00 8.228191e+00 1.086828e+01 6.299119e+00 6.568622e+00 5.766478e+00 5.110898e+00 3.130959e+00 4.391570e+00 5.803232e+00 8.180746e-01 9.377558e-01 1.434636e+00 9.337807e-01 1.176270e+00 1.664546e+00 1.168150e+00 1.111279e+00 1.035867e+00 1.019790e+00 6.802221e-01 9.311486e-01 6.984219e-01
<GCONST> 1.579963e+02
<TRANSP> 5
 0.000000e+00 1.000000e+00 0.000000e+00 0.000000e+00 0.000000e+00
 0.000000e+00 6.243350e-01 3.756649e-01 0.000000e+00 0.000000e+00
 0.000000e+00 0.000000e+00 8.178876e-01 1.821124e-01 0.000000e+00
 0.000000e+00 0.000000e+00 0.000000e+00 6.897854e-01 3.102147e-01
 0.000000e+00 0.000000e+00 0.000000e+00 0.000000e+00 0.000000e+00
<ENDHMM>
~h "iy"
<BEGINHMM>
<NUMSTATES> 5
<STATE> 2
<MEAN> 39
 2.213807e+00 -1.052425e+01 9.871861e+00 5.044842e+00 -1.470375e+01 -1.133810e+01 -1.537507e+01 -2.248809e+00 -2.593189e+00 -8.609061e+00 3.065377e+00 -2.733764e+00 5.666531e+01 1.307340e-01 1.879090e-01 -2.706081e-01 1.405980e-01 -1.878277e-02 3.655522e-01 2.658523e-01 6.160720e-03 3.919790e-02 8.319477e-02 -2.664929e-01 -7.084516e-02 -3.306991e-01 -1.001033e-01 9.143560e-02 -1.141352e-01 -1.019383e-01 8.905424e-02 2.325546e-01 2.005359e-01 -9.987252e-02 1.512787e-02 1.082647e-01 -5.037120e-02 1.001418e-02 -8.943576e-02
<VARIANCE> 39
 5.146944e+01 1.073501e+02 7.573895e+01 1.513426e+02 2.003055e+02 8.636813e+01 9.696637e+01 6.813924e+01 7.268913e+01 6.813428e+01 6.866396e+01 6.825154e+01 1.172856e+02 1.162372e+00 1.651382e+00 3.703626e+00 1.724817e+00 2.977430e+00 3.249526e+00 3.554345e+00 3.160481e+00 3.592151e+00 3.258753e+00 3.086531e+00 2.434209e+00 1.293145e+00 1.512757e-01 2.309005e-01 2.699746e-01 3.119648e-01 4.178367e-01 5.369872e-01 6.261856e-01 5.741934e-01 7.119371e-01 5.222498e-01 5.802018e-01 4.155891e-01 1.252107e-01
<GCONST> 1.290134e+02
<STATE> 3
<MEAN> 39
 -5.123491e+00 3.729882e+00 1.070365e+01 8.860891e+00 -3.847163e+00 -4.121239e+00 -6.451346e+00 -1.127091e+01 -5.646274e+00 -3.462955e-02 -3.028670e+00 -3.031198e+00 5.621406e+01 -7.461230e-01 -3.580065e-02 -7.081668e-01 -6.092301e-01 -2.073256e-02 1.282967e+00 1.189429e+00 -9.184900e-02 4.782484e-01 3.758065e-01 -3.094236e-01 3.185610e-01 -7.943150e-01 -5.733314e-02 -1.261245e-01 -1.331579e-01 -9.119828e-02 -4.596233e-02 -1.066495e-01 2.296458e-02 2.351397e-01 9.211859e-02 -1.121547e-01 1.373109e-01 1.299903e-01 3.953206e-03
<VARIANCE> 39
 4.282599e+01 5.855426e+01 1.218317e+02 1.252306e+02 2.034493e+02 7.866627e+01 8.194076e+01 6.179169e+01 4.171018e+01 7.868824e+01 3.876234e+01 5.459800e+01 7.417064e+01 1.401281e+00 2.503290e+00 3.237784e+00 2.831177e+00 3.224312e+00 4.053986e+00 4.241996e+00 2.850139e+00 3.147978e+00 3.272878e+00 2.479958e+00 2.981822e+00 6.118239e-01 1.326272e-01 4.024652e-01 3.876507e-01 3.545520e-01 5.505677e-01 6.096985e-01 7.332947e-01 4.286533e-01 4.627377e-01 6.430160e-01 3.588155e-01 4.319152e-01 8.584729e-02
<GCONST> 1.270872e+02
<STATE> 4
<MEAN> 39
 -6.807040e+00 -3.081733e+00 3.019095e+00 3.518859e+00 -6.530575e+00 5.982426e-01 -2.922783e+00 -3.459130e+00 -5.614765e-02 -2.851025e+00 -3.423037e+00 4.050178e-01 4.636523e+01 -2.876689e-01 -3.011179e-01 -8.751570e-01 5.195507e-02 3.233004e-01 4.973337e-01 4.989169e-01 6.135859e-01 3.393490e-01 -2.162559e-02 3.895873e-01 2.413847e-01 -4.322556e-01 4.955569e-02 2.821096e-02 6.641403e-02 4.677095e-04 -1.137259e-02 -1.622361e-01 -6.023249e-02 -4.624094e-03 -7.579320e-02 -8.806147e-03 9.805925e-02 -3.916016e-02 8.807490e-02
<VARIANCE> 39
 5.612985e+01 1.062899e+02 3.839385e+01 1.056319e+02 1.176913e+02 8.081924e+01 6.785264e+01 6.582279e+01 4.034970e+01 4.860181e+01 5.440014e+01 4.340563e+01 1.214607e+02 9.634390e-01 1.499538e+00 1.874516e+00 2.650853e+00 2.169567e+00 2.298168e+00 2.897595e+00 2.122583e+00 2.659738e+00 2.735170e+00 2.582816e+00 1.996179e+00 3.914391e-01 1.038374e-01 1.888461e-01 2.541613e-01 3.404278e-01 3.438780e-01 4.065095e-01 3.597312e-01 3.651517e-01 4.223438e-01 5.867041e-01 5.113990e-01 3.776688e-01 7.799572e-02
<GCONST> 1.185050e+02
<TRANSP> 5
 0.000000e+00 1.000000e+00 0.000000e+00 0.000000e+00 0.000000e+00
 0.000000e+00 7.482939e-01 2.517062e-01 0.000000e+00 0.000000e+00
 0.000000e+00 0.000000e+00 6.777793e-01 3.222207e-01 0.000000e+00
 0.000000e+00 0.000000e+00 0.000000e+00 6.986835e-01 3.013165e-01
 0.000000e+00 0.000000e+00 0.000000e+00 0.000000e+00 0.000000e+00
<ENDHMM>
~h "ng"
<BEGINHMM>
<NUMSTATES> 5
<STATE> 2
<MEAN> 39
 -5.047160e+00 -7.455274e+00 4.331512e+00 5.765358e+00 7.201982e+00 -1.091834e+01 6.545938e+00 -1.015583e+01 -3.500595e+00 9.064735e+00 -3.732956e-02 -9.740343e+00 6.965307e+01 9.254506e-01 2.530362e-01 -4.823214e-01 6.783912e-01 3.959876e-02 2.622303e-01 -4.528475e-01 -3.509283e-02 -7.547075e-01 -1.417912e-01 -5.296963e-01 1.204837e-02 -5.772636e-01 2.871990e-01 2.703253e-01 -4.650277e-02 2.884350e-01 -1.447185e-01 1.175019e-01 -2.245499e-01 2.280336e-01 6.863341e-02 -3.313450e-01 -6.678912e-02 2.380837e-01 -2.532768e-01
<VARIANCE> 39
 6.119703e+01 4.505738e+01 2.553967e+01 3.279844e+01 3.327257e+01 4.746207e+01 4.771273e+01 3.643598e+01 8.082249e+01 8.658816e+01 3.586731e+01 2.333835e+01 2.222041e+01 5.279911e+00 3.122315e+00 1.621798e+00 2.200049e+00 2.496837e+00 6.612374e+00 4.872976e+00 6.923706e+00 9.585474e+00 1.306285e+01 1.581434e+00 2.479426e+00 2.179896e+00 1.572256e+00 5.282937e-01 2.841287e-01 3.586231e-01 5.205790e-01 1.109863e+00 1.008918e+00 1.050832e+00 1.786261e+00 1.790781e+00 3.658163e-01 3.916125e-01 5.605092e-01
<GCONST> 1.328937e+02
<STATE> 3
<MEAN> 39
 -5.225904e+00 4.659873e+00 8.068173e+00 1.577749e+01 -1.972842e+00 -4.752675e+00 1.812503e+00 -6.206647e+00 -5.292192e-01 -3.013328e+00 -3.715845e+00 -1.591296e+00 6.085624e+01 -2.775724e-01 -6.746210e-03 2.805636e-02 3.070685e-02 1.016604e-01 3.273549e-01 3.238019e-01 1.854490e-01 1.943052e-02 -3.168185e-02 1.061536e-01 1.206709e-01 -2.053341e-01 -4.678220e-02 -1.171746e-01 -7.353440e-02 -7.119851e-02 -1.296158e-02 -8.276864e-03 2.085858e-02 1.222525e-02 2.751917e-02 7.730141e-02 8.632796e-02 3.463539e-02 -1.008047e-03
<VARIANCE> 39
 2.271469e+01 6.296606e+01 2.475563e+01 1.661112e+01 3.922815e+01 3.931768e+01 3.751472e+01 1.961273e+01 2.495805e+01 2.802297e+01 1.875175e+01 2.328167e+01 8.168195e+00 1.452504e+00 5.742562e+00 2.700820e+00 1.625796e+00 1.925929e+00 3.492803e+00 3.126637e+00 1.946367e+00 2.482567e+00 2.374475e+00 1.878217e+00 1.560060e+00 8.314893e-01 2.035460e-01 8.759643e-01 5.253229e-01 3.502280e-01 3.728679e-01 5.846164e-01 6.282763e-01 3.773446e-01 5.093784e-01 4.999073e-01 3.868882e-01 2.971930e-01 1.724762e-01
<GCONST> 1.119424e+02
<STATE> 4
<MEAN> 39
 -9.887308e+00 1.666722e+00 2.000331e+00 1.052396e+01 2.366948e+00 3.308692e+00 8.638281e+00 -1.918509e-01 3.233806e+00 -1.744293e-01 1.729512e+00 -1.367770e-01 5.566487e+01 -5.673548e-02 -9.928474e-02 -1.150691e-01 -1.556188e-01 -1.199428e-01 -3.041031e-02 -1.364369e-02 1.497712e-03 2.772424e-02 -1.157975e-02 2.019142e-02 5.297741e-02 -5.155863e-02 1.798321e-02 1.444613e-02 2.096943e-02 2.853421e-02 1.077841e-02 -1.029929e-02 -1.822961e-02 -2.376966e-02 -2.781121e-02 -8.672065e-03 -3.267919e-02 -2.610899e-02 1.435815e-02
<VARIANCE> 39
 2.461715e+01 2.501615e+01 1.046861e+01 1.820644e+01 4.432760e+01 3.163446e+01 2.153629e+01 2.260374e+01 2.307089e+01 3.231662e+01 1.149451e+01 2.636465e+01 4.625814e+00 2.256145e-01 6.463033e-01 6.295168e-01 9.406132e-01 1.103728e+00 1.352645e+00 1.375132e+00 1.202547e+00 1.267912e+00 1.147158e+00 8.854509e-01 9.183920e-01 1.022050e-01 3.211454e-02 9.837472e-02 1.049027e-01 1.731841e-01 2.223462e-01 2.945227e-01 2.813059e-01 2.062682e-01 2.049808e-01 2.153353e-01 1.520920e-01 1.680409e-01 1.818277e-02
<GCONST> 8.085232e+01
<TRANSP> 5
 0.000000e+00 1.000000e+00 0.000000e+00 0.000000e+00 0.000000e+00
 0.000000e+00 8.297407e-01 1.702593e-01 0.000000e+00 0.000000e+00
 0.000000e+00 0.000000e+00 9.543187e-01 4.568126e-02 0.000000e+00
 0.000000e+00 0.000000e+00 0.000000e+00 9.723656e-01 2.763441e-02
 0.000000e+00 0.000000e+00 0.000000e+00 0.000000e+00 0.000000e+00
<ENDHMM>
~h "ow"
<BEGINHMM>
<NUMSTATES> 5
<STATE> 2
<MEAN> 39
 -5.050120e+00 1.379412e-02 -6.221984e+00 -1.012759e+00 1.424235e+00 -1.893612e+00 2.566765e+00 -2.940432e+00 -3.879377e+00 -2.064202e+00 -4.323054e-01 -3.689073e+00 6.079190e+01 1.296324e+00 -6.187763e-01 -4.652690e-01 -1.300925e+00 -3.727220e-01 -1.178831e+00 -4.242249e-01 -4.424908e-01 -7.779743e-01 -2.755224e-02 -4.077341e-01 -5.025801e-01 2.194148e+00 1.790887e-01 1.015500e-01 7.818253e-02 2.556538e-01 -2.328582e-02 -5.701906e-02 -2.523072e-01 8.623550e-02 1.814833e-01 -1.048674e-01 -1.618448e-02 -2.186416e-02 -1.331226e-01
<VARIANCE> 39
 9.583475e+01 8.839407e+01 6.321713e+01 1.067276e+02 1.884991e+02 1.359782e+02 1.292290e+02 1.041964e+02 1.121717e+02 7.068805e+01 6.557853e+01 6.422397e+01 2.621660e+02 7.582534e+00 3.533442e+00 3.634169e+00 9.203179e+00 7.322454e+00 9.721272e+00 7.744063e+00 7.494121e+00 9.069798e+00 5.773555e+00 6.894584e+00 4.383028e+00 7.582642e+00 1.099714e+00 5.581169e-01 6.442006e-01 1.494353e+00 1.168412e+00 1.409984e+00 1.233723e+00 1.215928e+00 1.258582e+00 9.156469e-01 1.208635e+00 7.921956e-01 1.397686e+00
<GCONST> 1.574196e+02
<STATE> 3
<MEAN> 39
 3.996846e+00 3.820462e+00 -7.184797e+00 -2.801616e+00 -3.300699e+00 -7.374135e+00 3.270258e+00 -5.905687e+00 -7.859349e+00 -7.790413e+00 1.335928e-01 -5.455400e+00 6.755989e+01 -2.187356e-02 2.130512e-01 6.970699e-03 4.594676e-01 6.764194e-02 2.474348e-01 -2.080132e-01 3.729103e-02 4.223292e-02 -5.298698e-01 3.066412e-02 4.130931e-01 -4.301728e-01 -2.187022e-01 9.081953e-02 1.067558e-01 1.334335e-01 9.180095e-02 2.508987e-01 5.312299e-02 -1.730956e-02 1.393247e-01 1.032223e-01 3.730546e-02 3.149624e-02 -2.262205e-01
<VARIANCE> 39
 3.883627e+01 5.269626e+01 4.893872e+01 1.245167e+02 9.328101e+01 1.894558e+02 1.072279e+02 1.080030e+02 9.256469e+01 7.394186e+01 1.346423e+02 1.005100e+02 1.046845e+02 8.919489e-01 1.189228e+00 1.706709e+00 2.468292e+00 2.629299e+00 4.227740e+00 2.915700e+00 3.818413e+00 3.624583e+00 2.477079e+00 3.485559e+00 2.613622e+00 8.692253e-01 1.314732e-01 1.853419e-01 2.349092e-01 4.361081e-01 5.228365e-01 6.255529e-01 5.144662e-01 6.859204e-01 6.473250e-01 4.964584e-01 5.318031e-01 4.930545e-01 1.200065e-01
<GCONST> 1.279813e+02
<STATE> 4
<MEAN> 39
 8.363053e-01 2.007418e+00 -5.753007e+00 -6.077931e+00 -9.225905e+00 8.738311e-02 -4.705077e+00 -1.905610e+00 -2.081779e+00 -3.376384e+00 -1.991711e+00 -8.321013e-02 5.081042e+01 -5.074283e-01 1.811300e-01 2.062463e-01 5.084153e-01 1.283670e-01 2.719455e-01 1.549555e-01 8.482281e-02 6.787386e-02 4.449067e-02 1.209651e-01 7.920347e-02 -6.994084e-01 -3.973258e-02 -5.437166e-02 -1.330514e-02 8.513204e-03 5.119927e-02 -1.256678e-02 2.105685e-02 -2.140091e-02 1.586092e-02 5.220362e-02 3.050620e-02 -6.202928e-03 8.361389e-03
<VARIANCE> 39
 6.290960e+01 1.097655e+02 5.430697e+01 9.669075e+01 1.405408e+02 1.127477e+02 8.668032e+01 6.129697e+01 5.732603e+01 7.178558e+01 4.283055e+01 4.617611e+01 1.453159e+02 8.140081e-01 1.412113e+00 1.232528e+00 1.783922e+00 2.225646e+00 2.435890e+00 2.149402e+00 2.041932e+00 2.132851e+00 1.995309e+00 1.890558e+00 1.605182e+00 4.296663e-01 6.492531e-02 1.642050e-01 1.796432e-01 2.393581e-01 3.034171e-01 3.418402e-01 3.457495e-01 3.276975e-01 3.132621e-01 3.514950e-01 3.353097e-01 2.655250e-01 4.008745e-02
<GCONST> 1.140601e+02
<TRANSP> 5
 0.000000e+00 1.000000e+00 0.000000e+00 0.000000e+00 0.000000e+00
 0.000000e+00 7.550763e-01 2.449236e-01 0.000000e+00 0.000000e+00
 0.000000e+00 0.000000e+00 7.577655e-01 2.422346e-01 0.000000e+00
 0.000000e+00 0.000000e+00 0.000000e+00 8.834196e-01 1.165804e-01
 0.000000e+00 0.000000e+00 0.000000e+00 0.000000e+00 0.000000e+00
<ENDHMM>
~h "sh"
<BEGINHMM>
<NUMSTATES> 5
<STATE> 2
<MEAN> 39
 -7.770499e+00 -2.527965e+00 9.317740e+00 1.018567e+01 -3.262529e+00 -1.091703e+01 -8.277989e-02 -2.190548e+00 2.914640e+00 -5.101056e+00 -2.131979e+00 1.047770e+00 6.533072e+01 -1.962681e+00 -2.622755e+00 7.123421e-01 6.061585e-01 1.053122e+00 1.815506e-01 5.958858e-01 2.082957e-01 7.346609e-01 3.326113e-01 2.589557e-01 7.177409e-01 2.139250e-01 -7.806293e-03 1.054763e-01 -1.267393e-01 -5.371545e-02 1.273342e-01 -1.388270e-01 -1.491429e-01 -1.423526e-01 -1.087179e-01 -2.270760e-01 -1.863330e-01 4.706771e-02 -1.246370e-02
<VARIANCE> 39
