~o
<STREAMINFO> 1 39
<VECSIZE> 39<NULLD><MFCC_D_A_0><DIAGC>
~h "b"
<BEGINHMM>
<NUMSTATES> 5
<STATE> 2
<MEAN> 39
 3.264432e+00 7.744830e+00 -5.707867e+00 2.617385e+00 1.019650e+01 -5.046225e+00 -1.798070e-01 -5.678764e+00 -1.291343e+01 -5.709953e+00 -2.212617e+00 -9.274400e-01 6.831649e+01 -2.020323e+00 -8.462830e-02 6.320290e-01 5.984436e-01 5.318654e-01 6.813058e-01 1.957853e+00 7.478456e-02 -4.188106e-03 2.037512e-02 2.751075e-01 7.189739e-01 -1.242819e+00 -2.055491e-01 -2.914729e-01 -1.402619e-01 -4.422992e-01 -7.067292e-01 -1.021658e-02 3.311957e-02 3.335732e-01 7.942944e-01 3.564456e-02 4.454444e-02 3.778249e-02 -3.368710e-01
<VARIANCE> 39
 2.840443e+01 6.771294e+01 1.320851e+02 5.621462e+01 1.021216e+02 9.834543e+00 3.067918e+01 2.278112e+01 1.196596e+01 5.553279e+01 9.916030e-01 3.720784e+01 5.359514e+01 5.730836e-01 3.497589e+00 3.303631e+00 3.950185e+00 2.124096e+00 2.627177e+00 2.057453e+00 5.598640e+00 3.004173e+00 1.733713e+00 2.473937e-01 1.475800e+00 1.697789e+00 2.271824e-01 2.973692e-01 6.020437e-01 2.853077e-01 5.105031e-01 6.052601e-01 5.414209e-01 1.291004e+00 2.301415e-01 4.440096e-01 4.583003e-02 5.398796e-01 1.948698e-01
<GCONST> 1.106966e+02
<STATE> 3
<MEAN> 39
 -2.879896e+00 6.911522e+00 -7.263838e+00 1.587863e+00 3.665127e+00 -1.565089e+00 5.800812e+00 -7.854158e+00 -5.350374e+00 -3.194294e+00 -9.132814e-01 -1.818357e+00 6.067947e+01 -1.042248e+00 -1.374253e+00 -8.661669e-01 -8.213344e-01 -1.066195e+00 -9.218911e-02 -5.844787e-01 -1.756693e+00 9.886556e-01 2.546490e-01 1.271382e+00 -2.472892e-01 -5.608956e-01 3.202339e-01 8.474507e-02 3.936217e-01 -4.476742e-02 4.767088e-01 -6.783791e-01 -3.536406e-01 -2.052598e-01 -6.178157e-01 -7.095550e-02 1.038719e-01 -3.385217e-03 7.399648e-01
<VARIANCE> 39
 3.681333e+01 1.240903e+01 1.127961e+02 9.333627e+01 2.693075e+01 2.629606e+01 8.354179e+00 3.853300e+01 1.920208e+01 2.164525e+01 6.457184e+00 2.991487e+01 2.276663e+01 6.888103e-01 2.328020e+00 2.506848e+00 2.948850e+00 6.047393e+00 7.410967e+00 1.133481e+00 4.263447e+00 2.276884e+00 2.682009e+00 6.922010e-01 1.812374e+00 2.283045e+00 3.540393e-01 5.980421e-01 6.798314e-01 7.602719e-01 9.281290e-01 1.514299e+00 5.653946e-01 7.996420e-01 4.631475e-01 2.965307e-01 2.653773e-01 2.616147e-01 4.557406e-01
<GCONST> 1.164266e+02
<STATE> 4
<MEAN> 39
 -3.404696e+00 7.417609e+00 9.755046e-01 4.531692e+00 7.989838e+00 -5.982770e+00 -1.464023e+00 -9.068330e+00 -9.320790e+00 -8.694377e+00 1.466618e+00 -2.395385e+00 6.472259e+01 -1.580521e-01 -9.434659e-02 6.575527e-01 4.399617e-01 2.908646e-01 -3.456261e-01 5.515712e-02 -1.018201e-03 2.014563e-02 -9.535241e-02 -2.915601e-01 -1.059914e-01 3.878647e-01 5.001350e-02 -9.907969e-02 2.108565e-02 1.735749e-01 2.764402e-02 -3.064363e-02 3.574791e-02 7.574312e-02 4.518280e-02 3.555673e-02 -1.082917e-01 -4.199263e-03 1.088277e-01
<VARIANCE> 39
 3.029946e+01 5.937627e+01 3.911525e+01 7.432146e+01 6.847694e+01 6.389869e+01 2.950901e+01 1.922195e+01 6.940572e+01 2.653367e+01 1.721298e+01 2.223993e+01 4.457629e+01 5.455834e+00 9.129297e+00 2.180234e+00 4.179779e+00 7.561680e+00 1.052776e+01 4.765521e+00 2.822242e+00 7.832215e+00 3.090854e+00 1.868437e+00 1.346948e+00 6.863292e+00 1.067325e+00 1.342443e+00 2.521911e-01 6.711982e-01 1.219376e+00 1.979655e+00 1.209356e+00 5.405055e-01 1.034730e+00 6.887919e-01 3.329338e-01 1.936299e-01 1.103097e+00
<GCONST> 1.343219e+02
<TRANSP> 5
 0.000000e+00 1.000000e+00 0.000000e+00 0.000000e+00 0.000000e+00
 0.000000e+00 6.444898e-01 3.555102e-01 0.000000e+00 0.000000e+00
 0.000000e+00 0.000000e+00 6.661891e-01 3.338110e-01 0.000000e+00
 0.000000e+00 0.000000e+00 0.000000e+00 8.575447e-01 1.424553e-01
 0.000000e+00 0.000000e+00 0.000000e+00 0.000000e+00 0.000000e+00
<ENDHMM>
~h "d"
<BEGINHMM>
<NUMSTATES> 5
<STATE> 2
<MEAN> 39
 -6.734165e+00 7.092242e+00 -2.973072e+00 5.109725e+00 -1.484276e+00 3.968318e+00 9.897924e+00 3.166046e+00 8.008800e+00 -5.765886e+00 -5.279867e+00 -9.316408e+00 5.649742e+01 -1.043265e+00 -9.712389e-01 -2.193925e-01 7.870011e-01 7.898052e-01 -1.344611e-01 -7.887623e-01 -1.126938e-01 7.480890e-01 5.619698e-01 4.320321e-01 5.853983e-01 -6.093072e-01 1.125928e-01 1.977983e-02 -9.794398e-02 -4.838090e-02 -1.489054e-02 -2.492478e-01 -3.051217e-01 -2.638998e-01 -4.660964e-01 -1.952150e-01 1.052685e-01 1.712626e-01 6.556176e-02
<VARIANCE> 39
 1.824876e+01 2.803626e+01 3.462130e+01 2.385134e+01 1.411273e+01 1.878569e+01 2.195914e+01 1.557317e+01 1.827830e+01 1.932848e+01 2.385467e+01 2.269034e+01 3.861135e+00 7.031220e-01 5.434767e-01 6.189694e-01 1.215033e+00 1.654911e+00 1.366984e+00 1.859547e+00 2.277301e+00 3.570558e+00 7.411481e-01 1.989889e+00 9.592469e-01 2.213295e-01 8.667205e-02 1.091938e-01 1.482998e-01 2.771876e-01 2.197195e-01 2.642932e-01 2.846972e-01 2.618313e-01 3.307452e-01 1.361064e-01 3.382516e-01 1.493759e-01 2.241445e-02
<GCONST> 8.750414e+01
<STATE> 3
<MEAN> 39
 -1.325368e+01 3.499679e+00 -4.061296e+00 7.345699e+00 1.994251e+00 3.379821e+00 6.136781e+00 1.676636e+00 6.934713e+00 -6.283828e+00 -7.669835e-01 -6.037926e+00 5.063556e+01 -1.180851e-01 1.861042e-02 3.888742e-02 1.453238e-02 -2.418425e-02 1.103375e-02 3.730818e-02 6.141341e-02 -1.050986e-02 -2.427059e-02 4.158702e-02 5.073865e-02 -1.655774e-01 2.380777e-02 1.218403e-02 1.876507e-03 9.168342e-04 -2.823402e-02 -9.815686e-03 -6.370581e-03 6.707695e-03 5.342291e-04 -8.520917e-05 -1.786185e-02 -2.828449e-02 1.233356e-02
<VARIANCE> 39
 4.106764e+00 4.088655e+00 1.285665e+01 1.464689e+01 1.366531e+01 1.424971e+01 1.342058e+01 1.546463e+01 1.227111e+01 1.294526e+01 1.219488e+01 1.112682e+01 1.167253e+01 1.812867e-01 2.939278e-01 5.702738e-01 8.297359e-01 9.612893e-01 8.877571e-01 9.327190e-01 1.152017e+00 9.711940e-01 7.905521e-01 1.037703e+00 8.180346e-01 6.644003e-02 3.426192e-02 6.010626e-02 9.606550e-02 1.603709e-01 2.227838e-01 1.656104e-01 1.648657e-01 2.244230e-01 2.036055e-01 1.524164e-01 2.106675e-01 1.350357e-01 1.182064e-02
<GCONST> 6.744690e+01
<STATE> 4
<MEAN> 39
 -1.496111e+01 -2.913323e-01 -4.133979e-02 1.045165e+01 -1.566228e+00 4.114539e-01 6.147070e+00 -7.304789e-01 4.423622e+00 -1.761387e+00 7.428838e-02 -5.894530e-02 5.039689e+01 -1.525517e-02 -1.483929e-02 -2.221302e-02 2.757510e-02 1.036040e-02 4.023770e-02 3.113290e-02 2.792777e-02 1.358319e-02 -1.467417e-03 -8.520771e-03 3.769186e-03 -4.723088e-02 1.337789e-02 -1.118817e-02 -3.354901e-03 1.461738e-02 3.119406e-02 1.572195e-02 5.180538e-03 -8.136616e-04 -7.019152e-03 -1.689799e-02 -1.783503e-03 4.137976e-03 1.880404e-02
<VARIANCE> 39
 7.542818e+00 2.775924e+01 5.752269e+00 1.049585e+01 3.950055e+01 3.310799e+01 1.608408e+01 1.612128e+01 1.891166e+01 2.638832e+01 1.472024e+01 4.326323e+01 6.546732e+01 2.059427e-01 7.700918e-01 5.918738e-01 9.667858e-01 8.550208e-01 1.125865e+00 1.532801e+00 1.383537e+00 1.688769e+00 1.167429e+00 1.278642e+00 1.301324e+00 2.713357e-01 4.914084e-02 1.749132e-01 1.224560e-01 2.051170e-01 1.696201e-01 1.999060e-01 3.195745e-01 2.842440e-01 3.622078e-01 2.470903e-01 2.624072e-01 2.477735e-01 5.287078e-02
<GCONST> 8.659437e+01
<TRANSP> 5
 0.000000e+00 1.000000e+00 0.000000e+00 0.000000e+00 0.000000e+00
 0.000000e+00 8.026311e-01 1.973689e-01 0.000000e+00 0.000000e+00
 0.000000e+00 0.000000e+00 9.645399e-01 3.546005e-02 0.000000e+00
 0.000000e+00 0.000000e+00 0.000000e+00 9.726137e-01 2.738632e-02
 0.000000e+00 0.000000e+00 0.000000e+00 0.000000e+00 0.000000e+00
<ENDHMM>
~h "f"
<BEGINHMM>
<NUMSTATES> 5
<STATE> 2
<MEAN> 39
 -1.439388e+01 1.260260e+00 -5.289688e+00 7.986996e+00 4.593028e+00 1.155620e+00 7.599187e+00 -3.286761e+00 2.110145e+00 -3.688912e+00 8.818157e-01 -1.226093e+00 5.945985e+01 -5.904337e-01 -2.181554e-01 -7.503863e-02 -9.248989e-02 2.085183e-01 -9.364598e-02 9.414165e-02 7.473560e-02 2.356035e-01 -1.150631e-02 -1.727941e-03 1.959369e-01 2.352369e-01 1.843483e-01 5.597796e-02 4.438231e-03 -5.394216e-02 -2.768706e-02 -8.694468e-02 -1.103511e-01 -5.956641e-02 -8.935406e-02 -7.314791e-03 -2.192340e-02 -7.954530e-02 6.535956e-03
<VARIANCE> 39
 6.509694e+01 5.617327e+01 4.824575e+01 6.002515e+01 8.968255e+01 8.692584e+01 4.447073e+01 4.903910e+01 5.745897e+01 5.472699e+01 3.676458e+01 4.938731e+01 9.431146e+01 2.251648e+00 2.222485e+00 1.584214e+00 1.725606e+00 2.704960e+00 2.614604e+00 2.888833e+00 2.598235e+00 2.795744e+00 2.286194e+00 2.271578e+00 2.035063e+00 9.598919e-01 3.782634e-01 3.949048e-01 2.900591e-01 3.282756e-01 5.456520e-01 4.957300e-01 5.855924e-01 4.987218e-01 4.845266e-01 4.364885e-01 4.456976e-01 3.943656e-01 1.483787e-01
<GCONST> 1.225472e+02
<STATE> 3
<MEAN> 39
 -1.841844e+01 -4.493580e-01 -4.461772e+00 3.862177e+00 7.579400e+00 -1.276399e+00 4.783189e+00 -5.178680e+00 -1.451853e+00 -2.223500e+00 1.002828e+00 -6.717829e-01 5.595371e+01 2.715415e+00 9.232886e-01 -5.563467e-01 -1.414889e+00 -1.013344e+00 -6.780353e-01 -7.633014e-01 -4.045798e-01 -3.035739e-01 -1.744736e-01 -6.223655e-01 -6.659659e-01 6.704170e-01 1.180176e+00 3.621215e-01 -8.283901e-02 -4.290268e-01 -7.838420e-01 -3.633788e-01 -1.802031e-01 -7.396179e-02 -1.151700e-01 -3.767885e-02 -2.030412e-01 -2.308717e-01 4.903103e-01
<VARIANCE> 39
 5.421967e+01 5.494191e+01 4.730946e+01 6.707214e+01 1.106491e+02 7.366552e+01 7.722080e+01 6.255519e+01 5.769425e+01 1.072279e+02 5.138991e+01 4.293304e+01 1.501831e+02 1.039037e+01 6.341065e+00 3.678276e+00 7.163309e+00 7.645898e+00 5.798496e+00 4.785805e+00 4.628936e+00 4.988134e+00 5.039872e+00 2.500238e+00 3.232225e+00 3.255767e+00 8.213464e-01 8.319737e-01 5.993498e-01 1.170042e+00 1.256416e+00 1.190116e+00 9.679573e-01 8.799605e-01 9.681283e-01 9.911435e-01 5.631840e-01 7.157670e-01 5.073216e-01
<GCONST> 1.453900e+02
<STATE> 4
<MEAN> 39
 -4.110144e-01 -2.995273e+00 -2.569532e+00 -5.554101e+00 -9.104303e+00 -8.236892e-01 -2.377729e+00 -5.389291e+00 -1.384602e+00 -5.845549e+00 -8.397537e-01 -2.415154e+00 5.562360e+01 4.059391e+00 7.934425e-01 -6.845412e-01 -2.436593e+00 -2.156271e+00 -1.026879e+00 -6.664318e-01 -4.126578e-01 -4.616318e-01 -4.554656e-01 -2.776688e-01 -8.432483e-01 2.373741e+00 -7.277732e-01 -5.240074e-01 -4.208966e-02 2.788869e-01 2.557067e-01 3.813929e-02 1.490309e-01 1.803686e-01 1.683256e-01 1.769845e-01 1.984924e-01 8.763906e-02 -3.286082e-02
<VARIANCE> 39
 5.197210e+01 2.533302e+02 8.154238e+01 1.379332e+02 1.518596e+02 8.499978e+01 6.813022e+01 6.662279e+01 4.735658e+01 3.387326e+01 3.650268e+01 3.023171e+01 1.320646e+02 1.057471e+01 6.922939e+00 3.846805e+00 9.699573e+00 7.479350e+00 8.239047e+00 5.177372e+00 4.777806e+00 4.250679e+00 4.270685e+00 4.431332e+00 3.879445e+00 5.366466e+00 1.022071e+00 7.169359e-01 4.238585e-01 1.070674e+00 6.265071e-01 6.156759e-01 4.556972e-01 5.725803e-01 4.784413e-01 5.751855e-01 4.663252e-01 4.376929e-01 5.560368e-01
<GCONST> 1.434484e+02
<TRANSP> 5
 0.000000e+00 1.000000e+00 0.000000e+00 0.000000e+00 0.000000e+00
 0.000000e+00 8.964428e-01 1.035572e-01 0.000000e+00 0.000000e+00
 0.000000e+00 0.000000e+00 6.910831e-01 3.089169e-01 0.000000e+00
 0.000000e+00 0.000000e+00 0.000000e+00 5.767698e-01 4.232302e-01
 0.000000e+00 0.000000e+00 0.000000e+00 0.000000e+00 0.000000e+00
<ENDHMM>
~h "g"
<BEGINHMM>
<NUMSTATES> 5
<STATE> 2
<MEAN> 39
 -6.924690e+00 5.285813e+00 -3.078878e+00 9.812583e+00 2.083512e+00 1.936975e+00 5.761765e+00 -2.170178e+00 5.050805e+00 -5.938180e+00 1.624883e-01 -4.046821e+00 6.219308e+01 3.431826e-01 4.928788e-01 2.491626e-01 2.282433e-01 4.471306e-01 -2.019591e-02 -1.951289e-01 -5.713418e-02 -1.080188e-01 -1.169222e-01 -7.643577e-02 -1.762811e-01 1.137196e-01 -7.416928e-03 2.050014e-02 4.770452e-02 -4.796145e-02 -4.387526e-02 -8.102913e-06 -5.682587e-03 5.018766e-02 -1.374492e-03 5.877595e-02 1.429385e-01 4.213052e-02 -3.284502e-02
<VARIANCE> 39
 4.481835e+01 5.542629e+01 6.198883e+01 2.739372e+01 5.200290e+01 3.144829e+01 3.285492e+01 4.127332e+01 4.527707e+01 3.363206e+01 1.683544e+01 4.512466e+01 3.351411e+01 1.398211e+00 2.778480e+00 2.594870e+00 1.949935e+00 1.764350e+00 1.413008e+00 2.746572e+00 2.246480e+00 2.997286e+00 1.765753e+00 1.794090e+00 2.082059e+00 5.536340e-01 2.370147e-01 3.734308e-01 4.154160e-01 3.775580e-01 3.011599e-01 2.355671e-01 5.666552e-01 4.493694e-01 5.710697e-01 3.014517e-01 2.776981e-01 4.284314e-01 9.231126e-02
<GCONST> 1.125600e+02
<STATE> 3
<MEAN> 39
 -6.113770e+00 8.681876e+00 -1.147441e+00 1.127532e+01 1.581498e+00 3.792992e+00 6.987470e+00 -2.650253e-02 6.152706e+00 -4.587764e+00 3.527981e+00 -4.495210e+00 5.950665e+01 -2.549097e-02 -1.216224e-02 9.077342e-02 -1.005531e-01 -1.082438e-01 -3.494073e-02 -1.468693e-02 2.926644e-01 5.188739e-02 1.781810e-01 3.407850e-02 1.489290e-01 -8.957886e-02 -4.145908e-02 -1.335043e-01 -1.388982e-01 -1.117564e-01 3.351907e-03 -2.862611e-02 9.605548e-03 -3.157615e-02 -1.269092e-01 -2.797211e-02 -1.331028e-01 3.488209e-02 8.119842e-02
<VARIANCE> 39
 9.142857e+01 4.409526e+01 6.421683e+01 3.031998e+01 4.163636e+01 2.799326e+01 2.824261e+01 3.100933e+01 3.507481e+01 4.155578e+01 2.344603e+01 3.680303e+01 2.667170e+01 1.881848e-01 3.400026e-01 5.573553e-01 7.599860e-01 1.147395e+00 1.232563e+00 1.216362e+00 1.107278e+00 1.518264e+00 1.578918e+00 1.598464e+00 1.108283e+00 8.026572e-02 9.674400e-02 1.294574e-01 1.601349e-01 2.086004e-01 2.583056e-01 2.064598e-01 2.267514e-01 2.638339e-01 4.866580e-01 3.900982e-01 3.007406e-01 2.436114e-01 4.885963e-02
<GCONST> 9.385680e+01
<STATE> 4
<MEAN> 39
 -3.241966e+00 6.665326e+00 -4.013305e+00 7.095807e+00 2.028094e+00 -1.054626e+00 4.092608e+00 1.233867e+00 2.941679e+00 -9.001036e+00 1.858163e+00 -6.861858e+00 6.548354e+01 -5.938211e-02 -3.351460e-01 -2.613579e-01 -4.537734e-01 -2.188917e-01 -1.431916e-01 -4.981955e-03 -3.307132e-02 -2.113889e-01 -5.565852e-03 -1.317360e-01 1.008953e-01 3.718945e-01 -2.089733e-02 -1.812028e-01 -2.032521e-01 -3.502121e-01 -8.528773e-03 -7.588506e-02 3.036223e-01 -2.801865e-01 -3.881668e-01 -4.422079e-02 -3.898474e-02 -4.331137e-02 4.139339e-01
<VARIANCE> 39
 7.029040e+01 3.830043e+01 5.452855e+01 4.170696e+01 3.918862e+01 8.495684e+01 3.078525e+01 3.420464e+01 3.099492e+01 8.538599e+01 2.227298e+01 4.077340e+01 6.955283e+01 2.601144e+00 1.803235e+00 2.639360e+00 2.505521e+00 2.301298e+00 3.706604e+00 3.253787e+00 2.456120e+00 2.851812e+00 4.515023e+00 2.528481e+00 2.142678e+00 1.311530e+00 6.443235e-01 3.089482e-01 4.288661e-01 5.436359e-01 5.557071e-01 8.282459e-01 8.104529e-01 6.908394e-01 7.811239e-01 9.860405e-01 6.622081e-01 4.321337e-01 4.914975e-01
<GCONST> 1.268332e+02
<TRANSP> 5
 0.000000e+00 1.000000e+00 0.000000e+00 0.000000e+00 0.000000e+00
 0.000000e+00 8.251653e-01 1.748347e-01 0.000000e+00 0.000000e+00
 0.000000e+00 0.000000e+00 7.931992e-01 2.068007e-01 0.000000e+00
 0.000000e+00 0.000000e+00 0.000000e+00 7.414178e-01 2.585822e-01
 0.000000e+00 0.000000e+00 0.000000e+00 0.000000e+00 0.000000e+00
<ENDHMM>
~h "k"
<BEGINHMM>
<NUMSTATES> 5
<STATE> 2
<MEAN> 39
 -1.277017e+01 1.389756e+00 2.147618e+00 3.101417e+00 -5.512138e-03 1.210910e+00 2.643219e+00 -4.023082e+00 8.106275e-02 -4.474937e+00 -6.388311e-01 -2.106981e+00 5.546155e+01 -6.693774e-01 4.716293e-01 3.177785e-01 -1.256371e-02 -2.069560e-01 -2.104572e-02 1.240865e-01 5.437182e-01 -3.471480e-01 -2.161643e-02 1.351496e-01 4.859934e-02 -6.318384e-01 7.646942e-02 -2.499189e-02 3.511306e-02 4.314325e-02 -5.904549e-02 -2.467449e-01 -1.228842e-01 -2.425702e-01 5.281902e-02 2.993617e-01 1.728223e-01 2.772817e-02 4.548869e-02
<VARIANCE> 39
 1.074802e+02 6.674022e+01 1.150888e+02 7.284509e+01 8.284955e+01 1.145863e+02 1.108846e+02 8.182957e+01 4.334689e+01 5.610315e+01 4.628348e+01 4.348617e+01 1.350337e+02 4.533599e-01 1.551467e+00 3.018261e+00 1.710601e+00 2.727153e+00 1.711419e+00 2.022636e+00 2.282472e+00 1.507647e+00 2.345430e+00 2.120205e+00 1.586733e+00 5.202602e-01 1.256373e-01 2.429117e-01 4.118534e-01 3.010787e-01 4.435286e-01 4.484770e-01 5.795616e-01 5.298724e-01 4.160590e-01 3.877498e-01 4.198109e-01 2.316734e-01 1.105742e-01
<GCONST> 1.196236e+02
<STATE> 3
<MEAN> 39
 -1.389653e+01 -1.186438e-01 9.604756e-01 2.202701e+00 -2.423457e+00 -2.077565e+00 4.150974e-01 -4.685275e+00 4.828184e-01 -3.270226e+00 -6.813261e-01 -9.131598e-01 5.300827e+01 -5.146573e-01 3.022115e-01 6.608281e-02 2.344826e-01 6.079121e-03 -1.004536e-01 -3.333143e-02 2.461162e-01 2.172470e-01 5.106372e-01 2.092274e-01 2.163348e-01 -5.842024e-01 1.476773e-01 -9.221554e-02 -2.878694e-02 1.178687e-01 1.000976e-01 -7.564540e-02 6.779882e-02 -2.375850e-01 5.821965e-02 1.118524e-01 3.827531e-02 -2.258800e-02 1.329205e-01
<VARIANCE> 39
 9.779697e+01 5.704475e+01 1.075419e+02 5.558573e+01 5.449606e+01 1.128639e+02 9.650262e+01 6.128755e+01 4.126236e+01 4.755288e+01 3.977853e+01 3.397403e+01 1.605074e+02 3.760717e-01 1.124746e+00 2.151465e+00 1.602308e+00 1.986888e+00 1.671170e+00 2.864804e+00 2.404951e+00 2.521951e+00 1.956236e+00 2.197863e+00 1.242125e+00 4.182631e-01 6.585030e-02 1.362799e-01 2.346972e-01 1.913404e-01 2.654873e-01 2.729387e-01 2.510696e-01 4.605018e-01 2.777628e-01 3.062623e-01 2.583390e-01 1.924242e-01 4.509747e-02
<GCONST> 1.103508e+02
<STATE> 4
<MEAN> 39
 -2.404545e+00 -3.094595e-02 -1.825601e+00 5.040338e+00 3.408894e+00 5.795091e+00 5.037727e+00 5.830605e-01 2.539992e+00 -4.820734e+00 6.440602e-01 -2.870171e+00 5.705453e+01 -3.751948e-02 3.918245e-02 1.507492e-02 8.186401e-02 7.228467e-02 1.516675e-02 3.829935e-02 -4.510708e-02 3.572407e-02 6.083322e-02 1.251062e-02 2.552814e-02 -4.875030e-02 1.798827e-02 -3.383405e-02 -2.306471e-02 -1.337204e-03 2.865969e-03 -1.171161e-02 1.618410e-02 -9.886852e-03 -3.017694e-03 -2.623922e-02 -1.153633e-02 -1.043371e-03 1.915941e-02
<VARIANCE> 39
 5.848161e+01 5.522316e+01 3.100713e+01 2.649437e+01 5.143644e+01 3.641636e+01 3.788475e+01 2.939921e+01 2.348033e+01 3.339462e+01 2.426868e+01 2.849500e+01 9.672504e+01 2.747713e-01 5.379885e-01 7.535981e-01 1.086121e+00 1.154301e+00 1.431594e+00 1.586941e+00 1.762636e+00 1.980491e+00 1.890174e+00 1.859634e+00 1.252590e+00 1.076131e-01 5.339227e-02 1.021322e-01 1.499237e-01 1.792817e-01 2.254916e-01 3.006194e-01 2.977860e-01 3.237753e-01 3.961910e-01 3.902294e-01 4.000487e-01 2.435222e-01 2.441669e-02
<GCONST> 9.638339e+01
<TRANSP> 5
 0.000000e+00 1.000000e+00 0.000000e+00 0.000000e+00 0.000000e+00
 0.000000e+00 5.291866e-06 9.999947e-01 0.000000e+00 0.000000e+00
 0.000000e+00 0.000000e+00 3.107336e-01 6.892664e-01 0.000000e+00
 0.000000e+00 0.000000e+00 0.000000e+00 8.650382e-01 1.349619e-01
 0.000000e+00 0.000000e+00 0.000000e+00 0.000000e+00 0.000000e+00
<ENDHMM>
~h "l"
<BEGINHMM>
<NUMSTATES> 5
<STATE> 2
<MEAN> 39
 -4.820226e+00 5.254628e+00 3.146174e+00 7.697550e+00 2.186737e+00 2.442369e+00 6.342726e+00 -1.081949e-01 3.427253e+00 -4.916423e+00 -1.421379e+00 -4.760345e+00 5.762659e+01 -3.305841e-01 -8.167832e-02 5.134301e-02 1.321341e-02 5.127704e-02 2.733414e-01 1.133898e-01 2.463588e-01 3.030627e-01 1.359681e-01 6.814319e-02 -6.359201e-02 -2.958398e-01 -1.414842e-02 -4.650518e-02 7.686438e-03 4.224075e-02 1.299110e-02 -4.543245e-02 -6.976501e-02 -8.641096e-02 -5.911263e-02 -3.984302e-02 1.668477e-03 1.464744e-02 8.079572e-03
<VARIANCE> 39
 2.419535e+01 2.887323e+01 2.957117e+01 4.092296e+01 5.603371e+01 3.152937e+01 2.094705e+01 3.670326e+01 2.544301e+01 2.644633e+01 1.743247e+01 2.955470e+01 2.151497e+01 5.256855e-01 9.199293e-01 1.520373e+00 1.321526e+00 1.888917e+00 1.482140e+00 1.838385e+00 1.736926e+00 1.953321e+00 1.562816e+00 1.196063e+00 1.158888e+00 1.875026e-01 6.734119e-02 1.439698e-01 2.233095e-01 2.581983e-01 3.355958e-01 2.881809e-01 3.520343e-01 3.393898e-01 3.396931e-01 2.617194e-01 1.819959e-01 1.918575e-01 2.493611e-02
<GCONST> 9.578527e+01
<STATE> 3
<MEAN> 39
 -1.383924e+01 9.157577e-01 -1.129350e+00 6.594518e+00 -5.445035e+00 -2.613579e+00 5.296054e+00 -3.960159e+00 2.513569e+00 3.883181e-01 -5.778360e-01 2.259147e+00 5.349153e+01 -1.129104e-01 -8.643717e-03 -3.023924e-02 3.093590e-03 2.739217e-02 2.299300e-02 8.131982e-04 3.618137e-03 7.234733e-02 4.252259e-02 5.776880e-02 1.645994e-02 -1.317460e-01 2.054615e-02 1.916555e-02 2.855105e-02 2.594735e-02 1.968303e-02 1.493408e-02 2.224823e-02 9.300584e-03 -1.374919e-02 -1.583439e-02 -4.316753e-02 -3.557993e-02 1.786711e-02
<VARIANCE> 39
 1.086283e+01 2.018100e+01 8.623609e+00 9.358819e+00 1.817496e+01 1.517365e+01 1.674567e+01 1.746273e+01 1.520781e+01 1.736042e+01 1.305119e+01 1.747758e+01 1.242712e+01 2.698550e-01 5.863398e-01 5.290303e-01 6.790077e-01 8.499106e-01 1.117496e+00 1.572240e+00 1.562229e+00 1.370271e+00 1.448362e+00 1.394288e+00 1.250960e+00 2.026059e-01 5.113517e-02 8.847201e-02 8.766221e-02 1.247148e-01 1.707172e-01 2.171502e-01 3.361724e-01 3.148975e-01 2.797863e-01 3.375679e-01 3.046277e-01 2.282462e-01 3.532315e-02
<GCONST> 8.008253e+01
<STATE> 4
<MEAN> 39
 -1.111891e+01 3.787559e+00 7.781461e-01 1.014326e+01 3.939939e+00 4.826169e+00 5.675525e+00 1.113821e-01 4.392467e+00 -6.170165e+00 1.309420e-01 -5.313622e+00 5.109692e+01 -3.257829e-02 -1.494553e-02 -2.198110e-03 3.174953e-02 3.534205e-02 6.479850e-02 3.718757e-02 6.751879e-02 2.625345e-04 1.171666e-02 5.460523e-03 3.596259e-03 -7.494211e-02 1.563281e-03 3.712521e-04 -5.274368e-03 -6.736131e-03 1.126992e-02 -9.026311e-03 3.574721e-03 6.967972e-03 -5.743163e-03 7.079602e-03 -3.383604e-03 -3.403063e-05 8.806922e-03
<VARIANCE> 39
 8.882417e+01 8.362767e+00 1.378005e+01 2.262175e+01 1.265213e+01 1.387708e+01 1.464316e+01 1.979846e+01 1.585621e+01 1.525674e+01 1.626295e+01 1.358511e+01 8.656282e+01 1.114618e-01 2.394825e-01 4.505012e-01 5.354460e-01 8.444709e-01 1.096671e+00 1.256026e+00 1.290726e+00 1.161445e+00 1.179495e+00 1.027423e+00 9.668666e-01 3.963830e-02 1.996046e-02 4.621701e-02 9.087250e-02 1.055927e-01 1.643766e-01 2.188586e-01 2.603881e-01 2.665817e-01 2.560049e-01 2.330516e-01 2.054281e-01 1.921820e-01 8.294459e-03
<GCONST> 7.418523e+01
<TRANSP> 5
 0.000000e+00 1.000000e+00 0.000000e+00 0.000000e+00 0.000000e+00
 0.000000e+00 8.766109e-01 1.233891e-01 0.000000e+00 0.000000e+00
 0.000000e+00 0.000000e+00 9.153933e-01 8.460669e-02 0.000000e+00
 0.000000e+00 0.000000e+00 0.000000e+00 9.520371e-01 4.796291e-02
 0.000000e+00 0.000000e+00 0.000000e+00 0.000000e+00 0.000000e+00
<ENDHMM>
~h "m"
<BEGINHMM>
<NUMSTATES> 5
<STATE> 2
<MEAN> 39
 5.452367e+00 1.251543e+01 6.537511e+00 6.790726e+00 -7.719788e+00 -9.201090e+00 -1.666395e+00 -7.771926e+00 -3.329722e+00 -8.484008e+00 -6.943012e+00 5.936463e-01 6.540842e+01 -4.443926e-03 3.809616e-02 4.155078e-02 5.734153e-02 2.067356e-03 2.743082e-03 4.949836e-03 3.586813e-02 4.232230e-02 6.122355e-03 -1.727769e-02 -1.981320e-02 -1.791827e-02 -2.206811e-02 -2.961035e-02 -1.020204e-02 1.843096e-02 4.876548e-02 1.530634e-02 3.313406e-03 -7.242577e-03 -2.299742e-02 4.555453e-03 6.836973e-03 1.769411e-02 -5.420408e-03
<VARIANCE> 39
 4.046581e+01 2.784322e+01 5.844447e+01 4.121851e+01 3.770316e+01 3.604134e+01 6.794829e+01 2.783571e+01 4.293922e+01 2.321418e+01 2.062124e+01 3.710675e+01 9.064498e+00 1.635562e+00 1.143835e+00 1.989582e+00 1.844407e+00 1.912030e+00 2.064691e+00 3.130133e+00 1.685570e+00 2.633161e+00 1.340547e+00 1.253350e+00 2.119984e+00 2.848028e-01 1.843591e-01 1.702043e-01 1.907768e-01 2.020388e-01 2.897906e-01 2.400115e-01 3.859431e-01 3.039427e-01 4.446458e-01 1.953971e-01 2.101160e-01 3.048362e-01 4.132460e-02
<GCONST> 1.030413e+02
<STATE> 3
<MEAN> 39
 -5.940748e+00 7.446707e+00 7.055895e+00 1.472598e+01 -6.973086e-01 -5.947455e+00 2.151424e+00 -7.221718e+00 -2.032917e+00 -4.376173e+00 -3.115254e+00 -2.545223e+00 5.951508e+01 -2.256010e-01 -3.405295e-01 -1.133206e-01 6.118244e-02 1.156616e-01 4.906824e-02 5.953631e-02 9.407445e-02 -9.914013e-04 -2.411219e-02 -2.045815e-02 8.106240e-02 -6.023933e-02 -1.473779e-02 -1.836922e-02 -3.754111e-02 -1.188445e-01 -7.062593e-02 -1.313093e-02 4.093358e-03 4.153899e-03 1.055096e-03 2.149452e-02 8.967844e-03 1.533413e-02 -5.006700e-03
<VARIANCE> 39
 3.403637e+01 7.553461e+01 3.374192e+01 2.583633e+01 2.905515e+01 8.728593e+01 5.294424e+01 3.064028e+01 2.530956e+01 3.300648e+01 1.656437e+01 2.919525e+01 1.505885e+01 1.661154e+00 3.363595e+00 1.828293e+00 1.864774e+00 1.766449e+00 3.353099e+00 2.748786e+00 2.103456e+00 1.882441e+00 2.367965e+00 1.649750e+00 9.865505e-01 7.454939e-01 1.804105e-01 4.554875e-01 2.799361e-01 2.770168e-01 3.311457e-01 5.006608e-01 4.377953e-01 2.899869e-01 3.257504e-01 4.047112e-01 3.037712e-01 1.547818e-01 9.483295e-02
<GCONST> 1.089636e+02
<STATE> 4
<MEAN> 39
 -1.362849e+01 -2.031675e-01 -1.598750e+00 7.682731e+00 -4.429136e+00 -9.149136e-01 4.586422e+00 -3.690508e+00 3.574542e+00 -1.282051e+00 -1.668110e-01 4.566672e-01 5.303912e+01 -8.935863e-02 -4.387153e-02 -5.215868e-02 -7.345569e-02 -6.013914e-02 -3.633062e-02 2.596054e-02 -1.621433e-03 2.695839e-02 7.864031e-02 1.071533e-01 8.334938e-02 -9.830280e-02 2.936226e-02 4.818901e-03 -6.135019e-04 4.226483e-03 1.647134e-02 -1.808813e-03 8.145626e-03 1.152288e-02 9.166907e-03 -1.214526e-02 -2.334550e-02 -2.222840e-02 1.567663e-02
<VARIANCE> 39
 1.474305e+01 3.103179e+01 1.104938e+01 1.925002e+01 4.778527e+01 3.243226e+01 1.484054e+01 1.601225e+01 1.643990e+01 3.050978e+01 1.427801e+01 3.113500e+01 2.922071e+01 2.139015e-01 7.104161e-01 6.784986e-01 6.134749e-01 8.946927e-01 1.087514e+00 1.558825e+00 1.285196e+00 1.526931e+00 1.524877e+00 1.269472e+00 9.839343e-01 2.196711e-01 4.655826e-02 1.366019e-01 1.330225e-01 1.075001e-01 1.728880e-01 2.226862e-01 3.166667e-01 2.561378e-01 3.193809e-01 3.279242e-01 2.640448e-01 1.857401e-01 4.502603e-02
<GCONST> 8.568176e+01
<TRANSP> 5
 0.000000e+00 1.000000e+00 0.000000e+00 0.000000e+00 0.000000e+00
 0.000000e+00 9.303263e-01 6.967373e-02 0.000000e+00 0.000000e+00
 0.000000e+00 0.000000e+00 9.132923e-01 8.670774e-02 0.000000e+00
 0.000000e+00 0.000000e+00 0.000000e+00 9.329492e-01 6.705079e-02
 0.000000e+00 0.000000e+00 0.000000e+00 0.000000e+00 0.000000e+00
<ENDHMM>
~h "n"
<BEGINHMM>
<NUMSTATES> 5
<STATE> 2
<MEAN> 39
 -3.727614e-01 1.335660e+00 1.320360e+00 4.720701e+00 5.989949e-01 -6.542484e+00 -1.965682e+00 -4.981747e+00 -2.003122e+00 -2.571184e+00 -3.127150e+00 -2.426835e+00 5.883370e+01 1.291733e-01 1.206029e+00 9.077073e-01 5.820801e-01 -2.217994e-01 4.249496e-01 -1.294555e-01 -5.615170e-01 -2.232115e-01 -5.198160e-02 -2.664205e-01 -3.051974e-01 -5.991313e-01 -1.049941e-02 -3.291907e-02 -6.287079e-02 5.069314e-02 -3.840921e-02 2.070163e-01 2.725305e-02 5.584493e-02 4.927918e-02 -3.533185e-02 6.068832e-02 -6.908248e-02 -1.879618e-02
<VARIANCE> 39
 5.052517e+01 9.623637e+01 1.053995e+02 1.178769e+02 1.572887e+02 1.221568e+02 1.270007e+02 7.214919e+01 6.856371e+01 7.052582e+01 4.703549e+01 6.764858e+01 1.012094e+02 1.810029e+00 2.032681e+00 2.508067e+00 3.660700e+00 4.157917e+00 6.011329e+00 4.650281e+00 3.964762e+00 3.887130e+00 3.952960e+00 3.085937e+00 2.516429e+00 1.532056e+00 1.543216e-01 3.253476e-01 4.472686e-01 5.427634e-01 6.184809e-01 8.185322e-01 6.826895e-01 6.966206e-01 6.253459e-01 5.579423e-01 5.335242e-01 4.933467e-01 1.255061e-01
<GCONST> 1.343133e+02
<STATE> 3
<MEAN> 39
 2.118349e+00 9.327959e+00 3.583482e+00 1.058214e+01 -3.406282e-01 -6.451463e+00 -5.381917e+00 -9.405073e+00 -1.754051e+00 -5.402851e+00 -6.384819e+00 -2.739492e+00 6.118168e+01 -3.306561e-01 2.338216e-01 2.144651e-01 1.377669e-01 -2.112091e-01 6.414300e-01 5.475869e-01 3.232878e-01 1.425717e-01 -8.844028e-02 2.447940e-02 -2.279422e-01 -3.503588e-01 -1.445449e-01 -3.028751e-01 -1.002189e-01 -6.228104e-02 -1.138337e-02 -9.894931e-02 1.029803e-01 1.817605e-01 2.398514e-02 6.642064e-02 1.844042e-01 1.162293e-01 5.434622e-02
<VARIANCE> 39
 3.740933e+01 4.295205e+01 3.089182e+01 3.261254e+01 5.666949e+01 5.352195e+01 6.771848e+01 3.330460e+01 4.028254e+01 3.449853e+01 3.607621e+01 4.332423e+01 5.470187e+01 1.043008e+00 1.672298e+00 1.523523e+00 1.695065e+00 1.527836e+00 2.941612e+00 3.465787e+00 2.457322e+00 2.581459e+00 1.945992e+00 1.975182e+00 3.405011e+00 7.373430e-01 1.369032e-01 3.047498e-01 2.366520e-01 2.952103e-01 2.823834e-01 5.453655e-01 5.944686e-01 4.047747e-01 4.856693e-01 3.786649e-01 3.641721e-01 5.906507e-01 1.044926e-01
<GCONST> 1.140492e+02
<STATE> 4
<MEAN> 39
 -4.226466e+00 -6.976087e-01 3.111172e+00 7.202394e+00 -4.981913e+00 -2.013116e-03 -2.083350e+00 -3.493231e+00 -1.385277e-01 -4.665254e+00 -1.953097e+00 -1.044458e+00 4.726117e+01 -7.319435e-01 -5.829732e-01 -2.907016e-01 -4.050920e-02 5.836380e-02 3.809721e-01 4.926613e-01 4.116887e-01 8.222040e-02 1.346435e-01 4.501325e-01 2.611765e-01 -3.685170e-01 -2.968726e-04 -2.425135e-01 -1.012489e-01 -1.941861e-01 -3.228551e-02 -1.744140e-01 -8.936001e-02 -4.193235e-02 1.533602e-03 7.537202e-02 3.922246e-02 7.315602e-02 1.758291e-01
<VARIANCE> 39
 3.287184e+01 1.542973e+02 3.762083e+01 4.601307e+01 9.756245e+01 4.690661e+01 6.537621e+01 4.103809e+01 4.088375e+01 3.704698e+01 3.266548e+01 2.875875e+01 1.398015e+02 1.114969e+00 1.918226e+00 1.845470e+00 2.022113e+00 2.633301e+00 2.893265e+00 2.627333e+00 2.508688e+00 3.121920e+00 2.638497e+00 2.351997e+00 2.033866e+00 6.920474e-01 2.067093e-01 4.205868e-01 3.172041e-01 3.918628e-01 5.828587e-01 6.068825e-01 5.193531e-01 5.810732e-01 5.325231e-01 5.011265e-01 4.563833e-01 3.497387e-01 1.676133e-01
<GCONST> 1.206891e+02
<TRANSP> 5
 0.000000e+00 1.000000e+00 0.000000e+00 0.000000e+00 0.000000e+00
 0.000000e+00 6.174987e-01 3.825013e-01 0.000000e+00 0.000000e+00
 0.000000e+00 0.000000e+00 6.675079e-01 3.324922e-01 0.000000e+00
 0.000000e+00 0.000000e+00 0.000000e+00 6.489171e-01 3.510830e-01
 0.000000e+00 0.000000e+00 0.000000e+00 0.000000e+00 0.000000e+00
<ENDHMM>
~h "r"
<BEGINHMM>
<NUMSTATES> 5
<STATE> 2
<MEAN> 39
 5.430210e+00 -7.777376e-02 -6.681952e+00 2.689435e+00 -8.653612e-01 -6.895540e+00 -5.476957e+00 -6.439223e+00 -5.749484e+00 -3.900407e+00 1.125522e-01 -2.285979e+00 6.243431e+01 -4.736517e-03 3.586843e-01 -4.790029e-01 1.035712e-01 6.380508e-01 2.618952e-01 -5.897251e-02 4.527682e-03 -2.178910e-01 -4.803465e-02 1.656480e-01 9.604860e-02 -3.962200e-01 -1.585444e-01 5.938638e-02 2.483479e-01 -1.477509e-02 -4.917194e-02 -2.687405e-02 -1.406822e-02 4.967673e-02 9.942967e-02 5.268818e-02 -5.037760e-02 1.106070e-02 -3.420032e-02
<VARIANCE> 39
 5.050111e+01 1.018705e+02 8.033304e+01 9.977424e+01 1.081604e+02 8.376935e+01 1.353542e+02 1.012941e+02 9.944787e+01 7.171304e+01 5.473568e+01 5.040457e+01 4.873070e+01 7.993519e-01 1.620630e+00 2.919882e+00 2.665189e+00 3.258460e+00 3.566811e+00 4.741820e+00 4.156671e+00 3.640283e+00 2.870774e+00 2.619434e+00 2.117986e+00 6.231433e-01 9.070536e-02 2.336839e-01 3.406300e-01 3.744051e-01 4.910011e-01 5.611907e-01 8.262435e-01 6.731730e-01 5.127876e-01 4.881468e-01 4.684275e-01 3.914350e-01 7.036021e-02
<GCONST> 1.263383e+02
<STATE> 3
<MEAN> 39
 2.090052e+00 4.528347e+00 -1.404716e+00 1.045802e+01 3.300389e+00 -1.182835e+01 -7.001411e+00 -1.264753e+01 -1.040788e+01 -3.330119e+00 2.299952e-01 -3.654361e+00 6.443845e+01 -1.682992e-01 1.483924e-01 2.442775e-01 -3.038497e-02 -8.967941e-04 -1.572891e-01 8.170091e-02 4.241406e-01 1.792572e-01 3.590888e-03 -1.943469e-01 -6.515288e-02 -1.135019e-01 -4.345517e-02 1.092899e-02 6.858805e-02 -2.597213e-02 -8.361223e-02 7.628727e-02 1.004929e-01 5.090420e-02 7.950309e-02 -6.393827e-02 -7.703306e-02 -1.713257e-02 -2.648023e-02
<VARIANCE> 39
 3.141090e+01 6.087800e+01 7.323470e+01 1.097434e+02 1.037702e+02 9.666382e+01 1.014898e+02 5.229221e+01 5.657166e+01 4.226629e+01 4.820670e+01 5.354527e+01 3.242192e+01 2.675635e-01 5.419790e-01 1.077052e+00 1.570717e+00 1.312261e+00 1.975775e+00 1.665953e+00 1.698762e+00 1.894123e+00 1.480206e+00 1.415031e+00 1.187237e+00 1.669834e-01 3.052173e-02 7.950971e-02 1.395890e-01 1.632482e-01 1.580225e-01 2.437023e-01 2.303756e-01 2.857298e-01 2.735290e-01 2.096583e-01 2.609848e-01 2.099486e-01 1.762543e-02
<GCONST> 9.989580e+01
<STATE> 4
<MEAN> 39
 -7.056217e-03 -4.413356e+00 -4.016661e+00 4.223081e-01 -2.624292e+00 -3.330522e+00 -1.886850e+00 8.787747e-01 -3.558182e-01 -2.906198e+00 -1.100969e+00 -2.011773e+00 5.139743e+01 -4.080530e-01 2.651304e-01 3.151116e-01 1.736897e-01 1.027805e-01 4.031586e-01 2.053761e-01 3.869215e-03 1.865672e-01 -7.628579e-02 -4.733418e-02 3.897457e-02 -4.325342e-01 -2.376675e-02 -1.487372e-02 -1.133363e-02 5.476048e-04 -2.227255e-02 6.815698e-02 2.919719e-02 -3.564527e-02 1.492662e-02 1.206120e-02 3.704989e-02 9.040228e-03 -8.475378e-03
<VARIANCE> 39
 3.232215e+01 1.107499e+02 9.546525e+01 1.174177e+02 1.000242e+02 9.629234e+01 9.468887e+01 8.088110e+01 7.476408e+01 4.677199e+01 3.243072e+01 3.386599e+01 1.076792e+02 4.239033e-01 9.165524e-01 1.220423e+00 1.628814e+00 1.568927e+00 2.295116e+00 2.406549e+00 2.227842e+00 2.353764e+00 1.986533e+00 1.785262e+00 1.534142e+00 3.342347e-01 5.299620e-02 1.319315e-01 1.806844e-01 2.077192e-01 2.618237e-01 3.717234e-01 3.462276e-01 3.457468e-01 3.907093e-01 3.454104e-01 2.888443e-01 3.015445e-01 3.291292e-02
<GCONST> 1.107421e+02
<TRANSP> 5
 0.000000e+00 1.000000e+00 0.000000e+00 0.000000e+00 0.000000e+00
 0.000000e+00 6.817538e-01 3.182462e-01 0.000000e+00 0.000000e+00
 0.000000e+00 0.000000e+00 7.981210e-01 2.018790e-01 0.000000e+00
 0.000000e+00 0.000000e+00 0.000000e+00 8.113323e-01 1.886676e-01
 0.000000e+00 0.000000e+00 0.000000e+00 0.000000e+00 0.000000e+00
<ENDHMM>
~h "s"
<BEGINHMM>
<NUMSTATES> 5
<STATE> 2
<MEAN> 39
 -1.262205e+01 -1.194905e+00 7.882761e-01 1.829808e+00 -2.435802e-02 3.974179e-01 -3.672439e-01 -4.150892e+00 -6.155926e-01 -2.212391e+00 5.600742e-01 -1.076707e+00 5.494897e+01 -1.051462e+00 -7.123413e-01 8.460259e-01 -6.822363e-01 -5.780225e-02 2.506344e-02 5.309352e-01 -3.945073e-01 6.053460e-01 1.030299e-01 3.124447e-01 1.969033e-02 1.086929e+00 -2.405976e-01 -2.699315e-02 6.530007e-02 -1.238785e-01 1.796180e-02 -8.767427e-02 1.458624e-01 1.494699e-02 6.085813e-02 -2.097049e-02 8.591446e-02 2.873040e-02 1.333566e-01
<VARIANCE> 39
 9.706119e+01 6.994789e+01 1.197545e+02 1.125510e+02 1.724133e+02 1.365177e+02 1.651846e+02 8.827513e+01 6.475790e+01 7.818124e+01 4.232708e+01 8.699426e+01 1.944135e+02 6.049880e+00 4.193048e+00 8.476129e+00 6.915351e+00 5.301980e+00 8.052732e+00 5.861701e+00 4.172274e+00 4.498960e+00 4.464603e+00 3.470511e+00 3.246579e+00 3.441927e+00 6.020973e-01 6.344479e-01 1.039421e+00 9.942045e-01 8.317779e-01 1.173984e+00 9.369044e-01 7.033019e-01 7.102038e-01 7.093642e-01 6.641186e-01 6.150520e-01 5.115173e-01
<GCONST> 1.489656e+02
<STATE> 3
<MEAN> 39
 -2.060692e+01 -1.784469e-01 4.995122e+00 3.698313e+00 -4.527484e-01 -8.644236e-01 6.401635e+00 -6.188269e+00 4.350798e+00 -2.357475e+00 3.408106e+00 -2.235970e+00 6.000943e+01 -1.186865e+00 -2.604661e-01 3.671713e-01 -5.625881e-01 -3.986605e-02 -1.714296e-01 4.761197e-01 2.872127e-01 1.514435e-01 -1.398797e-01 2.775045e-01 2.244374e-01 4.470684e-01 4.793373e-01 1.446861e-01 -2.617580e-01 1.166613e-01 6.885489e-03 8.458985e-03 -3.054734e-01 9.808809e-02 -2.594946e-01 -1.362493e-01 -2.194585e-01 -8.418784e-03 -2.335084e-01
<VARIANCE> 39
 7.085960e+01 9.606537e+01 1.814854e+02 1.101845e+02 1.060622e+02 9.399126e+01 8.458112e+01 7.115689e+01 6.441656e+01 4.440531e+01 4.020824e+01 4.543837e+01 1.173673e+02 3.072523e+00 2.936178e+00 2.566412e+00 3.978410e+00 2.764219e+00 3.010157e+00 2.939150e+00 3.136750e+00 2.403445e+00 1.985408e+00 2.428678e+00 1.879852e+00 1.024113e+00 3.608539e-01 3.405536e-01 6.539990e-01 9.041232e-01 7.374635e-01 5.229905e-01 6.787163e-01 7.124958e-01 5.657554e-01 3.975037e-01 3.151676e-01 3.700689e-01 2.081546e-01
<GCONST> 1.310072e+02
<STATE> 4
<MEAN> 39
 -2.350734e+01 -1.699398e+00 4.285549e+00 -1.068561e+00 7.094851e-01 -7.512670e-01 5.445067e+00 -4.920331e+00 3.726025e+00 -1.570518e+00 1.551545e+00 4.960515e-01 5.753407e+01 1.083408e-01 -8.684403e-02 -1.222437e-01 2.290099e-02 -6.797899e-02 1.415476e-02 -9.015997e-02 6.891742e-02 -9.351077e-03 -7.854473e-02 -1.207708e-01 3.874398e-02 -1.412840e-01 2.875097e-01 -1.342387e-02 -5.717519e-02 9.867033e-02 -4.202027e-02 -5.418106e-02 -1.157986e-01 -7.790291e-02 -8.101764e-02 -8.956935e-03 -7.971340e-02 -2.267772e-02 -4.352799e-02
<VARIANCE> 39
 6.144612e+01 8.650157e+01 1.805564e+02 1.095973e+02 8.463597e+01 9.444272e+01 7.288422e+01 5.066062e+01 4.655743e+01 4.485710e+01 4.024083e+01 4.684098e+01 1.213826e+02 1.032079e+00 1.215265e+00 1.608248e+00 1.650453e+00 1.772230e+00 1.974074e+00 2.281673e+00 2.241902e+00 2.069457e+00 1.816166e+00 1.520925e+00 1.393800e+00 7.461880e-01 2.099260e-01 2.377540e-01 2.340129e-01 3.020065e-01 3.258935e-01 3.823928e-01 4.082444e-01 4.346324e-01 4.098746e-01 3.416586e-01 3.152089e-01 2.535918e-01 9.658320e-02
<GCONST> 1.169148e+02
<TRANSP> 5
 0.000000e+00 1.000000e+00 0.000000e+00 0.000000e+00 0.000000e+00
 0.000000e+00 7.238955e-01 2.761045e-01 0.000000e+00 0.000000e+00
 0.000000e+00 0.000000e+00 4.761482e-01 5.238518e-01 0.000000e+00
 0.000000e+00 0.000000e+00 0.000000e+00 8.086061e-01 1.913939e-01
 0.000000e+00 0.000000e+00 0.000000e+00 0.000000e+00 0.000000e+00
<ENDHMM>
~h "t"
<BEGINHMM>
<NUMSTATES> 5
<STATE> 2
<MEAN> 39
 -4.131316e+00 1.556741e+00 2.249139e+00 1.063354e+01 3.757465e+00 -7.649573e+00 -2.552174e+00 -9.747829e+00 -4.617796e+00 -3.351587e+00 6.380453e-02 -4.575160e+00 6.352922e+01 1.329855e+00 7.254884e-01 -7.783999e-01 -1.662040e-01 -5.447494e-02 -6.704063e-01 -5.331563e-01 -4.480323e-01 -9.379954e-01 -3.815005e-01 3.389428e-01 -3.098536e-04 2.505850e-01 -4.872227e-01 -4.034952e-01 -1.361180e-01 -3.456267e-01 -3.140053e-01 1.646467e-01 3.659203e-01 3.423630e-01 2.673591e-01 1.148037e-01 4.759640e-02 1.229642e-01 -1.213755e-01
<VARIANCE> 39
 7.695139e+01 7.271349e+01 5.833212e+01 8.587201e+01 1.222409e+02 9.303629e+01 1.171719e+02 7.050603e+01 8.133170e+01 5.610496e+01 4.528366e+01 7.774809e+01 8.853239e+01 3.075105e+00 5.007179e+00 2.841468e+00 2.643690e+00 2.684954e+00 5.502803e+00 4.663595e+00 3.788510e+00 6.046724e+00 3.799028e+00 2.624116e+00 2.781478e+00 1.363856e+00 4.998001e-01 7.267414e-01 4.701547e-01 3.948425e-01 4.879661e-01 6.326605e-01 7.756619e-01 5.609722e-01 5.476374e-01 5.368738e-01 4.755015e-01 4.225879e-01 2.372537e-01
<GCONST> 1.350358e+02
<STATE> 3
<MEAN> 39
 -4.125354e+00 -4.834258e-01 -8.110356e-01 8.530101e+00 2.612169e+00 -1.032653e+01 5.045522e-01 -8.369369e+00 -4.281279e+00 -8.868673e-01 8.001316e-01 -4.057085e+00 6.487603e+01 2.459499e-01 5.467324e-02 -6.577751e-01 -6.163177e-01 -5.894557e-01 4.283735e-01 3.453199e-01 5.740519e-01 1.208229e-01 -1.215280e-01 -7.221333e-02 2.991274e-01 -2.259739e-01 -2.239795e-01 -8.598563e-02 9.649489e-02 -6.648418e-02 -7.889955e-02 2.657868e-01 1.229022e-01 2.014835e-01 1.938952e-01 -9.022051e-02 -5.060779e-02 4.671507e-02 -1.416481e-01
<VARIANCE> 39
 8.145406e+01 6.596124e+01 6.298907e+01 6.873366e+01 1.064618e+02 1.144883e+02 1.368510e+02 7.117913e+01 8.538503e+01 7.113178e+01 4.555044e+01 6.954624e+01 1.278653e+02 9.830070e-01 1.991259e+00 1.394089e+00 1.986773e+00 2.462812e+00 4.020273e+00 3.385911e+00 3.119804e+00 3.432928e+00 3.323457e+00 2.405185e+00 2.162912e+00 6.726030e-01 2.603192e-01 4.339875e-01 3.359693e-01 3.484966e-01 3.569158e-01 5.025048e-01 4.636376e-01 6.267377e-01 6.116883e-01 5.752232e-01 4.279706e-01 3.619893e-01 1.460425e-01
<GCONST> 1.267697e+02
<STATE> 4
<MEAN> 39
 -3.761416e+00 4.610772e+00 -6.638017e+00 -2.406433e+00 -2.553779e+00 -2.110810e-01 5.838771e+00 -1.675421e+00 -4.606104e+00 -5.641917e+00 -5.848086e-01 4.568446e-02 5.970737e+01 2.268355e-01 7.084659e-02 -7.927912e-02 -3.955562e-02 -1.923050e-01 1.952788e-01 -3.927948e-03 3.344877e-01 1.626931e-01 -2.043426e-01 3.385537e-02 -5.147656e-02 -4.038492e-01 -6.542596e-02 2.696005e-02 1.085467e-01 8.060607e-02 4.671342e-02 -1.125841e-02 -3.654702e-02 -8.128157e-03 3.973867e-02 5.181001e-02 -5.038368e-02 -7.183371e-02 -4.373050e-02
<VARIANCE> 39
 9.105164e+01 1.302818e+02 6.995753e+01 1.216307e+02 7.507538e+01 1.581924e+02 8.858382e+01 6.323901e+01 9.643734e+01 5.768248e+01 4.894833e+01 5.136357e+01 1.788434e+02 1.502123e+00 9.019093e-01 1.134268e+00 1.286205e+00 1.436661e+00 2.539744e+00 2.000218e+00 1.873815e+00 2.046674e+00 2.224266e+00 1.785494e+00 1.752217e+00 1.044751e+00 2.088218e-01 2.041195e-01 1.897516e-01 2.242149e-01 2.360239e-01 4.400552e-01 3.543101e-01 3.392293e-01 4.823766e-01 3.886855e-01 3.152716e-01 2.810239e-01 1.088832e-01
<GCONST> 1.187464e+02
<TRANSP> 5
 0.000000e+00 1.000000e+00 0.000000e+00 0.000000e+00 0.000000e+00
 0.000000e+00 3.239515e-01 6.760485e-01 0.000000e+00 0.000000e+00
 0.000000e+00 0.000000e+00 3.443216e-01 6.556784e-01 0.000000e+00
 0.000000e+00 0.000000e+00 0.000000e+00 6.593956e-01 3.406045e-01
 0.000000e+00 0.000000e+00 0.000000e+00 0.000000e+00 0.000000e+00
<ENDHMM>
~h "v"
<BEGINHMM>
<NUMSTATES> 5
<STATE> 2
<MEAN> 39
 -2.996134e-01 -6.660774e+00 -5.956212e+00 1.431754e+00 2.119344e-01 -1.156392e+01 -3.254401e+00 -3.929812e+00 -2.894933e+00 -2.677336e+00 2.857611e+00 -5.068468e+00 6.939827e+01 -4.060600e-01 3.981105e-01 5.614438e-01 3.144532e-01 7.952744e-02 2.473996e-02 -3.234340e-01 -1.095875e-01 -1.446041e-01 -2.852700e-01 7.420545e-02 5.447376e-02 -4.135663e-01 -2.357773e-02 7.346953e-02 4.047457e-02 -1.893429e-02 2.925196e-02 1.936559e-01 1.284116e-02 1.478797e-03 6.377091e-02 -2.745568e-02 -1.009983e-01 3.568056e-02 -1.113450e-01
<VARIANCE> 39
 1.312044e+02 1.017936e+02 1.020089e+02 8.934779e+01 2.446616e+02 1.056404e+02 1.141328e+02 9.965022e+01 8.933225e+01 6.763739e+01 7.201658e+01 5.511408e+01 9.028460e+01 4.791521e+00 3.046105e+00 2.260704e+00 4.325727e+00 3.675476e+00 7.774603e+00 4.167878e+00 3.621440e+00 4.386745e+00 4.800113e+00 4.401271e+00 2.436782e+00 3.002365e+00 7.302559e-01 4.786200e-01 4.446388e-01 7.291380e-01 6.063420e-01 1.318498e+00 7.703473e-01 6.296777e-01 8.067389e-01 9.088595e-01 7.670494e-01 3.775859e-01 4.464186e-01
<GCONST> 1.433554e+02
<STATE> 3
<MEAN> 39
 -3.040893e+00 -1.780159e+00 -1.484747e+00 1.303184e-01 -2.992870e+00 -4.595434e+00 -6.177868e+00 -9.541511e+00 6.261863e-02 -3.112115e+00 -3.924154e+00 -8.614669e-01 5.735221e+01 -5.781325e-01 1.127962e+00 6.926200e-01 3.664593e-01 -9.405925e-02 9.572374e-01 5.186698e-01 7.542004e-02 2.615373e-01 2.645751e-01 -2.867070e-03 2.926670e-02 -1.459192e+00 -5.434563e-02 1.341299e-02 -1.017028e-01 -4.148551e-02 4.956208e-02 -5.994154e-03 1.006228e-01 1.422668e-01 8.935782e-02 5.975320e-02 1.408013e-01 1.312557e-02 4.140882e-02
<VARIANCE> 39
 1.094094e+02 6.412451e+01 5.336983e+01 1.231640e+02 1.362230e+02 7.486353e+01 1.344650e+02 1.100767e+02 7.292087e+01 1.006372e+02 6.694937e+01 4.158438e+01 8.673273e+01 1.983722e+00 3.461753e+00 2.274439e+00 4.139734e+00 4.809398e+00 5.167777e+00 3.757939e+00 5.330391e+00 3.789194e+00 5.121214e+00 4.429887e+00 2.264453e+00 1.234819e+00 1.734484e-01 4.108612e-01 2.770082e-01 5.052495e-01 5.915385e-01 6.262997e-01 6.779960e-01 7.652673e-01 5.324121e-01 7.483292e-01 7.248451e-01 4.377424e-01 1.777942e-01
<GCONST> 1.352612e+02
<STATE> 4
<MEAN> 39
 -4.452951e+00 -5.185778e+00 2.155844e+00 1.759390e+00 -6.929346e+00 -7.472157e-01 -1.496368e+00 -7.982175e-01 2.188177e+00 -3.996328e+00 -7.892760e-01 1.093606e+00 4.817498e+01 -4.453250e-01 1.208473e-01 -5.757919e-02 2.552690e-01 3.076696e-01 1.347860e-01 -2.006744e-02 1.253800e-01 1.985585e-01 1.836596e-01 2.556143e-01 1.759179e-01 -4.914787e-01 5.957270e-02 -2.007226e-01 -7.224721e-02 -3.053971e-02 -6.824484e-02 -1.592235e-01 2.961256e-03 -5.485412e-02 -1.048778e-01 5.224371e-02 1.122987e-02 -3.179416e-02 1.534710e-01
<VARIANCE> 39
 5.214517e+01 1.249687e+02 3.989805e+01 5.722837e+01 1.011631e+02 5.655230e+01 6.372769e+01 4.821933e+01 6.721648e+01 3.623974e+01 3.232199e+01 2.796561e+01 1.164930e+02 1.403813e+00 1.625101e+00 1.828760e+00 1.804871e+00 3.124740e+00 2.806255e+00 2.766567e+00 2.341398e+00 3.263134e+00 2.110652e+00 2.003395e+00 1.883687e+00 7.440630e-01 1.658482e-01 2.769985e-01 2.767977e-01 3.251550e-01 5.488017e-01 4.968796e-01 5.305070e-01 4.702551e-01 5.853432e-01 4.073719e-01 4.149536e-01 3.490711e-01 1.241282e-01
<GCONST> 1.196299e+02
<TRANSP> 5
 0.000000e+00 1.000000e+00 0.000000e+00 0.000000e+00 0.000000e+00
 0.000000e+00 8.217992e-01 1.782008e-01 0.000000e+00 0.000000e+00
 0.000000e+00 0.000000e+00 7.378718e-01 2.621282e-01 0.000000e+00
 0.000000e+00 0.000000e+00 0.000000e+00 8.547855e-01 1.452145e-01
 0.000000e+00 0.000000e+00 0.000000e+00 0.000000e+00 0.000000e+00
<ENDHMM>
~h "w"
<BEGINHMM>
<NUMSTATES> 5
<STATE> 2
<MEAN> 39
 -8.702503e+00 5.633697e+00 -9.859743e-01 7.348446e+00 -1.303386e+00 -3.914596e+00 -6.825120e-01 -6.494294e+00 -2.617281e+00 -3.079686e+00 4.611711e-01 -2.871700e+00 5.088045e+01 1.874896e+00 1.015167e+00 4.923048e-01 -5.154788e-01 -8.224677e-01 -1.058536e+00 -6.864590e-01 -6.810791e-01 -4.053543e-01 -7.967737e-02 -3.795323e-01 -2.175829e-01 1.179685e+00 2.844872e-01 -7.057273e-02 -1.426521e-01 -2.743319e-01 -2.136697e-01 -1.939538e-01 -7.430838e-02 1.884075e-02 1.193302e-02 5.318160e-02 -8.372215e-03 -3.987034e-03 2.271976e-01
<VARIANCE> 39
 8.128618e+01 1.217349e+02 6.053037e+01 7.001256e+01 1.088229e+02 1.047283e+02 7.537440e+01 9.592258e+01 5.693307e+01 7.550365e+01 4.676548e+01 3.247818e+01 1.669336e+02 5.250292e+00 7.348219e+00 5.040387e+00 5.344902e+00 7.909365e+00 7.325958e+00 6.687729e+00 5.133990e+00 3.945204e+00 3.967993e+00 3.284221e+00 2.167823e+00 3.351189e+00 8.290901e-01 1.332617e+00 9.986013e-01 9.650354e-01 1.234445e+00 1.050969e+00 1.359478e+00 1.115062e+00 7.594351e-01 7.848706e-01 4.612040e-01 4.619095e-01 5.679669e-01
<GCONST> 1.468399e+02
<STATE> 3
<MEAN> 39
 4.843415e+00 1.179508e+01 1.651340e+00 -6.227500e-01 -1.187388e+01 -1.050457e+01 -6.807356e+00 -5.342319e+00 -1.433753e+00 -2.401599e+00 -3.044264e+00 -2.628877e+00 5.630072e+01 9.238572e-01 -8.069372e-01 -1.359137e+00 -1.754288e+00 -8.970072e-01 -8.075981e-01 9.590861e-01 1.244012e+00 4.911658e-01 -5.187792e-02 -3.263985e-01 -8.717973e-03 1.266989e+00 -2.895863e-01 -4.405763e-01 -3.088892e-01 2.156649e-03 4.726903e-01 4.322295e-01 4.650417e-01 1.835856e-01 -1.003159e-01 -2.037135e-01 4.911118e-02 6.622372e-02 -7.393283e-03
<VARIANCE> 39
 3.006345e+01 5.984042e+01 3.844310e+01 8.627880e+01 9.509129e+01 1.078757e+02 1.310408e+02 7.014692e+01 6.463596e+01 7.766473e+01 3.574665e+01 4.529604e+01 7.949323e+01 8.550144e-01 2.126418e+00 2.008782e+00 3.027919e+00 3.691980e+00 6.616992e+00 7.052691e+00 4.901231e+00 4.134483e+00 3.773844e+00 1.716871e+00 2.945823e+00 8.808393e-01 1.446836e-01 2.608315e-01 3.313481e-01 3.514763e-01 7.489210e-01 6.935349e-01 9.396397e-01 7.060540e-01 7.623782e-01 6.337522e-01 3.960687e-01 4.413027e-01 7.435038e-02
<GCONST> 1.277475e+02
<STATE> 4
<MEAN> 39
 6.593408e+00 1.866603e+00 -1.058031e+01 -6.565200e+00 -9.436183e+00 -8.903357e+00 3.392300e+00 2.878661e+00 -8.359905e-01 -6.954548e+00 -2.543283e+00 -2.986350e+00 6.435442e+01 -2.221137e-02 -1.444405e+00 -1.250542e+00 -1.284136e-01 1.738879e+00 1.561141e+00 2.194436e-01 -4.547105e-01 -7.677498e-01 -4.957750e-01 7.974542e-01 3.327296e-01 6.277180e-01 -1.465051e-01 1.814191e-01 3.871822e-01 4.518899e-01 1.746642e-01 -4.577874e-03 -4.753425e-01 -4.496535e-01 -3.465511e-02 2.331061e-01 1.618671e-01 -8.027705e-03 -1.947162e-01
<VARIANCE> 39
 3.385711e+01 8.432954e+01 5.544584e+01 1.127321e+02 1.132289e+02 2.454113e+02 1.864811e+02 1.075478e+02 8.074616e+01 4.622876e+01 5.432716e+01 4.683180e+01 6.783455e+01 3.837647e-01 1.656658e+00 1.799065e+00 2.050877e+00 3.711034e+00 3.289615e+00 5.296946e+00 3.470507e+00 3.683505e+00 3.321081e+00 3.323546e+00 2.859714e+00 6.609506e-01 8.235494e-02 1.779445e-01 1.825891e-01 3.015261e-01 4.979935e-01 7.764767e-01 6.848364e-01 4.113775e-01 5.543740e-01 4.975227e-01 4.737497e-01 4.999268e-01 6.185289e-02
<GCONST> 1.245538e+02
<TRANSP> 5
 0.000000e+00 1.000000e+00 0.000000e+00 0.000000e+00 0.000000e+00
 0.000000e+00 7.386897e-01 2.613103e-01 0.000000e+00 0.000000e+00
 0.000000e+00 0.000000e+00 7.519655e-01 2.480345e-01 0.000000e+00
 0.000000e+00 0.000000e+00 0.000000e+00 7.748898e-01 2.251102e-01
 0.000000e+00 0.000000e+00 0.000000e+00 0.000000e+00 0.000000e+00
<ENDHMM>
~h "z"
<BEGINHMM>
<NUMSTATES> 5
<STATE> 2
<MEAN> 39
 -9.183545e+00 8.139850e+00 -1.937216e+00 2.782486e+00 1.061581e+00 -4.729510e+00 -5.926045e-01 -3.875942e+00 -4.279058e+00 -3.092138e+00 -4.933110e-01 -2.803969e+00 4.792051e+01 2.394544e-01 6.459681e-01 1.413494e+00 -1.070136e+00 -4.160865e-01 -8.104952e-01 -1.870510e-01 -1.140541e+00 5.654168e-01 -5.916003e-01 -3.041723e-01 3.978475e-01 1.314977e+00 -3.425495e-02 -1.388247e-01 3.213278e-01 -2.220615e-01 -2.004863e-01 4.290299e-02 -9.881811e-02 -2.756947e-01 1.526148e-01 -3.364987e-02 -1.365303e-01 1.751614e-01 2.080099e-01
<VARIANCE> 39
 1.054370e+02 8.251086e+01 8.475688e+01 6.853094e+01 1.917680e+02 1.164571e+02 5.755600e+01 8.166091e+01 1.024487e+02 8.216899e+01 2.655938e+01 4.398636e+01 2.272261e+02 4.630325e+00 4.988122e+00 3.965804e+00 5.230882e+00 6.518094e+00 1.035412e+01 4.277809e+00 5.066425e+00 6.748815e+00 4.712785e+00 2.020158e+00 4.308053e+00 2.433509e+00 7.517565e-01 5.780936e-01 7.516765e-01 9.281411e-01 1.109974e+00 1.302727e+00 8.333887e-01 8.717167e-01 9.636564e-01 6.600323e-01 3.431920e-01 7.036356e-01 3.502065e-01
<GCONST> 1.453177e+02
<STATE> 3
<MEAN> 39
 -1.730707e+01 6.976611e+00 1.197425e+01 1.613155e-02 4.200266e+00 -6.382673e+00 1.247024e+00 -9.941847e+00 -1.009359e+00 -5.241991e+00 -1.090639e+00 -3.138033e-02 6.338255e+01 -5.961714e-02 -8.573340e-01 1.081021e+00 -7.176542e-02 -5.120056e-01 -2.457799e-01 -4.489594e-01 -1.518746e-01 9.670624e-02 9.195777e-02 -6.853421e-03 1.928298e-01 6.384249e-01 4.394273e-01 -7.641859e-02 -1.991488e-01 2.293870e-01 -1.437645e-01 -9.813785e-02 -2.393746e-01 5.665240e-02 -3.228085e-01 4.753185e-02 1.137449e-01 -1.291817e-01 -5.089037e-02
<VARIANCE> 39
 1.109492e+02 9.354659e+01 2.041261e+02 8.469080e+01 9.726447e+01 2.503759e+02 7.423759e+01 8.090862e+01 8.741113e+01 5.093815e+01 1.133870e+02 7.829467e+01 1.153403e+02 9.348986e+00 2.674917e+00 7.850858e+00 5.505930e+00 5.303802e+00 7.053252e+00 5.218328e+00 5.205938e+00 5.408498e+00 3.072787e+00 3.436944e+00 2.199690e+00 9.994231e-01 8.644351e-01 3.755535e-01 9.149798e-01 6.637549e-01 7.786610e-01 1.046516e+00 8.312173e-01 1.026790e+00 7.048133e-01 5.937346e-01 6.647492e-01 4.610156e-01 1.842631e-01
<GCONST> 1.447343e+02
<STATE> 4
<MEAN> 39
 -7.821895e+00 -3.118328e+00 1.755532e+01 4.361657e-02 -9.632350e+00 -1.311836e+00 -1.423608e+01 -1.087651e+01 -6.871037e+00 -2.544620e+00 -1.280099e+00 5.557241e-01 6.143986e+01 2.496572e+00 -1.633169e+00 -3.842960e-01 8.077556e-01 -1.025856e+00 -1.322812e+00 -1.131814e+00 4.512012e-01 -5.803921e-01 8.592442e-02 4.440911e-01 -3.468204e-01 1.087224e+00 -3.405522e-01 7.563646e-02 -7.257005e-01 1.478118e-01 4.679781e-01 -4.008267e-02 4.524504e-01 4.503847e-01 4.853382e-01 -3.957929e-02 4.831430e-02 -8.344717e-02 -2.200936e-01
<VARIANCE> 39
 5.930104e+01 7.636744e+01 9.397681e+01 8.986398e+01 1.049100e+02 2.636477e+02 1.433593e+02 9.067548e+01 1.545633e+02 4.671183e+01 4.341997e+01 5.218135e+01 1.047743e+02 4.831352e+00 3.534317e+00 1.124214e+01 8.235239e+00 6.392049e+00 9.764179e+00 6.026388e+00 7.227396e+00 5.724312e+00 4.347512e+00 3.988622e+00 2.809366e+00 2.385546e+00 6.547554e-01 6.666863e-01 5.464004e-01 8.232441e-01 7.670364e-01 1.456434e+00 9.690105e-01 8.395022e-01 7.769110e-01 7.858691e-01 4.186195e-01 4.557896e-01 1.760379e-01
<GCONST> 1.462624e+02
<TRANSP> 5
 0.000000e+00 1.000000e+00 0.000000e+00 0.000000e+00 0.000000e+00
 0.000000e+00 7.352313e-01 2.647687e-01 0.000000e+00 0.000000e+00
 0.000000e+00 0.000000e+00 8.430551e-01 1.569449e-01 0.000000e+00
 0.000000e+00 0.000000e+00 0.000000e+00 7.259588e-01 2.740412e-01
 0.000000e+00 0.000000e+00 0.000000e+00 0.000000e+00 0.000000e+00
<ENDHMM>
~h "aa"
<BEGINHMM>
<NUMSTATES> 5
<STATE> 2
<MEAN> 39
 -4.487795e+00 -3.200752e-01 5.092303e-01 8.148743e+00 4.498352e+00 -5.476439e+00 9.815765e+00 -5.573243e+00 -2.446027e+00 -5.371256e-01 -3.573690e-01 -4.977244e+00 6.474290e+01 -1.392762e+00 -6.047539e-01 1.504622e+00 6.195248e-01 2.540733e-01 1.779442e-01 -2.262808e-01 -4.799060e-01 -1.749745e-01 3.151820e-01 2.756486e-01 -1.913775e-01 3.434753e-02 -1.249633e-01 2.714022e-02 1.324026e-01 -1.287962e-01 -2.183351e-01 -9.195898e-02 -1.862864e-01 1.060575e-01 3.018031e-02 -1.405482e-01 7.499635e-02 -8.174538e-02 5.653635e-02
<VARIANCE> 39
 8.665952e+01 7.817973e+01 1.405444e+02 5.385148e+01 5.323139e+01 1.062733e+02 1.723789e+02 1.011336e+02 4.236446e+01 7.548824e+01 4.140483e+01 3.847919e+01 6.714114e+01 5.113645e+00 5.643359e+00 6.981097e+00 4.776775e+00 5.246565e+00 7.243904e+00 7.587256e+00 1.077021e+01 4.004417e+00 6.720976e+00 2.888392e+00 2.334545e+00 2.679205e+00 7.831168e-01 9.848088e-01 7.070497e-01 7.935382e-01 6.308954e-01 9.868268e-01 8.944342e-01 1.692350e+00 7.683014e-01 1.183195e+00 5.184762e-01 3.153385e-01 4.646532e-01
<GCONST> 1.450146e+02
<STATE> 3
<MEAN> 39
 -1.537629e+01 -6.762863e+00 9.137946e+00 7.311171e+00 -3.077981e+00 -5.058137e+00 6.807158e+00 -4.424428e+00 -5.725635e-01 -1.478908e+00 2.255437e+00 -2.112914e+00 6.601477e+01 -4.344450e-02 2.695116e-01 5.761425e-01 2.480610e-01 -1.940296e-01 -8.816610e-02 -2.912126e-01 2.111448e-01 -2.962389e-01 -9.808951e-02 -1.681837e-01 -3.738463e-02 -4.727424e-01 6.371109e-01 4.991629e-01 -2.621468e-01 2.206527e-01 8.151832e-02 -4.681928e-02 -1.607545e-01 -6.732451e-02 -8.540341e-02 2.508221e-02 -1.809290e-01 -1.486988e-01 -2.151585e-01
<VARIANCE> 39
 6.537560e+01 3.737228e+01 5.604346e+01 4.136371e+01 9.631474e+01 5.830730e+01 5.801695e+01 4.013147e+01 3.854710e+01 5.464443e+01 3.232310e+01 6.128151e+01 6.191516e+01 6.873887e+00 2.689505e+00 3.174605e+00 3.313966e+00 2.855582e+00 2.992545e+00 3.151396e+00 2.138397e+00 2.864766e+00 2.277910e+00 1.947536e+00 1.602199e+00 1.714038e+00 4.212660e-01 3.628821e-01 6.383738e-01 4.410849e-01 4.495125e-01 5.718535e-01 2.616978e-01 4.300068e-01 7.214156e-01 5.133371e-01 3.790568e-01 3.260710e-01 2.172924e-01
<GCONST> 1.245600e+02
<STATE> 4
<MEAN> 39
 -3.027463e+00 4.159058e+00 4.517751e+00 1.261887e+01 2.829714e-01 -7.316374e+00 -3.301435e-01 -6.407900e+00 -5.179498e+00 -4.525080e+00 -1.092041e+00 -5.814581e+00 6.136502e+01 1.031947e+00 8.340113e-01 -1.115442e+00 -7.558341e-01 -4.894088e-01 6.402200e-01 2.686861e-01 2.899315e-03 -1.538627e-01 -8.890150e-02 3.013826e-01 2.395129e-01 -3.186606e-01 -3.810089e-01 -2.223534e-01 -1.686439e-01 -2.755225e-01 8.276210e-02 1.925484e-01 1.714593e-01 1.561723e-02 4.989821e-01 1.274200e-01 1.282020e-01 2.245391e-01 1.105367e-02
<VARIANCE> 39
 4.756521e+01 4.184208e+01 4.853253e+01 4.332126e+01 5.379260e+01 4.893834e+01 6.241815e+01 5.496627e+01 4.040834e+01 4.631921e+01 2.722781e+01 6.938867e+01 4.235105e+01 4.886693e+00 3.796902e+00 3.604878e+00 3.988432e+00 2.006977e+00 3.895638e+00 4.016742e+00 3.572645e+00 6.915084e+00 2.317893e+00 1.721181e+00 2.303005e+00 1.414433e+00 4.320572e-01 7.249784e-01 5.931631e-01 5.877000e-01 3.610689e-01 6.483147e-01 7.927095e-01 5.970387e-01 1.267689e+00 3.646477e-01 2.999114e-01 4.689122e-01 2.784650e-01
<GCONST> 1.281434e+02
<TRANSP> 5
 0.000000e+00 1.000000e+00 0.000000e+00 0.000000e+00 0.000000e+00
 0.000000e+00 7.010998e-01 2.989003e-01 0.000000e+00 0.000000e+00
 0.000000e+00 0.000000e+00 7.010950e-01 2.989050e-01 0.000000e+00
 0.000000e+00 0.000000e+00 0.000000e+00 6.469374e-01 3.530626e-01
 0.000000e+00 0.000000e+00 0.000000e+00 0.000000e+00 0.000000e+00
<ENDHMM>
~h "ae"
<BEGINHMM>
<NUMSTATES> 5
<STATE> 2
<MEAN> 39
 -1.264225e+01 -1.287691e+01 3.633316e+00 7.433511e+00 1.059234e+01 -1.213342e+01 4.281609e+00 -4.375807e+00 -4.543430e+00 -7.250300e+00 3.622327e+00 -9.755435e-01 6.673318e+01 -4.998192e-01 -2.744857e-01 5.663760e-01 3.498298e-01 2.481634e-01 -1.788879e-01 -7.227687e-01 2.503789e-01 -3.990236e-02 -2.836622e-01 7.562829e-02 -7.248492e-02 -5.382951e-02 1.846726e-01 9.562088e-02 -2.762776e-01 -1.059523e-01 1.199440e-01 -4.611109e-02 -3.521296e-02 -1.238641e-01 2.441480e-01 1.179870e-01 -2.341501e-01 8.628910e-02 -9.449752e-04
<VARIANCE> 39
 1.378546e+02 1.264530e+02 6.369687e+01 2.725041e+01 5.955778e+01 5.167177e+01 8.467033e+01 4.012319e+01 8.151727e+01 2.329630e+01 2.964338e+01 3.103942e+01 2.801849e+01 1.403143e+01 8.263285e+00 8.059402e+00 2.831217e+00 2.683494e+00 4.429644e+00 3.747400e+00 4.306892e+00 8.437810e+00 2.476406e+00 3.125256e+00 2.043298e+00 2.146424e+00 1.497150e+00 6.875020e-01 1.076517e+00 7.036539e-01 4.505466e-01 1.023411e+00 7.697600e-01 6.843151e-01 1.392886e+00 4.758937e-01 5.218459e-01 3.774442e-01 4.351164e-01
<GCONST> 1.370343e+02
<STATE> 3
<MEAN> 39
 -5.703654e+00 -5.452491e+00 3.083064e+00 1.656351e+01 1.419999e+00 -1.226205e+01 -7.973718e+00 -7.057445e+00 7.522363e+00 -2.642523e+00 -7.848698e+00 -4.808575e-01 6.439143e+01 -4.470593e-02 1.386197e-01 -3.114295e-01 -5.250757e-01 -8.046317e-02 1.049613e-01 9.127322e-02 9.239426e-02 2.902211e-01 1.488791e-02 -4.655533e-01 -3.900414e-01 -7.126120e-02 2.144317e-01 9.500428e-02 -1.195634e-01 -4.185871e-01 -2.772918e-01 -1.498576e-01 2.337397e-02 5.077771e-02 -1.937876e-01 -1.064989e-01 5.933222e-02 9.440584e-02 1.368230e-01
<VARIANCE> 39
 4.966149e+01 1.699559e+02 2.194715e+01 2.525436e+01 4.580690e+01 2.764476e+01 5.152396e+01 1.989193e+01 7.497951e+01 3.211363e+01 3.517912e+01 3.142867e+01 1.299788e+01 4.336538e+00 1.342185e+01 2.684446e+00 4.150910e+00 3.683292e+00 2.799190e+00 3.740392e+00 2.267973e+00 4.764593e+00 2.793394e+00 3.459894e+00 1.718526e+00 1.254973e+00 3.110228e-01 1.180307e+00 5.117900e-01 5.028047e-01 4.005471e-01 5.410506e-01 8.351560e-01 4.625275e-01 6.103004e-01 3.516297e-01 4.008057e-01 2.815925e-01 1.790944e-01
<GCONST> 1.237353e+02
<STATE> 4
<MEAN> 39
 -7.782301e+00 -4.297252e+00 -5.359294e-02 3.359340e+00 4.683024e+00 -1.519789e+01 3.803174e+00 -1.726194e+00 -2.444001e+00 -1.377251e+01 -1.592394e+00 4.946471e-01 6.534614e+01 -9.334218e-01 -8.699052e-01 6.615052e-01 -1.832420e-01 -2.894728e-01 -5.116253e-01 2.479479e-01 2.641214e-01 2.189920e-01 1.063870e-01 5.176231e-01 4.894066e-02 2.496597e-01 -3.799837e-02 4.708859e-02 1.533769e-01 2.288394e-01 1.288406e-01 1.081307e-01 -6.815613e-02 -1.047209e-01 -3.185799e-02 1.362105e-01 1.015723e-01 -6.716046e-02 -8.461566e-02
<VARIANCE> 39
 2.111764e+02 1.673580e+02 9.471603e+01 1.653744e+01 1.161419e+02 3.898519e+01 5.713791e+01 5.942248e+01 6.337996e+01 3.223371e+01 9.205650e+01 1.671658e+01 1.588192e+01 4.367891e+00 3.588161e+00 3.008890e+00 2.360684e+00 4.135323e+00 3.561645e+00 3.053182e+00 4.855548e+00 4.421247e+00 2.366068e+00 3.255365e+00 1.451097e+00 1.094650e+00 4.513352e-01 4.007288e-01 5.376198e-01 3.556276e-01 5.500353e-01 6.808021e-01 4.950505e-01 7.106466e-01 8.047034e-01 3.686172e-01 4.225527e-01 2.309875e-01 1.695538e-01
<GCONST> 1.271619e+02
<TRANSP> 5
 0.000000e+00 1.000000e+00 0.000000e+00 0.000000e+00 0.000000e+00
 0.000000e+00 8.736901e-01 1.263099e-01 0.000000e+00 0.000000e+00
 0.000000e+00 0.000000e+00 8.296611e-01 1.703389e-01 0.000000e+00
 0.000000e+00 0.000000e+00 0.000000e+00 8.839931e-01 1.160069e-01
 0.000000e+00 0.000000e+00 0.000000e+00 0.000000e+00 0.000000e+00
<ENDHMM>
~h "ah"
<BEGINHMM>
<NUMSTATES> 5
<STATE> 2
<MEAN> 39
 2.914117e+00 -4.636253e+00 -5.086782e+00 -2.854532e+00 -1.148015e+00 -1.853412e+00 -4.499930e+00 -3.752868e+00 -2.157800e+00 -4.823683e+00 -9.039639e-01 -3.706914e+00 5.988467e+01 -2.616116e-01 -1.265103e-01 5.537621e-01 8.783316e-01 8.859322e-03 -5.026842e-01 1.179991e-01 1.906754e-02 -1.610504e-01 2.703865e-01 -1.610767e-01 -1.698938e-01 -2.574860e-01 -8.908761e-02 3.070643e-01 1.402259e-01 9.030990e-02 -3.089915e-02 1.077688e-01 2.579988e-02 -6.907098e-03 5.071545e-02 -3.154057e-02 -6.683369e-02 -2.756498e-02 -2.316384e-01
<VARIANCE> 39
 2.433257e+01 8.083612e+01 7.019525e+01 1.274140e+02 1.326315e+02 1.141802e+02 1.193836e+02 8.315312e+01 7.669370e+01 6.516123e+01 1.189485e+02 7.566124e+01 7.281840e+01 6.223600e-01 2.794662e+00 1.581253e+00 2.459233e+00 3.370049e+00 4.057755e+00 3.190336e+00 4.138765e+00 3.732881e+00 3.650347e+00 3.512105e+00 2.694749e+00 1.245061e+00 1.277166e-01 2.809120e-01 3.036253e-01 2.787232e-01 5.586540e-01 6.964697e-01 5.549062e-01 7.278513e-01 6.454991e-01 6.647686e-01 6.578595e-01 4.561686e-01 1.001471e-01
<GCONST> 1.292859e+02
<STATE> 3
<MEAN> 39
 5.146628e-01 1.998016e+00 -2.582583e+00 7.324661e+00 3.060941e+00 -6.730616e+00 1.005842e-01 -9.531299e+00 -7.779019e+00 -3.736019e+00 8.492541e-01 -5.255811e+00 6.184743e+01 -2.900555e-01 1.167171e+00 7.751803e-01 9.944580e-01 1.347177e-01 6.472322e-01 -8.568617e-01 -5.087430e-01 7.418697e-01 -2.711120e-01 -5.551987e-01 -1.469998e-01 -1.033878e+00 -4.746001e-02 3.175866e-02 1.205868e-01 -4.212305e-04 -6.340471e-02 3.549843e-02 -7.625566e-02 1.355604e-01 1.386164e-01 -2.025356e-01 -1.466740e-01 1.155137e-01 -3.615656e-02
<VARIANCE> 39
 1.909496e+01 6.084653e+01 5.128991e+01 1.036594e+02 1.051658e+02 5.543099e+01 1.119286e+02 9.513869e+01 4.422284e+01 5.959876e+01 5.157325e+01 4.160998e+01 7.679702e+01 4.706175e-01 9.549492e-01 9.725226e-01 2.321107e+00 2.045862e+00 2.362576e+00 3.178643e+00 3.432925e+00 2.568379e+00 3.277212e+00 2.961463e+00 1.966729e+00 4.345984e-01 5.889379e-02 2.134469e-01 1.496204e-01 3.680406e-01 3.084634e-01 4.972841e-01 5.359442e-01 5.487037e-01 3.370330e-01 4.713686e-01 3.760792e-01 2.795212e-01 8.524083e-02
<GCONST> 1.152568e+02
<STATE> 4
<MEAN> 39
 3.436023e+00 9.585881e+00 3.958754e+00 8.783395e+00 -3.820489e+00 -6.968801e+00 -7.249028e+00 -9.226336e+00 -1.295000e+00 -5.780349e+00 -4.946296e+00 -1.282941e+00 6.001838e+01 -2.410913e-01 3.398798e-01 3.327150e-01 1.810130e-01 2.987992e-02 2.241913e-01 1.434434e-01 6.497847e-02 1.401169e-01 -2.191937e-02 -1.217685e-01 2.440900e-03 -3.068438e-01 -3.695919e-02 -6.179954e-02 -2.190617e-02 -3.160306e-02 1.560861e-02 1.673158e-02 9.134924e-02 1.566027e-03 -8.524396e-02 2.901947e-02 4.474381e-02 1.607447e-03 1.535420e-02
<VARIANCE> 39
 3.040233e+01 6.373752e+01 3.323453e+01 5.772150e+01 8.540071e+01 4.398944e+01 6.122975e+01 3.482883e+01 3.225627e+01 4.347867e+01 3.400817e+01 2.300845e+01 5.679124e+01 3.755545e-01 8.362768e-01 8.029242e-01 1.294497e+00 1.324115e+00 1.238995e+00 1.823563e+00 1.668108e+00 1.901485e+00 1.699885e+00 1.602371e+00 1.455251e+00 2.906793e-01 4.729601e-02 1.155207e-01 1.217944e-01 1.998892e-01 1.923043e-01 2.028604e-01 3.050709e-01 3.234233e-01 3.313397e-01 3.187376e-01 2.891338e-01 2.433927e-01 3.777958e-02
<GCONST> 9.925935e+01
<TRANSP> 5
 0.000000e+00 1.000000e+00 0.000000e+00 0.000000e+00 0.000000e+00
 0.000000e+00 7.205197e-01 2.794802e-01 0.000000e+00 0.000000e+00
 0.000000e+00 0.000000e+00 6.453954e-01 3.546046e-01 0.000000e+00
 0.000000e+00 0.000000e+00 0.000000e+00 8.350406e-01 1.649594e-01
 0.000000e+00 0.000000e+00 0.000000e+00 0.000000e+00 0.000000e+00
<ENDHMM>
~h "ao"
<BEGINHMM>
<NUMSTATES> 5
<STATE> 2
<MEAN> 39
 5.198403e+00 1.176283e+01 -2.803599e+00 -3.821944e+00 -1.135487e+01 -1.641070e+01 7.671621e-03 -3.106118e+00 -1.703201e-01 -1.749972e+00 -4.591609e+00 -8.738414e+00 6.462061e+01 1.794666e+00 2.733478e-01 2.829860e-01 -1.268861e-01 -2.245670e+00 -2.150637e+00 -9.502311e-01 7.587261e-01 5.738952e-02 1.110474e+00 -8.853117e-02 -6.668699e-01 5.373287e-01 -1.211616e+00 -7.179275e-01 -2.187034e-01 3.442318e-01 1.191068e+00 9.488603e-01 4.161798e-01 5.400617e-02 -6.434915e-03 -1.446529e-01 1.899587e-01 3.948719e-01 -2.604621e-01
<VARIANCE> 39
 1.923385e+01 7.844322e+01 2.686682e+01 1.029573e+02 4.696428e+01 1.562078e+02 1.204533e+02 3.450554e+01 3.923937e+01 4.631887e+01 2.551500e+01 6.181287e+01 3.953236e+01 4.033705e+00 3.121891e+00 1.066204e+00 1.900502e+00 6.854997e+00 6.454176e+00 3.553285e+00 2.531028e+00 3.483397e+00 2.865088e+00 1.442607e+00 1.962458e+00 5.440856e-01 4.065785e-01 5.808553e-01 2.557987e-01 4.604113e-01 8.100646e-01 6.711975e-01 6.249346e-01 3.350687e-01 4.023095e-01 4.817577e-01 3.622947e-01 3.895966e-01 1.310044e-01
<GCONST> 1.232719e+02
<STATE> 3
<MEAN> 39
 6.796939e+00 1.248365e+01 -3.613667e+00 -1.033373e+00 -1.349149e+01 -1.569505e+01 -3.857352e+00 -3.707051e+00 3.318899e-01 -4.330379e+00 -4.517916e+00 -7.098719e+00 6.317692e+01 1.266004e-01 -3.609365e-01 -5.635009e-01 -3.720759e-01 3.423674e-01 8.134724e-01 5.072216e-01 -1.511473e-01 -6.500623e-01 -2.337753e-01 2.533910e-01 -1.730418e-03 1.137109e-01 -5.309494e-02 -6.246956e-02 -1.290324e-01 -6.258398e-02 2.838348e-01 1.904898e-01 1.177045e-01 -1.621996e-01 -2.119404e-01 1.552636e-02 6.656019e-02 9.468819e-02 1.772324e-02
<VARIANCE> 39
 1.474800e+01 5.580417e+01 3.224325e+01 1.160467e+02 3.731995e+01 8.621300e+01 1.254085e+02 2.574671e+01 5.417741e+01 4.499623e+01 2.925830e+01 5.282895e+01 3.717867e+01 1.353467e-01 4.857184e-01 7.689286e-01 7.936501e-01 1.381686e+00 1.510495e+00 1.853474e+00 1.438130e+00 1.857432e+00 1.281406e+00 1.187016e+00 1.143510e+00 1.438106e-01 4.048783e-02 6.989241e-02 9.526409e-02 1.566774e-01 2.114194e-01 2.723084e-01 3.367857e-01 2.645257e-01 2.303828e-01 2.089022e-01 2.531269e-01 2.156108e-01 2.378887e-02
<GCONST> 9.423950e+01
<STATE> 4
<MEAN> 39
 7.386746e+00 -9.468693e-01 -8.804837e+00 -1.384099e+01 -9.684435e+00 1.126881e-01 1.016883e+00 -3.786330e+00 -4.212622e+00 2.907517e-01 4.753803e-02 -5.230878e+00 6.282182e+01 -1.934148e-02 -9.377448e-01 -5.925235e-01 8.766080e-01 9.299658e-01 2.281443e-02 -5.412338e-02 -2.474416e-01 -5.363234e-01 5.588497e-01 4.676616e-01 -1.924188e-03 2.111829e-02 -1.503819e-02 1.717140e-02 6.787265e-02 2.082931e-01 2.457503e-02 -1.611101e-01 -9.919502e-02 4.113131e-02 9.928743e-02 -2.869567e-02 -2.480883e-02 -1.780439e-02 -3.550161e-02
<VARIANCE> 39
 1.245140e+01 1.015945e+02 4.582619e+01 1.139478e+02 1.466957e+02 3.014574e+02 9.922340e+01 1.198592e+02 1.035036e+02 6.583557e+01 5.067432e+01 6.726643e+01 8.134848e+01 1.746621e-01 1.269458e+00 1.049959e+00 2.193726e+00 2.490657e+00 4.036178e+00 2.265523e+00 5.965605e+00 3.316438e+00 2.798939e+00 3.776980e+00 2.637207e+00 2.955359e-01 3.120355e-02 2.023648e-01 1.575380e-01 1.648732e-01 3.200665e-01 4.522505e-01 4.417724e-01 6.956704e-01 4.398210e-01 6.115317e-01 5.778173e-01 4.498827e-01 3.147702e-02
<GCONST> 1.184213e+02
<TRANSP> 5
 0.000000e+00 1.000000e+00 0.000000e+00 0.000000e+00 0.000000e+00
 0.000000e+00 5.955009e-01 4.044990e-01 0.000000e+00 0.000000e+00
 0.000000e+00 0.000000e+00 8.359861e-01 1.640139e-01 0.000000e+00
 0.000000e+00 0.000000e+00 0.000000e+00 8.595698e-01 1.404301e-01
 0.000000e+00 0.000000e+00 0.000000e+00 0.000000e+00 0.000000e+00
<ENDHMM>
~h "ay"
<BEGINHMM>
<NUMSTATES> 5
<STATE> 2
<MEAN> 39
 3.549641e+00 -1.254328e+00 -3.262130e+00 1.819446e+00 -2.550883e+00 -5.502955e+00 -3.659942e+00 -4.763111e+00 -3.139690e+00 -3.370883e+00 -2.169986e+00 -2.696038e+00 6.227702e+01 1.245221e+00 -2.333533e+00 -1.616908e+00 -2.027656e+00 -1.166590e-01 -6.316603e-01 5.211524e-01 7.523343e-01 -1.346445e-01 2.036349e-01 7.162268e-02 3.758044e-01 2.525387e+00 -5.459012e-01 -1.178794e-01 3.307296e-02 9.381464e-03 3.135208e-01 3.521040e-01 1.158172e-01 1.238014e-01 2.118386e-01 1.760121e-02 -1.313682e-02 -6.717503e-03 -2.951669e-01
<VARIANCE> 39
 4.707441e+01 1.083632e+02 1.092076e+02 1.163264e+02 1.308923e+02 1.138929e+02 1.295476e+02 9.178922e+01 5.914920e+01 6.262272e+01 8.135879e+01 5.873321e+01 1.474566e+02 5.298594e+00 6.368668e+00 6.341713e+00 4.628361e+00 9.468633e+00 7.361475e+00 8.822014e+00 7.586341e+00 5.337291e+00 6.175632e+00 6.223664e+00 5.786898e+00 2.333396e+00 1.068654e+00 1.150499e+00 1.114538e+00 9.545508e-01 1.447354e+00 1.202340e+00 1.240305e+00 1.391138e+00 9.287905e-01 8.959327e-01 9.876267e-01 8.719402e-01 7.335206e-01
<GCONST> 1.543374e+02
<STATE> 3
<MEAN> 39
 6.362332e+00 -1.078178e+01 -1.168800e+01 -7.855125e+00 2.526120e+00 -4.358570e+00 -1.767788e+00 -1.786048e+00 8.929739e-02 -1.770263e+00 -1.552828e+00 -4.995774e+00 7.020749e+01 2.831279e-02 -1.662781e-01 -4.797941e-02 4.543960e-01 2.076304e-01 -2.673033e-02 -1.622612e-01 -6.750353e-05 2.720247e-01 -1.695867e-01 -2.627937e-01 1.496770e-01 -2.178608e-01 -6.052027e-02 2.277888e-01 1.184763e-01 2.247666e-01 5.938197e-03 -1.054233e-01 -1.056793e-01 -1.697637e-02 -2.154491e-02 3.470496e-02 5.930156e-03 1.389337e-02 -1.785986e-01
<VARIANCE> 39
 2.361864e+01 6.639986e+01 7.607462e+01 1.378771e+02 1.021136e+02 2.178100e+02 2.436854e+02 6.850567e+01 7.029883e+01 8.642297e+01 8.300638e+01 7.417133e+01 4.402845e+01 6.777365e-01 1.070218e+00 2.239074e+00 2.468262e+00 2.870187e+00 4.817261e+00 2.908377e+00 2.994015e+00 2.606161e+00 2.622979e+00 2.728359e+00 2.679009e+00 4.750510e-01 1.803863e-01 2.417925e-01 3.675917e-01 3.762065e-01 4.789821e-01 7.256133e-01 6.098329e-01 5.484620e-01 4.709429e-01 5.502110e-01 5.165778e-01 5.066646e-01 1.676678e-01
<GCONST> 1.268544e+02
<STATE> 4
<MEAN> 39
 4.328190e+00 -5.147708e+00 -8.742238e+00 2.456980e-01 -7.642157e-02 -6.101211e+00 -1.530286e+00 -4.329683e+00 -9.901596e-01 -3.977364e+00 -4.800602e+00 5.631094e-01 6.708611e+01 -1.268642e-01 8.707035e-02 4.105867e-01 4.389963e-01 1.318324e-01 -3.347863e-01 -2.811947e-01 -1.039802e-01 -1.259229e-01 1.610440e-01 1.243735e-01 -3.599241e-02 -1.241405e-01 -4.722716e-02 7.730405e-02 1.588084e-01 6.968562e-02 -4.577380e-02 -1.740354e-02 5.382214e-02 -2.799021e-02 -5.204529e-02 -1.404367e-02 -9.271185e-03 -5.819643e-02 -4.171986e-02
<VARIANCE> 39
 3.293808e+01 1.031843e+02 6.012431e+01 4.594191e+01 9.693872e+01 1.070241e+02 1.256840e+02 5.669092e+01 4.448272e+01 5.291815e+01 6.284850e+01 4.629064e+01 5.429602e+01 1.521242e-01 3.929080e-01 9.532166e-01 1.081266e+00 1.304435e+00 1.380812e+00 1.572781e+00 1.362062e+00 1.438365e+00 1.410775e+00 1.380783e+00 1.050156e+00 1.267006e-01 2.466828e-02 6.234591e-02 9.592011e-02 1.357787e-01 1.561061e-01 2.113061e-01 2.384036e-01 1.984151e-01 2.025113e-01 2.142434e-01 1.996346e-01 1.738128e-01 1.959367e-02
<GCONST> 9.544888e+01
<TRANSP> 5
 0.000000e+00 1.000000e+00 0.000000e+00 0.000000e+00 0.000000e+00
 0.000000e+00 7.101191e-01 2.898809e-01 0.000000e+00 0.000000e+00
 0.000000e+00 0.000000e+00 8.312727e-01 1.687273e-01 0.000000e+00
 0.000000e+00 0.000000e+00 0.000000e+00 9.060796e-01 9.392046e-02
 0.000000e+00 0.000000e+00 0.000000e+00 0.000000e+00 0.000000e+00
<ENDHMM>
~h "eh"
<BEGINHMM>
<NUMSTATES> 5
<STATE> 2
<MEAN> 39
 -9.938781e+00 8.968500e-01 2.405840e+00 2.678582e+00 2.379067e+00 -1.475221e+00 3.441882e+00 -7.136853e+00 -8.092926e-02 -1.867181e+00 -1.683131e-01 -1.978028e+00 6.334348e+01 2.643894e+00 -1.816603e-01 -5.527095e-01 7.069308e-02 -4.905394e-01 -1.357896e+00 -1.034048e+00 -2.302282e-01 -7.589383e-01 -1.720350e-01 -4.988023e-01 1.109859e-01 9.400108e-01 2.105394e-01 -7.687166e-02 -1.508477e-01 -6.761133e-02 -9.447133e-02 -1.885472e-01 -1.228856e-01 2.795459e-01 1.023527e-01 -1.116760e-01 -3.219534e-02 -2.985992e-04 1.449446e-01
<VARIANCE> 39
 1.369161e+02 4.742457e+01 8.075412e+01 9.147242e+01 8.230634e+01 9.323367e+01 9.348292e+01 8.149558e+01 5.480302e+01 3.456569e+01 5.712818e+01 5.457519e+01 9.364235e+01 1.150158e+01 4.370322e+00 5.170225e+00 4.371882e+00 4.462541e+00 6.882399e+00 5.855993e+00 5.111242e+00 5.333076e+00 3.909063e+00 3.592116e+00 2.289479e+00 2.712657e+00 1.532805e+00 6.315286e-01 4.539612e-01 4.961281e-01 5.348898e-01 9.861007e-01 8.186469e-01 8.282407e-01 8.379170e-01 5.563941e-01 5.061873e-01 3.195470e-01 4.136538e-01
<GCONST> 1.413603e+02
<STATE> 3
<MEAN> 39
 -5.734896e-01 -7.112443e+00 -3.469230e+00 -2.462337e+00 -1.422626e+00 -7.833832e+00 8.369893e-01 2.395064e+00 -1.429046e+00 -2.272193e+00 -6.835772e-01 -3.662129e-01 7.384315e+01 5.969195e-01 -5.075188e-01 -6.339515e-01 -2.578204e-03 -2.958719e-02 3.010378e-01 1.395212e-02 4.546291e-01 3.729299e-01 -3.569933e-01 -2.953385e-01 -1.407603e-01 6.055926e-03 -4.737195e-01 1.836687e-01 1.018678e-01 1.401877e-01 1.520956e-01 3.390912e-01 1.514971e-01 -1.744583e-01 9.064973e-03 4.444211e-02 7.834662e-02 2.955686e-02 -2.995766e-01
<VARIANCE> 39
 3.685439e+01 6.818443e+01 3.870708e+01 7.986967e+01 9.547071e+01 6.530541e+01 7.768571e+01 1.177544e+02 8.997540e+01 5.561937e+01 8.030817e+01 6.208677e+01 1.605289e+02 1.446765e+00 2.949859e+00 2.149798e+00 2.869078e+00 3.888506e+00 3.708562e+00 2.409643e+00 4.032817e+00 3.000026e+00 2.655606e+00 2.691619e+00 3.186081e+00 1.841612e+00 5.251073e-01 3.475512e-01 3.020105e-01 4.513514e-01 8.241916e-01 7.031659e-01 6.297594e-01 6.068345e-01 6.762367e-01 5.404221e-01 5.841466e-01 5.720304e-01 2.891785e-01
<GCONST> 1.320162e+02
<STATE> 4
<MEAN> 39
 1.718787e-01 -3.503295e-01 -6.578568e+00 8.789479e+00 -1.468872e+00 4.259136e+00 2.076832e+00 5.142059e-01 -5.972553e-01 -2.053749e+00 -1.741859e+00 -4.640366e+00 6.841473e+01 6.084620e-02 4.436734e-02 -9.371690e-02 5.443371e-02 5.888519e-02 -2.387436e-04 -6.391417e-02 -6.251075e-03 1.215261e-01 7.278431e-02 -1.621361e-01 -1.635846e-02 -7.886244e-02 -4.969366e-02 8.344833e-02 8.891625e-02 -2.342913e-02 1.079934e-03 -2.469893e-02 4.565229e-04 -4.122706e-03 -1.285173e-02 4.845706e-02 5.345677e-02 -3.014321e-02 -3.486828e-02
<VARIANCE> 39
 1.858531e+01 3.538813e+01 5.947628e+01 8.614697e+01 6.006639e+01 1.118209e+02 5.628040e+01 4.802685e+01 5.028458e+01 4.167511e+01 3.847855e+01 4.304573e+01 4.107236e+01 4.768762e-01 8.867190e-01 1.054329e+00 1.253750e+00 1.770290e+00 1.701604e+00 1.989289e+00 1.810042e+00 1.478616e+00 1.700232e+00 1.936300e+00 1.637699e+00 1.919169e-01 1.070062e-01 1.780249e-01 2.282131e-01 2.627876e-01 3.971070e-01 3.627564e-01 3.876919e-01 3.782101e-01 2.583812e-01 3.214860e-01 3.931017e-01 2.984484e-01 3.773788e-02
<GCONST> 1.058847e+02
<TRANSP> 5
 0.000000e+00 1.000000e+00 0.000000e+00 0.000000e+00 0.000000e+00
 0.000000e+00 7.779008e-01 2.220992e-01 0.000000e+00 0.000000e+00
 0.000000e+00 0.000000e+00 6.800908e-01 3.199092e-01 0.000000e+00
 0.000000e+00 0.000000e+00 0.000000e+00 8.488120e-01 1.511880e-01
 0.000000e+00 0.000000e+00 0.000000e+00 0.000000e+00 0.000000e+00
<ENDHMM>
~h "er"
<BEGINHMM>
<NUMSTATES> 5
<STATE> 2
<MEAN> 39
 -5.586942e-01 5.746063e+00 -6.473743e+00 5.376023e+00 9.217075e-01 -1.972653e+00 -2.135936e+00 -1.759412e+01 -1.127077e+01 -2.074074e+00 4.460261e+00 3.056130e-01 6.170519e+01 -7.457221e-01 -2.375699e-01 4.394522e-01 6.616035e-01 3.018102e-01 9.475717e-02 -1.295009e-01 3.654090e-01 7.453479e-01 2.372140e-01 -1.131234e-01 6.640608e-03 -4.750663e-01 -1.984895e-01 -7.253943e-02 1.904622e-01 1.007564e-01 -3.033862e-02 -1.570599e-02 1.903310e-01 2.732344e-01 2.485453e-01 -2.758936e-02 -1.740365e-01 -8.978830e-03 -6.818766e-02
<VARIANCE> 39
 4.277083e+01 1.655525e+01 4.114647e+01 3.063124e+01 4.153181e+01 3.688903e+01 4.106705e+01 4.234986e+01 5.873562e+01 6.701425e+01 3.736511e+01 3.270859e+01 1.994768e+01 7.416990e-01 1.048105e+00 1.298407e+00 1.100745e+00 1.222180e+00 1.498056e+00 2.420854e+00 2.562398e+00 1.921153e+00 1.944903e+00 1.786552e+00 1.078907e+00 4.472111e-01 1.307310e-01 2.525054e-01 1.617690e-01 1.930320e-01 2.913677e-01 4.036441e-01 5.122891e-01 2.953538e-01 2.875645e-01 3.055880e-01 2.928216e-01 2.323889e-01 6.481260e-02
<GCONST> 1.034968e+02
<STATE> 3
<MEAN> 39
 -1.418590e+01 -4.111176e+00 3.284950e+00 6.678050e+00 -1.872218e+00 -9.602917e-01 6.116868e+00 -7.966083e+00 -4.298226e-01 1.854650e+00 3.047606e+00 9.334925e-01 5.948961e+01 -3.589143e-01 -1.331113e-01 7.272699e-02 -8.606813e-02 -2.341440e-01 4.815624e-02 3.376430e-01 3.650410e-01 3.500262e-01 3.637591e-02 -7.641827e-02 9.469298e-02 -2.262287e-01 4.401214e-02 8.655350e-02 -1.513387e-02 -1.866429e-02 3.307911e-02 -2.387413e-02 -3.469655e-02 -4.969328e-02 -5.625117e-02 -6.431143e-03 3.211469e-03 -4.108800e-03 -3.588032e-03
<VARIANCE> 39
 6.924760e+01 5.004384e+01 1.477556e+02 5.553526e+01 5.398769e+01 6.812903e+01 5.481950e+01 3.591495e+01 4.364321e+01 5.149758e+01 4.241229e+01 3.089400e+01 2.998308e+01 2.200036e+00 3.677635e+00 3.889107e+00 2.482100e+00 2.251952e+00 3.401727e+00 2.985690e+00 2.668027e+00 2.624595e+00 2.127401e+00 2.320796e+00 1.481471e+00 1.585565e+00 2.171253e-01 5.204503e-01 4.665658e-01 3.838834e-01 3.663548e-01 5.213367e-01 4.350960e-01 4.646967e-01 4.632597e-01 4.079857e-01 3.692743e-01 2.614989e-01 2.586711e-01
<GCONST> 1.223070e+02
<STATE> 4
<MEAN> 39
 -1.646170e+01 3.479440e+00 -8.054581e-01 1.009996e+01 1.380410e-01 2.047621e+00 5.937833e+00 -1.619306e+00 4.948399e+00 -2.797823e+00 8.364899e-01 -1.879646e+00 4.843769e+01 -3.003435e-02 2.039980e-02 2.376872e-02 4.792100e-03 1.762655e-02 8.021067e-03 2.173134e-02 4.890259e-02 4.010406e-02 1.222735e-02 -4.157745e-02 -5.506082e-03 -7.518964e-02 1.220514e-02 -1.427164e-02 -1.171725e-02 2.880847e-03 2.007446e-03 -4.921426e-03 -7.305971e-03 -1.912399e-02 -8.742399e-03 8.880321e-03 1.307309e-02 4.695528e-04 1.603293e-02
<VARIANCE> 39
 1.218750e+01 1.624166e+01 1.442060e+01 1.672226e+01 2.809637e+01 2.732845e+01 1.574466e+01 1.744528e+01 1.774348e+01 3.108221e+01 1.530909e+01 3.583394e+01 2.531128e+01 1.546426e-01 3.993587e-01 5.157951e-01 6.527343e-01 8.559912e-01 1.003266e+00 1.107495e+00 1.217452e+00 1.287838e+00 1.275821e+00 1.195794e+00 1.011417e+00 7.716534e-02 3.271862e-02 6.990577e-02 9.952641e-02 1.236105e-01 1.653130e-01 1.856010e-01 2.101204e-01 2.323564e-01 2.593665e-01 2.564430e-01 2.459603e-01 2.011353e-01 1.627053e-02
<GCONST> 7.814225e+01
<TRANSP> 5
 0.000000e+00 1.000000e+00 0.000000e+00 0.000000e+00 0.000000e+00
 0.000000e+00 8.212060e-01 1.787940e-01 0.000000e+00 0.000000e+00
 0.000000e+00 0.000000e+00 8.907393e-01 1.092607e-01 0.000000e+00
 0.000000e+00 0.000000e+00 0.000000e+00 9.701573e-01 2.984275e-02
 0.000000e+00 0.000000e+00 0.000000e+00 0.000000e+00 0.000000e+00
<ENDHMM>
~h "ey"
<BEGINHMM>
<NUMSTATES> 5
<STATE> 2
<MEAN> 39
 -8.396176e+00 -3.190751e+00 1.778636e-01 3.926654e+00 5.191329e-01 -5.055729e+00 -3.351679e+00 -4.140840e+00 -3.220586e-01 -2.629637e-01 1.295254e+00 -2.311135e+00 5.370448e+01 1.257052e+00 -9.652124e-01 5.022849e-01 -5.409616e-01 -5.479978e-01 -2.322019e+00 -9.376602e-01 -6.122797e-01 -5.460731e-01 2.787732e-01 -1.406663e-01 -6.441439e-01 2.515427e+00 3.652337e-03 8.236235e-02 1.029122e-01 -6.063366e-03 6.327233e-02 -6.292880e-02 -5.710346e-02 -1.411808e-02 -9.640321e-03 -4.495497e-02 3.364136e-02 -6.773264e-02 4.105807e-02
<VARIANCE> 39
 7.582023e+01 7.339268e+01 1.117534e+02 1.646516e+02 2.331148e+02 2.136323e+02 1.099257e+02 8.115818e+01 6.635960e+01 1.058420e+02 7.063170e+01 4.913990e+01 2.107809e+02 4.401642e+00 5.005258e+00 7.955191e+00 1.031102e+01 1.184139e+01 1.226265e+01 8.199892e+00 6.200745e+00 6.354807e+00 7.428823e+00 4.893912e+00 3.081315e+00 6.288135e+00 6.787916e-01 9.130038e-01 1.066064e+00 1.557899e+00 1.819425e+00 2.108430e+00 1.255978e+00 1.042114e+00 1.153305e+00 1.236233e+00 8.118280e-01 5.581361e-01 1.442235e+00
<GCONST> 1.587784e+02
<STATE> 3
<MEAN> 39
 -1.556931e+00 -1.988267e+00 2.867687e+00 1.512982e+01 6.742443e+00 -2.491920e+01 -9.005506e+00 -7.306866e+00 -6.586756e+00 -2.308426e+00 1.687896e-01 -1.000061e+01 6.766871e+01 -3.190915e-01 6.906539e-01 5.674121e-01 3.133532e-01 -1.604692e-01 6.698763e-01 -4.044415e-02 -8.320539e-03 5.242648e-01 -3.923257e-01 -3.611729e-01 -9.314221e-02 -5.919886e-01 -1.174748e-01 1.412096e-01 -2.732031e-02 -1.076089e-01 -7.801119e-02 4.285803e-01 1.329672e-01 -6.137793e-02 1.197400e-01 -3.195259e-02 -4.437657e-02 1.999040e-01 -2.611008e-01
<VARIANCE> 39
 3.088896e+01 4.150016e+01 2.977861e+01 1.579427e+02 1.680892e+02 1.150851e+02 1.053181e+02 6.819387e+01 7.810728e+01 3.334535e+01 5.841537e+01 5.343221e+01 3.907871e+01 4.564725e-01 8.793975e-01 9.061646e-01 1.849744e+00 2.377856e+00 3.118400e+00 1.932605e+00 2.001983e+00 2.794264e+00 2.136518e+00 1.855040e+00 1.857265e+00 5.991756e-01 1.380080e-01 2.021565e-01 1.979204e-01 3.498705e-01 4.364785e-01 3.770710e-01 3.972122e-01 3.920358e-01 4.509694e-01 3.729472e-01 3.483078e-01 3.253295e-01 1.282858e-01
<GCONST> 1.151602e+02
<STATE> 4
<MEAN> 39
 -6.031021e+00 3.252960e+00 1.178209e+01 -2.721120e+00 -1.066333e+01 -5.472908e+00 -6.922322e+00 -1.048485e+01 -2.530816e+00 -2.896739e+00 -1.524290e+00 -9.522577e-01 5.381340e+01 -5.119141e-01 5.006851e-01 -2.847752e-01 1.426928e-01 2.693426e-01 6.166619e-01 -1.011991e-01 -6.152260e-02 -1.837697e-01 -7.073344e-02 -2.792977e-02 2.607814e-01 -1.158082e+00 -3.836543e-02 -1.161537e-01 -7.688848e-02 2.666367e-02 6.067354e-02 -4.977662e-03 1.267295e-01 1.080674e-01 -3.673934e-02 4.881563e-02 5.077925e-02 -2.469267e-02 1.209147e-02
<VARIANCE> 39
 4.018621e+01 5.137429e+01 1.182104e+02 1.984434e+02 1.323723e+02 9.919588e+01 6.200341e+01 5.765658e+01 5.917791e+01 5.446233e+01 7.002346e+01 4.383541e+01 1.501069e+02 6.328282e-01 1.614208e+00 2.046887e+00 2.880227e+00 2.293071e+00 3.061046e+00 2.932252e+00 3.571298e+00 3.122950e+00 1.803777e+00 2.788704e+00 2.459694e+00 7.468666e-01 6.528616e-02 1.848581e-01 2.281875e-01 4.024345e-01 3.773500e-01 3.528361e-01 4.544142e-01 5.242430e-01 6.055393e-01 3.222046e-01 4.468970e-01 4.021717e-01 1.004950e-01
<GCONST> 1.217072e+02
<TRANSP> 5
 0.000000e+00 1.000000e+00 0.000000e+00 0.000000e+00 0.000000e+00
 0.000000e+00 8.128243e-01 1.871757e-01 0.000000e+00 0.000000e+00
 0.000000e+00 0.000000e+00 8.161695e-01 1.838305e-01 0.000000e+00
 0.000000e+00 0.000000e+00 0.000000e+00 8.479294e-01 1.520706e-01
 0.000000e+00 0.000000e+00 0.000000e+00 0.000000e+00 0.000000e+00
<ENDHMM>
~h "hh"
<BEGINHMM>
<NUMSTATES> 5
<STATE> 2
<MEAN> 39
 4.945427e+00 2.884608e-01 -4.859355e+00 -6.450816e-01 -6.243290e+00 -1.973262e+01 1.201960e+01 9.299022e+00 -1.529365e+00 -4.977697e+00 -2.920938e+00 5.307279e-01 7.333621e+01 8.076835e-02 3.058591e-01 1.599313e-01 7.192639e-02 -1.491375e-01 3.552203e-02 -3.243963e-01 1.819510e-01 2.844976e-01 -3.224044e-01 4.390830e-02 -4.567418e-02 -2.927518e-01 -2.009488e-02 3.473817e-02 4.428722e-02 5.183000e-02 -2.886097e-03 7.411565e-02 -4.599995e-02 -4.812002e-02 5.673529e-03 -8.263698e-03 4.309161e-02 -3.986608e-02 -2.891630e-02
<VARIANCE> 39
 1.955873e+01 3.617855e+01 4.202308e+01 2.229241e+01 7.175936e+01 9.690034e+01 2.452362e+02 6.810751e+01 4.881342e+01 1.522137e+02 2.427320e+01 1.135648e+02 2.759346e+01 6.235740e-01 1.244292e+00 2.018202e+00 1.691940e+00 1.775302e+00 3.632786e+00 3.061324e+00 1.883697e+00 2.735227e+00 3.284238e+00 1.640266e+00 1.799782e+00 5.812713e-01 8.294870e-02 1.521600e-01 2.678887e-01 2.597075e-01 3.047694e-01 4.595914e-01 5.105646e-01 2.658625e-01 4.760753e-01 5.581409e-01 2.855335e-01 3.614401e-01 8.688576e-02
<GCONST> 1.140903e+02
<STATE> 3
<MEAN> 39
 7.248737e+00 1.176571e+01 4.942759e+00 1.437400e+00 -1.500703e+01 -1.274142e+01 -7.538134e+00 -2.260217e+00 8.893113e+00 -4.312104e+00 -8.287268e+00 1.259032e+00 6.490941e+01 -3.046566e-01 2.801240e-01 1.982438e-01 2.325275e-01 2.107937e-01 4.148949e-01 3.371649e-01 -1.139777e-01 8.278182e-02 3.960694e-01 2.565349e-01 -1.428011e-01 -2.599107e-01 -3.805693e-02 -3.615113e-02 -9.864602e-03 3.159784e-02 5.650937e-02 6.070459e-02 8.508809e-02 -2.001120e-02 -6.301875e-02 3.407381e-02 1.666863e-02 9.108630e-03 9.618984e-04
<VARIANCE> 39
 1.731966e+01 2.085269e+01 1.995969e+01 1.006046e+01 3.436832e+01 7.380213e+01 1.035281e+02 5.784159e+01 3.055134e+01 2.752170e+01 3.195444e+01 2.995190e+01 6.660285e+00 6.496205e-01 8.738993e-01 9.945124e-01 9.065123e-01 1.555742e+00 2.940928e+00 3.093059e+00 1.641243e+00 1.463339e+00 1.447570e+00 1.096731e+00 1.204750e+00 3.960341e-01 5.144910e-02 1.516772e-01 1.283561e-01 1.112280e-01 1.951535e-01 3.637754e-01 2.943269e-01 2.271618e-01 1.869487e-01 1.648014e-01 2.243661e-01 2.335599e-01 4.500734e-02
<GCONST> 9.349554e+01
<STATE> 4
<MEAN> 39
 -1.168436e+00 5.453668e+00 2.004124e+00 6.520459e+00 -1.514664e-01 -2.526128e-01 3.902281e+00 -1.050232e+00 2.698853e+00 -3.944769e+00 1.117066e+00 -8.074237e-01 6.245001e+01 -4.789625e-02 2.497568e-02 1.825420e-02 1.029091e-02 4.340169e-02 5.895282e-02 -6.338862e-02 -1.015449e-01 -1.255457e-02 5.238612e-03 3.848470e-02 4.111777e-02 -3.223893e-02 5.250244e-03 -1.383458e-02 -4.988364e-04 -1.299195e-02 2.029588e-03 -1.796881e-02 5.190771e-03 6.828517e-03 -8.127870e-03 -5.080413e-03 5.939626e-03 -1.953226e-04 1.629957e-02
<VARIANCE> 39
 1.679557e+01 8.668910e+00 2.259948e+01 1.534488e+01 6.214934e+01 4.248618e+01 2.499931e+01 2.829958e+01 3.224302e+01 2.852685e+01 1.739360e+01 3.938485e+01 5.351232e+00 4.011848e-01 4.769976e-01 7.611833e-01 7.989340e-01 1.132523e+00 1.275015e+00 1.900794e+00 1.806458e+00 2.080854e+00 1.558854e+00 1.358620e+00 1.431334e+00 1.317904e-01 7.125859e-02 9.637897e-02 1.530232e-01 1.537467e-01 2.295368e-01 2.440839e-01 3.563232e-01 3.412012e-01 4.026889e-01 2.964330e-01 2.498022e-01 2.560394e-01 2.589614e-02
<GCONST> 8.899518e+01
<TRANSP> 5
 0.000000e+00 1.000000e+00 0.000000e+00 0.000000e+00 0.000000e+00
 0.000000e+00 9.062967e-01 9.370335e-02 0.000000e+00 0.000000e+00
 0.000000e+00 0.000000e+00 8.963777e-01 1.036223e-01 0.000000e+00
 0.000000e+00 0.000000e+00 0.000000e+00 9.799827e-01 2.001726e-02
 0.000000e+00 0.000000e+00 0.000000e+00 0.000000e+00 0.000000e+00
<ENDHMM>
~h "ih"
<BEGINHMM>
<NUMSTATES> 5
<STATE> 2
<MEAN> 39
 -1.319660e+01 4.330727e-01 5.556444e+00 2.451522e+00 1.737778e+00 -4.739078e+00 -2.778201e+00 -9.997288e+00 -8.145486e-02 -3.781294e+00 -6.251153e-01 -2.216360e+00 6.088650e+01 3.583550e+00 5.446295e-03 -5.975512e-01 1.304280e+00 3.434803e-01 -1.903731e+00 -2.076371e+00 -6.318622e-01 -1.616564e+00 -2.733262e-01 -1.280028e-01 -2.125078e-01 9.041945e-01 2.733487e-01 -2.397099e-01 -1.031057e-01 -1.347474e-02 2.175840e-01 -4.633506e-01 -9.551959e-02 1.034550e-01 -2.319914e-01 2.270927e-01 1.800235e-01 -1.363168e-01 4.786428e-01
<VARIANCE> 39
 1.365901e+02 7.553619e+01 9.112585e+01 1.137814e+02 9.973243e+01 9.804105e+01 1.146709e+02 7.838773e+01 5.922064e+01 3.827525e+01 3.799835e+01 3.484015e+01 9.277028e+01 8.505773e+00 7.281553e+00 6.892394e+00 5.334659e+00 6.026693e+00 7.613078e+00 5.233255e+00 3.998015e+00 5.294962e+00 2.763285e+00 3.606822e+00 2.858550e+00 2.918430e+00 1.544648e+00 9.280649e-01 5.069363e-01 6.751597e-01 7.538679e-01 1.123789e+00 1.167046e+00 7.461413e-01 8.451799e-01 5.493888e-01 5.392674e-01 3.846229e-01 3.963559e-01
<GCONST> 1.443046e+02
<STATE> 3
<MEAN> 39
 -2.408835e+00 -7.798133e-01 9.936371e-02 1.228816e+01 1.278013e+01 -1.576485e+01 -6.395290e+00 -1.007254e+01 -5.711822e+00 -4.067900e+00 1.891667e+00 -6.775023e+00 6.664547e+01 1.049358e-01 9.632175e-02 -1.794768e-01 -1.368131e-01 -1.166941e-01 3.764161e-01 2.684477e-01 -2.975725e-01 -4.278633e-02 5.243363e-02 6.795131e-02 3.101608e-01 -8.841366e-02 -2.853438e-01 4.699296e-02 6.881293e-02 -2.625281e-01 -1.515575e-01 4.055581e-01 1.903412e-01 -4.223918e-02 1.676325e-01 -3.457880e-02 -9.299663e-02 7.658543e-02 -1.132789e-01
<VARIANCE> 39
 2.994025e+01 6.757559e+01 2.740370e+01 6.574741e+01 1.050760e+02 1.557677e+02 7.767944e+01 7.540756e+01 5.832134e+01 5.907375e+01 4.304035e+01 7.664955e+01 5.542596e+01 2.845646e+00 5.523121e+00 2.235436e+00 5.003321e+00 5.388126e+00 1.162087e+01 4.318279e+00 3.675422e+00 4.825337e+00 4.626643e+00 3.161638e+00 3.742161e+00 3.941923e+00 5.875323e-01 1.085704e+00 3.791996e-01 8.873948e-01 8.513529e-01 1.840004e+00 9.739244e-01 7.295378e-01 9.764943e-01 9.095253e-01 6.346352e-01 6.002070e-01 7.189962e-01
<GCONST> 1.415994e+02
<STATE> 4
<MEAN> 39
 -5.002245e+00 -3.963259e+00 5.036584e+00 1.141425e+00 -4.590970e+00 -5.794128e+00 -1.058714e+01 -8.748721e+00 -2.129016e+00 -6.571374e+00 3.880177e+00 -3.191574e+00 6.033200e+01 -6.005073e-01 -8.577229e-01 4.992061e-01 -8.425541e-01 -1.935729e-01 -1.285583e-01 5.135254e-01 -1.506876e-01 1.604735e-02 2.011878e-01 -1.221351e-01 -1.477975e-01 7.845309e-01 -2.286934e-01 8.426268e-02 1.767833e-01 2.352132e-01 6.948844e-02 9.235176e-03 1.053052e-01 1.477294e-01 2.506961e-01 4.042530e-02 -3.421567e-02 -1.255754e-01 -8.800278e-02
<VARIANCE> 39
 9.343231e+01 1.769977e+02 1.165280e+02 9.800298e+01 3.338210e+02 2.167565e+02 2.070237e+02 1.199376e+02 7.343794e+01 6.254192e+01 8.152042e+01 6.002711e+01 9.313037e+01 7.637061e+00 5.952380e+00 1.014696e+01 8.864838e+00 8.205087e+00 1.084862e+01 6.305765e+00 6.575306e+00 5.766122e+00 5.114915e+00 3.130831e+00 4.384483e+00 5.797619e+00 8.181769e-01 9.400157e-01 1.434543e+00 9.329027e-01 1.177507e+00 1.664849e+00 1.167524e+00 1.112885e+00 1.035410e+00 1.020404e+00 6.792416e-01 9.305639e-01 6.978037e-01
<GCONST> 1.579957e+02
<TRANSP> 5
 0.000000e+00 1.000000e+00 0.000000e+00 0.000000e+00 0.000000e+00
 0.000000e+00 6.245946e-01 3.754054e-01 0.000000e+00 0.000000e+00
 0.000000e+00 0.000000e+00 8.178397e-01 1.821603e-01 0.000000e+00
 0.000000e+00 0.000000e+00 0.000000e+00 6.900963e-01 3.099037e-01
 0.000000e+00 0.000000e+00 0.000000e+00 0.000000e+00 0.000000e+00
<ENDHMM>
~h "iy"
<BEGINHMM>
<NUMSTATES> 5
<STATE> 2
<MEAN> 39
 2.210081e+00 -1.050321e+01 9.851380e+00 5.054799e+00 -1.467414e+01 -1.129612e+01 -1.531073e+01 -2.288051e+00 -2.622436e+00 -8.618213e+00 3.035001e+00 -2.782501e+00 5.663832e+01 1.251784e-01 1.899918e-01 -2.690057e-01 1.385250e-01 -1.594369e-02 3.727068e-01 2.751997e-01 2.753425e-03 4.217117e-02 8.580021e-02 -2.724794e-01 -7.067946e-02 -3.322115e-01 -1.009310e-01 9.327386e-02 -1.119933e-01 -1.007714e-01 8.973736e-02 2.301645e-01 1.945806e-01 -9.680601e-02 1.650489e-02 1.087151e-01 -4.822649e-02 1.320894e-02 -9.150303e-02
<VARIANCE> 39
 5.137868e+01 1.074145e+02 7.562670e+01 1.516976e+02 2.019820e+02 8.714875e+01 9.767467e+01 6.854498e+01 7.297240e+01 6.793954e+01 6.896732e+01 6.821929e+01 1.172999e+02 1.158617e+00 1.649660e+00 3.706609e+00 1.728934e+00 2.981750e+00 3.264377e+00 3.555819e+00 3.174521e+00 3.568383e+00 3.273691e+00 3.106534e+00 2.407234e+00 1.291536e+00 1.508943e-01 2.307815e-01 2.682705e-01 3.141739e-01 4.172671e-01 5.379128e-01 6.315988e-01 5.723808e-01 7.143102e-01 5.215274e-01 5.809955e-01 4.159095e-01 1.250264e-01
<GCONST> 1.290566e+02
<STATE> 3
<MEAN> 39
 -5.283243e+00 3.907279e+00 1.074539e+01 8.594976e+00 -3.793971e+00 -4.031634e+00 -6.461314e+00 -1.106005e+01 -5.361113e+00 4.593054e-02 -3.067220e+00 -2.933407e+00 5.602660e+01 -7.390336e-01 -5.655926e-02 -7.318290e-01 -5.812072e-01 4.961520e-03 1.280415e+00 1.182689e+00 -5.771169e-02 4.753226e-01 3.735301e-01 -2.890490e-01 3.053405e-01 -8.018290e-01 -5.633827e-02 -1.272165e-01 -1.313054e-01 -9.709188e-02 -4.782327e-02 -1.051567e-01 2.708611e-02 2.302805e-01 8.114891e-02 -1.117680e-01 1.399828e-01 1.287525e-01 5.527504e-03
<VARIANCE> 39
 4.228623e+01 5.893409e+01 1.195421e+02 1.272414e+02 1.993500e+02 7.812402e+01 8.224693e+01 6.316464e+01 4.319563e+01 7.814001e+01 3.831770e+01 5.452344e+01 7.329602e+01 1.393165e+00 2.486820e+00 3.197489e+00 2.907854e+00 3.208637e+00 4.070835e+00 4.169014e+00 2.867323e+00 3.134652e+00 3.224228e+00 2.493721e+00 2.960175e+00 6.021215e-01 1.318422e-01 3.973843e-01 3.841105e-01 3.606921e-01 5.546336e-01 6.110169e-01 7.205679e-01 4.404501e-01 4.583629e-01 6.342706e-01 3.502329e-01 4.257209e-01 8.417808e-02
<GCONST> 1.269594e+02
<STATE> 4
<MEAN> 39
 -6.844575e+00 -3.398112e+00 2.817967e+00 3.843232e+00 -6.502483e+00 6.589389e-01 -2.795991e+00 -3.442533e+00 -1.583110e-01 -2.925650e+00 -3.365689e+00 3.442353e-01 4.627395e+01 -2.909965e-01 -2.743668e-01 -8.625289e-01 2.151081e-02 3.235512e-01 4.729541e-01 4.781998e-01 5.977650e-01 3.371818e-01 -2.988534e-02 3.784205e-01 2.608377e-01 -4.228897e-01 5.296535e-02 2.996047e-02 7.466606e-02 7.433360e-03 -1.465352e-02 -1.581390e-01 -6.187833e-02 -7.163251e-03 -6.835645e-02 -1.004943e-02 9.486963e-02 -3.947148e-02 9.289456e-02
<VARIANCE> 39
 5.567159e+01 1.038546e+02 3.618155e+01 1.038251e+02 1.159981e+02 8.155629e+01 6.783152e+01 6.608949e+01 4.006368e+01 4.850978e+01 5.527444e+01 4.383268e+01 1.237573e+02 9.690131e-01 1.484050e+00 1.862839e+00 2.569822e+00 2.102055e+00 2.261652e+00 2.921917e+00 2.080045e+00 2.710094e+00 2.770278e+00 2.569312e+00 1.993840e+00 3.798951e-01 1.039347e-01 1.880048e-01 2.572613e-01 3.371999e-01 3.295414e-01 4.018561e-01 3.598408e-01 3.555533e-01 4.231440e-01 6.020033e-01 5.239952e-01 3.805926e-01 7.832715e-02
<GCONST> 1.183071e+02
<TRANSP> 5
 0.000000e+00 1.000000e+00 0.000000e+00 0.000000e+00 0.000000e+00
 0.000000e+00 7.491848e-01 2.508152e-01 0.000000e+00 0.000000e+00
 0.000000e+00 0.000000e+00 6.824443e-01 3.175558e-01 0.000000e+00
 0.000000e+00 0.000000e+00 0.000000e+00 6.909735e-01 3.090265e-01
 0.000000e+00 0.000000e+00 0.000000e+00 0.000000e+00 0.000000e+00
<ENDHMM>
~h "ng"
<BEGINHMM>
<NUMSTATES> 5
<STATE> 2
<MEAN> 39
 -5.047143e+00 -7.455429e+00 4.331636e+00 5.765166e+00 7.202127e+00 -1.091893e+01 6.546134e+00 -1.015580e+01 -3.500864e+00 9.065289e+00 -3.733812e-02 -9.740088e+00 6.965321e+01 9.255570e-01 2.530736e-01 -4.823577e-01 6.783844e-01 3.960543e-02 2.623051e-01 -4.527843e-01 -3.502322e-02 -7.549329e-01 -1.416971e-01 -5.296301e-01 1.197182e-02 -5.773773e-01 2.871915e-01 2.703442e-01 -4.651420e-02 2.884857e-01 -1.447690e-01 1.175233e-01 -2.245918e-01 2.279952e-01 6.872025e-02 -3.313941e-01 -6.676773e-02 2.380630e-01 -2.532766e-01
<VARIANCE> 39
 6.119503e+01 4.506066e+01 2.554039e+01 3.279641e+01 3.327350e+01 4.746177e+01 4.771179e+01 3.643695e+01 8.082284e+01 8.658905e+01 3.586764e+01 2.333717e+01 2.221703e+01 5.279580e+00 3.122111e+00 1.621890e+00 2.199870e+00 2.496895e+00 6.612814e+00 4.872869e+00 6.923866e+00 9.585310e+00 1.306299e+01 1.581350e+00 2.479242e+00 2.179688e+00 1.572298e+00 5.282986e-01 2.841484e-01 3.585718e-01 5.205571e-01 1.109908e+00 1.008932e+00 1.050855e+00 1.786234e+00 1.790797e+00 3.658127e-01 3.916242e-01 5.604646e-01
<GCONST> 1.328931e+02
<STATE> 3
<MEAN> 39
 -5.225847e+00 4.659746e+00 8.068031e+00 1.577748e+01 -1.972656e+00 -4.752581e+00 1.812536e+00 -6.206724e+00 -5.292819e-01 -3.013240e+00 -3.715678e+00 -1.591356e+00 6.085624e+01 -2.775493e-01 -6.732816e-03 2.805435e-02 3.073267e-02 1.016510e-01 3.273399e-01 3.237616e-01 1.854497e-01 1.946632e-02 -3.172045e-02 1.061233e-01 1.206993e-01 -2.053303e-01 -4.678240e-02 -1.171759e-01 -7.353095e-02 -7.121028e-02 -1.295726e-02 -8.288702e-03 2.086629e-02 1.224440e-02 2.750808e-02 7.730658e-02 8.631559e-02 3.463788e-02 -1.001579e-03
<VARIANCE> 39
 2.271469e+01 6.296542e+01 2.475612e+01 1.661113e+01 3.922905e+01 3.931723e+01 3.751434e+01 1.961287e+01 2.495803e+01 2.802311e+01 1.875288e+01 2.328206e+01 8.168095e+00 1.452516e+00 5.742484e+00 2.700791e+00 1.625854e+00 1.925941e+00 3.492738e+00 3.126706e+00 1.946343e+00 2.482631e+00 2.374592e+00 1.878278e+00 1.560102e+00 8.314779e-01 2.035418e-01 8.759539e-01 5.253217e-01 3.502351e-01 3.728738e-01 5.846089e-01 6.282660e-01 3.773561e-01 5.093838e-01 4.999121e-01 3.868962e-01 2.971878e-01 1.724769e-01
<GCONST> 1.119427e+02
<STATE> 4
<MEAN> 39
 -9.887096e+00 1.666324e+00 2.000399e+00 1.052369e+01 2.366909e+00 3.308259e+00 8.637260e+00 -1.924278e-01 3.233443e+00 -1.751161e-01 1.729044e+00 -1.376549e-01 5.566469e+01 -5.670189e-02 -9.924988e-02 -1.150651e-01 -1.555869e-01 -1.199204e-01 -3.029964e-02 -1.360759e-02 1.450267e-03 2.777399e-02 -1.152240e-02 2.022117e-02 5.296849e-02 -5.155668e-02 1.801885e-02 1.450526e-02 2.100157e-02 2.862489e-02 1.094115e-02 -1.009756e-02 -1.807021e-02 -2.370066e-02 -2.782830e-02 -8.642946e-03 -3.260393e-02 -2.602734e-02 1.436176e-02
<VARIANCE> 39
 2.461514e+01 2.501577e+01 1.046847e+01 1.820544e+01 4.432422e+01 3.163401e+01 2.154485e+01 2.260561e+01 2.307266e+01 3.232070e+01 1.149608e+01 2.636833e+01 4.625063e+00 2.256107e-01 6.462522e-01 6.294475e-01 9.405033e-01 1.103589e+00 1.352621e+00 1.375045e+00 1.202379e+00 1.267952e+00 1.147200e+00 8.853956e-01 9.182670e-01 1.022035e-01 3.211952e-02 9.839816e-02 1.049204e-01 1.732402e-01 2.225599e-01 2.948293e-01 2.815658e-01 2.063255e-01 2.049561e-01 2.153234e-01 1.521238e-01 1.680766e-01 1.818042e-02
<GCONST> 8.085622e+01
<TRANSP> 5
 0.000000e+00 1.000000e+00 0.000000e+00 0.000000e+00 0.000000e+00
 0.000000e+00 8.297259e-01 1.702740e-01 0.000000e+00 0.000000e+00
 0.000000e+00 0.000000e+00 9.543196e-01 4.568042e-02 0.000000e+00
 0.000000e+00 0.000000e+00 0.000000e+00 9.723686e-01 2.763143e-02
 0.000000e+00 0.000000e+00 0.000000e+00 0.000000e+00 0.000000e+00
<ENDHMM>
~h "ow"
<BEGINHMM>
<NUMSTATES> 5
<STATE> 2
<MEAN> 39
 -5.019596e+00 1.612348e-01 -6.148089e+00 -8.910577e-01 1.389994e+00 -1.722277e+00 2.576302e+00 -2.961720e+00 -3.710054e+00 -2.111223e+00 -4.334357e-01 -3.743461e+00 6.069842e+01 1.279573e+00 -6.317922e-01 -4.959968e-01 -1.328240e+00 -3.672722e-01 -1.178411e+00 -3.963864e-01 -4.510335e-01 -7.877652e-01 -2.253264e-02 -4.023451e-01 -4.971480e-01 2.212648e+00 1.785053e-01 9.808192e-02 7.352149e-02 2.467386e-01 -2.131382e-02 -7.047611e-02 -2.447766e-01 7.628981e-02 1.618758e-01 -1.064924e-01 -1.675434e-02 -1.703370e-02 -1.180004e-01
<VARIANCE> 39
 9.533727e+01 8.827910e+01 6.314315e+01 1.072504e+02 1.871217e+02 1.351009e+02 1.282330e+02 1.029659e+02 1.118049e+02 7.096436e+01 6.488455e+01 6.411293e+01 2.566638e+02 7.618719e+00 3.544420e+00 3.690146e+00 9.161775e+00 7.270050e+00 9.712142e+00 7.863213e+00 7.420968e+00 8.976838e+00 5.795157e+00 6.859234e+00 4.371224e+00 7.515333e+00 1.093907e+00 5.551721e-01 6.418672e-01 1.486569e+00 1.160332e+00 1.414865e+00 1.230940e+00 1.216671e+00 1.274542e+00 9.175301e-01 1.194702e+00 7.896569e-01 1.403993e+00
<GCONST> 1.573229e+02
<STATE> 3
<MEAN> 39
 4.001118e+00 3.843447e+00 -7.223499e+00 -2.818841e+00 -3.360389e+00 -7.345033e+00 3.258512e+00 -5.906101e+00 -7.816384e+00 -7.790883e+00 1.819667e-01 -5.483391e+00 6.755383e+01 -2.288906e-02 2.096336e-01 2.218812e-03 4.555601e-01 7.210109e-02 2.530806e-01 -2.093958e-01 3.061102e-02 4.582293e-02 -5.275370e-01 3.676901e-02 4.231032e-01 -4.273319e-01 -2.176113e-01 8.994139e-02 1.081898e-01 1.320251e-01 9.128913e-02 2.459612e-01 5.300248e-02 -2.293708e-02 1.346484e-01 1.035014e-01 3.386741e-02 3.374937e-02 -2.238735e-01
<VARIANCE> 39
 3.863430e+01 5.317461e+01 4.897961e+01 1.234656e+02 9.271634e+01 1.894970e+02 1.067609e+02 1.089627e+02 9.271452e+01 7.389564e+01 1.345059e+02 1.000956e+02 1.044331e+02 8.934759e-01 1.210920e+00 1.728104e+00 2.484641e+00 2.650895e+00 4.222317e+00 2.882196e+00 3.847583e+00 3.615690e+00 2.505175e+00 3.501640e+00 2.619098e+00 8.752500e-01 1.329879e-01 1.862482e-01 2.351694e-01 4.356924e-01 5.228466e-01 6.298654e-01 5.170493e-01 6.869158e-01 6.447610e-01 4.935463e-01 5.378807e-01 4.938593e-01 1.202856e-01
<GCONST> 1.280690e+02
<STATE> 4
<MEAN> 39
 8.237638e-01 2.029272e+00 -5.861791e+00 -6.205053e+00 -9.190217e+00 1.971345e-01 -4.601401e+00 -1.918946e+00 -2.061084e+00 -3.362279e+00 -1.989536e+00 -5.150212e-02 5.069005e+01 -5.059629e-01 1.763039e-01 2.078616e-01 5.059052e-01 1.270932e-01 2.543167e-01 1.490455e-01 8.322424e-02 6.893948e-02 5.142181e-02 1.201579e-01 7.420819e-02 -6.941704e-01 -4.042464e-02 -5.441391e-02 -1.177675e-02 1.121861e-02 5.127435e-02 -1.124679e-02 2.150849e-02 -1.952147e-02 1.514651e-02 5.239818e-02 2.992057e-02 -9.902761e-03 7.493244e-03
<VARIANCE> 39
 6.262812e+01 1.089085e+02 5.472332e+01 9.668725e+01 1.387193e+02 1.132108e+02 8.685194e+01 6.117226e+01 5.678664e+01 7.118612e+01 4.251905e+01 4.534581e+01 1.452071e+02 8.086740e-01 1.379319e+00 1.233332e+00 1.770001e+00 2.216419e+00 2.441581e+00 2.130295e+00 2.034106e+00 2.118371e+00 1.961625e+00 1.884416e+00 1.578412e+00 4.252800e-01 6.447530e-02 1.617043e-01 1.795273e-01 2.382003e-01 3.026799e-01 3.416886e-01 3.413311e-01 3.266186e-01 3.123235e-01 3.477440e-01 3.342646e-01 2.605320e-01 3.981853e-02
<GCONST> 1.138069e+02
<TRANSP> 5
 0.000000e+00 1.000000e+00 0.000000e+00 0.000000e+00 0.000000e+00
 0.000000e+00 7.571117e-01 2.428883e-01 0.000000e+00 0.000000e+00
 0.000000e+00 0.000000e+00 7.592864e-01 2.407136e-01 0.000000e+00
 0.000000e+00 0.000000e+00 0.000000e+00 8.844757e-01 1.155243e-01
 0.000000e+00 0.000000e+00 0.000000e+00 0.000000e+00 0.000000e+00
<ENDHMM>
~h "sh"
<BEGINHMM>
<NUMSTATES> 5
<STATE> 2
<MEAN> 39
 -7.764453e+00 -2.526683e+00 9.313437e+00 1.019235e+01 -3.253058e+00 -1.092001e+01 -9.598003e-02 -2.190690e+00 2.919398e+00 -5.100808e+00 -2.141313e+00 1.043914e+00 6.533002e+01 -1.964002e+00 -2.624160e+00 7.117986e-01 6.058112e-01 1.054637e+00 1.832395e-01 5.953497e-01 2.050841e-01 7.353631e-01 3.334287e-01 2.592731e-01 7.182853e-01 2.138210e-01 -7.415553e-03 1.057485e-01 -1.266055e-01 -5.418674e-02 1.265974e-01 -1.389294e-01 -1.493095e-01 -1.425477e-01 -1.089973e-01 -2.269357e-01 -1.857690e-01 4.724838e-02 -1.225957e-02
<VARIANCE> 39
