~o
<STREAMINFO> 1 39
<VECSIZE> 39<NULLD><MFCC_D_A_0><DIAGC>
~h "b"
<BEGINHMM>
<NUMSTATES> 5
<STATE> 2
<MEAN> 39
 3.604339e+00 6.932862e+00 -6.456958e+00 2.019866e+00 1.048798e+01 -4.980462e+00 -3.790727e-01 -5.286126e+00 -1.252952e+01 -5.390424e+00 -2.255442e+00 -1.512228e+00 6.883060e+01 -1.915700e+00 -8.441862e-02 5.830495e-01 6.482036e-01 5.547749e-01 6.937756e-01 1.937451e+00 -1.740957e-01 -1.254499e-01 9.815460e-02 2.766217e-01 6.168134e-01 -1.169374e+00 -2.311019e-01 -2.312040e-01 -1.360607e-01 -3.993072e-01 -6.050641e-01 -5.729928e-02 3.398138e-02 2.961622e-01 7.021597e-01 2.551217e-02 4.944934e-02 1.106978e-01 -3.099745e-01
<VARIANCE> 39
 2.836412e+01 7.337677e+01 1.322507e+02 5.806066e+01 9.701795e+01 9.285511e+00 2.935912e+01 2.367274e+01 1.343193e+01 5.359589e+01 9.571428e-01 4.001743e+01 5.421080e+01 7.015378e-01 3.279085e+00 3.133307e+00 3.740690e+00 1.999510e+00 2.465559e+00 1.935171e+00 6.179018e+00 3.037089e+00 1.716280e+00 2.319807e-01 1.540499e+00 1.672738e+00 2.227947e-01 3.333185e-01 5.647077e-01 2.952581e-01 6.337692e-01 6.007904e-01 5.075783e-01 1.231421e+00 3.432154e-01 4.178265e-01 4.332964e-02 5.860590e-01 1.935633e-01
<GCONST> 1.112520e+02
<STATE> 3
<MEAN> 39
 -2.879450e+00 6.911570e+00 -7.264653e+00 1.587340e+00 3.665668e+00 -1.564581e+00 5.801040e+00 -7.853850e+00 -5.349978e+00 -3.194081e+00 -9.135374e-01 -1.818554e+00 6.067998e+01 -1.042348e+00 -1.374319e+00 -8.662320e-01 -8.211231e-01 -1.066560e+00 -9.158445e-02 -5.844173e-01 -1.756911e+00 9.886076e-01 2.545000e-01 1.271367e+00 -2.472764e-01 -5.612000e-01 3.201330e-01 8.460858e-02 3.935780e-01 -4.481824e-02 4.766854e-01 -6.784732e-01 -3.536565e-01 -2.053129e-01 -6.178944e-01 -7.096966e-02 1.039275e-01 -3.366973e-03 7.399546e-01
<VARIANCE> 39
 3.680975e+01 1.241098e+01 1.127960e+02 9.333778e+01 2.693099e+01 2.629766e+01 8.354328e+00 3.853560e+01 1.920272e+01 2.164343e+01 6.457122e+00 2.991750e+01 2.276294e+01 6.888417e-01 2.328303e+00 2.507092e+00 2.948793e+00 6.047159e+00 7.408474e+00 1.133453e+00 4.263191e+00 2.276628e+00 2.682138e+00 6.921310e-01 1.812539e+00 2.282544e+00 3.539901e-01 5.980267e-01 6.799141e-01 7.603114e-01 9.282470e-01 1.514411e+00 5.654358e-01 7.997248e-01 4.631476e-01 2.965528e-01 2.653656e-01 2.616516e-01 4.557641e-01
<GCONST> 1.164269e+02
<STATE> 4
<MEAN> 39
 -3.975327e+00 6.642663e+00 9.070659e-01 4.233528e+00 8.253386e+00 -6.279019e+00 -1.353746e+00 -9.315042e+00 -9.295032e+00 -8.864062e+00 1.105500e+00 -2.691539e+00 6.518158e+01 -2.011376e-01 -2.657634e-01 7.328320e-01 4.779862e-01 4.652084e-01 -4.502252e-01 8.252641e-04 -5.626532e-02 2.611534e-02 -4.445015e-02 -2.268118e-01 -1.390199e-01 5.563692e-01 1.401479e-01 -1.907433e-02 2.123977e-02 2.271873e-01 1.478983e-02 1.630512e-02 -3.226252e-02 6.730813e-02 1.255221e-02 3.513527e-02 -4.687169e-02 2.066795e-02 7.288816e-02
<VARIANCE> 39
 3.927793e+01 7.586059e+01 3.801856e+01 7.468943e+01 6.844545e+01 6.456007e+01 2.894392e+01 2.047854e+01 6.722513e+01 2.657129e+01 2.065421e+01 2.421798e+01 4.963631e+01 5.339952e+00 9.736607e+00 2.284625e+00 4.092654e+00 8.249567e+00 1.052721e+01 4.704634e+00 2.826078e+00 7.584961e+00 3.071827e+00 1.937303e+00 1.337623e+00 7.511943e+00 1.281428e+00 1.495408e+00 2.442328e-01 7.377150e-01 1.185967e+00 1.984252e+00 1.312115e+00 5.255658e-01 1.034415e+00 6.669496e-01 4.375995e-01 2.063951e-01 1.107876e+00
<GCONST> 1.361169e+02
<TRANSP> 5
 0.000000e+00 1.000000e+00 0.000000e+00 0.000000e+00 0.000000e+00
 0.000000e+00 6.666926e-01 3.333074e-01 0.000000e+00 0.000000e+00
 0.000000e+00 0.000000e+00 6.661511e-01 3.338489e-01 0.000000e+00
 0.000000e+00 0.000000e+00 0.000000e+00 8.620672e-01 1.379328e-01
 0.000000e+00 0.000000e+00 0.000000e+00 0.000000e+00 0.000000e+00
<ENDHMM>
~h "d"
<BEGINHMM>
<NUMSTATES> 5
<STATE> 2
<MEAN> 39
 -6.488761e+00 7.250608e+00 -3.111638e+00 4.912104e+00 -1.371171e+00 4.178087e+00 1.000689e+01 3.035362e+00 7.621069e+00 -6.104973e+00 -5.432565e+00 -9.347003e+00 5.671710e+01 -1.077388e+00 -9.917316e-01 -1.568705e-01 8.351519e-01 6.820829e-01 -6.401684e-02 -6.559746e-01 -8.126677e-02 7.663976e-01 5.556102e-01 3.666567e-01 5.228874e-01 -6.377319e-01 9.220809e-02 -1.861538e-02 -1.205292e-01 -5.507090e-02 -1.305231e-02 -2.939593e-01 -3.274328e-01 -2.308061e-01 -4.272824e-01 -1.777625e-01 9.721748e-02 1.833124e-01 6.415908e-02
<VARIANCE> 39
 1.878393e+01 2.736197e+01 3.362780e+01 2.383452e+01 1.383490e+01 1.899025e+01 2.129759e+01 1.527121e+01 2.094279e+01 2.103712e+01 2.348446e+01 2.178150e+01 4.833435e+00 6.983848e-01 5.692454e-01 6.768576e-01 1.221242e+00 1.840432e+00 1.437356e+00 2.170194e+00 2.202171e+00 3.427293e+00 7.115960e-01 2.048934e+00 1.004270e+00 2.294254e-01 9.204210e-02 1.367129e-01 1.535486e-01 2.677651e-01 2.103680e-01 2.994079e-01 2.855595e-01 2.740531e-01 3.486131e-01 1.371720e-01 3.270631e-01 1.465516e-01 2.148651e-02
<GCONST> 8.862973e+01
<STATE> 3
<MEAN> 39
 -1.326086e+01 3.501784e+00 -4.054074e+00 7.353539e+00 2.006113e+00 3.385161e+00 6.132214e+00 1.672705e+00 6.927149e+00 -6.284398e+00 -7.606496e-01 -6.033986e+00 5.062178e+01 -1.175123e-01 1.928541e-02 3.876772e-02 1.516634e-02 -2.505657e-02 9.695238e-03 3.519936e-02 5.971070e-02 -1.033672e-02 -2.317349e-02 4.112489e-02 4.909185e-02 -1.653526e-01 2.392755e-02 1.175774e-02 1.415283e-03 7.217001e-04 -2.883860e-02 -1.029066e-02 -6.384874e-03 6.421513e-03 1.092453e-03 -7.902334e-05 -1.847575e-02 -2.871980e-02 1.245376e-02
<VARIANCE> 39
 4.116760e+00 4.086844e+00 1.286959e+01 1.466863e+01 1.373645e+01 1.424558e+01 1.341020e+01 1.546181e+01 1.232044e+01 1.293823e+01 1.220432e+01 1.113822e+01 1.175962e+01 1.807747e-01 2.936148e-01 5.698439e-01 8.289654e-01 9.610363e-01 8.873883e-01 9.344100e-01 1.152486e+00 9.700238e-01 7.900646e-01 1.036202e+00 8.180034e-01 6.623385e-02 3.421614e-02 6.013931e-02 9.604803e-02 1.601063e-01 2.227654e-01 1.654843e-01 1.646052e-01 2.241435e-01 2.036790e-01 1.522601e-01 2.107260e-01 1.350075e-01 1.181263e-02
<GCONST> 6.745003e+01
<STATE> 4
<MEAN> 39
 -1.495768e+01 -2.972237e-01 -4.354058e-02 1.044822e+01 -1.581293e+00 4.008375e-01 6.147699e+00 -7.334710e-01 4.424180e+00 -1.753765e+00 7.099450e-02 -5.122085e-02 5.040877e+01 -1.528383e-02 -1.603197e-02 -2.262156e-02 2.777397e-02 1.129793e-02 4.149348e-02 3.309875e-02 2.943081e-02 1.272385e-02 -3.179741e-03 -8.170092e-03 5.706139e-03 -4.700988e-02 1.366941e-02 -1.120599e-02 -3.201173e-03 1.499692e-02 3.224187e-02 1.619124e-02 5.208902e-03 -1.142695e-03 -7.959502e-03 -1.702015e-02 -1.332945e-03 3.975879e-03 1.918176e-02
<VARIANCE> 39
 7.546784e+00 2.774373e+01 5.756951e+00 1.049422e+01 3.937425e+01 3.308771e+01 1.610563e+01 1.614777e+01 1.890830e+01 2.637173e+01 1.471818e+01 4.327673e+01 6.545164e+01 2.061246e-01 7.716355e-01 5.923762e-01 9.681016e-01 8.548636e-01 1.126058e+00 1.531656e+00 1.382627e+00 1.691365e+00 1.169017e+00 1.279636e+00 1.302943e+00 2.715987e-01 4.949118e-02 1.751845e-01 1.225680e-01 2.052718e-01 1.697365e-01 1.999631e-01 3.198444e-01 2.845999e-01 3.624311e-01 2.472542e-01 2.622686e-01 2.484851e-01 5.335298e-02
<GCONST> 8.662891e+01
<TRANSP> 5
 0.000000e+00 1.000000e+00 0.000000e+00 0.000000e+00 0.000000e+00
 0.000000e+00 8.113809e-01 1.886192e-01 0.000000e+00 0.000000e+00
 0.000000e+00 0.000000e+00 9.645973e-01 3.540265e-02 0.000000e+00
 0.000000e+00 0.000000e+00 0.000000e+00 9.725886e-01 2.741138e-02
 0.000000e+00 0.000000e+00 0.000000e+00 0.000000e+00 0.000000e+00
<ENDHMM>
~h "f"
<BEGINHMM>
<NUMSTATES> 5
<STATE> 2
<MEAN> 39
 -1.432171e+01 1.295643e+00 -5.257602e+00 7.999506e+00 4.621417e+00 1.154215e+00 7.593196e+00 -3.274389e+00 2.041755e+00 -3.694449e+00 8.516993e-01 -1.260244e+00 5.947321e+01 -6.015260e-01 -2.199018e-01 -7.038609e-02 -9.688439e-02 2.233970e-01 -8.979786e-02 1.017419e-01 7.811680e-02 2.376071e-01 -1.159434e-02 -3.720949e-04 2.021763e-01 2.384834e-01 1.814680e-01 5.227432e-02 3.666952e-03 -5.497657e-02 -2.721282e-02 -8.877379e-02 -1.089095e-01 -6.138170e-02 -8.781935e-02 -6.821745e-03 -1.960120e-02 -7.711168e-02 8.217519e-03
<VARIANCE> 39
 6.593530e+01 5.604709e+01 4.790522e+01 5.970638e+01 8.944260e+01 8.694610e+01 4.425805e+01 4.912138e+01 5.763685e+01 5.464906e+01 3.683264e+01 4.936470e+01 9.406641e+01 2.259206e+00 2.238956e+00 1.577167e+00 1.727595e+00 2.759104e+00 2.629861e+00 2.902684e+00 2.603726e+00 2.818294e+00 2.288043e+00 2.282691e+00 2.036935e+00 9.631274e-01 3.796537e-01 3.946760e-01 2.897980e-01 3.293986e-01 5.502424e-01 4.948681e-01 5.877652e-01 5.007109e-01 4.866685e-01 4.354425e-01 4.470166e-01 3.947440e-01 1.489931e-01
<GCONST> 1.226282e+02
<STATE> 3
<MEAN> 39
 -1.834007e+01 -5.387100e-01 -4.493418e+00 3.717941e+00 7.404349e+00 -1.358693e+00 4.665861e+00 -5.191747e+00 -1.421353e+00 -2.151769e+00 9.667032e-01 -6.048789e-01 5.589268e+01 2.775209e+00 9.504471e-01 -5.581923e-01 -1.402685e+00 -1.054809e+00 -6.685038e-01 -7.733358e-01 -4.061854e-01 -2.862830e-01 -1.704457e-01 -6.168665e-01 -6.873785e-01 6.914335e-01 1.178820e+00 3.649905e-01 -8.055850e-02 -4.210908e-01 -7.770054e-01 -3.586775e-01 -1.793078e-01 -7.033259e-02 -1.073948e-01 -4.308827e-02 -2.049374e-01 -2.331504e-01 4.896367e-01
<VARIANCE> 39
 5.426155e+01 5.428487e+01 4.695760e+01 6.813594e+01 1.116366e+02 7.440459e+01 7.727863e+01 6.193035e+01 5.777660e+01 1.066740e+02 5.139138e+01 4.322274e+01 1.505757e+02 1.043268e+01 6.415250e+00 3.677804e+00 7.364594e+00 7.431836e+00 5.846938e+00 4.869488e+00 4.625948e+00 4.928076e+00 4.992471e+00 2.501447e+00 3.218957e+00 3.338866e+00 8.107054e-01 8.307222e-01 6.005350e-01 1.177286e+00 1.251817e+00 1.187988e+00 9.626002e-01 8.787295e-01 9.600773e-01 9.939406e-01 5.618272e-01 7.157074e-01 5.117769e-01
<GCONST> 1.454240e+02
<STATE> 4
<MEAN> 39
 -1.983650e-01 -2.997259e+00 -2.559896e+00 -5.659823e+00 -9.215271e+00 -8.209340e-01 -2.382298e+00 -5.340573e+00 -1.466198e+00 -5.972647e+00 -7.760988e-01 -2.404758e+00 5.580581e+01 3.990695e+00 7.541863e-01 -6.910611e-01 -2.448166e+00 -2.150133e+00 -1.051157e+00 -6.632481e-01 -4.058449e-01 -4.718563e-01 -4.488271e-01 -2.683015e-01 -8.299240e-01 2.347069e+00 -7.542651e-01 -5.312582e-01 -4.588760e-02 2.922704e-01 2.675281e-01 5.011849e-02 1.621039e-01 1.868758e-01 1.722156e-01 1.955033e-01 2.037733e-01 9.172052e-02 -5.107769e-02
<VARIANCE> 39
 5.033265e+01 2.549162e+02 8.167933e+01 1.406042e+02 1.522967e+02 8.480193e+01 6.809818e+01 6.696809e+01 4.709769e+01 3.250941e+01 3.615169e+01 3.010104e+01 1.308766e+02 1.048311e+01 6.788792e+00 3.829323e+00 9.325885e+00 7.453309e+00 8.176263e+00 5.025606e+00 4.746780e+00 4.267312e+00 4.288966e+00 4.444246e+00 3.858583e+00 5.330983e+00 9.937329e-01 7.180041e-01 4.189797e-01 1.069359e+00 6.088821e-01 6.057723e-01 4.455688e-01 5.555837e-01 4.814366e-01 5.584978e-01 4.654493e-01 4.328025e-01 5.443195e-01
<GCONST> 1.430641e+02
<TRANSP> 5
 0.000000e+00 1.000000e+00 0.000000e+00 0.000000e+00 0.000000e+00
 0.000000e+00 8.961892e-01 1.038108e-01 0.000000e+00 0.000000e+00
 0.000000e+00 0.000000e+00 6.951000e-01 3.049000e-01 0.000000e+00
 0.000000e+00 0.000000e+00 0.000000e+00 5.741481e-01 4.258519e-01
 0.000000e+00 0.000000e+00 0.000000e+00 0.000000e+00 0.000000e+00
<ENDHMM>
~h "g"
<BEGINHMM>
<NUMSTATES> 5
<STATE> 2
<MEAN> 39
 -6.994285e+00 5.253245e+00 -3.061897e+00 9.803374e+00 2.043496e+00 1.939906e+00 5.802534e+00 -2.176931e+00 5.030729e+00 -5.877084e+00 1.513923e-01 -4.003101e+00 6.210601e+01 3.421539e-01 4.955654e-01 2.469972e-01 2.295133e-01 4.549574e-01 -1.531323e-02 -1.988655e-01 -5.270319e-02 -1.053405e-01 -1.183215e-01 -7.420933e-02 -1.738863e-01 1.171526e-01 -4.779760e-03 2.395773e-02 4.542366e-02 -4.464319e-02 -4.329908e-02 -2.230426e-03 -9.061214e-03 4.933006e-02 -7.553876e-04 5.713709e-02 1.424839e-01 3.953511e-02 -3.078406e-02
<VARIANCE> 39
 4.506902e+01 5.551756e+01 6.156601e+01 2.738824e+01 5.221303e+01 3.113710e+01 3.253919e+01 4.106163e+01 4.521953e+01 3.381061e+01 1.693995e+01 4.510035e+01 3.393143e+01 1.395893e+00 2.766860e+00 2.595392e+00 1.947149e+00 1.763033e+00 1.410966e+00 2.742078e+00 2.243454e+00 2.983972e+00 1.775961e+00 1.797520e+00 2.078247e+00 5.520158e-01 2.374106e-01 3.728656e-01 4.141592e-01 3.757369e-01 3.004972e-01 2.363338e-01 5.638300e-01 4.485256e-01 5.714965e-01 3.026761e-01 2.767655e-01 4.247645e-01 9.254811e-02
<GCONST> 1.125296e+02
<STATE> 3
<MEAN> 39
 -6.065880e+00 8.700086e+00 -1.172123e+00 1.124598e+01 1.552885e+00 3.731938e+00 6.960036e+00 -5.005113e-02 6.143412e+00 -4.603903e+00 3.512206e+00 -4.543008e+00 5.955556e+01 -2.567068e-02 -1.405182e-02 8.803456e-02 -9.741905e-02 -1.139431e-01 -4.951798e-02 -2.064688e-02 2.890747e-01 4.983154e-02 1.772639e-01 2.317138e-02 1.539100e-01 -8.963627e-02 -4.444511e-02 -1.336457e-01 -1.367918e-01 -1.185303e-01 6.372102e-03 -3.028560e-02 1.140658e-02 -2.920173e-02 -1.273337e-01 -3.255785e-02 -1.327785e-01 3.516853e-02 8.272015e-02
<VARIANCE> 39
 9.107933e+01 4.461030e+01 6.434147e+01 3.039552e+01 4.200170e+01 2.854754e+01 2.820454e+01 3.111602e+01 3.488057e+01 4.128259e+01 2.353793e+01 3.683835e+01 2.671056e+01 1.871752e-01 3.387791e-01 5.542036e-01 7.619417e-01 1.140914e+00 1.257128e+00 1.214559e+00 1.105279e+00 1.514244e+00 1.577634e+00 1.642582e+00 1.111853e+00 8.000452e-02 9.807406e-02 1.295572e-01 1.619778e-01 2.137738e-01 2.592598e-01 2.057745e-01 2.297270e-01 2.671151e-01 4.856073e-01 3.916821e-01 3.000112e-01 2.428036e-01 5.046300e-02
<GCONST> 9.402061e+01
<STATE> 4
<MEAN> 39
 -3.161489e+00 6.685658e+00 -3.909952e+00 7.095494e+00 1.844542e+00 -9.504821e-01 3.966350e+00 1.216036e+00 3.056504e+00 -8.829504e+00 1.737250e+00 -6.830816e+00 6.523998e+01 -9.530731e-02 -4.099999e-01 -3.764480e-01 -6.045284e-01 -1.949197e-01 -1.700999e-01 1.289715e-01 -9.381631e-02 -2.938031e-01 3.271290e-02 -1.105066e-01 9.026266e-02 5.307219e-01 -1.893935e-02 -1.735513e-01 -1.991592e-01 -3.481483e-01 7.346918e-03 -9.702183e-02 3.144464e-01 -3.152682e-01 -4.309452e-01 -5.952167e-02 -3.985129e-02 -4.488621e-02 4.425478e-01
<VARIANCE> 39
 6.887154e+01 3.943449e+01 5.318557e+01 4.191472e+01 4.193127e+01 8.425189e+01 3.024397e+01 3.286397e+01 3.066453e+01 8.525315e+01 2.145877e+01 4.158085e+01 6.860659e+01 2.865010e+00 1.920413e+00 2.946079e+00 2.834808e+00 2.521049e+00 4.002929e+00 3.627950e+00 2.592462e+00 2.913567e+00 4.640943e+00 2.489606e+00 2.232399e+00 1.718839e+00 6.381174e-01 3.092016e-01 4.192749e-01 5.348792e-01 5.638844e-01 8.724864e-01 7.919830e-01 6.945620e-01 7.809750e-01 9.946679e-01 6.465265e-01 4.495008e-01 5.087720e-01
<GCONST> 1.279086e+02
<TRANSP> 5
 0.000000e+00 1.000000e+00 0.000000e+00 0.000000e+00 0.000000e+00
 0.000000e+00 8.257478e-01 1.742522e-01 0.000000e+00 0.000000e+00
 0.000000e+00 0.000000e+00 7.952230e-01 2.047771e-01 0.000000e+00
 0.000000e+00 0.000000e+00 0.000000e+00 7.547885e-01 2.452115e-01
 0.000000e+00 0.000000e+00 0.000000e+00 0.000000e+00 0.000000e+00
<ENDHMM>
~h "k"
<BEGINHMM>
<NUMSTATES> 5
<STATE> 2
<MEAN> 39
 -1.267586e+01 1.368654e+00 2.003121e+00 2.937700e+00 3.010137e-03 1.289794e+00 2.696343e+00 -4.257356e+00 -2.125268e-01 -4.557676e+00 -4.453388e-01 -2.162902e+00 5.553819e+01 -6.451744e-01 4.928521e-01 2.940131e-01 -2.342123e-02 -1.833766e-01 -6.745002e-02 7.253648e-02 5.457731e-01 -3.554071e-01 -2.133727e-02 9.921467e-02 -4.786803e-04 -6.084374e-01 7.969007e-02 -3.180404e-02 4.009852e-02 4.532446e-02 -5.490915e-02 -2.527036e-01 -1.335202e-01 -2.218655e-01 8.445044e-02 3.088668e-01 1.579636e-01 2.539878e-02 4.417945e-02
<VARIANCE> 39
 1.097232e+02 6.641405e+01 1.180779e+02 7.481110e+01 8.114278e+01 1.140753e+02 1.112503e+02 8.312030e+01 4.677660e+01 5.761332e+01 4.557755e+01 4.397093e+01 1.359875e+02 4.533529e-01 1.539462e+00 3.071202e+00 1.700637e+00 2.879600e+00 1.855434e+00 2.053075e+00 2.284748e+00 1.510538e+00 2.477775e+00 2.246095e+00 1.597788e+00 5.272279e-01 1.292172e-01 2.433482e-01 4.212660e-01 3.126959e-01 4.794474e-01 4.278045e-01 5.711300e-01 5.429596e-01 4.244788e-01 3.940787e-01 4.224002e-01 2.384357e-01 1.130497e-01
<GCONST> 1.203044e+02
<STATE> 3
<MEAN> 39
 -1.356967e+01 -8.631644e-02 6.623622e-01 2.148751e+00 -2.516674e+00 -2.128775e+00 3.693894e-01 -4.618672e+00 2.254936e-01 -3.215418e+00 -6.035425e-01 -7.445987e-01 5.270765e+01 -5.054090e-01 2.966299e-01 6.203054e-02 2.224013e-01 5.755115e-02 -1.189453e-01 -6.586464e-02 2.528337e-01 2.338883e-01 5.252086e-01 1.962083e-01 2.172860e-01 -5.803607e-01 1.441027e-01 -9.736498e-02 -2.193239e-02 1.131954e-01 8.648078e-02 -8.112951e-02 7.342533e-02 -2.267664e-01 8.183787e-02 1.180263e-01 2.835119e-02 -2.862540e-02 1.310588e-01
<VARIANCE> 39
 9.543685e+01 5.667585e+01 1.097437e+02 5.533165e+01 5.716223e+01 1.114151e+02 9.618815e+01 5.959470e+01 4.253557e+01 4.638560e+01 3.761534e+01 3.340759e+01 1.600292e+02 3.769333e-01 1.123772e+00 2.179955e+00 1.591408e+00 1.950095e+00 1.689312e+00 2.802077e+00 2.498062e+00 2.579632e+00 1.936726e+00 2.340913e+00 1.246294e+00 4.288602e-01 6.476710e-02 1.380607e-01 2.388267e-01 1.903318e-01 2.755243e-01 2.496089e-01 2.475745e-01 4.499781e-01 2.716351e-01 3.144211e-01 2.528807e-01 1.821149e-01 4.406200e-02
<GCONST> 1.102122e+02
<STATE> 4
<MEAN> 39
 -2.343957e+00 -2.155352e-02 -1.831538e+00 5.034142e+00 3.443023e+00 5.809854e+00 5.018781e+00 5.573383e-01 2.534633e+00 -4.833978e+00 6.485915e-01 -2.871497e+00 5.711716e+01 -3.734548e-02 3.554147e-02 1.491104e-02 8.301345e-02 7.420336e-02 6.978779e-03 3.373396e-02 -3.642617e-02 4.333414e-02 6.208021e-02 5.601634e-03 2.074015e-02 -4.703655e-02 1.671299e-02 -3.471560e-02 -2.334013e-02 -2.084886e-03 1.497697e-03 -1.354263e-02 1.649670e-02 -7.805521e-03 -4.149574e-03 -2.760147e-02 -1.115028e-02 -4.952833e-05 1.943147e-02
<VARIANCE> 39
 5.786261e+01 5.530757e+01 3.149521e+01 2.663356e+01 5.147753e+01 3.627090e+01 3.806763e+01 2.975497e+01 2.352504e+01 3.328893e+01 2.401556e+01 2.836615e+01 9.611965e+01 2.739571e-01 5.368695e-01 7.535393e-01 1.088577e+00 1.148033e+00 1.416217e+00 1.578465e+00 1.764906e+00 2.004587e+00 1.897094e+00 1.880353e+00 1.258225e+00 1.041953e-01 5.386918e-02 1.026332e-01 1.509819e-01 1.807466e-01 2.300014e-01 2.979768e-01 2.984243e-01 3.238168e-01 3.971914e-01 3.894808e-01 3.988862e-01 2.432017e-01 2.479736e-02
<GCONST> 9.641612e+01
<TRANSP> 5
 0.000000e+00 1.000000e+00 0.000000e+00 0.000000e+00 0.000000e+00
 0.000000e+00 4.513228e-07 9.999995e-01 0.000000e+00 0.000000e+00
 0.000000e+00 0.000000e+00 3.263366e-01 6.736634e-01 0.000000e+00
 0.000000e+00 0.000000e+00 0.000000e+00 8.646071e-01 1.353929e-01
 0.000000e+00 0.000000e+00 0.000000e+00 0.000000e+00 0.000000e+00
<ENDHMM>
~h "l"
<BEGINHMM>
<NUMSTATES> 5
<STATE> 2
<MEAN> 39
 -4.806161e+00 5.203766e+00 3.146882e+00 7.655113e+00 2.181881e+00 2.473056e+00 6.454537e+00 -1.183336e-01 3.327619e+00 -4.820914e+00 -1.472199e+00 -4.781202e+00 5.767200e+01 -3.216298e-01 -8.010480e-02 3.622197e-02 1.045823e-02 3.727704e-02 2.632916e-01 8.848642e-02 2.496280e-01 3.162319e-01 1.244636e-01 8.188909e-02 -6.645719e-02 -2.980552e-01 -1.422500e-02 -4.550323e-02 8.003358e-03 3.896818e-02 1.262465e-02 -5.367851e-02 -7.704438e-02 -9.043831e-02 -5.988347e-02 -4.118430e-02 3.954818e-03 1.914995e-02 8.212410e-03
<VARIANCE> 39
 2.416145e+01 2.862901e+01 2.943813e+01 4.050157e+01 5.575011e+01 3.151526e+01 2.172906e+01 3.631085e+01 2.608176e+01 2.695305e+01 1.745763e+01 2.959496e+01 2.159949e+01 5.308080e-01 9.162627e-01 1.526735e+00 1.326426e+00 1.893238e+00 1.524841e+00 1.931906e+00 1.737247e+00 1.959835e+00 1.560753e+00 1.198626e+00 1.183241e+00 1.864042e-01 6.682988e-02 1.438892e-01 2.232331e-01 2.598511e-01 3.353278e-01 3.016169e-01 3.659694e-01 3.375015e-01 3.361504e-01 2.600602e-01 1.825580e-01 1.956888e-01 2.469982e-02
<GCONST> 9.601690e+01
<STATE> 3
<MEAN> 39
 -1.384809e+01 9.121867e-01 -1.129469e+00 6.599068e+00 -5.437713e+00 -2.608644e+00 5.294584e+00 -3.964637e+00 2.517882e+00 3.869786e-01 -5.754240e-01 2.263243e+00 5.348218e+01 -1.107663e-01 -4.486367e-03 -2.871008e-02 2.733106e-03 2.559478e-02 1.998434e-02 -3.417933e-04 5.042804e-03 7.464602e-02 4.377889e-02 5.719495e-02 1.491372e-02 -1.312416e-01 1.996028e-02 1.974742e-02 2.865058e-02 2.676742e-02 2.109238e-02 1.572733e-02 2.305564e-02 1.017517e-02 -1.410048e-02 -1.577488e-02 -4.315698e-02 -3.577773e-02 1.725481e-02
<VARIANCE> 39
 1.084730e+01 2.016340e+01 8.625937e+00 9.347180e+00 1.815461e+01 1.513551e+01 1.673330e+01 1.747880e+01 1.522940e+01 1.738280e+01 1.307053e+01 1.746764e+01 1.240862e+01 2.676074e-01 5.797284e-01 5.280427e-01 6.748858e-01 8.483731e-01 1.114296e+00 1.570583e+00 1.560728e+00 1.364176e+00 1.447563e+00 1.394084e+00 1.247612e+00 2.022262e-01 5.102790e-02 8.769365e-02 8.747508e-02 1.238410e-01 1.705699e-01 2.160461e-01 3.351218e-01 3.151816e-01 2.797785e-01 3.382362e-01 3.046871e-01 2.282622e-01 3.522646e-02
<GCONST> 8.000508e+01
<STATE> 4
<MEAN> 39
 -1.104837e+01 3.783777e+00 7.495313e-01 1.009844e+01 3.947570e+00 4.827893e+00 5.711096e+00 1.473363e-01 4.390069e+00 -6.156909e+00 1.231004e-01 -5.295170e+00 5.115144e+01 -3.268582e-02 -1.838363e-02 -2.074113e-03 3.476136e-02 3.722874e-02 6.937710e-02 3.624905e-02 6.129430e-02 -9.811638e-03 5.310712e-03 -5.038764e-03 -3.067628e-03 -7.540069e-02 1.327828e-03 -7.720407e-04 -5.139301e-03 -8.112228e-03 1.055788e-02 -1.053062e-02 2.320779e-03 7.024531e-03 -5.467608e-03 6.103617e-03 -1.846157e-03 -2.105144e-04 8.080469e-03
<VARIANCE> 39
 8.902671e+01 8.311428e+00 1.388171e+01 2.285926e+01 1.254856e+01 1.385940e+01 1.479683e+01 1.995634e+01 1.582994e+01 1.523398e+01 1.629218e+01 1.372433e+01 8.646507e+01 1.129776e-01 2.426430e-01 4.493565e-01 5.347018e-01 8.413508e-01 1.100316e+00 1.248417e+00 1.289658e+00 1.172351e+00 1.184366e+00 1.049929e+00 9.680666e-01 4.011790e-02 2.026595e-02 4.610600e-02 9.080289e-02 1.058344e-01 1.632790e-01 2.182653e-01 2.596479e-01 2.666067e-01 2.552186e-01 2.330271e-01 2.099082e-01 1.924774e-01 8.450623e-03
<GCONST> 7.432028e+01
<TRANSP> 5
 0.000000e+00 1.000000e+00 0.000000e+00 0.000000e+00 0.000000e+00
 0.000000e+00 8.782329e-01 1.217671e-01 0.000000e+00 0.000000e+00
 0.000000e+00 0.000000e+00 9.152104e-01 8.478959e-02 0.000000e+00
 0.000000e+00 0.000000e+00 0.000000e+00 9.523347e-01 4.766526e-02
 0.000000e+00 0.000000e+00 0.000000e+00 0.000000e+00 0.000000e+00
<ENDHMM>
~h "m"
<BEGINHMM>
<NUMSTATES> 5
<STATE> 2
<MEAN> 39
 5.460877e+00 1.250881e+01 6.537507e+00 6.797733e+00 -7.718052e+00 -9.209302e+00 -1.683724e+00 -7.779887e+00 -3.326448e+00 -8.484053e+00 -6.947446e+00 5.999548e-01 6.541818e+01 -1.895975e-03 3.860757e-02 4.016272e-02 5.475141e-02 -9.710372e-04 1.918639e-04 6.747693e-03 3.659235e-02 4.287821e-02 8.464637e-03 -1.650233e-02 -1.955302e-02 -1.629794e-02 -2.239669e-02 -2.960943e-02 -1.009041e-02 1.745938e-02 4.807116e-02 1.460396e-02 4.087910e-03 -6.338554e-03 -2.240753e-02 5.136829e-03 7.126892e-03 1.823648e-02 -5.515461e-03
<VARIANCE> 39
 4.042839e+01 2.785113e+01 5.851099e+01 4.124504e+01 3.778409e+01 3.603513e+01 6.795561e+01 2.787296e+01 4.300558e+01 2.324672e+01 2.060928e+01 3.706520e+01 8.993563e+00 1.634216e+00 1.145725e+00 1.990148e+00 1.841186e+00 1.911503e+00 2.069264e+00 3.129579e+00 1.688152e+00 2.634905e+00 1.338990e+00 1.253698e+00 2.122309e+00 2.833630e-01 1.843398e-01 1.700812e-01 1.910014e-01 2.020167e-01 2.903042e-01 2.397113e-01 3.865117e-01 3.040042e-01 4.450072e-01 1.955350e-01 2.098185e-01 3.049677e-01 4.145843e-02
<GCONST> 1.030439e+02
<STATE> 3
<MEAN> 39
 -5.937944e+00 7.485995e+00 7.070222e+00 1.470096e+01 -7.062545e-01 -5.929698e+00 2.172920e+00 -7.209008e+00 -2.039652e+00 -4.381535e+00 -3.117913e+00 -2.554353e+00 5.950424e+01 -2.304482e-01 -3.381368e-01 -1.071862e-01 6.290634e-02 1.162122e-01 5.237693e-02 5.961739e-02 9.550056e-02 2.116769e-03 -2.611462e-02 -1.850359e-02 8.317830e-02 -6.292209e-02 -1.530297e-02 -1.850860e-02 -3.744508e-02 -1.172747e-01 -6.926915e-02 -1.155264e-02 3.182072e-03 3.459672e-03 5.989419e-04 2.004592e-02 8.448162e-03 1.430598e-02 -5.287561e-03
<VARIANCE> 39
 3.403694e+01 7.564741e+01 3.351477e+01 2.607722e+01 2.907023e+01 8.724933e+01 5.274074e+01 3.054203e+01 2.524796e+01 3.298466e+01 1.657909e+01 2.920843e+01 1.504118e+01 1.661211e+00 3.360813e+00 1.834157e+00 1.869763e+00 1.767706e+00 3.344756e+00 2.746496e+00 2.092020e+00 1.870198e+00 2.365021e+00 1.648463e+00 9.864398e-01 7.451919e-01 1.799228e-01 4.548226e-01 2.792344e-01 2.773247e-01 3.307893e-01 5.007498e-01 4.365152e-01 2.875997e-01 3.233249e-01 4.039587e-01 3.036775e-01 1.549215e-01 9.438370e-02
<GCONST> 1.089145e+02
<STATE> 4
<MEAN> 39
 -1.362936e+01 -2.006603e-01 -1.595990e+00 7.684065e+00 -4.427388e+00 -9.150664e-01 4.583772e+00 -3.693037e+00 3.573015e+00 -1.286933e+00 -1.666631e-01 4.555148e-01 5.303831e+01 -8.952364e-02 -4.334793e-02 -5.204260e-02 -7.359518e-02 -6.032741e-02 -3.637855e-02 2.600097e-02 -2.157416e-03 2.734683e-02 7.771128e-02 1.060033e-01 8.292533e-02 -9.874488e-02 2.918029e-02 4.662720e-03 -1.040375e-03 3.927711e-03 1.635850e-02 -1.753599e-03 8.178141e-03 1.206278e-02 9.160252e-03 -1.207598e-02 -2.354736e-02 -2.238863e-02 1.533641e-02
<VARIANCE> 39
 1.473200e+01 3.107066e+01 1.105832e+01 1.926367e+01 4.781511e+01 3.244160e+01 1.482790e+01 1.602641e+01 1.643479e+01 3.051195e+01 1.426901e+01 3.114572e+01 2.923148e+01 2.139689e-01 7.095639e-01 6.777571e-01 6.127965e-01 8.944004e-01 1.087059e+00 1.558743e+00 1.284113e+00 1.525845e+00 1.529042e+00 1.270833e+00 9.842120e-01 2.194624e-01 4.648696e-02 1.366189e-01 1.331127e-01 1.074394e-01 1.729023e-01 2.224932e-01 3.168711e-01 2.561338e-01 3.195615e-01 3.276631e-01 2.641391e-01 1.858593e-01 4.483300e-02
<GCONST> 8.567728e+01
<TRANSP> 5
 0.000000e+00 1.000000e+00 0.000000e+00 0.000000e+00 0.000000e+00
 0.000000e+00 9.302498e-01 6.975023e-02 0.000000e+00 0.000000e+00
 0.000000e+00 0.000000e+00 9.134433e-01 8.655665e-02 0.000000e+00
 0.000000e+00 0.000000e+00 0.000000e+00 9.329134e-01 6.708661e-02
 0.000000e+00 0.000000e+00 0.000000e+00 0.000000e+00 0.000000e+00
<ENDHMM>
~h "n"
<BEGINHMM>
<NUMSTATES> 5
<STATE> 2
<MEAN> 39
 -3.465403e-01 1.254822e+00 1.237441e+00 4.774489e+00 5.789578e-01 -6.558852e+00 -2.058357e+00 -4.903008e+00 -1.962938e+00 -2.567095e+00 -3.183875e+00 -2.414191e+00 5.891089e+01 1.089399e-01 1.180993e+00 9.121739e-01 5.597869e-01 -2.323801e-01 4.599988e-01 -8.808637e-02 -5.363548e-01 -1.946320e-01 -5.525974e-02 -2.592759e-01 -2.944181e-01 -6.005057e-01 -1.175886e-02 -2.875723e-02 -6.635350e-02 4.454515e-02 -3.293610e-02 2.011887e-01 4.234068e-02 5.409318e-02 5.576158e-02 -3.545371e-02 5.700922e-02 -7.638316e-02 -1.779991e-02
<VARIANCE> 39
 5.087232e+01 9.740641e+01 1.061170e+02 1.177504e+02 1.582248e+02 1.221617e+02 1.265030e+02 7.183060e+01 6.818211e+01 7.078835e+01 4.726597e+01 6.825509e+01 1.013731e+02 1.742405e+00 1.991865e+00 2.473009e+00 3.633363e+00 4.159869e+00 5.838213e+00 4.570959e+00 4.004011e+00 3.794655e+00 3.914866e+00 3.090002e+00 2.524825e+00 1.468947e+00 1.512244e-01 3.249303e-01 4.406223e-01 5.369912e-01 6.160237e-01 7.880044e-01 6.686590e-01 6.950836e-01 6.209061e-01 5.503301e-01 5.345599e-01 4.933504e-01 1.206512e-01
<GCONST> 1.339914e+02
<STATE> 3
<MEAN> 39
 2.110793e+00 9.323900e+00 3.595773e+00 1.051667e+01 -3.841501e-01 -6.419177e+00 -5.341441e+00 -9.350453e+00 -1.710044e+00 -5.393303e+00 -6.373861e+00 -2.700798e+00 6.118364e+01 -3.302836e-01 2.316042e-01 2.124974e-01 1.331169e-01 -2.131151e-01 6.449198e-01 5.689379e-01 3.309859e-01 1.543529e-01 -7.527941e-02 1.881827e-02 -2.367755e-01 -3.500267e-01 -1.424694e-01 -2.992463e-01 -1.001770e-01 -5.878539e-02 -1.005614e-02 -1.000828e-01 9.368129e-02 1.764824e-01 2.008022e-02 6.689185e-02 1.813580e-01 1.114435e-01 5.270542e-02
<VARIANCE> 39
 3.790564e+01 4.401184e+01 3.082561e+01 3.260524e+01 5.615644e+01 5.366638e+01 6.791664e+01 3.324240e+01 4.041550e+01 3.487399e+01 3.627021e+01 4.316104e+01 5.491113e+01 1.038588e+00 1.677917e+00 1.513016e+00 1.691031e+00 1.506237e+00 2.927806e+00 3.412830e+00 2.412636e+00 2.567178e+00 1.900091e+00 1.965097e+00 3.414250e+00 7.274171e-01 1.359746e-01 3.050474e-01 2.352417e-01 2.914702e-01 2.832475e-01 5.444451e-01 5.899361e-01 4.099364e-01 4.843264e-01 3.782384e-01 3.611356e-01 5.890074e-01 1.052589e-01
<GCONST> 1.139643e+02
<STATE> 4
<MEAN> 39
 -4.389574e+00 -5.775952e-01 2.815207e+00 7.124411e+00 -4.951516e+00 1.741640e-01 -1.927837e+00 -3.408526e+00 -1.568805e-01 -4.525272e+00 -1.945610e+00 -1.140405e+00 4.700491e+01 -7.371216e-01 -5.636255e-01 -3.142731e-01 -7.096776e-02 4.615232e-02 3.480273e-01 4.569687e-01 4.211946e-01 7.845575e-02 1.381383e-01 4.512976e-01 2.719790e-01 -3.925507e-01 9.790286e-03 -2.122997e-01 -8.201629e-02 -1.733585e-01 -2.903741e-02 -1.772835e-01 -1.062473e-01 -5.208358e-02 -3.208108e-03 6.764358e-02 3.051418e-02 7.186732e-02 1.671302e-01
<VARIANCE> 39
 3.316450e+01 1.499789e+02 3.971550e+01 4.723790e+01 9.527426e+01 4.672046e+01 6.558249e+01 4.141264e+01 4.188298e+01 3.789281e+01 3.277374e+01 2.966437e+01 1.382597e+02 1.098489e+00 1.954644e+00 1.932012e+00 2.061058e+00 2.650901e+00 2.938527e+00 2.614969e+00 2.493100e+00 3.110953e+00 2.607390e+00 2.315214e+00 2.018587e+00 6.606286e-01 2.032477e-01 4.125503e-01 3.309962e-01 4.023870e-01 5.864699e-01 6.184283e-01 5.063442e-01 5.775353e-01 5.254233e-01 4.872914e-01 4.579792e-01 3.536691e-01 1.627691e-01
<GCONST> 1.207698e+02
<TRANSP> 5
 0.000000e+00 1.000000e+00 0.000000e+00 0.000000e+00 0.000000e+00
 0.000000e+00 6.153683e-01 3.846317e-01 0.000000e+00 0.000000e+00
 0.000000e+00 0.000000e+00 6.658682e-01 3.341319e-01 0.000000e+00
 0.000000e+00 0.000000e+00 0.000000e+00 6.613621e-01 3.386379e-01
 0.000000e+00 0.000000e+00 0.000000e+00 0.000000e+00 0.000000e+00
<ENDHMM>
~h "r"
<BEGINHMM>
<NUMSTATES> 5
<STATE> 2
<MEAN> 39
 5.633358e+00 -1.893355e-01 -6.748406e+00 2.832826e+00 -9.433515e-01 -6.890592e+00 -6.079103e+00 -6.433130e+00 -5.537647e+00 -3.703519e+00 2.225397e-01 -2.147950e+00 6.236599e+01 2.689461e-02 3.650974e-01 -5.225511e-01 9.513357e-02 6.915745e-01 1.991615e-01 -8.666928e-02 8.939931e-03 -2.486694e-01 -7.835101e-02 1.709368e-01 1.251613e-01 -3.806677e-01 -1.636994e-01 5.090388e-02 2.639219e-01 -1.891405e-02 -4.555620e-02 -2.114988e-02 -1.037321e-02 3.679401e-02 8.664661e-02 4.506608e-02 -5.529354e-02 5.678357e-03 -2.711805e-02
<VARIANCE> 39
 5.001052e+01 1.045092e+02 8.293005e+01 1.029002e+02 1.026541e+02 8.473961e+01 1.305866e+02 1.033195e+02 9.848875e+01 7.432166e+01 5.649036e+01 5.044341e+01 4.858689e+01 7.744996e-01 1.534990e+00 2.869350e+00 2.730946e+00 3.154675e+00 3.521694e+00 4.791585e+00 4.006010e+00 3.466808e+00 2.928074e+00 2.657198e+00 2.068936e+00 5.663368e-01 9.261601e-02 2.251087e-01 3.296058e-01 3.791118e-01 4.805834e-01 5.420109e-01 8.381002e-01 6.341988e-01 4.837724e-01 4.894555e-01 4.771809e-01 3.858823e-01 6.587774e-02
<GCONST> 1.258753e+02
<STATE> 3
<MEAN> 39
 2.045599e+00 4.534228e+00 -1.255273e+00 1.059037e+01 3.226559e+00 -1.211098e+01 -7.205948e+00 -1.270922e+01 -1.043752e+01 -3.238391e+00 2.063159e-01 -3.714655e+00 6.439825e+01 -1.711507e-01 1.471143e-01 2.506018e-01 -2.815702e-02 9.781512e-03 -1.580744e-01 9.442465e-02 4.176343e-01 1.606203e-01 -7.543670e-03 -1.923269e-01 -8.327533e-02 -1.091494e-01 -4.361682e-02 1.319461e-02 6.714931e-02 -2.652801e-02 -8.752571e-02 8.442307e-02 1.072867e-01 5.148114e-02 7.565083e-02 -6.312965e-02 -7.472828e-02 -1.426063e-02 -2.804008e-02
<VARIANCE> 39
 3.135693e+01 6.137929e+01 7.355824e+01 1.102211e+02 1.052239e+02 9.462216e+01 9.959230e+01 5.180400e+01 5.585505e+01 4.120082e+01 4.793100e+01 5.397205e+01 3.272194e+01 2.719316e-01 5.487555e-01 1.092263e+00 1.567135e+00 1.306845e+00 1.984334e+00 1.675538e+00 1.692325e+00 1.904751e+00 1.484008e+00 1.417165e+00 1.184535e+00 1.662950e-01 3.100731e-02 7.505307e-02 1.396752e-01 1.614927e-01 1.559589e-01 2.427267e-01 2.310278e-01 2.819492e-01 2.738408e-01 2.055622e-01 2.577074e-01 2.083700e-01 1.765638e-02
<GCONST> 9.977743e+01
<STATE> 4
<MEAN> 39
 -8.383909e-02 -4.172436e+00 -4.390415e+00 1.767530e-01 -2.322368e+00 -2.567703e+00 -1.340396e+00 7.429553e-01 -3.248949e-01 -2.917201e+00 -1.090051e+00 -1.869131e+00 5.117728e+01 -4.013353e-01 2.536071e-01 3.168961e-01 1.681044e-01 9.332117e-02 3.679912e-01 2.083967e-01 9.011962e-03 1.633333e-01 -5.987944e-02 -3.850523e-02 5.433762e-02 -4.127648e-01 -2.165736e-02 -1.358798e-02 -1.005498e-02 -1.432424e-03 -2.919613e-02 5.402687e-02 2.378319e-02 -3.059636e-02 1.502473e-02 1.707027e-02 3.718292e-02 1.111346e-02 -7.023945e-03
<VARIANCE> 39
 3.162554e+01 1.055413e+02 9.234764e+01 1.199209e+02 9.891113e+01 1.002422e+02 9.336290e+01 8.026874e+01 7.257914e+01 4.564794e+01 3.191022e+01 3.283512e+01 1.078889e+02 4.155920e-01 8.748729e-01 1.232829e+00 1.587057e+00 1.526615e+00 2.319538e+00 2.366724e+00 2.187427e+00 2.321871e+00 1.911457e+00 1.752162e+00 1.508413e+00 3.193755e-01 5.081292e-02 1.253443e-01 1.773491e-01 2.055962e-01 2.598280e-01 3.814109e-01 3.426952e-01 3.438192e-01 4.029455e-01 3.400162e-01 2.898717e-01 2.902056e-01 3.235731e-02
<GCONST> 1.101444e+02
<TRANSP> 5
 0.000000e+00 1.000000e+00 0.000000e+00 0.000000e+00 0.000000e+00
 0.000000e+00 6.713876e-01 3.286124e-01 0.000000e+00 0.000000e+00
 0.000000e+00 0.000000e+00 7.951615e-01 2.048384e-01 0.000000e+00
 0.000000e+00 0.000000e+00 0.000000e+00 8.223191e-01 1.776808e-01
 0.000000e+00 0.000000e+00 0.000000e+00 0.000000e+00 0.000000e+00
<ENDHMM>
~h "s"
<BEGINHMM>
<NUMSTATES> 5
<STATE> 2
<MEAN> 39
 -1.250820e+01 -1.195760e+00 9.491752e-01 1.775754e+00 1.194074e-01 3.994313e-01 -3.134739e-01 -4.206870e+00 -5.410106e-01 -2.209212e+00 6.333427e-01 -1.063841e+00 5.518754e+01 -1.060694e+00 -7.122248e-01 8.490886e-01 -6.849883e-01 -3.854918e-02 3.234123e-02 5.490335e-01 -3.909698e-01 6.187091e-01 1.130641e-01 3.241358e-01 3.013078e-02 1.096318e+00 -2.397043e-01 -2.876530e-02 5.992198e-02 -1.246665e-01 1.361706e-02 -9.122358e-02 1.428154e-01 9.910723e-03 5.938677e-02 -2.003549e-02 8.601286e-02 2.692004e-02 1.333184e-01
<VARIANCE> 39
 9.661678e+01 7.082799e+01 1.193551e+02 1.138635e+02 1.739571e+02 1.378683e+02 1.676192e+02 8.847635e+01 6.547356e+01 7.913838e+01 4.245160e+01 8.809921e+01 1.920441e+02 6.106174e+00 4.185148e+00 8.546307e+00 7.001136e+00 5.335177e+00 8.116670e+00 5.886358e+00 4.200489e+00 4.537228e+00 4.510395e+00 3.506558e+00 3.273749e+00 3.441688e+00 6.074297e-01 6.319692e-01 1.049839e+00 1.002793e+00 8.405089e-01 1.182915e+00 9.453450e-01 7.093978e-01 7.193106e-01 7.146903e-01 6.714389e-01 6.208324e-01 5.137829e-01
<GCONST> 1.492383e+02
<STATE> 3
<MEAN> 39
 -2.073747e+01 -8.931448e-02 5.156770e+00 3.468549e+00 -2.375369e-01 -7.333777e-01 6.380163e+00 -6.286795e+00 4.226599e+00 -2.481327e+00 3.501724e+00 -2.347348e+00 6.009176e+01 -1.164732e+00 -2.380586e-01 3.572600e-01 -5.644928e-01 -4.248603e-02 -1.502540e-01 4.755475e-01 3.161182e-01 1.489663e-01 -1.328078e-01 2.805513e-01 2.038164e-01 4.312833e-01 4.814520e-01 1.256120e-01 -2.680610e-01 1.209536e-01 -1.267854e-03 -5.784031e-04 -3.076331e-01 8.917840e-02 -2.507274e-01 -1.275289e-01 -2.247088e-01 -1.229408e-02 -2.326528e-01
<VARIANCE> 39
 7.168028e+01 9.688742e+01 1.844255e+02 1.124481e+02 1.061361e+02 9.341762e+01 8.396943e+01 7.201778e+01 6.526775e+01 4.404683e+01 4.027930e+01 4.561665e+01 1.190350e+02 3.031334e+00 2.939058e+00 2.538309e+00 3.964779e+00 2.738481e+00 2.925090e+00 2.885117e+00 3.153704e+00 2.357227e+00 1.973957e+00 2.433787e+00 1.847763e+00 1.008357e+00 3.587969e-01 3.399586e-01 6.477038e-01 9.057180e-01 7.237081e-01 5.220293e-01 6.524335e-01 7.184751e-01 5.688698e-01 3.961396e-01 3.161294e-01 3.736494e-01 2.063238e-01
<GCONST> 1.308925e+02
<STATE> 4
<MEAN> 39
 -2.311024e+01 -1.705979e+00 3.973735e+00 -7.103546e-01 4.647213e-01 -8.076122e-01 5.545458e+00 -4.798540e+00 3.746756e+00 -1.417156e+00 1.444265e+00 5.892318e-01 5.731432e+01 1.121577e-01 -9.578504e-02 -1.115330e-01 2.799828e-02 -7.039791e-02 9.228867e-03 -1.072163e-01 6.131788e-02 -5.788342e-03 -8.630985e-02 -1.245196e-01 3.879337e-02 -1.412993e-01 2.692706e-01 -9.257967e-03 -4.752153e-02 9.312840e-02 -4.104213e-02 -5.324255e-02 -1.145871e-01 -7.759016e-02 -8.162594e-02 -1.513154e-02 -7.298682e-02 -1.917370e-02 -3.908633e-02
<VARIANCE> 39
 6.302682e+01 8.311159e+01 1.748474e+02 1.089927e+02 8.328309e+01 9.210236e+01 7.148621e+01 4.956077e+01 4.592686e+01 4.414215e+01 3.936828e+01 4.553698e+01 1.193985e+02 1.035616e+00 1.228865e+00 1.629666e+00 1.605857e+00 1.769635e+00 2.022869e+00 2.318326e+00 2.242857e+00 2.105967e+00 1.840185e+00 1.527840e+00 1.395836e+00 7.603774e-01 2.119331e-01 2.407601e-01 2.346627e-01 2.926517e-01 3.224712e-01 3.766181e-01 4.196366e-01 4.348457e-01 4.167325e-01 3.446916e-01 3.142380e-01 2.530659e-01 9.648266e-02
<GCONST> 1.167938e+02
<TRANSP> 5
 0.000000e+00 1.000000e+00 0.000000e+00 0.000000e+00 0.000000e+00
 0.000000e+00 7.209893e-01 2.790107e-01 0.000000e+00 0.000000e+00
 0.000000e+00 0.000000e+00 4.791108e-01 5.208892e-01 0.000000e+00
 0.000000e+00 0.000000e+00 0.000000e+00 8.153347e-01 1.846653e-01
 0.000000e+00 0.000000e+00 0.000000e+00 0.000000e+00 0.000000e+00
<ENDHMM>
~h "t"
<BEGINHMM>
<NUMSTATES> 5
<STATE> 2
<MEAN> 39
 -4.091716e+00 1.547321e+00 2.451390e+00 1.080539e+01 3.808218e+00 -7.729450e+00 -2.714083e+00 -9.739594e+00 -4.709514e+00 -3.470199e+00 -3.844086e-02 -4.620850e+00 6.356502e+01 1.422292e+00 7.992330e-01 -7.527370e-01 -1.155237e-01 -1.494896e-02 -7.182380e-01 -5.877031e-01 -5.138221e-01 -9.880745e-01 -4.070587e-01 3.073027e-01 -4.963773e-02 2.791231e-01 -4.959238e-01 -4.201205e-01 -1.464450e-01 -3.552037e-01 -3.206663e-01 1.486799e-01 3.785080e-01 3.357626e-01 2.686327e-01 1.278736e-01 5.757994e-02 1.241430e-01 -1.133254e-01
<VARIANCE> 39
 7.560392e+01 7.272412e+01 5.829575e+01 8.682890e+01 1.238018e+02 9.118429e+01 1.162382e+02 7.022852e+01 8.121421e+01 5.479809e+01 4.523260e+01 7.727263e+01 8.727043e+01 3.272740e+00 5.183811e+00 2.856907e+00 2.642882e+00 2.695850e+00 5.544723e+00 4.681502e+00 3.776732e+00 6.095162e+00 4.021633e+00 2.665186e+00 2.933827e+00 1.431143e+00 4.928010e-01 7.168642e-01 4.565310e-01 4.000551e-01 4.881111e-01 6.320583e-01 7.661920e-01 5.422365e-01 5.534567e-01 5.251328e-01 4.776594e-01 4.158618e-01 2.412113e-01
<GCONST> 1.351616e+02
<STATE> 3
<MEAN> 39
 -3.995377e+00 -6.977594e-01 -1.248390e+00 8.258979e+00 2.763640e+00 -1.031138e+01 9.176332e-01 -8.128609e+00 -4.159874e+00 -7.834360e-01 7.642754e-01 -4.148722e+00 6.512924e+01 2.334056e-01 3.097124e-02 -6.398114e-01 -6.246023e-01 -6.278440e-01 4.755554e-01 3.290613e-01 5.692355e-01 1.876725e-01 -1.331050e-01 -8.090834e-02 3.004338e-01 -2.027473e-01 -2.186190e-01 -6.686754e-02 1.038105e-01 -5.589246e-02 -7.893222e-02 2.546782e-01 1.107788e-01 1.895908e-01 1.829636e-01 -9.733727e-02 -5.074367e-02 5.654691e-02 -1.388717e-01
<VARIANCE> 39
 8.055479e+01 6.604844e+01 6.562965e+01 6.969047e+01 1.060691e+02 1.162951e+02 1.369433e+02 6.959595e+01 8.231120e+01 7.044821e+01 4.559945e+01 6.865940e+01 1.353330e+02 9.927192e-01 2.016104e+00 1.489609e+00 2.026221e+00 2.494397e+00 4.087709e+00 3.589278e+00 3.352216e+00 3.551784e+00 3.563061e+00 2.485259e+00 2.174811e+00 6.738694e-01 2.533756e-01 4.300962e-01 3.440300e-01 3.595664e-01 3.578051e-01 5.313636e-01 4.661122e-01 6.366600e-01 6.114099e-01 5.911558e-01 4.226075e-01 3.615060e-01 1.461849e-01
<GCONST> 1.273274e+02
<STATE> 4
<MEAN> 39
 -3.887239e+00 4.767723e+00 -6.482592e+00 -2.294995e+00 -2.509188e+00 -2.814785e-02 5.835874e+00 -1.699294e+00 -4.633004e+00 -5.697767e+00 -5.854934e-01 8.290548e-02 5.932156e+01 2.279507e-01 8.128859e-02 -7.913815e-02 -2.946426e-02 -1.760154e-01 1.625410e-01 5.041880e-03 3.158329e-01 1.317372e-01 -1.736124e-01 2.433785e-02 -6.392831e-02 -4.164159e-01 -6.311741e-02 2.269488e-02 1.040227e-01 7.415835e-02 3.954301e-02 -9.377353e-03 -3.833227e-02 5.980177e-04 4.122764e-02 5.142874e-02 -4.178925e-02 -7.745141e-02 -4.173145e-02
<VARIANCE> 39
 9.206068e+01 1.284985e+02 6.964264e+01 1.235107e+02 7.559759e+01 1.574110e+02 8.839194e+01 6.388041e+01 9.670512e+01 5.743642e+01 4.897272e+01 5.166485e+01 1.768197e+02 1.496068e+00 8.841523e-01 1.099518e+00 1.276674e+00 1.415458e+00 2.452424e+00 1.872942e+00 1.832521e+00 1.960820e+00 2.145185e+00 1.744345e+00 1.743756e+00 1.047236e+00 2.084090e-01 1.989891e-01 1.908326e-01 2.208187e-01 2.387455e-01 4.382909e-01 3.487231e-01 3.415757e-01 4.831284e-01 3.892678e-01 3.154165e-01 2.833398e-01 1.083139e-01
<GCONST> 1.184206e+02
<TRANSP> 5
 0.000000e+00 1.000000e+00 0.000000e+00 0.000000e+00 0.000000e+00
 0.000000e+00 3.447502e-01 6.552498e-01 0.000000e+00 0.000000e+00
 0.000000e+00 0.000000e+00 3.780489e-01 6.219510e-01 0.000000e+00
 0.000000e+00 0.000000e+00 0.000000e+00 6.573291e-01 3.426708e-01
 0.000000e+00 0.000000e+00 0.000000e+00 0.000000e+00 0.000000e+00
<ENDHMM>
~h "v"
<BEGINHMM>
<NUMSTATES> 5
<STATE> 2
<MEAN> 39
 -6.200336e-01 -6.606946e+00 -6.436463e+00 1.275687e+00 9.246482e-01 -1.180505e+01 -3.346288e+00 -4.498348e+00 -2.876585e+00 -2.640931e+00 2.863719e+00 -4.666337e+00 6.952123e+01 -3.461277e-01 3.879577e-01 5.541036e-01 3.348954e-01 1.026375e-01 7.802053e-02 -3.234819e-01 -1.129472e-01 -1.763631e-01 -2.631186e-01 5.554126e-02 7.029387e-02 -4.788064e-01 -1.636593e-02 8.433051e-02 3.305219e-02 -7.692165e-03 2.343200e-02 1.916012e-01 1.951662e-02 1.139312e-02 6.843787e-02 -1.987788e-02 -1.018144e-01 2.821847e-02 -1.220619e-01
<VARIANCE> 39
 1.413514e+02 9.609810e+01 1.061780e+02 8.835825e+01 2.389523e+02 1.054680e+02 1.116790e+02 1.014762e+02 8.710123e+01 6.873061e+01 6.946478e+01 5.617230e+01 8.634354e+01 4.607906e+00 3.001765e+00 2.204410e+00 4.157647e+00 3.574933e+00 7.780880e+00 4.162436e+00 3.558609e+00 4.367830e+00 4.775213e+00 4.275105e+00 2.427297e+00 2.996133e+00 6.941876e-01 4.586655e-01 4.442129e-01 7.053753e-01 5.951724e-01 1.288101e+00 7.704248e-01 6.267207e-01 7.855269e-01 8.789189e-01 7.473322e-01 3.836290e-01 4.430486e-01
<GCONST> 1.428408e+02
<STATE> 3
<MEAN> 39
 -1.805873e+00 -1.174529e+00 -1.235366e+00 -1.982771e-01 -4.367590e+00 -4.429505e+00 -5.934715e+00 -8.958075e+00 2.783481e-01 -2.864875e+00 -4.530179e+00 -5.762512e-01 5.613599e+01 -7.068657e-01 1.120439e+00 7.160310e-01 3.829286e-01 -3.770315e-02 9.329266e-01 4.340335e-01 7.818539e-02 2.281206e-01 2.911924e-01 3.474762e-02 -1.525708e-02 -1.414135e+00 -8.872589e-02 -4.704909e-02 -9.742706e-02 -5.720818e-02 8.536460e-02 -2.729522e-02 8.198723e-02 1.253648e-01 6.168748e-02 5.618558e-02 1.493250e-01 4.765853e-03 7.395720e-02
<VARIANCE> 39
 8.455849e+01 6.537621e+01 5.276956e+01 1.225244e+02 1.318486e+02 7.483040e+01 1.396075e+02 1.093359e+02 7.159020e+01 9.706456e+01 6.509447e+01 4.161270e+01 8.128162e+01 1.868777e+00 3.355984e+00 2.310158e+00 4.130682e+00 5.138589e+00 4.991901e+00 3.897134e+00 5.188183e+00 3.776789e+00 4.895175e+00 4.456128e+00 2.304356e+00 1.158559e+00 1.724050e-01 4.075350e-01 2.527597e-01 4.935404e-01 6.379219e-01 6.152476e-01 6.826872e-01 7.487776e-01 5.338620e-01 7.479600e-01 7.176844e-01 4.495822e-01 1.583180e-01
<GCONST> 1.345485e+02
<STATE> 4
<MEAN> 39
 -4.819678e+00 -5.498706e+00 2.228084e+00 1.953853e+00 -6.626775e+00 -5.177092e-01 -1.665565e+00 -6.852280e-01 2.370455e+00 -4.016318e+00 -5.152559e-01 1.108746e+00 4.804244e+01 -4.251618e-01 9.978863e-02 -9.352657e-02 2.439795e-01 3.016939e-01 9.044772e-02 2.055782e-02 1.167968e-01 2.010830e-01 1.635078e-01 2.526141e-01 2.071645e-01 -4.588131e-01 7.834435e-02 -1.887038e-01 -7.102484e-02 -3.295579e-02 -9.597354e-02 -1.537644e-01 1.208001e-02 -4.776942e-02 -1.001789e-01 4.959901e-02 -1.623874e-04 -2.463559e-02 1.511241e-01
<VARIANCE> 39
 5.481921e+01 1.252116e+02 4.047211e+01 5.579408e+01 1.014432e+02 5.606749e+01 6.235872e+01 4.834576e+01 6.967818e+01 3.644464e+01 3.019518e+01 2.819838e+01 1.204117e+02 1.362297e+00 1.590445e+00 1.787055e+00 1.781786e+00 2.945449e+00 2.721154e+00 2.725865e+00 2.344388e+00 3.259136e+00 2.079226e+00 2.006994e+00 1.858472e+00 7.095966e-01 1.576999e-01 2.793051e-01 2.796743e-01 3.224213e-01 5.183977e-01 4.984872e-01 5.299380e-01 4.712541e-01 5.892434e-01 4.028675e-01 4.200153e-01 3.445792e-01 1.187960e-01
<GCONST> 1.192523e+02
<TRANSP> 5
 0.000000e+00 1.000000e+00 0.000000e+00 0.000000e+00 0.000000e+00
 0.000000e+00 8.340320e-01 1.659680e-01 0.000000e+00 0.000000e+00
 0.000000e+00 0.000000e+00 7.399805e-01 2.600195e-01 0.000000e+00
 0.000000e+00 0.000000e+00 0.000000e+00 8.497119e-01 1.502881e-01
 0.000000e+00 0.000000e+00 0.000000e+00 0.000000e+00 0.000000e+00
<ENDHMM>
~h "w"
<BEGINHMM>
<NUMSTATES> 5
<STATE> 2
<MEAN> 39
 -8.604673e+00 5.720884e+00 -9.467534e-01 7.354818e+00 -1.425041e+00 -3.892318e+00 -7.882337e-01 -6.482652e+00 -2.650070e+00 -3.073928e+00 4.262177e-01 -2.838774e+00 5.077533e+01 1.889599e+00 1.015293e+00 4.879428e-01 -5.307577e-01 -8.295730e-01 -1.067029e+00 -6.892051e-01 -6.887594e-01 -4.060827e-01 -6.767868e-02 -3.665932e-01 -2.227076e-01 1.193167e+00 2.781056e-01 -7.555822e-02 -1.433004e-01 -2.773302e-01 -2.080629e-01 -1.940808e-01 -6.634589e-02 2.347434e-02 1.818349e-02 5.615858e-02 -1.383622e-02 -5.825731e-03 2.268229e-01
<VARIANCE> 39
 8.150236e+01 1.215265e+02 6.074411e+01 6.971367e+01 1.085251e+02 1.037905e+02 7.571086e+01 9.621454e+01 5.739067e+01 7.580037e+01 4.731339e+01 3.204273e+01 1.658895e+02 5.229030e+00 7.348549e+00 5.046169e+00 5.390562e+00 7.959140e+00 7.334204e+00 6.713297e+00 5.119876e+00 3.947642e+00 3.970526e+00 3.269947e+00 2.134502e+00 3.337218e+00 8.343055e-01 1.335647e+00 1.001055e+00 9.665063e-01 1.235814e+00 1.049304e+00 1.362320e+00 1.115811e+00 7.596842e-01 7.855299e-01 4.643654e-01 4.603418e-01 5.678048e-01
<GCONST> 1.468501e+02
<STATE> 3
<MEAN> 39
 4.911476e+00 1.164248e+01 1.499343e+00 -7.870811e-01 -1.192488e+01 -1.055686e+01 -6.683113e+00 -5.213849e+00 -1.434907e+00 -2.419149e+00 -3.099950e+00 -2.657783e+00 5.642453e+01 9.047298e-01 -8.444564e-01 -1.383156e+00 -1.757849e+00 -8.521191e-01 -7.802449e-01 9.990653e-01 1.249534e+00 4.806788e-01 -5.446712e-02 -3.317312e-01 -1.336684e-02 1.271742e+00 -2.896211e-01 -4.307868e-01 -2.959948e-01 1.777840e-02 4.851232e-01 4.395248e-01 4.517941e-01 1.723153e-01 -9.930839e-02 -2.052216e-01 5.598567e-02 6.978481e-02 -9.885416e-03
<VARIANCE> 39
 2.987042e+01 6.127013e+01 3.962927e+01 8.737817e+01 9.568021e+01 1.117985e+02 1.325997e+02 7.207514e+01 6.497672e+01 7.790977e+01 3.619945e+01 4.609914e+01 7.940178e+01 8.439348e-01 2.121723e+00 2.023639e+00 3.028900e+00 3.751734e+00 6.757833e+00 7.120677e+00 4.870894e+00 4.160461e+00 3.779832e+00 1.703012e+00 2.955178e+00 8.781869e-01 1.446633e-01 2.650590e-01 3.354548e-01 3.593161e-01 7.631030e-01 7.049035e-01 9.456903e-01 7.129751e-01 7.665921e-01 6.307789e-01 3.961240e-01 4.443437e-01 7.425609e-02
<GCONST> 1.280669e+02
<STATE> 4
<MEAN> 39
 6.565887e+00 1.838947e+00 -1.061415e+01 -6.513060e+00 -9.339773e+00 -8.865514e+00 3.446323e+00 2.860244e+00 -7.888072e-01 -6.973268e+00 -2.521018e+00 -3.000108e+00 6.441349e+01 -3.275878e-02 -1.429462e+00 -1.223365e+00 -1.073747e-01 1.739289e+00 1.578616e+00 1.932463e-01 -4.660580e-01 -7.582570e-01 -5.023275e-01 8.132978e-01 3.512110e-01 6.153668e-01 -1.423637e-01 1.898611e-01 3.882963e-01 4.470345e-01 1.595690e-01 -1.750631e-02 -4.766521e-01 -4.479822e-01 -4.107688e-02 2.369268e-01 1.613944e-01 -2.113877e-03 -1.955072e-01
<VARIANCE> 39
 3.410180e+01 8.436787e+01 5.549424e+01 1.122942e+02 1.131792e+02 2.446806e+02 1.869828e+02 1.074056e+02 8.037904e+01 4.527974e+01 5.451090e+01 4.673407e+01 6.760973e+01 3.794314e-01 1.660082e+00 1.783027e+00 1.957591e+00 3.709235e+00 3.142724e+00 5.143097e+00 3.422894e+00 3.717619e+00 3.275643e+00 3.327727e+00 2.846927e+00 6.401541e-01 8.064052e-02 1.723193e-01 1.799525e-01 2.961533e-01 4.763071e-01 7.637052e-01 6.850280e-01 4.069845e-01 5.453654e-01 4.935227e-01 4.737762e-01 4.935119e-01 6.200166e-02
<GCONST> 1.241429e+02
<TRANSP> 5
 0.000000e+00 1.000000e+00 0.000000e+00 0.000000e+00 0.000000e+00
 0.000000e+00 7.387983e-01 2.612017e-01 0.000000e+00 0.000000e+00
 0.000000e+00 0.000000e+00 7.539841e-01 2.460160e-01 0.000000e+00
 0.000000e+00 0.000000e+00 0.000000e+00 7.716115e-01 2.283885e-01
 0.000000e+00 0.000000e+00 0.000000e+00 0.000000e+00 0.000000e+00
<ENDHMM>
~h "z"
<BEGINHMM>
<NUMSTATES> 5
<STATE> 2
<MEAN> 39
 -9.158881e+00 8.127895e+00 -1.924507e+00 2.766417e+00 9.895465e-01 -4.697286e+00 -5.519241e-01 -3.876659e+00 -4.237648e+00 -3.103795e+00 -5.146929e-01 -2.713895e+00 4.792018e+01 2.353401e-01 6.173203e-01 1.424911e+00 -1.092080e+00 -4.159328e-01 -7.894553e-01 -1.894280e-01 -1.131630e+00 5.757122e-01 -5.736991e-01 -3.145084e-01 4.410507e-01 1.308438e+00 -4.015687e-02 -1.368501e-01 3.231707e-01 -2.202368e-01 -1.987349e-01 4.787249e-02 -9.677723e-02 -2.790338e-01 1.509800e-01 -3.066733e-02 -1.390712e-01 1.750862e-01 2.062923e-01
<VARIANCE> 39
 1.053739e+02 8.281686e+01 8.503831e+01 6.884969e+01 1.922375e+02 1.160040e+02 5.812033e+01 8.119365e+01 1.017401e+02 8.185501e+01 2.656630e+01 4.455471e+01 2.264725e+02 4.626709e+00 5.027922e+00 4.029892e+00 5.208486e+00 6.446185e+00 1.032971e+01 4.251755e+00 5.048704e+00 6.799489e+00 4.729372e+00 2.010381e+00 4.425163e+00 2.418643e+00 7.455937e-01 5.770109e-01 7.476150e-01 9.262902e-01 1.115723e+00 1.292585e+00 8.293052e-01 8.532352e-01 9.570888e-01 6.555852e-01 3.388145e-01 6.980423e-01 3.494734e-01
<GCONST> 1.452699e+02
<STATE> 3
<MEAN> 39
 -1.732632e+01 6.987216e+00 1.198989e+01 -2.040936e-02 4.275550e+00 -6.405097e+00 1.283250e+00 -9.925864e+00 -9.891486e-01 -5.244195e+00 -1.055686e+00 -5.863793e-02 6.343624e+01 -6.208995e-02 -8.539788e-01 1.068516e+00 -5.419093e-02 -5.110170e-01 -2.465347e-01 -4.477394e-01 -1.471776e-01 8.340716e-02 8.844241e-02 1.052121e-03 1.740765e-01 6.370067e-01 4.432895e-01 -7.687696e-02 -1.994225e-01 2.321798e-01 -1.475660e-01 -1.006007e-01 -2.428902e-01 5.981060e-02 -3.244519e-01 4.250167e-02 1.158350e-01 -1.304850e-01 -5.070097e-02
<VARIANCE> 39
 1.114315e+02 9.347350e+01 2.056125e+02 8.497758e+01 9.688914e+01 2.519177e+02 7.385564e+01 8.128386e+01 8.803793e+01 5.102790e+01 1.138642e+02 7.851045e+01 1.143392e+02 9.336507e+00 2.693953e+00 7.819148e+00 5.490948e+00 5.347111e+00 7.061848e+00 5.224993e+00 5.211006e+00 5.363899e+00 3.064174e+00 3.438945e+00 2.131633e+00 1.009258e+00 8.643548e-01 3.757029e-01 9.135569e-01 6.647524e-01 7.783931e-01 1.050090e+00 8.303461e-01 1.036669e+00 7.081461e-01 5.941582e-01 6.675918e-01 4.612848e-01 1.841733e-01
<GCONST> 1.447574e+02
<STATE> 4
<MEAN> 39
 -7.917332e+00 -3.100848e+00 1.751372e+01 1.113684e-02 -9.529536e+00 -1.146703e+00 -1.429294e+01 -1.091687e+01 -6.959887e+00 -2.527568e+00 -1.351441e+00 4.794388e-01 6.133776e+01 2.511233e+00 -1.621122e+00 -3.711293e-01 7.950407e-01 -1.018921e+00 -1.340859e+00 -1.145238e+00 4.436931e-01 -6.044099e-01 6.905334e-02 4.425143e-01 -3.265500e-01 1.097800e+00 -3.439014e-01 7.329518e-02 -7.232850e-01 1.438596e-01 4.612195e-01 -3.903338e-02 4.613878e-01 4.528422e-01 4.893129e-01 -4.252491e-02 4.677514e-02 -8.089278e-02 -2.206621e-01
<VARIANCE> 39
 5.946388e+01 7.677136e+01 9.432150e+01 9.024947e+01 1.054193e+02 2.639346e+02 1.436629e+02 8.984466e+01 1.551004e+02 4.673537e+01 4.240144e+01 5.160095e+01 1.054719e+02 4.902629e+00 3.553930e+00 1.134315e+01 8.300201e+00 6.444471e+00 9.823973e+00 6.012239e+00 7.264865e+00 5.751133e+00 4.386665e+00 4.021118e+00 2.770612e+00 2.394647e+00 6.629469e-01 6.742939e-01 5.504704e-01 8.291921e-01 7.760317e-01 1.458620e+00 9.751793e-01 8.434775e-01 7.818537e-01 7.907189e-01 4.138207e-01 4.587065e-01 1.776872e-01
<GCONST> 1.463979e+02
<TRANSP> 5
 0.000000e+00 1.000000e+00 0.000000e+00 0.000000e+00 0.000000e+00
 0.000000e+00 7.373444e-01 2.626556e-01 0.000000e+00 0.000000e+00
 0.000000e+00 0.000000e+00 8.425659e-01 1.574340e-01 0.000000e+00
 0.000000e+00 0.000000e+00 0.000000e+00 7.224372e-01 2.775628e-01
 0.000000e+00 0.000000e+00 0.000000e+00 0.000000e+00 0.000000e+00
<ENDHMM>
~h "aa"
<BEGINHMM>
<NUMSTATES> 5
<STATE> 2
<MEAN> 39
 -4.100895e+00 3.885863e-03 3.587288e-01 8.254016e+00 4.441047e+00 -5.404326e+00 9.803771e+00 -5.492667e+00 -2.431228e+00 -3.860772e-01 -2.679226e-01 -4.875481e+00 6.448427e+01 -1.335415e+00 -5.241207e-01 1.445198e+00 6.560500e-01 2.360580e-01 2.454895e-01 -2.078551e-01 -4.675692e-01 -1.767199e-01 3.529087e-01 2.401935e-01 -1.788134e-01 -5.524534e-02 -1.722544e-01 -5.199113e-03 1.479325e-01 -1.495517e-01 -2.256935e-01 -1.027247e-01 -1.683484e-01 1.120730e-01 4.474163e-02 -1.499119e-01 6.258033e-02 -9.799786e-02 6.721253e-02
<VARIANCE> 39
 8.386805e+01 7.621839e+01 1.433685e+02 5.351784e+01 5.104316e+01 1.079232e+02 1.762028e+02 1.026932e+02 4.231718e+01 7.476929e+01 4.085672e+01 3.794769e+01 6.501220e+01 5.083353e+00 5.468114e+00 7.000548e+00 4.733056e+00 4.896140e+00 7.135207e+00 7.709145e+00 1.104743e+01 4.059422e+00 6.606198e+00 2.882851e+00 2.346329e+00 2.329500e+00 6.894123e-01 9.468453e-01 7.024696e-01 7.669380e-01 6.338306e-01 9.796609e-01 8.752468e-01 1.731761e+00 7.686949e-01 1.202617e+00 4.906332e-01 3.070865e-01 4.620382e-01
<GCONST> 1.444042e+02
<STATE> 3
<MEAN> 39
 -1.533785e+01 -6.753981e+00 9.103633e+00 7.419680e+00 -3.073858e+00 -5.058598e+00 6.885364e+00 -4.344501e+00 -5.286885e-01 -1.503315e+00 2.169812e+00 -2.188694e+00 6.601048e+01 -9.386930e-02 2.407566e-01 6.167302e-01 2.071561e-01 -2.451282e-01 -1.097424e-01 -2.922095e-01 1.883507e-01 -3.290761e-01 -1.691740e-01 -1.534426e-01 -4.776667e-02 -4.325679e-01 6.350057e-01 4.904592e-01 -2.757127e-01 2.040109e-01 8.565277e-02 -5.049121e-02 -1.488795e-01 -7.555942e-02 -8.428116e-02 3.450374e-02 -1.762949e-01 -1.352164e-01 -2.027315e-01
<VARIANCE> 39
 6.390683e+01 3.669511e+01 5.494906e+01 4.084408e+01 9.622620e+01 5.702068e+01 5.760474e+01 3.990441e+01 3.839142e+01 5.429476e+01 3.231277e+01 6.105129e+01 6.235045e+01 7.073623e+00 2.815770e+00 3.369420e+00 3.352623e+00 2.925277e+00 3.037063e+00 3.147483e+00 2.119796e+00 2.925792e+00 2.565368e+00 1.999465e+00 1.641698e+00 1.779540e+00 4.161240e-01 3.597907e-01 6.418263e-01 4.472398e-01 4.489810e-01 5.668405e-01 2.628025e-01 4.314522e-01 7.141923e-01 5.137901e-01 3.823310e-01 3.322015e-01 2.192594e-01
<GCONST> 1.248688e+02
<STATE> 4
<MEAN> 39
 -2.860901e+00 4.259884e+00 4.475052e+00 1.263422e+01 3.906880e-01 -7.361351e+00 -3.842346e-01 -6.457567e+00 -5.287380e+00 -4.547091e+00 -1.084522e+00 -5.872102e+00 6.142385e+01 1.025396e+00 8.144134e-01 -1.130554e+00 -7.677843e-01 -4.682254e-01 6.625174e-01 2.830512e-01 7.003178e-03 -1.166360e-01 -4.923807e-02 3.249036e-01 2.615033e-01 -3.136861e-01 -3.958132e-01 -2.259095e-01 -1.586691e-01 -2.731167e-01 8.424163e-02 1.959610e-01 1.706461e-01 2.269983e-02 5.061838e-01 1.278453e-01 1.253683e-01 2.221234e-01 6.024129e-03
<VARIANCE> 39
 4.641154e+01 4.152410e+01 4.915819e+01 4.381691e+01 5.302189e+01 4.919408e+01 6.295229e+01 5.467698e+01 3.991119e+01 4.644152e+01 2.754331e+01 7.003194e+01 4.247353e+01 4.894338e+00 3.800859e+00 3.586006e+00 4.021177e+00 2.002818e+00 3.923934e+00 4.045755e+00 3.597895e+00 6.870945e+00 2.194882e+00 1.680741e+00 2.284520e+00 1.403863e+00 4.236856e-01 7.351459e-01 5.927738e-01 5.894231e-01 3.640972e-01 6.543313e-01 8.019417e-01 5.955913e-01 1.278676e+00 3.661334e-01 2.983541e-01 4.726225e-01 2.801181e-01
<GCONST> 1.281127e+02
<TRANSP> 5
 0.000000e+00 1.000000e+00 0.000000e+00 0.000000e+00 0.000000e+00
 0.000000e+00 6.933067e-01 3.066932e-01 0.000000e+00 0.000000e+00
 0.000000e+00 0.000000e+00 7.098064e-01 2.901937e-01 0.000000e+00
 0.000000e+00 0.000000e+00 0.000000e+00 6.414491e-01 3.585509e-01
 0.000000e+00 0.000000e+00 0.000000e+00 0.000000e+00 0.000000e+00
<ENDHMM>
~h "ae"
<BEGINHMM>
<NUMSTATES> 5
<STATE> 2
<MEAN> 39
 -1.261275e+01 -1.287098e+01 3.602689e+00 7.414375e+00 1.058963e+01 -1.211787e+01 4.316072e+00 -4.394676e+00 -4.520668e+00 -7.227451e+00 3.610645e+00 -9.627429e-01 6.673920e+01 -5.047158e-01 -2.772242e-01 5.735271e-01 3.585970e-01 2.461503e-01 -1.770845e-01 -7.236283e-01 2.576191e-01 -4.575733e-02 -2.913993e-01 8.539090e-02 -7.312768e-02 -5.509361e-02 1.802966e-01 9.360215e-02 -2.722949e-01 -1.059384e-01 1.173704e-01 -4.757037e-02 -3.651635e-02 -1.212594e-01 2.434449e-01 1.174941e-01 -2.316495e-01 8.319241e-02 -3.749305e-04
<VARIANCE> 39
 1.381935e+02 1.263869e+02 6.408881e+01 2.734502e+01 5.939183e+01 5.172823e+01 8.480398e+01 4.036934e+01 8.154779e+01 2.357230e+01 2.972990e+01 3.101301e+01 2.794216e+01 1.400960e+01 8.245009e+00 8.054517e+00 2.858106e+00 2.681929e+00 4.419417e+00 3.748420e+00 4.316658e+00 8.426498e+00 2.491048e+00 3.154371e+00 2.041821e+00 2.143697e+00 1.499058e+00 6.889807e-01 1.075384e+00 7.014686e-01 4.517900e-01 1.021198e+00 7.678061e-01 6.878046e-01 1.390891e+00 4.753413e-01 5.241677e-01 3.788585e-01 4.343137e-01
<GCONST> 1.370859e+02
<STATE> 3
<MEAN> 39
 -5.696696e+00 -5.437523e+00 3.083077e+00 1.656495e+01 1.433241e+00 -1.226087e+01 -7.981751e+00 -7.064931e+00 7.509037e+00 -2.644306e+00 -7.835463e+00 -4.742178e-01 6.438485e+01 -4.662234e-02 1.381375e-01 -3.111248e-01 -5.253423e-01 -7.898024e-02 1.058100e-01 9.314632e-02 9.196196e-02 2.909841e-01 1.636113e-02 -4.662695e-01 -3.920776e-01 -7.139913e-02 2.143510e-01 9.295318e-02 -1.211696e-01 -4.192166e-01 -2.760910e-01 -1.506968e-01 2.464499e-02 5.117656e-02 -1.937782e-01 -1.062611e-01 5.796937e-02 9.476250e-02 1.380087e-01
<VARIANCE> 39
 4.960404e+01 1.699524e+02 2.194296e+01 2.512251e+01 4.607450e+01 2.773538e+01 5.137153e+01 1.997502e+01 7.510437e+01 3.208907e+01 3.531099e+01 3.144029e+01 1.300961e+01 4.337984e+00 1.341908e+01 2.685864e+00 4.152632e+00 3.683627e+00 2.801506e+00 3.727474e+00 2.264576e+00 4.762873e+00 2.792724e+00 3.458058e+00 1.716286e+00 1.254328e+00 3.111148e-01 1.182967e+00 5.137851e-01 5.027232e-01 4.009313e-01 5.428877e-01 8.358160e-01 4.651272e-01 6.111284e-01 3.513406e-01 4.016185e-01 2.816438e-01 1.797313e-01
<GCONST> 1.237623e+02
<STATE> 4
<MEAN> 39
 -7.760067e+00 -4.269823e+00 -6.364159e-02 3.355991e+00 4.670908e+00 -1.519257e+01 3.806457e+00 -1.732271e+00 -2.455416e+00 -1.377757e+01 -1.601416e+00 4.917327e-01 6.534336e+01 -9.349452e-01 -8.697020e-01 6.624632e-01 -1.849491e-01 -2.909864e-01 -5.116333e-01 2.498862e-01 2.622117e-01 2.188274e-01 1.060640e-01 5.194172e-01 4.881455e-02 2.509766e-01 -3.803161e-02 4.676596e-02 1.539288e-01 2.294743e-01 1.286552e-01 1.081591e-01 -6.878126e-02 -1.032941e-01 -3.079924e-02 1.363037e-01 1.014492e-01 -6.698010e-02 -8.479310e-02
<VARIANCE> 39
 2.110646e+02 1.669881e+02 9.471085e+01 1.653785e+01 1.160920e+02 3.900083e+01 5.715664e+01 5.942603e+01 6.331907e+01 3.222223e+01 9.208478e+01 1.673711e+01 1.588734e+01 4.370901e+00 3.591937e+00 3.011028e+00 2.362278e+00 4.137597e+00 3.565481e+00 3.052087e+00 4.858648e+00 4.425682e+00 2.368856e+00 3.256035e+00 1.452198e+00 1.094557e+00 4.518021e-01 4.008032e-01 5.378770e-01 3.556954e-01 5.502769e-01 6.811190e-01 4.947120e-01 7.094315e-01 8.040854e-01 3.687870e-01 4.227552e-01 2.311545e-01 1.696588e-01
<GCONST> 1.271701e+02
<TRANSP> 5
 0.000000e+00 1.000000e+00 0.000000e+00 0.000000e+00 0.000000e+00
 0.000000e+00 8.740073e-01 1.259927e-01 0.000000e+00 0.000000e+00
 0.000000e+00 0.000000e+00 8.298614e-01 1.701386e-01 0.000000e+00
 0.000000e+00 0.000000e+00 0.000000e+00 8.838583e-01 1.161417e-01
 0.000000e+00 0.000000e+00 0.000000e+00 0.000000e+00 0.000000e+00
<ENDHMM>
~h "ah"
<BEGINHMM>
<NUMSTATES> 5
<STATE> 2
<MEAN> 39
 2.839734e+00 -4.890658e+00 -4.942213e+00 -2.901245e+00 -1.075222e+00 -1.891302e+00 -4.062229e+00 -3.560134e+00 -2.495980e+00 -4.922790e+00 -7.747151e-01 -3.773257e+00 6.003346e+01 -2.487661e-01 -9.254410e-02 5.478474e-01 8.551426e-01 -2.842856e-02 -5.260527e-01 1.010324e-01 1.878347e-02 -1.571277e-01 2.865475e-01 -1.849360e-01 -1.928055e-01 -2.646880e-01 -8.244962e-02 3.085956e-01 1.348794e-01 9.568556e-02 -2.967789e-02 1.078085e-01 9.788861e-03 -1.690136e-02 6.162553e-02 -3.250927e-02 -7.083961e-02 -2.365707e-02 -2.319387e-01
<VARIANCE> 39
 2.408360e+01 8.372514e+01 6.941595e+01 1.251767e+02 1.299515e+02 1.114811e+02 1.217547e+02 8.314228e+01 7.742450e+01 6.468713e+01 1.160306e+02 7.402789e+01 7.218419e+01 6.149138e-01 2.800613e+00 1.551858e+00 2.425114e+00 3.396594e+00 3.876995e+00 3.123553e+00 4.074755e+00 3.652387e+00 3.625613e+00 3.446516e+00 2.675164e+00 1.222897e+00 1.285556e-01 2.753369e-01 2.981330e-01 2.761916e-01 5.578378e-01 6.836114e-01 5.658855e-01 7.224492e-01 6.436853e-01 6.499516e-01 6.427578e-01 4.532374e-01 9.789978e-02
<GCONST> 1.288875e+02
<STATE> 3
<MEAN> 39
 5.435190e-01 2.722845e+00 -2.741696e+00 7.738810e+00 3.234349e+00 -6.912627e+00 -5.768886e-01 -1.002191e+01 -7.437359e+00 -3.616719e+00 5.617807e-01 -5.195468e+00 6.167034e+01 -3.178342e-01 1.168445e+00 8.000655e-01 1.007017e+00 1.451718e-01 7.145154e-01 -8.394356e-01 -4.987548e-01 7.801093e-01 -3.121911e-01 -5.752447e-01 -1.503670e-01 -1.057834e+00 -5.678409e-02 1.582940e-02 1.281085e-01 -1.275392e-02 -7.220451e-02 5.722877e-02 -3.331203e-02 1.587232e-01 1.128921e-01 -2.217094e-01 -1.252353e-01 1.155928e-01 -2.855583e-02
<VARIANCE> 39
 1.952398e+01 4.777405e+01 5.252151e+01 1.017619e+02 1.076157e+02 5.388909e+01 1.121618e+02 9.280698e+01 4.482138e+01 5.924571e+01 5.395474e+01 4.186625e+01 7.822373e+01 4.912752e-01 9.174447e-01 9.784867e-01 2.348469e+00 2.029133e+00 2.389742e+00 3.275089e+00 3.558688e+00 2.577669e+00 3.244764e+00 3.004657e+00 1.967969e+00 4.255220e-01 5.448658e-02 2.098403e-01 1.467532e-01 3.671359e-01 2.977056e-01 5.103676e-01 5.339054e-01 5.423058e-01 3.325040e-01 4.807301e-01 3.893595e-01 2.701632e-01 8.496481e-02
<GCONST> 1.150310e+02
<STATE> 4
<MEAN> 39
 3.448809e+00 9.598481e+00 3.962127e+00 8.745479e+00 -3.846298e+00 -6.963295e+00 -7.252297e+00 -9.206257e+00 -1.306470e+00 -5.776897e+00 -4.945258e+00 -1.285921e+00 5.999751e+01 -2.398522e-01 3.393256e-01 3.332650e-01 1.850112e-01 3.380832e-02 2.258021e-01 1.447457e-01 6.580672e-02 1.337532e-01 -3.005120e-02 -1.153623e-01 6.540044e-03 -3.038131e-01 -3.598944e-02 -6.238838e-02 -2.141811e-02 -3.040406e-02 1.562373e-02 1.369316e-02 9.207840e-02 7.171794e-04 -8.567201e-02 3.027517e-02 4.409604e-02 2.847941e-03 1.697217e-02
<VARIANCE> 39
 3.044707e+01 6.389276e+01 3.325939e+01 5.753351e+01 8.523862e+01 4.369672e+01 6.091165e+01 3.429362e+01 3.237183e+01 4.336304e+01 3.401345e+01 2.308211e+01 5.732686e+01 3.721878e-01 8.235226e-01 8.033124e-01 1.281014e+00 1.318043e+00 1.248320e+00 1.824747e+00 1.676178e+00 1.899276e+00 1.712065e+00 1.600123e+00 1.459260e+00 2.887407e-01 4.679561e-02 1.143333e-01 1.214622e-01 2.001459e-01 1.922905e-01 1.989233e-01 3.024651e-01 3.198446e-01 3.323286e-01 3.174360e-01 2.886830e-01 2.437180e-01 3.746632e-02
<GCONST> 9.914832e+01
<TRANSP> 5
 0.000000e+00 1.000000e+00 0.000000e+00 0.000000e+00 0.000000e+00
 0.000000e+00 7.297094e-01 2.702906e-01 0.000000e+00 0.000000e+00
 0.000000e+00 0.000000e+00 6.391342e-01 3.608659e-01 0.000000e+00
 0.000000e+00 0.000000e+00 0.000000e+00 8.340934e-01 1.659066e-01
 0.000000e+00 0.000000e+00 0.000000e+00 0.000000e+00 0.000000e+00
<ENDHMM>
~h "ao"
<BEGINHMM>
<NUMSTATES> 5
<STATE> 2
<MEAN> 39
 5.207952e+00 1.179308e+01 -2.845022e+00 -3.578865e+00 -1.150646e+01 -1.669743e+01 3.214417e-02 -3.104442e+00 -7.814194e-02 -1.699218e+00 -4.577206e+00 -8.879659e+00 6.471066e+01 1.718576e+00 2.260514e-01 2.570577e-01 -7.662842e-02 -2.158035e+00 -2.052442e+00 -9.244671e-01 7.466476e-01 5.930675e-02 1.065640e+00 -5.392925e-02 -6.194570e-01 5.145006e-01 -1.177387e+00 -6.842520e-01 -2.137576e-01 3.221238e-01 1.171734e+00 9.549317e-01 4.040150e-01 5.252634e-02 -1.830944e-02 -1.711707e-01 1.833383e-01 3.855735e-01 -2.527235e-01
<VARIANCE> 39
 1.872383e+01 7.733855e+01 2.638440e+01 1.012223e+02 4.689326e+01 1.548932e+02 1.209061e+02 3.405939e+01 3.971764e+01 4.698878e+01 2.551786e+01 6.038141e+01 3.927548e+01 3.980945e+00 3.023503e+00 1.063958e+00 1.862586e+00 6.807042e+00 6.414433e+00 3.466787e+00 2.526664e+00 3.426799e+00 2.880334e+00 1.412796e+00 1.985705e+00 5.347812e-01 4.209144e-01 5.854644e-01 2.507297e-01 4.254415e-01 8.031505e-01 6.564771e-01 6.271991e-01 3.385174e-01 3.995883e-01 4.752425e-01 3.512053e-01 3.789553e-01 1.241813e-01
<GCONST> 1.228227e+02
<STATE> 3
<MEAN> 39
 6.920377e+00 1.229501e+01 -3.827715e+00 -1.983541e+00 -1.347583e+01 -1.470154e+01 -3.925656e+00 -3.600185e+00 3.992411e-02 -4.288866e+00 -4.530316e+00 -6.596693e+00 6.272395e+01 1.257313e-01 -3.344208e-01 -5.316051e-01 -3.679805e-01 3.152931e-01 7.928112e-01 5.198361e-01 -1.295454e-01 -5.979415e-01 -2.170256e-01 2.372360e-01 -4.372704e-02 1.046674e-01 -4.743563e-02 -6.903851e-02 -1.251693e-01 -6.131256e-02 2.704917e-01 1.694449e-01 1.192353e-01 -1.697702e-01 -1.966428e-01 2.911221e-02 6.211595e-02 8.169491e-02 2.350428e-02
<VARIANCE> 39
 1.483684e+01 5.571406e+01 3.376052e+01 1.336866e+02 3.718966e+01 1.083323e+02 1.210521e+02 2.565479e+01 5.530151e+01 4.372215e+01 2.941337e+01 5.537258e+01 4.200169e+01 1.293588e-01 4.656709e-01 7.360008e-01 7.865818e-01 1.277452e+00 1.464664e+00 1.751310e+00 1.390591e+00 1.741307e+00 1.257843e+00 1.184503e+00 1.061106e+00 1.427656e-01 3.675158e-02 6.347132e-02 9.373093e-02 1.538121e-01 2.195442e-01 2.531435e-01 3.160644e-01 2.571158e-01 2.292391e-01 1.943953e-01 2.494817e-01 2.115680e-01 2.300995e-02
<GCONST> 9.377771e+01
<STATE> 4
<MEAN> 39
 7.310653e+00 -1.037868e+00 -8.765690e+00 -1.326731e+01 -9.556579e+00 -3.000571e-01 1.200875e+00 -3.999216e+00 -4.195822e+00 3.124330e-01 2.493097e-01 -5.604472e+00 6.315356e+01 -2.784536e-02 -9.824422e-01 -6.244265e-01 8.939825e-01 9.919100e-01 4.867654e-02 -6.833124e-02 -2.954629e-01 -5.916009e-01 5.775331e-01 4.926437e-01 2.529849e-02 3.067848e-02 -1.311356e-02 2.752637e-02 7.443890e-02 2.128304e-01 2.228404e-02 -1.711909e-01 -1.080559e-01 5.926704e-02 9.813976e-02 -3.410084e-02 -3.058161e-02 -9.519015e-03 -4.055821e-02
<VARIANCE> 39
 1.238204e+01 1.031559e+02 4.614129e+01 1.134550e+02 1.500186e+02 3.031038e+02 1.015378e+02 1.240232e+02 1.064308e+02 6.728769e+01 5.115154e+01 6.660092e+01 7.793842e+01 1.752462e-01 1.246035e+00 1.085219e+00 2.214347e+00 2.558969e+00 4.141222e+00 2.373674e+00 6.118536e+00 3.507020e+00 2.799725e+00 3.888660e+00 2.736008e+00 2.952537e-01 3.136360e-02 2.090115e-01 1.651980e-01 1.654996e-01 3.206465e-01 4.630218e-01 4.587024e-01 7.165806e-01 4.532755e-01 6.296009e-01 5.939546e-01 4.626749e-01 3.133100e-02
<GCONST> 1.190892e+02
<TRANSP> 5
 0.000000e+00 1.000000e+00 0.000000e+00 0.000000e+00 0.000000e+00
 0.000000e+00 6.084834e-01 3.915166e-01 0.000000e+00 0.000000e+00
 0.000000e+00 0.000000e+00 8.384793e-01 1.615206e-01 0.000000e+00
 0.000000e+00 0.000000e+00 0.000000e+00 8.563312e-01 1.436688e-01
 0.000000e+00 0.000000e+00 0.000000e+00 0.000000e+00 0.000000e+00
<ENDHMM>
~h "ay"
<BEGINHMM>
<NUMSTATES> 5
<STATE> 2
<MEAN> 39
 3.356571e+00 -1.079494e+00 -3.066610e+00 2.098660e+00 -2.341802e+00 -5.506501e+00 -3.711371e+00 -4.832963e+00 -3.149171e+00 -3.463848e+00 -2.123690e+00 -2.664110e+00 6.213461e+01 1.273440e+00 -2.271305e+00 -1.578202e+00 -1.970022e+00 -1.009961e-01 -6.574799e-01 4.452429e-01 6.849537e-01 -1.727924e-01 1.687275e-01 7.663233e-02 3.795101e-01 2.509142e+00 -5.375353e-01 -1.334496e-01 1.743485e-02 -3.198145e-03 3.056462e-01 3.500109e-01 1.277694e-01 1.232140e-01 2.160475e-01 2.679069e-02 -2.259126e-03 -1.098276e-03 -2.823520e-01
<VARIANCE> 39
 4.888903e+01 1.091132e+02 1.098420e+02 1.195909e+02 1.303228e+02 1.140314e+02 1.288351e+02 9.072060e+01 5.859477e+01 6.237204e+01 8.015183e+01 5.808510e+01 1.459209e+02 5.269919e+00 6.512191e+00 6.438984e+00 4.858624e+00 9.404507e+00 7.489336e+00 9.002617e+00 7.685403e+00 5.385745e+00 6.175933e+00 6.167560e+00 5.715961e+00 2.324114e+00 1.059642e+00 1.151482e+00 1.130530e+00 9.751437e-01 1.430747e+00 1.239672e+00 1.275455e+00 1.379832e+00 9.322115e-01 8.957499e-01 9.905040e-01 8.639064e-01 7.359114e-01
<GCONST> 1.545204e+02
<STATE> 3
<MEAN> 39
 6.313852e+00 -1.085615e+01 -1.154188e+01 -7.928684e+00 2.275976e+00 -3.850709e+00 -1.553529e+00 -1.483790e+00 1.948236e-01 -1.937911e+00 -1.809177e+00 -5.282607e+00 7.006678e+01 2.407225e-02 -1.771911e-01 -6.357129e-02 4.461606e-01 2.001989e-01 -2.490370e-02 -1.529324e-01 2.868893e-02 3.318059e-01 -1.679640e-01 -2.683918e-01 1.298800e-01 -2.054469e-01 -6.238819e-02 2.313176e-01 1.274362e-01 2.334160e-01 -1.473691e-04 -1.068591e-01 -1.115504e-01 -1.912108e-02 -2.700857e-02 3.680480e-02 1.553310e-02 1.244872e-02 -1.800376e-01
<VARIANCE> 39
 2.402598e+01 6.791187e+01 6.908135e+01 1.410615e+02 1.023618e+02 2.142254e+02 2.495006e+02 6.654681e+01 6.957042e+01 8.701346e+01 8.357481e+01 7.342957e+01 4.462739e+01 6.753550e-01 1.073660e+00 2.245055e+00 2.507607e+00 2.881670e+00 4.735894e+00 2.801011e+00 2.977209e+00 2.478769e+00 2.638351e+00 2.726640e+00 2.676343e+00 4.142948e-01 1.810157e-01 2.465785e-01 3.652056e-01 3.798263e-01 4.763264e-01 7.013133e-01 5.961121e-01 5.461208e-01 4.634593e-01 5.564508e-01 5.111455e-01 5.061516e-01 1.584406e-01
<GCONST> 1.264732e+02
<STATE> 4
<MEAN> 39
 4.326487e+00 -5.138464e+00 -8.746052e+00 2.319055e-01 -9.121832e-02 -6.107341e+00 -1.505361e+00 -4.313758e+00 -9.723179e-01 -3.962867e+00 -4.805155e+00 5.544564e-01 6.710867e+01 -1.265792e-01 8.507208e-02 4.115041e-01 4.374568e-01 1.298043e-01 -3.312255e-01 -2.857933e-01 -1.080526e-01 -1.291077e-01 1.650018e-01 1.299134e-01 -3.748977e-02 -1.221741e-01 -4.720842e-02 7.659933e-02 1.577065e-01 6.956636e-02 -4.442820e-02 -1.606562e-02 5.147929e-02 -3.000127e-02 -5.251527e-02 -1.443459e-02 -9.509338e-03 -5.593615e-02 -4.190960e-02
<VARIANCE> 39
 3.295093e+01 1.033785e+02 6.025504e+01 4.594326e+01 9.658849e+01 1.066002e+02 1.247585e+02 5.673721e+01 4.410288e+01 5.288096e+01 6.289123e+01 4.616220e+01 5.426364e+01 1.504707e-01 3.910191e-01 9.501628e-01 1.076892e+00 1.293051e+00 1.374355e+00 1.560871e+00 1.363424e+00 1.443111e+00 1.407007e+00 1.356385e+00 1.044517e+00 1.316913e-01 2.460963e-02 6.201965e-02 9.659982e-02 1.360885e-01 1.547682e-01 2.072027e-01 2.335955e-01 1.989022e-01 2.011907e-01 2.138349e-01 1.999550e-01 1.723719e-01 1.947243e-02
<GCONST> 9.533436e+01
<TRANSP> 5
 0.000000e+00 1.000000e+00 0.000000e+00 0.000000e+00 0.000000e+00
 0.000000e+00 7.158791e-01 2.841209e-01 0.000000e+00 0.000000e+00
 0.000000e+00 0.000000e+00 8.251292e-01 1.748708e-01 0.000000e+00
 0.000000e+00 0.000000e+00 0.000000e+00 9.057634e-01 9.423655e-02
 0.000000e+00 0.000000e+00 0.000000e+00 0.000000e+00 0.000000e+00
<ENDHMM>
~h "eh"
<BEGINHMM>
<NUMSTATES> 5
<STATE> 2
<MEAN> 39
 -9.948015e+00 8.955156e-01 2.424202e+00 2.656710e+00 2.375029e+00 -1.482612e+00 3.413045e+00 -7.153560e+00 -8.749133e-02 -1.883141e+00 -1.853865e-01 -1.993379e+00 6.335778e+01 2.644427e+00 -1.846631e-01 -5.518321e-01 7.232793e-02 -4.893882e-01 -1.358824e+00 -1.032163e+00 -2.299627e-01 -7.581396e-01 -1.673428e-01 -4.958881e-01 1.094544e-01 9.421348e-01 2.107519e-01 -7.662906e-02 -1.513921e-01 -6.652572e-02 -9.317754e-02 -1.869566e-01 -1.211809e-01 2.813622e-01 1.047233e-01 -1.099714e-01 -3.107452e-02 1.200642e-03 1.440829e-01
<VARIANCE> 39
 1.371038e+02 4.745471e+01 8.095579e+01 9.166261e+01 8.233042e+01 9.341148e+01 9.349319e+01 8.154893e+01 5.472599e+01 3.461118e+01 5.710530e+01 5.455720e+01 9.357572e+01 1.150048e+01 4.367021e+00 5.163669e+00 4.375269e+00 4.458539e+00 6.880452e+00 5.860453e+00 5.118324e+00 5.332900e+00 3.923291e+00 3.599359e+00 2.289307e+00 2.706926e+00 1.533747e+00 6.305979e-01 4.541459e-01 4.982530e-01 5.356265e-01 9.853238e-01 8.174655e-01 8.254963e-01 8.363773e-01 5.568983e-01 5.060040e-01 3.191692e-01 4.136473e-01
<GCONST> 1.413685e+02
<STATE> 3
<MEAN> 39
 -5.813248e-01 -7.134134e+00 -3.485757e+00 -2.474829e+00 -1.410830e+00 -7.864052e+00 8.277252e-01 2.407115e+00 -1.452166e+00 -2.263324e+00 -6.588744e-01 -3.622671e-01 7.388441e+01 5.973266e-01 -5.069176e-01 -6.335917e-01 -1.844563e-03 -3.026857e-02 2.967259e-01 1.370795e-02 4.521270e-01 3.693058e-01 -3.587537e-01 -3.000191e-01 -1.440469e-01 6.595863e-03 -4.731384e-01 1.854677e-01 1.022674e-01 1.408467e-01 1.528479e-01 3.397974e-01 1.492946e-01 -1.772341e-01 9.515301e-03 4.380967e-02 7.840814e-02 3.148644e-02 -3.008913e-01
<VARIANCE> 39
 3.694019e+01 6.806045e+01 3.848677e+01 8.040264e+01 9.492963e+01 6.510663e+01 7.730368e+01 1.181619e+02 8.939404e+01 5.540437e+01 8.024470e+01 6.218480e+01 1.599091e+02 1.442988e+00 2.948376e+00 2.148461e+00 2.865955e+00 3.883876e+00 3.690706e+00 2.419971e+00 4.031295e+00 3.008980e+00 2.670126e+00 2.693663e+00 3.186165e+00 1.841739e+00 5.253955e-01 3.475491e-01 3.013164e-01 4.517742e-01 8.237333e-01 7.016620e-01 6.306014e-01 6.059908e-01 6.764820e-01 5.403715e-01 5.862299e-01 5.741018e-01 2.890634e-01
<GCONST> 1.319998e+02
<STATE> 4
<MEAN> 39
 1.952141e-01 -3.728698e-01 -6.678448e+00 8.821755e+00 -1.508300e+00 4.224407e+00 1.960075e+00 5.060988e-01 -5.785996e-01 -2.107503e+00 -1.703842e+00 -4.609732e+00 6.847066e+01 5.688079e-02 4.685760e-02 -8.428740e-02 5.726096e-02 7.172135e-02 6.921808e-03 -4.651610e-02 -1.407358e-02 1.072285e-01 7.963078e-02 -1.732179e-01 -8.779562e-03 -7.697462e-02 -4.983626e-02 8.415890e-02 9.083799e-02 -2.185059e-02 8.534557e-04 -1.765272e-02 7.025847e-03 1.264083e-03 -9.638402e-03 5.078312e-02 5.169998e-02 -3.371057e-02 -3.531614e-02
<VARIANCE> 39
 1.866865e+01 3.547343e+01 5.866371e+01 8.672942e+01 6.013773e+01 1.130082e+02 5.518861e+01 4.861849e+01 5.048809e+01 4.164248e+01 3.849132e+01 4.318045e+01 4.101843e+01 4.780842e-01 8.957490e-01 1.046778e+00 1.256044e+00 1.770233e+00 1.683054e+00 1.923834e+00 1.807228e+00 1.466753e+00 1.700415e+00 1.933798e+00 1.619094e+00 1.943665e-01 1.079324e-01 1.788191e-01 2.286688e-01 2.618712e-01 3.976006e-01 3.542491e-01 3.774563e-01 3.793746e-01 2.611829e-01 3.225692e-01 3.942117e-01 2.943177e-01 3.830686e-02
<GCONST> 1.058310e+02
<TRANSP> 5
 0.000000e+00 1.000000e+00 0.000000e+00 0.000000e+00 0.000000e+00
 0.000000e+00 7.778923e-01 2.221078e-01 0.000000e+00 0.000000e+00
 0.000000e+00 0.000000e+00 6.799374e-01 3.200626e-01 0.000000e+00
 0.000000e+00 0.000000e+00 0.000000e+00 8.476118e-01 1.523882e-01
 0.000000e+00 0.000000e+00 0.000000e+00 0.000000e+00 0.000000e+00
<ENDHMM>
~h "er"
<BEGINHMM>
<NUMSTATES> 5
<STATE> 2
<MEAN> 39
 -2.537648e-01 5.717121e+00 -6.748803e+00 5.143966e+00 8.705586e-01 -2.166278e+00 -2.364786e+00 -1.788332e+01 -1.148177e+01 -2.009870e+00 4.623582e+00 4.416190e-01 6.198932e+01 -6.732615e-01 -1.557223e-01 4.102601e-01 6.235160e-01 3.511801e-01 1.045077e-01 -1.723400e-01 3.296203e-01 7.003007e-01 2.643573e-01 -1.015617e-01 2.003240e-02 -4.515799e-01 -2.044279e-01 -4.423217e-02 1.980566e-01 1.144145e-01 -5.879436e-03 -5.073432e-03 1.990946e-01 2.909994e-01 2.674118e-01 -2.676590e-02 -1.837277e-01 -2.292072e-02 -8.682527e-02
<VARIANCE> 39
 4.322097e+01 1.694254e+01 4.075404e+01 2.980577e+01 4.055455e+01 3.542011e+01 4.031414e+01 4.215256e+01 5.816886e+01 6.646264e+01 3.610276e+01 3.281633e+01 1.961166e+01 6.636944e-01 9.258042e-01 1.264324e+00 1.100760e+00 1.060759e+00 1.420513e+00 2.117931e+00 2.563989e+00 1.965142e+00 1.916972e+00 1.782858e+00 1.039123e+00 4.173521e-01 1.217539e-01 2.289348e-01 1.437726e-01 1.811250e-01 2.166190e-01 3.495192e-01 4.647222e-01 2.697656e-01 2.723950e-01 2.755506e-01 2.857366e-01 2.364661e-01 5.869714e-02
<GCONST> 1.014066e+02
<STATE> 3
<MEAN> 39
 -1.391776e+01 -3.804076e+00 3.110699e+00 6.744563e+00 -1.733699e+00 -9.122868e-01 5.964454e+00 -8.093362e+00 -6.819721e-01 1.661271e+00 3.044096e+00 8.396905e-01 5.943973e+01 -4.030148e-01 -1.729520e-01 9.219493e-02 -4.080710e-02 -2.414497e-01 5.585994e-02 3.346463e-01 3.818931e-01 3.745702e-01 2.436666e-02 -8.604517e-02 8.561101e-02 -2.524042e-01 3.945252e-02 6.734210e-02 -1.372486e-02 -2.255593e-02 1.600108e-02 -2.985236e-02 -2.835019e-02 -4.826379e-02 -5.528845e-02 -1.168606e-02 -3.553372e-03 -3.844952e-03 2.401212e-03
<VARIANCE> 39
 6.987119e+01 5.200845e+01 1.444252e+02 5.506730e+01 5.483022e+01 6.828497e+01 5.549779e+01 3.589582e+01 4.568080e+01 5.325684e+01 4.286806e+01 3.112558e+01 2.972321e+01 2.233364e+00 3.668364e+00 3.850892e+00 2.483331e+00 2.283318e+00 3.365081e+00 3.139376e+00 2.652006e+00 2.632047e+00 2.130478e+00 2.317745e+00 1.506158e+00 1.569597e+00 2.166036e-01 5.298323e-01 4.659851e-01 3.831134e-01 4.067068e-01 5.471796e-01 4.528255e-01 4.651218e-01 4.624260e-01 4.180961e-01 3.710505e-01 2.639282e-01 2.549260e-01
<GCONST> 1.227292e+02
<STATE> 4
<MEAN> 39
 -1.646052e+01 3.481333e+00 -8.056577e-01 1.010048e+01 1.391624e-01 2.052603e+00 5.938107e+00 -1.622506e+00 4.946412e+00 -2.798920e+00 8.382596e-01 -1.881128e+00 4.843928e+01 -3.027712e-02 2.120021e-02 2.329596e-02 4.145349e-03 1.774677e-02 8.579458e-03 2.267259e-02 5.170672e-02 4.187392e-02 1.045614e-02 -4.246647e-02 -5.695989e-03 -7.598250e-02 1.209971e-02 -1.459801e-02 -1.165287e-02 3.027157e-03 2.288582e-03 -5.157892e-03 -6.604115e-03 -1.871775e-02 -8.439801e-03 9.068948e-03 1.328348e-02 1.152345e-03 1.636477e-02
<VARIANCE> 39
 1.223072e+01 1.627687e+01 1.444660e+01 1.671504e+01 2.813360e+01 2.732416e+01 1.581506e+01 1.751205e+01 1.776278e+01 3.112628e+01 1.532122e+01 3.580413e+01 2.526418e+01 1.545899e-01 3.994171e-01 5.153797e-01 6.529078e-01 8.561649e-01 1.002130e+00 1.107175e+00 1.215886e+00 1.288540e+00 1.275235e+00 1.195273e+00 1.012970e+00 7.706307e-02 3.286141e-02 6.968356e-02 9.939564e-02 1.235970e-01 1.652611e-01 1.858941e-01 2.098477e-01 2.330250e-01 2.591637e-01 2.570473e-01 2.461616e-01 2.010720e-01 1.615823e-02
<GCONST> 7.815370e+01
<TRANSP> 5
 0.000000e+00 1.000000e+00 0.000000e+00 0.000000e+00 0.000000e+00
 0.000000e+00 8.127980e-01 1.872019e-01 0.000000e+00 0.000000e+00
 0.000000e+00 0.000000e+00 8.940126e-01 1.059874e-01 0.000000e+00
 0.000000e+00 0.000000e+00 0.000000e+00 9.701841e-01 2.981587e-02
 0.000000e+00 0.000000e+00 0.000000e+00 0.000000e+00 0.000000e+00
<ENDHMM>
~h "ey"
<BEGINHMM>
<NUMSTATES> 5
<STATE> 2
<MEAN> 39
 -8.365071e+00 -3.212109e+00 1.713432e-01 3.953394e+00 5.422536e-01 -5.142355e+00 -3.348850e+00 -4.128145e+00 -3.351964e-01 -2.376404e-01 1.301567e+00 -2.339215e+00 5.377133e+01 1.249207e+00 -9.604117e-01 5.031216e-01 -5.389501e-01 -5.431800e-01 -2.316803e+00 -9.341004e-01 -6.076843e-01 -5.484467e-01 2.776203e-01 -1.402734e-01 -6.407161e-01 2.506155e+00 3.081950e-03 8.658738e-02 1.036254e-01 -5.610766e-03 6.158835e-02 -5.545304e-02 -5.444022e-02 -1.420656e-02 -7.743295e-03 -5.053050e-02 3.357019e-02 -6.602322e-02 3.728999e-02
<VARIANCE> 39
 7.596686e+01 7.348558e+01 1.115791e+02 1.645374e+02 2.329972e+02 2.149733e+02 1.096926e+02 8.097965e+01 6.630508e+01 1.057811e+02 7.051538e+01 4.950564e+01 2.115580e+02 4.401936e+00 4.996763e+00 7.929235e+00 1.027530e+01 1.180315e+01 1.225058e+01 8.172183e+00 6.188965e+00 6.336617e+00 7.406595e+00 4.881418e+00 3.074744e+00 6.286127e+00 6.772316e-01 9.168189e-01 1.063088e+00 1.552435e+00 1.814870e+00 2.119805e+00 1.255025e+00 1.040722e+00 1.152716e+00 1.240598e+00 8.109200e-01 5.590739e-01 1.441744e+00
<GCONST> 1.587596e+02
<STATE> 3
<MEAN> 39
 -1.576869e+00 -1.973420e+00 2.899452e+00 1.509187e+01 6.695333e+00 -2.492015e+01 -9.006220e+00 -7.358202e+00 -6.604434e+00 -2.344547e+00 1.778827e-01 -9.974128e+00 6.764676e+01 -3.179373e-01 6.917086e-01 5.634790e-01 3.170085e-01 -1.633472e-01 6.747875e-01 -4.487509e-02 -1.609539e-02 5.292145e-01 -3.914264e-01 -3.629351e-01 -8.889038e-02 -5.958689e-01 -1.172064e-01 1.367466e-01 -2.925950e-02 -1.065555e-01 -7.593763e-02 4.231242e-01 1.327340e-01 -5.851377e-02 1.198037e-01 -2.641370e-02 -4.543312e-02 1.974135e-01 -2.586481e-01
<VARIANCE> 39
 3.099418e+01 4.119579e+01 2.987019e+01 1.592114e+02 1.687418e+02 1.149970e+02 1.053321e+02 6.792137e+01 7.804783e+01 3.310060e+01 5.844263e+01 5.371796e+01 3.891740e+01 4.538498e-01 8.765516e-01 9.075440e-01 1.844253e+00 2.378696e+00 3.081671e+00 1.927445e+00 1.990597e+00 2.784506e+00 2.135439e+00 1.853305e+00 1.852084e+00 5.962890e-01 1.374290e-01 1.953660e-01 1.966816e-01 3.510540e-01 4.355504e-01 3.645442e-01 3.959770e-01 3.931989e-01 4.503070e-01 3.652950e-01 3.486636e-01 3.250506e-01 1.256701e-01
<GCONST> 1.149973e+02
<STATE> 4
<MEAN> 39
 -6.069098e+00 3.071563e+00 1.157098e+01 -2.688426e+00 -1.011245e+01 -5.020059e+00 -6.707273e+00 -1.009460e+01 -2.097859e+00 -2.983207e+00 -1.514313e+00 -6.895224e-01 5.374903e+01 -4.989666e-01 4.492320e-01 -3.233677e-01 2.159598e-01 3.233213e-01 6.208673e-01 -6.154064e-02 -1.629019e-02 -1.634032e-01 -7.168730e-02 -3.003139e-02 2.257094e-01 -1.144295e+00 -3.520314e-02 -1.114452e-01 -6.747011e-02 2.459461e-02 5.537734e-02 -1.159970e-02 1.193384e-01 9.776147e-02 -4.580390e-02 5.200000e-02 4.912440e-02 -2.493576e-02 1.702661e-02
<VARIANCE> 39
 3.983497e+01 5.072330e+01 1.159269e+02 1.933976e+02 1.365951e+02 1.004797e+02 6.199513e+01 6.083281e+01 6.272943e+01 5.438496e+01 6.834088e+01 4.450157e+01 1.468753e+02 6.233327e-01 1.626125e+00 2.038192e+00 2.963556e+00 2.360162e+00 3.027788e+00 2.999447e+00 3.587952e+00 3.090299e+00 1.796240e+00 2.757767e+00 2.443338e+00 7.374300e-01 6.394912e-02 1.812959e-01 2.284323e-01 3.955348e-01 3.767311e-01 3.545112e-01 4.624833e-01 5.211089e-01 5.972278e-01 3.245529e-01 4.431865e-01 3.938328e-01 1.013374e-01
<GCONST> 1.217113e+02
<TRANSP> 5
 0.000000e+00 1.000000e+00 0.000000e+00 0.000000e+00 0.000000e+00
 0.000000e+00 8.135864e-01 1.864136e-01 0.000000e+00 0.000000e+00
 0.000000e+00 0.000000e+00 8.155801e-01 1.844198e-01 0.000000e+00
 0.000000e+00 0.000000e+00 0.000000e+00 8.535319e-01 1.464681e-01
 0.000000e+00 0.000000e+00 0.000000e+00 0.000000e+00 0.000000e+00
<ENDHMM>
~h "hh"
<BEGINHMM>
<NUMSTATES> 5
<STATE> 2
<MEAN> 39
 4.843596e+00 1.792060e-01 -4.849015e+00 -4.430157e-01 -5.932147e+00 -1.945851e+01 1.233844e+01 9.038363e+00 -1.506577e+00 -4.726972e+00 -2.911304e+00 3.589045e-01 7.336147e+01 8.702739e-02 3.061220e-01 1.453526e-01 5.154058e-02 -1.401642e-01 6.609723e-02 -3.000389e-01 1.849679e-01 2.461214e-01 -3.273702e-01 3.112273e-02 -2.061008e-02 -2.977018e-01 -1.739543e-02 3.542190e-02 3.524652e-02 3.868658e-02 -6.592933e-03 6.633584e-02 -4.734204e-02 -4.030031e-02 8.559421e-03 -1.170981e-02 4.719639e-02 -4.062711e-02 -2.674315e-02
<VARIANCE> 39
 1.954326e+01 3.560662e+01 4.210085e+01 2.471587e+01 7.220867e+01 9.835856e+01 2.452949e+02 7.140225e+01 4.888087e+01 1.541415e+02 2.435419e+01 1.131521e+02 2.747444e+01 6.265042e-01 1.245113e+00 2.026714e+00 1.731212e+00 1.809630e+00 3.594528e+00 3.036016e+00 1.891226e+00 2.764280e+00 3.258492e+00 1.661266e+00 1.808945e+00 5.809715e-01 8.362013e-02 1.518569e-01 2.766331e-01 2.784632e-01 3.065778e-01 4.527151e-01 5.086212e-01 2.742036e-01 4.747795e-01 5.580299e-01 2.881471e-01 3.628736e-01 8.683650e-02
<GCONST> 1.144488e+02
<STATE> 3
<MEAN> 39
 7.281647e+00 1.171635e+01 4.873682e+00 1.399612e+00 -1.504881e+01 -1.295222e+01 -7.528049e+00 -2.072861e+00 8.862473e+00 -4.433328e+00 -8.280446e+00 1.346393e+00 6.495380e+01 -3.031157e-01 2.790194e-01 2.042484e-01 2.301718e-01 2.017569e-01 3.886351e-01 3.024882e-01 -1.066676e-01 1.074578e-01 4.037099e-01 2.496008e-01 -1.532233e-01 -2.566522e-01 -3.828837e-02 -3.648683e-02 -9.818115e-03 3.090224e-02 5.481379e-02 6.319214e-02 8.211001e-02 -2.292758e-02 -6.518085e-02 3.464569e-02 1.661817e-02 9.424446e-03 1.225925e-03
<VARIANCE> 39
 1.718923e+01 2.072545e+01 2.014033e+01 1.008445e+01 3.422434e+01 7.679706e+01 1.019448e+02 6.117506e+01 3.042054e+01 2.847045e+01 3.172504e+01 3.016823e+01 6.733317e+00 6.431652e-01 8.623405e-01 9.871498e-01 8.979058e-01 1.549755e+00 2.973662e+00 3.139149e+00 1.631323e+00 1.457754e+00 1.455577e+00 1.114475e+00 1.193685e+00 3.925978e-01 5.088358e-02 1.506111e-01 1.276404e-01 1.105432e-01 1.965431e-01 3.693205e-01 2.943278e-01 2.288112e-01 1.879388e-01 1.654319e-01 2.237356e-01 2.328128e-01 4.488191e-02
<GCONST> 9.358530e+01
<STATE> 4
<MEAN> 39
 -1.171676e+00 5.456075e+00 2.003808e+00 6.515278e+00 -1.546349e-01 -2.506163e-01 3.898793e+00 -1.051206e+00 2.697331e+00 -3.944069e+00 1.120718e+00 -8.015815e-01 6.244636e+01 -4.763604e-02 2.457049e-02 1.764863e-02 1.019957e-02 4.306989e-02 5.752144e-02 -6.235418e-02 -1.017219e-01 -1.194256e-02 4.256270e-03 3.809502e-02 4.018458e-02 -3.162353e-02 5.354855e-03 -1.365221e-02 -4.349168e-04 -1.244584e-02 2.042801e-03 -1.759429e-02 5.401385e-03 6.363336e-03 -8.239650e-03 -5.377629e-03 5.504687e-03 -2.678843e-04 1.625098e-02
<VARIANCE> 39
 1.678590e+01 8.662529e+00 2.257000e+01 1.533332e+01 6.216724e+01 4.251030e+01 2.497102e+01 2.830329e+01 3.225888e+01 2.854790e+01 1.737795e+01 3.935601e+01 5.341075e+00 4.012122e-01 4.770516e-01 7.607362e-01 7.995079e-01 1.132015e+00 1.273893e+00 1.898324e+00 1.807081e+00 2.081770e+00 1.557328e+00 1.358869e+00 1.432158e+00 1.312280e-01 7.128236e-02 9.637892e-02 1.529600e-01 1.537004e-01 2.295437e-01 2.442122e-01 3.564468e-01 3.410939e-01 4.027523e-01 2.964741e-01 2.495822e-01 2.560406e-01 2.590905e-02
<GCONST> 8.898344e+01
<TRANSP> 5
 0.000000e+00 1.000000e+00 0.000000e+00 0.000000e+00 0.000000e+00
 0.000000e+00 9.066294e-01 9.337056e-02 0.000000e+00 0.000000e+00
 0.000000e+00 0.000000e+00 8.976163e-01 1.023837e-01 0.000000e+00
 0.000000e+00 0.000000e+00 0.000000e+00 9.799724e-01 2.002761e-02
 0.000000e+00 0.000000e+00 0.000000e+00 0.000000e+00 0.000000e+00
<ENDHMM>
~h "ih"
<BEGINHMM>
<NUMSTATES> 5
<STATE> 2
<MEAN> 39
 -1.326408e+01 4.360437e-01 5.576585e+00 2.448683e+00 1.769449e+00 -4.677948e+00 -2.772971e+00 -1.000200e+01 -9.726194e-02 -3.796317e+00 -6.191567e-01 -2.234673e+00 6.090494e+01 3.572468e+00 1.327120e-02 -6.053982e-01 1.319235e+00 3.557907e-01 -1.893708e+00 -2.074902e+00 -6.306274e-01 -1.620481e+00 -2.801153e-01 -1.239534e-01 -2.088984e-01 8.886812e-01 2.840677e-01 -2.396764e-01 -9.946670e-02 -1.136313e-02 2.177048e-01 -4.705767e-01 -1.006144e-01 1.033670e-01 -2.324876e-01 2.287551e-01 1.803840e-01 -1.380713e-01 4.830557e-01
<VARIANCE> 39
 1.368435e+02 7.563190e+01 9.113125e+01 1.139629e+02 9.943320e+01 9.706069e+01 1.142967e+02 7.834011e+01 5.897606e+01 3.824560e+01 3.812050e+01 3.448077e+01 9.308310e+01 8.550516e+00 7.240974e+00 6.881596e+00 5.262915e+00 5.968257e+00 7.627851e+00 5.223999e+00 3.994017e+00 5.295334e+00 2.774323e+00 3.632173e+00 2.872546e+00 2.895043e+00 1.536512e+00 9.294342e-01 5.050054e-01 6.740270e-01 7.552131e-01 1.120584e+00 1.159018e+00 7.462924e-01 8.380176e-01 5.514532e-01 5.393815e-01 3.820950e-01 3.932646e-01
<GCONST> 1.442295e+02
<STATE> 3
<MEAN> 39
 -2.424557e+00 -7.549909e-01 9.600320e-02 1.229615e+01 1.276512e+01 -1.574444e+01 -6.402706e+00 -1.008647e+01 -5.737810e+00 -4.057323e+00 1.883698e+00 -6.784215e+00 6.662598e+01 1.070589e-01 9.481010e-02 -1.753183e-01 -1.353462e-01 -1.151885e-01 3.722214e-01 2.653022e-01 -2.969192e-01 -4.478755e-02 5.032491e-02 6.670108e-02 3.072725e-01 -8.529474e-02 -2.853422e-01 4.448883e-02 6.908426e-02 -2.650165e-01 -1.521657e-01 4.032161e-01 1.896604e-01 -4.248111e-02 1.682761e-01 -3.574307e-02 -9.279330e-02 7.864285e-02 -1.118972e-01
<VARIANCE> 39
 2.992549e+01 6.754131e+01 2.734194e+01 6.538990e+01 1.051264e+02 1.561199e+02 7.781109e+01 7.553803e+01 5.838305e+01 5.891702e+01 4.284626e+01 7.655558e+01 5.556247e+01 2.877041e+00 5.523404e+00 2.244248e+00 4.994616e+00 5.390704e+00 1.160443e+01 4.327464e+00 3.669750e+00 4.817080e+00 4.618547e+00 3.156600e+00 3.735269e+00 3.954946e+00 5.883690e-01 1.084563e+00 3.794503e-01 8.868056e-01 8.513473e-01 1.840298e+00 9.716724e-01 7.238486e-01 9.778732e-01 9.078854e-01 6.334102e-01 5.993438e-01 7.151483e-01
<GCONST> 1.415826e+02
<STATE> 4
<MEAN> 39
 -4.989501e+00 -3.968586e+00 5.002883e+00 1.174973e+00 -4.586526e+00 -5.830604e+00 -1.057157e+01 -8.731222e+00 -2.146578e+00 -6.603324e+00 3.888779e+00 -3.183776e+00 6.032578e+01 -5.932327e-01 -8.722844e-01 4.941990e-01 -8.537472e-01 -2.075495e-01 -1.444432e-01 5.023255e-01 -1.588640e-01 1.037796e-02 1.930424e-01 -1.160083e-01 -1.447490e-01 7.924800e-01 -2.296494e-01 8.414406e-02 1.762529e-01 2.321412e-01 6.892747e-02 8.692808e-03 1.027559e-01 1.440400e-01 2.506506e-01 4.648969e-02 -3.227070e-02 -1.267249e-01 -8.839588e-02
<VARIANCE> 39
 9.313509e+01 1.772709e+02 1.160745e+02 9.784339e+01 3.337641e+02 2.152366e+02 2.069886e+02 1.195088e+02 7.354995e+01 6.209038e+01 8.169186e+01 5.987465e+01 9.329167e+01 7.681154e+00 5.976002e+00 1.014475e+01 8.914459e+00 8.258260e+00 1.088789e+01 6.290499e+00 6.557617e+00 5.767662e+00 5.107341e+00 3.128164e+00 4.403070e+00 5.810002e+00 8.194134e-01 9.350438e-01 1.436404e+00 9.343653e-01 1.174872e+00 1.662309e+00 1.168799e+00 1.108481e+00 1.035979e+00 1.017504e+00 6.815038e-01 9.318515e-01 6.991899e-01
<GCONST> 1.579943e+02
<TRANSP> 5
 0.000000e+00 1.000000e+00 0.000000e+00 0.000000e+00 0.000000e+00
 0.000000e+00 6.238343e-01 3.761658e-01 0.000000e+00 0.000000e+00
 0.000000e+00 0.000000e+00 8.181106e-01 1.818894e-01 0.000000e+00
 0.000000e+00 0.000000e+00 0.000000e+00 6.896691e-01 3.103309e-01
 0.000000e+00 0.000000e+00 0.000000e+00 0.000000e+00 0.000000e+00
<ENDHMM>
~h "iy"
<BEGINHMM>
<NUMSTATES> 5
<STATE> 2
<MEAN> 39
 2.232562e+00 -1.059161e+01 9.880790e+00 5.065433e+00 -1.475642e+01 -1.135394e+01 -1.541452e+01 -2.216449e+00 -2.567454e+00 -8.617726e+00 3.080222e+00 -2.717966e+00 5.667551e+01 1.339619e-01 1.850185e-01 -2.694632e-01 1.357129e-01 -2.089318e-02 3.588912e-01 2.564144e-01 5.795854e-03 3.872693e-02 8.021890e-02 -2.570285e-01 -6.940939e-02 -3.269083e-01 -9.898086e-02 9.151617e-02 -1.162139e-01 -1.024102e-01 8.783048e-02 2.326164e-01 2.020780e-01 -1.007415e-01 1.352376e-02 1.084653e-01 -5.040615e-02 9.014493e-03 -8.828786e-02
<VARIANCE> 39
 5.141249e+01 1.062061e+02 7.590048e+01 1.508432e+02 1.986571e+02 8.608989e+01 9.686854e+01 6.771059e+01 7.244400e+01 6.822550e+01 6.863597e+01 6.824562e+01 1.174283e+02 1.165401e+00 1.655652e+00 3.700059e+00 1.710951e+00 2.969234e+00 3.235105e+00 3.553036e+00 3.149698e+00 3.616375e+00 3.246710e+00 3.071863e+00 2.447676e+00 1.296300e+00 1.518014e-01 2.303467e-01 2.712857e-01 3.113187e-01 4.172529e-01 5.368361e-01 6.227435e-01 5.746781e-01 7.109311e-01 5.233970e-01 5.796103e-01 4.151519e-01 1.252827e-01
<GCONST> 1.289685e+02
<STATE> 3
<MEAN> 39
 -5.004371e+00 3.609402e+00 1.066506e+01 9.051619e+00 -3.868130e+00 -4.185769e+00 -6.455366e+00 -1.142276e+01 -5.853100e+00 -1.274213e-01 -2.985772e+00 -3.103692e+00 5.635983e+01 -7.509496e-01 -1.800780e-02 -6.953722e-01 -6.281629e-01 -5.025628e-02 1.273216e+00 1.192124e+00 -1.052423e-01 4.780363e-01 3.809119e-01 -3.212933e-01 3.291360e-01 -7.916669e-01 -5.909947e-02 -1.259641e-01 -1.342324e-01 -8.227167e-02 -4.234593e-02 -1.063465e-01 1.991410e-02 2.394245e-01 1.008509e-01 -1.097419e-01 1.313169e-01 1.313992e-01 1.559856e-03
<VARIANCE> 39
 4.303810e+01 5.843284e+01 1.234276e+02 1.239682e+02 2.063818e+02 7.937129e+01 8.151979e+01 6.078274e+01 4.072859e+01 7.918413e+01 3.909479e+01 5.473428e+01 7.493992e+01 1.410605e+00 2.513315e+00 3.278738e+00 2.802941e+00 3.215802e+00 4.036105e+00 4.299088e+00 2.856481e+00 3.149637e+00 3.308929e+00 2.479494e+00 2.988837e+00 6.177419e-01 1.336694e-01 4.068834e-01 3.893657e-01 3.471945e-01 5.478568e-01 6.115466e-01 7.423934e-01 4.190451e-01 4.676977e-01 6.490364e-01 3.650616e-01 4.356760e-01 8.744766e-02
<GCONST> 1.271976e+02
<STATE> 4
<MEAN> 39
 -6.773507e+00 -2.829646e+00 3.179394e+00 3.254139e+00 -6.587575e+00 5.223811e-01 -3.040335e+00 -3.462575e+00 1.306168e-02 -2.792390e+00 -3.456260e+00 4.408287e-01 4.643526e+01 -2.832343e-01 -3.207623e-01 -8.786724e-01 8.234962e-02 3.341619e-01 5.269511e-01 5.136555e-01 6.166112e-01 3.377044e-01 -1.337224e-02 3.883290e-01 2.250922e-01 -4.388893e-01 4.801995e-02 2.807127e-02 6.063860e-02 -6.197216e-03 -7.112945e-03 -1.635188e-01 -5.622410e-02 -3.200521e-03 -7.803259e-02 -8.365622e-03 1.017957e-01 -3.946174e-02 8.541111e-02
<VARIANCE> 39
 5.648373e+01 1.085239e+02 4.034610e+01 1.068724e+02 1.188533e+02 8.032158e+01 6.823088e+01 6.557402e+01 4.055873e+01 4.857464e+01 5.378543e+01 4.293930e+01 1.195972e+02 9.604716e-01 1.509518e+00 1.876379e+00 2.698816e+00 2.223399e+00 2.346309e+00 2.872795e+00 2.140652e+00 2.638131e+00 2.715609e+00 2.586088e+00 2.009140e+00 3.974860e-01 1.031948e-01 1.900981e-01 2.547103e-01 3.469513e-01 3.558417e-01 4.083532e-01 3.613285e-01 3.745148e-01 4.182083e-01 5.750055e-01 5.038391e-01 3.756962e-01 7.763333e-02
<GCONST> 1.186764e+02
<TRANSP> 5
 0.000000e+00 1.000000e+00 0.000000e+00 0.000000e+00 0.000000e+00
 0.000000e+00 7.471636e-01 2.528363e-01 0.000000e+00 0.000000e+00
 0.000000e+00 0.000000e+00 6.745303e-01 3.254698e-01 0.000000e+00
 0.000000e+00 0.000000e+00 0.000000e+00 7.044874e-01 2.955126e-01
 0.000000e+00 0.000000e+00 0.000000e+00 0.000000e+00 0.000000e+00
<ENDHMM>
~h "ng"
<BEGINHMM>
<NUMSTATES> 5
<STATE> 2
<MEAN> 39
 -5.047189e+00 -7.455163e+00 4.331405e+00 5.765418e+00 7.201831e+00 -1.091816e+01 6.545662e+00 -1.015582e+01 -3.500266e+00 9.064512e+00 -3.738288e-02 -9.740603e+00 6.965306e+01 9.253572e-01 2.529913e-01 -4.823116e-01 6.783733e-01 3.960994e-02 2.622008e-01 -4.528696e-01 -3.513348e-02 -7.545805e-01 -1.418206e-01 -5.297313e-01 1.206595e-02 -5.771880e-01 2.872041e-01 2.703123e-01 -4.649492e-02 2.884113e-01 -1.446885e-01 1.175003e-01 -2.245177e-01 2.280512e-01 6.858344e-02 -3.313138e-01 -6.679771e-02 2.381030e-01 -2.532867e-01
<VARIANCE> 39
 6.119960e+01 4.505427e+01 2.553909e+01 3.279842e+01 3.327419e+01 4.746133e+01 4.771643e+01 3.643555e+01 8.082396e+01 8.658614e+01 3.586803e+01 2.333954e+01 2.222236e+01 5.280174e+00 3.122459e+00 1.621738e+00 2.200230e+00 2.496807e+00 6.612174e+00 4.873149e+00 6.923614e+00 9.585547e+00 1.306270e+01 1.581505e+00 2.479607e+00 2.180067e+00 1.572243e+00 5.282987e-01 2.841206e-01 3.586404e-01 5.205934e-01 1.109824e+00 1.008884e+00 1.050810e+00 1.786290e+00 1.790756e+00 3.658094e-01 3.916101e-01 5.605463e-01
<GCONST> 1.328942e+02
<STATE> 3
<MEAN> 39
 -5.225942e+00 4.659928e+00 8.068239e+00 1.577751e+01 -1.972953e+00 -4.752723e+00 1.812499e+00 -6.206622e+00 -5.292068e-01 -3.013377e+00 -3.715916e+00 -1.591250e+00 6.085624e+01 -2.775784e-01 -6.744692e-03 2.806388e-02 3.069207e-02 1.016612e-01 3.273681e-01 3.238312e-01 1.854398e-01 1.941198e-02 -3.165935e-02 1.061644e-01 1.206513e-01 -2.053344e-01 -4.678186e-02 -1.171743e-01 -7.353605e-02 -7.119046e-02 -1.296206e-02 -8.271794e-03 2.085172e-02 1.221587e-02 2.752505e-02 7.729695e-02 8.633398e-02 3.463485e-02 -1.010880e-03
<VARIANCE> 39
 2.271460e+01 6.296656e+01 2.475532e+01 1.661113e+01 3.922739e+01 3.931777e+01 3.751485e+01 1.961273e+01 2.495804e+01 2.802297e+01 1.875117e+01 2.328140e+01 8.168199e+00 1.452500e+00 5.742587e+00 2.700835e+00 1.625751e+00 1.925930e+00 3.492822e+00 3.126556e+00 1.946388e+00 2.482534e+00 2.374403e+00 1.878186e+00 1.560040e+00 8.314932e-01 2.035491e-01 8.759682e-01 5.253235e-01 3.502272e-01 3.728665e-01 5.846188e-01 6.282791e-01 3.773384e-01 5.093762e-01 4.999009e-01 3.868861e-01 2.971960e-01 1.724756e-01
<GCONST> 1.119423e+02
<STATE> 4
<MEAN> 39
 -9.887948e+00 1.667741e+00 2.000225e+00 1.052473e+01 2.367439e+00 3.309878e+00 8.640414e+00 -1.906201e-01 3.234493e+00 -1.729622e-01 1.730600e+00 -1.350291e-01 5.566497e+01 -5.678520e-02 -9.930674e-02 -1.150922e-01 -1.557010e-01 -1.200019e-01 -3.061537e-02 -1.368184e-02 1.524156e-03 2.754077e-02 -1.178297e-02 2.011153e-02 5.305380e-02 -5.156499e-02 1.793370e-02 1.433646e-02 2.092461e-02 2.838409e-02 1.048280e-02 -1.065835e-02 -1.852249e-02 -2.391546e-02 -2.778968e-02 -8.729496e-03 -3.282514e-02 -2.625930e-02 1.434839e-02
<VARIANCE> 39
 2.461870e+01 2.501723e+01 1.046931e+01 1.820665e+01 4.433262e+01 3.163308e+01 2.151884e+01 2.259963e+01 2.307020e+01 3.231014e+01 1.149094e+01 2.635767e+01 4.626342e+00 2.256353e-01 6.464055e-01 6.296332e-01 9.407167e-01 1.103868e+00 1.352704e+00 1.375337e+00 1.202796e+00 1.267783e+00 1.146997e+00 8.855620e-01 9.185389e-01 1.022156e-01 3.210079e-02 9.834106e-02 1.048950e-01 1.730867e-01 2.219629e-01 2.939590e-01 2.808460e-01 2.061608e-01 2.050219e-01 2.153544e-01 1.520255e-01 1.679659e-01 1.818653e-02
<GCONST> 8.084451e+01
<TRANSP> 5
 0.000000e+00 1.000000e+00 0.000000e+00 0.000000e+00 0.000000e+00
 0.000000e+00 8.297489e-01 1.702511e-01 0.000000e+00 0.000000e+00
 0.000000e+00 0.000000e+00 9.543185e-01 4.568147e-02 0.000000e+00
 0.000000e+00 0.000000e+00 0.000000e+00 9.723604e-01 2.763951e-02
 0.000000e+00 0.000000e+00 0.000000e+00 0.000000e+00 0.000000e+00
<ENDHMM>
~h "ow"
<BEGINHMM>
<NUMSTATES> 5
<STATE> 2
<MEAN> 39
 -5.082222e+00 -5.801878e-03 -6.241322e+00 -1.111492e+00 1.411843e+00 -1.961741e+00 2.588011e+00 -2.954168e+00 -3.955499e+00 -2.046556e+00 -4.329916e-01 -3.663379e+00 6.078751e+01 1.312923e+00 -6.134759e-01 -4.472110e-01 -1.283319e+00 -3.841572e-01 -1.184988e+00 -4.436688e-01 -4.305001e-01 -7.700732e-01 -3.166893e-02 -4.167225e-01 -5.139779e-01 2.181900e+00 1.793586e-01 1.009506e-01 7.975864e-02 2.656247e-01 -2.369893e-02 -5.059965e-02 -2.609423e-01 9.504644e-02 1.944621e-01 -1.025753e-01 -1.515209e-02 -2.229538e-02 -1.435444e-01
<VARIANCE> 39
 9.606892e+01 8.861332e+01 6.335531e+01 1.065124e+02 1.897973e+02 1.363617e+02 1.301096e+02 1.047041e+02 1.124748e+02 7.088187e+01 6.613045e+01 6.443347e+01 2.650268e+02 7.549248e+00 3.524022e+00 3.629634e+00 9.261134e+00 7.340083e+00 9.705753e+00 7.710316e+00 7.537539e+00 9.114586e+00 5.772187e+00 6.916862e+00 4.386666e+00 7.625495e+00 1.104532e+00 5.603690e-01 6.482922e-01 1.498956e+00 1.173940e+00 1.408517e+00 1.231498e+00 1.214972e+00 1.252651e+00 9.135122e-01 1.217639e+00 7.901014e-01 1.393438e+00
<GCONST> 1.575021e+02
<STATE> 3
<MEAN> 39
 3.994668e+00 3.801384e+00 -7.179914e+00 -2.838295e+00 -3.311039e+00 -7.420710e+00 3.283841e+00 -5.907580e+00 -7.903755e+00 -7.791700e+00 1.332154e-01 -5.437220e+00 6.757874e+01 -2.194950e-02 2.083122e-01 9.190630e-03 4.670121e-01 7.364881e-02 2.305352e-01 -2.126226e-01 4.472907e-02 3.598209e-02 -5.324498e-01 3.044665e-02 4.056664e-01 -4.283257e-01 -2.197681e-01 9.156428e-02 1.076216e-01 1.383792e-01 9.519649e-02 2.584755e-01 5.150215e-02 -1.401350e-02 1.431489e-01 1.051428e-01 3.818256e-02 3.064856e-02 -2.283252e-01
<VARIANCE> 39
 3.891232e+01 5.246511e+01 4.889806e+01 1.246082e+02 9.343550e+01 1.894335e+02 1.073666e+02 1.079316e+02 9.265759e+01 7.382150e+01 1.350598e+02 1.007408e+02 1.051250e+02 8.957400e-01 1.174329e+00 1.682198e+00 2.431449e+00 2.580775e+00 4.210052e+00 2.917688e+00 3.804239e+00 3.604613e+00 2.471406e+00 3.480412e+00 2.601888e+00 8.584316e-01 1.312982e-01 1.852170e-01 2.352664e-01 4.334841e-01 5.259424e-01 6.170656e-01 5.141974e-01 6.846016e-01 6.469284e-01 4.986032e-01 5.305663e-01 4.923996e-01 1.193550e-01
<GCONST> 1.278777e+02
<STATE> 4
<MEAN> 39
 8.352189e-01 1.962843e+00 -5.555605e+00 -5.850513e+00 -9.284907e+00 -1.081910e-01 -4.930593e+00 -1.825700e+00 -2.072539e+00 -3.409173e+00 -1.969710e+00 -9.778128e-02 5.100933e+01 -5.101999e-01 1.798681e-01 2.031496e-01 5.225200e-01 1.382943e-01 2.979155e-01 1.568864e-01 7.850607e-02 7.092614e-02 5.082327e-02 1.215502e-01 8.237734e-02 -7.092845e-01 -3.892999e-02 -5.430032e-02 -1.566002e-02 2.959053e-03 4.948012e-02 -1.082834e-02 2.276216e-02 -2.561236e-02 1.631646e-02 5.357471e-02 3.001208e-02 -4.377028e-03 9.154810e-03
<VARIANCE> 39
 6.415594e+01 1.118564e+02 5.351161e+01 9.696330e+01 1.438687e+02 1.128650e+02 8.637267e+01 6.154036e+01 5.848337e+01 7.299627e+01 4.369007e+01 4.748948e+01 1.468570e+02 8.280611e-01 1.452678e+00 1.244504e+00 1.803534e+00 2.263704e+00 2.436974e+00 2.187916e+00 2.062061e+00 2.169846e+00 2.024690e+00 1.915120e+00 1.645398e+00 4.400799e-01 6.598050e-02 1.678488e-01 1.814676e-01 2.425213e-01 3.061588e-01 3.431931e-01 3.521792e-01 3.319584e-01 3.157950e-01 3.557536e-01 3.385195e-01 2.723535e-01 4.061566e-02
<GCONST> 1.145848e+02
<TRANSP> 5
 0.000000e+00 1.000000e+00 0.000000e+00 0.000000e+00 0.000000e+00
 0.000000e+00 7.530057e-01 2.469943e-01 0.000000e+00 0.000000e+00
 0.000000e+00 0.000000e+00 7.565789e-01 2.434212e-01 0.000000e+00
 0.000000e+00 0.000000e+00 0.000000e+00 8.808360e-01 1.191640e-01
 0.000000e+00 0.000000e+00 0.000000e+00 0.000000e+00 0.000000e+00
<ENDHMM>
~h "sh"
<BEGINHMM>
<NUMSTATES> 5
<STATE> 2
<MEAN> 39
 -7.775464e+00 -2.530769e+00 9.319887e+00 1.018250e+01 -3.266073e+00 -1.091548e+01 -7.588277e-02 -2.190103e+00 2.913120e+00 -5.100726e+00 -2.127153e+00 1.050677e+00 6.533105e+01 -1.961857e+00 -2.622133e+00 7.124350e-01 6.064546e-01 1.052516e+00 1.804536e-01 5.956992e-01 2.098969e-01 7.346207e-01 3.322531e-01 2.584295e-01 7.175052e-01 2.139869e-01 -7.791174e-03 1.055695e-01 -1.268239e-01 -5.344556e-02 1.276059e-01 -1.386751e-01 -1.490856e-01 -1.422632e-01 -1.087204e-01 -2.270892e-01 -1.865253e-01 4.687781e-02 -1.261332e-02
<VARIANCE> 39
