~o
<STREAMINFO> 1 39
<VECSIZE> 39<NULLD><MFCC_D_A_0><DIAGC>
~h "b"
<BEGINHMM>
<NUMSTATES> 5
<STATE> 2
<MEAN> 39
 3.168603e+00 7.973417e+00 -5.497173e+00 2.785381e+00 1.011472e+01 -5.064959e+00 -1.237907e-01 -5.789286e+00 -1.302142e+01 -5.799699e+00 -2.200554e+00 -7.627394e-01 6.817189e+01 -2.049776e+00 -8.466816e-02 6.458099e-01 5.843734e-01 5.253649e-01 6.777650e-01 1.963566e+00 1.449493e-01 2.999118e-02 -1.587176e-03 2.746753e-01 7.477540e-01 -1.263509e+00 -1.983415e-01 -3.084526e-01 -1.414351e-01 -4.544099e-01 -7.353803e-01 3.097360e-03 3.289473e-02 3.441065e-01 8.202431e-01 3.849217e-02 4.316672e-02 1.721212e-02 -3.444620e-01
<VARIANCE> 39
 2.837393e+01 6.587708e+01 1.318339e+02 5.556922e+01 1.035307e+02 9.987011e+00 3.103728e+01 2.247565e+01 1.150114e+01 5.604168e+01 1.000618e+00 3.629142e+01 5.332627e+01 5.329620e-01 3.559205e+00 3.350802e+00 4.008415e+00 2.159067e+00 2.672694e+00 2.091724e+00 5.412663e+00 2.989496e+00 1.736392e+00 2.517420e-01 1.453991e+00 1.702958e+00 2.281824e-01 2.859207e-01 6.125621e-01 2.818629e-01 4.720294e-01 6.056930e-01 5.509116e-01 1.307344e+00 1.952538e-01 4.513571e-01 4.652750e-02 5.249316e-01 1.949770e-01
<GCONST> 1.103848e+02
<STATE> 3
<MEAN> 39
 -2.710677e+00 6.908820e+00 -7.525269e+00 1.390476e+00 3.787354e+00 -1.530076e+00 5.871115e+00 -7.853685e+00 -5.263449e+00 -3.077777e+00 -9.687638e-01 -1.866455e+00 6.084990e+01 -1.054161e+00 -1.377462e+00 -8.709753e-01 -7.750317e-01 -1.123494e+00 3.861427e-02 -5.653288e-01 -1.819515e+00 9.517522e-01 2.357386e-01 1.282158e+00 -2.350110e-01 -6.220446e-01 2.979940e-01 6.294595e-02 3.906509e-01 -4.307226e-02 4.661374e-01 -6.824016e-01 -3.470808e-01 -2.132356e-01 -6.370540e-01 -6.912709e-02 1.180358e-01 -1.554094e-03 7.300123e-01
<VARIANCE> 39
 3.640440e+01 1.269315e+01 1.123872e+02 9.377414e+01 2.688883e+01 2.684421e+01 8.328597e+00 3.942396e+01 1.930738e+01 2.154937e+01 6.468244e+00 3.050176e+01 2.200950e+01 6.979969e-01 2.381088e+00 2.564077e+00 2.922245e+00 6.040167e+00 6.822430e+00 1.143221e+00 4.186856e+00 2.270925e+00 2.728081e+00 7.033907e-01 1.847488e+00 2.169087e+00 3.403627e-01 5.907997e-01 6.950822e-01 7.776748e-01 9.446258e-01 1.548211e+00 5.766649e-01 8.152148e-01 4.575076e-01 3.032727e-01 2.625822e-01 2.675087e-01 4.618686e-01
<GCONST> 1.165279e+02
<STATE> 4
<MEAN> 39
 -3.147674e+00 7.326251e+00 1.050174e+00 4.483432e+00 8.295007e+00 -6.152741e+00 -1.701533e+00 -9.127668e+00 -9.596851e+00 -8.379335e+00 1.565256e+00 -2.216125e+00 6.500050e+01 6.131704e-02 2.604648e-01 6.217173e-01 5.388940e-01 7.655524e-02 -1.981950e-01 -2.987014e-02 4.354469e-02 3.184209e-02 -1.027526e-01 -2.285676e-01 2.627466e-02 1.450054e-01 1.986183e-02 -6.563921e-02 -6.692913e-03 1.098388e-01 -5.527571e-02 -2.228633e-02 1.081830e-01 1.339690e-01 8.194355e-02 8.960434e-03 -1.767084e-01 -8.526849e-03 5.605362e-02
<VARIANCE> 39
 2.960566e+01 6.004025e+01 4.082105e+01 7.725282e+01 6.841909e+01 6.547138e+01 2.902149e+01 1.842630e+01 7.046769e+01 2.550526e+01 1.701080e+01 2.252340e+01 4.356683e+01 4.659806e+00 6.822903e+00 2.258591e+00 4.076814e+00 6.833544e+00 1.046234e+01 4.863305e+00 2.899626e+00 8.226851e+00 3.216166e+00 1.810902e+00 1.010553e+00 5.800450e+00 1.060031e+00 1.356143e+00 2.431750e-01 6.144484e-01 1.095220e+00 2.046817e+00 1.127012e+00 4.930733e-01 1.049345e+00 7.048507e-01 2.617857e-01 1.982801e-01 1.060267e+00
<GCONST> 1.328357e+02
<TRANSP> 5
 0.000000e+00 1.000000e+00 0.000000e+00 0.000000e+00 0.000000e+00
 0.000000e+00 6.382265e-01 3.617735e-01 0.000000e+00 0.000000e+00
 0.000000e+00 0.000000e+00 6.585259e-01 3.414741e-01 0.000000e+00
 0.000000e+00 0.000000e+00 0.000000e+00 8.514918e-01 1.485082e-01
 0.000000e+00 0.000000e+00 0.000000e+00 0.000000e+00 0.000000e+00
<ENDHMM>
~h "d"
<BEGINHMM>
<NUMSTATES> 5
<STATE> 2
<MEAN> 39
 -7.221081e+00 6.404300e+00 -2.868518e+00 5.000455e+00 -2.345751e+00 2.818676e+00 1.010765e+01 4.111777e+00 8.896113e+00 -4.748390e+00 -4.420664e+00 -8.143183e+00 5.659041e+01 -8.089399e-01 -7.842952e-01 -2.697040e-01 8.603950e-01 1.007919e+00 -1.693016e-01 -9.040536e-01 -1.014820e-01 7.514207e-01 5.142246e-01 1.767009e-01 4.945998e-01 -4.973378e-01 1.678364e-01 5.849176e-02 -1.087872e-04 1.009635e-01 -4.629917e-02 -2.059668e-01 -3.120898e-01 -4.424391e-01 -6.378317e-01 -2.725262e-01 7.567209e-02 9.418675e-02 7.966486e-02
<VARIANCE> 39
 2.258503e+01 3.149116e+01 4.034835e+01 2.386906e+01 1.298720e+01 2.438656e+01 2.194511e+01 1.160836e+01 1.587139e+01 2.010294e+01 1.308670e+01 2.794944e+01 2.173764e+00 5.257030e-01 4.052892e-01 6.552128e-01 1.255332e+00 1.428642e+00 1.537867e+00 1.840006e+00 1.810265e+00 3.297800e+00 8.564310e-01 1.897910e+00 8.595358e-01 1.827136e-01 1.002080e-01 9.326152e-02 9.329061e-02 1.879913e-01 3.176675e-01 2.264702e-01 2.134995e-01 1.474200e-01 2.215045e-01 1.427211e-01 2.748365e-01 1.317067e-01 2.767970e-02
<GCONST> 8.376637e+01
<STATE> 3
<MEAN> 39
 -1.277444e+01 3.549160e+00 -4.462649e+00 6.788323e+00 1.540934e+00 2.866688e+00 6.009368e+00 1.766592e+00 7.096828e+00 -6.427145e+00 -9.364885e-01 -6.310322e+00 5.149043e+01 -1.405214e-01 -2.683896e-02 1.064011e-02 -1.154343e-02 -5.682968e-02 1.705944e-02 1.219164e-02 -3.706155e-03 -7.145840e-02 -3.298067e-02 6.496319e-02 6.838728e-02 -1.649364e-01 2.145833e-02 1.236734e-02 3.476140e-03 -6.457436e-03 -2.875973e-02 7.146478e-03 2.167522e-02 3.310690e-02 2.172207e-02 6.355969e-03 -2.343211e-02 -2.572661e-02 1.069602e-02
<VARIANCE> 39
 3.885299e+00 4.882041e+00 1.255536e+01 1.312835e+01 1.287993e+01 1.557612e+01 1.394731e+01 1.594119e+01 1.292457e+01 1.215185e+01 1.262126e+01 1.166334e+01 6.957572e+00 2.218342e-01 3.617663e-01 6.574709e-01 8.903686e-01 1.024663e+00 9.436542e-01 1.003889e+00 1.308044e+00 1.128861e+00 8.443571e-01 1.116167e+00 9.282766e-01 7.988418e-02 3.533922e-02 6.416606e-02 1.067018e-01 1.780557e-01 2.278441e-01 1.719098e-01 1.673955e-01 2.301872e-01 2.200809e-01 1.580317e-01 2.301586e-01 1.446579e-01 1.223557e-02
<GCONST> 6.934673e+01
<STATE> 4
<MEAN> 39
 -1.507744e+01 6.271333e-02 -7.915449e-02 1.059921e+01 -9.012783e-01 1.101094e+00 6.213315e+00 -6.212422e-01 4.533491e+00 -2.075011e+00 9.740914e-02 -4.846589e-01 4.981749e+01 -2.133565e-02 1.723604e-02 1.050465e-02 3.554155e-02 3.141200e-02 3.645014e-02 3.685282e-02 4.759672e-02 4.297475e-02 1.522274e-02 5.840305e-03 5.388736e-03 -6.334862e-02 7.775733e-03 -7.818851e-03 -2.844671e-03 1.066669e-02 2.367417e-02 6.378341e-03 -3.189810e-03 7.601661e-04 -5.675779e-03 -1.481766e-02 -3.941797e-03 7.735546e-03 1.225580e-02
<VARIANCE> 39
 7.053877e+00 2.717563e+01 5.472617e+00 1.013168e+01 4.087270e+01 3.297793e+01 1.522937e+01 1.564611e+01 1.779888e+01 2.636848e+01 1.442531e+01 4.182880e+01 6.304185e+01 1.927691e-01 6.878529e-01 5.266705e-01 9.147902e-01 8.269665e-01 1.069215e+00 1.451607e+00 1.334269e+00 1.552366e+00 1.096043e+00 1.238681e+00 1.216586e+00 2.531220e-01 4.226231e-02 1.617465e-01 1.127777e-01 1.941278e-01 1.604914e-01 1.912919e-01 3.015792e-01 2.765833e-01 3.371426e-01 2.344742e-01 2.494293e-01 2.261257e-01 4.443329e-02
<GCONST> 8.437970e+01
<TRANSP> 5
 0.000000e+00 1.000000e+00 0.000000e+00 0.000000e+00 0.000000e+00
 0.000000e+00 7.677671e-01 2.322329e-01 0.000000e+00 0.000000e+00
 0.000000e+00 0.000000e+00 9.603514e-01 3.964865e-02 0.000000e+00
 0.000000e+00 0.000000e+00 0.000000e+00 9.747217e-01 2.527826e-02
 0.000000e+00 0.000000e+00 0.000000e+00 0.000000e+00 0.000000e+00
<ENDHMM>
~h "f"
<BEGINHMM>
<NUMSTATES> 5
<STATE> 2
<MEAN> 39
 -1.516515e+01 1.043952e+00 -5.072116e+00 7.915926e+00 4.674866e+00 1.000013e+00 7.692738e+00 -3.161202e+00 2.284109e+00 -3.310101e+00 9.367895e-01 -9.220312e-01 5.915992e+01 -6.266108e-01 -2.200419e-01 -8.089908e-02 -9.596273e-02 2.068271e-01 -1.047218e-01 1.002963e-01 6.577565e-02 2.337870e-01 -2.105792e-02 2.714161e-03 1.949533e-01 2.608325e-01 1.863193e-01 5.592664e-02 2.094814e-03 -4.842687e-02 -2.259221e-02 -8.443090e-02 -1.142907e-01 -6.242553e-02 -9.852424e-02 -1.038223e-02 -2.323823e-02 -8.515540e-02 7.986104e-03
<VARIANCE> 39
 5.468091e+01 5.558508e+01 4.866627e+01 6.073424e+01 8.942254e+01 8.768432e+01 4.519078e+01 5.230109e+01 5.988590e+01 5.732957e+01 3.770262e+01 5.075264e+01 9.866325e+01 2.299797e+00 2.171077e+00 1.562495e+00 1.689034e+00 2.586110e+00 2.543118e+00 2.878074e+00 2.606244e+00 2.927809e+00 2.302750e+00 2.298721e+00 2.053845e+00 9.851356e-01 3.857464e-01 3.953333e-01 2.860056e-01 3.302971e-01 5.090016e-01 4.794885e-01 5.847443e-01 5.026937e-01 5.066233e-01 4.410132e-01 4.509994e-01 4.010617e-01 1.467525e-01
<GCONST> 1.226329e+02
<STATE> 3
<MEAN> 39
 -1.862083e+01 -2.625862e-01 -4.239320e+00 4.758906e+00 7.961168e+00 -1.379934e+00 5.423824e+00 -4.830372e+00 -1.610852e+00 -2.253286e+00 1.436655e+00 -8.229087e-01 5.629914e+01 2.568061e+00 8.525591e-01 -5.493894e-01 -1.419408e+00 -9.597858e-01 -7.280662e-01 -7.581007e-01 -3.899204e-01 -3.465951e-01 -2.216171e-01 -6.389070e-01 -7.018244e-01 5.617703e-01 1.171919e+00 3.208250e-01 -1.130290e-01 -5.198305e-01 -7.875232e-01 -3.407106e-01 -1.894231e-01 -1.029354e-01 -1.084554e-01 -2.343643e-02 -2.378674e-01 -2.142585e-01 5.022858e-01
<VARIANCE> 39
 5.618753e+01 5.355306e+01 4.625727e+01 5.112037e+01 1.113030e+02 6.560149e+01 7.070396e+01 5.906561e+01 5.915220e+01 1.114309e+02 4.991415e+01 4.215199e+01 1.481192e+02 1.011050e+01 6.110430e+00 3.653908e+00 6.800591e+00 7.608413e+00 5.517308e+00 4.762306e+00 4.332569e+00 5.097823e+00 5.092288e+00 2.534876e+00 3.153710e+00 3.000308e+00 8.396962e-01 7.951640e-01 5.909606e-01 9.998221e-01 1.254303e+00 1.196401e+00 9.841706e-01 8.178384e-01 9.994750e-01 1.012512e+00 5.356376e-01 6.838973e-01 4.988285e-01
<GCONST> 1.442364e+02
<STATE> 4
<MEAN> 39
 -1.780230e+00 -3.365376e+00 -2.831809e+00 -5.630690e+00 -8.232625e+00 -5.148014e-01 -2.567450e+00 -5.810157e+00 -1.106578e+00 -5.540278e+00 -1.119184e+00 -2.226927e+00 5.480507e+01 4.221262e+00 8.888349e-01 -6.947802e-01 -2.408801e+00 -2.135273e+00 -8.916865e-01 -6.391370e-01 -4.215785e-01 -4.012659e-01 -4.005533e-01 -2.998648e-01 -7.897443e-01 2.404268e+00 -5.437487e-01 -3.906024e-01 -1.912596e-02 3.045328e-01 1.506391e-01 -5.240969e-02 1.214417e-01 1.947855e-01 1.492094e-01 1.365584e-01 2.037448e-01 2.773307e-02 2.281485e-02
<VARIANCE> 39
 6.417258e+01 2.455452e+02 8.148880e+01 1.328250e+02 1.533102e+02 9.308484e+01 7.023598e+01 6.949154e+01 4.632068e+01 3.479366e+01 3.690306e+01 3.191107e+01 1.390216e+02 1.071973e+01 7.231180e+00 3.932290e+00 1.027876e+01 7.448976e+00 8.681400e+00 5.136862e+00 5.288962e+00 4.255379e+00 4.400396e+00 4.308796e+00 4.073332e+00 5.459084e+00 1.300270e+00 8.933842e-01 4.439339e-01 1.173379e+00 7.665220e-01 6.874502e-01 4.811824e-01 6.689333e-01 4.995521e-01 6.127371e-01 4.773015e-01 5.387375e-01 5.747427e-01
<GCONST> 1.457227e+02
<TRANSP> 5
 0.000000e+00 1.000000e+00 0.000000e+00 0.000000e+00 0.000000e+00
 0.000000e+00 8.935391e-01 1.064609e-01 0.000000e+00 0.000000e+00
 0.000000e+00 0.000000e+00 6.712512e-01 3.287489e-01 0.000000e+00
 0.000000e+00 0.000000e+00 0.000000e+00 5.868157e-01 4.131843e-01
 0.000000e+00 0.000000e+00 0.000000e+00 0.000000e+00 0.000000e+00
<ENDHMM>
~h "g"
<BEGINHMM>
<NUMSTATES> 5
<STATE> 2
<MEAN> 39
 -6.670649e+00 5.530660e+00 -3.372993e+00 9.881113e+00 2.466624e+00 1.933732e+00 5.921229e+00 -1.986456e+00 5.013696e+00 -6.077694e+00 1.749814e-01 -4.334444e+00 6.223101e+01 3.746185e-01 5.244663e-01 2.663243e-01 2.341386e-01 5.174676e-01 -1.038235e-02 -1.689731e-01 -9.196024e-02 -1.871728e-01 -1.176083e-01 -8.284143e-02 -1.658563e-01 1.168952e-01 -1.346573e-02 1.100505e-02 5.387872e-02 -5.306527e-02 -5.899413e-02 6.468686e-03 -8.431432e-03 5.233973e-02 -5.298766e-03 7.440948e-02 1.637434e-01 3.793612e-02 -4.080764e-02
<VARIANCE> 39
 4.551508e+01 5.466528e+01 6.463380e+01 2.870967e+01 5.159803e+01 2.918140e+01 3.296133e+01 4.440071e+01 4.733473e+01 3.290451e+01 1.727051e+01 4.452780e+01 3.116374e+01 1.454680e+00 2.871166e+00 2.678040e+00 2.024482e+00 1.746104e+00 1.456206e+00 2.779977e+00 2.313949e+00 2.953153e+00 1.825309e+00 2.022797e+00 2.075110e+00 5.809641e-01 2.475337e-01 3.825342e-01 4.234726e-01 3.884416e-01 2.954632e-01 2.091904e-01 5.756006e-01 4.483760e-01 5.538055e-01 3.020224e-01 2.787165e-01 4.223570e-01 9.397795e-02
<GCONST> 1.129613e+02
<STATE> 3
<MEAN> 39
 -6.098824e+00 8.573298e+00 -1.157278e+00 1.088648e+01 2.102443e+00 3.947894e+00 7.304653e+00 -1.429352e-01 5.660979e+00 -4.256342e+00 3.310248e+00 -4.116051e+00 5.958746e+01 -1.335892e-02 -1.733720e-02 6.531094e-02 -6.156393e-02 -8.692826e-02 4.496438e-02 -2.178290e-02 2.861194e-01 3.115875e-02 1.486396e-01 1.210559e-01 1.609927e-01 -8.184280e-02 -3.261374e-02 -1.263761e-01 -1.412603e-01 -9.217650e-02 -2.736036e-02 -1.729852e-02 -1.237483e-02 -2.337375e-02 -9.870606e-02 -2.502466e-02 -1.152871e-01 6.306189e-03 7.434919e-02
<VARIANCE> 39
 8.980032e+01 3.987420e+01 6.183157e+01 3.567864e+01 4.162681e+01 2.544627e+01 2.888895e+01 3.138298e+01 4.055686e+01 4.144135e+01 2.561865e+01 3.406439e+01 2.638431e+01 1.949053e-01 3.350769e-01 5.428368e-01 8.021015e-01 1.102696e+00 1.210765e+00 1.317094e+00 1.102422e+00 1.531698e+00 1.704723e+00 1.599545e+00 1.034955e+00 8.203169e-02 9.858660e-02 1.297694e-01 1.617498e-01 2.212267e-01 2.512782e-01 2.405348e-01 2.423088e-01 2.588915e-01 4.681065e-01 3.819784e-01 3.203135e-01 2.338006e-01 5.495827e-02
<GCONST> 9.439247e+01
<STATE> 4
<MEAN> 39
 -2.471666e+00 7.041791e+00 -5.389321e+00 6.258168e+00 2.617965e+00 6.014605e-01 4.722668e+00 6.628123e-01 1.529552e+00 -9.378845e+00 2.291641e+00 -6.917191e+00 6.533627e+01 -3.773081e-02 -2.245287e-01 -1.353249e-01 -2.424299e-01 -2.022092e-01 -8.204442e-02 -6.656938e-02 3.442383e-02 -5.234201e-02 -2.447307e-02 -4.113870e-02 3.197694e-02 2.166582e-01 -3.712786e-02 -1.355576e-01 -1.284304e-01 -2.534685e-01 -2.534963e-03 -8.079361e-02 2.325958e-01 -1.552388e-01 -2.204064e-01 1.132835e-02 -3.766175e-02 -3.186557e-02 2.882145e-01
<VARIANCE> 39
 5.538462e+01 3.085733e+01 4.801207e+01 3.674191e+01 3.688996e+01 8.746549e+01 2.954238e+01 3.478080e+01 3.529932e+01 6.940253e+01 2.391204e+01 3.301895e+01 5.268334e+01 2.167829e+00 1.537132e+00 1.973773e+00 2.129372e+00 2.593757e+00 3.932408e+00 2.663703e+00 2.509233e+00 2.634035e+00 3.879562e+00 2.686031e+00 2.206838e+00 9.677520e-01 5.411401e-01 2.686921e-01 3.647293e-01 5.023133e-01 5.961204e-01 7.740845e-01 7.016722e-01 6.503837e-01 6.374506e-01 8.277128e-01 6.388831e-01 4.513154e-01 4.107455e-01
<GCONST> 1.230264e+02
<TRANSP> 5
 0.000000e+00 1.000000e+00 0.000000e+00 0.000000e+00 0.000000e+00
 0.000000e+00 8.127092e-01 1.872907e-01 0.000000e+00 0.000000e+00
 0.000000e+00 0.000000e+00 8.008044e-01 1.991956e-01 0.000000e+00
 0.000000e+00 0.000000e+00 0.000000e+00 7.947241e-01 2.052759e-01
 0.000000e+00 0.000000e+00 0.000000e+00 0.000000e+00 0.000000e+00
<ENDHMM>
~h "k"
<BEGINHMM>
<NUMSTATES> 5
<STATE> 2
<MEAN> 39
 -1.282252e+01 1.412958e+00 2.031695e+00 2.905533e+00 -3.532522e-01 1.124602e+00 2.723858e+00 -3.738749e+00 6.466959e-01 -4.329717e+00 -6.328341e-01 -2.177184e+00 5.532022e+01 -6.510455e-01 4.135747e-01 2.588700e-01 -6.820620e-02 -2.291742e-01 -3.657814e-02 2.163652e-01 4.747754e-01 -1.694601e-01 3.177315e-03 2.851573e-01 1.404957e-01 -6.232474e-01 1.071112e-01 -4.288191e-02 4.712774e-02 6.179262e-02 -7.713400e-02 -2.617340e-01 -1.162734e-01 -2.660875e-01 -2.779348e-02 2.569914e-01 1.381090e-01 8.938507e-03 8.098333e-02
<VARIANCE> 39
 1.066134e+02 6.668357e+01 1.128805e+02 6.832557e+01 8.425407e+01 1.129924e+02 1.064794e+02 8.076628e+01 3.928115e+01 5.904830e+01 4.828393e+01 4.302220e+01 1.338052e+02 4.168157e-01 1.535818e+00 2.947292e+00 1.644715e+00 2.351903e+00 1.637881e+00 2.192864e+00 2.127712e+00 1.975032e+00 2.282996e+00 1.794375e+00 1.504320e+00 4.993040e-01 1.021376e-01 2.413332e-01 3.934173e-01 3.072799e-01 3.999492e-01 4.406858e-01 5.487162e-01 5.114268e-01 3.520841e-01 3.218479e-01 4.262682e-01 2.280941e-01 9.707609e-02
<GCONST> 1.181648e+02
<STATE> 3
<MEAN> 39
 -1.456387e+01 4.533177e-02 1.403048e+00 1.861264e+00 -2.393924e+00 -1.472233e+00 7.786911e-01 -4.605777e+00 1.256567e+00 -3.133787e+00 -3.104630e-01 -1.307822e+00 5.346317e+01 -4.820084e-01 2.070056e-01 6.568141e-02 1.609035e-01 -1.110247e-01 -8.591232e-02 8.457015e-02 2.096353e-01 1.187154e-01 4.177388e-01 1.658498e-01 1.745100e-01 -5.209868e-01 1.607796e-01 -9.349230e-02 -2.043498e-02 1.407296e-01 1.127573e-01 -1.048602e-01 5.570625e-03 -2.532202e-01 -3.572528e-02 9.529206e-02 -1.199001e-02 -1.455840e-02 1.396624e-01
<VARIANCE> 39
 1.061007e+02 6.198928e+01 1.099258e+02 5.726952e+01 5.560096e+01 1.085921e+02 1.009079e+02 6.249380e+01 4.336751e+01 5.165442e+01 4.000777e+01 4.150527e+01 1.657173e+02 3.366792e-01 1.106159e+00 2.057462e+00 1.701256e+00 1.768660e+00 1.881353e+00 2.876968e+00 2.210912e+00 2.340723e+00 1.811353e+00 2.293833e+00 1.292697e+00 3.364757e-01 6.316608e-02 1.453203e-01 2.409077e-01 2.047927e-01 2.482801e-01 2.232858e-01 2.601126e-01 4.483179e-01 2.882551e-01 3.119991e-01 2.582670e-01 2.055857e-01 4.585020e-02
<GCONST> 1.105024e+02
<STATE> 4
<MEAN> 39
 -4.839451e+00 2.400108e-01 -1.818732e+00 5.878272e+00 3.407912e+00 5.780812e+00 5.287485e+00 4.141000e-01 3.158265e+00 -4.801228e+00 1.105336e+00 -3.108326e+00 5.465929e+01 -2.777634e-02 3.589861e-02 1.200971e-02 6.720384e-02 5.591460e-02 7.212512e-03 2.650826e-02 -4.215787e-02 1.490129e-02 5.821456e-02 9.531466e-03 3.247374e-02 -4.148312e-02 1.428958e-02 -2.969737e-02 -2.230337e-02 1.144291e-03 9.966500e-03 -4.101516e-03 1.379834e-02 -5.423752e-03 3.340230e-04 -1.782771e-02 -1.737646e-02 -4.222930e-03 1.554593e-02
<VARIANCE> 39
 8.752770e+01 4.864432e+01 2.708482e+01 2.775391e+01 4.660004e+01 3.331543e+01 3.417511e+01 2.665509e+01 2.538256e+01 3.054976e+01 2.353609e+01 2.726553e+01 1.194628e+02 2.531340e-01 5.075010e-01 7.090155e-01 1.006842e+00 1.132378e+00 1.443072e+00 1.527108e+00 1.685474e+00 1.886078e+00 1.778509e+00 1.729643e+00 1.278227e+00 1.014733e-01 4.920286e-02 9.938180e-02 1.423321e-01 1.677560e-01 2.178916e-01 2.982415e-01 2.864476e-01 3.167820e-01 3.839273e-01 3.776769e-01 3.718655e-01 2.517472e-01 2.170149e-02
<GCONST> 9.516309e+01
<TRANSP> 5
 0.000000e+00 1.000000e+00 0.000000e+00 0.000000e+00 0.000000e+00
 0.000000e+00 8.993921e-04 9.991006e-01 0.000000e+00 0.000000e+00
 0.000000e+00 0.000000e+00 2.709655e-01 7.290345e-01 0.000000e+00
 0.000000e+00 0.000000e+00 0.000000e+00 8.842156e-01 1.157844e-01
 0.000000e+00 0.000000e+00 0.000000e+00 0.000000e+00 0.000000e+00
<ENDHMM>
~h "l"
<BEGINHMM>
<NUMSTATES> 5
<STATE> 2
<MEAN> 39
 -4.910660e+00 6.190096e+00 3.052298e+00 7.816625e+00 1.599239e+00 2.052527e+00 6.116108e+00 -5.270643e-01 3.635548e+00 -5.299863e+00 -1.668209e+00 -4.879003e+00 5.751580e+01 -3.534015e-01 -8.835473e-02 9.169730e-02 9.678061e-02 9.739716e-02 3.172309e-01 1.457988e-01 3.096644e-01 3.277375e-01 1.350662e-01 2.579692e-02 -6.490747e-02 -3.065048e-01 -2.444548e-02 -6.874067e-02 -3.501729e-03 2.277838e-02 1.221456e-02 -2.450432e-02 -4.663204e-02 -7.308323e-02 -6.927874e-02 -3.108075e-03 3.197461e-02 2.637517e-02 7.889748e-03
<VARIANCE> 39
 2.404397e+01 3.603862e+01 3.104313e+01 4.524232e+01 5.462023e+01 3.195729e+01 2.286373e+01 3.896813e+01 2.668167e+01 2.700573e+01 1.782776e+01 3.008021e+01 2.116154e+01 5.185527e-01 9.997966e-01 1.524050e+00 1.339960e+00 1.747956e+00 1.475293e+00 1.702080e+00 1.836212e+00 1.945034e+00 1.631590e+00 1.226269e+00 1.125214e+00 1.821284e-01 6.468096e-02 1.440623e-01 2.224147e-01 2.514501e-01 3.100476e-01 2.873115e-01 3.299806e-01 3.476529e-01 3.645144e-01 2.701192e-01 1.833254e-01 2.029495e-01 2.488944e-02
<GCONST> 9.633506e+01
<STATE> 3
<MEAN> 39
 -1.378045e+01 8.746088e-01 -1.195681e+00 6.529043e+00 -5.505705e+00 -2.608890e+00 5.324425e+00 -3.926020e+00 2.548460e+00 4.509108e-01 -5.216792e-01 2.255246e+00 5.357008e+01 -1.056693e-01 -2.376083e-02 -2.984416e-02 4.890703e-04 3.069484e-02 3.478504e-02 2.176578e-02 3.932447e-02 7.773067e-02 2.190812e-02 5.218090e-02 2.938552e-02 -1.156223e-01 2.287781e-02 1.686900e-02 3.027499e-02 2.207557e-02 6.868143e-03 5.334179e-03 7.987931e-03 -5.466560e-04 -1.746620e-02 -1.862805e-02 -3.614299e-02 -3.890882e-02 1.805838e-02
<VARIANCE> 39
 1.073325e+01 2.030085e+01 8.778201e+00 9.643784e+00 1.895516e+01 1.499244e+01 1.679028e+01 1.767908e+01 1.552845e+01 1.649269e+01 1.379779e+01 1.732942e+01 1.246931e+01 2.810814e-01 6.236783e-01 5.463244e-01 7.036875e-01 9.159911e-01 1.121034e+00 1.559753e+00 1.586841e+00 1.398752e+00 1.453982e+00 1.400269e+00 1.265780e+00 2.174895e-01 5.156361e-02 1.014588e-01 9.424224e-02 1.278051e-01 1.694030e-01 2.168816e-01 3.342263e-01 3.168534e-01 2.831424e-01 3.424216e-01 2.996412e-01 2.270868e-01 3.725049e-02
<GCONST> 8.084809e+01
<STATE> 4
<MEAN> 39
 -1.227706e+01 3.365233e+00 4.985512e-01 1.002856e+01 4.032055e+00 4.844046e+00 5.681406e+00 -5.324712e-02 4.380061e+00 -6.171046e+00 5.240328e-01 -5.108667e+00 4.987521e+01 -3.054197e-02 -5.781739e-03 1.198553e-02 3.029134e-02 8.001907e-03 3.169519e-02 1.030932e-02 3.767535e-02 -1.368012e-02 -1.695943e-02 -9.666407e-03 -1.211499e-02 -8.125759e-02 1.729387e-03 -7.305249e-03 -1.148204e-02 -6.950628e-03 -5.709021e-03 -9.698069e-03 -2.854507e-03 -9.489089e-03 -6.180192e-03 9.486778e-03 4.498734e-03 6.599375e-03 6.414438e-03
<VARIANCE> 39
 8.329201e+01 8.618660e+00 1.304169e+01 1.998119e+01 1.227324e+01 1.306846e+01 1.406076e+01 1.892381e+01 1.508579e+01 1.511993e+01 1.634007e+01 1.330044e+01 8.178526e+01 1.138418e-01 2.466523e-01 4.529981e-01 5.334911e-01 8.570702e-01 1.068197e+00 1.214036e+00 1.300249e+00 1.149296e+00 1.146118e+00 1.065400e+00 9.760401e-01 3.734379e-02 2.028709e-02 4.824946e-02 8.948369e-02 1.002736e-01 1.698755e-01 2.090269e-01 2.452868e-01 2.629620e-01 2.498990e-01 2.202392e-01 2.038903e-01 1.941852e-01 6.988022e-03
<GCONST> 7.328137e+01
<TRANSP> 5
 0.000000e+00 1.000000e+00 0.000000e+00 0.000000e+00 0.000000e+00
 0.000000e+00 8.714557e-01 1.285443e-01 0.000000e+00 0.000000e+00
 0.000000e+00 0.000000e+00 9.180113e-01 8.198867e-02 0.000000e+00
 0.000000e+00 0.000000e+00 0.000000e+00 9.605878e-01 3.941222e-02
 0.000000e+00 0.000000e+00 0.000000e+00 0.000000e+00 0.000000e+00
<ENDHMM>
~h "m"
<BEGINHMM>
<NUMSTATES> 5
<STATE> 2
<MEAN> 39
 4.405193e+00 1.199321e+01 5.963040e+00 7.674245e+00 -6.607711e+00 -8.926462e+00 -2.143605e+00 -8.106282e+00 -3.434558e+00 -7.952467e+00 -6.844016e+00 -2.427047e-02 6.489104e+01 1.554199e-03 6.123033e-02 5.350482e-02 3.689134e-02 1.897093e-03 3.907140e-02 -3.101083e-03 6.938214e-03 -2.178817e-03 -5.194106e-02 -7.701454e-02 -3.543587e-03 -2.022530e-02 -2.463480e-02 -2.398741e-02 -9.782418e-03 1.060826e-02 4.223875e-02 2.932619e-02 1.116443e-02 -1.379621e-03 -1.047816e-02 1.279974e-03 1.746149e-02 1.229961e-02 -9.333835e-03
<VARIANCE> 39
 4.309760e+01 2.959028e+01 5.498432e+01 4.217820e+01 4.214030e+01 3.450606e+01 6.250458e+01 2.630642e+01 3.940886e+01 2.274860e+01 2.039881e+01 3.549445e+01 1.054215e+01 1.466723e+00 1.077440e+00 1.851229e+00 1.631198e+00 1.793772e+00 1.938117e+00 3.018188e+00 1.615852e+00 2.439198e+00 1.290558e+00 1.197340e+00 1.900618e+00 3.105627e-01 1.653585e-01 1.639372e-01 1.897873e-01 1.925088e-01 2.436585e-01 2.383456e-01 3.777128e-01 2.806521e-01 4.054007e-01 1.819540e-01 1.962031e-01 2.744987e-01 3.984885e-02
<GCONST> 1.014374e+02
<STATE> 3
<MEAN> 39
 -5.955204e+00 7.432606e+00 7.046206e+00 1.489638e+01 -5.796278e-01 -5.910388e+00 2.127799e+00 -7.283689e+00 -2.056629e+00 -4.652093e+00 -3.225515e+00 -2.469817e+00 5.950891e+01 -1.865421e-01 -3.516043e-01 -1.430923e-01 7.201836e-02 1.117353e-01 2.235117e-02 4.636176e-02 1.314434e-01 5.170313e-02 2.223220e-02 5.527036e-02 5.737083e-02 -4.327422e-02 -1.332505e-02 -3.279357e-02 -3.485410e-02 -9.929692e-02 -6.199979e-02 -5.606642e-02 -7.109684e-03 1.541800e-02 1.633564e-02 4.071764e-02 1.336130e-02 9.004029e-03 8.185919e-03
<VARIANCE> 39
 3.441972e+01 7.540973e+01 3.392443e+01 2.441421e+01 2.965351e+01 8.804476e+01 5.290608e+01 3.078556e+01 2.620103e+01 3.529224e+01 1.672992e+01 2.914325e+01 1.513573e+01 1.743000e+00 3.498286e+00 1.837808e+00 1.944384e+00 1.780180e+00 3.620977e+00 2.790725e+00 2.094466e+00 1.876470e+00 2.489502e+00 1.722433e+00 1.021583e+00 7.599262e-01 1.862987e-01 4.657962e-01 2.839659e-01 3.025652e-01 3.684845e-01 5.519451e-01 4.513692e-01 2.879615e-01 3.348697e-01 4.305304e-01 3.137711e-01 1.593313e-01 1.109428e-01
<GCONST> 1.101363e+02
<STATE> 4
<MEAN> 39
 -1.363130e+01 -2.055035e-01 -1.589799e+00 7.661711e+00 -4.445244e+00 -8.928951e-01 4.626102e+00 -3.671652e+00 3.597280e+00 -1.265309e+00 -1.203524e-01 4.715244e-01 5.304013e+01 -9.023766e-02 -4.752535e-02 -5.490076e-02 -7.452238e-02 -5.682651e-02 -2.488923e-02 3.513214e-02 7.344143e-03 4.097071e-02 8.341934e-02 1.125669e-01 8.194465e-02 -9.721226e-02 3.078754e-02 3.364600e-03 5.178730e-04 6.926426e-03 1.868218e-02 -2.658550e-03 5.555661e-03 8.968690e-03 1.004156e-02 -9.773744e-03 -2.400019e-02 -2.273665e-02 1.829021e-02
<VARIANCE> 39
 1.477075e+01 3.084935e+01 1.125259e+01 1.880365e+01 4.743493e+01 3.236443e+01 1.509261e+01 1.586972e+01 1.642051e+01 3.081443e+01 1.417340e+01 3.108126e+01 2.904303e+01 2.155076e-01 7.079929e-01 6.763734e-01 6.069686e-01 8.967748e-01 1.108561e+00 1.576491e+00 1.294212e+00 1.569399e+00 1.512838e+00 1.255212e+00 9.774908e-01 2.230040e-01 4.793004e-02 1.366939e-01 1.329268e-01 1.070516e-01 1.731979e-01 2.228961e-01 3.169122e-01 2.578352e-01 3.169084e-01 3.281056e-01 2.672622e-01 1.849213e-01 4.676661e-02
<GCONST> 8.578458e+01
<TRANSP> 5
 0.000000e+00 1.000000e+00 0.000000e+00 0.000000e+00 0.000000e+00
 0.000000e+00 9.397196e-01 6.028032e-02 0.000000e+00 0.000000e+00
 0.000000e+00 0.000000e+00 9.125940e-01 8.740609e-02 0.000000e+00
 0.000000e+00 0.000000e+00 0.000000e+00 9.333696e-01 6.663040e-02
 0.000000e+00 0.000000e+00 0.000000e+00 0.000000e+00 0.000000e+00
<ENDHMM>
~h "n"
<BEGINHMM>
<NUMSTATES> 5
<STATE> 2
<MEAN> 39
 -7.867945e-01 1.790229e+00 1.940387e+00 4.520967e+00 7.086969e-03 -5.985798e+00 -2.042044e+00 -4.968306e+00 -1.960881e+00 -2.272982e+00 -2.992635e+00 -2.350909e+00 5.778558e+01 1.069275e-01 1.120005e+00 8.280123e-01 5.747017e-01 -1.782299e-01 3.394075e-01 -1.000899e-01 -4.424002e-01 -2.565938e-01 -1.234982e-01 -2.833025e-01 -3.604091e-01 -5.436522e-01 -1.751025e-02 -5.002703e-02 -6.932910e-02 3.685407e-02 -3.240405e-02 1.919417e-01 1.831534e-02 6.462944e-02 3.938415e-02 -4.541564e-02 6.554101e-02 -5.577313e-02 -1.207365e-02
<VARIANCE> 39
 5.105344e+01 9.129784e+01 1.026206e+02 1.145270e+02 1.546763e+02 1.133813e+02 1.199900e+02 7.169777e+01 6.753428e+01 7.152583e+01 4.848620e+01 6.485181e+01 1.034107e+02 1.996556e+00 2.211355e+00 2.653707e+00 3.722983e+00 4.468302e+00 5.899168e+00 5.105976e+00 4.382576e+00 4.115153e+00 4.038128e+00 3.053588e+00 2.502002e+00 1.652532e+00 1.635105e-01 3.278159e-01 4.567066e-01 5.702632e-01 6.409642e-01 8.225816e-01 7.396777e-01 7.727456e-01 6.781447e-01 5.725008e-01 5.483710e-01 4.878224e-01 1.395942e-01
<GCONST> 1.352996e+02
<STATE> 3
<MEAN> 39
 2.014845e+00 9.090439e+00 3.478851e+00 1.078932e+01 -1.940359e-02 -6.742827e+00 -5.553575e+00 -9.381726e+00 -1.717919e+00 -5.368184e+00 -6.281763e+00 -2.829827e+00 6.121424e+01 -3.293216e-01 2.618335e-01 2.293074e-01 1.276301e-01 -2.307166e-01 7.144316e-01 5.251811e-01 2.934985e-01 1.044070e-01 -1.239851e-01 3.304364e-02 -2.194356e-01 -3.747903e-01 -1.383746e-01 -2.998311e-01 -1.041111e-01 -7.224479e-02 -1.536506e-02 -1.006733e-01 1.129427e-01 1.793466e-01 1.714788e-02 6.741899e-02 1.818645e-01 1.231119e-01 5.363302e-02
<VARIANCE> 39
 3.834589e+01 4.336075e+01 3.113265e+01 3.182284e+01 5.877646e+01 5.460820e+01 6.839732e+01 3.576372e+01 4.011858e+01 3.215057e+01 3.602627e+01 4.457530e+01 5.576861e+01 1.034960e+00 1.675753e+00 1.544932e+00 1.782680e+00 1.701578e+00 3.220533e+00 3.657453e+00 2.572541e+00 2.698594e+00 2.034160e+00 2.018520e+00 3.433188e+00 7.466733e-01 1.416335e-01 3.094362e-01 2.315668e-01 2.922701e-01 2.984345e-01 5.677763e-01 6.111360e-01 4.133301e-01 4.852587e-01 3.820747e-01 3.661795e-01 5.978559e-01 1.092686e-01
<GCONST> 1.148961e+02
<STATE> 4
<MEAN> 39
 -5.067805e+00 -8.651316e-01 3.024301e+00 7.603229e+00 -4.368218e+00 9.114241e-02 -1.684681e+00 -3.623545e+00 1.638628e-01 -4.892846e+00 -1.731631e+00 -1.194071e+00 4.789048e+01 -7.057546e-01 -5.984576e-01 -3.170084e-01 -1.364933e-01 -2.611109e-02 4.079404e-01 5.265443e-01 4.201400e-01 1.914363e-01 1.949588e-01 4.747432e-01 2.713901e-01 -3.476740e-01 1.308610e-02 -2.481079e-01 -1.037076e-01 -1.834759e-01 -2.994583e-02 -2.152277e-01 -1.044229e-01 -5.529745e-02 -1.631779e-03 8.141137e-02 2.458720e-02 6.244666e-02 1.935872e-01
<VARIANCE> 39
 4.146115e+01 1.505362e+02 3.451226e+01 4.291055e+01 9.626047e+01 4.440515e+01 6.170468e+01 3.805616e+01 3.777106e+01 3.321083e+01 3.143302e+01 2.931249e+01 1.361948e+02 1.118050e+00 1.971398e+00 1.766836e+00 2.093212e+00 2.420727e+00 2.634631e+00 2.496609e+00 2.410729e+00 2.908858e+00 2.384927e+00 2.341451e+00 1.989683e+00 7.080206e-01 2.113690e-01 4.366038e-01 3.194931e-01 4.099059e-01 5.716367e-01 5.631105e-01 5.333247e-01 5.555736e-01 4.937296e-01 4.676033e-01 4.536156e-01 3.529759e-01 1.736294e-01
<GCONST> 1.197749e+02
<TRANSP> 5
 0.000000e+00 1.000000e+00 0.000000e+00 0.000000e+00 0.000000e+00
 0.000000e+00 6.245472e-01 3.754528e-01 0.000000e+00 0.000000e+00
 0.000000e+00 0.000000e+00 6.635414e-01 3.364585e-01 0.000000e+00
 0.000000e+00 0.000000e+00 0.000000e+00 6.531940e-01 3.468060e-01
 0.000000e+00 0.000000e+00 0.000000e+00 0.000000e+00 0.000000e+00
<ENDHMM>
~h "r"
<BEGINHMM>
<NUMSTATES> 5
<STATE> 2
<MEAN> 39
 5.615061e+00 6.583341e-01 -6.778008e+00 2.721547e+00 -1.408239e+00 -7.090015e+00 -5.342749e+00 -6.163838e+00 -6.174111e+00 -4.155292e+00 -2.422244e-01 -2.199511e+00 6.161793e+01 -2.425649e-02 3.554276e-01 -4.656295e-01 3.970541e-02 6.143996e-01 3.575908e-01 -7.421586e-02 -1.422380e-01 -1.678661e-01 3.869391e-02 1.265499e-01 9.264037e-02 -3.760488e-01 -1.612005e-01 3.960577e-02 2.626438e-01 -1.701145e-02 -6.615251e-02 -4.399016e-02 -2.480429e-02 5.071135e-02 1.317710e-01 5.328938e-02 -4.070781e-02 2.444786e-02 -2.870190e-02
<VARIANCE> 39
 4.728920e+01 9.872608e+01 7.454559e+01 1.056718e+02 1.177267e+02 8.028687e+01 1.309847e+02 1.027824e+02 9.442430e+01 6.758234e+01 5.288331e+01 5.108935e+01 6.226364e+01 7.634334e-01 1.615641e+00 2.979686e+00 2.577636e+00 3.321765e+00 3.542615e+00 4.707512e+00 4.344875e+00 3.669774e+00 2.683945e+00 2.529427e+00 2.040401e+00 6.556647e-01 8.715076e-02 2.423805e-01 3.413290e-01 3.756343e-01 4.976201e-01 5.706154e-01 8.204565e-01 7.299542e-01 5.123490e-01 4.888258e-01 4.331254e-01 3.993393e-01 7.477182e-02
<GCONST> 1.263764e+02
<STATE> 3
<MEAN> 39
 2.195390e+00 4.731735e+00 -1.616234e+00 1.045587e+01 3.269745e+00 -1.169207e+01 -6.979869e+00 -1.275359e+01 -1.046832e+01 -3.342303e+00 2.305585e-01 -3.599980e+00 6.437171e+01 -1.823715e-01 1.415437e-01 2.576395e-01 -2.003028e-02 2.085553e-02 -1.681881e-01 8.793140e-02 4.338073e-01 2.433595e-01 -9.077763e-03 -1.970574e-01 -7.380373e-02 -1.034909e-01 -4.252262e-02 1.224477e-02 7.495437e-02 -2.677765e-02 -8.314434e-02 6.683151e-02 9.115227e-02 6.245699e-02 8.695541e-02 -6.465761e-02 -8.899614e-02 -1.551301e-02 -2.504258e-02
<VARIANCE> 39
 3.031829e+01 5.847889e+01 7.275980e+01 1.081452e+02 1.052659e+02 9.744292e+01 1.011952e+02 5.093145e+01 5.694944e+01 4.203424e+01 4.825056e+01 5.353707e+01 3.562337e+01 2.543870e-01 5.508654e-01 1.103109e+00 1.594528e+00 1.306843e+00 2.031811e+00 1.704438e+00 1.766094e+00 1.870303e+00 1.562468e+00 1.457803e+00 1.223467e+00 1.502528e-01 3.040977e-02 7.850821e-02 1.334160e-01 1.599104e-01 1.606491e-01 2.398356e-01 2.285609e-01 2.885222e-01 2.751186e-01 2.107120e-01 2.591141e-01 2.063419e-01 1.683995e-02
<GCONST> 9.983485e+01
<STATE> 4
<MEAN> 39
 5.969068e-01 -4.699761e+00 -3.245514e+00 -4.118071e-01 -4.517436e+00 -3.899074e+00 -2.604978e+00 -2.106462e-01 -5.440037e-01 -3.386274e+00 -1.684386e+00 -1.895135e+00 5.175701e+01 -3.995032e-01 2.704760e-01 3.190577e-01 1.074014e-01 8.380113e-02 4.456104e-01 2.025050e-01 -3.951787e-03 1.859176e-01 -1.056734e-01 -8.309324e-02 7.528631e-03 -4.169106e-01 -3.145326e-02 -4.062105e-03 -5.068777e-03 -3.916950e-03 -9.759147e-03 7.144035e-02 1.920000e-02 -2.040127e-02 -2.382092e-03 1.466394e-02 3.369152e-02 5.949037e-03 -1.937290e-02
<VARIANCE> 39
 2.938688e+01 1.140929e+02 1.068645e+02 1.164452e+02 9.875186e+01 8.872578e+01 9.340851e+01 8.133221e+01 7.562611e+01 4.572088e+01 3.344845e+01 3.494639e+01 1.141081e+02 3.804691e-01 9.610776e-01 1.115032e+00 1.568935e+00 1.540312e+00 2.221792e+00 2.346581e+00 2.239325e+00 2.255916e+00 1.967041e+00 1.927817e+00 1.582466e+00 3.231057e-01 5.604815e-02 1.336764e-01 1.662414e-01 1.943158e-01 2.513623e-01 3.510062e-01 3.373567e-01 3.387158e-01 3.747467e-01 3.422805e-01 3.198032e-01 3.017066e-01 3.352664e-02
<GCONST> 1.103942e+02
<TRANSP> 5
 0.000000e+00 1.000000e+00 0.000000e+00 0.000000e+00 0.000000e+00
 0.000000e+00 6.809289e-01 3.190711e-01 0.000000e+00 0.000000e+00
 0.000000e+00 0.000000e+00 8.002570e-01 1.997431e-01 0.000000e+00
 0.000000e+00 0.000000e+00 0.000000e+00 8.005502e-01 1.994497e-01
 0.000000e+00 0.000000e+00 0.000000e+00 0.000000e+00 0.000000e+00
<ENDHMM>
~h "s"
<BEGINHMM>
<NUMSTATES> 5
<STATE> 2
<MEAN> 39
 -1.248637e+01 -1.174173e+00 7.793797e-01 1.892808e+00 -1.514693e-01 3.763295e-01 -4.905902e-01 -4.116955e+00 -5.650378e-01 -2.247047e+00 5.183941e-01 -1.002031e+00 5.487906e+01 -1.056422e+00 -7.148238e-01 8.089107e-01 -6.415861e-01 -9.846105e-02 4.305772e-03 5.129140e-01 -3.957258e-01 6.412092e-01 1.039183e-01 3.346083e-01 3.594186e-02 1.078653e+00 -2.426381e-01 -1.849938e-02 5.558432e-02 -1.143461e-01 3.362891e-02 -7.625648e-02 1.522742e-01 2.247912e-02 5.102238e-02 -1.913275e-02 8.114639e-02 2.498756e-02 1.263211e-01
<VARIANCE> 39
 9.577497e+01 7.037719e+01 1.194880e+02 1.110139e+02 1.745505e+02 1.369194e+02 1.634109e+02 8.994704e+01 6.472611e+01 7.774547e+01 4.221146e+01 8.637978e+01 2.000255e+02 6.117748e+00 4.188601e+00 8.486785e+00 6.663085e+00 5.228334e+00 8.106881e+00 5.785125e+00 4.076239e+00 4.431956e+00 4.247757e+00 3.403643e+00 3.291792e+00 3.347553e+00 6.055012e-01 6.335259e-01 1.038903e+00 9.397004e-01 8.074151e-01 1.171980e+00 9.137650e-01 7.001629e-01 7.044865e-01 6.895131e-01 6.598917e-01 6.172377e-01 4.979701e-01
<GCONST> 1.486308e+02
<STATE> 3
<MEAN> 39
 -2.030599e+01 -4.080781e-02 4.478930e+00 4.175858e+00 -1.184817e+00 -8.509175e-01 6.459304e+00 -6.026590e+00 4.498939e+00 -1.975762e+00 3.453156e+00 -1.984214e+00 5.941678e+01 -1.186669e+00 -2.531024e-01 3.355138e-01 -5.063589e-01 -7.623778e-02 -1.531534e-01 4.048908e-01 2.180077e-01 1.275300e-01 -1.179223e-01 2.442185e-01 2.171501e-01 4.667617e-01 4.386103e-01 1.611822e-01 -2.337390e-01 9.730449e-02 8.396867e-02 2.524254e-02 -2.964502e-01 1.137151e-01 -2.564569e-01 -1.494868e-01 -2.173059e-01 -5.929098e-04 -2.252062e-01
<VARIANCE> 39
 7.025708e+01 9.351192e+01 1.809135e+02 1.025733e+02 9.776972e+01 9.561407e+01 8.155091e+01 6.923107e+01 6.212105e+01 4.648476e+01 4.037509e+01 4.728094e+01 1.200017e+02 2.899257e+00 2.945551e+00 2.620927e+00 3.794777e+00 2.765691e+00 3.062666e+00 3.148260e+00 3.078620e+00 2.301430e+00 1.944287e+00 2.407412e+00 1.873393e+00 1.071790e+00 3.700786e-01 3.214117e-01 6.613685e-01 8.304507e-01 6.623045e-01 5.253402e-01 7.148782e-01 6.640188e-01 5.679793e-01 3.943417e-01 3.346705e-01 3.569525e-01 1.860268e-01
<GCONST> 1.304796e+02
<STATE> 4
<MEAN> 39
 -2.408645e+01 -1.623231e+00 4.459255e+00 -1.738800e+00 1.030483e+00 -9.869119e-01 5.254498e+00 -5.064160e+00 3.956279e+00 -1.798506e+00 1.764170e+00 2.633035e-01 5.732886e+01 7.065207e-02 -9.886913e-02 -1.378063e-01 1.483754e-02 -3.989801e-02 3.323791e-02 -9.492693e-02 7.009789e-02 -1.252973e-02 -1.007247e-01 -1.148523e-01 4.955984e-02 -1.071946e-01 3.104058e-01 -1.644118e-02 -6.662058e-02 1.085445e-01 -4.890883e-02 -3.954209e-02 -1.210241e-01 -8.057140e-02 -9.109540e-02 -6.598516e-03 -8.737672e-02 -2.401049e-02 -5.559834e-02
<VARIANCE> 39
 5.891805e+01 9.006591e+01 1.904913e+02 1.061684e+02 8.560677e+01 9.570663e+01 7.399955e+01 5.136351e+01 4.577917e+01 4.487209e+01 4.076908e+01 4.773493e+01 1.338286e+02 1.013156e+00 1.092479e+00 1.512669e+00 1.654584e+00 1.633793e+00 1.952161e+00 2.201051e+00 2.271225e+00 2.038374e+00 1.751770e+00 1.535027e+00 1.346676e+00 6.828662e-01 1.996218e-01 2.249291e-01 2.308307e-01 2.856794e-01 3.047982e-01 3.703842e-01 3.896351e-01 4.341680e-01 3.925579e-01 3.251585e-01 3.089384e-01 2.505912e-01 8.760326e-02
<GCONST> 1.160935e+02
<TRANSP> 5
 0.000000e+00 1.000000e+00 0.000000e+00 0.000000e+00 0.000000e+00
 0.000000e+00 7.253584e-01 2.746416e-01 0.000000e+00 0.000000e+00
 0.000000e+00 0.000000e+00 4.736442e-01 5.263558e-01 0.000000e+00
 0.000000e+00 0.000000e+00 0.000000e+00 7.949877e-01 2.050123e-01
 0.000000e+00 0.000000e+00 0.000000e+00 0.000000e+00 0.000000e+00
<ENDHMM>
~h "t"
<BEGINHMM>
<NUMSTATES> 5
<STATE> 2
<MEAN> 39
 -3.679672e+00 1.311373e+00 1.349153e+00 1.048899e+01 3.814233e+00 -7.067645e+00 -2.064515e+00 -8.874707e+00 -3.989983e+00 -3.398847e+00 -2.766893e-01 -4.412556e+00 6.307520e+01 9.749518e-01 5.140257e-01 -8.365126e-01 -3.340398e-01 -2.902596e-01 -3.744527e-01 -3.147852e-01 -2.154184e-01 -6.636932e-01 -4.088359e-01 3.612308e-01 1.288478e-01 1.197863e-01 -4.530660e-01 -3.133928e-01 -9.060050e-02 -3.292489e-01 -3.071494e-01 1.595769e-01 3.358912e-01 2.989455e-01 2.706645e-01 1.103911e-01 9.078306e-02 1.162938e-01 -1.234072e-01
<VARIANCE> 39
 6.860695e+01 7.245988e+01 5.936073e+01 7.627334e+01 1.108951e+02 9.460523e+01 1.044621e+02 8.119484e+01 8.700847e+01 6.261394e+01 4.916795e+01 7.894081e+01 1.048212e+02 2.485413e+00 4.315047e+00 2.762999e+00 2.501164e+00 2.151443e+00 5.335017e+00 4.367969e+00 3.481500e+00 5.521071e+00 3.511838e+00 2.743382e+00 2.305501e+00 1.243491e+00 4.700449e-01 7.228213e-01 5.254512e-01 4.083072e-01 4.671957e-01 5.899681e-01 7.490675e-01 7.012441e-01 5.753883e-01 5.820757e-01 5.718167e-01 4.511613e-01 2.660577e-01
<GCONST> 1.346007e+02
<STATE> 3
<MEAN> 39
 -4.145159e+00 7.129465e-01 3.380985e-02 9.168224e+00 1.698778e+00 -9.342919e+00 -1.589014e+00 -8.217299e+00 -4.074803e+00 -2.444514e+00 5.624529e-01 -2.931280e+00 6.238890e+01 2.173014e-01 1.066920e-01 -6.587497e-01 -4.863081e-01 -5.195159e-01 8.717328e-02 4.192123e-01 4.132328e-01 -2.837134e-02 -8.654474e-02 6.632511e-02 1.817783e-01 -2.741618e-01 -2.798169e-01 -8.808443e-02 1.093282e-01 -7.770551e-02 -8.985014e-02 2.728201e-01 1.865163e-01 1.406909e-01 2.130017e-01 7.381453e-03 -6.690580e-02 -5.278543e-03 -1.499931e-01
<VARIANCE> 39
 7.985165e+01 6.186486e+01 6.326954e+01 6.686131e+01 1.093375e+02 1.175400e+02 1.285136e+02 7.772881e+01 9.834419e+01 7.118425e+01 4.567981e+01 6.642242e+01 1.176099e+02 1.184269e+00 1.660990e+00 1.603540e+00 1.723786e+00 2.189758e+00 3.734670e+00 3.117366e+00 2.749588e+00 3.209544e+00 3.172107e+00 2.248591e+00 2.163638e+00 7.734832e-01 2.501940e-01 4.574168e-01 3.396798e-01 2.964558e-01 3.517255e-01 4.410859e-01 4.674379e-01 5.706265e-01 6.568944e-01 5.764493e-01 4.329044e-01 3.381334e-01 1.460190e-01
<GCONST> 1.259657e+02
<STATE> 4
<MEAN> 39
 -2.135178e+00 1.297036e+00 -6.201914e+00 1.789642e-01 -1.584332e+00 -3.755270e+00 4.681926e+00 -2.127115e+00 -3.220535e+00 -5.125615e+00 -1.153313e+00 -1.351661e+00 6.360397e+01 1.403573e-01 7.677042e-02 -9.790710e-02 -1.364861e-01 -3.839420e-01 2.985129e-01 3.784566e-02 4.397317e-01 1.954234e-01 -2.467796e-01 7.421800e-02 -3.677200e-02 -4.486052e-01 -7.551219e-02 3.552473e-02 1.548333e-01 9.759741e-02 5.985397e-02 1.288950e-02 -6.449637e-02 -6.110681e-03 4.401324e-02 6.631734e-02 -2.489716e-02 -7.409462e-02 -5.206464e-02
<VARIANCE> 39
 9.049795e+01 1.057805e+02 7.742591e+01 1.066473e+02 8.863596e+01 1.519301e+02 1.034436e+02 7.222824e+01 1.015434e+02 6.451340e+01 5.121390e+01 5.435429e+01 1.923863e+02 1.355342e+00 1.091169e+00 1.417712e+00 1.494214e+00 1.745622e+00 2.941002e+00 2.393167e+00 2.244522e+00 2.359535e+00 2.389134e+00 1.896559e+00 1.894267e+00 7.482103e-01 1.941161e-01 2.355341e-01 2.233568e-01 2.338617e-01 2.516864e-01 5.303200e-01 4.414338e-01 3.539725e-01 5.188711e-01 3.902797e-01 3.280633e-01 2.737406e-01 8.905406e-02
<GCONST> 1.211121e+02
<TRANSP> 5
 0.000000e+00 1.000000e+00 0.000000e+00 0.000000e+00 0.000000e+00
 0.000000e+00 2.880925e-01 7.119076e-01 0.000000e+00 0.000000e+00
 0.000000e+00 0.000000e+00 1.985628e-01 8.014372e-01 0.000000e+00
 0.000000e+00 0.000000e+00 0.000000e+00 6.007845e-01 3.992155e-01
 0.000000e+00 0.000000e+00 0.000000e+00 0.000000e+00 0.000000e+00
<ENDHMM>
~h "v"
<BEGINHMM>
<NUMSTATES> 5
<STATE> 2
<MEAN> 39
 3.930056e-01 -5.944144e+00 -5.802674e+00 4.960778e-01 -5.189742e-01 -1.052544e+01 -3.903975e+00 -3.625270e+00 -2.446262e+00 -2.413821e+00 2.863988e+00 -4.296776e+00 6.875257e+01 -5.531850e-01 2.322623e-01 5.182344e-01 1.544637e-01 2.377228e-02 -3.262936e-01 -3.522866e-01 -9.956168e-02 -1.815818e-01 -1.679181e-01 2.482723e-01 1.008941e-01 -2.390501e-01 -2.534636e-02 8.411674e-03 4.194986e-02 -1.174528e-02 2.611012e-02 1.068832e-01 -4.129251e-03 -3.181913e-02 -1.713819e-02 -1.328370e-02 -9.197760e-02 2.838614e-02 -6.861882e-02
<VARIANCE> 39
 1.078754e+02 1.073736e+02 1.056111e+02 9.371024e+01 2.256152e+02 1.080444e+02 1.157249e+02 9.929170e+01 8.532867e+01 5.991452e+01 7.451431e+01 5.861924e+01 9.757366e+01 5.140598e+00 3.147243e+00 2.408746e+00 4.764163e+00 3.908953e+00 7.192377e+00 4.241375e+00 3.650999e+00 4.115524e+00 4.536726e+00 4.135170e+00 2.526500e+00 3.040824e+00 7.849892e-01 5.003105e-01 4.611788e-01 7.560081e-01 6.301962e-01 1.379832e+00 7.878228e-01 6.422324e-01 7.439157e-01 9.175664e-01 8.113406e-01 3.644608e-01 4.712383e-01
<GCONST> 1.437108e+02
<STATE> 3
<MEAN> 39
 -4.244261e+00 -3.687703e+00 -1.642616e+00 1.260431e+00 -2.341576e+00 -6.901508e+00 -5.367272e+00 -9.837668e+00 -3.660372e-01 -3.389694e+00 -2.886519e+00 -2.607173e+00 6.003968e+01 -3.280065e-01 1.096137e+00 5.813267e-01 5.931326e-01 5.769993e-02 1.076402e+00 3.919887e-01 -3.487214e-02 1.454474e-01 4.795294e-02 -2.319324e-01 1.015575e-02 -1.487979e+00 -3.486748e-02 1.569452e-01 -8.660270e-02 -2.253446e-02 7.593261e-02 1.705120e-01 1.589853e-01 2.065887e-01 1.738133e-01 4.524366e-03 9.394577e-02 3.804275e-02 -7.605839e-02
<VARIANCE> 39
 1.419921e+02 6.564012e+01 6.159322e+01 1.215280e+02 1.823151e+02 9.410092e+01 1.364496e+02 1.161476e+02 8.426488e+01 1.148963e+02 7.801719e+01 4.523915e+01 1.166655e+02 2.163271e+00 3.350230e+00 2.151289e+00 3.793444e+00 4.622033e+00 5.483477e+00 3.856686e+00 5.434165e+00 4.202652e+00 5.935412e+00 4.637923e+00 2.281374e+00 1.303790e+00 2.091271e-01 3.713116e-01 3.115130e-01 5.405911e-01 5.793882e-01 6.791126e-01 6.647542e-01 7.648708e-01 6.414386e-01 8.290724e-01 7.336251e-01 4.244489e-01 1.818066e-01
<GCONST> 1.380119e+02
<STATE> 4
<MEAN> 39
 -3.732767e+00 -5.379781e+00 1.830708e+00 1.477429e+00 -7.193587e+00 -1.223350e+00 -2.046383e+00 -7.420458e-01 2.266489e+00 -4.069401e+00 -1.078438e+00 1.020069e+00 4.804250e+01 -4.948646e-01 2.209416e-01 -4.108331e-02 2.845763e-01 3.226075e-01 3.109443e-01 4.966598e-02 1.721840e-01 1.970669e-01 2.138443e-01 2.771861e-01 1.473692e-01 -5.624876e-01 1.700944e-02 -2.308919e-01 -6.179249e-02 -6.857897e-02 -7.359216e-02 -1.499220e-01 2.775285e-02 -3.929475e-02 -6.735983e-02 6.851414e-02 6.522278e-03 -4.219662e-02 1.698505e-01
<VARIANCE> 39
 4.731380e+01 1.254455e+02 4.041587e+01 5.892298e+01 1.033800e+02 5.867821e+01 6.120721e+01 4.005006e+01 6.310043e+01 3.603364e+01 3.296935e+01 2.878838e+01 1.155697e+02 1.327125e+00 1.705748e+00 1.947475e+00 1.957453e+00 3.375669e+00 2.995740e+00 2.711262e+00 2.398620e+00 3.437924e+00 2.128602e+00 2.095666e+00 1.881276e+00 8.787852e-01 1.693144e-01 2.859214e-01 2.784415e-01 3.359619e-01 5.836875e-01 5.013680e-01 5.394595e-01 4.803197e-01 5.872444e-01 4.029528e-01 4.109116e-01 3.772659e-01 1.401868e-01
<GCONST> 1.203182e+02
<TRANSP> 5
 0.000000e+00 1.000000e+00 0.000000e+00 0.000000e+00 0.000000e+00
 0.000000e+00 7.970438e-01 2.029562e-01 0.000000e+00 0.000000e+00
 0.000000e+00 0.000000e+00 7.358702e-01 2.641297e-01 0.000000e+00
 0.000000e+00 0.000000e+00 0.000000e+00 8.464383e-01 1.535617e-01
 0.000000e+00 0.000000e+00 0.000000e+00 0.000000e+00 0.000000e+00
<ENDHMM>
~h "w"
<BEGINHMM>
<NUMSTATES> 5
<STATE> 2
<MEAN> 39
 -9.902359e+00 4.900867e+00 -1.157493e+00 7.637784e+00 -3.526111e-01 -3.178995e+00 1.377074e-01 -6.590932e+00 -2.075085e+00 -2.670201e+00 8.749920e-01 -2.423394e+00 5.091109e+01 1.787112e+00 9.720403e-01 4.714780e-01 -3.863513e-01 -7.269284e-01 -1.045521e+00 -6.973408e-01 -6.567606e-01 -4.534028e-01 -1.490047e-01 -3.552324e-01 -1.199248e-01 1.086377e+00 3.677970e-01 -5.190703e-02 -1.585582e-01 -2.853269e-01 -2.543272e-01 -2.274780e-01 -1.240497e-01 -3.384582e-02 -4.945454e-02 4.334777e-02 1.639774e-02 -4.135223e-02 2.793343e-01
<VARIANCE> 39
 7.423873e+01 1.166609e+02 6.003472e+01 6.833675e+01 1.024531e+02 1.046287e+02 7.106940e+01 9.921032e+01 5.439890e+01 7.590647e+01 4.329254e+01 3.760988e+01 1.662853e+02 5.326334e+00 7.347864e+00 5.083510e+00 4.949625e+00 7.355392e+00 7.073063e+00 6.466498e+00 5.256956e+00 3.865787e+00 3.977865e+00 3.313626e+00 2.219034e+00 3.427089e+00 7.662165e-01 1.291959e+00 1.016707e+00 9.494597e-01 1.157739e+00 1.046670e+00 1.276493e+00 1.152364e+00 7.896858e-01 7.626318e-01 4.323084e-01 4.501155e-01 5.776110e-01
<GCONST> 1.462085e+02
<STATE> 3
<MEAN> 39
 4.213295e+00 1.181598e+01 2.088266e+00 1.572203e-01 -1.157833e+01 -1.030176e+01 -6.862968e+00 -5.401061e+00 -1.377308e+00 -2.204285e+00 -2.566166e+00 -2.310931e+00 5.571248e+01 1.078097e+00 -6.993462e-01 -1.280729e+00 -1.756065e+00 -1.101061e+00 -9.592204e-01 8.260103e-01 1.102326e+00 4.505714e-01 1.306930e-02 -2.954279e-01 -8.898852e-02 1.344405e+00 -3.050636e-01 -4.819777e-01 -3.385717e-01 -4.496009e-02 4.498737e-01 4.166811e-01 5.059994e-01 2.118054e-01 -6.534147e-02 -1.784658e-01 -1.805995e-03 1.568872e-02 6.037442e-03
<VARIANCE> 39
 3.862211e+01 5.987619e+01 3.467574e+01 8.067107e+01 9.392352e+01 1.022962e+02 1.311297e+02 6.609961e+01 6.209624e+01 7.653025e+01 3.710888e+01 4.543739e+01 8.108162e+01 9.923283e-01 2.429053e+00 2.266174e+00 3.070947e+00 3.842505e+00 6.390681e+00 7.000572e+00 5.534105e+00 4.434287e+00 3.676852e+00 1.784560e+00 2.948923e+00 9.530959e-01 1.757278e-01 2.923427e-01 3.425657e-01 3.404583e-01 7.596546e-01 6.860095e-01 9.564057e-01 7.012037e-01 7.298461e-01 6.332204e-01 3.784797e-01 4.620582e-01 8.618880e-02
<GCONST> 1.288358e+02
<STATE> 4
<MEAN> 39
 6.695623e+00 1.431953e+00 -1.075978e+01 -7.040442e+00 -9.493340e+00 -8.490434e+00 3.225055e+00 2.950766e+00 -5.943681e-01 -6.734240e+00 -2.386410e+00 -2.845940e+00 6.395840e+01 -3.277988e-03 -1.512444e+00 -1.262799e+00 -1.995346e-01 1.720363e+00 1.501756e+00 2.450852e-01 -3.877865e-01 -7.025195e-01 -4.901775e-01 6.617242e-01 1.694303e-01 7.152635e-01 -1.770587e-01 1.646916e-01 4.014708e-01 4.632317e-01 1.933626e-01 1.075772e-02 -4.510983e-01 -4.076309e-01 -1.739051e-03 2.201349e-01 1.317742e-01 -3.949204e-02 -2.050652e-01
<VARIANCE> 39
 3.563782e+01 8.590705e+01 5.599139e+01 1.213510e+02 1.183468e+02 2.555327e+02 1.898981e+02 1.087454e+02 7.829413e+01 5.267839e+01 5.844333e+01 4.830762e+01 7.380034e+01 4.700555e-01 1.805351e+00 1.874276e+00 2.431659e+00 3.843604e+00 3.599395e+00 5.599751e+00 3.663175e+00 3.637563e+00 3.501771e+00 3.130064e+00 2.987475e+00 8.413868e-01 1.023734e-01 2.023014e-01 2.014380e-01 3.119151e-01 5.504932e-01 7.919748e-01 7.127404e-01 5.029171e-01 6.092774e-01 5.232375e-01 4.943420e-01 5.099660e-01 6.859817e-02
<GCONST> 1.272590e+02
<TRANSP> 5
 0.000000e+00 1.000000e+00 0.000000e+00 0.000000e+00 0.000000e+00
 0.000000e+00 7.402437e-01 2.597563e-01 0.000000e+00 0.000000e+00
 0.000000e+00 0.000000e+00 7.539993e-01 2.460007e-01 0.000000e+00
 0.000000e+00 0.000000e+00 0.000000e+00 7.803364e-01 2.196636e-01
 0.000000e+00 0.000000e+00 0.000000e+00 0.000000e+00 0.000000e+00
<ENDHMM>
~h "z"
<BEGINHMM>
<NUMSTATES> 5
<STATE> 2
<MEAN> 39
 -9.415339e+00 8.079997e+00 -1.711616e+00 2.791527e+00 1.506288e+00 -5.199775e+00 -1.026464e+00 -3.506072e+00 -4.247052e+00 -2.920833e+00 -3.234562e-01 -3.028676e+00 4.820441e+01 1.841507e-01 8.937274e-01 1.174462e+00 -8.460513e-01 -3.667058e-01 -9.156957e-01 -1.780499e-01 -1.142787e+00 3.278691e-01 -8.220151e-01 -2.188852e-01 3.026028e-02 1.405710e+00 -3.504508e-02 -1.185773e-01 2.690012e-01 -1.876073e-01 -1.970070e-01 5.792228e-02 -6.820447e-02 -2.133356e-01 1.510413e-01 -5.334228e-02 -7.632764e-02 1.272930e-01 1.824255e-01
<VARIANCE> 39
 1.039413e+02 8.050655e+01 8.360157e+01 6.908592e+01 1.887997e+02 1.291040e+02 5.339354e+01 8.695583e+01 1.037866e+02 8.301436e+01 2.481961e+01 4.435399e+01 2.240972e+02 4.466026e+00 4.591968e+00 3.552482e+00 4.913756e+00 6.821091e+00 1.050430e+01 4.810771e+00 4.954413e+00 6.149895e+00 4.469312e+00 1.932798e+00 3.370927e+00 2.643435e+00 7.346643e-01 6.119178e-01 7.900424e-01 9.499252e-01 1.109036e+00 1.452878e+00 8.886154e-01 1.059465e+00 1.030742e+00 7.099930e-01 3.898448e-01 7.164735e-01 4.259351e-01
<GCONST> 1.457649e+02
<STATE> 3
<MEAN> 39
 -1.685880e+01 7.160469e+00 1.113766e+01 7.206554e-02 3.336689e+00 -6.406518e+00 1.361158e+00 -9.815026e+00 -1.028748e+00 -5.287601e+00 -1.120580e+00 2.805714e-01 6.291567e+01 -3.863063e-03 -9.590454e-01 1.178222e+00 -2.212126e-01 -5.788521e-01 -2.382350e-01 -4.879168e-01 -1.968272e-01 1.838487e-01 2.051544e-01 -8.801219e-02 3.716942e-01 6.243879e-01 4.129660e-01 -8.837564e-02 -1.642552e-01 2.011638e-01 -1.278518e-01 -8.174612e-02 -2.400956e-01 2.895303e-02 -2.997864e-01 5.561146e-02 7.991800e-02 -9.758394e-02 -3.921654e-02
<VARIANCE> 39
 1.147683e+02 9.270030e+01 2.076517e+02 8.377396e+01 1.053587e+02 2.349352e+02 7.469502e+01 7.586523e+01 8.436508e+01 4.991227e+01 1.088631e+02 7.528260e+01 1.229808e+02 9.075294e+00 2.567417e+00 7.906111e+00 5.761039e+00 4.981619e+00 7.094399e+00 4.990335e+00 5.133735e+00 5.741683e+00 3.176369e+00 3.449123e+00 2.689208e+00 9.319277e-01 8.594034e-01 3.616046e-01 9.069955e-01 6.662802e-01 7.635146e-01 9.922462e-01 8.207189e-01 9.043218e-01 6.566183e-01 5.750948e-01 6.293396e-01 4.688182e-01 1.670952e-01
<GCONST> 1.442455e+02
<STATE> 4
<MEAN> 39
 -7.317233e+00 -3.537695e+00 1.767284e+01 2.475165e-01 -1.001005e+01 -1.839999e+00 -1.430017e+01 -1.042470e+01 -6.579667e+00 -2.499279e+00 -1.100856e+00 7.084969e-01 6.177224e+01 2.429537e+00 -1.603010e+00 -5.097420e-01 8.893249e-01 -9.708269e-01 -1.266478e+00 -1.094602e+00 5.281215e-01 -4.362600e-01 7.528792e-02 4.191792e-01 -4.133692e-01 1.027578e+00 -3.331077e-01 9.963262e-02 -7.221338e-01 1.447895e-01 4.835225e-01 -5.666163e-02 4.425268e-01 4.093094e-01 4.754506e-01 -3.783735e-02 5.819896e-02 -9.470223e-02 -2.168242e-01
<VARIANCE> 39
 6.044034e+01 7.430550e+01 9.202396e+01 9.144507e+01 1.071245e+02 2.628012e+02 1.380670e+02 1.017398e+02 1.565553e+02 4.732389e+01 4.794419e+01 5.337864e+01 1.024342e+02 4.729831e+00 3.405010e+00 1.097001e+01 7.876522e+00 6.397460e+00 9.587868e+00 6.159648e+00 7.066547e+00 5.668485e+00 4.161890e+00 3.904682e+00 2.846127e+00 2.371247e+00 6.248193e-01 6.364581e-01 5.419813e-01 8.201058e-01 7.685224e-01 1.413713e+00 9.278405e-01 8.780908e-01 7.714256e-01 7.824433e-01 4.514634e-01 4.538549e-01 1.694029e-01
<GCONST> 1.461474e+02
<TRANSP> 5
 0.000000e+00 1.000000e+00 0.000000e+00 0.000000e+00 0.000000e+00
 0.000000e+00 7.312605e-01 2.687396e-01 0.000000e+00 0.000000e+00
 0.000000e+00 0.000000e+00 8.511550e-01 1.488449e-01 0.000000e+00
 0.000000e+00 0.000000e+00 0.000000e+00 7.375529e-01 2.624471e-01
 0.000000e+00 0.000000e+00 0.000000e+00 0.000000e+00 0.000000e+00
<ENDHMM>
~h "aa"
<BEGINHMM>
<NUMSTATES> 5
<STATE> 2
<MEAN> 39
 -8.730146e+00 -1.343624e+00 2.137112e+00 5.817494e+00 3.658575e+00 -4.422058e+00 9.983491e+00 -5.384408e+00 -1.853018e+00 -6.817805e-01 1.987818e-01 -5.312897e+00 6.279916e+01 -1.586298e+00 -8.777195e-01 1.845131e+00 -5.428699e-02 9.847545e-02 -3.050065e-01 -1.628077e-01 -7.051535e-01 -3.680928e-01 1.418754e-01 2.673235e-01 -2.658139e-01 7.087486e-01 -7.309102e-02 1.882510e-02 8.707389e-02 1.476829e-02 -5.711117e-02 -1.145092e-01 -1.596461e-01 9.529081e-02 2.395490e-02 -1.327831e-01 9.493820e-02 -3.538666e-02 7.440559e-02
<VARIANCE> 39
 1.172764e+02 7.119075e+01 1.226118e+02 7.289091e+01 6.251307e+01 9.214161e+01 1.329407e+02 9.271675e+01 4.280973e+01 6.935870e+01 4.005734e+01 4.112172e+01 9.251391e+01 5.255990e+00 5.444051e+00 6.619488e+00 7.925735e+00 5.964327e+00 6.873646e+00 6.507009e+00 9.713401e+00 4.315025e+00 6.368650e+00 3.501522e+00 2.144891e+00 4.609530e+00 7.799435e-01 8.661317e-01 8.779135e-01 1.385251e+00 8.991854e-01 9.990995e-01 9.024240e-01 1.648612e+00 8.660366e-01 1.102017e+00 5.907837e-01 3.154497e-01 7.239778e-01
<GCONST> 1.478891e+02
<STATE> 3
<MEAN> 39
 -1.869480e+01 -8.983521e+00 1.092775e+01 3.637685e+00 -4.609783e-01 -6.648196e+00 6.407806e+00 -6.059290e+00 -1.921432e+00 3.942210e-01 3.587093e+00 -2.864201e+00 6.583405e+01 6.158847e-01 1.651433e-01 -4.357625e-02 8.231310e-01 1.825354e-01 -2.814069e-03 -7.353012e-01 1.417181e-01 -5.129119e-01 3.753002e-01 -2.146651e-01 1.454249e-02 -7.233481e-01 5.629352e-01 4.063465e-01 -3.033698e-01 2.394053e-01 -7.058576e-02 9.714711e-02 -9.755898e-02 -8.207923e-02 -9.688728e-02 -3.566288e-02 -1.609063e-01 -1.664308e-01 -2.559324e-01
<VARIANCE> 39
 9.485833e+01 4.503497e+01 5.038452e+01 6.391011e+01 9.166850e+01 5.927210e+01 6.165143e+01 4.863844e+01 4.229648e+01 5.329120e+01 3.399928e+01 4.952813e+01 4.104269e+01 4.912553e+00 2.392597e+00 2.579703e+00 2.176507e+00 2.279265e+00 2.955363e+00 2.912683e+00 2.210142e+00 2.751119e+00 2.102334e+00 1.838686e+00 1.552797e+00 1.237128e+00 4.411939e-01 3.610878e-01 5.563095e-01 3.872041e-01 4.122546e-01 5.675910e-01 4.374698e-01 4.677437e-01 7.013241e-01 4.148581e-01 3.803551e-01 3.080738e-01 2.008992e-01
<GCONST> 1.231657e+02
<STATE> 4
<MEAN> 39
 -5.814295e+00 1.500527e+00 3.263026e+00 1.145507e+01 8.234690e-01 -5.221863e+00 3.339333e-01 -8.285493e+00 -6.080116e+00 -2.354873e+00 1.359405e+00 -5.512242e+00 5.960755e+01 9.656356e-01 1.151020e+00 -1.190025e+00 -2.368284e-01 -4.235279e-01 7.234135e-01 4.197362e-01 1.068237e-01 2.428520e-01 -6.893277e-01 2.209900e-01 1.854761e-01 -5.268287e-01 -3.660098e-01 -1.487615e-01 -1.964063e-02 -3.504489e-01 9.452071e-02 1.026523e-01 1.598716e-01 1.634699e-01 5.384659e-01 7.286922e-02 3.745695e-03 2.454797e-01 3.356489e-02
<VARIANCE> 39
 7.247974e+01 7.227113e+01 4.757705e+01 4.555294e+01 5.464706e+01 5.584117e+01 5.781443e+01 5.033884e+01 4.056911e+01 5.971130e+01 4.790807e+01 6.033619e+01 4.689198e+01 3.867765e+00 3.611839e+00 3.621875e+00 3.901014e+00 2.214735e+00 3.607072e+00 3.711032e+00 3.679190e+00 7.629936e+00 3.173957e+00 1.716641e+00 2.311335e+00 1.578624e+00 3.621660e-01 6.654671e-01 6.307196e-01 4.817730e-01 3.843141e-01 6.008720e-01 6.552303e-01 5.411065e-01 1.209302e+00 5.071248e-01 3.499693e-01 4.497792e-01 2.438065e-01
<GCONST> 1.296642e+02
<TRANSP> 5
 0.000000e+00 1.000000e+00 0.000000e+00 0.000000e+00 0.000000e+00
 0.000000e+00 7.708455e-01 2.291544e-01 0.000000e+00 0.000000e+00
 0.000000e+00 0.000000e+00 7.479196e-01 2.520804e-01 0.000000e+00
 0.000000e+00 0.000000e+00 0.000000e+00 6.965732e-01 3.034268e-01
 0.000000e+00 0.000000e+00 0.000000e+00 0.000000e+00 0.000000e+00
<ENDHMM>
~h "ae"
<BEGINHMM>
<NUMSTATES> 5
<STATE> 2
<MEAN> 39
 -1.244291e+01 -1.256861e+01 3.631107e+00 7.568053e+00 1.050300e+01 -1.206152e+01 4.229642e+00 -4.476240e+00 -4.558862e+00 -7.184624e+00 3.581166e+00 -8.855928e-01 6.666615e+01 -5.394987e-01 -3.244159e-01 5.677267e-01 3.763220e-01 2.820411e-01 -1.884360e-01 -7.067683e-01 2.576236e-01 -1.384457e-03 -2.821107e-01 3.756889e-02 -9.737914e-02 -4.375243e-02 1.837346e-01 7.871442e-02 -2.774920e-01 -1.162805e-01 1.167517e-01 -5.144865e-02 -3.796791e-02 -1.183017e-01 2.480775e-01 1.175378e-01 -2.384295e-01 8.400093e-02 8.887258e-03
<VARIANCE> 39
 1.380401e+02 1.284144e+02 6.383624e+01 2.766900e+01 5.952076e+01 5.183661e+01 8.480167e+01 4.025132e+01 8.094946e+01 2.349084e+01 2.999420e+01 3.259317e+01 2.805510e+01 1.412163e+01 8.597969e+00 8.055362e+00 3.064070e+00 2.858661e+00 4.465038e+00 3.673854e+00 4.276642e+00 8.571401e+00 2.503901e+00 3.316266e+00 2.021297e+00 2.123194e+00 1.491868e+00 7.089773e-01 1.078737e+00 7.011916e-01 4.385527e-01 1.031219e+00 7.744745e-01 6.859473e-01 1.386580e+00 4.777336e-01 5.123016e-01 3.805884e-01 4.405001e-01
<GCONST> 1.373886e+02
<STATE> 3
<MEAN> 39
 -5.897878e+00 -5.740484e+00 3.005492e+00 1.654838e+01 1.483621e+00 -1.224838e+01 -7.946866e+00 -7.042681e+00 7.709828e+00 -2.592415e+00 -8.025229e+00 -7.961186e-01 6.440312e+01 4.886640e-02 2.557361e-01 -3.318794e-01 -6.416903e-01 -1.752423e-01 1.272994e-01 8.627369e-02 6.884893e-02 2.302795e-01 -1.280382e-03 -3.996906e-01 -3.721082e-01 -6.047396e-02 2.294255e-01 1.423193e-01 -1.096277e-01 -4.180101e-01 -2.967267e-01 -1.402492e-01 2.874316e-02 5.279010e-02 -2.245782e-01 -1.079628e-01 8.535298e-02 1.050947e-01 1.215626e-01
<VARIANCE> 39
 4.982487e+01 1.708880e+02 2.217458e+01 2.703561e+01 4.501858e+01 2.712339e+01 5.350016e+01 1.971963e+01 7.476654e+01 3.260146e+01 3.437102e+01 2.883864e+01 1.323066e+01 4.045521e+00 1.304300e+01 2.708873e+00 3.678004e+00 3.363518e+00 2.763488e+00 3.908061e+00 2.306076e+00 4.675498e+00 2.822732e+00 3.318507e+00 1.760549e+00 1.277395e+00 3.049750e-01 1.117878e+00 5.183994e-01 5.100505e-01 3.943523e-01 5.254287e-01 8.231692e-01 4.485901e-01 5.810019e-01 3.522828e-01 3.904061e-01 2.759871e-01 1.774509e-01
<GCONST> 1.232346e+02
<STATE> 4
<MEAN> 39
 -8.191003e+00 -4.918280e+00 -5.462344e-02 3.298486e+00 4.985479e+00 -1.531774e+01 3.973595e+00 -1.574922e+00 -2.414494e+00 -1.383120e+01 -1.396465e+00 5.866781e-01 6.544323e+01 -9.297890e-01 -9.012218e-01 6.482872e-01 -1.659259e-01 -2.842942e-01 -5.188612e-01 2.308861e-01 2.926955e-01 2.378135e-01 9.212027e-02 4.931909e-01 5.456723e-02 2.518919e-01 -3.763807e-02 5.351098e-02 1.382665e-01 2.149371e-01 1.302710e-01 1.133187e-01 -7.072563e-02 -1.228123e-01 -3.650328e-02 1.287068e-01 9.731960e-02 -6.109334e-02 -8.858154e-02
<VARIANCE> 39
 2.143391e+02 1.666608e+02 9.583266e+01 1.615309e+01 1.151992e+02 3.828470e+01 5.567046e+01 5.945890e+01 6.358142e+01 3.235621e+01 9.298495e+01 1.618619e+01 1.583171e+01 4.410991e+00 3.586480e+00 3.031150e+00 2.367272e+00 4.163393e+00 3.516369e+00 3.103303e+00 4.904259e+00 4.410677e+00 2.345535e+00 3.272202e+00 1.447314e+00 1.101568e+00 4.519115e-01 4.051609e-01 5.372413e-01 3.570473e-01 5.565718e-01 6.891470e-01 5.017285e-01 7.241450e-01 7.930784e-01 3.692248e-01 4.248172e-01 2.285306e-01 1.689021e-01
<GCONST> 1.271779e+02
<TRANSP> 5
 0.000000e+00 1.000000e+00 0.000000e+00 0.000000e+00 0.000000e+00
 0.000000e+00 8.743490e-01 1.256510e-01 0.000000e+00 0.000000e+00
 0.000000e+00 0.000000e+00 8.253951e-01 1.746049e-01 0.000000e+00
 0.000000e+00 0.000000e+00 0.000000e+00 8.828956e-01 1.171044e-01
 0.000000e+00 0.000000e+00 0.000000e+00 0.000000e+00 0.000000e+00
<ENDHMM>
~h "ah"
<BEGINHMM>
<NUMSTATES> 5
<STATE> 2
<MEAN> 39
 3.033853e+00 -4.278646e+00 -5.250881e+00 -2.839989e+00 -1.372131e+00 -1.890071e+00 -5.066609e+00 -3.975608e+00 -1.773704e+00 -4.748167e+00 -1.050438e+00 -3.703866e+00 5.974604e+01 -2.821724e-01 -1.581138e-01 5.732002e-01 8.770061e-01 1.116559e-02 -5.005134e-01 1.441069e-01 8.947382e-02 -1.441311e-01 2.149848e-01 -2.344001e-01 -1.529207e-01 -2.526561e-01 -1.008641e-01 3.229996e-01 1.364076e-01 8.485205e-02 -1.418723e-02 1.057210e-01 2.303753e-02 -1.054649e-02 4.378469e-02 -2.477608e-02 -4.104352e-02 -1.878244e-02 -2.435760e-01
<VARIANCE> 39
 2.470762e+01 7.684717e+01 7.199961e+01 1.273934e+02 1.372383e+02 1.164878e+02 1.151089e+02 8.476426e+01 7.689876e+01 6.520415e+01 1.213542e+02 7.988446e+01 7.322491e+01 6.326517e-01 2.855857e+00 1.634606e+00 2.674194e+00 3.179713e+00 4.137025e+00 3.290255e+00 4.100802e+00 3.809910e+00 3.706796e+00 3.530697e+00 2.766069e+00 1.258728e+00 1.284739e-01 2.929572e-01 3.150174e-01 2.889167e-01 5.535393e-01 6.982703e-01 5.548977e-01 7.433829e-01 6.543847e-01 6.829413e-01 6.647163e-01 4.803477e-01 9.980807e-02
<GCONST> 1.298463e+02
<STATE> 3
<MEAN> 39
 4.710215e-01 9.819690e-01 -2.650912e+00 6.542325e+00 3.127862e+00 -6.319251e+00 6.220314e-01 -8.726504e+00 -7.912017e+00 -3.863318e+00 1.168047e+00 -5.042683e+00 6.194354e+01 -2.894781e-01 1.143340e+00 7.489628e-01 9.697454e-01 1.596477e-01 5.472221e-01 -8.103511e-01 -4.979247e-01 6.605085e-01 -2.182599e-01 -4.847829e-01 -1.495613e-01 -1.005553e+00 -2.784372e-02 3.655789e-02 1.151140e-01 1.095484e-02 -8.889808e-02 2.925209e-03 -8.976398e-02 1.019879e-01 1.516368e-01 -1.752976e-01 -1.692522e-01 9.914246e-02 -2.888873e-02
<VARIANCE> 39
 1.906344e+01 7.479711e+01 4.957845e+01 1.011780e+02 1.032778e+02 5.881402e+01 1.125246e+02 9.598957e+01 4.480824e+01 5.675681e+01 5.243277e+01 4.194955e+01 7.445432e+01 4.691927e-01 1.034185e+00 9.763129e-01 2.164882e+00 2.233643e+00 2.411092e+00 3.120969e+00 3.480860e+00 2.682222e+00 3.299895e+00 3.154865e+00 1.937936e+00 4.434866e-01 6.176733e-02 2.014822e-01 1.549573e-01 3.516017e-01 3.314994e-01 5.068249e-01 5.486545e-01 5.492536e-01 3.552888e-01 4.618032e-01 3.975667e-01 2.803916e-01 8.773308e-02
<GCONST> 1.158648e+02
<STATE> 4
<MEAN> 39
 3.614378e+00 9.374463e+00 4.030428e+00 8.729546e+00 -3.954807e+00 -6.850357e+00 -7.167274e+00 -9.154754e+00 -1.425785e+00 -6.124632e+00 -4.855872e+00 -1.108741e+00 5.994386e+01 -2.745970e-01 3.337785e-01 3.396369e-01 1.828701e-01 2.120059e-02 2.128391e-01 1.600053e-01 7.047016e-02 1.769587e-01 2.122777e-02 -1.098513e-01 -1.632218e-02 -3.240827e-01 -4.147584e-02 -6.540879e-02 -2.505284e-02 -3.720589e-02 1.105128e-02 2.290629e-02 9.101563e-02 4.404767e-03 -7.969032e-02 4.343939e-02 4.624762e-02 -5.501568e-03 1.086929e-02
<VARIANCE> 39
 3.004423e+01 6.726175e+01 3.347786e+01 6.135991e+01 8.741625e+01 4.493586e+01 6.355615e+01 3.672332e+01 3.435387e+01 4.608898e+01 3.388976e+01 2.413762e+01 5.917590e+01 4.266188e-01 8.928271e-01 8.286161e-01 1.333595e+00 1.329028e+00 1.280771e+00 1.797728e+00 1.733785e+00 1.920036e+00 1.716784e+00 1.601360e+00 1.552632e+00 3.168388e-01 5.104806e-02 1.219816e-01 1.218728e-01 2.050610e-01 1.997963e-01 2.106365e-01 3.140042e-01 3.378910e-01 3.438841e-01 3.268299e-01 2.958106e-01 2.622182e-01 3.988289e-02
<GCONST> 1.007159e+02
<TRANSP> 5
 0.000000e+00 1.000000e+00 0.000000e+00 0.000000e+00 0.000000e+00
 0.000000e+00 6.950815e-01 3.049185e-01 0.000000e+00 0.000000e+00
 0.000000e+00 0.000000e+00 6.722840e-01 3.277160e-01 0.000000e+00
 0.000000e+00 0.000000e+00 0.000000e+00 8.369864e-01 1.630136e-01
 0.000000e+00 0.000000e+00 0.000000e+00 0.000000e+00 0.000000e+00
<ENDHMM>
~h "ao"
<BEGINHMM>
<NUMSTATES> 5
<STATE> 2
<MEAN> 39
 5.168217e+00 1.150519e+01 -2.801107e+00 -4.282866e+00 -1.136737e+01 -1.553524e+01 -4.783940e-01 -3.199975e+00 -3.805370e-01 -2.223702e+00 -4.614623e+00 -8.230037e+00 6.430747e+01 2.014270e+00 4.772434e-01 3.262755e-01 -3.124124e-01 -2.497085e+00 -2.330950e+00 -1.080037e+00 7.035365e-01 2.521505e-02 1.100224e+00 -1.443124e-01 -7.192804e-01 6.294786e-01 -1.290303e+00 -7.832711e-01 -2.194893e-01 4.038722e-01 1.197224e+00 9.286596e-01 4.382796e-01 7.604513e-02 -6.017908e-03 -9.099808e-02 2.122374e-01 4.214891e-01 -2.746106e-01
<VARIANCE> 39
 2.181607e+01 7.738848e+01 2.931932e+01 1.104116e+02 5.120837e+01 1.618054e+02 1.196039e+02 3.520826e+01 3.897021e+01 4.446783e+01 2.501106e+01 6.474567e+01 4.093506e+01 4.400720e+00 3.489178e+00 1.115143e+00 2.603107e+00 6.696825e+00 6.359452e+00 3.960221e+00 2.614922e+00 3.449907e+00 2.847910e+00 1.485441e+00 1.938192e+00 6.075695e-01 3.610290e-01 5.867372e-01 2.766505e-01 5.366958e-01 8.396922e-01 7.062130e-01 6.350707e-01 3.368679e-01 4.077897e-01 4.766832e-01 3.801614e-01 4.085703e-01 1.490736e-01
<GCONST> 1.249212e+02
<STATE> 3
<MEAN> 39
 6.607338e+00 1.276502e+01 -3.314176e+00 8.329835e-01 -1.358606e+01 -1.666666e+01 -3.717425e+00 -3.809654e+00 7.278106e-01 -4.346473e+00 -4.079099e+00 -8.095995e+00 6.412986e+01 1.260852e-01 -3.998006e-01 -5.829281e-01 -3.605157e-01 3.626810e-01 8.179352e-01 4.642759e-01 -1.544631e-01 -6.900395e-01 -2.689048e-01 2.641568e-01 4.666685e-02 1.413401e-01 -6.372895e-02 -5.741852e-02 -1.215908e-01 -4.740573e-02 3.114202e-01 2.181770e-01 9.935811e-02 -1.739276e-01 -2.152215e-01 7.772599e-03 6.356322e-02 1.117001e-01 1.476718e-04
<VARIANCE> 39
 1.486422e+01 5.915458e+01 3.176861e+01 6.800981e+01 3.611715e+01 7.983829e+01 1.369181e+02 2.646889e+01 5.433870e+01 4.851695e+01 2.799007e+01 4.514329e+01 2.502655e+01 1.468010e-01 5.240692e-01 8.365582e-01 8.205175e-01 1.455017e+00 1.575293e+00 1.969176e+00 1.591694e+00 2.038717e+00 1.311129e+00 1.227106e+00 1.232886e+00 1.407409e-01 5.180022e-02 7.851600e-02 1.028386e-01 1.640989e-01 2.327909e-01 3.079123e-01 3.666674e-01 2.742630e-01 2.359567e-01 2.382270e-01 2.762400e-01 2.218002e-01 2.563795e-02
<GCONST> 9.514851e+01
<STATE> 4
<MEAN> 39
 7.556413e+00 -7.554752e-01 -8.684402e+00 -1.481072e+01 -9.906685e+00 -1.568225e-01 4.194019e-01 -3.378418e+00 -3.938321e+00 1.713492e-01 -6.825675e-01 -4.584508e+00 6.205676e+01 2.701286e-03 -8.521888e-01 -5.487445e-01 8.488913e-01 8.251815e-01 -5.830987e-04 1.562686e-02 -1.354704e-01 -4.680661e-01 5.001938e-01 3.930445e-01 -2.478595e-02 -6.190673e-03 -1.687480e-02 6.992479e-03 3.492307e-02 1.731813e-01 4.125034e-02 -1.190942e-01 -6.567728e-02 2.086615e-02 7.939985e-02 -2.056817e-02 9.569171e-04 -2.460677e-02 -2.362014e-02
<VARIANCE> 39
 1.229579e+01 1.014302e+02 4.508028e+01 1.175608e+02 1.411579e+02 2.863041e+02 9.520899e+01 1.122551e+02 9.589795e+01 6.285608e+01 5.347827e+01 6.798434e+01 8.534116e+01 1.774627e-01 1.304579e+00 1.007331e+00 2.164524e+00 2.479266e+00 3.915719e+00 2.192840e+00 5.637696e+00 3.124496e+00 2.886773e+00 3.593242e+00 2.507835e+00 2.979045e-01 3.071056e-02 1.950835e-01 1.540376e-01 1.704608e-01 3.105031e-01 4.517481e-01 4.269771e-01 6.525882e-01 4.174529e-01 5.951148e-01 5.505856e-01 4.320365e-01 3.142336e-02
<GCONST> 1.176171e+02
<TRANSP> 5
 0.000000e+00 1.000000e+00 0.000000e+00 0.000000e+00 0.000000e+00
 0.000000e+00 5.838648e-01 4.161352e-01 0.000000e+00 0.000000e+00
 0.000000e+00 0.000000e+00 8.295475e-01 1.704525e-01 0.000000e+00
 0.000000e+00 0.000000e+00 0.000000e+00 8.686008e-01 1.313992e-01
 0.000000e+00 0.000000e+00 0.000000e+00 0.000000e+00 0.000000e+00
<ENDHMM>
~h "ay"
<BEGINHMM>
<NUMSTATES> 5
<STATE> 2
<MEAN> 39
 3.547957e+00 -1.285702e+00 -3.281270e+00 1.675888e+00 -2.785309e+00 -5.666560e+00 -3.636322e+00 -4.743027e+00 -3.066064e+00 -3.317848e+00 -2.142065e+00 -2.765904e+00 6.235022e+01 1.261246e+00 -2.342275e+00 -1.635099e+00 -2.025885e+00 -9.101920e-02 -6.526871e-01 5.209910e-01 7.590461e-01 -1.197997e-01 1.796406e-01 5.580228e-02 3.679522e-01 2.542210e+00 -5.590622e-01 -1.279510e-01 2.510001e-02 1.556292e-02 3.393230e-01 3.662083e-01 1.168254e-01 1.363278e-01 2.010706e-01 1.071401e-03 -1.234221e-02 1.105110e-02 -3.035114e-01
<VARIANCE> 39
 4.644723e+01 1.076670e+02 1.107291e+02 1.160253e+02 1.299231e+02 1.125789e+02 1.287449e+02 9.204420e+01 5.936975e+01 6.243794e+01 8.148783e+01 5.814959e+01 1.466504e+02 5.319652e+00 6.312653e+00 6.327736e+00 4.524789e+00 9.500371e+00 7.319355e+00 8.744804e+00 7.526186e+00 5.183125e+00 6.184354e+00 6.193646e+00 5.818465e+00 2.337437e+00 1.062332e+00 1.150756e+00 1.117138e+00 9.518980e-01 1.450902e+00 1.197199e+00 1.210948e+00 1.377540e+00 9.159825e-01 8.819758e-01 9.787765e-01 8.517366e-01 7.305312e-01
<GCONST> 1.541108e+02
<STATE> 3
<MEAN> 39
 6.438663e+00 -1.071359e+01 -1.166233e+01 -7.636355e+00 2.657437e+00 -4.630517e+00 -2.116426e+00 -1.896112e+00 -1.465497e-01 -1.688871e+00 -1.543717e+00 -4.717118e+00 7.012041e+01 1.523495e-02 -1.357183e-01 4.056838e-03 4.491663e-01 1.764265e-01 3.103937e-03 -1.462963e-01 2.667020e-02 2.807235e-01 -1.664869e-01 -2.644340e-01 1.253317e-01 -2.406722e-01 -6.432282e-02 2.238938e-01 1.185474e-01 2.175726e-01 1.621492e-03 -8.453722e-02 -9.992328e-02 -2.412736e-02 -9.994764e-03 3.849038e-02 1.770966e-02 7.610501e-03 -1.800014e-01
<VARIANCE> 39
 2.314956e+01 6.790590e+01 7.585880e+01 1.371384e+02 1.059043e+02 2.179707e+02 2.433522e+02 6.939466e+01 7.235801e+01 8.714366e+01 8.126810e+01 7.705387e+01 4.357197e+01 6.903521e-01 1.137467e+00 2.297819e+00 2.441162e+00 2.877492e+00 5.095885e+00 2.973439e+00 2.980825e+00 2.627470e+00 2.663530e+00 2.858083e+00 2.659895e+00 5.135486e-01 1.798312e-01 2.456965e-01 3.667034e-01 3.718039e-01 4.769777e-01 7.405397e-01 6.395086e-01 5.421018e-01 4.792718e-01 5.492144e-01 5.326605e-01 5.060338e-01 1.683563e-01
<GCONST> 1.273524e+02
<STATE> 4
<MEAN> 39
 4.238177e+00 -5.294786e+00 -8.369041e+00 2.346032e-01 -3.060330e-01 -5.932051e+00 -1.338486e+00 -4.422347e+00 -1.024480e+00 -3.869983e+00 -4.819538e+00 4.421183e-01 6.693829e+01 -1.364707e-01 1.184897e-01 4.341489e-01 4.497764e-01 1.184051e-01 -3.444603e-01 -3.001492e-01 -1.239059e-01 -1.181741e-01 1.595746e-01 1.289528e-01 -2.348450e-02 -1.399851e-01 -4.487113e-02 7.922704e-02 1.488387e-01 6.804986e-02 -4.369037e-02 -1.540822e-02 5.143737e-02 -2.868824e-02 -5.435990e-02 -1.488193e-02 -2.942433e-03 -5.103549e-02 -4.278525e-02
<VARIANCE> 39
 3.191673e+01 1.022457e+02 6.413154e+01 4.649312e+01 9.968462e+01 1.088931e+02 1.262009e+02 5.693280e+01 4.406494e+01 5.267596e+01 6.168032e+01 4.581850e+01 5.424976e+01 1.548122e-01 4.188562e-01 9.986753e-01 1.126544e+00 1.341004e+00 1.396031e+00 1.660245e+00 1.374219e+00 1.511157e+00 1.422825e+00 1.412406e+00 1.083629e+00 1.312712e-01 2.492417e-02 6.433883e-02 1.016351e-01 1.404581e-01 1.587002e-01 2.204907e-01 2.385534e-01 2.027413e-01 2.126359e-01 2.167922e-01 2.076141e-01 1.776982e-01 1.961961e-02
<GCONST> 9.625045e+01
<TRANSP> 5
 0.000000e+00 1.000000e+00 0.000000e+00 0.000000e+00 0.000000e+00
 0.000000e+00 7.108461e-01 2.891539e-01 0.000000e+00 0.000000e+00
 0.000000e+00 0.000000e+00 8.358007e-01 1.641993e-01 0.000000e+00
 0.000000e+00 0.000000e+00 0.000000e+00 9.094095e-01 9.059044e-02
 0.000000e+00 0.000000e+00 0.000000e+00 0.000000e+00 0.000000e+00
<ENDHMM>
~h "eh"
<BEGINHMM>
<NUMSTATES> 5
<STATE> 2
<MEAN> 39
 -1.017083e+01 9.548489e-01 2.482356e+00 2.554537e+00 2.372604e+00 -1.354427e+00 3.422292e+00 -7.159857e+00 3.719852e-02 -1.944348e+00 -2.271423e-01 -1.957822e+00 6.322449e+01 2.614825e+00 -2.224140e-01 -5.391415e-01 6.026344e-02 -4.817363e-01 -1.330293e+00 -1.019534e+00 -2.359213e-01 -7.544798e-01 -1.508188e-01 -4.909953e-01 1.061798e-01 9.399388e-01 2.175679e-01 -8.240588e-02 -1.580428e-01 -6.737936e-02 -8.184758e-02 -1.924361e-01 -1.218533e-01 2.664654e-01 8.623708e-02 -9.963733e-02 -2.594830e-02 -4.958699e-03 1.484594e-01
<VARIANCE> 39
 1.384428e+02 4.759385e+01 8.415549e+01 9.202148e+01 8.149056e+01 9.402026e+01 9.345705e+01 8.159667e+01 5.326836e+01 3.569146e+01 5.710397e+01 5.528899e+01 9.420155e+01 1.140198e+01 4.394616e+00 5.155046e+00 4.340493e+00 4.407104e+00 6.747742e+00 5.787999e+00 5.126341e+00 5.305497e+00 3.886413e+00 3.561907e+00 2.294360e+00 2.705366e+00 1.530261e+00 6.197784e-01 4.552726e-01 4.901384e-01 5.458822e-01 9.892387e-01 8.090513e-01 8.310462e-01 8.157592e-01 5.679458e-01 5.033653e-01 3.274486e-01 4.143437e-01
<GCONST> 1.413691e+02
<STATE> 3
<MEAN> 39
 -6.252462e-01 -7.134732e+00 -3.441957e+00 -2.351872e+00 -1.310100e+00 -7.840480e+00 1.007539e+00 2.511105e+00 -1.495299e+00 -2.356745e+00 -5.207478e-01 -4.180861e-01 7.399342e+01 6.002471e-01 -4.986492e-01 -6.381069e-01 1.058033e-02 -3.058599e-02 2.798310e-01 1.187075e-02 4.427637e-01 3.557269e-01 -3.449445e-01 -2.806125e-01 -1.385015e-01 -4.669348e-03 -4.633044e-01 1.839914e-01 9.397447e-02 1.333081e-01 1.547907e-01 3.377302e-01 1.523027e-01 -1.642764e-01 5.438863e-03 4.675294e-02 7.233854e-02 3.466805e-02 -2.952490e-01
<VARIANCE> 39
 3.745566e+01 6.959536e+01 3.984445e+01 8.042645e+01 9.696264e+01 6.635221e+01 7.616637e+01 1.177783e+02 8.933324e+01 5.676821e+01 7.815630e+01 6.227785e+01 1.619151e+02 1.446415e+00 2.927162e+00 2.237632e+00 2.898686e+00 3.896320e+00 3.738021e+00 2.410119e+00 4.038849e+00 3.016852e+00 2.612795e+00 2.701116e+00 3.215409e+00 1.799556e+00 5.284178e-01 3.602678e-01 2.939237e-01 4.590124e-01 8.335600e-01 7.069853e-01 6.228610e-01 6.256152e-01 7.022776e-01 5.508965e-01 5.924156e-01 5.675434e-01 2.937316e-01
<GCONST> 1.322782e+02
<STATE> 4
<MEAN> 39
 1.399822e-01 -4.082305e-01 -6.481249e+00 8.723062e+00 -1.388432e+00 4.403997e+00 2.201799e+00 5.687875e-01 -5.565171e-01 -1.943721e+00 -1.824564e+00 -4.728907e+00 6.837170e+01 6.938593e-02 3.985781e-02 -1.015697e-01 3.586439e-02 4.305616e-02 4.759457e-03 -7.510469e-02 -4.495590e-03 1.336822e-01 7.112417e-02 -1.607079e-01 -1.822300e-02 -7.520580e-02 -5.077023e-02 8.116608e-02 7.879977e-02 -2.011351e-02 -5.666864e-03 -3.933973e-02 -1.462842e-03 -2.747405e-03 -9.789818e-03 4.965249e-02 5.633398e-02 -2.778282e-02 -3.340066e-02
<VARIANCE> 39
 1.874724e+01 3.574109e+01 6.079960e+01 8.655000e+01 6.018650e+01 1.084283e+02 5.680987e+01 4.697374e+01 4.981612e+01 4.255713e+01 3.929363e+01 4.311630e+01 4.163252e+01 4.757912e-01 8.922286e-01 1.057249e+00 1.244713e+00 1.745984e+00 1.717291e+00 2.047667e+00 1.819190e+00 1.452812e+00 1.701841e+00 1.950794e+00 1.649738e+00 1.892094e-01 1.103456e-01 1.737326e-01 2.250877e-01 2.639277e-01 3.951178e-01 3.549021e-01 3.926997e-01 3.812047e-01 2.536470e-01 3.160381e-01 3.904660e-01 3.028356e-01 3.786482e-02
<GCONST> 1.059151e+02
<TRANSP> 5
 0.000000e+00 1.000000e+00 0.000000e+00 0.000000e+00 0.000000e+00
 0.000000e+00 7.812721e-01 2.187278e-01 0.000000e+00 0.000000e+00
 0.000000e+00 0.000000e+00 6.731716e-01 3.268284e-01 0.000000e+00
 0.000000e+00 0.000000e+00 0.000000e+00 8.495369e-01 1.504631e-01
 0.000000e+00 0.000000e+00 0.000000e+00 0.000000e+00 0.000000e+00
<ENDHMM>
~h "er"
<BEGINHMM>
<NUMSTATES> 5
<STATE> 2
<MEAN> 39
 -8.885014e-01 4.642573e+00 -5.811113e+00 5.877405e+00 1.546764e+00 -2.021856e+00 -1.479620e+00 -1.664552e+01 -9.474545e+00 -3.486108e+00 2.990664e+00 -3.159973e-01 6.167667e+01 -9.344838e-01 -7.170158e-01 6.789938e-01 5.413337e-01 -9.439275e-02 -2.017577e-01 9.462667e-02 4.631847e-01 7.805161e-01 3.024902e-01 -1.812212e-01 -5.696332e-02 -2.592129e-01 -2.866063e-01 -1.066027e-01 2.914952e-01 3.136023e-02 -4.803575e-02 3.221894e-02 2.113067e-01 2.551996e-01 2.542216e-01 5.765324e-02 -9.906112e-02 6.612810e-02 -6.526006e-02
<VARIANCE> 39
 5.004667e+01 3.496858e+01 5.676236e+01 4.168182e+01 5.309179e+01 5.221368e+01 4.818864e+01 4.687157e+01 6.641399e+01 7.370295e+01 4.140086e+01 2.929752e+01 2.074277e+01 1.483357e+00 2.542933e+00 2.286918e+00 1.465011e+00 2.171670e+00 3.700175e+00 3.615463e+00 2.512065e+00 1.974447e+00 2.068061e+00 1.588989e+00 9.920726e-01 6.903940e-01 2.023911e-01 4.169925e-01 2.597578e-01 3.387728e-01 3.903721e-01 6.941538e-01 6.397800e-01 4.017163e-01 3.956659e-01 3.528641e-01 2.989942e-01 2.230881e-01 1.529051e-01
<GCONST> 1.153895e+02
<STATE> 3
<MEAN> 39
 -1.493213e+01 -5.140380e+00 4.650931e+00 6.122736e+00 -2.733045e+00 -1.064287e+00 6.888566e+00 -7.571691e+00 2.166820e-01 1.729476e+00 2.774639e+00 6.448511e-01 6.004284e+01 -2.709559e-01 2.632718e-01 2.701326e-02 -3.358535e-02 -9.827007e-02 1.862602e-01 1.992757e-01 3.911126e-01 3.734572e-01 -5.937982e-02 -1.054618e-01 1.080008e-01 -4.109984e-01 7.286040e-02 1.358398e-01 -5.055949e-02 4.975766e-02 8.030113e-02 -1.610066e-02 -4.448572e-02 -3.488306e-02 -4.805595e-02 -3.973800e-02 -2.185437e-02 8.883423e-04 -4.087852e-02
<VARIANCE> 39
 7.559255e+01 4.790997e+01 1.647547e+02 5.976520e+01 5.384482e+01 7.554811e+01 5.638374e+01 3.514164e+01 4.095937e+01 5.448008e+01 4.372607e+01 3.299383e+01 2.856068e+01 1.651054e+00 2.783239e+00 3.615303e+00 2.661014e+00 2.080392e+00 2.629329e+00 2.643657e+00 2.295904e+00 2.160488e+00 1.994331e+00 2.378461e+00 1.272758e+00 1.259189e+00 1.595851e-01 4.868430e-01 4.072989e-01 3.369032e-01 3.642615e-01 4.437840e-01 3.987996e-01 3.948247e-01 3.916780e-01 4.156866e-01 3.574764e-01 2.143411e-01 2.113535e-01
<GCONST> 1.192459e+02
<STATE> 4
<MEAN> 39
 -1.646240e+01 3.482722e+00 -7.922547e-01 1.010063e+01 1.326715e-01 2.037789e+00 5.925228e+00 -1.631629e+00 4.943971e+00 -2.786769e+00 8.253530e-01 -1.881222e+00 4.843299e+01 -2.955771e-02 2.059587e-02 2.898325e-02 6.668689e-03 1.816063e-02 1.061216e-02 2.155977e-02 4.103208e-02 3.553499e-02 1.804243e-02 -3.983195e-02 -8.697939e-03 -7.436663e-02 1.166152e-02 -1.296287e-02 -1.220914e-02 3.045766e-03 2.443669e-03 -3.893228e-03 -6.426938e-03 -1.825125e-02 -7.594130e-03 6.216893e-03 1.234968e-02 2.045019e-04 1.505460e-02
<VARIANCE> 39
 1.206743e+01 1.626032e+01 1.418926e+01 1.673935e+01 2.798072e+01 2.736712e+01 1.579122e+01 1.738471e+01 1.774378e+01 3.110024e+01 1.531933e+01 3.591292e+01 2.530023e+01 1.545878e-01 3.982514e-01 5.242757e-01 6.519285e-01 8.537731e-01 1.006505e+00 1.107019e+00 1.237877e+00 1.287616e+00 1.277095e+00 1.196734e+00 1.005608e+00 7.682151e-02 3.217783e-02 7.018763e-02 9.904353e-02 1.240213e-01 1.660914e-01 1.848087e-01 2.110848e-01 2.313997e-01 2.593767e-01 2.555487e-01 2.447412e-01 2.016191e-01 1.611812e-02
<GCONST> 7.810957e+01
<TRANSP> 5
 0.000000e+00 1.000000e+00 0.000000e+00 0.000000e+00 0.000000e+00
 0.000000e+00 7.817116e-01 2.182883e-01 0.000000e+00 0.000000e+00
 0.000000e+00 0.000000e+00 8.653326e-01 1.346674e-01 0.000000e+00
 0.000000e+00 0.000000e+00 0.000000e+00 9.700707e-01 2.992935e-02
 0.000000e+00 0.000000e+00 0.000000e+00 0.000000e+00 0.000000e+00
<ENDHMM>
~h "ey"
<BEGINHMM>
<NUMSTATES> 5
<STATE> 2
<MEAN> 39
 -8.376169e+00 -3.049606e+00 1.541421e-01 3.752622e+00 4.179484e-01 -4.834391e+00 -3.267483e+00 -4.171624e+00 -3.937013e-01 -2.543334e-01 1.331985e+00 -2.182684e+00 5.359899e+01 1.270277e+00 -9.731538e-01 5.044477e-01 -5.388594e-01 -5.661527e-01 -2.323776e+00 -9.343843e-01 -6.257618e-01 -5.347670e-01 3.134598e-01 -1.297224e-01 -6.587351e-01 2.530542e+00 1.337166e-02 6.934589e-02 9.973784e-02 -2.949649e-03 7.429996e-02 -7.618520e-02 -6.511693e-02 -1.641255e-02 -1.011044e-02 -3.512564e-02 3.314380e-02 -7.418081e-02 5.722620e-02
<VARIANCE> 39
 7.247316e+01 7.603978e+01 1.114624e+02 1.658041e+02 2.331895e+02 2.129581e+02 1.111476e+02 8.181240e+01 6.616490e+01 1.052136e+02 6.947584e+01 4.853439e+01 2.086861e+02 4.417905e+00 5.040354e+00 8.028746e+00 1.041388e+01 1.192976e+01 1.234784e+01 8.291624e+00 6.221288e+00 6.411314e+00 7.479007e+00 4.881775e+00 3.087852e+00 6.330309e+00 6.797135e-01 9.053282e-01 1.062731e+00 1.572282e+00 1.831740e+00 2.107877e+00 1.262432e+00 1.049020e+00 1.162015e+00 1.226433e+00 7.956644e-01 5.572429e-01 1.445564e+00
<GCONST> 1.588193e+02
<STATE> 3
<MEAN> 39
 -1.441312e+00 -1.713691e+00 2.836869e+00 1.500844e+01 6.680175e+00 -2.453465e+01 -8.904120e+00 -7.299600e+00 -6.516507e+00 -2.341774e+00 -1.038175e-02 -9.999987e+00 6.754969e+01 -3.328438e-01 6.990248e-01 5.622245e-01 2.519694e-01 -1.724812e-01 6.947458e-01 -1.514347e-02 -4.036180e-02 5.137998e-01 -3.781628e-01 -3.757698e-01 -9.771502e-02 -5.958866e-01 -1.183764e-01 1.439866e-01 -2.325536e-02 -1.063489e-01 -6.663013e-02 4.150151e-01 1.306700e-01 -6.340943e-02 1.059365e-01 -4.042856e-02 -3.016237e-02 2.089878e-01 -2.523291e-01
<VARIANCE> 39
 2.482915e+01 4.548842e+01 3.032924e+01 1.575142e+02 1.654792e+02 1.201146e+02 1.071821e+02 6.813592e+01 7.661398e+01 3.414259e+01 5.986095e+01 5.295472e+01 3.640028e+01 4.882442e-01 9.284980e-01 9.230449e-01 1.964084e+00 2.470273e+00 3.355178e+00 2.052052e+00 2.058420e+00 2.915033e+00 2.208986e+00 1.971915e+00 2.012231e+00 6.445990e-01 1.430146e-01 2.110874e-01 2.017345e-01 3.459835e-01 4.481320e-01 4.093504e-01 3.993868e-01 3.848113e-01 4.506175e-01 3.845958e-01 3.539868e-01 3.300676e-01 1.396750e-01
<GCONST> 1.160587e+02
<STATE> 4
<MEAN> 39
 -5.494813e+00 3.276115e+00 1.248563e+01 -3.616720e+00 -1.180328e+01 -5.590756e+00 -7.111990e+00 -1.111954e+01 -2.637131e+00 -3.084738e+00 -1.559896e+00 -9.601198e-01 5.484082e+01 -4.761238e-01 5.766688e-01 -2.299578e-01 1.984686e-01 3.020219e-01 5.477829e-01 -2.423408e-01 -1.346111e-01 -2.431273e-01 -9.312414e-02 -2.232415e-02 2.873706e-01 -1.161995e+00 -3.656566e-02 -1.194645e-01 -8.181009e-02 5.073379e-02 7.259060e-02 -7.951229e-03 1.259331e-01 1.093990e-01 -5.531061e-02 3.773247e-02 5.544550e-02 -2.306181e-02 6.825258e-03
<VARIANCE> 39
 3.434753e+01 5.559738e+01 1.212549e+02 2.007342e+02 1.297834e+02 1.071421e+02 6.294050e+01 5.287976e+01 6.247568e+01 5.430417e+01 7.437360e+01 4.376620e+01 1.379961e+02 6.091746e-01 1.497880e+00 1.971238e+00 2.731020e+00 2.255399e+00 3.126479e+00 2.682623e+00 3.314892e+00 3.077151e+00 1.747223e+00 2.688113e+00 2.259394e+00 7.485819e-01 6.804743e-02 1.849840e-01 2.423053e-01 4.240756e-01 3.986705e-01 3.753683e-01 4.565555e-01 4.848481e-01 6.491926e-01 3.310119e-01 4.717288e-01 3.923369e-01 1.118099e-01
<GCONST> 1.215797e+02
<TRANSP> 5
 0.000000e+00 1.000000e+00 0.000000e+00 0.000000e+00 0.000000e+00
 0.000000e+00 8.109739e-01 1.890261e-01 0.000000e+00 0.000000e+00
 0.000000e+00 0.000000e+00 8.225409e-01 1.774591e-01 0.000000e+00
 0.000000e+00 0.000000e+00 0.000000e+00 8.341063e-01 1.658937e-01
 0.000000e+00 0.000000e+00 0.000000e+00 0.000000e+00 0.000000e+00
<ENDHMM>
~h "hh"
<BEGINHMM>
<NUMSTATES> 5
<STATE> 2
<MEAN> 39
 5.117855e+00 4.543221e-01 -4.877700e+00 -9.758632e-01 -6.713182e+00 -2.018431e+01 1.143072e+01 9.784385e+00 -1.607176e+00 -5.403509e+00 -2.906317e+00 7.733024e-01 7.330824e+01 6.402072e-02 3.033029e-01 1.982626e-01 1.246662e-01 -1.550337e-01 -1.278984e-02 -3.552054e-01 1.593116e-01 3.470041e-01 -3.087049e-01 5.740778e-02 -9.279926e-02 -2.873891e-01 -2.631415e-02 3.772946e-02 6.201125e-02 7.233046e-02 5.442984e-04 9.859984e-02 -3.256916e-02 -6.095171e-02 4.378967e-04 -1.296533e-03 3.576825e-02 -4.132529e-02 -3.449484e-02
<VARIANCE> 39
 1.941189e+01 3.705643e+01 4.227560e+01 1.870011e+01 7.054102e+01 9.518745e+01 2.429006e+02 6.102213e+01 4.902621e+01 1.489033e+02 2.403938e+01 1.144175e+02 2.796507e+01 6.153752e-01 1.246992e+00 1.974104e+00 1.558423e+00 1.731017e+00 3.678170e+00 3.134268e+00 1.860273e+00 2.664012e+00 3.334495e+00 1.623193e+00 1.759914e+00 5.846092e-01 8.256346e-02 1.526292e-01 2.551928e-01 2.378796e-01 2.995071e-01 4.683161e-01 5.118135e-01 2.612096e-01 4.810311e-01 5.601039e-01 2.786263e-01 3.597501e-01 8.674192e-02
<GCONST> 1.134520e+02
<STATE> 3
<MEAN> 39
 7.207044e+00 1.181674e+01 5.013588e+00 1.478858e+00 -1.494723e+01 -1.245839e+01 -7.526752e+00 -2.493626e+00 8.936014e+00 -4.157072e+00 -8.262784e+00 1.162798e+00 6.485772e+01 -3.057730e-01 2.827318e-01 1.915077e-01 2.388332e-01 2.259829e-01 4.439320e-01 3.792690e-01 -1.199590e-01 6.065614e-02 3.926926e-01 2.670576e-01 -1.299758e-01 -2.628956e-01 -3.648560e-02 -3.714859e-02 -1.118095e-02 3.336681e-02 6.006237e-02 5.054251e-02 8.478792e-02 -1.100828e-02 -5.826873e-02 3.208174e-02 1.108263e-02 6.990826e-03 1.251371e-03
<VARIANCE> 39
 1.748744e+01 2.102484e+01 1.970036e+01 1.000691e+01 3.481084e+01 6.838615e+01 1.061265e+02 5.319968e+01 3.053407e+01 2.622011e+01 3.238892e+01 3.007133e+01 6.548378e+00 6.588877e-01 8.935166e-01 1.004201e+00 9.141315e-01 1.550601e+00 2.911964e+00 3.031511e+00 1.656476e+00 1.473068e+00 1.438271e+00 1.086194e+00 1.214242e+00 4.009236e-01 5.188412e-02 1.532883e-01 1.291743e-01 1.121973e-01 1.945807e-01 3.528581e-01 2.961848e-01 2.208433e-01 1.826655e-01 1.660335e-01 2.214780e-01 2.330654e-01 4.538699e-02
<GCONST> 9.332153e+01
<STATE> 4
<MEAN> 39
 -1.164600e+00 5.449043e+00 2.005740e+00 6.528298e+00 -1.488127e-01 -2.563793e-01 3.906316e+00 -1.049851e+00 2.700317e+00 -3.944914e+00 1.113032e+00 -8.133489e-01 6.245654e+01 -4.812200e-02 2.559087e-02 1.891745e-02 1.021571e-02 4.386387e-02 6.141945e-02 -6.380764e-02 -1.012247e-01 -1.423512e-02 5.811244e-03 3.848317e-02 4.275968e-02 -3.326434e-02 5.174861e-03 -1.396294e-02 -6.681721e-04 -1.389293e-02 2.021918e-03 -1.859557e-02 4.818289e-03 7.587092e-03 -7.933847e-03 -4.874052e-03 6.465571e-03 -2.133481e-04 1.631351e-02
<VARIANCE> 39
 1.681236e+01 8.678214e+00 2.264550e+01 1.535933e+01 6.214173e+01 4.245624e+01 2.505715e+01 2.829417e+01 3.222475e+01 2.849976e+01 1.741309e+01 3.939822e+01 5.368749e+00 4.012072e-01 4.769022e-01 7.617849e-01 7.987292e-01 1.133615e+00 1.277510e+00 1.903243e+00 1.805716e+00 2.080838e+00 1.560535e+00 1.358325e+00 1.430819e+00 1.327278e-01 7.123660e-02 9.636720e-02 1.530731e-01 1.537012e-01 2.295465e-01 2.439198e-01 3.563017e-01 3.413062e-01 4.026690e-01 2.963330e-01 2.500852e-01 2.559987e-01 2.586880e-02
<GCONST> 8.901524e+01
<TRANSP> 5
 0.000000e+00 1.000000e+00 0.000000e+00 0.000000e+00 0.000000e+00
 0.000000e+00 9.051755e-01 9.482453e-02 0.000000e+00 0.000000e+00
 0.000000e+00 0.000000e+00 8.947288e-01 1.052711e-01 0.000000e+00
 0.000000e+00 0.000000e+00 0.000000e+00 9.799927e-01 2.000730e-02
 0.000000e+00 0.000000e+00 0.000000e+00 0.000000e+00 0.000000e+00
<ENDHMM>
~h "ih"
<BEGINHMM>
<NUMSTATES> 5
<STATE> 2
<MEAN> 39
 -1.320493e+01 4.760400e-01 5.643076e+00 2.394850e+00 1.727580e+00 -4.740046e+00 -2.762401e+00 -1.001199e+01 -1.417812e-01 -3.730462e+00 -5.280390e-01 -2.329463e+00 6.092281e+01 3.578204e+00 3.131343e-02 -5.947833e-01 1.339066e+00 3.699851e-01 -1.875733e+00 -2.058312e+00 -6.570869e-01 -1.668649e+00 -2.916797e-01 -1.247004e-01 -2.109776e-01 9.032653e-01 2.721603e-01 -2.436196e-01 -1.102468e-01 -1.280566e-02 2.082161e-01 -4.547333e-01 -8.952132e-02 1.025467e-01 -2.301581e-01 2.215363e-01 1.713082e-01 -1.214072e-01 4.669488e-01
<VARIANCE> 39
 1.377194e+02 7.546111e+01 9.113138e+01 1.138411e+02 1.013836e+02 9.870230e+01 1.136517e+02 7.858267e+01 5.954634e+01 3.830838e+01 3.833351e+01 3.455123e+01 9.417017e+01 8.486578e+00 7.185303e+00 6.812509e+00 4.957317e+00 5.716200e+00 7.622065e+00 5.197434e+00 4.137747e+00 5.214868e+00 2.747860e+00 3.599592e+00 2.881205e+00 2.933036e+00 1.543157e+00 9.278587e-01 5.056586e-01 6.765149e-01 7.424448e-01 1.141222e+00 1.166142e+00 7.453564e-01 8.469429e-01 5.502014e-01 5.335422e-01 3.890111e-01 3.914423e-01
<GCONST> 1.442044e+02
<STATE> 3
<MEAN> 39
 -2.414636e+00 -7.626300e-01 6.406377e-02 1.229984e+01 1.277650e+01 -1.567305e+01 -6.340458e+00 -1.014912e+01 -5.733456e+00 -4.145698e+00 1.846728e+00 -6.700158e+00 6.663026e+01 9.540959e-02 9.443496e-02 -1.794955e-01 -1.343050e-01 -1.286161e-01 4.056762e-01 2.809956e-01 -2.932032e-01 -4.762631e-02 6.128202e-02 7.029480e-02 3.290943e-01 -1.029334e-01 -2.818696e-01 4.592026e-02 7.458240e-02 -2.612997e-01 -1.570027e-01 3.980821e-01 1.872084e-01 -3.348052e-02 1.738283e-01 -2.946361e-02 -8.799449e-02 7.398722e-02 -1.137960e-01
<VARIANCE> 39
 3.015128e+01 6.729148e+01 2.765728e+01 6.543872e+01 1.048817e+02 1.575698e+02 7.837556e+01 7.502178e+01 5.841805e+01 5.962371e+01 4.304881e+01 7.692190e+01 5.489845e+01 2.746704e+00 5.490588e+00 2.276450e+00 4.964201e+00 5.334589e+00 1.136674e+01 4.320156e+00 3.600257e+00 4.765003e+00 4.617774e+00 3.155301e+00 3.745610e+00 3.903225e+00 5.908232e-01 1.082433e+00 3.761614e-01 8.945373e-01 8.556653e-01 1.867288e+00 9.739127e-01 7.402889e-01 9.793972e-01 9.129646e-01 6.376990e-01 5.996464e-01 7.227475e-01
<GCONST> 1.415693e+02
<STATE> 4
<MEAN> 39
 -5.087483e+00 -4.472037e+00 5.297709e+00 9.795400e-01 -5.007128e+00 -5.619431e+00 -1.037468e+01 -8.247807e+00 -2.039899e+00 -6.565562e+00 4.069459e+00 -2.964464e+00 6.027199e+01 -5.968925e-01 -8.580433e-01 5.363506e-01 -9.091932e-01 -2.034942e-01 -1.058654e-01 5.211292e-01 -1.165574e-01 9.752383e-02 2.351071e-01 -1.337879e-01 -1.616292e-01 7.617988e-01 -2.242335e-01 9.727159e-02 1.507071e-01 2.401053e-01 9.642011e-02 -9.908508e-03 9.692863e-02 1.286561e-01 2.461058e-01 3.466928e-02 -6.321879e-02 -1.408199e-01 -9.327188e-02
<VARIANCE> 39
 9.138715e+01 1.855273e+02 1.166473e+02 9.863602e+01 3.293157e+02 2.132050e+02 2.049888e+02 1.309479e+02 7.275507e+01 6.495784e+01 8.107019e+01 6.052487e+01 9.100117e+01 7.528423e+00 5.898705e+00 9.886624e+00 8.925721e+00 8.332047e+00 1.123974e+01 6.206030e+00 6.505020e+00 5.760658e+00 5.069240e+00 3.096889e+00 4.249836e+00 5.665394e+00 8.110614e-01 9.260966e-01 1.425974e+00 9.307230e-01 1.170021e+00 1.637890e+00 1.158862e+00 1.133882e+00 1.022117e+00 9.981448e-01 6.845272e-01 9.278815e-01 6.915969e-01
<GCONST> 1.579081e+02
<TRANSP> 5
 0.000000e+00 1.000000e+00 0.000000e+00 0.000000e+00 0.000000e+00
 0.000000e+00 6.258199e-01 3.741801e-01 0.000000e+00 0.000000e+00
 0.000000e+00 0.000000e+00 8.187996e-01 1.812004e-01 0.000000e+00
 0.000000e+00 0.000000e+00 0.000000e+00 6.999440e-01 3.000560e-01
 0.000000e+00 0.000000e+00 0.000000e+00 0.000000e+00 0.000000e+00
<ENDHMM>
~h "iy"
<BEGINHMM>
<NUMSTATES> 5
<STATE> 2
<MEAN> 39
 1.930315e+00 -9.636772e+00 9.763639e+00 5.351394e+00 -1.388218e+01 -1.119523e+01 -1.518124e+01 -2.388515e+00 -2.286085e+00 -8.791107e+00 2.846067e+00 -3.446789e+00 5.626530e+01 5.090545e-02 2.631048e-01 -2.404660e-01 1.365952e-01 4.698722e-02 3.388856e-01 2.974209e-01 9.094345e-02 1.046570e-02 9.105802e-02 -2.800296e-01 -2.208900e-02 -3.935127e-01 -1.055426e-01 6.977324e-02 -1.082513e-01 -9.715043e-02 7.798999e-02 1.999108e-01 1.832908e-01 -8.060374e-02 -2.327322e-02 1.175472e-01 -2.704987e-02 3.754611e-02 -9.548004e-02
<VARIANCE> 39
 5.100935e+01 1.174011e+02 7.538927e+01 1.619489e+02 2.142011e+02 9.499780e+01 1.058961e+02 6.718924e+01 7.102826e+01 6.740024e+01 7.201414e+01 7.010771e+01 1.128368e+02 1.176059e+00 1.544416e+00 3.577622e+00 1.737768e+00 2.979585e+00 3.203270e+00 3.588278e+00 3.013515e+00 3.739700e+00 3.339824e+00 3.137449e+00 2.335178e+00 1.289849e+00 1.509401e-01 2.205082e-01 2.546436e-01 3.303575e-01 4.069420e-01 5.517734e-01 6.535814e-01 5.544732e-01 7.334082e-01 5.396526e-01 5.777355e-01 4.572924e-01 1.248558e-01
<GCONST> 1.294084e+02
<STATE> 3
<MEAN> 39
 -6.189533e+00 4.428673e+00 1.021314e+01 8.949808e+00 -3.401521e+00 -3.960636e+00 -6.198414e+00 -1.043589e+01 -4.676117e+00 -2.460619e-02 -3.442673e+00 -2.785193e+00 5.492131e+01 -7.811003e-01 -2.340769e-01 -8.542187e-01 -6.417701e-01 -1.195149e-03 1.151621e+00 1.164389e+00 7.169585e-02 4.092790e-01 3.012020e-01 -1.876404e-01 3.506046e-01 -7.768095e-01 -2.315118e-02 -1.517248e-01 -1.320651e-01 -8.762951e-02 -7.556067e-02 -8.360593e-02 2.168501e-02 1.929584e-01 4.161725e-02 -9.645638e-02 1.525110e-01 1.060002e-01 3.157350e-02
<VARIANCE> 39
 3.939593e+01 5.295734e+01 1.152992e+02 1.160381e+02 1.798583e+02 7.175912e+01 8.501656e+01 6.892143e+01 4.333949e+01 7.772263e+01 3.545074e+01 5.294868e+01 7.874866e+01 1.344545e+00 2.494861e+00 2.894167e+00 2.937437e+00 2.888779e+00 3.948111e+00 3.924604e+00 2.671453e+00 2.957215e+00 2.931097e+00 2.293515e+00 2.781236e+00 5.525491e-01 1.337209e-01 3.974065e-01 4.035626e-01 3.676593e-01 4.851196e-01 6.010450e-01 6.631387e-01 4.161377e-01 4.131558e-01 5.652313e-01 3.457691e-01 3.582495e-01 8.379146e-02
<GCONST> 1.251578e+02
<STATE> 4
<MEAN> 39
 -7.539780e+00 -4.325255e+00 3.123642e+00 6.078702e+00 -5.142765e+00 6.614539e-01 -2.152172e+00 -2.526428e+00 -8.668824e-03 -2.975550e+00 -2.403080e+00 -3.842627e-01 4.638792e+01 -2.261380e-01 -2.541178e-01 -7.884216e-01 1.503045e-02 2.769893e-01 4.586468e-01 5.232342e-01 5.527203e-01 2.525085e-01 7.143139e-03 4.045888e-01 2.849444e-01 -3.466577e-01 7.850660e-02 2.374021e-02 6.529997e-02 -7.192603e-03 -1.196485e-02 -1.493706e-01 -6.665494e-02 -2.734352e-02 -6.331822e-02 -2.628570e-02 5.179249e-02 -4.153043e-02 1.249269e-01
<VARIANCE> 39
 5.097252e+01 1.051742e+02 3.188218e+01 7.355070e+01 1.056045e+02 9.104056e+01 6.951558e+01 6.278556e+01 3.986676e+01 4.729858e+01 4.915078e+01 3.968884e+01 1.363600e+02 9.012777e-01 1.276111e+00 1.828266e+00 2.486369e+00 2.225271e+00 2.420809e+00 2.818127e+00 2.045520e+00 2.859874e+00 2.874147e+00 2.395355e+00 1.986229e+00 2.936496e-01 1.039140e-01 1.994106e-01 2.904542e-01 3.628153e-01 3.525286e-01 4.149001e-01 3.665959e-01 3.554834e-01 4.211174e-01 6.167060e-01 4.833888e-01 3.551811e-01 8.222530e-02
<GCONST> 1.174450e+02
<TRANSP> 5
 0.000000e+00 1.000000e+00 0.000000e+00 0.000000e+00 0.000000e+00
 0.000000e+00 7.483808e-01 2.516192e-01 0.000000e+00 0.000000e+00
 0.000000e+00 0.000000e+00 6.725789e-01 3.274211e-01 0.000000e+00
 0.000000e+00 0.000000e+00 0.000000e+00 6.429371e-01 3.570630e-01
 0.000000e+00 0.000000e+00 0.000000e+00 0.000000e+00 0.000000e+00
<ENDHMM>
~h "ng"
<BEGINHMM>
<NUMSTATES> 5
<STATE> 2
<MEAN> 39
 -5.084158e+00 -7.428502e+00 4.374249e+00 5.847867e+00 7.172119e+00 -1.086859e+01 6.574846e+00 -1.005641e+01 -3.377247e+00 8.866577e+00 -2.987533e-02 -9.738298e+00 6.964490e+01 8.352520e-01 1.936828e-01 -4.522171e-01 6.487568e-01 6.521861e-02 2.321698e-01 -4.280294e-01 -7.229412e-02 -7.010204e-01 -1.104489e-01 -5.217056e-01 -2.832310e-02 -5.032335e-01 2.923332e-01 2.706268e-01 -4.863374e-02 2.825012e-01 -1.410111e-01 1.165459e-01 -2.222964e-01 2.178333e-01 5.265718e-02 -3.098952e-01 -6.128202e-02 2.322180e-01 -2.573521e-01
<VARIANCE> 39
 6.107667e+01 4.473210e+01 2.551597e+01 3.314256e+01 3.304480e+01 4.751230e+01 4.707917e+01 3.663783e+01 8.061681e+01 8.781696e+01 3.649107e+01 2.318128e+01 2.297056e+01 5.757365e+00 3.358273e+00 1.658164e+00 2.299625e+00 2.574718e+00 6.555862e+00 4.908168e+00 6.951252e+00 9.642273e+00 1.300403e+01 1.576326e+00 2.559024e+00 2.512781e+00 1.561739e+00 5.246546e-01 2.819567e-01 3.567969e-01 5.207865e-01 1.092979e+00 9.986262e-01 1.049788e+00 1.783742e+00 1.800768e+00 3.695476e-01 3.912981e-01 5.613143e-01
<GCONST> 1.333289e+02
<STATE> 3
<MEAN> 39
 -5.233236e+00 4.668454e+00 8.074293e+00 1.577748e+01 -1.984546e+00 -4.755676e+00 1.810557e+00 -6.211683e+00 -5.311716e-01 -3.010986e+00 -3.710980e+00 -1.585199e+00 6.085297e+01 -2.778902e-01 -7.279373e-03 2.776583e-02 2.842257e-02 1.010544e-01 3.284273e-01 3.263422e-01 1.837262e-01 1.953137e-02 -3.029796e-02 1.066495e-01 1.204396e-01 -2.057566e-01 -4.668324e-02 -1.172645e-01 -7.384237e-02 -7.101465e-02 -1.229160e-02 -7.678618e-03 2.014679e-02 1.233495e-02 2.767801e-02 7.575797e-02 8.560346e-02 3.443826e-02 -1.212743e-03
<VARIANCE> 39
 2.267172e+01 6.294367e+01 2.472909e+01 1.662397e+01 3.913029e+01 3.933941e+01 3.755130e+01 1.961436e+01 2.496401e+01 2.805078e+01 1.876516e+01 2.326348e+01 8.159410e+00 1.453677e+00 5.746140e+00 2.701773e+00 1.617785e+00 1.926328e+00 3.493561e+00 3.115300e+00 1.946246e+00 2.486073e+00 2.369862e+00 1.878494e+00 1.561309e+00 8.320599e-01 2.035770e-01 8.768789e-01 5.256960e-01 3.506013e-01 3.729765e-01 5.847255e-01 6.277609e-01 3.764442e-01 5.092953e-01 4.978806e-01 3.871670e-01 2.973270e-01 1.726131e-01
<GCONST> 1.119317e+02
<STATE> 4
<MEAN> 39
 -9.900560e+00 1.649980e+00 2.011867e+00 1.052817e+01 2.353069e+00 3.308891e+00 8.640698e+00 -2.030103e-01 3.228542e+00 -1.817620e-01 1.717354e+00 -1.348793e-01 5.566341e+01 -5.734792e-02 -9.873804e-02 -1.144959e-01 -1.537609e-01 -1.179778e-01 -2.964479e-02 -1.289084e-02 -6.186808e-04 2.709331e-02 -1.285668e-02 1.863358e-02 5.285576e-02 -5.229502e-02 1.872300e-02 1.529401e-02 2.023332e-02 2.864061e-02 1.167909e-02 -9.890172e-03 -1.853264e-02 -2.293815e-02 -2.669952e-02 -7.807017e-03 -3.121166e-02 -2.527966e-02 1.438994e-02
<VARIANCE> 39
 2.472666e+01 2.515878e+01 1.052181e+01 1.819089e+01 4.439864e+01 3.157986e+01 2.156433e+01 2.262573e+01 2.305047e+01 3.229625e+01 1.155943e+01 2.637041e+01 4.617816e+00 2.255458e-01 6.456463e-01 6.292601e-01 9.420290e-01 1.104243e+00 1.350550e+00 1.372975e+00 1.204281e+00 1.268211e+00 1.147525e+00 8.867958e-01 9.170186e-01 1.023920e-01 3.231193e-02 9.868193e-02 1.051569e-01 1.731523e-01 2.229460e-01 2.954426e-01 2.823799e-01 2.063633e-01 2.054236e-01 2.153354e-01 1.529941e-01 1.681376e-01 1.815390e-02
<GCONST> 8.090096e+01
<TRANSP> 5
 0.000000e+00 1.000000e+00 0.000000e+00 0.000000e+00 0.000000e+00
 0.000000e+00 8.325760e-01 1.674239e-01 0.000000e+00 0.000000e+00
 0.000000e+00 0.000000e+00 9.542665e-01 4.573348e-02 0.000000e+00
 0.000000e+00 0.000000e+00 0.000000e+00 9.724209e-01 2.757901e-02
 0.000000e+00 0.000000e+00 0.000000e+00 0.000000e+00 0.000000e+00
<ENDHMM>
~h "ow"
<BEGINHMM>
<NUMSTATES> 5
<STATE> 2
<MEAN> 39
 -5.076236e+00 1.015059e+00 -5.889269e+00 -8.375021e-01 8.983158e-01 -9.437113e-01 2.928864e+00 -3.608918e+00 -3.259978e+00 -2.175815e+00 -5.774532e-01 -3.923038e+00 5.963688e+01 1.360598e+00 -6.877961e-01 -5.649332e-01 -1.405489e+00 -3.807521e-01 -1.275022e+00 -3.871267e-01 -4.239554e-01 -8.410478e-01 -1.196240e-02 -3.870979e-01 -5.588288e-01 2.312012e+00 1.774839e-01 8.067081e-02 6.341867e-02 2.379789e-01 -2.122510e-02 -1.027915e-01 -2.562442e-01 6.348172e-02 1.701830e-01 -1.400107e-01 -1.939265e-02 -6.007530e-03 -1.027805e-01
<VARIANCE> 39
 9.842353e+01 8.056134e+01 6.567688e+01 1.078720e+02 1.864237e+02 1.273133e+02 1.295902e+02 9.799580e+01 1.099209e+02 7.388758e+01 6.566181e+01 6.617996e+01 2.341383e+02 7.736622e+00 3.531857e+00 3.844878e+00 9.134787e+00 7.026102e+00 9.689138e+00 8.105831e+00 7.437045e+00 8.931520e+00 5.802195e+00 6.855231e+00 4.273816e+00 7.473538e+00 1.125862e+00 5.393633e-01 6.560618e-01 1.482469e+00 1.107108e+00 1.418556e+00 1.215331e+00 1.214191e+00 1.323691e+00 9.346814e-01 1.186534e+00 7.921164e-01 1.444312e+00
<GCONST> 1.572357e+02
<STATE> 3
<MEAN> 39
 4.130163e+00 3.782407e+00 -7.376713e+00 -3.284820e+00 -3.516852e+00 -6.810994e+00 2.891527e+00 -6.167813e+00 -7.434461e+00 -7.350959e+00 5.650745e-01 -5.144555e+00 6.690971e+01 -8.395316e-02 2.543366e-01 6.659921e-02 4.717755e-01 5.459361e-02 1.762989e-01 -2.127534e-01 1.007439e-01 1.106005e-01 -5.750973e-01 -2.001587e-02 4.031598e-01 -4.741423e-01 -2.139281e-01 9.307253e-02 1.179936e-01 1.240788e-01 8.407751e-02 2.170229e-01 4.286692e-02 -3.676220e-02 1.013908e-01 7.738307e-02 2.633977e-03 2.206892e-02 -2.081012e-01
<VARIANCE> 39
 3.780673e+01 5.451386e+01 5.047350e+01 1.261529e+02 9.576112e+01 1.942989e+02 1.084172e+02 1.202863e+02 9.647323e+01 7.486887e+01 1.372922e+02 9.883681e+01 1.043169e+02 8.791000e-01 1.236413e+00 1.648471e+00 2.565807e+00 2.703404e+00 4.224303e+00 2.656951e+00 3.811435e+00 3.535021e+00 2.529325e+00 3.407056e+00 2.468516e+00 8.919945e-01 1.337527e-01 1.974564e-01 2.395277e-01 4.297574e-01 5.155039e-01 6.222346e-01 4.982443e-01 6.941015e-01 6.140301e-01 4.874754e-01 5.505397e-01 4.875226e-01 1.175579e-01
<GCONST> 1.281353e+02
<STATE> 4
<MEAN> 39
 8.297579e-01 1.906741e+00 -6.099380e+00 -6.269294e+00 -9.118013e+00 2.079123e-01 -4.655024e+00 -1.735493e+00 -2.092706e+00 -3.277934e+00 -1.953337e+00 -9.042811e-03 5.085194e+01 -5.071626e-01 1.630407e-01 2.044010e-01 4.771155e-01 1.136876e-01 2.333431e-01 1.467687e-01 4.889017e-02 4.130618e-02 3.158367e-02 1.050337e-01 5.790693e-02 -6.803159e-01 -3.935516e-02 -5.157186e-02 -1.048558e-02 2.101112e-02 4.922317e-02 -8.365740e-03 2.587733e-02 -2.838404e-02 4.723696e-03 5.313486e-02 3.630077e-02 -8.427052e-03 4.052547e-03
<VARIANCE> 39
 6.223660e+01 1.080150e+02 5.579007e+01 9.519884e+01 1.380953e+02 1.147991e+02 8.653638e+01 5.844933e+01 5.702927e+01 6.978307e+01 4.260532e+01 4.578028e+01 1.433134e+02 7.844978e-01 1.306052e+00 1.235731e+00 1.752408e+00 2.167437e+00 2.256083e+00 2.105916e+00 2.002208e+00 2.012164e+00 1.955208e+00 1.886172e+00 1.533674e+00 4.028305e-01 6.349541e-02 1.596581e-01 1.787359e-01 2.417677e-01 3.098038e-01 3.469228e-01 3.362988e-01 3.289603e-01 3.096271e-01 3.359622e-01 3.307169e-01 2.591349e-01 4.075681e-02
<GCONST> 1.133581e+02
<TRANSP> 5
 0.000000e+00 1.000000e+00 0.000000e+00 0.000000e+00 0.000000e+00
 0.000000e+00 7.484254e-01 2.515746e-01 0.000000e+00 0.000000e+00
 0.000000e+00 0.000000e+00 7.620494e-01 2.379505e-01 0.000000e+00
 0.000000e+00 0.000000e+00 0.000000e+00 8.834535e-01 1.165465e-01
 0.000000e+00 0.000000e+00 0.000000e+00 0.000000e+00 0.000000e+00
<ENDHMM>
~h "sh"
<BEGINHMM>
<NUMSTATES> 5
<STATE> 2
<MEAN> 39
 -7.240725e+00 -1.701949e+00 9.169514e+00 1.023091e+01 -3.177959e+00 -1.102565e+01 -4.510373e-01 -2.332228e+00 2.751410e+00 -5.349529e+00 -2.492980e+00 8.447962e-01 6.519189e+01 -1.914423e+00 -2.521277e+00 7.348891e-01 5.900978e-01 1.054349e+00 1.776848e-01 5.876666e-01 1.518591e-01 6.874591e-01 3.902348e-01 3.026391e-01 7.115778e-01 1.886410e-01 -1.042928e-02 8.123261e-02 -8.030513e-02 -4.597105e-02 1.136324e-01 -1.340722e-01 -1.297538e-01 -1.195014e-01 -1.014725e-01 -1.917293e-01 -1.499048e-01 4.398756e-02 9.862743e-03
<VARIANCE> 39
 1.115525e+02 1.620270e+02 5.747704e+01 2.775776e+01 6.533655e+01 3.525509e+01 6.384382e+01 3.215867e+01 2.726895e+01 1.806689e+01 2.725489e+01 5.411953e+01 6.802176e+00 4.163488e+00 8.626216e+00 3.348418e+00 3.717582e+00 2.028522e+00 2.532968e+00 5.276935e+00 3.156976e+00 6.201042e+00 2.755977e+00 1.773167e+00 1.621972e+00 8.362890e-01 7.051838e-01 1.510760e+00 5.549295e-01 6.716777e-01 4.561239e-01 5.814677e-01 8.807420e-01 6.301845e-01 5.777915e-01 2.857761e-01 4.113215e-01 5.216677e-01 2.809570e-01
