~o
<STREAMINFO> 1 39
<VECSIZE> 39<NULLD><MFCC_D_A_0><DIAGC>
~h "b"
<BEGINHMM>
<NUMSTATES> 5
<STATE> 2
<MEAN> 39
 3.176705e+00 7.954502e+00 -5.514516e+00 2.771430e+00 1.012128e+01 -5.063339e+00 -1.284785e-01 -5.780065e+00 -1.301247e+01 -5.792413e+00 -2.201566e+00 -7.764059e-01 6.818384e+01 -2.047318e+00 -8.467626e-02 6.446795e-01 5.856009e-01 5.259307e-01 6.781160e-01 1.963124e+00 1.390631e-01 2.711335e-02 2.806724e-04 2.747160e-01 7.453113e-01 -1.261779e+00 -1.989527e-01 -3.070351e-01 -1.413450e-01 -4.533815e-01 -7.329800e-01 1.963885e-03 3.291119e-02 3.432196e-01 8.180732e-01 3.826661e-02 4.328001e-02 1.893734e-02 -3.438215e-01
<VARIANCE> 39
 2.837672e+01 6.603515e+01 1.318584e+02 5.562449e+01 1.034127e+02 9.974576e+00 3.100814e+01 2.250174e+01 1.154107e+01 5.600016e+01 9.998914e-01 3.637035e+01 5.334979e+01 5.363973e-01 3.553961e+00 3.346838e+00 4.003484e+00 2.156114e+00 2.668921e+00 2.088886e+00 5.428499e+00 2.990806e+00 1.736220e+00 2.513715e-01 1.455870e+00 1.702509e+00 2.280996e-01 2.869008e-01 6.116773e-01 2.821641e-01 4.753069e-01 6.056696e-01 5.501463e-01 1.305959e+00 1.982286e-01 4.507383e-01 4.646859e-02 5.262027e-01 1.949675e-01
<GCONST> 1.104141e+02
<STATE> 3
<MEAN> 39
 -2.857947e+00 6.911301e+00 -7.297780e+00 1.561966e+00 3.680725e+00 -1.560352e+00 5.809785e+00 -7.854456e+00 -5.339057e+00 -3.179353e+00 -9.205640e-01 -1.825260e+00 6.070129e+01 -1.043877e+00 -1.374687e+00 -8.665362e-01 -8.153025e-01 -1.073252e+00 -7.549131e-02 -5.818464e-01 -1.764717e+00 9.837192e-01 2.524112e-01 1.272864e+00 -2.456944e-01 -5.686957e-01 3.173557e-01 8.193834e-02 3.932781e-01 -4.456593e-02 4.753945e-01 -6.789929e-01 -3.527295e-01 -2.061917e-01 -6.202794e-01 -7.064499e-02 1.056956e-01 -3.122615e-03 7.387229e-01
<VARIANCE> 39
 3.676755e+01 1.244434e+01 1.127517e+02 9.339266e+01 2.692609e+01 2.636316e+01 8.352193e+00 3.864801e+01 1.921343e+01 2.163844e+01 6.456955e+00 2.998729e+01 2.267608e+01 6.896915e-01 2.334689e+00 2.514540e+00 2.945508e+00 6.047250e+00 7.336868e+00 1.134353e+00 4.254105e+00 2.277084e+00 2.688212e+00 6.938173e-01 1.816834e+00 2.268440e+00 3.523342e-01 5.971485e-01 6.817605e-01 7.625109e-01 9.303107e-01 1.518428e+00 5.668979e-01 8.016464e-01 4.625188e-01 2.974212e-01 2.650148e-01 2.623675e-01 4.565692e-01
<GCONST> 1.164422e+02
<STATE> 4
<MEAN> 39
 -3.085696e+00 7.328954e+00 1.024155e+00 4.434234e+00 8.382244e+00 -6.179965e+00 -1.740580e+00 -9.138008e+00 -9.600821e+00 -8.380413e+00 1.566106e+00 -2.237248e+00 6.510332e+01 6.648131e-02 2.735503e-01 6.328734e-01 5.684948e-01 6.473223e-02 -1.492957e-01 -1.781476e-02 3.538553e-02 9.492783e-03 -1.131490e-01 -2.376157e-01 3.331006e-02 1.279739e-01 8.816870e-03 -7.520969e-02 -1.136428e-02 1.118889e-01 -6.402850e-02 -1.797774e-02 1.146588e-01 1.338490e-01 8.073358e-02 1.031487e-02 -1.737474e-01 -7.863614e-03 4.619753e-02
<VARIANCE> 39
 2.942592e+01 6.056709e+01 4.110180e+01 7.765263e+01 6.814371e+01 6.596292e+01 2.910307e+01 1.857330e+01 7.108620e+01 2.572484e+01 1.715833e+01 2.266769e+01 4.273424e+01 4.698104e+00 6.863898e+00 2.264244e+00 4.012112e+00 6.877811e+00 1.028012e+01 4.889376e+00 2.917574e+00 8.241604e+00 3.231880e+00 1.816877e+00 1.013857e+00 5.818501e+00 1.055272e+00 1.357319e+00 2.428107e-01 6.194621e-01 1.095984e+00 2.062700e+00 1.132199e+00 4.974385e-01 1.058436e+00 7.108098e-01 2.631378e-01 1.999700e-01 1.058406e+00
<GCONST> 1.329487e+02
<TRANSP> 5
 0.000000e+00 1.000000e+00 0.000000e+00 0.000000e+00 0.000000e+00
 0.000000e+00 6.387556e-01 3.612444e-01 0.000000e+00 0.000000e+00
 0.000000e+00 0.000000e+00 6.652353e-01 3.347647e-01 0.000000e+00
 0.000000e+00 0.000000e+00 0.000000e+00 8.501869e-01 1.498131e-01
 0.000000e+00 0.000000e+00 0.000000e+00 0.000000e+00 0.000000e+00
<ENDHMM>
~h "d"
<BEGINHMM>
<NUMSTATES> 5
<STATE> 2
<MEAN> 39
 -7.195256e+00 6.491181e+00 -2.784884e+00 5.207772e+00 -2.055952e+00 3.060366e+00 9.891397e+00 3.765267e+00 8.701447e+00 -4.784164e+00 -4.635411e+00 -8.392930e+00 5.652723e+01 -8.433093e-01 -8.019506e-01 -2.594030e-01 8.654249e-01 9.911310e-01 -1.743131e-01 -9.090267e-01 -1.770070e-01 6.605135e-01 4.827957e-01 2.709094e-01 5.654921e-01 -5.159483e-01 1.590206e-01 5.052887e-02 -1.255015e-02 6.751466e-02 -5.853796e-02 -2.058073e-01 -2.941295e-01 -4.002914e-01 -6.017177e-01 -2.573493e-01 7.544295e-02 1.093038e-01 7.441309e-02
<VARIANCE> 39
 2.156289e+01 3.054092e+01 3.892080e+01 2.450211e+01 1.450724e+01 2.418863e+01 2.281114e+01 1.397807e+01 1.605748e+01 1.988231e+01 1.412140e+01 2.760433e+01 2.173764e+00 5.433536e-01 4.169094e-01 6.371337e-01 1.214993e+00 1.418583e+00 1.474269e+00 1.789885e+00 2.039978e+00 3.554624e+00 8.569738e-01 2.016458e+00 9.687659e-01 1.847143e-01 9.713051e-02 9.250730e-02 9.833439e-02 2.049921e-01 3.088720e-01 2.259038e-01 2.353335e-01 1.806307e-01 2.394345e-01 1.407760e-01 2.756098e-01 1.319095e-01 2.728772e-02
<GCONST> 8.480482e+01
<STATE> 3
<MEAN> 39
 -1.294690e+01 3.503489e+00 -4.348932e+00 6.953517e+00 1.653370e+00 3.023496e+00 6.008749e+00 1.698074e+00 6.980421e+00 -6.415405e+00 -8.714035e-01 -6.196823e+00 5.118665e+01 -1.310198e-01 -1.299868e-02 9.133277e-03 -7.893721e-04 -7.324791e-02 5.061749e-03 2.690585e-02 -1.521637e-03 -5.684901e-02 -2.679611e-02 3.527072e-02 6.656264e-02 -1.643401e-01 2.285622e-02 1.596626e-02 5.342760e-03 -4.593758e-03 -2.610121e-02 5.773778e-03 1.796858e-02 3.004393e-02 2.002627e-02 5.276216e-03 -2.208768e-02 -2.440320e-02 1.133711e-02
<VARIANCE> 39
 3.975149e+00 4.653471e+00 1.233992e+01 1.326831e+01 1.286567e+01 1.562675e+01 1.359974e+01 1.551560e+01 1.289470e+01 1.217697e+01 1.228765e+01 1.146044e+01 8.348594e+00 2.087330e-01 3.487645e-01 6.308182e-01 8.575640e-01 9.924261e-01 9.269361e-01 9.718889e-01 1.230014e+00 1.069649e+00 8.194072e-01 1.054718e+00 8.759755e-01 7.542230e-02 3.427722e-02 6.224795e-02 1.025867e-01 1.706323e-01 2.233990e-01 1.714944e-01 1.624034e-01 2.237632e-01 2.149458e-01 1.530542e-01 2.231322e-01 1.420813e-01 1.185153e-02
<GCONST> 6.846645e+01
<STATE> 4
<MEAN> 39
 -1.504957e+01 -4.505705e-02 -3.632115e-02 1.058141e+01 -1.090776e+00 8.994323e-01 6.231492e+00 -6.312370e-01 4.532671e+00 -1.943029e+00 1.094767e-01 -3.314416e-01 4.998204e+01 -1.977972e-02 9.720482e-03 1.063257e-02 2.743640e-02 4.206710e-02 4.723936e-02 3.381261e-02 6.046491e-02 4.565940e-02 1.431659e-02 1.313866e-02 -4.844816e-03 -5.824636e-02 7.506237e-03 -1.037087e-02 -4.116720e-03 1.322222e-02 2.672137e-02 7.455888e-03 -3.626194e-03 -9.148340e-04 -6.829045e-03 -1.511813e-02 -3.231144e-03 5.752743e-03 1.327160e-02
<VARIANCE> 39
 7.243126e+00 2.764187e+01 5.554193e+00 1.037027e+01 4.099762e+01 3.283374e+01 1.555464e+01 1.602228e+01 1.825717e+01 2.634343e+01 1.463098e+01 4.230684e+01 6.435461e+01 1.978050e-01 7.088532e-01 5.436528e-01 9.346418e-01 8.373606e-01 1.087057e+00 1.484667e+00 1.356167e+00 1.588174e+00 1.125663e+00 1.265783e+00 1.240461e+00 2.602684e-01 4.392179e-02 1.664922e-01 1.162945e-01 1.985300e-01 1.614828e-01 1.927274e-01 3.095328e-01 2.823331e-01 3.459288e-01 2.411539e-01 2.555622e-01 2.321590e-01 4.651817e-02
<GCONST> 8.520181e+01
<TRANSP> 5
 0.000000e+00 1.000000e+00 0.000000e+00 0.000000e+00 0.000000e+00
 0.000000e+00 7.781078e-01 2.218922e-01 0.000000e+00 0.000000e+00
 0.000000e+00 0.000000e+00 9.620190e-01 3.798103e-02 0.000000e+00
 0.000000e+00 0.000000e+00 0.000000e+00 9.738783e-01 2.612167e-02
 0.000000e+00 0.000000e+00 0.000000e+00 0.000000e+00 0.000000e+00
<ENDHMM>
~h "f"
<BEGINHMM>
<NUMSTATES> 5
<STATE> 2
<MEAN> 39
 -1.512018e+01 1.037751e+00 -5.123311e+00 7.925034e+00 4.653044e+00 9.662743e-01 7.675895e+00 -3.256696e+00 2.213870e+00 -3.408489e+00 9.000885e-01 -9.816818e-01 5.924084e+01 -6.180612e-01 -2.179520e-01 -7.726236e-02 -9.988928e-02 2.014575e-01 -9.744694e-02 1.005360e-01 6.807988e-02 2.418337e-01 -1.382301e-02 3.402732e-03 1.983070e-01 2.467459e-01 1.884434e-01 5.701272e-02 1.833040e-03 -4.986844e-02 -2.319929e-02 -8.529335e-02 -1.143537e-01 -6.306856e-02 -9.657681e-02 -1.159748e-02 -2.307503e-02 -8.548358e-02 7.071424e-03
<VARIANCE> 39
 5.506913e+01 5.584575e+01 4.878862e+01 6.102759e+01 9.005678e+01 8.795737e+01 4.535457e+01 5.111240e+01 5.948415e+01 5.646624e+01 3.748597e+01 5.047318e+01 9.836121e+01 2.298175e+00 2.191506e+00 1.567111e+00 1.692292e+00 2.569112e+00 2.555006e+00 2.895039e+00 2.604430e+00 2.891459e+00 2.303365e+00 2.299936e+00 2.052219e+00 9.660231e-01 3.839742e-01 3.962443e-01 2.865717e-01 3.292026e-01 5.088114e-01 4.803466e-01 5.877659e-01 5.014552e-01 5.013961e-01 4.424637e-01 4.507235e-01 3.997823e-01 1.449782e-01
<GCONST> 1.225687e+02
<STATE> 3
<MEAN> 39
 -1.858731e+01 -2.390441e-01 -4.248692e+00 4.698709e+00 7.923176e+00 -1.322717e+00 5.383014e+00 -4.877079e+00 -1.586406e+00 -2.290395e+00 1.348475e+00 -8.227159e-01 5.626296e+01 2.573566e+00 8.588470e-01 -5.453877e-01 -1.424960e+00 -9.528553e-01 -7.303532e-01 -7.557280e-01 -3.951186e-01 -3.452546e-01 -2.192056e-01 -6.388846e-01 -6.936023e-01 5.774620e-01 1.168556e+00 3.238953e-01 -1.094919e-01 -5.118630e-01 -7.874795e-01 -3.450784e-01 -1.888174e-01 -1.004789e-01 -1.120180e-01 -2.252741e-02 -2.304219e-01 -2.156253e-01 4.998962e-01
<VARIANCE> 39
 5.592050e+01 5.405917e+01 4.661787e+01 5.242580e+01 1.107184e+02 6.605587e+01 7.106828e+01 5.945599e+01 5.863575e+01 1.106929e+02 5.021144e+01 4.212184e+01 1.479990e+02 1.014533e+01 6.123633e+00 3.667545e+00 6.819108e+00 7.721874e+00 5.550662e+00 4.764798e+00 4.392769e+00 5.099986e+00 5.086178e+00 2.525915e+00 3.159746e+00 3.029074e+00 8.412144e-01 8.014215e-01 5.904059e-01 1.009798e+00 1.252504e+00 1.193704e+00 9.788110e-01 8.216939e-01 9.931507e-01 1.007092e+00 5.384120e-01 6.864775e-01 4.978145e-01
<GCONST> 1.443401e+02
<STATE> 4
<MEAN> 39
 -1.518175e+00 -3.230267e+00 -2.859961e+00 -5.646640e+00 -8.327949e+00 -6.446931e-01 -2.614414e+00 -5.813452e+00 -1.183424e+00 -5.511698e+00 -1.072124e+00 -2.217721e+00 5.499846e+01 4.202699e+00 8.719462e-01 -6.996314e-01 -2.385234e+00 -2.135733e+00 -9.036298e-01 -6.589119e-01 -4.254213e-01 -4.103171e-01 -4.012784e-01 -2.875097e-01 -7.989619e-01 2.399386e+00 -5.790719e-01 -4.157166e-01 -2.038648e-02 3.062740e-01 1.729522e-01 -3.440876e-02 1.278038e-01 1.931558e-01 1.533508e-01 1.386192e-01 2.017921e-01 3.738096e-02 9.147928e-03
<VARIANCE> 39
 6.259042e+01 2.453911e+02 8.139491e+01 1.329543e+02 1.516793e+02 9.336747e+01 7.036248e+01 6.942841e+01 4.710714e+01 3.493119e+01 3.681841e+01 3.173907e+01 1.377369e+02 1.062800e+01 7.183325e+00 3.889165e+00 1.024055e+01 7.386737e+00 8.608809e+00 5.175092e+00 5.160698e+00 4.221628e+00 4.365232e+00 4.307062e+00 4.025922e+00 5.432068e+00 1.272771e+00 8.736828e-01 4.435527e-01 1.162617e+00 7.432744e-01 6.786480e-01 4.803087e-01 6.588991e-01 4.963123e-01 6.067576e-01 4.755062e-01 5.234602e-01 5.748504e-01
<GCONST> 1.454339e+02
<TRANSP> 5
 0.000000e+00 1.000000e+00 0.000000e+00 0.000000e+00 0.000000e+00
 0.000000e+00 8.928998e-01 1.071003e-01 0.000000e+00 0.000000e+00
 0.000000e+00 0.000000e+00 6.754969e-01 3.245030e-01 0.000000e+00
 0.000000e+00 0.000000e+00 0.000000e+00 5.904862e-01 4.095138e-01
 0.000000e+00 0.000000e+00 0.000000e+00 0.000000e+00 0.000000e+00
<ENDHMM>
~h "g"
<BEGINHMM>
<NUMSTATES> 5
<STATE> 2
<MEAN> 39
 -6.814035e+00 5.351776e+00 -3.170200e+00 9.843525e+00 2.324864e+00 2.005517e+00 5.801037e+00 -2.094186e+00 5.099298e+00 -6.021432e+00 1.783003e-01 -4.138381e+00 6.231866e+01 3.511266e-01 5.120590e-01 2.598076e-01 2.151746e-01 4.811395e-01 -2.154853e-02 -1.701055e-01 -5.866412e-02 -1.426158e-01 -1.131382e-01 -1.034803e-01 -1.730086e-01 1.139280e-01 -1.403441e-02 1.685902e-02 4.559853e-02 -5.679060e-02 -5.525099e-02 3.447319e-03 -5.229413e-03 5.171663e-02 -4.733405e-03 6.371714e-02 1.492803e-01 3.698973e-02 -3.752447e-02
<VARIANCE> 39
 4.472795e+01 5.559483e+01 6.281191e+01 2.779691e+01 5.151342e+01 3.016196e+01 3.280640e+01 4.198941e+01 4.545170e+01 3.265438e+01 1.687000e+01 4.476376e+01 3.262423e+01 1.418499e+00 2.798963e+00 2.638724e+00 1.979890e+00 1.747727e+00 1.466321e+00 2.788264e+00 2.261050e+00 3.014956e+00 1.804954e+00 1.933967e+00 2.078659e+00 5.644092e-01 2.400213e-01 3.772997e-01 4.221723e-01 3.805395e-01 2.957202e-01 2.280043e-01 5.671831e-01 4.461722e-01 5.709389e-01 2.998140e-01 2.795900e-01 4.205771e-01 9.246358e-02
<GCONST> 1.126924e+02
<STATE> 3
<MEAN> 39
 -6.062756e+00 8.607531e+00 -1.114287e+00 1.090114e+01 2.092869e+00 3.907292e+00 7.237430e+00 -3.860979e-02 5.720459e+00 -4.264788e+00 3.230894e+00 -4.201678e+00 5.960198e+01 -1.470133e-02 -7.423566e-03 7.828354e-02 -7.418022e-02 -1.082240e-01 1.252382e-02 -1.711337e-02 2.952637e-01 3.644043e-02 1.454139e-01 8.279200e-02 1.465272e-01 -8.335961e-02 -3.047317e-02 -1.286173e-01 -1.434522e-01 -9.303898e-02 -2.390420e-02 -1.300319e-02 -7.229501e-03 -3.462056e-02 -1.144458e-01 -3.749562e-02 -1.144634e-01 1.745545e-02 7.435707e-02
<VARIANCE> 39
 8.931911e+01 4.107025e+01 6.162855e+01 3.505677e+01 4.159760e+01 2.547174e+01 2.913229e+01 3.021483e+01 3.929328e+01 4.178187e+01 2.596712e+01 3.477874e+01 2.634863e+01 1.936844e-01 3.278474e-01 5.421075e-01 8.113333e-01 1.101092e+00 1.248058e+00 1.308272e+00 1.078823e+00 1.532499e+00 1.701810e+00 1.592480e+00 1.043305e+00 8.098631e-02 9.745239e-02 1.266088e-01 1.548441e-01 2.211555e-01 2.496143e-01 2.347515e-01 2.401556e-01 2.569700e-01 4.822598e-01 3.900159e-01 3.230034e-01 2.320663e-01 5.215035e-02
<GCONST> 9.421967e+01
<STATE> 4
<MEAN> 39
 -2.552192e+00 7.107078e+00 -5.298413e+00 6.301517e+00 2.554972e+00 5.294993e-01 4.715197e+00 7.523204e-01 1.625682e+00 -9.362241e+00 2.185385e+00 -7.014609e+00 6.525560e+01 -3.440515e-02 -2.208724e-01 -1.431419e-01 -2.622358e-01 -2.208615e-01 -1.076883e-01 -6.345597e-02 2.096626e-02 -7.837662e-02 -6.284045e-02 -7.557983e-02 3.470445e-02 2.163155e-01 -3.192447e-02 -1.381288e-01 -1.360965e-01 -2.573295e-01 3.423748e-03 -7.034324e-02 2.383131e-01 -1.670001e-01 -2.379430e-01 2.588666e-03 -2.864729e-02 -2.036619e-02 2.937388e-01
<VARIANCE> 39
 5.609430e+01 3.167739e+01 4.799925e+01 3.711021e+01 3.799830e+01 8.779398e+01 2.952609e+01 3.234979e+01 3.480449e+01 6.928289e+01 2.389548e+01 3.443160e+01 5.357656e+01 2.152520e+00 1.500797e+00 1.964759e+00 2.158942e+00 2.548795e+00 3.877347e+00 2.641914e+00 2.468781e+00 2.648731e+00 3.828165e+00 2.655513e+00 2.207852e+00 9.592757e-01 5.410337e-01 2.682899e-01 3.609899e-01 5.022230e-01 5.964729e-01 7.758028e-01 7.073023e-01 6.633930e-01 6.447561e-01 8.341085e-01 6.449409e-01 4.623666e-01 4.099838e-01
<GCONST> 1.230415e+02
<TRANSP> 5
 0.000000e+00 1.000000e+00 0.000000e+00 0.000000e+00 0.000000e+00
 0.000000e+00 8.207076e-01 1.792924e-01 0.000000e+00 0.000000e+00
 0.000000e+00 0.000000e+00 8.000530e-01 1.999470e-01 0.000000e+00
 0.000000e+00 0.000000e+00 0.000000e+00 7.954777e-01 2.045223e-01
 0.000000e+00 0.000000e+00 0.000000e+00 0.000000e+00 0.000000e+00
<ENDHMM>
~h "k"
<BEGINHMM>
<NUMSTATES> 5
<STATE> 2
<MEAN> 39
 -1.283224e+01 1.422536e+00 2.074246e+00 3.090148e+00 -8.431409e-02 1.196952e+00 2.758371e+00 -3.723033e+00 6.651176e-01 -4.493886e+00 -7.443452e-01 -2.140369e+00 5.532414e+01 -6.524778e-01 4.322667e-01 2.908725e-01 -4.485081e-02 -2.141837e-01 -2.784658e-02 1.944626e-01 4.719609e-01 -2.043976e-01 3.632758e-03 2.491533e-01 1.267338e-01 -6.279761e-01 1.030604e-01 -4.197564e-02 4.445622e-02 4.376365e-02 -9.636882e-02 -2.640115e-01 -1.188100e-01 -2.649614e-01 -2.487713e-02 2.740222e-01 1.538045e-01 1.097503e-02 7.756659e-02
<VARIANCE> 39
 1.061576e+02 6.771700e+01 1.123682e+02 6.957260e+01 8.209161e+01 1.137995e+02 1.076036e+02 8.092690e+01 4.090234e+01 5.743894e+01 4.870085e+01 4.338616e+01 1.336169e+02 4.278331e-01 1.550566e+00 2.975433e+00 1.683397e+00 2.516099e+00 1.652908e+00 2.149368e+00 2.121049e+00 1.877048e+00 2.294944e+00 1.867215e+00 1.510862e+00 5.062565e-01 1.034234e-01 2.432566e-01 4.013672e-01 3.036190e-01 4.158135e-01 4.444888e-01 5.549141e-01 5.142690e-01 3.589161e-01 3.230935e-01 4.184898e-01 2.318483e-01 9.790973e-02
<GCONST> 1.184679e+02
<STATE> 3
<MEAN> 39
 -1.441179e+01 5.243692e-02 1.292540e+00 2.027563e+00 -2.302741e+00 -1.515316e+00 6.846489e-01 -4.659002e+00 1.161959e+00 -3.141423e+00 -3.890477e-01 -1.245938e+00 5.326887e+01 -4.855128e-01 2.257926e-01 7.853347e-02 1.779694e-01 -9.840800e-02 -7.459158e-02 8.671767e-02 2.362037e-01 1.266878e-01 4.381714e-01 1.859029e-01 1.821419e-01 -5.298128e-01 1.581899e-01 -9.542247e-02 -2.876309e-02 1.315409e-01 1.033309e-01 -1.021153e-01 1.261972e-02 -2.446059e-01 -2.500706e-02 9.889480e-02 -9.037230e-05 -1.655150e-02 1.388668e-01
<VARIANCE> 39
 1.035275e+02 6.078223e+01 1.086804e+02 5.776280e+01 5.482267e+01 1.091943e+02 1.005914e+02 6.249541e+01 4.298571e+01 5.160223e+01 3.967684e+01 3.952864e+01 1.652226e+02 3.391355e-01 1.107600e+00 2.093615e+00 1.695566e+00 1.802760e+00 1.872318e+00 2.881466e+00 2.253100e+00 2.360292e+00 1.806028e+00 2.252305e+00 1.287752e+00 3.398018e-01 6.411655e-02 1.435206e-01 2.408752e-01 2.045222e-01 2.659588e-01 2.410753e-01 2.610489e-01 4.584799e-01 2.906426e-01 3.118607e-01 2.600950e-01 2.021678e-01 4.546391e-02
<GCONST> 1.105863e+02
<STATE> 4
<MEAN> 39
 -4.797509e+00 2.355143e-01 -1.816061e+00 5.881019e+00 3.442647e+00 5.807417e+00 5.298391e+00 4.268553e-01 3.164335e+00 -4.814906e+00 1.083857e+00 -3.123977e+00 5.469159e+01 -2.856384e-02 3.601784e-02 1.313724e-02 6.633753e-02 5.610552e-02 7.678398e-03 2.380627e-02 -4.595027e-02 1.390793e-02 5.927170e-02 1.348433e-02 3.268887e-02 -4.167015e-02 1.401785e-02 -3.053015e-02 -2.259603e-02 -1.102147e-05 6.891463e-03 -6.639026e-03 1.223224e-02 -7.250560e-03 -7.922836e-04 -1.805142e-02 -1.519636e-02 -2.575365e-03 1.587274e-02
<VARIANCE> 39
 8.712472e+01 4.874110e+01 2.714160e+01 2.790310e+01 4.609787e+01 3.309747e+01 3.421657e+01 2.665539e+01 2.530528e+01 3.051900e+01 2.354407e+01 2.705120e+01 1.193230e+02 2.540725e-01 5.095609e-01 7.077513e-01 1.007462e+00 1.132975e+00 1.433381e+00 1.527014e+00 1.687546e+00 1.891422e+00 1.781317e+00 1.730479e+00 1.280179e+00 1.015281e-01 4.905746e-02 9.951331e-02 1.418575e-01 1.669559e-01 2.170736e-01 2.985083e-01 2.856038e-01 3.176166e-01 3.837214e-01 3.777949e-01 3.725967e-01 2.512294e-01 2.210540e-02
<GCONST> 9.515262e+01
<TRANSP> 5
 0.000000e+00 1.000000e+00 0.000000e+00 0.000000e+00 0.000000e+00
 0.000000e+00 2.799601e-04 9.997201e-01 0.000000e+00 0.000000e+00
 0.000000e+00 0.000000e+00 2.750393e-01 7.249608e-01 0.000000e+00
 0.000000e+00 0.000000e+00 0.000000e+00 8.839101e-01 1.160899e-01
 0.000000e+00 0.000000e+00 0.000000e+00 0.000000e+00 0.000000e+00
<ENDHMM>
~h "l"
<BEGINHMM>
<NUMSTATES> 5
<STATE> 2
<MEAN> 39
 -4.822979e+00 5.752964e+00 3.237179e+00 7.958786e+00 2.076089e+00 2.365737e+00 6.179639e+00 -2.823001e-01 3.529485e+00 -5.212668e+00 -1.419570e+00 -4.836352e+00 5.755512e+01 -3.296092e-01 -1.022663e-01 6.812668e-02 6.173214e-02 9.765597e-02 2.944173e-01 1.318454e-01 2.550391e-01 2.971416e-01 1.375355e-01 4.262555e-02 -6.801418e-02 -2.912938e-01 -1.614089e-02 -5.287850e-02 1.362279e-03 3.037218e-02 1.422710e-02 -3.053215e-02 -5.651372e-02 -7.349488e-02 -6.159129e-02 -1.986960e-02 1.158512e-02 1.562816e-02 8.672710e-03
<VARIANCE> 39
 2.339309e+01 3.380537e+01 3.000786e+01 4.333570e+01 5.459609e+01 3.121714e+01 2.194501e+01 3.814979e+01 2.524174e+01 2.639034e+01 1.804328e+01 2.952582e+01 2.094720e+01 5.170160e-01 9.387833e-01 1.497818e+00 1.303492e+00 1.904650e+00 1.483002e+00 1.731700e+00 1.743350e+00 1.904491e+00 1.603692e+00 1.204449e+00 1.142670e+00 1.858439e-01 6.694205e-02 1.420931e-01 2.213912e-01 2.528400e-01 3.374192e-01 2.764353e-01 3.360336e-01 3.440808e-01 3.395281e-01 2.708137e-01 1.852781e-01 1.954061e-01 2.586476e-02
<GCONST> 9.592813e+01
<STATE> 3
<MEAN> 39
 -1.381881e+01 9.064133e-01 -1.133391e+00 6.598015e+00 -5.443176e+00 -2.632975e+00 5.288356e+00 -3.942164e+00 2.529669e+00 4.429327e-01 -5.459033e-01 2.267997e+00 5.351762e+01 -1.161816e-01 -1.257089e-02 -3.229840e-02 5.011704e-03 4.187556e-02 3.757097e-02 1.232840e-02 9.524956e-03 7.153229e-02 3.429005e-02 5.550810e-02 2.221665e-02 -1.328130e-01 2.130502e-02 2.107620e-02 3.166021e-02 2.361211e-02 1.567139e-02 1.236683e-02 1.864469e-02 6.214753e-03 -1.717179e-02 -2.154212e-02 -4.479697e-02 -3.961184e-02 1.867318e-02
<VARIANCE> 39
 1.091718e+01 2.031943e+01 8.681405e+00 9.417853e+00 1.860367e+01 1.519842e+01 1.693058e+01 1.758934e+01 1.525073e+01 1.672198e+01 1.345567e+01 1.739302e+01 1.248424e+01 2.728733e-01 6.005347e-01 5.324749e-01 6.821114e-01 8.486216e-01 1.114251e+00 1.580945e+00 1.576344e+00 1.380123e+00 1.443783e+00 1.397522e+00 1.257739e+00 2.026695e-01 5.117719e-02 8.991940e-02 8.917537e-02 1.252650e-01 1.711947e-01 2.200440e-01 3.386465e-01 3.113943e-01 2.824628e-01 3.392160e-01 3.025961e-01 2.313303e-01 3.558246e-02
<GCONST> 8.029354e+01
<STATE> 4
<MEAN> 39
 -1.137597e+01 3.733840e+00 7.411544e-01 1.016514e+01 3.978319e+00 4.813537e+00 5.670697e+00 8.775055e-02 4.370029e+00 -6.171519e+00 1.925287e-01 -5.357655e+00 5.086935e+01 -3.286642e-02 -6.341019e-03 6.862109e-03 3.540108e-02 2.848178e-02 5.623442e-02 2.695676e-02 5.695394e-02 -6.239014e-03 -1.962315e-04 -4.401203e-03 -1.639441e-03 -7.737079e-02 1.647236e-03 -3.182430e-03 -8.937385e-03 -5.994224e-03 -1.287533e-04 -1.346304e-02 9.148322e-04 -1.419930e-03 -3.184499e-03 9.679953e-03 1.892617e-03 5.265357e-03 7.039114e-03
<VARIANCE> 39
 8.748933e+01 8.346881e+00 1.345367e+01 2.204250e+01 1.267461e+01 1.382296e+01 1.450903e+01 1.940489e+01 1.574553e+01 1.547006e+01 1.643543e+01 1.336842e+01 8.488689e+01 1.103389e-01 2.435265e-01 4.478902e-01 5.336018e-01 8.465898e-01 1.120797e+00 1.255445e+00 1.286053e+00 1.157941e+00 1.213556e+00 1.059259e+00 9.935931e-01 3.900346e-02 1.949673e-02 4.631004e-02 8.877487e-02 1.022820e-01 1.644522e-01 2.226010e-01 2.570815e-01 2.592235e-01 2.544903e-01 2.371370e-01 2.054904e-01 1.969011e-01 7.850148e-03
<GCONST> 7.403419e+01
<TRANSP> 5
 0.000000e+00 1.000000e+00 0.000000e+00 0.000000e+00 0.000000e+00
 0.000000e+00 8.782359e-01 1.217641e-01 0.000000e+00 0.000000e+00
 0.000000e+00 0.000000e+00 9.158043e-01 8.419574e-02 0.000000e+00
 0.000000e+00 0.000000e+00 0.000000e+00 9.538212e-01 4.617883e-02
 0.000000e+00 0.000000e+00 0.000000e+00 0.000000e+00 0.000000e+00
<ENDHMM>
~h "m"
<BEGINHMM>
<NUMSTATES> 5
<STATE> 2
<MEAN> 39
 5.158622e+00 1.240624e+01 6.406046e+00 6.988845e+00 -7.430162e+00 -9.104185e+00 -1.745932e+00 -7.827062e+00 -3.351017e+00 -8.330457e+00 -6.914905e+00 4.145449e-01 6.525043e+01 -1.269444e-02 4.344861e-02 4.751939e-02 4.728726e-02 -4.720346e-03 2.232378e-02 -3.440704e-04 2.771522e-02 2.891353e-02 -1.990896e-02 -4.423198e-02 -1.835449e-02 -2.903857e-02 -2.403210e-02 -2.683770e-02 -8.506040e-03 1.808666e-02 4.289710e-02 2.211779e-02 3.482542e-03 -7.895939e-03 -1.717126e-02 -2.055446e-03 1.037971e-02 1.144006e-02 -7.395741e-03
<VARIANCE> 39
 4.185610e+01 2.833752e+01 5.763482e+01 4.171065e+01 3.916204e+01 3.598036e+01 6.637758e+01 2.730388e+01 4.201485e+01 2.297994e+01 2.051302e+01 3.692816e+01 9.732642e+00 1.573234e+00 1.117442e+00 1.945789e+00 1.769299e+00 1.917512e+00 2.030626e+00 3.105183e+00 1.660373e+00 2.566678e+00 1.350631e+00 1.255976e+00 2.062075e+00 2.942065e-01 1.780114e-01 1.676828e-01 1.904935e-01 1.996466e-01 2.653143e-01 2.391671e-01 3.821702e-01 2.943826e-01 4.311793e-01 1.877480e-01 2.063540e-01 2.967269e-01 3.960266e-02
<GCONST> 1.025840e+02
<STATE> 3
<MEAN> 39
 -5.974745e+00 7.370818e+00 6.979635e+00 1.483446e+01 -6.262615e-01 -5.955577e+00 2.069302e+00 -7.298788e+00 -2.019693e+00 -4.501932e+00 -3.180300e+00 -2.509660e+00 5.951427e+01 -1.882855e-01 -3.346651e-01 -1.253704e-01 7.049065e-02 1.117366e-01 4.383468e-02 5.482602e-02 1.044527e-01 1.556893e-02 -9.768089e-03 3.430707e-03 6.471175e-02 -4.586103e-02 -1.159147e-02 -2.457303e-02 -3.608227e-02 -1.150178e-01 -6.095811e-02 -3.222255e-02 2.010776e-03 1.011265e-02 9.159063e-03 3.316659e-02 1.669018e-02 1.595390e-02 4.734015e-03
<VARIANCE> 39
 3.423479e+01 7.510314e+01 3.461142e+01 2.476413e+01 2.920257e+01 8.717213e+01 5.333730e+01 3.102673e+01 2.551875e+01 3.397855e+01 1.632911e+01 2.895400e+01 1.514209e+01 1.733045e+00 3.431838e+00 1.829615e+00 1.892664e+00 1.778672e+00 3.445704e+00 2.761328e+00 2.133129e+00 1.897173e+00 2.414934e+00 1.654668e+00 1.007522e+00 7.533895e-01 1.859066e-01 4.587719e-01 2.814880e-01 2.830242e-01 3.633952e-01 5.139674e-01 4.433980e-01 2.891656e-01 3.310941e-01 4.129593e-01 3.073031e-01 1.565127e-01 1.088497e-01
<GCONST> 1.095735e+02
<STATE> 4
<MEAN> 39
 -1.363167e+01 -2.091539e-01 -1.592258e+00 7.661191e+00 -4.446959e+00 -8.963242e-01 4.626317e+00 -3.669579e+00 3.596751e+00 -1.264053e+00 -1.250433e-01 4.736744e-01 5.303983e+01 -9.038683e-02 -4.773185e-02 -5.394502e-02 -7.356212e-02 -5.675525e-02 -2.485768e-02 3.441205e-02 6.970780e-03 4.090916e-02 8.278047e-02 1.122683e-01 8.217292e-02 -9.690754e-02 3.076485e-02 3.586853e-03 7.153793e-04 6.851578e-03 1.890729e-02 -2.129444e-03 5.899028e-03 8.598868e-03 9.857452e-03 -9.614866e-03 -2.382712e-02 -2.267717e-02 1.834349e-02
<VARIANCE> 39
 1.476034e+01 3.087359e+01 1.128844e+01 1.880855e+01 4.742582e+01 3.235888e+01 1.507392e+01 1.587909e+01 1.641606e+01 3.081518e+01 1.413176e+01 3.107032e+01 2.904628e+01 2.153782e-01 7.082300e-01 6.769184e-01 6.072315e-01 8.962646e-01 1.107392e+00 1.574553e+00 1.293476e+00 1.567164e+00 1.512875e+00 1.255189e+00 9.779743e-01 2.233839e-01 4.794449e-02 1.365125e-01 1.327133e-01 1.070221e-01 1.729090e-01 2.230336e-01 3.166608e-01 2.579744e-01 3.169330e-01 3.282147e-01 2.668954e-01 1.849319e-01 4.692783e-02
<GCONST> 8.578029e+01
<TRANSP> 5
 0.000000e+00 1.000000e+00 0.000000e+00 0.000000e+00 0.000000e+00
 0.000000e+00 9.328157e-01 6.718430e-02 0.000000e+00 0.000000e+00
 0.000000e+00 0.000000e+00 9.131151e-01 8.688483e-02 0.000000e+00
 0.000000e+00 0.000000e+00 0.000000e+00 9.333580e-01 6.664199e-02
 0.000000e+00 0.000000e+00 0.000000e+00 0.000000e+00 0.000000e+00
<ENDHMM>
~h "n"
<BEGINHMM>
<NUMSTATES> 5
<STATE> 2
<MEAN> 39
 -6.114572e-01 1.699714e+00 1.780232e+00 4.520652e+00 1.135113e-01 -6.137634e+00 -2.102229e+00 -5.081123e+00 -2.052379e+00 -2.298099e+00 -3.071169e+00 -2.373723e+00 5.805328e+01 1.027044e-01 1.153177e+00 8.323971e-01 5.854648e-01 -1.504311e-01 3.948007e-01 -8.468075e-02 -4.662499e-01 -2.434076e-01 -1.190626e-01 -2.656473e-01 -3.283088e-01 -5.705179e-01 -1.677494e-02 -4.606021e-02 -6.723496e-02 4.293135e-02 -2.684167e-02 1.953201e-01 2.426988e-02 7.151133e-02 4.551302e-02 -4.736526e-02 6.214251e-02 -5.952233e-02 -1.455867e-02
<VARIANCE> 39
 5.036084e+01 9.285015e+01 1.035362e+02 1.145010e+02 1.560727e+02 1.153711e+02 1.207391e+02 7.302094e+01 6.828767e+01 7.105878e+01 4.790493e+01 6.539766e+01 1.030484e+02 1.919509e+00 2.141570e+00 2.622711e+00 3.698448e+00 4.287334e+00 5.817373e+00 4.813016e+00 4.344566e+00 4.113296e+00 4.071091e+00 3.042551e+00 2.482765e+00 1.563492e+00 1.611126e-01 3.276223e-01 4.501487e-01 5.627035e-01 6.290113e-01 8.132001e-01 7.099560e-01 7.675422e-01 6.700921e-01 5.611022e-01 5.344489e-01 4.837890e-01 1.329359e-01
<GCONST> 1.348516e+02
<STATE> 3
<MEAN> 39
 2.056294e+00 9.216751e+00 3.530925e+00 1.073188e+01 -1.359539e-01 -6.612019e+00 -5.462621e+00 -9.352055e+00 -1.757282e+00 -5.455982e+00 -6.347556e+00 -2.796878e+00 6.121128e+01 -3.338539e-01 2.366810e-01 2.237091e-01 1.430408e-01 -2.037952e-01 6.724736e-01 5.246741e-01 3.083421e-01 1.148397e-01 -1.163617e-01 2.553370e-02 -2.246459e-01 -3.632844e-01 -1.397670e-01 -3.004266e-01 -1.050842e-01 -7.112127e-02 -1.725863e-02 -1.029697e-01 1.095756e-01 1.788644e-01 1.874102e-02 7.004748e-02 1.843419e-01 1.234984e-01 5.369180e-02
<VARIANCE> 39
 3.766722e+01 4.335122e+01 3.101556e+01 3.222487e+01 5.766692e+01 5.393942e+01 6.815896e+01 3.513349e+01 4.015440e+01 3.268757e+01 3.612282e+01 4.394401e+01 5.502194e+01 1.036216e+00 1.681149e+00 1.546671e+00 1.724628e+00 1.624730e+00 3.087977e+00 3.544638e+00 2.564460e+00 2.665663e+00 1.989839e+00 2.006803e+00 3.429980e+00 7.398083e-01 1.390415e-01 3.085748e-01 2.333623e-01 2.945615e-01 2.929561e-01 5.627084e-01 6.035119e-01 4.078095e-01 4.839626e-01 3.840508e-01 3.637465e-01 5.960197e-01 1.068212e-01
<GCONST> 1.145369e+02
<STATE> 4
<MEAN> 39
 -4.680711e+00 -9.714472e-01 3.072800e+00 7.465795e+00 -4.611913e+00 9.267771e-02 -1.902473e+00 -3.590639e+00 8.453181e-02 -4.914468e+00 -1.846246e+00 -1.042515e+00 4.771210e+01 -7.134905e-01 -6.069306e-01 -3.090144e-01 -1.146369e-01 -1.087088e-02 3.927941e-01 5.183321e-01 4.205493e-01 1.569436e-01 1.752981e-01 4.686578e-01 2.704498e-01 -3.428290e-01 4.494992e-03 -2.523523e-01 -1.074761e-01 -1.965973e-01 -4.290061e-02 -2.009546e-01 -9.463043e-02 -4.672886e-02 6.933040e-03 8.807265e-02 3.322473e-02 6.448737e-02 1.882410e-01
<VARIANCE> 39
 3.730602e+01 1.544623e+02 3.505439e+01 4.450996e+01 9.835065e+01 4.603169e+01 6.318973e+01 3.864554e+01 3.877553e+01 3.427912e+01 3.134368e+01 2.909617e+01 1.399987e+02 1.138979e+00 2.000093e+00 1.830462e+00 2.083233e+00 2.501684e+00 2.739929e+00 2.606207e+00 2.458691e+00 2.962505e+00 2.446784e+00 2.393269e+00 2.031506e+00 7.163566e-01 2.119797e-01 4.379592e-01 3.189780e-01 4.024767e-01 5.721810e-01 5.821050e-01 5.294365e-01 5.707185e-01 5.050315e-01 4.805885e-01 4.528475e-01 3.569642e-01 1.734996e-01
<GCONST> 1.203142e+02
<TRANSP> 5
 0.000000e+00 1.000000e+00 0.000000e+00 0.000000e+00 0.000000e+00
 0.000000e+00 6.227231e-01 3.772769e-01 0.000000e+00 0.000000e+00
 0.000000e+00 0.000000e+00 6.675801e-01 3.324198e-01 0.000000e+00
 0.000000e+00 0.000000e+00 0.000000e+00 6.408228e-01 3.591771e-01
 0.000000e+00 0.000000e+00 0.000000e+00 0.000000e+00 0.000000e+00
<ENDHMM>
~h "r"
<BEGINHMM>
<NUMSTATES> 5
<STATE> 2
<MEAN> 39
 5.645390e+00 4.705479e-01 -6.732163e+00 2.728627e+00 -1.415534e+00 -7.275841e+00 -5.431660e+00 -6.249267e+00 -6.231305e+00 -4.033639e+00 -1.654190e-01 -2.194950e+00 6.173914e+01 -1.397903e-02 3.535674e-01 -4.662315e-01 5.741512e-02 6.035846e-01 3.477234e-01 -6.946457e-02 -9.312631e-02 -1.586172e-01 1.961328e-02 1.203035e-01 9.311215e-02 -3.793639e-01 -1.601703e-01 4.133762e-02 2.627093e-01 -2.103803e-02 -6.177222e-02 -3.175461e-02 -2.232010e-02 5.583845e-02 1.257135e-01 5.436343e-02 -4.337158e-02 2.398303e-02 -2.878493e-02
<VARIANCE> 39
 4.773922e+01 1.004807e+02 7.549557e+01 1.065410e+02 1.198006e+02 7.964343e+01 1.312258e+02 1.025608e+02 9.390771e+01 6.917341e+01 5.358380e+01 5.124799e+01 6.002082e+01 7.626137e-01 1.636350e+00 2.974612e+00 2.599851e+00 3.392075e+00 3.577462e+00 4.735793e+00 4.348350e+00 3.710182e+00 2.744817e+00 2.521054e+00 2.082452e+00 6.570014e-01 8.672628e-02 2.404435e-01 3.402675e-01 3.764975e-01 5.001552e-01 5.770542e-01 8.247058e-01 7.203310e-01 5.108386e-01 4.923363e-01 4.345509e-01 4.018374e-01 7.495124e-02
<GCONST> 1.265499e+02
<STATE> 3
<MEAN> 39
 2.177086e+00 4.643386e+00 -1.576993e+00 1.048523e+01 3.328586e+00 -1.174717e+01 -7.018209e+00 -1.278637e+01 -1.050891e+01 -3.248441e+00 2.511740e-01 -3.617394e+00 6.442097e+01 -1.744203e-01 1.469511e-01 2.549659e-01 -2.165719e-02 1.112400e-02 -1.543287e-01 9.140843e-02 4.458232e-01 2.343130e-01 -9.588445e-03 -1.981124e-01 -7.524369e-02 -1.055849e-01 -4.285485e-02 1.366831e-02 7.270466e-02 -2.820080e-02 -8.725761e-02 7.078212e-02 9.193180e-02 5.843525e-02 8.478283e-02 -6.642336e-02 -8.688302e-02 -1.753783e-02 -2.560228e-02
<VARIANCE> 39
 3.049615e+01 6.003928e+01 7.325166e+01 1.088558e+02 1.051143e+02 9.763650e+01 1.009681e+02 5.057815e+01 5.623002e+01 4.231919e+01 4.848102e+01 5.389949e+01 3.417100e+01 2.580642e-01 5.501142e-01 1.093152e+00 1.601995e+00 1.302208e+00 2.031442e+00 1.681233e+00 1.766202e+00 1.878895e+00 1.552702e+00 1.441333e+00 1.211920e+00 1.545290e-01 3.049022e-02 8.163271e-02 1.351197e-01 1.609131e-01 1.594236e-01 2.414791e-01 2.287781e-01 2.885223e-01 2.741157e-01 2.115697e-01 2.600830e-01 2.097719e-01 1.727625e-02
<GCONST> 9.993929e+01
<STATE> 4
<MEAN> 39
 6.219893e-01 -4.696692e+00 -3.380883e+00 -4.722083e-01 -4.787776e+00 -4.487118e+00 -3.201497e+00 -2.683929e-01 -7.513274e-01 -3.021960e+00 -1.572754e+00 -1.768816e+00 5.128327e+01 -4.202602e-01 3.077945e-01 3.322378e-01 1.172160e-01 8.524996e-02 4.760536e-01 2.158695e-01 -1.693109e-03 2.027157e-01 -1.285008e-01 -7.764574e-02 1.633549e-02 -4.477620e-01 -3.529789e-02 -5.288883e-03 -9.744341e-03 -6.489001e-03 -1.151867e-02 7.680429e-02 2.766569e-02 -2.417254e-02 3.642692e-03 1.200186e-02 3.355576e-02 4.682496e-03 -2.090921e-02
<VARIANCE> 39
 3.065751e+01 1.205653e+02 1.122986e+02 1.229261e+02 9.925815e+01 8.831504e+01 8.948818e+01 8.521237e+01 7.878529e+01 4.585165e+01 3.408463e+01 3.542056e+01 1.121505e+02 3.899656e-01 9.870182e-01 1.177142e+00 1.638156e+00 1.574376e+00 2.279693e+00 2.341476e+00 2.292166e+00 2.309766e+00 1.959978e+00 1.904475e+00 1.606308e+00 3.292108e-01 5.549914e-02 1.378059e-01 1.720163e-01 1.959593e-01 2.543554e-01 3.534348e-01 3.259827e-01 3.337220e-01 3.775165e-01 3.379629e-01 3.140341e-01 3.089831e-01 3.325845e-02
<GCONST> 1.109424e+02
<TRANSP> 5
 0.000000e+00 1.000000e+00 0.000000e+00 0.000000e+00 0.000000e+00
 0.000000e+00 6.827375e-01 3.172625e-01 0.000000e+00 0.000000e+00
 0.000000e+00 0.000000e+00 7.987749e-01 2.012251e-01 0.000000e+00
 0.000000e+00 0.000000e+00 0.000000e+00 7.897074e-01 2.102926e-01
 0.000000e+00 0.000000e+00 0.000000e+00 0.000000e+00 0.000000e+00
<ENDHMM>
~h "s"
<BEGINHMM>
<NUMSTATES> 5
<STATE> 2
<MEAN> 39
 -1.266424e+01 -1.204494e+00 8.258532e-01 1.856917e+00 -7.324560e-02 3.127394e-01 -3.284777e-01 -4.101588e+00 -5.800534e-01 -2.161943e+00 4.969378e-01 -1.057970e+00 5.482819e+01 -1.059341e+00 -7.221291e-01 8.294718e-01 -6.865628e-01 -1.048922e-01 -1.315318e-02 5.230309e-01 -4.079336e-01 6.217009e-01 9.927805e-02 3.238877e-01 1.623225e-02 1.102894e+00 -2.427437e-01 -2.446345e-02 6.388959e-02 -1.143500e-01 2.041737e-02 -7.997104e-02 1.512955e-01 1.951510e-02 6.262597e-02 -2.565918e-02 8.792353e-02 2.632708e-02 1.323106e-01
<VARIANCE> 39
 9.626836e+01 6.948974e+01 1.191053e+02 1.112312e+02 1.724533e+02 1.354651e+02 1.631190e+02 8.877463e+01 6.386364e+01 7.792938e+01 4.246349e+01 8.559731e+01 1.963234e+02 6.057117e+00 4.167386e+00 8.477613e+00 6.833785e+00 5.303987e+00 8.023614e+00 5.860446e+00 4.097049e+00 4.432750e+00 4.377175e+00 3.473153e+00 3.242631e+00 3.421019e+00 6.020238e-01 6.331913e-01 1.036019e+00 9.819740e-01 8.317072e-01 1.161959e+00 9.293770e-01 7.043304e-01 7.018544e-01 7.045878e-01 6.626269e-01 6.106824e-01 5.099764e-01
<GCONST> 1.487537e+02
<STATE> 3
<MEAN> 39
 -2.052975e+01 -1.562356e-01 4.765270e+00 3.973350e+00 -9.681485e-01 -9.563118e-01 6.503067e+00 -6.211317e+00 4.453774e+00 -2.069716e+00 3.408988e+00 -2.144414e+00 5.977645e+01 -1.195826e+00 -2.666131e-01 3.523199e-01 -5.156518e-01 -8.170956e-02 -1.647734e-01 4.334241e-01 2.370630e-01 1.605933e-01 -1.263088e-01 2.676176e-01 2.328731e-01 4.662692e-01 4.633869e-01 1.531751e-01 -2.424182e-01 9.892394e-02 5.367181e-02 1.902951e-02 -3.049408e-01 1.108186e-01 -2.715376e-01 -1.387447e-01 -2.147051e-01 5.175128e-03 -2.269237e-01
<VARIANCE> 39
 7.083483e+01 9.447955e+01 1.827085e+02 1.060288e+02 9.979546e+01 9.567028e+01 8.328095e+01 6.923215e+01 6.345422e+01 4.557284e+01 4.051588e+01 4.667391e+01 1.174133e+02 2.958809e+00 2.946295e+00 2.596466e+00 3.846526e+00 2.773264e+00 3.081023e+00 3.069603e+00 3.081538e+00 2.323173e+00 1.968305e+00 2.416908e+00 1.905211e+00 1.056129e+00 3.643210e-01 3.373684e-01 6.622239e-01 8.560342e-01 6.927465e-01 5.254126e-01 7.130329e-01 6.859674e-01 5.697899e-01 3.963898e-01 3.315688e-01 3.590152e-01 2.015525e-01
<GCONST> 1.308147e+02
<STATE> 4
<MEAN> 39
 -2.425541e+01 -1.743796e+00 4.700883e+00 -1.809722e+00 1.122662e+00 -1.085949e+00 5.357381e+00 -5.219899e+00 3.881419e+00 -1.795199e+00 1.730442e+00 1.989490e-01 5.763288e+01 9.599993e-02 -1.162682e-01 -1.394485e-01 2.083770e-02 -3.445851e-02 2.769131e-02 -1.072368e-01 6.856326e-02 -2.612795e-02 -7.421954e-02 -1.199575e-01 5.837525e-02 -1.146819e-01 3.117338e-01 -1.675869e-02 -6.869160e-02 1.039831e-01 -4.675676e-02 -3.812973e-02 -1.286873e-01 -8.107244e-02 -9.487350e-02 5.412151e-04 -8.883654e-02 -2.487510e-02 -5.294663e-02
<VARIANCE> 39
 5.947826e+01 9.075861e+01 1.915199e+02 1.063405e+02 8.606847e+01 9.711512e+01 7.437284e+01 5.049038e+01 4.547434e+01 4.496854e+01 4.077329e+01 4.827007e+01 1.295504e+02 1.021927e+00 1.125359e+00 1.517030e+00 1.664479e+00 1.684416e+00 1.947882e+00 2.234412e+00 2.263149e+00 2.035638e+00 1.779779e+00 1.539840e+00 1.346447e+00 6.923417e-01 1.997256e-01 2.261790e-01 2.298448e-01 2.985991e-01 3.092526e-01 3.756577e-01 3.837670e-01 4.329299e-01 3.927758e-01 3.236163e-01 3.165760e-01 2.497352e-01 9.372499e-02
<GCONST> 1.163588e+02
<TRANSP> 5
 0.000000e+00 1.000000e+00 0.000000e+00 0.000000e+00 0.000000e+00
 0.000000e+00 7.290612e-01 2.709389e-01 0.000000e+00 0.000000e+00
 0.000000e+00 0.000000e+00 4.755008e-01 5.244992e-01 0.000000e+00
 0.000000e+00 0.000000e+00 0.000000e+00 7.959257e-01 2.040744e-01
 0.000000e+00 0.000000e+00 0.000000e+00 0.000000e+00 0.000000e+00
<ENDHMM>
~h "t"
<BEGINHMM>
<NUMSTATES> 5
<STATE> 2
<MEAN> 39
 -4.035620e+00 1.577608e+00 1.607212e+00 1.036479e+01 3.707788e+00 -7.266852e+00 -2.292070e+00 -9.343915e+00 -4.453072e+00 -3.165390e+00 5.632871e-02 -4.280203e+00 6.325835e+01 1.112328e+00 5.659650e-01 -8.419926e-01 -2.475598e-01 -2.265535e-01 -5.466263e-01 -3.697493e-01 -2.996099e-01 -7.767451e-01 -3.491673e-01 3.859478e-01 9.991050e-02 1.661108e-01 -4.655179e-01 -3.586730e-01 -1.032223e-01 -3.479235e-01 -3.128830e-01 1.704518e-01 3.546795e-01 3.404691e-01 2.905245e-01 8.850113e-02 6.921464e-02 1.236483e-01 -1.187162e-01
<VARIANCE> 39
 7.231776e+01 7.338956e+01 5.827184e+01 7.915858e+01 1.165798e+02 9.154551e+01 1.091015e+02 7.713613e+01 8.654869e+01 6.180290e+01 4.757529e+01 7.916859e+01 1.019507e+02 2.629405e+00 4.498180e+00 2.798792e+00 2.472016e+00 2.379110e+00 5.246018e+00 4.596062e+00 3.515518e+00 5.668245e+00 3.585512e+00 2.630087e+00 2.433212e+00 1.253323e+00 4.859999e-01 7.341666e-01 4.963506e-01 3.937937e-01 4.974313e-01 6.125351e-01 7.675612e-01 6.289265e-01 5.780438e-01 5.744655e-01 5.075940e-01 4.526515e-01 2.489264e-01
<GCONST> 1.347085e+02
<STATE> 3
<MEAN> 39
 -4.292717e+00 5.501190e-01 -3.364720e-02 9.000138e+00 1.935056e+00 -9.828465e+00 -1.092581e+00 -8.608460e+00 -4.417572e+00 -1.764843e+00 9.251868e-01 -3.206435e+00 6.313153e+01 2.670396e-01 8.716486e-02 -6.725388e-01 -4.794975e-01 -5.213116e-01 9.326249e-02 4.229590e-01 4.594811e-01 1.255256e-02 -6.204238e-02 2.422096e-03 2.257369e-01 -2.498322e-01 -2.701190e-01 -9.809619e-02 9.628594e-02 -8.651513e-02 -9.204292e-02 2.898372e-01 1.839537e-01 1.823771e-01 2.264344e-01 -4.090598e-02 -7.935627e-02 1.999910e-02 -1.469289e-01
<VARIANCE> 39
 7.965856e+01 6.381364e+01 6.044880e+01 6.721848e+01 1.117780e+02 1.165012e+02 1.300955e+02 7.775613e+01 9.426646e+01 7.246825e+01 4.480812e+01 6.896840e+01 1.191491e+02 1.051102e+00 1.770565e+00 1.445393e+00 1.703725e+00 2.295015e+00 3.781004e+00 3.179871e+00 2.584974e+00 3.284839e+00 3.164418e+00 2.106816e+00 2.204472e+00 7.090770e-01 2.537549e-01 4.483473e-01 3.180074e-01 3.109484e-01 3.936817e-01 4.683890e-01 4.578261e-01 5.818411e-01 6.353254e-01 5.815267e-01 4.039801e-01 3.584612e-01 1.429891e-01
<GCONST> 1.258115e+02
<STATE> 4
<MEAN> 39
 -2.315827e+00 2.433209e+00 -6.358687e+00 -6.577643e-01 -1.722713e+00 -2.453313e+00 5.303275e+00 -2.056019e+00 -3.808172e+00 -5.392114e+00 -1.036101e+00 -8.716720e-01 6.278761e+01 1.979869e-01 6.317353e-02 -1.147207e-01 -1.098093e-01 -3.298001e-01 2.858115e-01 2.968725e-02 4.012935e-01 1.969326e-01 -2.935318e-01 5.747005e-02 -5.471136e-02 -3.787807e-01 -7.606476e-02 3.005235e-02 1.408650e-01 8.878088e-02 5.201818e-02 8.282472e-03 -5.795111e-02 -3.227886e-03 3.726128e-02 5.690647e-02 -3.025804e-02 -7.405788e-02 -4.894729e-02
<VARIANCE> 39
 9.039301e+01 1.225487e+02 7.500366e+01 1.118610e+02 8.354157e+01 1.627273e+02 1.004449e+02 6.989246e+01 1.026839e+02 6.432600e+01 5.166858e+01 5.344172e+01 1.841694e+02 1.501596e+00 1.073138e+00 1.336458e+00 1.435091e+00 1.692082e+00 2.892911e+00 2.330971e+00 2.137780e+00 2.306005e+00 2.452532e+00 1.997798e+00 1.928869e+00 9.393821e-01 2.159166e-01 2.288792e-01 2.197704e-01 2.361466e-01 2.513039e-01 5.244519e-01 4.296394e-01 3.631481e-01 5.080075e-01 4.080544e-01 3.474577e-01 2.744723e-01 1.060083e-01
<GCONST> 1.216573e+02
<TRANSP> 5
 0.000000e+00 1.000000e+00 0.000000e+00 0.000000e+00 0.000000e+00
 0.000000e+00 2.826377e-01 7.173623e-01 0.000000e+00 0.000000e+00
 0.000000e+00 0.000000e+00 2.212261e-01 7.787739e-01 0.000000e+00
 0.000000e+00 0.000000e+00 0.000000e+00 6.267226e-01 3.732773e-01
 0.000000e+00 0.000000e+00 0.000000e+00 0.000000e+00 0.000000e+00
<ENDHMM>
~h "v"
<BEGINHMM>
<NUMSTATES> 5
<STATE> 2
<MEAN> 39
 4.122002e-01 -6.226335e+00 -5.790878e+00 6.849659e-01 -1.725714e-01 -1.104454e+01 -3.735917e+00 -3.678282e+00 -2.789488e+00 -2.270799e+00 3.010177e+00 -4.623315e+00 6.890714e+01 -5.333453e-01 2.952719e-01 5.230654e-01 2.204552e-01 1.785512e-02 -2.255083e-01 -3.465610e-01 -1.246546e-01 -1.753409e-01 -1.828500e-01 2.328006e-01 8.525313e-02 -2.959425e-01 -3.074073e-02 2.856931e-02 3.677098e-02 -1.933055e-02 2.492631e-02 1.393263e-01 -7.429338e-04 -1.731929e-02 1.832856e-02 -2.536045e-02 -1.103086e-01 4.026983e-02 -8.332011e-02
<VARIANCE> 39
 1.072389e+02 1.058967e+02 1.041285e+02 9.364727e+01 2.394259e+02 1.100797e+02 1.134113e+02 9.989767e+01 8.847615e+01 6.314426e+01 7.409609e+01 5.937674e+01 9.565343e+01 5.010532e+00 3.033571e+00 2.311734e+00 4.710621e+00 3.862160e+00 7.271882e+00 4.166838e+00 3.651558e+00 4.235270e+00 4.631258e+00 4.217866e+00 2.487836e+00 2.999307e+00 7.639772e-01 4.841661e-01 4.477035e-01 7.487687e-01 6.283488e-01 1.361436e+00 7.709188e-01 6.403502e-01 7.599908e-01 9.471596e-01 7.984655e-01 3.756873e-01 4.614631e-01
<GCONST> 1.436290e+02
<STATE> 3
<MEAN> 39
 -4.412595e+00 -3.152916e+00 -1.506808e+00 1.024617e+00 -2.927459e+00 -5.869852e+00 -5.510968e+00 -9.949011e+00 1.523158e-01 -3.637659e+00 -3.382946e+00 -2.114269e+00 5.928900e+01 -3.596606e-01 1.107148e+00 6.211817e-01 5.385087e-01 5.189119e-02 1.041136e+00 4.328957e-01 4.913684e-03 1.541216e-01 9.472834e-02 -2.138806e-01 1.671213e-02 -1.495938e+00 -2.787641e-02 1.288609e-01 -8.898416e-02 -1.699556e-02 7.016084e-02 1.151581e-01 1.558601e-01 1.937061e-01 1.437007e-01 2.929471e-02 1.259984e-01 2.113129e-02 -4.506658e-02
<VARIANCE> 39
 1.413004e+02 6.609664e+01 5.921933e+01 1.226108e+02 1.578533e+02 8.274779e+01 1.380468e+02 1.146491e+02 7.635632e+01 1.106549e+02 7.189394e+01 4.128024e+01 1.104871e+02 2.118709e+00 3.552296e+00 2.215817e+00 3.836363e+00 4.659480e+00 5.519469e+00 3.896610e+00 5.465461e+00 4.062149e+00 5.844824e+00 4.584817e+00 2.295933e+00 1.299747e+00 1.965681e-01 3.916979e-01 3.089734e-01 5.255828e-01 5.674997e-01 6.559410e-01 6.799626e-01 7.730068e-01 6.242126e-01 7.653577e-01 7.193646e-01 4.209062e-01 1.787893e-01
<GCONST> 1.371783e+02
<STATE> 4
<MEAN> 39
 -3.771517e+00 -5.189014e+00 1.951214e+00 1.664245e+00 -7.161277e+00 -1.128686e+00 -1.979736e+00 -1.018636e+00 2.053788e+00 -4.000641e+00 -1.127818e+00 9.781221e-01 4.824595e+01 -4.828122e-01 1.870392e-01 -5.043091e-02 2.783949e-01 3.100341e-01 2.692285e-01 2.928393e-02 1.634835e-01 1.995599e-01 2.085288e-01 2.615452e-01 1.313831e-01 -5.371410e-01 2.876577e-02 -2.280698e-01 -7.092152e-02 -6.519181e-02 -7.161541e-02 -1.559844e-01 2.170213e-02 -3.875369e-02 -7.129024e-02 6.646653e-02 1.277172e-02 -3.730392e-02 1.682167e-01
<VARIANCE> 39
 4.593613e+01 1.255683e+02 4.060262e+01 5.893445e+01 1.023659e+02 5.760179e+01 6.007179e+01 4.253879e+01 6.307306e+01 3.576303e+01 3.201397e+01 2.805574e+01 1.145801e+02 1.356464e+00 1.698316e+00 1.936393e+00 1.929616e+00 3.303911e+00 2.927318e+00 2.749772e+00 2.394453e+00 3.380966e+00 2.092790e+00 2.042747e+00 1.851519e+00 8.560589e-01 1.708041e-01 2.831032e-01 2.783891e-01 3.357434e-01 5.730923e-01 4.917787e-01 5.395885e-01 4.781974e-01 5.845589e-01 4.053576e-01 4.047121e-01 3.649885e-01 1.353851e-01
<GCONST> 1.199741e+02
<TRANSP> 5
 0.000000e+00 1.000000e+00 0.000000e+00 0.000000e+00 0.000000e+00
 0.000000e+00 8.063879e-01 1.936121e-01 0.000000e+00 0.000000e+00
 0.000000e+00 0.000000e+00 7.300805e-01 2.699195e-01 0.000000e+00
 0.000000e+00 0.000000e+00 0.000000e+00 8.497070e-01 1.502930e-01
 0.000000e+00 0.000000e+00 0.000000e+00 0.000000e+00 0.000000e+00
<ENDHMM>
~h "w"
<BEGINHMM>
<NUMSTATES> 5
<STATE> 2
<MEAN> 39
 -9.579862e+00 5.161519e+00 -1.152155e+00 7.541359e+00 -6.844453e-01 -3.445041e+00 -1.884119e-01 -6.421985e+00 -2.249053e+00 -2.864642e+00 7.430844e-01 -2.586282e+00 5.082878e+01 1.813033e+00 9.909219e-01 4.910881e-01 -4.169072e-01 -7.573543e-01 -1.047816e+00 -7.010162e-01 -6.705952e-01 -4.321015e-01 -1.154345e-01 -3.551244e-01 -1.603197e-01 1.111669e+00 3.456858e-01 -4.783968e-02 -1.412320e-01 -2.827168e-01 -2.422058e-01 -2.116871e-01 -1.200222e-01 -3.213824e-02 -3.470880e-02 3.931462e-02 -9.463681e-04 -2.738843e-02 2.620720e-01
<VARIANCE> 39
 7.654154e+01 1.190693e+02 5.969389e+01 6.849201e+01 1.036495e+02 1.037058e+02 7.197411e+01 9.744463e+01 5.456684e+01 7.464352e+01 4.322782e+01 3.559200e+01 1.676077e+02 5.293911e+00 7.286207e+00 5.037672e+00 5.018097e+00 7.462110e+00 7.155686e+00 6.488618e+00 5.350370e+00 3.909036e+00 3.976832e+00 3.288852e+00 2.227764e+00 3.368302e+00 7.717158e-01 1.282638e+00 9.938093e-01 9.530265e-01 1.173409e+00 1.051303e+00 1.293083e+00 1.156782e+00 7.847121e-01 7.689230e-01 4.347971e-01 4.564012e-01 5.707960e-01
<GCONST> 1.462434e+02
<STATE> 3
<MEAN> 39
 4.461125e+00 1.185674e+01 1.961795e+00 -1.358554e-01 -1.170222e+01 -1.044017e+01 -6.916148e+00 -5.492456e+00 -1.396495e+00 -2.272143e+00 -2.686126e+00 -2.442122e+00 5.591429e+01 1.031456e+00 -7.229665e-01 -1.303166e+00 -1.766569e+00 -1.032140e+00 -8.828279e-01 8.643341e-01 1.134745e+00 4.675630e-01 -2.211197e-02 -3.280592e-01 -5.325177e-02 1.315883e+00 -3.054912e-01 -4.792587e-01 -3.331590e-01 -2.853392e-02 4.623376e-01 4.243071e-01 5.024997e-01 2.101538e-01 -7.672118e-02 -1.878362e-01 1.034517e-02 3.583451e-02 6.164300e-04
<VARIANCE> 39
 3.507960e+01 5.939106e+01 3.594540e+01 8.143937e+01 9.424724e+01 1.025697e+02 1.296904e+02 6.751151e+01 6.155101e+01 7.625113e+01 3.607864e+01 4.462761e+01 8.051765e+01 9.382860e-01 2.290847e+00 2.081346e+00 3.088479e+00 3.819871e+00 6.517226e+00 6.986350e+00 5.350453e+00 4.337758e+00 3.707705e+00 1.722642e+00 2.960657e+00 9.431734e-01 1.682285e-01 2.835167e-01 3.412156e-01 3.439819e-01 7.560648e-01 6.851157e-01 9.531794e-01 7.022544e-01 7.378681e-01 6.370202e-01 3.758580e-01 4.572004e-01 8.124434e-02
<GCONST> 1.283204e+02
<STATE> 4
<MEAN> 39
 6.657195e+00 1.593214e+00 -1.071017e+01 -6.842369e+00 -9.440224e+00 -8.716133e+00 3.261779e+00 2.833528e+00 -7.053350e-01 -6.753204e+00 -2.459764e+00 -2.852602e+00 6.412878e+01 -1.326483e-02 -1.493098e+00 -1.260423e+00 -1.708439e-01 1.733752e+00 1.532336e+00 2.561542e-01 -4.248105e-01 -7.473715e-01 -4.875749e-01 7.132542e-01 2.449494e-01 6.843286e-01 -1.701131e-01 1.709786e-01 3.992815e-01 4.607798e-01 1.857178e-01 4.248092e-03 -4.560976e-01 -4.160115e-01 -1.279191e-02 2.221044e-01 1.502577e-01 -3.389484e-02 -2.019940e-01
<VARIANCE> 39
 3.484757e+01 8.562457e+01 5.578579e+01 1.179288e+02 1.162361e+02 2.501440e+02 1.882959e+02 1.104087e+02 7.878345e+01 5.063636e+01 5.663375e+01 4.786426e+01 7.122269e+01 4.213981e-01 1.740148e+00 1.847802e+00 2.308602e+00 3.773213e+00 3.462973e+00 5.521234e+00 3.644322e+00 3.603555e+00 3.416987e+00 3.247701e+00 2.976613e+00 7.769868e-01 9.825601e-02 1.972567e-01 1.991596e-01 3.100705e-01 5.356281e-01 7.874041e-01 7.055976e-01 4.939243e-01 5.959522e-01 5.122751e-01 4.901793e-01 5.100489e-01 6.832379e-02
<GCONST> 1.264895e+02
<TRANSP> 5
 0.000000e+00 1.000000e+00 0.000000e+00 0.000000e+00 0.000000e+00
 0.000000e+00 7.400807e-01 2.599194e-01 0.000000e+00 0.000000e+00
 0.000000e+00 0.000000e+00 7.532243e-01 2.467758e-01 0.000000e+00
 0.000000e+00 0.000000e+00 0.000000e+00 7.810363e-01 2.189638e-01
 0.000000e+00 0.000000e+00 0.000000e+00 0.000000e+00 0.000000e+00
<ENDHMM>
~h "z"
<BEGINHMM>
<NUMSTATES> 5
<STATE> 2
<MEAN> 39
 -9.315508e+00 8.240077e+00 -1.826653e+00 2.733541e+00 1.480517e+00 -5.079482e+00 -9.315540e-01 -3.796469e+00 -4.425725e+00 -3.011723e+00 -3.410928e-01 -3.247594e+00 4.803085e+01 2.333217e-01 8.016433e-01 1.299856e+00 -9.701322e-01 -3.346797e-01 -8.339138e-01 -1.463739e-01 -1.127902e+00 4.279602e-01 -7.475238e-01 -2.291228e-01 1.523671e-01 1.355385e+00 -2.186298e-02 -1.392643e-01 2.968436e-01 -2.163953e-01 -2.065968e-01 5.065375e-02 -9.182505e-02 -2.386752e-01 1.533267e-01 -5.301253e-02 -1.058777e-01 1.468899e-01 2.023140e-01
<VARIANCE> 39
 1.059051e+02 8.063045e+01 8.576106e+01 7.035415e+01 1.925859e+02 1.239888e+02 5.298111e+01 8.546836e+01 1.047364e+02 8.374644e+01 2.460689e+01 4.217823e+01 2.293657e+02 4.545290e+00 4.779044e+00 3.522624e+00 5.237114e+00 6.768678e+00 1.035989e+01 4.468884e+00 5.091394e+00 6.299888e+00 4.470068e+00 1.931527e+00 3.554575e+00 2.508848e+00 7.542508e-01 5.923367e-01 7.693313e-01 9.558040e-01 1.115480e+00 1.358834e+00 8.318298e-01 1.028207e+00 1.028010e+00 6.878286e-01 3.797857e-01 7.131905e-01 3.747180e-01
<GCONST> 1.454577e+02
<STATE> 3
<MEAN> 39
 -1.697218e+01 6.973772e+00 1.146707e+01 -3.438907e-02 3.670538e+00 -6.291672e+00 1.383659e+00 -9.923095e+00 -1.042912e+00 -5.267747e+00 -1.194109e+00 2.049560e-01 6.294341e+01 -2.200011e-02 -9.347147e-01 1.154614e+00 -1.687091e-01 -5.694904e-01 -2.378907e-01 -4.909894e-01 -1.897712e-01 1.691923e-01 1.784754e-01 -7.435640e-02 3.218745e-01 6.308541e-01 4.186925e-01 -7.711150e-02 -1.769922e-01 2.192968e-01 -1.338319e-01 -8.612070e-02 -2.387901e-01 3.533131e-02 -3.098714e-01 5.847463e-02 9.486555e-02 -1.102044e-01 -4.486188e-02
<VARIANCE> 39
 1.148178e+02 9.389900e+01 2.072769e+02 8.343721e+01 1.023890e+02 2.417053e+02 7.522295e+01 7.732880e+01 8.572960e+01 5.016210e+01 1.113015e+02 7.694552e+01 1.238435e+02 9.270989e+00 2.634892e+00 7.985998e+00 5.619709e+00 5.131899e+00 7.149312e+00 5.094593e+00 5.203750e+00 5.749208e+00 3.194260e+00 3.488572e+00 2.629269e+00 9.611378e-01 8.720840e-01 3.719571e-01 9.152372e-01 6.632292e-01 7.692311e-01 1.017859e+00 8.310006e-01 9.430271e-01 6.735621e-01 5.787245e-01 6.408527e-01 4.711329e-01 1.755688e-01
<GCONST> 1.447206e+02
<STATE> 4
<MEAN> 39
 -7.511468e+00 -3.327325e+00 1.765316e+01 1.204164e-01 -9.887103e+00 -1.638695e+00 -1.425443e+01 -1.064147e+01 -6.723131e+00 -2.456423e+00 -1.149737e+00 6.705922e-01 6.164712e+01 2.454085e+00 -1.617668e+00 -4.525371e-01 8.677946e-01 -1.003709e+00 -1.286987e+00 -1.114251e+00 4.987089e-01 -4.804801e-01 7.921736e-02 4.353514e-01 -3.926696e-01 1.050462e+00 -3.345215e-01 8.908441e-02 -7.266978e-01 1.518451e-01 4.781443e-01 -5.460050e-02 4.454735e-01 4.287828e-01 4.819212e-01 -4.175054e-02 5.493015e-02 -9.403481e-02 -2.179442e-01
<VARIANCE> 39
 5.972057e+01 7.519803e+01 9.238440e+01 9.073957e+01 1.051566e+02 2.622115e+02 1.390979e+02 9.693439e+01 1.549224e+02 4.686816e+01 4.637307e+01 5.301485e+01 1.029315e+02 4.758547e+00 3.448531e+00 1.103134e+01 7.983266e+00 6.357104e+00 9.616198e+00 6.096705e+00 7.142046e+00 5.693408e+00 4.185740e+00 3.938000e+00 2.855865e+00 2.368972e+00 6.366636e-01 6.497204e-01 5.432623e-01 8.217199e-01 7.637711e-01 1.426509e+00 9.389976e-01 8.566620e-01 7.711398e-01 7.854333e-01 4.442536e-01 4.552842e-01 1.730410e-01
<GCONST> 1.461277e+02
<TRANSP> 5
 0.000000e+00 1.000000e+00 0.000000e+00 0.000000e+00 0.000000e+00
 0.000000e+00 7.252014e-01 2.747986e-01 0.000000e+00 0.000000e+00
 0.000000e+00 0.000000e+00 8.474491e-01 1.525510e-01 0.000000e+00
 0.000000e+00 0.000000e+00 0.000000e+00 7.337738e-01 2.662262e-01
 0.000000e+00 0.000000e+00 0.000000e+00 0.000000e+00 0.000000e+00
<ENDHMM>
~h "aa"
<BEGINHMM>
<NUMSTATES> 5
<STATE> 2
<MEAN> 39
 -6.899957e+00 -8.602314e-01 1.729542e+00 7.228288e+00 4.096306e+00 -4.715950e+00 9.752439e+00 -5.556907e+00 -2.077640e+00 -9.306384e-01 1.062333e-01 -5.160040e+00 6.387106e+01 -1.575128e+00 -8.400991e-01 1.691070e+00 3.224135e-01 9.928901e-02 -1.328609e-01 -2.533379e-01 -5.951174e-01 -2.086713e-01 1.613889e-01 2.899473e-01 -2.424616e-01 3.894134e-01 -3.907285e-02 3.502549e-02 6.149875e-02 -5.163176e-02 -1.265378e-01 -1.195560e-01 -2.047533e-01 9.756397e-02 -3.294830e-04 -1.314802e-01 7.144687e-02 -4.775923e-02 6.737836e-02
<VARIANCE> 39
 1.011343e+02 7.417068e+01 1.253897e+02 5.703778e+01 6.102134e+01 9.895590e+01 1.488939e+02 9.985569e+01 4.350319e+01 7.362528e+01 4.053949e+01 4.369463e+01 8.076587e+01 5.314100e+00 5.749630e+00 6.649389e+00 5.908234e+00 5.591983e+00 7.471086e+00 6.631229e+00 1.050437e+01 4.197961e+00 6.215869e+00 3.117592e+00 2.324916e+00 3.928778e+00 7.765489e-01 9.085963e-01 7.802688e-01 1.040626e+00 7.315785e-01 1.052751e+00 8.176905e-01 1.739556e+00 8.399831e-01 1.118147e+00 5.526253e-01 3.252612e-01 6.239552e-01
<GCONST> 1.466916e+02
<STATE> 3
<MEAN> 39
 -1.625020e+01 -7.586133e+00 9.888158e+00 6.017228e+00 -2.170547e+00 -6.419701e+00 5.848598e+00 -5.058455e+00 -1.380550e+00 -9.473100e-01 3.078346e+00 -2.218606e+00 6.611258e+01 3.798354e-01 3.202168e-01 2.016316e-01 5.276166e-01 2.413548e-02 -3.819751e-02 -4.555398e-01 3.049368e-01 -3.732148e-01 1.838667e-01 -2.046603e-01 -5.020431e-02 -6.923594e-01 6.052440e-01 4.613492e-01 -2.611414e-01 2.626845e-01 2.232046e-02 4.089258e-02 -1.439712e-01 -8.332646e-02 -6.861976e-02 -7.923168e-03 -1.589200e-01 -1.740140e-01 -2.475056e-01
<VARIANCE> 39
 7.440314e+01 4.271560e+01 5.362698e+01 5.126699e+01 9.225483e+01 6.452754e+01 6.192752e+01 4.710572e+01 4.080408e+01 5.252225e+01 3.602526e+01 5.619587e+01 5.301900e+01 5.647148e+00 2.239467e+00 2.573306e+00 2.676485e+00 2.221529e+00 2.908685e+00 2.988973e+00 2.296750e+00 2.815063e+00 2.069744e+00 1.858979e+00 1.610903e+00 1.376869e+00 4.538867e-01 3.630628e-01 6.072300e-01 3.874145e-01 4.070281e-01 5.686458e-01 2.855442e-01 4.591525e-01 7.684165e-01 4.422300e-01 3.819329e-01 3.055981e-01 2.123277e-01
<GCONST> 1.235003e+02
<STATE> 4
<MEAN> 39
 -4.368474e+00 2.977612e+00 4.035421e+00 1.225343e+01 1.900422e-01 -6.730200e+00 -2.843683e-01 -7.096299e+00 -5.454321e+00 -3.841733e+00 1.315929e-01 -5.496624e+00 6.058688e+01 9.868942e-01 9.406552e-01 -1.109757e+00 -5.086913e-01 -4.935142e-01 6.342267e-01 3.155736e-01 -4.947432e-03 -7.389925e-02 -3.777278e-01 2.134196e-01 2.080267e-01 -3.993795e-01 -3.368106e-01 -1.808292e-01 -1.247116e-01 -3.140256e-01 9.510598e-02 1.635007e-01 1.738842e-01 4.679702e-02 4.860337e-01 1.166073e-01 7.048813e-02 2.332975e-01 2.585060e-02
<VARIANCE> 39
 5.729321e+01 5.458227e+01 4.839994e+01 4.330497e+01 5.287569e+01 4.546998e+01 5.800800e+01 5.411902e+01 3.935412e+01 5.198114e+01 4.279777e+01 6.495104e+01 4.272758e+01 4.514585e+00 3.664242e+00 3.733438e+00 4.119916e+00 2.008865e+00 3.745363e+00 3.849782e+00 3.384505e+00 6.854008e+00 2.977194e+00 1.759450e+00 2.247124e+00 1.546094e+00 4.332069e-01 6.900311e-01 6.068168e-01 5.607426e-01 3.579034e-01 5.930781e-01 7.197824e-01 5.592490e-01 1.184144e+00 4.734835e-01 3.300873e-01 4.325255e-01 2.644648e-01
<GCONST> 1.288681e+02
<TRANSP> 5
 0.000000e+00 1.000000e+00 0.000000e+00 0.000000e+00 0.000000e+00
 0.000000e+00 7.408636e-01 2.591365e-01 0.000000e+00 0.000000e+00
 0.000000e+00 0.000000e+00 6.928519e-01 3.071482e-01 0.000000e+00
 0.000000e+00 0.000000e+00 0.000000e+00 6.742618e-01 3.257383e-01
 0.000000e+00 0.000000e+00 0.000000e+00 0.000000e+00 0.000000e+00
<ENDHMM>
~h "ae"
<BEGINHMM>
<NUMSTATES> 5
<STATE> 2
<MEAN> 39
 -1.258579e+01 -1.276353e+01 3.645522e+00 7.489109e+00 1.057333e+01 -1.211195e+01 4.252193e+00 -4.415021e+00 -4.582284e+00 -7.230467e+00 3.633714e+00 -9.719490e-01 6.670253e+01 -5.078769e-01 -2.802005e-01 5.642803e-01 3.444569e-01 2.552868e-01 -1.782052e-01 -7.124102e-01 2.475962e-01 -2.617257e-02 -2.795989e-01 6.490100e-02 -8.013248e-02 -4.793029e-02 1.875830e-01 9.205120e-02 -2.800719e-01 -1.097813e-01 1.216913e-01 -4.637485e-02 -3.485674e-02 -1.224319e-01 2.449829e-01 1.184338e-01 -2.378847e-01 8.868445e-02 1.985027e-03
<VARIANCE> 39
 1.377390e+02 1.270712e+02 6.364969e+01 2.725485e+01 5.953288e+01 5.174092e+01 8.480116e+01 4.015050e+01 8.116211e+01 2.330571e+01 2.958624e+01 3.134085e+01 2.813647e+01 1.407752e+01 8.374855e+00 8.071059e+00 2.872883e+00 2.721425e+00 4.457967e+00 3.718731e+00 4.292796e+00 8.495059e+00 2.485729e+00 3.157635e+00 2.039310e+00 2.142556e+00 1.495948e+00 6.919646e-01 1.080610e+00 7.061287e-01 4.466543e-01 1.027591e+00 7.724091e-01 6.848384e-01 1.392187e+00 4.764363e-01 5.190943e-01 3.772683e-01 4.384475e-01
<GCONST> 1.371232e+02
<STATE> 3
<MEAN> 39
 -5.758986e+00 -5.539847e+00 3.065690e+00 1.654600e+01 1.408421e+00 -1.224535e+01 -7.938993e+00 -7.032833e+00 7.599270e+00 -2.630764e+00 -7.927509e+00 -5.768592e-01 6.440910e+01 -1.728686e-02 1.691965e-01 -3.188196e-01 -5.544612e-01 -1.040319e-01 1.074388e-01 8.040778e-02 8.638392e-02 2.735497e-01 5.579848e-03 -4.494193e-01 -3.807401e-01 -6.911890e-02 2.181352e-01 1.105053e-01 -1.137954e-01 -4.159390e-01 -2.850643e-01 -1.481102e-01 2.034382e-02 5.018063e-02 -2.021113e-01 -1.074544e-01 6.848183e-02 9.537964e-02 1.303286e-01
<VARIANCE> 39
 4.990111e+01 1.703229e+02 2.199539e+01 2.610110e+01 4.517770e+01 2.729889e+01 5.245768e+01 1.966304e+01 7.460775e+01 3.226232e+01 3.459112e+01 3.082944e+01 1.304448e+01 4.255464e+00 1.331755e+01 2.688731e+00 4.047444e+00 3.624265e+00 2.779378e+00 3.819843e+00 2.282094e+00 4.737860e+00 2.799135e+00 3.432079e+00 1.735527e+00 1.260739e+00 3.095859e-01 1.159477e+00 5.107459e-01 5.048992e-01 3.971242e-01 5.349411e-01 8.319358e-01 4.517228e-01 6.015370e-01 3.528927e-01 3.973405e-01 2.812728e-01 1.777748e-01
<GCONST> 1.235851e+02
<STATE> 4
<MEAN> 39
 -7.947486e+00 -4.512169e+00 -1.067094e-02 3.359686e+00 4.775033e+00 -1.523921e+01 3.827257e+00 -1.674533e+00 -2.406643e+00 -1.377550e+01 -1.520931e+00 5.278719e-01 6.537521e+01 -9.276286e-01 -8.770316e-01 6.557588e-01 -1.722614e-01 -2.812950e-01 -5.144825e-01 2.358570e-01 2.754394e-01 2.214716e-01 1.052434e-01 5.063690e-01 5.018489e-02 2.446000e-01 -3.682697e-02 4.951975e-02 1.481352e-01 2.244948e-01 1.298534e-01 1.084820e-01 -6.686030e-02 -1.129217e-01 -3.529566e-02 1.352669e-01 1.011832e-01 -6.740826e-02 -8.458588e-02
<VARIANCE> 39
 2.122146e+02 1.685507e+02 9.507894e+01 1.648123e+01 1.161002e+02 3.886887e+01 5.683024e+01 5.954498e+01 6.355320e+01 3.219450e+01 9.219470e+01 1.647577e+01 1.587540e+01 4.364550e+00 3.573624e+00 3.004851e+00 2.352551e+00 4.135412e+00 3.539049e+00 3.070420e+00 4.854033e+00 4.402164e+00 2.351433e+00 3.255941e+00 1.444179e+00 1.096969e+00 4.493920e-01 4.009671e-01 5.366162e-01 3.557536e-01 5.503705e-01 6.811166e-01 4.970348e-01 7.169639e-01 8.029509e-01 3.681319e-01 4.221008e-01 2.301961e-01 1.689667e-01
<GCONST> 1.271293e+02
<TRANSP> 5
 0.000000e+00 1.000000e+00 0.000000e+00 0.000000e+00 0.000000e+00
 0.000000e+00 8.736072e-01 1.263928e-01 0.000000e+00 0.000000e+00
 0.000000e+00 0.000000e+00 8.283594e-01 1.716407e-01 0.000000e+00
 0.000000e+00 0.000000e+00 0.000000e+00 8.842738e-01 1.157262e-01
 0.000000e+00 0.000000e+00 0.000000e+00 0.000000e+00 0.000000e+00
<ENDHMM>
~h "ah"
<BEGINHMM>
<NUMSTATES> 5
<STATE> 2
<MEAN> 39
 3.011606e+00 -4.284050e+00 -5.231832e+00 -2.818818e+00 -1.328711e+00 -1.890257e+00 -4.968408e+00 -3.976953e+00 -1.851350e+00 -4.731843e+00 -1.045151e+00 -3.751780e+00 5.972457e+01 -2.744881e-01 -1.421342e-01 5.675264e-01 8.889354e-01 2.065702e-02 -4.941089e-01 1.269268e-01 4.892939e-02 -1.503008e-01 2.375881e-01 -2.025842e-01 -1.566275e-01 -2.588936e-01 -9.626868e-02 3.145542e-01 1.377257e-01 8.721100e-02 -2.099916e-02 1.025334e-01 2.592221e-02 -5.678082e-03 4.536860e-02 -2.552154e-02 -4.809717e-02 -1.708714e-02 -2.380565e-01
<VARIANCE> 39
 2.443177e+01 7.714960e+01 7.151539e+01 1.268298e+02 1.355604e+02 1.163194e+02 1.156215e+02 8.425074e+01 7.686761e+01 6.519624e+01 1.206332e+02 7.848318e+01 7.300250e+01 6.383125e-01 2.823794e+00 1.614413e+00 2.571616e+00 3.211087e+00 4.133248e+00 3.247865e+00 4.102839e+00 3.781774e+00 3.668660e+00 3.521233e+00 2.741989e+00 1.258645e+00 1.282678e-01 2.882316e-01 3.139195e-01 2.852903e-01 5.523866e-01 7.044997e-01 5.529839e-01 7.394855e-01 6.469620e-01 6.753393e-01 6.605654e-01 4.703122e-01 1.003105e-01
<GCONST> 1.296177e+02
<STATE> 3
<MEAN> 39
 5.029601e-01 1.231088e+00 -2.607601e+00 6.674284e+00 3.080538e+00 -6.397004e+00 6.394345e-01 -8.906020e+00 -7.935319e+00 -3.842069e+00 1.098190e+00 -5.089234e+00 6.197148e+01 -2.784422e-01 1.150393e+00 7.513797e-01 9.767693e-01 1.508661e-01 5.609336e-01 -8.486046e-01 -4.956090e-01 6.823731e-01 -2.265706e-01 -4.989406e-01 -1.372753e-01 -1.007414e+00 -3.388884e-02 3.142973e-02 1.160431e-01 9.942550e-03 -8.416405e-02 6.644560e-03 -9.323532e-02 1.095654e-01 1.440763e-01 -1.825498e-01 -1.630480e-01 1.017277e-01 -3.000761e-02
<VARIANCE> 39
 1.861671e+01 7.412620e+01 4.965990e+01 1.015170e+02 1.032993e+02 5.853289e+01 1.119516e+02 9.556018e+01 4.440711e+01 5.765374e+01 5.157086e+01 4.175779e+01 7.520502e+01 4.593315e-01 1.012539e+00 9.659674e-01 2.220776e+00 2.205931e+00 2.398244e+00 3.103341e+00 3.421257e+00 2.661110e+00 3.281765e+00 3.088485e+00 1.965948e+00 4.432274e-01 6.126464e-02 2.042902e-01 1.540091e-01 3.573875e-01 3.270985e-01 5.049598e-01 5.405982e-01 5.419551e-01 3.507379e-01 4.610166e-01 3.868083e-01 2.822305e-01 8.635274e-02
<GCONST> 1.156486e+02
<STATE> 4
<MEAN> 39
 3.369855e+00 9.323563e+00 3.988788e+00 8.911429e+00 -3.831157e+00 -6.906562e+00 -7.132698e+00 -9.152017e+00 -1.411582e+00 -5.921267e+00 -4.849523e+00 -1.212197e+00 5.992719e+01 -2.643431e-01 3.252984e-01 3.303266e-01 1.794372e-01 2.733855e-02 2.127530e-01 1.505913e-01 6.472904e-02 1.498314e-01 -5.810428e-04 -1.204250e-01 -3.048416e-03 -3.146804e-01 -3.830434e-02 -6.056524e-02 -2.377410e-02 -3.619098e-02 1.441002e-02 2.597311e-02 8.981381e-02 -2.855295e-04 -8.245556e-02 3.271193e-02 4.145046e-02 -6.388990e-03 1.143450e-02
<VARIANCE> 39
 3.026122e+01 6.583459e+01 3.283641e+01 6.012534e+01 8.603383e+01 4.387197e+01 6.174854e+01 3.586676e+01 3.331597e+01 4.475482e+01 3.399747e+01 2.333528e+01 5.877318e+01 4.115342e-01 8.799264e-01 8.030521e-01 1.304587e+00 1.311515e+00 1.262559e+00 1.789850e+00 1.681884e+00 1.895602e+00 1.700534e+00 1.582260e+00 1.456939e+00 3.076989e-01 4.927001e-02 1.214954e-01 1.202082e-01 2.005829e-01 1.958051e-01 2.059127e-01 3.085060e-01 3.324817e-01 3.349992e-01 3.223343e-01 2.921241e-01 2.476778e-01 3.965630e-02
<GCONST> 9.991142e+01
<TRANSP> 5
 0.000000e+00 1.000000e+00 0.000000e+00 0.000000e+00 0.000000e+00
 0.000000e+00 7.043415e-01 2.956584e-01 0.000000e+00 0.000000e+00
 0.000000e+00 0.000000e+00 6.623905e-01 3.376095e-01 0.000000e+00
 0.000000e+00 0.000000e+00 0.000000e+00 8.406429e-01 1.593571e-01
 0.000000e+00 0.000000e+00 0.000000e+00 0.000000e+00 0.000000e+00
<ENDHMM>
~h "ao"
<BEGINHMM>
<NUMSTATES> 5
<STATE> 2
<MEAN> 39
 5.191766e+00 1.156369e+01 -2.809448e+00 -4.242621e+00 -1.136813e+01 -1.571446e+01 -3.516211e-01 -3.165626e+00 -3.324586e-01 -2.143202e+00 -4.613350e+00 -8.373793e+00 6.438895e+01 1.941916e+00 4.258830e-01 3.186560e-01 -2.892160e-01 -2.437005e+00 -2.285025e+00 -1.025853e+00 7.268481e-01 3.510147e-02 1.110632e+00 -1.413188e-01 -7.074701e-01 5.974381e-01 -1.275401e+00 -7.687567e-01 -2.166303e-01 4.016859e-01 1.202370e+00 9.360344e-01 4.362185e-01 7.165849e-02 -5.999841e-03 -9.813400e-02 2.119316e-01 4.213968e-01 -2.713009e-01
<VARIANCE> 39
 2.098162e+01 7.805431e+01 2.896789e+01 1.094615e+02 5.033270e+01 1.606684e+02 1.188206e+02 3.523552e+01 3.887959e+01 4.494294e+01 2.521172e+01 6.406822e+01 4.054557e+01 4.276292e+00 3.384939e+00 1.099549e+00 2.391203e+00 6.745278e+00 6.392424e+00 3.812772e+00 2.583655e+00 3.468066e+00 2.837116e+00 1.479829e+00 1.941091e+00 5.735901e-01 3.617706e-01 5.871409e-01 2.714719e-01 5.155090e-01 8.355167e-01 6.934870e-01 6.328228e-01 3.371828e-01 4.045396e-01 4.792805e-01 3.794613e-01 4.044728e-01 1.410451e-01
<GCONST> 1.244301e+02
<STATE> 3
<MEAN> 39
 6.676151e+00 1.276052e+01 -3.436385e+00 5.227535e-01 -1.366644e+01 -1.645809e+01 -3.681756e+00 -3.754977e+00 6.120090e-01 -4.401024e+00 -4.133561e+00 -7.887726e+00 6.385001e+01 1.200340e-01 -3.954080e-01 -5.773866e-01 -3.603781e-01 3.593981e-01 8.246803e-01 4.745769e-01 -1.587120e-01 -6.861246e-01 -2.724613e-01 2.613426e-01 4.391434e-02 1.370281e-01 -5.962500e-02 -5.581304e-02 -1.241812e-01 -5.227578e-02 3.025437e-01 2.157047e-01 1.006423e-01 -1.748240e-01 -2.156975e-01 7.677921e-03 6.725908e-02 1.071996e-01 2.130320e-03
<VARIANCE> 39
 1.494768e+01 5.828204e+01 3.222744e+01 7.373152e+01 3.599875e+01 8.111925e+01 1.340170e+02 2.639381e+01 5.469990e+01 4.725522e+01 2.765386e+01 4.699356e+01 2.980887e+01 1.432122e-01 5.119748e-01 8.223518e-01 8.104260e-01 1.444881e+00 1.559744e+00 1.949937e+00 1.565350e+00 1.995548e+00 1.278663e+00 1.214543e+00 1.217093e+00 1.387641e-01 4.851523e-02 7.656360e-02 1.010051e-01 1.623307e-01 2.294664e-01 3.021358e-01 3.614923e-01 2.728539e-01 2.364172e-01 2.319060e-01 2.706619e-01 2.205512e-01 2.486794e-02
<GCONST> 9.494746e+01
<STATE> 4
<MEAN> 39
 7.489407e+00 -8.154460e-01 -8.640853e+00 -1.473083e+01 -9.818148e+00 -7.361146e-02 5.396468e-01 -3.498506e+00 -3.981402e+00 2.316373e-01 -5.665591e-01 -4.695523e+00 6.229116e+01 2.596577e-03 -8.723293e-01 -5.594864e-01 8.505718e-01 8.448242e-01 5.190729e-04 -4.336337e-03 -1.660597e-01 -4.843927e-01 5.252268e-01 4.136244e-01 -2.603101e-02 -9.098818e-04 -1.646262e-02 5.819420e-03 4.149072e-02 1.831070e-01 3.905799e-02 -1.315460e-01 -7.308473e-02 2.886891e-02 8.601459e-02 -2.187063e-02 -8.486100e-03 -2.468803e-02 -2.461774e-02
<VARIANCE> 39
 1.227344e+01 1.003419e+02 4.534798e+01 1.190361e+02 1.423374e+02 2.897840e+02 9.635324e+01 1.137766e+02 9.759508e+01 6.328755e+01 5.376533e+01 6.797701e+01 8.328668e+01 1.775237e-01 1.299133e+00 1.012291e+00 2.179878e+00 2.481138e+00 3.949286e+00 2.199775e+00 5.706362e+00 3.159487e+00 2.880448e+00 3.641184e+00 2.533742e+00 2.987494e-01 3.103879e-02 1.968550e-01 1.547372e-01 1.687842e-01 3.116092e-01 4.505303e-01 4.283675e-01 6.608325e-01 4.217616e-01 5.954499e-01 5.554655e-01 4.351888e-01 3.197255e-02
<GCONST> 1.178173e+02
<TRANSP> 5
 0.000000e+00 1.000000e+00 0.000000e+00 0.000000e+00 0.000000e+00
 0.000000e+00 5.832813e-01 4.167188e-01 0.000000e+00 0.000000e+00
 0.000000e+00 0.000000e+00 8.310847e-01 1.689152e-01 0.000000e+00
 0.000000e+00 0.000000e+00 0.000000e+00 8.663933e-01 1.336067e-01
 0.000000e+00 0.000000e+00 0.000000e+00 0.000000e+00 0.000000e+00
<ENDHMM>
~h "ay"
<BEGINHMM>
<NUMSTATES> 5
<STATE> 2
<MEAN> 39
 3.558763e+00 -1.277559e+00 -3.306276e+00 1.752523e+00 -2.659477e+00 -5.584643e+00 -3.628101e+00 -4.775957e+00 -3.109840e+00 -3.337693e+00 -2.165946e+00 -2.745035e+00 6.232355e+01 1.253319e+00 -2.338208e+00 -1.624151e+00 -2.023139e+00 -1.111781e-01 -6.545627e-01 5.228805e-01 7.558898e-01 -1.252121e-01 1.938958e-01 6.741320e-02 3.674094e-01 2.535403e+00 -5.527809e-01 -1.212220e-01 3.087185e-02 1.398578e-02 3.226624e-01 3.583761e-01 1.171915e-01 1.328691e-01 2.068173e-01 1.002391e-02 -1.239375e-02 3.022979e-03 -3.026706e-01
<VARIANCE> 39
 4.666451e+01 1.080184e+02 1.096426e+02 1.161473e+02 1.302946e+02 1.129823e+02 1.293266e+02 9.194070e+01 5.931746e+01 6.267917e+01 8.167755e+01 5.857091e+01 1.475254e+02 5.294556e+00 6.346653e+00 6.348965e+00 4.548532e+00 9.484241e+00 7.321321e+00 8.790223e+00 7.564800e+00 5.250278e+00 6.190313e+00 6.213455e+00 5.824743e+00 2.324828e+00 1.063077e+00 1.149894e+00 1.115472e+00 9.528022e-01 1.439159e+00 1.199713e+00 1.227099e+00 1.385731e+00 9.162531e-01 8.846605e-01 9.838915e-01 8.544692e-01 7.293780e-01
<GCONST> 1.541917e+02
<STATE> 3
<MEAN> 39
 6.436893e+00 -1.066155e+01 -1.170131e+01 -7.636432e+00 2.722503e+00 -4.618102e+00 -2.086303e+00 -1.931924e+00 -1.510991e-01 -1.653990e+00 -1.555366e+00 -4.695282e+00 7.013852e+01 1.607705e-02 -1.346033e-01 -1.718313e-03 4.473826e-01 1.823002e-01 1.515844e-02 -1.426907e-01 2.140493e-02 2.783579e-01 -1.763733e-01 -2.689252e-01 1.291577e-01 -2.381511e-01 -6.405781e-02 2.241969e-01 1.176881e-01 2.182625e-01 2.921245e-03 -8.900093e-02 -1.018452e-01 -2.140518e-02 -1.118477e-02 3.614175e-02 1.610970e-02 6.237712e-03 -1.792121e-01
<VARIANCE> 39
 2.326445e+01 6.709184e+01 7.588154e+01 1.370367e+02 1.041606e+02 2.176489e+02 2.436758e+02 6.912273e+01 7.240024e+01 8.665536e+01 8.170630e+01 7.700652e+01 4.357729e+01 6.927749e-01 1.137097e+00 2.301626e+00 2.437476e+00 2.881343e+00 5.048953e+00 2.975497e+00 2.974182e+00 2.627270e+00 2.632339e+00 2.847749e+00 2.653951e+00 5.103921e-01 1.803736e-01 2.454571e-01 3.678118e-01 3.722683e-01 4.798254e-01 7.389652e-01 6.369923e-01 5.423384e-01 4.782520e-01 5.461324e-01 5.332967e-01 5.055280e-01 1.685366e-01
<GCONST> 1.272942e+02
<STATE> 4
<MEAN> 39
 4.280298e+00 -5.257139e+00 -8.520171e+00 2.060912e-01 -2.201871e-01 -5.954795e+00 -1.360482e+00 -4.365185e+00 -9.936954e-01 -3.935209e+00 -4.835640e+00 4.703605e-01 6.700509e+01 -1.346104e-01 1.074589e-01 4.261088e-01 4.400659e-01 1.242522e-01 -3.407252e-01 -3.022342e-01 -1.181908e-01 -1.132047e-01 1.634830e-01 1.262324e-01 -2.661196e-02 -1.344091e-01 -4.569717e-02 7.835416e-02 1.528597e-01 7.083814e-02 -4.516710e-02 -1.827679e-02 4.956126e-02 -2.994716e-02 -5.694520e-02 -1.137441e-02 -2.950022e-03 -5.297364e-02 -4.265807e-02
<VARIANCE> 39
 3.214401e+01 1.029002e+02 6.200523e+01 4.631360e+01 9.832552e+01 1.086544e+02 1.268441e+02 5.637272e+01 4.402773e+01 5.247316e+01 6.201844e+01 4.603603e+01 5.406933e+01 1.537684e-01 4.082791e-01 9.834087e-01 1.111879e+00 1.317143e+00 1.399682e+00 1.631751e+00 1.363423e+00 1.488908e+00 1.412827e+00 1.393045e+00 1.078803e+00 1.297217e-01 2.484197e-02 6.330083e-02 9.969720e-02 1.392055e-01 1.569500e-01 2.186331e-01 2.344597e-01 1.995712e-01 2.093236e-01 2.164420e-01 2.052584e-01 1.761097e-01 1.965771e-02
<GCONST> 9.591818e+01
<TRANSP> 5
 0.000000e+00 1.000000e+00 0.000000e+00 0.000000e+00 0.000000e+00
 0.000000e+00 7.098347e-01 2.901653e-01 0.000000e+00 0.000000e+00
 0.000000e+00 0.000000e+00 8.352868e-01 1.647132e-01 0.000000e+00
 0.000000e+00 0.000000e+00 0.000000e+00 9.080974e-01 9.190257e-02
 0.000000e+00 0.000000e+00 0.000000e+00 0.000000e+00 0.000000e+00
<ENDHMM>
~h "eh"
<BEGINHMM>
<NUMSTATES> 5
<STATE> 2
<MEAN> 39
 -1.008381e+01 9.272774e-01 2.471160e+00 2.651566e+00 2.364974e+00 -1.380641e+00 3.427773e+00 -7.170660e+00 -1.933593e-02 -1.912617e+00 -2.212923e-01 -1.947608e+00 6.326353e+01 2.621459e+00 -1.993810e-01 -5.450007e-01 6.845785e-02 -4.854709e-01 -1.345900e+00 -1.027205e+00 -2.350193e-01 -7.542411e-01 -1.580037e-01 -4.871637e-01 1.103832e-01 9.331910e-01 2.181715e-01 -7.946582e-02 -1.554973e-01 -6.855192e-02 -8.630151e-02 -1.936915e-01 -1.218909e-01 2.725579e-01 9.111488e-02 -1.033690e-01 -2.834362e-02 -2.150171e-03 1.484365e-01
<VARIANCE> 39
 1.378218e+02 4.761345e+01 8.281578e+01 9.132353e+01 8.180235e+01 9.365877e+01 9.343764e+01 8.147904e+01 5.353870e+01 3.525538e+01 5.683744e+01 5.485377e+01 9.381667e+01 1.142823e+01 4.369917e+00 5.168264e+00 4.343547e+00 4.423951e+00 6.768946e+00 5.796317e+00 5.093762e+00 5.317751e+00 3.872175e+00 3.565829e+00 2.286278e+00 2.697041e+00 1.525420e+00 6.275753e-01 4.543661e-01 4.903162e-01 5.418084e-01 9.865464e-01 8.092046e-01 8.297010e-01 8.206090e-01 5.659245e-01 5.041093e-01 3.205638e-01 4.126949e-01
<GCONST> 1.412855e+02
<STATE> 3
<MEAN> 39
 -5.858482e-01 -7.098083e+00 -3.451636e+00 -2.407546e+00 -1.412334e+00 -7.822176e+00 8.706852e-01 2.441128e+00 -1.379156e+00 -2.342623e+00 -6.395409e-01 -3.938753e-01 7.386404e+01 5.978694e-01 -5.111303e-01 -6.306683e-01 -7.872301e-04 -2.510455e-02 2.906456e-01 5.543046e-03 4.591954e-01 3.674600e-01 -3.419954e-01 -2.833903e-01 -1.368659e-01 6.737251e-03 -4.725212e-01 1.818830e-01 9.743586e-02 1.353167e-01 1.548075e-01 3.383185e-01 1.578862e-01 -1.699697e-01 -7.679380e-04 4.603795e-02 7.477709e-02 3.125825e-02 -2.975205e-01
<VARIANCE> 39
 3.698869e+01 6.954906e+01 3.921839e+01 8.094359e+01 9.626147e+01 6.582242e+01 7.710182e+01 1.172636e+02 8.971589e+01 5.667545e+01 7.949430e+01 6.239312e+01 1.615725e+02 1.446592e+00 2.937126e+00 2.202332e+00 2.880782e+00 3.855547e+00 3.688332e+00 2.409842e+00 4.025554e+00 2.970983e+00 2.601840e+00 2.688701e+00 3.196476e+00 1.826861e+00 5.269960e-01 3.514728e-01 2.979787e-01 4.558952e-01 8.287173e-01 7.052665e-01 6.201675e-01 6.148721e-01 6.867041e-01 5.442973e-01 5.847796e-01 5.722582e-01 2.923176e-01
<GCONST> 1.321121e+02
<STATE> 4
<MEAN> 39
 1.535600e-01 -3.801579e-01 -6.531735e+00 8.748180e+00 -1.421799e+00 4.351394e+00 2.144623e+00 5.999884e-01 -5.493118e-01 -1.992840e+00 -1.799021e+00 -4.710492e+00 6.838923e+01 6.589241e-02 3.888642e-02 -9.901305e-02 3.870911e-02 4.638469e-02 -2.180263e-04 -6.804140e-02 -1.333849e-03 1.264937e-01 7.670773e-02 -1.572008e-01 -1.298195e-02 -7.491602e-02 -4.966130e-02 8.317105e-02 8.263551e-02 -2.079223e-02 -2.196339e-03 -3.173234e-02 1.221209e-04 -7.394866e-03 -1.468705e-02 4.620094e-02 5.359488e-02 -2.659770e-02 -3.399959e-02
<VARIANCE> 39
 1.862821e+01 3.541567e+01 6.030264e+01 8.629530e+01 5.994269e+01 1.105740e+02 5.697928e+01 4.673882e+01 4.966621e+01 4.213190e+01 3.900763e+01 4.290825e+01 4.150765e+01 4.766041e-01 8.806521e-01 1.051847e+00 1.244402e+00 1.750592e+00 1.697530e+00 2.032439e+00 1.812038e+00 1.460564e+00 1.696011e+00 1.953838e+00 1.651720e+00 1.862303e-01 1.078181e-01 1.744721e-01 2.268613e-01 2.638712e-01 3.970046e-01 3.600198e-01 3.923431e-01 3.816051e-01 2.555363e-01 3.176859e-01 3.923456e-01 3.013057e-01 3.716829e-02
<GCONST> 1.058271e+02
<TRANSP> 5
 0.000000e+00 1.000000e+00 0.000000e+00 0.000000e+00 0.000000e+00
 0.000000e+00 7.804260e-01 2.195741e-01 0.000000e+00 0.000000e+00
 0.000000e+00 0.000000e+00 6.777592e-01 3.222408e-01 0.000000e+00
 0.000000e+00 0.000000e+00 0.000000e+00 8.487980e-01 1.512019e-01
 0.000000e+00 0.000000e+00 0.000000e+00 0.000000e+00 0.000000e+00
<ENDHMM>
~h "er"
<BEGINHMM>
<NUMSTATES> 5
<STATE> 2
<MEAN> 39
 -6.809919e-01 5.086843e+00 -5.972093e+00 5.899034e+00 1.473114e+00 -1.852551e+00 -1.550735e+00 -1.662680e+01 -1.000315e+01 -3.311820e+00 3.687345e+00 1.853558e-01 6.167189e+01 -9.275874e-01 -5.850120e-01 6.622132e-01 5.891765e-01 -1.595119e-04 -1.147727e-01 6.029587e-02 4.900584e-01 8.292447e-01 3.103843e-01 -1.881997e-01 -4.736280e-02 -3.484600e-01 -2.594061e-01 -1.032653e-01 2.614466e-01 2.832781e-02 -5.119446e-02 3.842326e-03 2.169296e-01 2.586804e-01 2.569452e-01 5.539628e-02 -1.309095e-01 3.483555e-02 -5.186565e-02
<VARIANCE> 39
 4.573152e+01 2.769386e+01 5.112957e+01 3.892597e+01 5.039207e+01 4.734060e+01 4.212319e+01 4.303707e+01 6.480953e+01 6.889339e+01 4.312785e+01 3.052750e+01 2.007605e+01 1.247970e+00 2.203968e+00 1.921420e+00 1.312856e+00 1.982180e+00 3.387111e+00 3.268972e+00 2.448149e+00 2.122513e+00 2.079793e+00 1.714446e+00 9.898619e-01 6.097723e-01 1.689140e-01 3.422725e-01 2.241353e-01 3.162788e-01 3.635282e-01 6.054560e-01 5.831408e-01 3.718202e-01 3.504983e-01 3.487418e-01 3.349710e-01 2.217712e-01 1.134467e-01
<GCONST> 1.123060e+02
<STATE> 3
<MEAN> 39
 -1.467548e+01 -4.740035e+00 4.297136e+00 6.386662e+00 -2.519319e+00 -9.680967e-01 6.895715e+00 -7.591436e+00 1.899274e-01 1.991386e+00 3.001541e+00 9.564363e-01 5.991993e+01 -2.733994e-01 1.309436e-01 1.405852e-02 -4.682358e-02 -1.298313e-01 1.494291e-01 2.544261e-01 3.599715e-01 3.298029e-01 -2.508054e-02 -6.886990e-02 9.875268e-02 -3.318034e-01 7.412773e-02 1.252953e-01 -5.014718e-02 3.797418e-02 6.943858e-02 -1.339409e-02 -5.146554e-02 -4.618666e-02 -5.761045e-02 -3.759106e-02 -7.541777e-03 -1.386362e-03 -3.078996e-02
<VARIANCE> 39
 7.301994e+01 5.011603e+01 1.578115e+02 5.725697e+01 5.281408e+01 7.373318e+01 5.375888e+01 3.438458e+01 4.086746e+01 5.296736e+01 4.287307e+01 3.306945e+01 2.843164e+01 1.821115e+00 3.064919e+00 3.820354e+00 2.570366e+00 2.068547e+00 2.656731e+00 2.673729e+00 2.379495e+00 2.300996e+00 2.009984e+00 2.347958e+00 1.327429e+00 1.418644e+00 1.843043e-01 5.025026e-01 4.425219e-01 3.308793e-01 3.521428e-01 4.576150e-01 4.063186e-01 4.090744e-01 4.165378e-01 4.138366e-01 3.485118e-01 2.296102e-01 2.364918e-01
<GCONST> 1.199952e+02
<STATE> 4
<MEAN> 39
 -1.646203e+01 3.482446e+00 -7.931864e-01 1.010172e+01 1.332948e-01 2.038316e+00 5.929102e+00 -1.627935e+00 4.944614e+00 -2.784756e+00 8.285240e-01 -1.879726e+00 4.843463e+01 -2.983702e-02 2.075558e-02 2.851098e-02 6.231828e-03 1.827745e-02 1.052105e-02 2.171614e-02 4.182369e-02 3.575781e-02 1.716844e-02 -4.025831e-02 -8.607461e-03 -7.469134e-02 1.185882e-02 -1.324135e-02 -1.227692e-02 2.988722e-03 2.569295e-03 -3.906048e-03 -6.678337e-03 -1.885938e-02 -7.871585e-03 6.117751e-03 1.211546e-02 2.920429e-04 1.531436e-02
<VARIANCE> 39
 1.205380e+01 1.626065e+01 1.423076e+01 1.672705e+01 2.798295e+01 2.737496e+01 1.580949e+01 1.738971e+01 1.774689e+01 3.110928e+01 1.533292e+01 3.590894e+01 2.530758e+01 1.546865e-01 3.986381e-01 5.238975e-01 6.520758e-01 8.549274e-01 1.006179e+00 1.107003e+00 1.236120e+00 1.287168e+00 1.277071e+00 1.197199e+00 1.005461e+00 7.701442e-02 3.230085e-02 7.027745e-02 9.914973e-02 1.239176e-01 1.660270e-01 1.849497e-01 2.111504e-01 2.317931e-01 2.592153e-01 2.555274e-01 2.449862e-01 2.015573e-01 1.619321e-02
<GCONST> 7.812939e+01
<TRANSP> 5
 0.000000e+00 1.000000e+00 0.000000e+00 0.000000e+00 0.000000e+00
 0.000000e+00 7.995844e-01 2.004156e-01 0.000000e+00 0.000000e+00
 0.000000e+00 0.000000e+00 8.742388e-01 1.257612e-01 0.000000e+00
 0.000000e+00 0.000000e+00 0.000000e+00 9.700948e-01 2.990523e-02
 0.000000e+00 0.000000e+00 0.000000e+00 0.000000e+00 0.000000e+00
<ENDHMM>
~h "ey"
<BEGINHMM>
<NUMSTATES> 5
<STATE> 2
<MEAN> 39
 -8.524553e+00 -3.029657e+00 9.043936e-02 3.716658e+00 3.762929e-01 -4.880064e+00 -3.301901e+00 -4.178780e+00 -4.409153e-01 -3.032013e-01 1.265406e+00 -2.213819e+00 5.350720e+01 1.304824e+00 -9.287925e-01 5.005537e-01 -5.554284e-01 -5.644282e-01 -2.291887e+00 -9.148744e-01 -6.306791e-01 -5.653601e-01 2.822761e-01 -1.390882e-01 -6.545430e-01 2.530912e+00 1.083488e-02 7.374755e-02 1.022104e-01 -3.219103e-04 7.454725e-02 -6.869506e-02 -5.899193e-02 -1.344612e-02 -7.953752e-03 -3.604490e-02 3.494158e-02 -7.153494e-02 5.253286e-02
<VARIANCE> 39
 7.705283e+01 7.618351e+01 1.111345e+02 1.648770e+02 2.323099e+02 2.112822e+02 1.097188e+02 8.143348e+01 6.735331e+01 1.054918e+02 6.960522e+01 4.822057e+01 2.100342e+02 4.643878e+00 5.274297e+00 7.957921e+00 1.037283e+01 1.184914e+01 1.236991e+01 8.271996e+00 6.210728e+00 6.481728e+00 7.498316e+00 4.853426e+00 3.067951e+00 6.296671e+00 7.230536e-01 9.265136e-01 1.055923e+00 1.572655e+00 1.823809e+00 2.093790e+00 1.253999e+00 1.050196e+00 1.179117e+00 1.232237e+00 7.959068e-01 5.544615e-01 1.446255e+00
<GCONST> 1.590134e+02
<STATE> 3
<MEAN> 39
 -1.488542e+00 -1.795369e+00 2.855895e+00 1.507355e+01 6.690517e+00 -2.466800e+01 -8.936304e+00 -7.286671e+00 -6.537824e+00 -2.346926e+00 2.168515e-02 -1.001477e+01 6.758410e+01 -3.275923e-01 6.986179e-01 5.633920e-01 2.711172e-01 -1.633729e-01 6.930357e-01 -1.505764e-02 -2.597839e-02 5.215205e-01 -3.818130e-01 -3.696579e-01 -9.690861e-02 -5.944623e-01 -1.194286e-01 1.423260e-01 -2.238916e-02 -1.038597e-01 -6.997879e-02 4.201692e-01 1.306478e-01 -6.285603e-02 1.137492e-01 -3.640195e-02 -3.312729e-02 2.085727e-01 -2.558840e-01
<VARIANCE> 39
 2.756799e+01 4.450592e+01 2.998763e+01 1.563408e+02 1.661830e+02 1.175045e+02 1.057750e+02 6.803558e+01 7.722738e+01 3.401281e+01 5.954855e+01 5.294703e+01 3.775718e+01 4.781942e-01 9.143212e-01 9.211693e-01 1.937757e+00 2.447390e+00 3.290510e+00 2.036879e+00 2.054192e+00 2.890676e+00 2.189870e+00 1.939388e+00 1.973466e+00 6.301510e-01 1.429484e-01 2.107860e-01 2.002453e-01 3.454380e-01 4.425335e-01 4.015812e-01 3.986268e-01 3.868481e-01 4.464951e-01 3.810668e-01 3.528790e-01 3.292585e-01 1.366249e-01
<GCONST> 1.158746e+02
<STATE> 4
<MEAN> 39
 -5.535204e+00 3.293004e+00 1.248566e+01 -3.531238e+00 -1.165424e+01 -5.649551e+00 -7.188740e+00 -1.110616e+01 -2.654900e+00 -2.986396e+00 -1.589487e+00 -9.709208e-01 5.485880e+01 -4.718631e-01 5.796080e-01 -2.258715e-01 2.070026e-01 2.922780e-01 5.719006e-01 -2.315843e-01 -1.121425e-01 -2.489857e-01 -9.728210e-02 -2.139551e-02 2.884994e-01 -1.176230e+00 -4.012882e-02 -1.241315e-01 -8.338178e-02 4.531983e-02 6.750283e-02 -6.135308e-03 1.304752e-01 1.148227e-01 -5.073431e-02 3.973655e-02 5.387568e-02 -2.169311e-02 7.194495e-03
<VARIANCE> 39
 3.603848e+01 5.516066e+01 1.198530e+02 2.022623e+02 1.304902e+02 1.059189e+02 6.248426e+01 5.273405e+01 6.138855e+01 5.467374e+01 7.389185e+01 4.416347e+01 1.374261e+02 6.091421e-01 1.515810e+00 1.975906e+00 2.846113e+00 2.291111e+00 3.195349e+00 2.734794e+00 3.393617e+00 3.090467e+00 1.744415e+00 2.698130e+00 2.278088e+00 7.590508e-01 6.724783e-02 1.877048e-01 2.338559e-01 4.203502e-01 3.922570e-01 3.789648e-01 4.667124e-01 4.835367e-01 6.353261e-01 3.226200e-01 4.636149e-01 3.892168e-01 1.082378e-01
<GCONST> 1.216177e+02
<TRANSP> 5
 0.000000e+00 1.000000e+00 0.000000e+00 0.000000e+00 0.000000e+00
 0.000000e+00 8.128948e-01 1.871052e-01 0.000000e+00 0.000000e+00
 0.000000e+00 0.000000e+00 8.204949e-01 1.795051e-01 0.000000e+00
 0.000000e+00 0.000000e+00 0.000000e+00 8.350057e-01 1.649942e-01
 0.000000e+00 0.000000e+00 0.000000e+00 0.000000e+00 0.000000e+00
<ENDHMM>
~h "hh"
<BEGINHMM>
<NUMSTATES> 5
<STATE> 2
<MEAN> 39
 5.097548e+00 4.338293e-01 -4.869238e+00 -9.209018e-01 -6.626196e+00 -2.006701e+01 1.151171e+01 9.728064e+00 -1.601479e+00 -5.372531e+00 -2.896480e+00 7.301993e-01 7.329803e+01 6.594101e-02 3.066581e-01 1.946889e-01 1.211388e-01 -1.529143e-01 -5.255148e-03 -3.522171e-01 1.623018e-01 3.374351e-01 -3.153864e-01 5.494371e-02 -8.543997e-02 -2.897778e-01 -2.588655e-02 3.670039e-02 6.124060e-02 6.992158e-02 1.223675e-04 9.347988e-02 -3.542154e-02 -5.836301e-02 2.924666e-03 -2.988151e-04 3.657362e-02 -4.227858e-02 -3.362028e-02
<VARIANCE> 39
 1.938021e+01 3.684957e+01 4.232779e+01 1.931091e+01 7.070635e+01 9.609914e+01 2.424885e+02 6.135928e+01 4.885883e+01 1.488906e+02 2.401294e+01 1.143768e+02 2.791835e+01 6.158024e-01 1.251194e+00 1.979623e+00 1.571130e+00 1.735926e+00 3.673234e+00 3.116519e+00 1.863522e+00 2.683859e+00 3.319252e+00 1.626115e+00 1.768214e+00 5.855910e-01 8.263914e-02 1.526842e-01 2.558624e-01 2.390884e-01 3.008024e-01 4.664026e-01 5.119114e-01 2.607782e-01 4.807082e-01 5.608444e-01 2.792166e-01 3.601983e-01 8.681209e-02
<GCONST> 1.135233e+02
<STATE> 3
<MEAN> 39
 7.217586e+00 1.180359e+01 5.000728e+00 1.468948e+00 -1.496787e+01 -1.252232e+01 -7.539796e+00 -2.449867e+00 8.914475e+00 -4.192076e+00 -8.272013e+00 1.187189e+00 6.486934e+01 -3.063915e-01 2.812023e-01 1.924666e-01 2.354577e-01 2.235334e-01 4.403266e-01 3.698120e-01 -1.190517e-01 6.386434e-02 3.957562e-01 2.681102e-01 -1.321360e-01 -2.626998e-01 -3.701307e-02 -3.712532e-02 -1.105472e-02 3.315047e-02 5.973451e-02 5.306976e-02 8.542681e-02 -1.285135e-02 -5.863305e-02 3.259778e-02 1.301093e-02 6.847965e-03 1.122423e-03
<VARIANCE> 39
 1.743238e+01 2.096490e+01 1.977254e+01 1.000490e+01 3.453040e+01 6.965256e+01 1.052108e+02 5.418740e+01 3.066587e+01 2.647891e+01 3.226571e+01 3.006829e+01 6.562037e+00 6.563424e-01 8.860589e-01 1.001373e+00 9.125416e-01 1.554847e+00 2.919555e+00 3.044925e+00 1.654195e+00 1.469711e+00 1.446240e+00 1.084330e+00 1.211332e+00 3.998461e-01 5.180426e-02 1.530404e-01 1.290568e-01 1.120499e-01 1.948175e-01 3.556201e-01 2.957907e-01 2.224433e-01 1.840580e-01 1.652681e-01 2.228907e-01 2.334869e-01 4.531971e-02
<GCONST> 9.335843e+01
<STATE> 4
<MEAN> 39
 -1.166763e+00 5.451195e+00 2.005033e+00 6.525111e+00 -1.501575e-01 -2.554336e-01 3.902960e+00 -1.050546e+00 2.700380e+00 -3.943484e+00 1.115641e+00 -8.097597e-01 6.245374e+01 -4.804448e-02 2.520001e-02 1.868501e-02 1.031009e-02 4.360448e-02 6.029592e-02 -6.366470e-02 -1.013808e-01 -1.339233e-02 5.675550e-03 3.853054e-02 4.203196e-02 -3.275646e-02 5.250434e-03 -1.386074e-02 -6.096589e-04 -1.355906e-02 1.951019e-03 -1.835565e-02 5.061185e-03 7.357495e-03 -8.098759e-03 -5.061569e-03 6.112101e-03 -2.382264e-04 1.631150e-02
<VARIANCE> 39
 1.680508e+01 8.672300e+00 2.262597e+01 1.534985e+01 6.215351e+01 4.247391e+01 2.501839e+01 2.829741e+01 3.223449e+01 2.850427e+01 1.740149e+01 3.938431e+01 5.360518e+00 4.012969e-01 4.769112e-01 7.617678e-01 7.990057e-01 1.133203e+00 1.276098e+00 1.902731e+00 1.806408e+00 2.080012e+00 1.559979e+00 1.358624e+00 1.430832e+00 1.322673e-01 7.125121e-02 9.637732e-02 1.530743e-01 1.536870e-01 2.295543e-01 2.439949e-01 3.563152e-01 3.413043e-01 4.026958e-01 2.963471e-01 2.498532e-01 2.560325e-01 2.588612e-02
<GCONST> 8.900550e+01
<TRANSP> 5
 0.000000e+00 1.000000e+00 0.000000e+00 0.000000e+00 0.000000e+00
 0.000000e+00 9.052429e-01 9.475707e-02 0.000000e+00 0.000000e+00
 0.000000e+00 0.000000e+00 8.951039e-01 1.048961e-01 0.000000e+00
 0.000000e+00 0.000000e+00 0.000000e+00 9.799863e-01 2.001378e-02
 0.000000e+00 0.000000e+00 0.000000e+00 0.000000e+00 0.000000e+00
<ENDHMM>
~h "ih"
<BEGINHMM>
<NUMSTATES> 5
<STATE> 2
<MEAN> 39
 -1.319982e+01 4.770394e-01 5.598637e+00 2.401721e+00 1.717882e+00 -4.727469e+00 -2.763056e+00 -9.989792e+00 -1.275493e-01 -3.723398e+00 -5.286643e-01 -2.289816e+00 6.090765e+01 3.576027e+00 1.947944e-02 -5.890102e-01 1.327369e+00 3.614253e-01 -1.877349e+00 -2.067723e+00 -6.471479e-01 -1.650364e+00 -2.850107e-01 -1.238903e-01 -2.097626e-01 9.015526e-01 2.730765e-01 -2.441867e-01 -1.067775e-01 -1.052320e-02 2.100704e-01 -4.579936e-01 -9.035081e-02 1.033702e-01 -2.309279e-01 2.205972e-01 1.722343e-01 -1.240523e-01 4.710054e-01
<VARIANCE> 39
 1.373021e+02 7.567853e+01 9.112073e+01 1.136680e+02 1.008257e+02 9.846056e+01 1.138918e+02 7.856834e+01 5.927032e+01 3.820541e+01 3.831801e+01 3.465593e+01 9.348470e+01 8.489186e+00 7.215615e+00 6.859099e+00 5.091285e+00 5.778555e+00 7.597190e+00 5.204261e+00 4.081075e+00 5.243371e+00 2.742696e+00 3.604207e+00 2.882316e+00 2.929100e+00 1.540636e+00 9.277818e-01 5.059561e-01 6.784517e-01 7.446521e-01 1.134328e+00 1.165961e+00 7.460724e-01 8.447561e-01 5.501741e-01 5.353649e-01 3.876211e-01 3.907070e-01
<GCONST> 1.442163e+02
<STATE> 3
<MEAN> 39
 -2.411423e+00 -7.709610e-01 8.488440e-02 1.229596e+01 1.278646e+01 -1.571468e+01 -6.361113e+00 -1.010409e+01 -5.719384e+00 -4.112571e+00 1.846988e+00 -6.740806e+00 6.664375e+01 9.956250e-02 9.570616e-02 -1.783572e-01 -1.322910e-01 -1.228126e-01 3.986039e-01 2.754899e-01 -2.904122e-01 -4.155076e-02 5.660491e-02 6.869941e-02 3.225000e-01 -9.835538e-02 -2.827868e-01 4.562755e-02 7.127723e-02 -2.627141e-01 -1.552057e-01 3.994109e-01 1.880742e-01 -3.684705e-02 1.723339e-01 -3.238440e-02 -9.020209e-02 7.585064e-02 -1.132379e-01
<VARIANCE> 39
 3.006909e+01 6.732053e+01 2.753326e+01 6.592669e+01 1.050486e+02 1.573710e+02 7.837393e+01 7.523817e+01 5.826372e+01 5.945209e+01 4.301153e+01 7.693069e+01 5.510674e+01 2.767074e+00 5.514158e+00 2.265251e+00 4.955860e+00 5.347191e+00 1.144658e+01 4.309262e+00 3.627686e+00 4.788676e+00 4.617557e+00 3.158532e+00 3.748509e+00 3.921548e+00 5.918962e-01 1.082749e+00 3.765435e-01 8.924665e-01 8.562844e-01 1.861412e+00 9.775353e-01 7.360567e-01 9.797409e-01 9.097682e-01 6.363468e-01 5.992258e-01 7.202381e-01
<GCONST> 1.415884e+02
<STATE> 4
<MEAN> 39
 -5.079525e+00 -4.203538e+00 5.201612e+00 1.096330e+00 -4.770412e+00 -5.657834e+00 -1.042275e+01 -8.501172e+00 -2.049851e+00 -6.542417e+00 3.976467e+00 -3.087313e+00 6.030698e+01 -6.043218e-01 -8.617578e-01 5.276324e-01 -8.821045e-01 -2.061017e-01 -1.360862e-01 5.194519e-01 -1.457724e-01 6.943476e-02 2.228200e-01 -1.327857e-01 -1.577185e-01 7.843745e-01 -2.236145e-01 9.135909e-02 1.597153e-01 2.364361e-01 8.275864e-02 -4.306028e-03 1.021232e-01 1.372388e-01 2.451490e-01 4.090757e-02 -5.090154e-02 -1.360459e-01 -9.015838e-02
<VARIANCE> 39
 9.261182e+01 1.807049e+02 1.160971e+02 9.849371e+01 3.303546e+02 2.145717e+02 2.060293e+02 1.251087e+02 7.256192e+01 6.357133e+01 8.106127e+01 5.992972e+01 9.190395e+01 7.624887e+00 5.909995e+00 9.988233e+00 8.929092e+00 8.339389e+00 1.112441e+01 6.240804e+00 6.540260e+00 5.780929e+00 5.088412e+00 3.093816e+00 4.324463e+00 5.725115e+00 8.180130e-01 9.325806e-01 1.429982e+00 9.325328e-01 1.174701e+00 1.642527e+00 1.155246e+00 1.123117e+00 1.027100e+00 1.011187e+00 6.825002e-01 9.292380e-01 6.959972e-01
<GCONST> 1.579316e+02
<TRANSP> 5
 0.000000e+00 1.000000e+00 0.000000e+00 0.000000e+00 0.000000e+00
 0.000000e+00 6.263639e-01 3.736361e-01 0.000000e+00 0.000000e+00
 0.000000e+00 0.000000e+00 8.184376e-01 1.815624e-01 0.000000e+00
 0.000000e+00 0.000000e+00 0.000000e+00 6.960368e-01 3.039632e-01
 0.000000e+00 0.000000e+00 0.000000e+00 0.000000e+00 0.000000e+00
<ENDHMM>
~h "iy"
<BEGINHMM>
<NUMSTATES> 5
<STATE> 2
<MEAN> 39
 2.009902e+00 -1.007294e+01 9.719282e+00 5.369931e+00 -1.418653e+01 -1.124246e+01 -1.524527e+01 -2.313881e+00 -2.299454e+00 -8.714027e+00 2.966605e+00 -3.236213e+00 5.625187e+01 7.024326e-02 2.448823e-01 -2.673063e-01 1.313812e-01 2.446402e-03 3.293884e-01 2.745299e-01 8.745770e-02 3.241475e-02 3.501704e-02 -2.760354e-01 -3.012327e-02 -3.800423e-01 -1.072187e-01 7.836796e-02 -1.145864e-01 -1.039670e-01 8.621832e-02 1.986497e-01 1.777697e-01 -8.589549e-02 -1.662212e-02 1.121919e-01 -3.617668e-02 2.896549e-02 -9.899846e-02
<VARIANCE> 39
 5.072711e+01 1.127799e+02 7.436264e+01 1.594322e+02 2.108201e+02 9.254340e+01 1.044015e+02 6.789130e+01 7.155046e+01 6.924577e+01 7.175880e+01 7.032861e+01 1.152006e+02 1.169499e+00 1.615500e+00 3.592759e+00 1.744631e+00 2.911971e+00 3.186957e+00 3.572348e+00 3.048306e+00 3.671585e+00 3.270522e+00 3.106632e+00 2.335695e+00 1.303094e+00 1.527987e-01 2.246228e-01 2.551688e-01 3.281085e-01 4.071038e-01 5.484626e-01 6.426818e-01 5.620774e-01 7.420537e-01 5.380205e-01 5.754634e-01 4.383174e-01 1.259653e-01
<GCONST> 1.293183e+02
<STATE> 3
<MEAN> 39
 -5.949957e+00 4.426229e+00 1.034345e+01 8.858201e+00 -3.390553e+00 -4.087238e+00 -6.272158e+00 -1.049193e+01 -4.739199e+00 8.905887e-04 -3.257995e+00 -2.880502e+00 5.527940e+01 -7.839316e-01 -1.752999e-01 -8.380821e-01 -6.373339e-01 2.599034e-03 1.179422e+00 1.175835e+00 8.848825e-02 4.295875e-01 3.242937e-01 -2.150362e-01 3.223496e-01 -8.073642e-01 -3.916068e-02 -1.512513e-01 -1.283275e-01 -9.674305e-02 -5.739440e-02 -7.938152e-02 2.595160e-02 1.817201e-01 4.549089e-02 -8.484319e-02 1.437923e-01 1.202907e-01 2.491898e-02
<VARIANCE> 39
 3.923917e+01 5.404620e+01 1.157106e+02 1.201244e+02 1.815849e+02 7.355209e+01 8.524142e+01 6.824778e+01 4.488208e+01 7.580031e+01 3.539220e+01 5.438646e+01 7.557409e+01 1.352325e+00 2.542580e+00 2.956053e+00 3.046547e+00 3.014897e+00 4.067288e+00 3.951510e+00 2.743090e+00 3.077043e+00 3.077489e+00 2.361676e+00 2.860271e+00 5.591815e-01 1.328551e-01 3.921776e-01 3.961038e-01 3.694276e-01 5.027577e-01 6.063646e-01 6.705235e-01 4.441522e-01 4.521998e-01 5.751565e-01 3.465381e-01 3.876317e-01 8.277387e-02
<GCONST> 1.258428e+02
<STATE> 4
<MEAN> 39
 -7.614882e+00 -4.358251e+00 2.955431e+00 5.778173e+00 -5.330411e+00 6.601458e-01 -2.348377e+00 -2.708399e+00 -2.017230e-01 -3.049927e+00 -2.556231e+00 -3.979526e-01 4.625980e+01 -2.595453e-01 -2.625160e-01 -8.222935e-01 -1.394082e-02 2.938919e-01 4.826499e-01 5.164748e-01 5.524168e-01 2.820259e-01 -1.933043e-02 3.491799e-01 2.877471e-01 -3.763807e-01 7.581352e-02 3.531640e-02 9.044077e-02 1.260162e-02 -1.304555e-03 -1.554721e-01 -7.316453e-02 -2.909371e-02 -5.766558e-02 -2.734546e-03 7.663058e-02 -3.834358e-02 1.197856e-01
<VARIANCE> 39
 5.150637e+01 1.032477e+02 3.339445e+01 7.668449e+01 1.039619e+02 8.935081e+01 6.889841e+01 6.472467e+01 4.031424e+01 4.876269e+01 5.134428e+01 3.988531e+01 1.353262e+02 9.398310e-01 1.349014e+00 1.791754e+00 2.532330e+00 2.217830e+00 2.424724e+00 2.828254e+00 2.080849e+00 2.957403e+00 2.973297e+00 2.542053e+00 1.976453e+00 3.036441e-01 1.020918e-01 1.909297e-01 2.750577e-01 3.615514e-01 3.493819e-01 4.066893e-01 3.696893e-01 3.624825e-01 4.299036e-01 6.185673e-01 5.001410e-01 3.598204e-01 7.564793e-02
<GCONST> 1.177319e+02
<TRANSP> 5
 0.000000e+00 1.000000e+00 0.000000e+00 0.000000e+00 0.000000e+00
 0.000000e+00 7.470605e-01 2.529395e-01 0.000000e+00 0.000000e+00
 0.000000e+00 0.000000e+00 6.774669e-01 3.225331e-01 0.000000e+00
 0.000000e+00 0.000000e+00 0.000000e+00 6.513596e-01 3.486404e-01
 0.000000e+00 0.000000e+00 0.000000e+00 0.000000e+00 0.000000e+00
<ENDHMM>
~h "ng"
<BEGINHMM>
<NUMSTATES> 5
<STATE> 2
<MEAN> 39
 -5.060197e+00 -7.457260e+00 4.338072e+00 5.765329e+00 7.201340e+00 -1.091104e+01 6.556581e+00 -1.014077e+01 -3.476959e+00 9.048908e+00 -4.801593e-02 -9.749250e+00 6.966453e+01 9.155253e-01 2.472719e-01 -4.792807e-01 6.761926e-01 4.332345e-02 2.590261e-01 -4.527793e-01 -3.933785e-02 -7.517799e-01 -1.392027e-01 -5.282208e-01 7.365571e-03 -5.697640e-01 2.889112e-01 2.713040e-01 -4.656658e-02 2.888106e-01 -1.449280e-01 1.177184e-01 -2.246734e-01 2.268458e-01 6.606665e-02 -3.297834e-01 -6.583589e-02 2.384278e-01 -2.550709e-01
<VARIANCE> 39
 6.135358e+01 4.499438e+01 2.552301e+01 3.288723e+01 3.324984e+01 4.743487e+01 4.767631e+01 3.643664e+01 8.095753e+01 8.666919e+01 3.589610e+01 2.344067e+01 2.228845e+01 5.326370e+00 3.146478e+00 1.624520e+00 2.213573e+00 2.502778e+00 6.604124e+00 4.877749e+00 6.934495e+00 9.576205e+00 1.305777e+01 1.581624e+00 2.482277e+00 2.207415e+00 1.572556e+00 5.279525e-01 2.838688e-01 3.579038e-01 5.209305e-01 1.107972e+00 1.008623e+00 1.050507e+00 1.788699e+00 1.792523e+00 3.656242e-01 3.921140e-01 5.621257e-01
<GCONST> 1.329470e+02
<STATE> 3
<MEAN> 39
 -5.226815e+00 4.661647e+00 8.068431e+00 1.577712e+01 -1.974190e+00 -4.752885e+00 1.811761e+00 -6.208283e+00 -5.298585e-01 -3.012228e+00 -3.713085e+00 -1.590397e+00 6.085537e+01 -2.774942e-01 -6.921754e-03 2.791485e-02 3.017145e-02 1.012591e-01 3.274558e-01 3.243816e-01 1.848371e-01 1.985351e-02 -3.141892e-02 1.061468e-01 1.208199e-01 -2.054684e-01 -4.681485e-02 -1.172730e-01 -7.358643e-02 -7.124633e-02 -1.275660e-02 -8.233321e-03 2.079768e-02 1.228724e-02 2.737007e-02 7.695418e-02 8.606406e-02 3.457751e-02 -1.016961e-03
<VARIANCE> 39
 2.270632e+01 6.295524e+01 2.475896e+01 1.661397e+01 3.921431e+01 3.932075e+01 3.752001e+01 1.961947e+01 2.496225e+01 2.802723e+01 1.876435e+01 2.327751e+01 8.165435e+00 1.452925e+00 5.742569e+00 2.700791e+00 1.623538e+00 1.925868e+00 3.492842e+00 3.122445e+00 1.946049e+00 2.484398e+00 2.373235e+00 1.878509e+00 1.560903e+00 8.315204e-01 2.035165e-01 8.760685e-01 5.253573e-01 3.503816e-01 3.729359e-01 5.846367e-01 6.280912e-01 3.771782e-01 5.095274e-01 4.993490e-01 3.870291e-01 2.971798e-01 1.725086e-01
<GCONST> 1.119408e+02
<STATE> 4
<MEAN> 39
 -9.900956e+00 1.650700e+00 2.010323e+00 1.052779e+01 2.353160e+00 3.309283e+00 8.642023e+00 -2.013757e-01 3.229903e+00 -1.802403e-01 1.718505e+00 -1.336588e-01 5.566335e+01 -5.722635e-02 -9.860469e-02 -1.143131e-01 -1.537131e-01 -1.180727e-01 -2.985852e-02 -1.297007e-02 -7.552485e-04 2.668127e-02 -1.297326e-02 1.847329e-02 5.279051e-02 -5.219747e-02 1.862867e-02 1.523103e-02 2.028517e-02 2.852734e-02 1.152253e-02 -1.001149e-02 -1.871783e-02 -2.310801e-02 -2.680639e-02 -7.908217e-03 -3.137673e-02 -2.543358e-02 1.436378e-02
<VARIANCE> 39
 2.472026e+01 2.514922e+01 1.051716e+01 1.819141e+01 4.439937e+01 3.158784e+01 2.155270e+01 2.262440e+01 2.305125e+01 3.229617e+01 1.155276e+01 2.636099e+01 4.618557e+00 2.254802e-01 6.456516e-01 6.290264e-01 9.418750e-01 1.104511e+00 1.350676e+00 1.373306e+00 1.204107e+00 1.267757e+00 1.147542e+00 8.866674e-01 9.169734e-01 1.023572e-01 3.229757e-02 9.862736e-02 1.051200e-01 1.730870e-01 2.226299e-01 2.948746e-01 2.820277e-01 2.063022e-01 2.054219e-01 2.153729e-01 1.529058e-01 1.680808e-01 1.815240e-02
<GCONST> 8.089016e+01
<TRANSP> 5
 0.000000e+00 1.000000e+00 0.000000e+00 0.000000e+00 0.000000e+00
 0.000000e+00 8.300596e-01 1.699404e-01 0.000000e+00 0.000000e+00
 0.000000e+00 0.000000e+00 9.543115e-01 4.568851e-02 0.000000e+00
 0.000000e+00 0.000000e+00 0.000000e+00 9.724103e-01 2.758977e-02
 0.000000e+00 0.000000e+00 0.000000e+00 0.000000e+00 0.000000e+00
<ENDHMM>
~h "ow"
<BEGINHMM>
<NUMSTATES> 5
<STATE> 2
<MEAN> 39
 -5.108275e+00 1.044904e+00 -5.844844e+00 -8.202108e-01 8.804454e-01 -9.633636e-01 2.951128e+00 -3.557272e+00 -3.204410e+00 -2.214470e+00 -6.383083e-01 -3.931899e+00 5.958803e+01 1.359885e+00 -6.869392e-01 -5.616820e-01 -1.412719e+00 -3.856118e-01 -1.272125e+00 -3.703755e-01 -4.217893e-01 -8.565456e-01 -2.294394e-02 -3.981207e-01 -5.509475e-01 2.315867e+00 1.803279e-01 8.041080e-02 6.254005e-02 2.402492e-01 -1.902438e-02 -9.898908e-02 -2.605451e-01 6.199685e-02 1.657297e-01 -1.374807e-01 -1.111933e-02 -4.190667e-03 -1.009432e-01
<VARIANCE> 39
 9.850126e+01 8.142794e+01 6.574541e+01 1.081292e+02 1.872777e+02 1.273834e+02 1.293557e+02 9.734936e+01 1.098228e+02 7.422643e+01 6.545102e+01 6.626082e+01 2.342742e+02 7.752744e+00 3.529032e+00 3.861940e+00 9.149273e+00 7.018537e+00 9.676265e+00 8.107953e+00 7.439046e+00 8.942921e+00 5.833916e+00 6.868312e+00 4.284801e+00 7.476513e+00 1.125760e+00 5.396073e-01 6.563833e-01 1.482192e+00 1.108817e+00 1.421514e+00 1.214471e+00 1.214138e+00 1.322649e+00 9.338028e-01 1.189952e+00 7.911629e-01 1.446157e+00
<GCONST> 1.572713e+02
<STATE> 3
<MEAN> 39
 4.109909e+00 3.774186e+00 -7.316411e+00 -3.219550e+00 -3.497895e+00 -7.111579e+00 3.033153e+00 -5.935643e+00 -7.613814e+00 -7.537683e+00 4.022500e-01 -5.268097e+00 6.715864e+01 -6.466528e-02 2.417557e-01 3.896822e-02 4.564085e-01 6.393804e-02 2.144614e-01 -2.151804e-01 7.869972e-02 8.100324e-02 -5.861354e-01 2.110263e-02 4.290064e-01 -4.539086e-01 -2.152925e-01 8.741160e-02 1.152412e-01 1.263044e-01 8.788127e-02 2.347411e-01 4.086212e-02 -4.171004e-02 1.215943e-01 9.543403e-02 1.192954e-02 2.518668e-02 -2.112733e-01
<VARIANCE> 39
 3.781577e+01 5.557695e+01 5.044291e+01 1.253308e+02 9.476713e+01 1.934620e+02 1.081960e+02 1.150850e+02 9.640419e+01 7.451019e+01 1.362165e+02 9.907597e+01 1.044513e+02 8.828108e-01 1.236853e+00 1.677379e+00 2.563107e+00 2.688208e+00 4.289203e+00 2.732381e+00 3.842908e+00 3.567973e+00 2.518738e+00 3.502256e+00 2.505327e+00 8.984481e-01 1.357042e-01 1.955084e-01 2.444921e-01 4.350370e-01 5.173395e-01 6.294909e-01 5.115815e-01 6.924362e-01 6.286697e-01 4.893634e-01 5.553730e-01 4.879484e-01 1.185250e-01
<GCONST> 1.283201e+02
<STATE> 4
<MEAN> 39
 8.359859e-01 1.914128e+00 -6.060589e+00 -6.262408e+00 -9.138793e+00 2.364873e-01 -4.658987e+00 -1.752337e+00 -2.091349e+00 -3.335753e+00 -1.930412e+00 -3.428966e-03 5.082378e+01 -5.055246e-01 1.649705e-01 2.023275e-01 4.787892e-01 1.136140e-01 2.386897e-01 1.444839e-01 5.006430e-02 5.205363e-02 3.844630e-02 1.078651e-01 6.330080e-02 -6.835609e-01 -4.007157e-02 -5.211033e-02 -1.195980e-02 1.907638e-02 4.814175e-02 -1.032981e-02 2.591888e-02 -2.799410e-02 9.415527e-03 5.750005e-02 3.488895e-02 -8.835304e-03 4.714868e-03
<VARIANCE> 39
 6.219776e+01 1.090070e+02 5.577485e+01 9.520967e+01 1.384055e+02 1.147707e+02 8.657095e+01 5.932907e+01 5.715940e+01 7.031075e+01 4.294324e+01 4.573346e+01 1.440028e+02 7.925644e-01 1.318048e+00 1.240275e+00 1.761081e+00 2.182490e+00 2.336948e+00 2.120395e+00 2.026552e+00 2.058375e+00 1.956848e+00 1.903161e+00 1.541879e+00 4.126991e-01 6.400351e-02 1.610554e-01 1.795843e-01 2.427998e-01 3.111895e-01 3.450486e-01 3.368019e-01 3.272473e-01 3.102251e-01 3.399639e-01 3.350099e-01 2.590601e-01 4.059874e-02
<GCONST> 1.135999e+02
<TRANSP> 5
 0.000000e+00 1.000000e+00 0.000000e+00 0.000000e+00 0.000000e+00
 0.000000e+00 7.480291e-01 2.519709e-01 0.000000e+00 0.000000e+00
 0.000000e+00 0.000000e+00 7.608731e-01 2.391269e-01 0.000000e+00
 0.000000e+00 0.000000e+00 0.000000e+00 8.839195e-01 1.160806e-01
 0.000000e+00 0.000000e+00 0.000000e+00 0.000000e+00 0.000000e+00
<ENDHMM>
~h "sh"
<BEGINHMM>
<NUMSTATES> 5
<STATE> 2
<MEAN> 39
 -7.645425e+00 -2.410322e+00 9.280615e+00 1.028327e+01 -3.142139e+00 -1.096433e+01 -2.650287e-01 -2.221495e+00 2.909931e+00 -5.143723e+00 -2.292885e+00 9.994767e-01 6.531020e+01 -1.964219e+00 -2.621979e+00 7.145889e-01 6.060048e-01 1.067266e+00 1.875115e-01 5.838097e-01 1.739385e-01 7.436456e-01 3.555281e-01 2.692978e-01 7.234052e-01 2.119758e-01 -5.508641e-03 1.071119e-01 -1.180889e-01 -6.098764e-02 1.187735e-01 -1.339607e-01 -1.435173e-01 -1.362190e-01 -1.090252e-01 -2.210007e-01 -1.737688e-01 5.084950e-02 -7.467648e-03
<VARIANCE> 39
 1.110304e+02 1.573342e+02 5.803162e+01 2.804043e+01 6.407092e+01 3.446169e+01 6.297332e+01 3.097440e+01 2.511886e+01 1.866855e+01 2.694806e+01 5.440454e+01 6.429062e+00 4.160260e+00 8.519940e+00 3.414204e+00 3.817728e+00 1.992426e+00 2.441333e+00 5.409554e+00 3.232790e+00 6.183430e+00 2.794987e+00 1.745313e+00 1.620461e+00 8.284176e-01 7.206828e-01 1.577517e+00 5.588759e-01 6.830596e-01 4.750402e-01 5.883924e-01 8.907634e-01 6.293359e-01 5.529383e-01 2.801893e-01 4.169861e-01 5.319782e-01 2.916490e-01
