~o
<STREAMINFO> 1 39
<VECSIZE> 39<NULLD><MFCC_D_A_0><DIAGC>
~h "b"
<BEGINHMM>
<NUMSTATES> 5
<STATE> 2
<MEAN> 39
 2.665646e+00 8.743177e+00 -4.204601e+00 4.685190e+00 8.497184e+00 -6.724908e+00 -6.270735e-01 -6.797245e+00 -1.226639e+01 -5.758200e+00 -2.170739e+00 -8.782409e-01 6.709310e+01 -1.798419e+00 4.118182e-01 9.107704e-01 4.994913e-01 5.714480e-01 1.336298e+00 1.793481e+00 1.598908e-01 1.574384e-01 5.179621e-02 9.456687e-02 5.140870e-01 -1.480255e+00 -3.299544e-01 -3.927650e-01 -2.027599e-01 -3.900499e-01 -6.424142e-01 3.916692e-01 2.531790e-01 2.053518e-01 7.888979e-01 1.306745e-01 -1.362906e-02 -8.043236e-02 -4.270020e-01
<VARIANCE> 39
 2.354320e+01 4.675689e+01 1.062795e+02 7.155059e+01 1.024184e+02 1.611678e+01 3.492672e+01 2.947034e+01 1.482178e+01 4.967580e+01 2.936147e+00 2.895255e+01 3.709241e+01 8.904389e-01 2.304381e+00 2.423036e+00 2.767631e+00 3.817795e+00 3.941220e+00 2.216047e+00 4.321445e+00 3.105628e+00 1.641092e+00 4.166793e-01 1.371050e+00 1.422288e+00 2.858309e-01 2.194738e-01 5.759136e-01 2.853697e-01 4.860259e-01 1.044373e+00 8.272764e-01 1.461932e+00 2.033657e-01 3.709011e-01 7.790840e-02 3.926105e-01 1.340723e-01
<GCONST> 1.124904e+02
<STATE> 3
<MEAN> 39
 -3.057593e+00 7.743710e+00 -5.420022e+00 4.589473e+00 4.339420e+00 -7.676665e-01 4.176425e+00 -9.632609e+00 -5.403445e+00 -3.106859e+00 -1.851744e+00 -2.677332e+00 6.023027e+01 -1.202041e+00 -1.570058e+00 -5.093531e-01 -3.670653e-01 -1.158131e+00 2.037830e-01 7.863816e-02 -1.529479e+00 6.272647e-01 1.330365e-01 7.538481e-01 2.450001e-02 -6.062812e-01 2.307338e-01 -3.111829e-01 3.153033e-01 3.111288e-02 1.656459e-01 -1.053530e+00 -3.026675e-01 8.482067e-03 -6.113912e-01 -3.764927e-02 2.369352e-01 7.717588e-02 7.395757e-01
<VARIANCE> 39
 3.044449e+01 1.301544e+01 1.205600e+02 1.159278e+02 1.965946e+01 2.328112e+01 1.517896e+01 3.157464e+01 1.643963e+01 1.920052e+01 8.306243e+00 2.832890e+01 1.809980e+01 6.808097e-01 4.002037e+00 2.333768e+00 1.642998e+00 6.174255e+00 6.001625e+00 2.385954e+00 4.320379e+00 2.281756e+00 2.263371e+00 1.415416e+00 1.924312e+00 1.787709e+00 2.674661e-01 9.241766e-01 6.185328e-01 7.057729e-01 1.371250e+00 1.364415e+00 6.404111e-01 5.644997e-01 4.335770e-01 2.836393e-01 1.928967e-01 2.178636e-01 4.153744e-01
<GCONST> 1.163694e+02
<STATE> 4
<MEAN> 39
 -3.178202e+00 6.797661e+00 1.040436e+00 5.429245e+00 7.449822e+00 -6.910408e+00 -1.337985e+00 -8.778068e+00 -9.404495e+00 -8.129560e+00 1.256426e+00 -2.025609e+00 6.484535e+01 1.042204e-01 1.405077e-01 6.433767e-01 5.995522e-01 -1.033378e-02 -5.853000e-01 -1.988651e-01 1.357103e-01 1.939807e-01 -9.718739e-02 -2.361375e-01 5.127398e-02 2.746733e-01 5.714497e-02 1.498027e-02 2.126143e-02 8.557656e-02 4.643989e-02 -3.738777e-03 -3.170969e-02 8.428569e-02 7.775908e-02 -3.024985e-02 -1.612117e-01 -5.394709e-02 7.632706e-02
<VARIANCE> 39
 2.822671e+01 6.983235e+01 3.872548e+01 7.481227e+01 8.212521e+01 6.189299e+01 2.968565e+01 2.783153e+01 7.327936e+01 2.508861e+01 1.888310e+01 2.186326e+01 4.362296e+01 4.603550e+00 6.933876e+00 1.898009e+00 3.880605e+00 6.967862e+00 1.184947e+01 5.271821e+00 2.979360e+00 8.162004e+00 3.125342e+00 1.960378e+00 9.596055e-01 5.844968e+00 1.042706e+00 1.507642e+00 2.513951e-01 5.634674e-01 1.178738e+00 1.962442e+00 1.253616e+00 5.412632e-01 1.023422e+00 6.831881e-01 2.572084e-01 2.084973e-01 1.050007e+00
<GCONST> 1.337792e+02
<TRANSP> 5
 0.000000e+00 1.000000e+00 0.000000e+00 0.000000e+00 0.000000e+00
 0.000000e+00 6.818356e-01 3.181644e-01 0.000000e+00 0.000000e+00
 0.000000e+00 0.000000e+00 7.061483e-01 2.938517e-01 0.000000e+00
 0.000000e+00 0.000000e+00 0.000000e+00 8.583599e-01 1.416401e-01
 0.000000e+00 0.000000e+00 0.000000e+00 0.000000e+00 0.000000e+00
<ENDHMM>
~h "d"
<BEGINHMM>
<NUMSTATES> 5
<STATE> 2
<MEAN> 39
 -6.774135e+00 6.194687e+00 -2.489114e+00 4.978067e+00 -3.260289e+00 1.752297e+00 9.173476e+00 2.985086e+00 7.543268e+00 -4.661927e+00 -3.671276e+00 -7.360915e+00 5.717488e+01 -8.105890e-01 -7.466556e-01 -2.179020e-01 9.490740e-01 1.201711e+00 -4.141616e-02 -9.023468e-01 -3.287244e-02 8.093843e-01 5.063786e-01 1.391075e-01 3.889906e-01 -4.738004e-01 1.196078e-01 4.290285e-02 -1.175549e-02 1.185761e-01 -8.751249e-04 -1.487480e-01 -2.269285e-01 -3.885629e-01 -5.098263e-01 -2.287641e-01 2.784064e-02 1.272347e-01 4.847001e-02
<VARIANCE> 39
 2.391982e+01 3.245478e+01 4.020675e+01 2.252280e+01 2.053024e+01 3.320740e+01 3.358667e+01 3.081688e+01 3.670143e+01 1.781205e+01 1.841107e+01 3.476064e+01 3.947601e+00 4.996439e-01 4.431195e-01 7.561001e-01 1.305303e+00 1.418652e+00 1.701048e+00 1.916244e+00 1.689438e+00 2.970662e+00 8.086888e-01 2.133000e+00 9.060982e-01 1.269691e-01 9.903730e-02 9.656702e-02 8.814315e-02 1.758306e-01 3.065722e-01 2.359873e-01 2.488474e-01 1.820863e-01 3.189645e-01 1.770640e-01 2.973518e-01 1.517240e-01 2.767901e-02
<GCONST> 8.883395e+01
<STATE> 3
<MEAN> 39
 -1.073423e+01 2.844876e+00 -3.700945e+00 8.512966e+00 2.019065e+00 1.795939e+00 4.357377e+00 -1.181588e-01 5.636930e+00 -5.973747e+00 -1.707717e+00 -5.674438e+00 5.359466e+01 -2.568355e-01 -1.485595e-01 -8.850918e-02 -1.016533e-01 -2.847178e-02 -4.446850e-02 -9.818517e-03 -9.015846e-02 -1.055937e-02 3.480815e-02 2.146542e-01 1.547091e-01 -2.155508e-01 1.215899e-02 1.090520e-01 6.753771e-02 -8.988921e-02 -5.727101e-02 5.930832e-02 1.288046e-01 1.622603e-01 1.784845e-01 8.065948e-02 5.159928e-03 7.045727e-03 -8.580030e-03
<VARIANCE> 39
 5.524933e+00 1.406322e+01 2.589119e+01 2.027493e+01 3.183512e+01 3.651370e+01 1.873439e+01 2.606866e+01 2.611210e+01 1.166447e+01 1.426386e+01 2.202828e+01 1.128888e+01 3.843629e-01 7.235460e-01 1.296924e+00 1.397681e+00 1.547145e+00 8.042586e-01 1.476866e+00 2.114262e+00 1.883325e+00 8.369789e-01 1.309228e+00 1.307722e+00 2.041377e-01 5.197894e-02 1.446945e-01 2.106912e-01 2.486681e-01 3.383853e-01 1.084529e-01 2.548234e-01 3.478747e-01 3.030106e-01 1.128532e-01 2.771716e-01 1.909889e-01 2.762622e-02
<GCONST> 8.604115e+01
<STATE> 4
<MEAN> 39
 -1.469350e+01 1.193561e+00 -1.458204e+00 9.337061e+00 -1.936771e-01 1.791336e+00 6.305132e+00 2.666840e-01 5.385677e+00 -3.486972e+00 -5.707785e-02 -2.276597e+00 4.992804e+01 -4.451383e-02 2.419389e-02 2.812929e-02 3.177613e-02 5.200952e-03 4.751984e-02 2.977604e-02 3.824652e-02 2.159007e-02 -9.724102e-03 7.164104e-03 2.370611e-02 -8.019627e-02 4.814269e-04 -2.080251e-02 -3.157486e-03 -3.091729e-04 -1.253210e-02 -5.511357e-03 2.723459e-03 -3.312261e-03 -1.236436e-02 -7.792804e-03 -8.677915e-03 -3.397579e-03 6.701139e-03
<VARIANCE> 39
 6.577733e+00 2.202828e+01 1.000791e+01 1.379682e+01 3.098400e+01 2.561021e+01 1.487057e+01 1.712038e+01 1.716006e+01 2.594934e+01 1.333541e+01 3.871907e+01 4.668592e+01 1.804967e-01 5.379437e-01 4.658810e-01 8.503314e-01 8.175382e-01 1.061710e+00 1.250549e+00 1.198640e+00 1.365621e+00 1.037383e+00 1.173258e+00 1.079188e+00 1.795253e-01 3.404272e-02 1.143926e-01 8.653636e-02 1.785169e-01 1.587883e-01 1.950320e-01 2.539538e-01 2.354832e-01 2.653117e-01 2.123530e-01 2.419980e-01 1.946934e-01 2.757251e-02
<GCONST> 8.032570e+01
<TRANSP> 5
 0.000000e+00 1.000000e+00 0.000000e+00 0.000000e+00 0.000000e+00
 0.000000e+00 7.767502e-01 2.232498e-01 0.000000e+00 0.000000e+00
 0.000000e+00 0.000000e+00 8.930181e-01 1.069818e-01 0.000000e+00
 0.000000e+00 0.000000e+00 0.000000e+00 9.822112e-01 1.778883e-02
 0.000000e+00 0.000000e+00 0.000000e+00 0.000000e+00 0.000000e+00
<ENDHMM>
~h "f"
<BEGINHMM>
<NUMSTATES> 5
<STATE> 2
<MEAN> 39
 -1.634617e+01 8.575292e-01 -4.782585e+00 7.181268e+00 5.488701e+00 -6.066520e-01 7.519301e+00 -2.680237e+00 2.573531e+00 -2.227087e+00 9.716240e-01 -1.860306e+00 5.967624e+01 -6.676866e-01 -2.802283e-01 -1.441295e-01 -1.948419e-01 2.874347e-01 -2.015490e-01 1.983863e-02 -1.202434e-02 2.224602e-01 -5.178565e-02 8.010758e-03 1.468804e-01 3.968697e-01 2.649314e-01 2.745616e-02 -4.311190e-02 -1.184184e-01 -5.979817e-02 -7.695500e-02 -1.509792e-01 -7.567285e-02 -1.253925e-01 -3.212998e-02 -2.619697e-02 -9.717792e-02 3.324210e-02
<VARIANCE> 39
 6.152095e+01 5.390284e+01 4.859290e+01 8.253864e+01 7.994454e+01 8.487874e+01 4.818364e+01 4.999296e+01 6.247693e+01 7.706178e+01 4.004110e+01 5.133239e+01 1.205965e+02 3.034023e+00 2.555767e+00 1.865089e+00 2.081388e+00 3.013571e+00 2.757195e+00 3.229053e+00 2.826965e+00 3.401721e+00 2.849050e+00 2.521722e+00 2.288129e+00 1.268944e+00 5.466573e-01 4.902279e-01 3.322144e-01 4.927784e-01 6.373538e-01 5.018371e-01 6.608906e-01 5.512033e-01 5.916034e-01 5.570390e-01 4.982983e-01 4.514842e-01 2.166956e-01
<GCONST> 1.281782e+02
<STATE> 3
<MEAN> 39
 -1.874484e+01 -6.441100e-01 -5.045455e+00 4.004195e+00 7.059930e+00 -2.545705e+00 4.410298e+00 -5.828943e+00 -1.836020e+00 -4.123167e+00 6.236055e-01 -1.081770e+00 5.715607e+01 2.942021e+00 7.441391e-01 -8.136705e-01 -1.662013e+00 -1.030143e+00 -5.182091e-01 -6.621568e-01 -4.697870e-01 -5.624311e-01 -3.814893e-01 -7.188274e-01 -6.043122e-01 7.251554e-01 1.236111e+00 3.432890e-01 -9.089918e-02 -5.015294e-01 -7.940122e-01 -2.605698e-01 -8.673108e-02 -4.881732e-02 -6.457388e-02 8.477136e-03 -2.275384e-01 -1.832697e-01 5.022448e-01
<VARIANCE> 39
 6.578416e+01 5.383257e+01 4.107731e+01 5.045139e+01 1.116185e+02 6.812071e+01 7.323268e+01 5.572210e+01 6.185556e+01 6.467342e+01 4.567729e+01 4.056133e+01 1.418194e+02 1.047470e+01 6.572170e+00 3.860597e+00 7.093703e+00 5.255732e+00 5.284310e+00 5.040582e+00 5.110615e+00 5.431558e+00 4.519722e+00 2.994218e+00 3.317519e+00 3.417091e+00 8.378233e-01 8.187612e-01 6.098806e-01 8.821210e-01 1.126489e+00 1.210913e+00 1.026684e+00 8.074044e-01 1.044774e+00 9.018995e-01 5.652017e-01 6.917897e-01 5.124003e-01
<GCONST> 1.438085e+02
<STATE> 4
<MEAN> 39
 -3.068197e+00 -4.901269e+00 -2.977764e+00 -5.580698e+00 -7.916404e+00 1.256494e-01 -2.320446e+00 -5.244656e+00 -1.090372e+00 -5.589137e+00 -1.263364e+00 -2.116409e+00 5.420759e+01 4.157471e+00 7.846565e-01 -7.696082e-01 -2.606999e+00 -2.076673e+00 -8.014104e-01 -5.067348e-01 -4.657865e-01 -3.587722e-01 -4.440989e-01 -3.690089e-01 -8.104339e-01 2.442295e+00 -3.919591e-01 -2.234023e-01 6.093537e-02 2.955404e-01 3.385051e-02 -1.436295e-01 6.289929e-02 2.010969e-01 1.517281e-01 1.217898e-01 2.081019e-01 -2.875997e-02 5.337413e-02
<VARIANCE> 39
 7.657927e+01 2.367777e+02 8.763124e+01 1.284574e+02 1.774356e+02 8.352321e+01 7.494070e+01 6.607819e+01 4.336942e+01 3.407154e+01 3.821901e+01 3.101695e+01 1.479736e+02 1.091603e+01 7.626811e+00 3.932333e+00 1.055517e+01 6.947642e+00 8.435870e+00 4.843381e+00 5.182149e+00 3.759691e+00 4.411078e+00 4.103950e+00 4.102117e+00 6.163087e+00 1.550931e+00 9.969339e-01 4.538447e-01 1.161621e+00 1.011794e+00 8.487985e-01 5.121471e-01 6.655806e-01 4.741329e-01 6.566071e-01 4.894262e-01 6.314911e-01 5.986472e-01
<GCONST> 1.469007e+02
<TRANSP> 5
 0.000000e+00 1.000000e+00 0.000000e+00 0.000000e+00 0.000000e+00
 0.000000e+00 8.578303e-01 1.421697e-01 0.000000e+00 0.000000e+00
 0.000000e+00 0.000000e+00 5.941817e-01 4.058183e-01 0.000000e+00
 0.000000e+00 0.000000e+00 0.000000e+00 5.370722e-01 4.629278e-01
 0.000000e+00 0.000000e+00 0.000000e+00 0.000000e+00 0.000000e+00
<ENDHMM>
~h "g"
<BEGINHMM>
<NUMSTATES> 5
<STATE> 2
<MEAN> 39
 -7.867497e+00 8.284728e+00 -3.757062e+00 1.071097e+01 1.409675e+00 2.645171e+00 6.443242e+00 -2.863138e+00 4.925686e+00 -4.611822e+00 1.858492e-01 -4.184742e+00 6.011798e+01 5.619543e-01 6.572499e-01 3.522712e-01 4.696462e-01 5.865398e-01 7.192306e-02 -3.961427e-01 -3.735389e-01 -3.213980e-01 -2.829741e-01 -8.522025e-02 -1.722692e-01 2.544203e-01 -5.401727e-03 -2.349516e-02 1.054047e-01 -7.885914e-02 -1.140776e-01 -6.805099e-02 -3.580335e-02 3.986299e-02 -7.477626e-02 7.952454e-02 1.989607e-01 7.330400e-02 -4.208703e-02
<VARIANCE> 39
 5.716858e+01 5.151335e+01 8.866065e+01 2.917897e+01 6.331519e+01 3.375941e+01 2.703893e+01 3.932239e+01 5.195882e+01 3.384370e+01 2.274689e+01 4.164951e+01 2.743605e+01 1.950303e+00 3.849118e+00 3.491541e+00 1.553482e+00 1.837186e+00 1.454388e+00 2.337553e+00 2.213156e+00 2.254803e+00 1.897482e+00 2.356111e+00 1.752750e+00 6.698427e-01 3.400893e-01 5.027781e-01 5.675235e-01 2.832137e-01 2.645482e-01 1.994916e-01 4.333912e-01 4.747782e-01 4.899604e-01 2.882074e-01 3.580094e-01 3.341583e-01 1.266472e-01
<GCONST> 1.143375e+02
<STATE> 3
<MEAN> 39
 -6.672593e+00 1.063325e+01 -6.296350e-02 1.264173e+01 1.518580e+00 3.919122e+00 6.552054e+00 -2.203911e+00 4.679954e+00 -4.014852e+00 3.472127e+00 -4.642602e+00 5.925796e+01 -6.852072e-02 -9.055251e-02 6.943595e-02 -3.658383e-02 -3.586299e-02 -3.296816e-02 -6.008913e-02 3.142228e-01 3.362461e-02 4.255460e-02 6.768654e-02 1.203265e-01 -8.326950e-02 -9.506433e-02 -1.487039e-01 -1.653622e-01 -1.767661e-01 -5.330439e-02 -6.334378e-02 1.103975e-01 2.378046e-02 -5.135103e-02 -1.454253e-02 -1.343868e-01 -7.053269e-03 1.076819e-01
<VARIANCE> 39
 9.703345e+01 3.198158e+01 7.690704e+01 3.323403e+01 4.346864e+01 3.139786e+01 2.571972e+01 4.327514e+01 4.920134e+01 2.978848e+01 2.934772e+01 2.188376e+01 1.898884e+01 2.458547e-01 4.582013e-01 6.813352e-01 7.481099e-01 1.068936e+00 1.152840e+00 1.358111e+00 1.201475e+00 1.700271e+00 1.800451e+00 1.854680e+00 9.897124e-01 9.704949e-02 1.176725e-01 1.793098e-01 2.111924e-01 2.679010e-01 2.620878e-01 2.401384e-01 3.261683e-01 2.877554e-01 5.073995e-01 3.856286e-01 3.656851e-01 1.935416e-01 8.187211e-02
<GCONST> 9.708651e+01
<STATE> 4
<MEAN> 39
 -2.190199e+00 6.613028e+00 -5.918682e+00 5.610661e+00 2.922612e+00 -3.289647e-01 4.020425e+00 4.235079e-01 1.284139e+00 -9.694159e+00 2.391270e+00 -7.120039e+00 6.612860e+01 -4.445068e-02 -1.475156e-01 -1.061857e-01 -3.595317e-01 -2.257944e-01 1.813754e-03 5.265272e-02 -4.119302e-02 -1.191724e-02 -6.254630e-02 -5.129603e-02 -4.331658e-02 2.331917e-01 -5.190864e-02 -8.351593e-02 -1.004045e-01 -1.988193e-01 -3.208316e-02 -2.483362e-02 2.262640e-01 -1.123143e-01 -1.613307e-01 4.704691e-02 -5.915472e-02 -3.862247e-02 2.296910e-01
<VARIANCE> 39
 5.797879e+01 2.713794e+01 5.031598e+01 3.662667e+01 3.526796e+01 8.981702e+01 2.853762e+01 4.260393e+01 3.798008e+01 7.685885e+01 2.608505e+01 3.386225e+01 5.468757e+01 2.281509e+00 1.487022e+00 1.762359e+00 2.158192e+00 2.621468e+00 4.144464e+00 2.992609e+00 2.579301e+00 2.759585e+00 4.201342e+00 2.776944e+00 2.349903e+00 1.062151e+00 5.163699e-01 2.555814e-01 3.074278e-01 4.631651e-01 5.696478e-01 8.401105e-01 6.838683e-01 5.692325e-01 5.756682e-01 8.319902e-01 6.342601e-01 4.127482e-01 3.839182e-01
<GCONST> 1.231703e+02
<TRANSP> 5
 0.000000e+00 1.000000e+00 0.000000e+00 0.000000e+00 0.000000e+00
 0.000000e+00 6.995994e-01 3.004005e-01 0.000000e+00 0.000000e+00
 0.000000e+00 0.000000e+00 7.236120e-01 2.763880e-01 0.000000e+00
 0.000000e+00 0.000000e+00 0.000000e+00 7.630684e-01 2.369316e-01
 0.000000e+00 0.000000e+00 0.000000e+00 0.000000e+00 0.000000e+00
<ENDHMM>
~h "k"
<BEGINHMM>
<NUMSTATES> 5
<STATE> 2
<MEAN> 39
 -1.334003e+01 1.816211e+00 1.406202e+00 3.345608e+00 -7.830080e-01 -5.012439e-01 2.005367e+00 -4.446722e+00 6.492797e-01 -3.837628e+00 -4.548742e-01 -2.196916e+00 5.649364e+01 -6.169816e-01 3.758121e-01 2.190237e-01 -1.349120e-01 -3.312082e-01 -1.960208e-02 1.975543e-01 3.961025e-01 -6.933792e-03 2.246967e-01 1.936770e-01 3.184758e-01 -5.740641e-01 1.147894e-01 -7.071181e-02 2.253340e-02 9.319769e-02 -3.741341e-02 -1.130897e-01 -1.681617e-02 -1.831519e-01 1.022197e-02 2.111119e-01 1.377255e-01 3.048176e-02 3.763214e-02
<VARIANCE> 39
 1.289281e+02 7.192313e+01 1.176702e+02 6.337690e+01 8.355701e+01 1.374791e+02 1.023255e+02 6.392397e+01 4.417914e+01 6.369302e+01 5.161475e+01 4.395972e+01 1.331569e+02 5.287227e-01 1.568683e+00 2.729646e+00 1.482270e+00 2.213243e+00 1.624361e+00 2.288810e+00 2.078616e+00 2.251871e+00 1.769719e+00 1.558047e+00 1.615162e+00 5.052441e-01 9.162505e-02 2.393118e-01 3.706667e-01 2.641271e-01 3.110478e-01 3.800975e-01 5.214632e-01 5.352246e-01 3.422154e-01 4.495655e-01 3.720466e-01 1.911899e-01 8.864263e-02
<GCONST> 1.176043e+02
<STATE> 3
<MEAN> 39
 -1.619473e+01 3.757680e-02 2.599135e+00 2.282736e+00 -2.666243e+00 -1.802401e+00 1.400717e+00 -5.478380e+00 1.517884e+00 -2.841904e+00 -9.888399e-02 -7.751501e-01 5.599250e+01 -4.469579e-01 1.838840e-01 9.063525e-03 8.831205e-02 -1.957564e-01 -4.955497e-02 7.119647e-02 2.311114e-01 1.283985e-01 3.318232e-01 1.977833e-01 2.443237e-01 -4.667640e-01 1.773385e-01 -7.136160e-02 -1.792759e-02 1.558436e-01 1.082122e-01 -9.958678e-02 3.472996e-02 -1.377918e-01 -3.541437e-02 7.616224e-04 1.278505e-02 -3.420990e-02 1.072255e-01
<VARIANCE> 39
 1.254972e+02 7.116891e+01 1.224483e+02 5.825375e+01 6.052150e+01 1.313889e+02 9.085077e+01 5.159578e+01 3.802108e+01 5.205172e+01 4.962190e+01 4.419745e+01 1.525090e+02 3.473878e-01 9.137639e-01 1.770364e+00 1.418192e+00 1.552492e+00 1.872739e+00 2.644160e+00 2.079401e+00 1.971645e+00 2.206987e+00 2.180955e+00 1.155279e+00 4.312507e-01 6.321593e-02 1.252878e-01 2.112181e-01 1.752277e-01 2.418621e-01 1.903995e-01 2.474075e-01 4.431544e-01 2.589180e-01 2.454934e-01 2.521970e-01 2.167439e-01 4.891333e-02
<GCONST> 1.093864e+02
<STATE> 4
<MEAN> 39
 -6.632975e+00 1.057257e+00 -2.294982e+00 6.183678e+00 3.589934e+00 5.386900e+00 5.595716e+00 7.897935e-01 2.839246e+00 -4.134108e+00 1.345855e+00 -2.156098e+00 5.429775e+01 2.766957e-02 6.121449e-03 3.283004e-02 1.893066e-02 4.251368e-02 -1.971466e-02 5.303938e-02 2.936582e-02 1.409649e-02 6.536408e-03 -8.436640e-03 3.837611e-02 -6.122978e-02 2.187339e-02 -2.208976e-02 -9.369805e-03 -6.565805e-03 1.865296e-03 2.508637e-03 5.423399e-03 -1.378083e-02 -1.938481e-03 -6.736906e-03 -1.002669e-02 -1.668313e-02 1.278876e-02
<VARIANCE> 39
 1.073835e+02 4.864543e+01 2.734355e+01 3.172835e+01 4.598938e+01 4.267920e+01 3.682758e+01 2.942247e+01 2.683615e+01 3.029057e+01 2.383034e+01 3.379418e+01 1.078926e+02 2.675329e-01 4.727244e-01 7.245084e-01 1.037158e+00 1.140695e+00 1.433600e+00 1.655500e+00 1.691748e+00 1.909471e+00 1.773926e+00 1.615369e+00 1.332282e+00 1.307350e-01 4.888672e-02 9.052055e-02 1.477934e-01 1.815503e-01 2.235799e-01 2.898469e-01 3.062003e-01 3.115995e-01 3.826760e-01 3.645100e-01 3.293451e-01 2.729863e-01 2.037477e-02
<GCONST> 9.637028e+01
<TRANSP> 5
 0.000000e+00 1.000000e+00 0.000000e+00 0.000000e+00 0.000000e+00
 0.000000e+00 3.932954e-02 9.606705e-01 0.000000e+00 0.000000e+00
 0.000000e+00 0.000000e+00 3.298965e-01 6.701035e-01 0.000000e+00
 0.000000e+00 0.000000e+00 0.000000e+00 8.999043e-01 1.000957e-01
 0.000000e+00 0.000000e+00 0.000000e+00 0.000000e+00 0.000000e+00
<ENDHMM>
~h "l"
<BEGINHMM>
<NUMSTATES> 5
<STATE> 2
<MEAN> 39
 -6.197830e+00 9.928796e+00 4.155357e+00 1.103857e+01 -3.882937e-01 -1.249725e+00 2.499892e+00 -5.729614e+00 1.092165e+00 -6.959264e+00 -2.129785e+00 -6.068009e+00 5.619296e+01 -6.409773e-01 -9.669925e-02 -1.612216e-02 7.841384e-02 3.671997e-02 2.505601e-01 2.078287e-01 3.385684e-01 3.187635e-01 5.531622e-02 -1.328556e-01 -3.836443e-02 -5.532210e-01 -3.205274e-02 -1.591853e-01 -8.170339e-02 -5.017474e-02 3.830718e-02 -2.219749e-02 -1.284557e-02 1.117850e-02 4.144457e-02 7.766952e-02 4.271401e-02 5.017688e-02 2.004369e-02
<VARIANCE> 39
 2.669283e+01 3.721861e+01 3.106108e+01 7.152161e+01 3.803763e+01 4.173529e+01 3.830227e+01 4.876740e+01 4.207792e+01 3.041869e+01 2.208804e+01 3.937099e+01 2.992360e+01 5.081490e-01 1.199173e+00 1.822842e+00 1.635346e+00 1.355748e+00 1.709823e+00 1.697795e+00 1.859542e+00 2.201871e+00 2.250550e+00 1.612045e+00 1.208002e+00 1.656033e-01 7.529123e-02 1.494980e-01 1.635476e-01 2.429007e-01 2.028682e-01 3.080381e-01 2.849441e-01 3.555755e-01 3.604770e-01 3.658872e-01 2.673055e-01 2.093056e-01 2.605479e-02
<GCONST> 1.002328e+02
<STATE> 3
<MEAN> 39
 -1.079877e+01 6.224226e-01 -1.177705e+00 6.028416e+00 -6.619600e+00 -2.963989e+00 4.941488e+00 -4.419266e+00 1.681920e+00 -5.392146e-01 -1.442822e+00 9.368041e-01 5.649927e+01 -1.833025e-01 -9.704171e-02 -1.321084e-01 -1.070550e-01 -1.251536e-02 1.397724e-02 1.256981e-01 2.696279e-01 2.522388e-01 1.325704e-01 9.810144e-02 5.385765e-02 -1.900017e-01 1.820447e-02 2.779233e-02 6.939824e-02 4.628250e-02 1.650316e-02 1.432345e-02 -7.808339e-03 -4.484471e-02 -3.128884e-02 -1.013533e-02 8.991825e-04 -3.439744e-02 1.591610e-02
<VARIANCE> 39
 2.389074e+01 3.039103e+01 1.388521e+01 1.620530e+01 2.691039e+01 1.982720e+01 2.067907e+01 2.255121e+01 2.408648e+01 2.429440e+01 1.755690e+01 2.458059e+01 1.712819e+01 5.959792e-01 1.052343e+00 9.608065e-01 8.322626e-01 1.158012e+00 1.333441e+00 1.680400e+00 1.681262e+00 1.502201e+00 1.728359e+00 1.551412e+00 1.372740e+00 3.411070e-01 7.662461e-02 1.729979e-01 1.675660e-01 1.420029e-01 2.003422e-01 2.317067e-01 3.551408e-01 3.026777e-01 2.957875e-01 3.994497e-01 3.405856e-01 2.278894e-01 4.608563e-02
<GCONST> 9.167200e+01
<STATE> 4
<MEAN> 39
 -1.174958e+01 3.155559e+00 4.742759e-01 9.163961e+00 3.170802e+00 4.001365e+00 6.012427e+00 -1.797946e-01 4.126564e+00 -4.917212e+00 4.031163e-01 -4.015050e+00 5.090491e+01 -3.240998e-02 -7.660646e-03 3.276937e-03 3.720061e-02 1.898476e-02 3.350445e-02 1.120478e-02 4.306204e-02 -1.659478e-02 -3.030392e-02 1.600171e-02 -4.481555e-04 -8.273923e-02 4.260180e-03 -1.114912e-02 -6.446497e-03 -4.557708e-03 -6.750743e-03 -8.915056e-03 -4.811458e-03 -1.178421e-02 -5.838467e-03 7.260919e-03 -2.567003e-03 -2.806238e-04 1.186576e-02
<VARIANCE> 39
 7.560796e+01 8.356023e+00 1.477737e+01 2.150623e+01 2.041958e+01 1.785236e+01 1.414612e+01 2.184559e+01 1.508780e+01 2.106615e+01 1.519283e+01 2.240599e+01 7.015192e+01 1.359248e-01 2.833791e-01 4.960252e-01 6.569984e-01 8.777503e-01 1.070554e+00 1.236225e+00 1.476588e+00 1.319067e+00 1.194325e+00 1.079630e+00 1.007285e+00 5.343868e-02 2.457660e-02 5.518206e-02 9.906521e-02 1.248402e-01 1.685831e-01 2.127033e-01 2.530510e-01 2.937154e-01 2.914163e-01 2.400335e-01 2.080685e-01 2.001243e-01 1.004352e-02
<GCONST> 7.776977e+01
<TRANSP> 5
 0.000000e+00 1.000000e+00 0.000000e+00 0.000000e+00 0.000000e+00
 0.000000e+00 7.415630e-01 2.584370e-01 0.000000e+00 0.000000e+00
 0.000000e+00 0.000000e+00 8.929029e-01 1.070972e-01 0.000000e+00
 0.000000e+00 0.000000e+00 0.000000e+00 9.715638e-01 2.843627e-02
 0.000000e+00 0.000000e+00 0.000000e+00 0.000000e+00 0.000000e+00
<ENDHMM>
~h "m"
<BEGINHMM>
<NUMSTATES> 5
<STATE> 2
<MEAN> 39
 2.601098e+00 1.188564e+01 5.755366e+00 8.968943e+00 -4.961872e+00 -8.153959e+00 -2.350635e+00 -8.088609e+00 -3.698228e+00 -7.545992e+00 -6.407925e+00 -5.967442e-01 6.374982e+01 -3.280049e-03 1.240192e-01 1.323285e-01 9.086522e-02 1.386580e-02 1.236143e-02 -3.058780e-02 -5.236731e-04 8.394058e-04 -7.443487e-02 -5.323951e-02 2.296318e-02 -3.443559e-02 -2.253455e-02 -2.784159e-02 -1.607077e-02 -1.022961e-02 1.917827e-02 1.280368e-02 2.048052e-02 2.297598e-03 -6.773184e-03 8.467163e-03 1.946788e-02 1.109910e-02 -3.419092e-03
<VARIANCE> 39
 4.851026e+01 2.935093e+01 4.758451e+01 4.318777e+01 4.507864e+01 4.192645e+01 5.410402e+01 2.508175e+01 3.467580e+01 2.370384e+01 1.962197e+01 3.189198e+01 1.469254e+01 1.241887e+00 1.149187e+00 1.689107e+00 1.591209e+00 1.596381e+00 2.380741e+00 2.674721e+00 1.865065e+00 2.384804e+00 1.384980e+00 1.204390e+00 1.659651e+00 3.079378e-01 1.402910e-01 1.715846e-01 1.850985e-01 2.003706e-01 2.309594e-01 3.249412e-01 3.554842e-01 3.154022e-01 4.086051e-01 2.300374e-01 2.014527e-01 2.414726e-01 3.930490e-02
<GCONST> 1.017349e+02
<STATE> 3
<MEAN> 39
 -6.680675e+00 6.118261e+00 7.665528e+00 1.441782e+01 -1.407364e+00 -5.662734e+00 3.914504e+00 -7.071694e+00 -1.610896e+00 -4.407770e+00 -3.144391e+00 -1.623954e+00 5.994466e+01 -2.420072e-01 -6.209953e-01 -2.235374e-01 -1.412100e-01 1.276631e-02 1.072331e-01 2.331831e-01 1.841743e-01 1.374670e-01 9.783009e-02 1.496577e-02 4.941509e-02 5.199245e-02 1.422879e-03 -4.875467e-02 -7.456230e-02 -1.223260e-01 -5.220863e-02 -5.445903e-02 -2.069952e-02 7.222429e-03 -1.463091e-02 2.164582e-02 3.227597e-02 4.532310e-03 1.956141e-02
<VARIANCE> 39
 4.485357e+01 8.633424e+01 3.713640e+01 3.168204e+01 3.110411e+01 9.561281e+01 4.645739e+01 3.083940e+01 2.776562e+01 3.677047e+01 1.870419e+01 3.124387e+01 1.435168e+01 2.647414e+00 4.691974e+00 2.099182e+00 2.173813e+00 2.237413e+00 2.973044e+00 3.113579e+00 1.942054e+00 1.923241e+00 2.532835e+00 1.883190e+00 1.147942e+00 9.505609e-01 2.880664e-01 6.737335e-01 3.110114e-01 3.432806e-01 4.475957e-01 4.341535e-01 4.882155e-01 2.619857e-01 3.013168e-01 3.976937e-01 3.552453e-01 1.735217e-01 1.383328e-01
<GCONST> 1.138151e+02
<STATE> 4
<MEAN> 39
 -1.282391e+01 5.549600e-01 -1.074028e+00 7.715193e+00 -3.936707e+00 -6.379244e-01 4.701903e+00 -3.929022e+00 3.060444e+00 -1.546060e+00 -2.054825e-01 9.621540e-02 5.366353e+01 -1.747620e-01 -1.085217e-01 -8.378249e-02 -7.992424e-02 -5.021760e-02 3.006549e-02 6.506194e-02 3.659475e-02 8.707090e-02 1.237529e-01 1.541842e-01 8.411250e-02 -1.516307e-01 2.476098e-02 -1.269185e-02 -7.169364e-03 1.858215e-02 1.275743e-02 -2.724146e-03 -6.588199e-04 3.407497e-03 1.258948e-02 9.617249e-03 -1.976531e-02 -1.146996e-02 1.422018e-02
<VARIANCE> 39
 2.556364e+01 3.661688e+01 1.892197e+01 2.102713e+01 4.843018e+01 2.962056e+01 1.489524e+01 1.661581e+01 2.097068e+01 3.115538e+01 1.560554e+01 3.178592e+01 3.185260e+01 3.280072e-01 7.324734e-01 6.974604e-01 6.227968e-01 9.307761e-01 1.121468e+00 1.554563e+00 1.305930e+00 1.599313e+00 1.516478e+00 1.222313e+00 9.432739e-01 2.564961e-01 5.914851e-02 1.360170e-01 1.406842e-01 1.102466e-01 1.840925e-01 2.259533e-01 3.038199e-01 2.582160e-01 3.372450e-01 3.208034e-01 2.655696e-01 1.807628e-01 5.070116e-02
<GCONST> 8.863760e+01
<TRANSP> 5
 0.000000e+00 1.000000e+00 0.000000e+00 0.000000e+00 0.000000e+00
 0.000000e+00 9.523613e-01 4.763867e-02 0.000000e+00 0.000000e+00
 0.000000e+00 0.000000e+00 8.911802e-01 1.088197e-01 0.000000e+00
 0.000000e+00 0.000000e+00 0.000000e+00 9.408877e-01 5.911218e-02
 0.000000e+00 0.000000e+00 0.000000e+00 0.000000e+00 0.000000e+00
<ENDHMM>
~h "n"
<BEGINHMM>
<NUMSTATES> 5
<STATE> 2
<MEAN> 39
 -1.255890e+00 4.106171e+00 2.186002e+00 6.258137e+00 1.036687e+00 -5.823003e+00 -2.250280e+00 -6.348403e+00 -2.287395e+00 -1.757054e+00 -2.810183e+00 -2.689846e+00 5.708239e+01 1.968798e-01 1.043364e+00 6.295680e-01 7.520025e-01 3.196110e-02 2.069744e-01 -3.526589e-01 -3.740300e-01 -2.578323e-01 -2.241878e-01 -3.679349e-01 -4.478058e-01 -4.189537e-01 -4.856865e-03 -1.184597e-01 -7.918157e-02 5.042603e-02 -7.707110e-02 1.591923e-01 3.959600e-02 1.860859e-01 5.027657e-02 -1.332532e-01 9.958241e-02 -2.100109e-02 1.295322e-02
<VARIANCE> 39
 5.254051e+01 6.534930e+01 9.308012e+01 9.535528e+01 1.189977e+02 1.128202e+02 1.209998e+02 6.716403e+01 7.281141e+01 7.461929e+01 4.600174e+01 5.768061e+01 9.957420e+01 2.472541e+00 2.867248e+00 2.820008e+00 3.741704e+00 4.647023e+00 6.637618e+00 5.618743e+00 4.793944e+00 4.419381e+00 4.385482e+00 2.926986e+00 2.708866e+00 2.032062e+00 2.160120e-01 4.190185e-01 5.344157e-01 5.905495e-01 7.121655e-01 9.718996e-01 8.860680e-01 8.223836e-01 7.748826e-01 6.830587e-01 5.525061e-01 5.074319e-01 1.947674e-01
<GCONST> 1.374995e+02
<STATE> 3
<MEAN> 39
 1.308749e+00 7.628373e+00 2.922754e+00 1.109415e+01 8.940315e-01 -7.402112e+00 -6.024810e+00 -9.100772e+00 -1.359647e+00 -4.687335e+00 -5.120847e+00 -2.649979e+00 6.029132e+01 -3.505833e-01 3.040250e-01 2.484396e-01 1.495695e-01 -2.982869e-01 8.019227e-01 5.511716e-01 3.566782e-01 1.040513e-01 -2.881371e-01 2.140992e-02 -2.212344e-01 -4.575264e-01 -9.500482e-02 -2.626936e-01 -1.401070e-01 -1.426197e-01 -3.527013e-02 -5.090079e-02 1.254735e-01 1.448672e-01 1.980840e-02 6.069929e-02 1.286142e-01 1.097478e-01 6.067127e-02
<VARIANCE> 39
 4.437144e+01 4.748816e+01 3.650483e+01 4.361501e+01 7.387505e+01 7.073864e+01 9.016443e+01 4.150415e+01 4.304369e+01 3.554364e+01 3.899354e+01 5.148532e+01 7.183382e+01 1.100092e+00 2.128978e+00 1.884994e+00 2.271149e+00 2.548494e+00 4.556974e+00 4.551777e+00 3.276052e+00 2.978000e+00 2.567642e+00 2.694376e+00 4.159452e+00 9.671376e-01 1.523165e-01 3.852369e-01 2.669232e-01 3.707809e-01 4.122202e-01 7.873968e-01 8.048808e-01 4.968418e-01 5.218049e-01 4.791593e-01 4.744885e-01 7.001759e-01 1.435461e-01
<GCONST> 1.229613e+02
<STATE> 4
<MEAN> 39
 -3.586903e+00 3.279065e+00 2.965547e+00 8.185393e+00 -3.152217e+00 -1.751225e+00 -1.755429e+00 -4.832958e+00 -4.190376e-01 -5.544743e+00 -3.315379e+00 -2.256005e+00 5.223053e+01 -5.921230e-01 -4.025218e-01 -2.223823e-01 -7.968834e-02 -5.491699e-02 3.859630e-01 4.992089e-01 3.920788e-01 1.960099e-01 1.202328e-01 4.097561e-01 2.626228e-01 -3.369306e-01 -1.643072e-02 -2.549036e-01 -8.537433e-02 -1.189190e-01 4.036903e-03 -1.772948e-01 -7.174291e-02 -3.706433e-02 -1.699168e-02 1.198532e-01 7.601640e-02 8.513674e-02 1.561986e-01
<VARIANCE> 39
 5.411041e+01 1.188151e+02 3.808646e+01 4.342078e+01 8.295831e+01 4.622201e+01 5.803926e+01 4.049669e+01 3.681985e+01 3.416373e+01 3.960600e+01 3.237371e+01 1.295610e+02 1.061052e+00 2.004071e+00 1.842177e+00 1.952203e+00 2.128191e+00 2.380051e+00 2.358078e+00 2.108389e+00 2.515530e+00 2.041844e+00 2.062492e+00 1.963723e+00 7.159666e-01 1.957645e-01 4.138371e-01 3.108371e-01 3.740092e-01 4.961763e-01 5.077996e-01 4.611577e-01 4.410821e-01 4.229558e-01 4.148426e-01 4.212726e-01 3.714660e-01 1.679977e-01
<GCONST> 1.179748e+02
<TRANSP> 5
 0.000000e+00 1.000000e+00 0.000000e+00 0.000000e+00 0.000000e+00
 0.000000e+00 5.384157e-01 4.615842e-01 0.000000e+00 0.000000e+00
 0.000000e+00 0.000000e+00 5.580067e-01 4.419933e-01 0.000000e+00
 0.000000e+00 0.000000e+00 0.000000e+00 6.933958e-01 3.066042e-01
 0.000000e+00 0.000000e+00 0.000000e+00 0.000000e+00 0.000000e+00
<ENDHMM>
~h "r"
<BEGINHMM>
<NUMSTATES> 5
<STATE> 2
<MEAN> 39
 4.809488e+00 1.281780e+00 -5.936545e+00 2.566819e+00 -2.283640e+00 -6.724324e+00 -4.263627e+00 -5.776086e+00 -7.172616e+00 -4.056569e+00 -1.952911e-01 -2.567850e+00 6.108564e+01 -9.818692e-02 3.219852e-01 -4.382416e-01 2.776626e-03 5.696953e-01 5.083409e-01 -1.828358e-01 -2.554033e-01 -8.575757e-02 2.331555e-01 8.250957e-02 1.399636e-01 -4.132704e-01 -1.346487e-01 5.705840e-03 1.965326e-01 4.556781e-02 -8.838667e-02 -6.169152e-02 -5.198399e-02 4.716939e-02 2.319821e-01 1.544156e-02 -7.529794e-02 1.179034e-02 -3.140075e-02
<VARIANCE> 39
 5.483377e+01 1.031314e+02 8.451131e+01 9.225951e+01 1.118035e+02 8.743797e+01 1.369901e+02 1.187115e+02 9.263520e+01 5.566515e+01 5.648413e+01 4.613706e+01 6.386954e+01 8.626933e-01 1.828818e+00 2.918907e+00 2.620255e+00 3.429855e+00 3.473021e+00 4.487019e+00 4.797334e+00 4.210545e+00 2.348160e+00 2.677538e+00 2.039959e+00 6.719313e-01 8.490245e-02 2.665833e-01 3.550287e-01 3.802499e-01 4.978352e-01 6.118847e-01 8.566058e-01 8.512557e-01 6.049461e-01 4.241272e-01 4.783495e-01 4.001778e-01 7.626186e-02
<GCONST> 1.274799e+02
<STATE> 3
<MEAN> 39
 2.661973e+00 5.051486e+00 -1.914943e+00 9.288890e+00 2.817642e+00 -1.116436e+01 -6.538331e+00 -1.261624e+01 -1.060850e+01 -3.590385e+00 1.509968e-01 -3.155155e+00 6.448208e+01 -1.758744e-01 1.153941e-01 2.102445e-01 1.343033e-01 1.406908e-01 -2.227905e-01 -4.282063e-02 3.431968e-01 3.143870e-01 -7.957472e-03 -1.561886e-01 -1.749063e-02 -1.127712e-01 -4.981251e-02 1.353025e-02 1.045204e-01 -1.476333e-02 -6.171704e-02 4.244462e-02 8.085245e-02 8.621684e-02 7.998719e-02 -5.091224e-02 -7.241634e-02 -4.562664e-02 -1.863775e-02
<VARIANCE> 39
 3.299382e+01 5.867880e+01 7.600381e+01 1.117054e+02 1.003310e+02 7.648200e+01 1.023352e+02 5.514283e+01 6.185519e+01 4.768336e+01 4.893988e+01 4.463892e+01 3.617067e+01 2.708596e-01 6.804178e-01 1.172681e+00 1.718063e+00 1.443448e+00 2.013023e+00 1.922683e+00 1.903905e+00 1.932075e+00 1.724426e+00 1.453725e+00 1.396324e+00 1.905868e-01 3.419312e-02 8.884323e-02 1.492437e-01 1.699600e-01 1.679424e-01 2.602535e-01 2.552346e-01 2.973158e-01 2.788764e-01 2.551363e-01 2.590452e-01 2.352702e-01 2.066026e-02
<GCONST> 1.022702e+02
<STATE> 4
<MEAN> 39
 5.806437e-01 -6.145316e+00 -3.185903e+00 6.510410e-01 -5.044151e+00 -3.033973e+00 -2.776500e+00 1.806300e-01 3.292460e-01 -3.486900e+00 -5.235917e-01 -1.652113e+00 5.223463e+01 -3.782155e-01 2.186686e-01 2.340605e-01 4.934516e-02 1.151509e-01 4.723954e-01 1.905068e-01 -7.541712e-02 1.325626e-01 -4.218512e-02 -4.480201e-02 -5.020928e-02 -3.990709e-01 -2.257169e-02 8.345822e-03 1.138072e-02 -1.671335e-02 -7.566457e-03 4.344372e-02 2.261139e-02 -2.554542e-02 -2.282157e-02 -1.415394e-02 1.873024e-02 -1.203576e-03 -9.903364e-03
<VARIANCE> 39
 3.333689e+01 1.069445e+02 1.031569e+02 9.947147e+01 1.101558e+02 8.042510e+01 1.099200e+02 7.418997e+01 7.427043e+01 4.921259e+01 4.262537e+01 3.475746e+01 1.180136e+02 4.045150e-01 1.009749e+00 1.150652e+00 1.422450e+00 1.614733e+00 2.188857e+00 2.319636e+00 2.228257e+00 2.354256e+00 1.980945e+00 1.985739e+00 1.572156e+00 3.606079e-01 5.641415e-02 1.462572e-01 1.785238e-01 1.868167e-01 2.762768e-01 3.428499e-01 3.514031e-01 3.455151e-01 3.943476e-01 3.710714e-01 3.339973e-01 2.987905e-01 3.660438e-02
<GCONST> 1.114267e+02
<TRANSP> 5
 0.000000e+00 1.000000e+00 0.000000e+00 0.000000e+00 0.000000e+00
 0.000000e+00 6.089232e-01 3.910768e-01 0.000000e+00 0.000000e+00
 0.000000e+00 0.000000e+00 7.881963e-01 2.118038e-01 0.000000e+00
 0.000000e+00 0.000000e+00 0.000000e+00 8.249542e-01 1.750458e-01
 0.000000e+00 0.000000e+00 0.000000e+00 0.000000e+00 0.000000e+00
<ENDHMM>
~h "s"
<BEGINHMM>
<NUMSTATES> 5
<STATE> 2
<MEAN> 39
 -1.351170e+01 -9.818881e-01 2.720721e+00 1.092757e+00 5.411142e-01 -1.110459e+00 1.168658e+00 -5.500403e+00 -1.231355e+00 -3.933248e+00 1.675808e-01 -2.853407e+00 5.736899e+01 -9.624124e-01 -5.539118e-01 9.871630e-01 -7.752292e-01 -3.160156e-02 -8.970846e-02 5.618314e-01 -2.696000e-01 5.913745e-01 1.234379e-01 2.856627e-01 -1.269547e-02 9.311901e-01 -1.123938e-01 -1.189266e-02 1.064669e-02 -7.021030e-02 3.426993e-02 -9.158078e-02 3.940406e-02 5.154987e-02 4.174078e-02 7.543678e-03 5.287146e-02 4.206311e-02 9.037857e-02
<VARIANCE> 39
 1.068384e+02 7.292171e+01 1.279920e+02 1.207502e+02 1.619409e+02 1.264916e+02 1.829398e+02 8.830859e+01 6.619485e+01 7.502251e+01 3.961255e+01 6.456418e+01 2.082356e+02 6.827137e+00 4.784874e+00 8.269078e+00 6.988034e+00 4.914063e+00 8.587023e+00 6.610351e+00 4.547188e+00 4.384835e+00 4.343683e+00 3.067898e+00 3.249963e+00 3.788112e+00 7.258737e-01 6.630604e-01 1.148987e+00 1.107556e+00 7.701548e-01 1.283437e+00 1.117707e+00 8.169795e-01 7.595068e-01 6.953812e-01 5.866462e-01 5.815318e-01 5.439372e-01
<GCONST> 1.499484e+02
<STATE> 3
<MEAN> 39
 -1.924144e+01 1.352724e+00 2.251484e+00 4.086937e+00 -1.409018e+00 -2.015806e-01 6.425540e+00 -4.596780e+00 5.080907e+00 -2.693018e+00 3.217013e+00 -2.072423e+00 5.801333e+01 -4.253395e-01 -3.384329e-01 1.565598e-01 -2.937345e-01 -7.329751e-02 -4.693832e-03 -4.418738e-02 1.520902e-01 1.592533e-01 -1.982611e-02 1.233920e-01 1.670168e-01 4.128127e-01 2.698390e-01 5.170576e-02 -2.286792e-01 6.253569e-02 -1.628872e-02 5.985771e-02 -2.257271e-01 6.874172e-04 -1.361740e-01 -1.136255e-01 -1.871074e-01 -1.259648e-02 -1.470272e-01
<VARIANCE> 39
 8.267425e+01 1.034887e+02 1.968871e+02 1.112351e+02 1.029256e+02 9.871056e+01 8.980803e+01 7.412233e+01 7.293459e+01 5.461515e+01 3.942187e+01 5.173133e+01 1.075706e+02 2.815065e+00 2.246241e+00 4.023205e+00 4.030352e+00 2.760445e+00 2.895409e+00 3.610182e+00 3.185013e+00 2.369488e+00 2.598845e+00 2.372711e+00 1.486120e+00 1.382344e+00 4.002116e-01 3.519082e-01 7.671307e-01 7.592332e-01 5.523115e-01 5.448779e-01 7.011351e-01 5.617154e-01 6.090026e-01 5.128984e-01 4.172275e-01 3.641685e-01 2.036695e-01
<GCONST> 1.326240e+02
<STATE> 4
<MEAN> 39
 -2.248826e+01 -1.849031e+00 4.071079e+00 -1.935488e+00 -1.890848e-01 -5.715550e-01 4.844678e+00 -4.697609e+00 4.294831e+00 -1.962738e+00 1.714203e+00 -2.693008e-01 5.707846e+01 1.042574e-01 -1.174101e-01 -2.361921e-01 8.747416e-02 -5.894297e-02 3.257924e-02 -2.520295e-01 -1.186118e-03 2.564257e-02 -4.961796e-02 -1.469027e-01 8.759039e-03 -9.745945e-02 2.498174e-01 1.956735e-02 -5.047487e-02 1.324230e-01 -1.840417e-02 -6.251939e-02 -1.063464e-01 -8.683047e-02 -1.077987e-01 -3.852335e-02 -8.624196e-02 1.201092e-02 -5.128943e-02
<VARIANCE> 39
 7.964965e+01 1.031137e+02 1.921635e+02 1.089495e+02 9.435363e+01 9.890015e+01 7.915243e+01 5.253436e+01 5.251718e+01 5.308468e+01 3.429763e+01 4.694617e+01 1.279335e+02 1.176430e+00 1.095595e+00 1.693442e+00 1.727102e+00 1.569760e+00 2.174170e+00 2.428188e+00 2.263598e+00 2.087131e+00 1.749475e+00 1.651255e+00 1.389501e+00 8.247875e-01 2.373492e-01 2.390667e-01 2.423325e-01 2.700463e-01 2.862191e-01 3.983968e-01 4.468382e-01 4.362282e-01 4.028740e-01 3.212118e-01 3.144030e-01 2.658808e-01 9.670070e-02
<GCONST> 1.182092e+02
<TRANSP> 5
 0.000000e+00 1.000000e+00 0.000000e+00 0.000000e+00 0.000000e+00
 0.000000e+00 7.155802e-01 2.844198e-01 0.000000e+00 0.000000e+00
 0.000000e+00 0.000000e+00 4.785267e-01 5.214733e-01 0.000000e+00
 0.000000e+00 0.000000e+00 0.000000e+00 7.750210e-01 2.249790e-01
 0.000000e+00 0.000000e+00 0.000000e+00 0.000000e+00 0.000000e+00
<ENDHMM>
~h "t"
<BEGINHMM>
<NUMSTATES> 5
<STATE> 2
<MEAN> 39
 -4.569749e+00 3.679559e-01 1.033993e+00 9.948337e+00 2.440325e+00 -7.278719e+00 -9.634751e-01 -8.103346e+00 -2.565494e+00 -3.062987e+00 -2.552334e-01 -3.295607e+00 6.180957e+01 6.307940e-01 4.587835e-01 -7.429763e-01 -2.490097e-01 -2.380417e-01 -1.882134e-01 -2.440471e-01 -3.546187e-02 -2.415793e-01 -3.883519e-01 1.475024e-01 2.454996e-01 -1.352387e-01 -3.964371e-01 -2.078483e-01 -6.250582e-02 -2.586358e-01 -2.106215e-01 1.090981e-01 2.854000e-01 2.612698e-01 1.258844e-01 4.201262e-02 7.239170e-02 6.736412e-02 -1.470812e-01
<VARIANCE> 39
 6.873727e+01 7.115706e+01 6.824235e+01 7.922403e+01 1.106415e+02 1.084808e+02 1.207373e+02 8.485353e+01 8.677090e+01 6.506511e+01 4.874894e+01 6.687425e+01 1.012722e+02 2.125225e+00 2.966071e+00 2.155645e+00 2.441541e+00 1.829377e+00 5.327631e+00 3.372517e+00 3.089115e+00 5.101636e+00 3.521808e+00 2.782172e+00 2.145367e+00 1.249761e+00 4.006769e-01 6.111076e-01 4.194986e-01 4.458100e-01 4.813246e-01 5.494666e-01 6.299783e-01 8.442309e-01 5.609224e-01 5.818320e-01 5.625212e-01 3.995708e-01 2.446779e-01
<GCONST> 1.326961e+02
<STATE> 3
<MEAN> 39
 -4.683398e+00 1.048692e+00 6.345193e-01 9.602129e+00 1.148563e+00 -8.308952e+00 -2.393580e+00 -8.729826e+00 -3.313211e+00 -3.107900e+00 2.971178e-02 -2.474877e+00 6.105970e+01 3.597442e-02 1.880465e-01 -6.229714e-01 -4.972891e-01 -3.063483e-01 1.726413e-01 3.494293e-01 3.152480e-01 -1.186668e-02 -1.691640e-01 6.899706e-02 1.767837e-01 -4.040664e-01 -2.521430e-01 -1.118996e-01 9.263574e-02 -8.237040e-02 -9.766752e-02 1.832787e-01 2.057979e-01 1.568166e-01 9.124037e-02 3.932720e-02 -1.312027e-02 -1.688659e-02 -9.158098e-02
<VARIANCE> 39
 7.092588e+01 6.105658e+01 6.421915e+01 6.714494e+01 9.569882e+01 1.080823e+02 1.317609e+02 7.820490e+01 9.923213e+01 6.018024e+01 4.667479e+01 5.829232e+01 1.038535e+02 1.493600e+00 1.541938e+00 1.875623e+00 1.936750e+00 2.074048e+00 3.497491e+00 2.884173e+00 2.371528e+00 2.853786e+00 2.960031e+00 2.403995e+00 1.600640e+00 8.823301e-01 2.424766e-01 3.806448e-01 3.070112e-01 2.582234e-01 3.307243e-01 4.434022e-01 4.342825e-01 4.851692e-01 6.186938e-01 4.854207e-01 4.169002e-01 2.929417e-01 1.368603e-01
<GCONST> 1.238464e+02
<STATE> 4
<MEAN> 39
 -4.625959e+00 -1.098773e+00 -4.565254e+00 3.586126e+00 -5.522664e-01 -5.999522e+00 3.195342e+00 -3.830320e+00 -1.389720e+00 -3.645223e+00 -1.827014e-01 -1.103231e+00 6.393458e+01 1.708412e-01 6.797253e-02 -2.727410e-01 -2.816400e-01 -3.882785e-01 2.719844e-01 2.246308e-01 6.042218e-01 1.045436e-01 -2.499561e-01 4.282269e-03 1.995860e-02 -3.575439e-01 -1.770524e-02 3.175131e-02 1.722037e-01 1.083689e-01 5.378177e-02 9.028864e-03 -4.451353e-02 -2.079187e-02 2.412262e-04 1.019078e-01 9.473908e-03 -9.438841e-02 -3.954928e-02
<VARIANCE> 39
 8.474953e+01 7.179777e+01 7.516803e+01 7.942184e+01 8.734145e+01 9.322932e+01 1.024284e+02 6.948431e+01 8.038995e+01 5.300426e+01 4.686297e+01 5.425764e+01 1.811038e+02 9.987088e-01 1.033836e+00 1.269734e+00 1.421971e+00 1.562595e+00 2.701234e+00 2.444133e+00 2.407251e+00 2.447777e+00 2.301748e+00 2.061011e+00 1.830003e+00 6.200349e-01 1.665247e-01 2.068026e-01 2.149468e-01 2.217094e-01 2.284875e-01 4.871831e-01 4.477374e-01 2.829869e-01 5.328910e-01 3.690862e-01 3.682316e-01 2.701498e-01 8.682065e-02
<GCONST> 1.177196e+02
<TRANSP> 5
 0.000000e+00 1.000000e+00 0.000000e+00 0.000000e+00 0.000000e+00
 0.000000e+00 1.761984e-01 8.238016e-01 0.000000e+00 0.000000e+00
 0.000000e+00 0.000000e+00 2.211396e-01 7.788604e-01 0.000000e+00
 0.000000e+00 0.000000e+00 0.000000e+00 5.275483e-01 4.724517e-01
 0.000000e+00 0.000000e+00 0.000000e+00 0.000000e+00 0.000000e+00
<ENDHMM>
~h "v"
<BEGINHMM>
<NUMSTATES> 5
<STATE> 2
<MEAN> 39
 -2.425904e+00 -5.113321e+00 -3.743073e+00 -3.988166e-01 -1.102692e+00 -8.805664e+00 -3.695407e+00 -4.190110e+00 -6.299287e-01 -2.500317e+00 1.931785e+00 -2.667774e+00 6.667765e+01 4.104121e-01 -4.842975e-02 3.080764e-01 7.385290e-02 -3.856924e-01 -7.208486e-01 -6.243075e-01 7.406843e-02 -2.089980e-01 -3.508309e-01 -5.230920e-02 2.084973e-02 2.379400e-01 -1.255650e-02 -6.815210e-02 -6.883125e-02 -3.509605e-02 6.608191e-02 4.618711e-02 1.234899e-02 4.826215e-02 -3.693089e-02 -4.531271e-02 -3.501330e-02 -3.392854e-03 2.078048e-02
<VARIANCE> 39
 1.353553e+02 9.672517e+01 1.057981e+02 9.633775e+01 1.950570e+02 1.071868e+02 1.165774e+02 9.969324e+01 7.927052e+01 5.282891e+01 8.562326e+01 7.220028e+01 1.205557e+02 9.600616e+00 4.205585e+00 2.866398e+00 5.893357e+00 4.564537e+00 8.773875e+00 6.025506e+00 4.550246e+00 4.558819e+00 4.627438e+00 4.658947e+00 2.960106e+00 3.619048e+00 1.063760e+00 5.513363e-01 4.713707e-01 7.975000e-01 7.208643e-01 1.629314e+00 1.006185e+00 7.965636e-01 7.570222e-01 8.454891e-01 8.950285e-01 4.374720e-01 5.070971e-01
<GCONST> 1.484067e+02
<STATE> 3
<MEAN> 39
 -4.507758e+00 -5.198225e+00 -1.010093e+00 4.303420e-01 -2.220654e+00 -8.376988e+00 -5.956303e+00 -8.168963e+00 -1.200908e+00 -2.824266e+00 -1.998826e+00 -2.811324e+00 6.189313e+01 -1.504278e-01 6.430395e-01 1.888931e-01 6.140527e-01 3.047614e-01 9.676591e-01 -4.706853e-03 2.822234e-02 1.496433e-01 -7.696085e-02 -3.908159e-01 -7.944856e-02 -1.275550e+00 -1.210801e-01 1.875627e-01 -4.974517e-02 4.220146e-03 1.168929e-01 2.908128e-01 1.481609e-01 1.193835e-01 2.053697e-01 2.064241e-02 7.046063e-02 3.920130e-02 -1.793471e-01
<VARIANCE> 39
 1.570074e+02 6.945638e+01 6.419157e+01 1.272794e+02 1.948644e+02 9.426839e+01 1.170497e+02 1.466378e+02 8.747086e+01 1.032802e+02 9.470535e+01 5.850061e+01 1.338820e+02 2.604666e+00 3.456845e+00 2.658431e+00 3.478689e+00 4.236312e+00 5.567809e+00 4.501517e+00 5.451871e+00 4.547806e+00 5.336249e+00 4.407244e+00 2.371300e+00 1.626117e+00 3.605446e-01 4.448481e-01 3.881480e-01 5.929483e-01 7.258300e-01 6.807381e-01 8.311096e-01 8.777019e-01 6.888673e-01 8.312459e-01 7.753824e-01 4.414466e-01 2.056628e-01
<GCONST> 1.414514e+02
<STATE> 4
<MEAN> 39
 -3.348250e+00 -4.929882e+00 -2.687861e-01 1.577588e+00 -5.208698e+00 -1.853758e+00 -1.920219e+00 -6.998056e-01 3.097296e+00 -3.516579e+00 -1.607484e+00 -2.049868e-01 5.045613e+01 -5.049306e-01 4.402724e-01 1.268211e-02 3.498088e-01 5.010014e-01 6.668342e-01 1.779765e-01 1.258582e-01 7.769941e-02 1.871010e-01 3.819790e-01 2.165402e-01 -7.524022e-01 -3.444090e-02 -1.988665e-01 -2.963901e-04 -7.675235e-02 -9.268226e-02 -1.811185e-01 3.693958e-02 -3.359411e-02 -1.097429e-02 7.350006e-02 -1.578722e-02 5.399460e-04 1.517055e-01
<VARIANCE> 39
 4.905620e+01 1.297527e+02 4.592044e+01 6.260325e+01 1.136732e+02 8.476743e+01 7.610782e+01 4.820174e+01 8.199200e+01 4.427821e+01 4.816102e+01 3.946076e+01 1.090509e+02 1.339945e+00 1.989387e+00 1.903769e+00 2.153526e+00 3.680416e+00 3.478461e+00 2.708401e+00 2.528521e+00 3.364198e+00 2.451297e+00 2.308102e+00 1.872283e+00 1.037961e+00 1.907904e-01 3.452653e-01 3.163891e-01 3.746332e-01 6.182371e-01 5.253121e-01 5.171040e-01 5.477031e-01 5.834899e-01 4.620401e-01 4.327187e-01 4.044868e-01 1.788507e-01
<GCONST> 1.246811e+02
<TRANSP> 5
 0.000000e+00 1.000000e+00 0.000000e+00 0.000000e+00 0.000000e+00
 0.000000e+00 8.126797e-01 1.873203e-01 0.000000e+00 0.000000e+00
 0.000000e+00 0.000000e+00 7.322158e-01 2.677842e-01 0.000000e+00
 0.000000e+00 0.000000e+00 0.000000e+00 8.124369e-01 1.875631e-01
 0.000000e+00 0.000000e+00 0.000000e+00 0.000000e+00 0.000000e+00
<ENDHMM>
~h "w"
<BEGINHMM>
<NUMSTATES> 5
<STATE> 2
<MEAN> 39
 -1.025807e+01 4.362085e+00 -1.213877e+00 7.930879e+00 -1.501600e-01 -3.935191e+00 3.974283e-01 -5.819300e+00 -1.383277e+00 -2.998332e+00 1.013982e+00 -2.479174e+00 5.076312e+01 1.782980e+00 1.024045e+00 5.552799e-01 -3.687530e-01 -7.422839e-01 -1.024487e+00 -5.887955e-01 -6.826172e-01 -4.229670e-01 -2.173531e-01 -5.352728e-01 -1.714462e-01 1.115798e+00 4.055203e-01 -6.221917e-02 -1.567568e-01 -3.052306e-01 -2.212377e-01 -2.094752e-01 -1.062315e-01 -5.994877e-02 -9.183701e-02 9.137738e-02 -1.527046e-02 -3.818706e-02 3.188781e-01
<VARIANCE> 39
 7.995995e+01 1.215513e+02 5.716308e+01 7.059330e+01 1.122662e+02 1.110121e+02 7.147491e+01 9.474251e+01 5.725734e+01 8.227898e+01 4.675750e+01 3.891827e+01 1.708934e+02 5.966521e+00 8.194118e+00 4.771954e+00 4.976358e+00 7.965079e+00 7.193493e+00 6.685521e+00 5.417447e+00 4.026405e+00 3.447797e+00 3.191089e+00 2.254229e+00 3.435270e+00 8.288637e-01 1.455425e+00 9.700962e-01 8.771493e-01 1.270122e+00 1.064721e+00 1.411206e+00 1.234007e+00 7.867290e-01 6.863137e-01 4.203149e-01 4.913583e-01 5.589879e-01
<GCONST> 1.471583e+02
<STATE> 3
<MEAN> 39
 2.628131e+00 1.255650e+01 2.225270e+00 2.937182e+00 -1.013238e+01 -9.952547e+00 -6.378377e+00 -6.431414e+00 -2.283198e+00 -2.269401e+00 -2.552842e+00 -2.149177e+00 5.537269e+01 1.271001e+00 -5.505214e-01 -1.039590e+00 -1.650733e+00 -1.194823e+00 -1.012665e+00 5.937035e-01 7.982704e-01 3.585369e-01 8.502701e-02 -2.526848e-01 -1.676179e-01 1.345989e+00 -3.024526e-01 -4.514995e-01 -3.572869e-01 -1.142640e-01 3.284349e-01 4.605888e-01 4.436969e-01 2.324588e-01 -1.989111e-02 -1.862483e-01 4.224307e-02 -4.855183e-02 -3.338661e-02
<VARIANCE> 39
 4.557558e+01 5.580931e+01 3.584431e+01 5.715191e+01 9.994640e+01 1.097556e+02 1.552570e+02 5.834768e+01 6.215372e+01 7.856203e+01 3.639934e+01 4.889015e+01 8.366256e+01 1.393055e+00 2.815243e+00 2.965606e+00 3.198306e+00 3.857310e+00 5.363464e+00 8.152063e+00 6.567042e+00 4.428970e+00 3.360348e+00 2.073168e+00 2.959457e+00 1.089521e+00 2.431524e-01 3.227492e-01 3.812541e-01 3.638578e-01 8.276777e-01 7.570631e-01 1.002313e+00 7.495458e-01 7.178057e-01 5.831828e-01 4.453913e-01 5.243883e-01 1.037575e-01
<GCONST> 1.313240e+02
<STATE> 4
<MEAN> 39
 6.356847e+00 3.466982e+00 -8.509855e+00 -8.969851e+00 -8.634799e+00 -3.561767e+00 -2.802731e-01 3.211299e-01 -1.340011e+00 -6.784503e+00 -2.299414e+00 -3.219954e+00 5.988480e+01 3.558312e-03 -1.407450e+00 -1.071777e+00 -3.259460e-01 1.516557e+00 1.155000e+00 -1.997419e-02 -1.309256e-01 -4.354029e-01 -3.818570e-01 4.315907e-01 5.375810e-02 7.673873e-01 -1.440537e-01 6.864127e-02 2.899946e-01 3.787920e-01 1.193991e-01 -1.329051e-01 -3.080778e-01 -2.379751e-01 -1.961047e-02 1.274641e-01 1.096320e-01 4.079858e-02 -1.358458e-01
<VARIANCE> 39
 3.393050e+01 6.959333e+01 6.381910e+01 1.230770e+02 1.580768e+02 1.983009e+02 1.455788e+02 9.824094e+01 6.633154e+01 5.188788e+01 6.056685e+01 4.980060e+01 7.941011e+01 5.305586e-01 1.575485e+00 1.961426e+00 3.314506e+00 4.108882e+00 3.828928e+00 4.566475e+00 4.017984e+00 3.791812e+00 3.488978e+00 3.298752e+00 2.999048e+00 6.884537e-01 8.376052e-02 2.137502e-01 2.084532e-01 3.654402e-01 6.552601e-01 6.036058e-01 6.744374e-01 5.923136e-01 5.831017e-01 5.303311e-01 4.542994e-01 4.280272e-01 6.240386e-02
<GCONST> 1.266952e+02
<TRANSP> 5
 0.000000e+00 1.000000e+00 0.000000e+00 0.000000e+00 0.000000e+00
 0.000000e+00 6.985347e-01 3.014653e-01 0.000000e+00 0.000000e+00
 0.000000e+00 0.000000e+00 7.045327e-01 2.954672e-01 0.000000e+00
 0.000000e+00 0.000000e+00 0.000000e+00 8.043113e-01 1.956887e-01
 0.000000e+00 0.000000e+00 0.000000e+00 0.000000e+00 0.000000e+00
<ENDHMM>
~h "z"
<BEGINHMM>
<NUMSTATES> 5
<STATE> 2
<MEAN> 39
 -9.339849e+00 8.134910e+00 -1.367938e+00 3.236495e+00 1.725355e+00 -4.517890e+00 -9.446786e-01 -2.513205e+00 -3.448662e+00 -2.762083e+00 -1.920590e-01 -1.996264e+00 4.888911e+01 -1.041870e-01 1.405332e+00 9.202974e-01 -4.653902e-01 -5.586249e-01 -1.169424e+00 -3.520380e-01 -1.113207e+00 1.882949e-02 -8.795138e-01 -2.740600e-01 -1.702808e-01 1.458379e+00 -8.641238e-02 -7.539406e-02 1.298498e-01 -5.049171e-02 -1.027715e-01 8.846732e-02 -2.919652e-02 -8.914421e-02 1.132527e-01 -4.394747e-02 -2.672557e-02 2.931824e-02 1.306088e-01
<VARIANCE> 39
 9.305440e+01 7.432626e+01 7.738983e+01 5.898150e+01 1.861751e+02 1.424138e+02 6.427733e+01 9.460170e+01 1.010707e+02 8.373184e+01 3.028625e+01 5.370221e+01 1.709387e+02 3.801066e+00 3.517774e+00 3.165278e+00 4.095798e+00 7.552175e+00 1.083208e+01 6.496430e+00 4.647657e+00 5.742369e+00 4.501090e+00 2.251747e+00 3.246445e+00 2.453969e+00 6.040148e-01 6.517888e-01 7.361947e-01 7.547894e-01 1.328858e+00 1.607191e+00 1.323434e+00 1.156679e+00 9.839393e-01 6.801917e-01 3.750759e-01 6.560771e-01 4.443767e-01
<GCONST> 1.455786e+02
<STATE> 3
<MEAN> 39
 -1.656868e+01 8.443827e+00 1.004122e+01 1.478995e+00 1.874499e+00 -6.975044e+00 4.283881e-01 -8.807616e+00 -1.718266e+00 -5.193838e+00 -7.666975e-01 -7.524135e-02 6.282858e+01 -3.308924e-02 -1.032818e+00 1.252790e+00 -3.536417e-01 -5.756783e-01 -1.712763e-01 -3.969262e-01 -2.243530e-01 2.588210e-01 2.179337e-01 -5.896391e-02 4.225802e-01 6.133108e-01 3.629865e-01 -1.313311e-01 -7.609694e-02 5.863803e-02 -8.978643e-02 -3.382919e-02 -2.096013e-01 -9.564620e-03 -1.852784e-01 6.108940e-02 4.586823e-02 -2.511600e-02 -1.794443e-02
<VARIANCE> 39
 1.092005e+02 9.508907e+01 1.874025e+02 7.770677e+01 1.078958e+02 2.074911e+02 7.318562e+01 7.300195e+01 7.304300e+01 4.864131e+01 9.486974e+01 6.535269e+01 1.140658e+02 8.145911e+00 2.451640e+00 7.313104e+00 5.446925e+00 4.459205e+00 6.510425e+00 4.633274e+00 4.789436e+00 5.528275e+00 2.992071e+00 3.048087e+00 2.485397e+00 8.451008e-01 8.203003e-01 3.308321e-01 9.094483e-01 6.789100e-01 6.169247e-01 9.394944e-01 7.950506e-01 7.868327e-01 7.047346e-01 5.932460e-01 5.662933e-01 4.679335e-01 1.495446e-01
<GCONST> 1.416640e+02
<STATE> 4
<MEAN> 39
 -4.076875e+00 -6.393692e+00 1.894463e+01 1.411781e-01 -1.327577e+01 -4.132521e+00 -1.447546e+01 -6.779199e+00 -4.036683e+00 -4.468291e+00 6.714026e-01 5.288426e-01 6.061296e+01 1.888055e+00 -1.131051e+00 -7.347559e-01 7.330962e-01 -5.368821e-01 -1.039903e+00 -8.235587e-01 4.073064e-01 -3.605754e-01 1.749300e-01 3.627757e-01 -3.437706e-01 8.702015e-01 -1.970295e-01 9.320365e-02 -5.716133e-01 1.527424e-01 3.137074e-01 -7.438290e-02 2.974845e-01 2.356149e-01 2.560673e-01 -4.633093e-02 4.903558e-02 -7.560306e-02 -1.768675e-01
<VARIANCE> 39
 8.951036e+01 9.143404e+01 8.793056e+01 9.393453e+01 1.561109e+02 2.247053e+02 1.186092e+02 1.265262e+02 1.427831e+02 6.436605e+01 7.323130e+01 5.551232e+01 9.756389e+01 4.759912e+00 3.019344e+00 1.005349e+01 6.509626e+00 6.330741e+00 8.033615e+00 5.777366e+00 6.448203e+00 5.145481e+00 4.174502e+00 3.797027e+00 2.590633e+00 2.145160e+00 5.888147e-01 5.056143e-01 5.114263e-01 7.569044e-01 9.008849e-01 1.149524e+00 8.916165e-01 9.621956e-01 8.351855e-01 7.932497e-01 5.425377e-01 4.252575e-01 1.841143e-01
<GCONST> 1.464649e+02
<TRANSP> 5
 0.000000e+00 1.000000e+00 0.000000e+00 0.000000e+00 0.000000e+00
 0.000000e+00 7.460445e-01 2.539555e-01 0.000000e+00 0.000000e+00
 0.000000e+00 0.000000e+00 8.633171e-01 1.366829e-01 0.000000e+00
 0.000000e+00 0.000000e+00 0.000000e+00 8.152744e-01 1.847255e-01
 0.000000e+00 0.000000e+00 0.000000e+00 0.000000e+00 0.000000e+00
<ENDHMM>
~h "aa"
<BEGINHMM>
<NUMSTATES> 5
<STATE> 2
<MEAN> 39
 -1.179258e+01 -1.349161e+00 4.699397e+00 4.237234e+00 2.534450e+00 -2.592528e+00 8.361860e+00 -5.619870e+00 -1.836888e+00 -1.174501e+00 8.898301e-01 -5.010036e+00 6.188983e+01 -1.386622e+00 -1.047548e+00 1.620017e+00 -3.387270e-01 -1.937928e-02 -6.174020e-01 -1.979077e-01 -7.506175e-01 -3.302400e-01 4.033426e-01 1.498085e-01 -1.749519e-01 9.424217e-01 1.340515e-01 1.213190e-01 -2.501399e-02 1.281220e-01 7.672813e-02 -8.700003e-02 -2.166232e-01 -2.471826e-02 -1.706973e-02 -4.023651e-02 7.633882e-02 -8.056363e-02 -2.726584e-02
<VARIANCE> 39
 1.257162e+02 6.994299e+01 1.102534e+02 7.825188e+01 6.474544e+01 7.291136e+01 9.004501e+01 8.335973e+01 4.650622e+01 5.754066e+01 4.560596e+01 4.410143e+01 8.693120e+01 5.979900e+00 5.458849e+00 6.052147e+00 8.277087e+00 5.976078e+00 6.109058e+00 6.319796e+00 8.742630e+00 5.109890e+00 4.817484e+00 3.160453e+00 2.265356e+00 5.042649e+00 9.746900e-01 9.221569e-01 1.068102e+00 1.520468e+00 9.184658e-01 1.043022e+00 8.504790e-01 1.465762e+00 1.061645e+00 8.320409e-01 6.207722e-01 4.073470e-01 9.421304e-01
<GCONST> 1.479645e+02
<STATE> 3
<MEAN> 39
 -1.778484e+01 -8.238745e+00 1.099083e+01 3.567497e+00 -1.395071e-01 -6.533382e+00 3.496864e+00 -7.952340e+00 -2.712520e+00 1.174584e+00 3.036986e+00 -2.583406e+00 6.407233e+01 1.245178e+00 5.527079e-01 -4.632415e-01 1.103994e+00 4.245105e-01 4.875622e-02 -9.647349e-01 -3.371404e-01 -9.758971e-01 2.505141e-01 -2.999436e-02 -2.812100e-01 -6.585874e-01 3.383752e-01 3.013455e-01 -3.235073e-01 3.358606e-02 -1.063957e-01 1.669437e-01 1.127489e-01 2.291172e-02 2.111034e-02 -1.433448e-01 -2.636139e-02 -9.098174e-02 -1.278431e-01
<VARIANCE> 39
 1.122245e+02 6.672240e+01 4.387308e+01 6.555817e+01 9.617635e+01 6.049286e+01 6.208451e+01 5.805447e+01 4.890348e+01 6.358129e+01 3.457452e+01 4.544796e+01 2.732681e+01 4.486092e+00 3.742224e+00 2.769378e+00 2.100132e+00 2.363632e+00 4.037403e+00 3.288547e+00 2.575909e+00 2.963701e+00 2.507687e+00 2.461789e+00 2.004258e+00 9.881582e-01 4.129340e-01 4.093890e-01 3.989024e-01 5.136561e-01 3.709954e-01 5.856062e-01 5.380305e-01 6.380721e-01 8.221652e-01 4.553112e-01 3.997310e-01 3.648266e-01 1.815265e-01
<GCONST> 1.261217e+02
<STATE> 4
<MEAN> 39
 -4.825049e+00 -4.046321e-01 1.152587e+00 1.047261e+01 4.608067e+00 -5.583113e+00 4.947870e-01 -9.574852e+00 -8.222483e+00 -1.365268e+00 4.028918e+00 -7.483816e+00 6.145512e+01 6.789909e-01 1.099263e+00 -1.046972e+00 -1.879455e-01 -2.712950e-01 6.144629e-01 6.528720e-01 4.946799e-01 5.640428e-01 -7.835044e-01 3.208277e-02 2.171042e-01 -5.815206e-01 -4.643920e-01 -1.398019e-01 2.114351e-01 -2.137433e-01 1.462147e-02 -2.226295e-02 1.384210e-01 3.455405e-01 6.233114e-01 6.166397e-02 -2.644267e-01 2.409568e-01 -4.475896e-02
<VARIANCE> 39
 8.090808e+01 8.173439e+01 3.573274e+01 3.993635e+01 6.575369e+01 7.006229e+01 6.373359e+01 4.808371e+01 6.132092e+01 5.546306e+01 4.147721e+01 8.463434e+01 7.566915e+01 2.511392e+00 3.618875e+00 3.602494e+00 3.746850e+00 1.941713e+00 3.726224e+00 2.900212e+00 2.891349e+00 8.758988e+00 3.849020e+00 2.956604e+00 2.416997e+00 1.493884e+00 3.459288e-01 7.205952e-01 5.282080e-01 4.738843e-01 3.067936e-01 7.170303e-01 6.911111e-01 5.765791e-01 1.290908e+00 4.871247e-01 4.060194e-01 3.929564e-01 2.465747e-01
<GCONST> 1.307149e+02
<TRANSP> 5
 0.000000e+00 1.000000e+00 0.000000e+00 0.000000e+00 0.000000e+00
 0.000000e+00 7.777877e-01 2.222123e-01 0.000000e+00 0.000000e+00
 0.000000e+00 0.000000e+00 7.205028e-01 2.794972e-01 0.000000e+00
 0.000000e+00 0.000000e+00 0.000000e+00 6.460192e-01 3.539809e-01
 0.000000e+00 0.000000e+00 0.000000e+00 0.000000e+00 0.000000e+00
<ENDHMM>
~h "ae"
<BEGINHMM>
<NUMSTATES> 5
<STATE> 2
<MEAN> 39
 -1.109454e+01 -1.250513e+01 2.181377e+00 8.333977e+00 1.056808e+01 -1.223578e+01 2.240091e+00 -4.738730e+00 -3.255235e+00 -7.327826e+00 2.326298e+00 1.335740e-01 6.561321e+01 -9.192864e-01 -8.644808e-01 7.025004e-01 5.852833e-01 4.431664e-01 -2.673060e-01 -5.534399e-01 3.131593e-01 7.384799e-02 -2.242108e-01 -8.203479e-02 -1.814296e-01 6.483158e-02 7.879219e-02 -2.220997e-02 -2.394754e-01 -1.950764e-01 8.666362e-02 -1.435313e-01 -1.667408e-02 -8.593288e-02 2.453084e-01 8.917404e-02 -1.989232e-01 6.399432e-02 8.811716e-02
<VARIANCE> 39
 1.481082e+02 1.375100e+02 6.368855e+01 3.728663e+01 6.847575e+01 5.372751e+01 8.806150e+01 4.369262e+01 7.632388e+01 2.570202e+01 3.367372e+01 3.375244e+01 1.814401e+01 1.384099e+01 1.044676e+01 8.146532e+00 4.293179e+00 3.488262e+00 4.819090e+00 3.419357e+00 4.661592e+00 8.376962e+00 2.716620e+00 3.542654e+00 2.051115e+00 1.777279e+00 1.502768e+00 9.290755e-01 1.111330e+00 7.755607e-01 4.849218e-01 1.079231e+00 6.900476e-01 8.034480e-01 1.376302e+00 4.855137e-01 4.927272e-01 3.818190e-01 4.229127e-01
<GCONST> 1.391687e+02
<STATE> 3
<MEAN> 39
 -6.012144e+00 -6.270858e+00 1.770945e+00 1.520909e+01 2.618617e+00 -1.228660e+01 -7.215316e+00 -7.048435e+00 7.119337e+00 -2.834963e+00 -8.044699e+00 -7.651013e-01 6.452271e+01 3.527873e-01 6.786260e-01 -4.839138e-01 -1.054333e+00 -5.524052e-01 -6.183405e-03 3.169307e-01 2.303895e-01 4.830588e-02 -1.162382e-01 -2.477487e-01 -2.867551e-01 5.580165e-02 2.451912e-01 2.250683e-01 -4.912526e-02 -2.899751e-01 -3.288619e-01 -9.478757e-02 -7.967951e-03 8.621215e-02 -2.159178e-01 -1.266055e-01 1.340477e-01 9.491591e-02 6.253105e-02
<VARIANCE> 39
 5.407015e+01 1.608116e+02 3.710702e+01 4.183428e+01 5.971206e+01 2.823630e+01 6.603036e+01 1.934210e+01 8.467488e+01 4.156953e+01 3.492921e+01 2.485839e+01 1.483371e+01 3.395770e+00 1.068942e+01 3.320657e+00 2.606918e+00 2.234082e+00 3.280727e+00 4.561861e+00 2.990158e+00 3.707804e+00 2.912892e+00 3.158840e+00 1.887984e+00 1.509039e+00 3.383252e-01 1.004376e+00 5.794966e-01 5.639630e-01 3.957452e-01 5.198139e-01 8.304681e-01 4.054171e-01 5.279130e-01 3.784049e-01 3.878880e-01 2.648397e-01 1.987784e-01
<GCONST> 1.248698e+02
<STATE> 4
<MEAN> 39
 -1.056166e+01 -7.503170e+00 8.507456e-01 3.523963e+00 5.819128e+00 -1.589461e+01 5.119885e+00 -1.131089e+00 -2.276828e+00 -1.380599e+01 -1.124761e-01 6.550429e-01 6.583923e+01 -1.050219e+00 -9.623465e-01 7.553433e-01 4.446369e-02 -5.776362e-02 -3.226090e-01 3.591083e-02 1.404562e-01 1.968830e-01 1.113419e-01 6.005485e-01 2.848706e-02 1.926083e-01 1.358557e-02 7.442734e-02 5.795050e-02 1.380952e-01 1.658467e-01 1.399929e-01 -1.547003e-01 -2.097244e-01 -8.618593e-02 1.192699e-01 4.792243e-02 -4.434956e-02 -8.645215e-02
<VARIANCE> 39
 2.247811e+02 1.691784e+02 9.673840e+01 1.850700e+01 9.795991e+01 3.445667e+01 5.030131e+01 6.061655e+01 6.587477e+01 3.305132e+01 9.404015e+01 1.610359e+01 1.738411e+01 4.500063e+00 3.565113e+00 2.580095e+00 1.885445e+00 4.459794e+00 3.177216e+00 2.802886e+00 4.573458e+00 4.565115e+00 2.353943e+00 3.252480e+00 1.396333e+00 1.078295e+00 5.035480e-01 4.248528e-01 5.213210e-01 3.323935e-01 4.857317e-01 7.045285e-01 5.194008e-01 7.909612e-01 7.780161e-01 3.424486e-01 4.277500e-01 2.380529e-01 1.693524e-01
<GCONST> 1.266072e+02
<TRANSP> 5
 0.000000e+00 1.000000e+00 0.000000e+00 0.000000e+00 0.000000e+00
 0.000000e+00 8.693507e-01 1.306493e-01 0.000000e+00 0.000000e+00
 0.000000e+00 0.000000e+00 8.125025e-01 1.874975e-01 0.000000e+00
 0.000000e+00 0.000000e+00 0.000000e+00 8.777623e-01 1.222377e-01
 0.000000e+00 0.000000e+00 0.000000e+00 0.000000e+00 0.000000e+00
<ENDHMM>
~h "ah"
<BEGINHMM>
<NUMSTATES> 5
<STATE> 2
<MEAN> 39
 3.274114e+00 -4.660556e+00 -5.026625e+00 -1.121031e+00 -3.412550e+00 -3.837120e+00 -4.887922e+00 -3.885387e+00 -1.332586e+00 -5.999076e+00 -1.075268e+00 -1.455470e+00 6.068607e+01 -1.523501e-01 -2.787856e-01 2.347026e-01 5.760064e-01 -1.235684e-01 -6.224091e-01 3.814610e-01 1.741722e-01 -1.505791e-01 8.904932e-02 -2.230603e-01 -1.460717e-03 -1.272064e-01 -1.751340e-01 2.971681e-01 1.839499e-01 1.218948e-01 6.541429e-02 1.347272e-01 5.799574e-02 -5.158612e-02 1.428419e-02 4.068288e-02 -1.080003e-01 -1.237506e-01 -2.312763e-01
<VARIANCE> 39
 3.721051e+01 9.555028e+01 7.295624e+01 1.421743e+02 1.551569e+02 1.158981e+02 1.410034e+02 9.939526e+01 9.532127e+01 7.109634e+01 9.989477e+01 6.425450e+01 6.909267e+01 6.248550e-01 2.679301e+00 1.931163e+00 2.875828e+00 2.701255e+00 3.546109e+00 3.835278e+00 4.481536e+00 3.891606e+00 4.087272e+00 3.098686e+00 2.508908e+00 1.224642e+00 1.392940e-01 3.489013e-01 3.373150e-01 3.172520e-01 5.228172e-01 6.401325e-01 6.509237e-01 6.171649e-01 7.606337e-01 7.517937e-01 6.283914e-01 4.171129e-01 1.095270e-01
<GCONST> 1.312479e+02
<STATE> 3
<MEAN> 39
 1.306216e+00 -9.371695e-01 -3.315994e+00 3.975469e+00 2.054227e+00 -5.984813e+00 -6.780992e-01 -7.358716e+00 -6.507632e+00 -3.407303e+00 1.412119e+00 -5.418945e+00 6.267289e+01 -2.537823e-01 9.395002e-01 7.833866e-01 1.044610e+00 3.570152e-02 3.829724e-01 -4.945461e-01 -3.907808e-01 3.218584e-01 -5.402378e-02 -4.872922e-01 -2.093699e-01 -9.198747e-01 -2.077736e-02 1.432426e-01 1.079815e-01 2.960814e-02 -5.900148e-02 8.102436e-02 -1.397638e-01 4.501995e-03 1.394647e-01 -1.328079e-01 -1.158329e-01 8.800190e-02 -1.097372e-01
<VARIANCE> 39
 2.341962e+01 6.781726e+01 6.100484e+01 1.123424e+02 1.180960e+02 7.094738e+01 1.086160e+02 1.060196e+02 6.177651e+01 5.781132e+01 8.363194e+01 6.210111e+01 5.589886e+01 5.626819e-01 1.620121e+00 1.197211e+00 2.286163e+00 2.557887e+00 3.258467e+00 3.383279e+00 3.642060e+00 3.103777e+00 3.339659e+00 3.121981e+00 2.399949e+00 7.030727e-01 8.555100e-02 2.178169e-01 2.286836e-01 3.408239e-01 3.442495e-01 5.607083e-01 4.911558e-01 6.683986e-01 3.753135e-01 5.286071e-01 4.578555e-01 3.868354e-01 9.760925e-02
<GCONST> 1.216021e+02
<STATE> 4
<MEAN> 39
 3.716672e+00 8.489388e+00 3.343985e+00 8.092065e+00 -4.291142e+00 -6.745446e+00 -6.815579e+00 -8.654710e+00 -1.749168e+00 -6.256322e+00 -4.957506e+00 -1.164407e+00 5.955769e+01 -2.859819e-01 3.934917e-01 3.727727e-01 2.523745e-01 7.748907e-02 2.100520e-01 7.557975e-02 -1.986803e-02 1.578400e-01 3.811445e-02 -1.552731e-01 -3.283821e-02 -3.726477e-01 -5.316868e-02 -6.177177e-02 -5.344966e-03 -2.369591e-02 2.493490e-02 1.822271e-02 7.944636e-02 1.904706e-02 -5.593586e-02 3.931399e-02 5.012467e-02 -1.154242e-02 1.079209e-02
<VARIANCE> 39
 2.927797e+01 7.232893e+01 3.834866e+01 6.155167e+01 8.725756e+01 4.690582e+01 6.593864e+01 3.946273e+01 3.508023e+01 4.646500e+01 3.598233e+01 2.841172e+01 6.497791e+01 4.056546e-01 9.574890e-01 8.943176e-01 1.298608e+00 1.305977e+00 1.357869e+00 1.818218e+00 1.936708e+00 2.078864e+00 1.763468e+00 1.666558e+00 1.630203e+00 3.395008e-01 4.794345e-02 1.322700e-01 1.237143e-01 1.987640e-01 1.969627e-01 2.388244e-01 3.202843e-01 3.721336e-01 3.697594e-01 3.067634e-01 2.936453e-01 2.831595e-01 4.392667e-02
<GCONST> 1.022982e+02
<TRANSP> 5
 0.000000e+00 1.000000e+00 0.000000e+00 0.000000e+00 0.000000e+00
 0.000000e+00 5.214011e-01 4.785989e-01 0.000000e+00 0.000000e+00
 0.000000e+00 0.000000e+00 7.013806e-01 2.986195e-01 0.000000e+00
 0.000000e+00 0.000000e+00 0.000000e+00 8.609247e-01 1.390754e-01
 0.000000e+00 0.000000e+00 0.000000e+00 0.000000e+00 0.000000e+00
<ENDHMM>
~h "ao"
<BEGINHMM>
<NUMSTATES> 5
<STATE> 2
<MEAN> 39
 3.547844e+00 1.123944e+01 -3.005244e+00 -3.899525e+00 -9.134780e+00 -1.344803e+01 -3.844571e-01 -3.774643e+00 -2.445889e-02 -3.529602e+00 -4.532554e+00 -7.173360e+00 6.365232e+01 3.198075e+00 1.250980e+00 5.370736e-01 -5.062877e-01 -3.468085e+00 -2.796012e+00 -1.465629e+00 5.841004e-01 5.715806e-02 1.062757e+00 -1.955311e-01 -1.045051e+00 7.878388e-01 -1.230884e+00 -8.297918e-01 -1.397222e-01 4.625677e-01 9.499037e-01 5.876755e-01 2.834581e-01 1.080929e-01 -1.566692e-02 8.955904e-02 1.919944e-01 3.555766e-01 -1.823295e-01
<VARIANCE> 39
 3.523523e+01 6.959522e+01 2.872921e+01 1.131191e+02 7.093646e+01 1.579131e+02 1.085139e+02 3.531620e+01 3.823177e+01 3.769570e+01 2.264411e+01 6.161493e+01 4.099389e+01 5.965578e+00 5.383383e+00 1.342369e+00 4.181486e+00 9.362556e+00 8.138903e+00 4.634335e+00 2.496313e+00 3.734499e+00 3.422169e+00 1.970300e+00 2.237227e+00 7.996358e-01 5.374629e-01 5.941411e-01 3.630255e-01 7.504473e-01 1.123787e+00 1.099683e+00 6.730974e-01 4.892660e-01 4.436955e-01 4.213491e-01 3.789659e-01 4.540860e-01 2.990803e-01
<GCONST> 1.311700e+02
<STATE> 3
<MEAN> 39
 6.668646e+00 1.197425e+01 -3.690084e+00 2.331143e-01 -1.274821e+01 -1.735751e+01 -3.570550e+00 -3.383743e+00 4.721998e-01 -3.052239e+00 -3.923029e+00 -8.284955e+00 6.457922e+01 1.201419e-01 -4.633686e-01 -5.701503e-01 -3.708079e-01 3.317460e-01 7.624058e-01 4.824476e-01 5.539623e-03 -7.332922e-01 -3.075470e-01 2.241964e-01 1.425806e-01 1.679813e-01 -1.363625e-01 -7.066914e-02 -1.108675e-01 -1.780309e-02 3.559664e-01 2.907949e-01 1.415810e-01 -1.706879e-01 -2.101543e-01 -5.098483e-02 6.789699e-02 1.320657e-01 -2.582804e-02
<VARIANCE> 39
 1.650741e+01 6.689918e+01 3.438868e+01 6.528446e+01 3.876565e+01 8.169589e+01 1.505253e+02 3.256151e+01 5.314676e+01 5.418872e+01 2.508558e+01 5.215445e+01 2.720839e+01 2.254081e-01 5.583024e-01 9.445279e-01 8.877923e-01 1.591335e+00 1.918882e+00 2.206612e+00 2.023726e+00 2.220960e+00 1.674070e+00 1.197181e+00 1.328252e+00 1.980009e-01 1.161388e-01 1.139559e-01 1.259684e-01 1.894737e-01 3.097188e-01 3.704055e-01 4.369328e-01 2.898747e-01 2.633580e-01 3.013324e-01 2.776692e-01 2.252374e-01 4.512887e-02
<GCONST> 1.012299e+02
<STATE> 4
<MEAN> 39
 7.510984e+00 -3.270562e-02 -8.790026e+00 -1.498553e+01 -1.022702e+01 3.095443e-01 -2.120581e-01 -2.369590e+00 -3.529908e+00 -1.454533e+00 -9.477282e-01 -3.597117e+00 5.989113e+01 -2.302211e-02 -6.022221e-01 -4.012398e-01 8.125038e-01 6.790916e-01 -7.566420e-02 1.093133e-01 4.294183e-02 -3.101454e-01 3.290867e-01 2.997850e-01 -4.146815e-04 -7.581214e-02 -2.533275e-02 1.917432e-02 2.843243e-02 1.462035e-01 4.301686e-02 -8.774330e-02 -4.938998e-02 -9.848459e-03 6.336617e-02 4.329319e-02 1.528388e-02 -2.091017e-02 -3.463423e-02
<VARIANCE> 39
 1.211803e+01 1.022491e+02 4.230025e+01 1.134316e+02 1.318348e+02 2.456004e+02 8.502197e+01 1.203801e+02 8.728960e+01 6.435583e+01 4.735620e+01 5.798480e+01 8.352784e+01 1.683094e-01 1.490780e+00 1.074083e+00 2.044009e+00 2.469938e+00 3.657497e+00 2.113043e+00 4.953858e+00 2.989190e+00 3.058275e+00 3.360008e+00 2.346684e+00 2.852342e-01 3.096673e-02 1.884771e-01 1.559455e-01 1.757723e-01 3.017909e-01 4.182731e-01 3.734109e-01 5.713229e-01 3.793608e-01 5.748903e-01 4.991112e-01 3.998254e-01 3.124130e-02
<GCONST> 1.158918e+02
<TRANSP> 5
 0.000000e+00 1.000000e+00 0.000000e+00 0.000000e+00 0.000000e+00
 0.000000e+00 6.038026e-01 3.961974e-01 0.000000e+00 0.000000e+00
 0.000000e+00 0.000000e+00 8.479448e-01 1.520552e-01 0.000000e+00
 0.000000e+00 0.000000e+00 0.000000e+00 8.864260e-01 1.135740e-01
 0.000000e+00 0.000000e+00 0.000000e+00 0.000000e+00 0.000000e+00
<ENDHMM>
~h "ay"
<BEGINHMM>
<NUMSTATES> 5
<STATE> 2
<MEAN> 39
 3.525587e+00 -1.682775e+00 -3.381192e+00 6.411172e-01 -3.313187e+00 -5.248333e+00 -4.244258e+00 -4.490954e+00 -2.586971e+00 -3.304865e+00 -2.093147e+00 -2.976098e+00 6.228416e+01 1.262086e+00 -2.266717e+00 -1.630051e+00 -1.937835e+00 8.854975e-02 -5.195511e-01 4.096987e-01 7.183754e-01 1.763901e-02 -3.827194e-02 -4.392755e-02 3.300957e-01 2.482849e+00 -5.673220e-01 -8.236133e-02 2.780166e-02 7.234751e-02 3.587953e-01 3.429645e-01 9.364529e-02 1.268658e-01 1.554020e-01 -2.908639e-02 1.947794e-02 4.953363e-02 -3.473445e-01
<VARIANCE> 39
 4.541097e+01 1.088087e+02 1.139476e+02 1.272904e+02 1.270356e+02 1.134569e+02 1.321740e+02 9.347877e+01 6.140802e+01 6.058740e+01 8.203918e+01 5.874772e+01 1.420851e+02 5.325964e+00 6.345978e+00 6.395742e+00 4.368779e+00 9.384910e+00 7.621732e+00 8.319661e+00 7.460363e+00 4.813983e+00 5.343752e+00 5.987225e+00 5.789680e+00 2.544324e+00 1.084135e+00 1.131250e+00 1.148609e+00 9.587272e-01 1.481125e+00 1.222634e+00 1.187622e+00 1.385471e+00 8.322610e-01 7.631453e-01 9.336186e-01 8.514690e-01 7.252284e-01
<GCONST> 1.537845e+02
<STATE> 3
<MEAN> 39
 6.445610e+00 -1.007587e+01 -1.267998e+01 -8.173263e+00 3.245789e+00 -3.774591e+00 -2.300025e+00 -2.623026e+00 -2.736950e-02 -1.772715e+00 -1.317505e+00 -4.750647e+00 7.002167e+01 -5.409548e-03 -2.616482e-01 -3.545263e-02 4.523975e-01 2.464752e-01 1.844461e-02 -2.415051e-01 2.548963e-02 3.405197e-01 -1.244103e-01 -2.818012e-01 7.829495e-02 -1.877393e-01 -8.512353e-02 2.217395e-01 1.678017e-01 2.209172e-01 -3.556110e-02 -7.548228e-02 -9.733561e-02 -3.273792e-02 -9.179842e-03 4.160573e-02 1.502364e-02 4.379298e-02 -1.768929e-01
<VARIANCE> 39
 2.378518e+01 6.958560e+01 6.473928e+01 1.413209e+02 1.057089e+02 2.108735e+02 2.164293e+02 6.952306e+01 6.804018e+01 7.819633e+01 7.863963e+01 7.994276e+01 3.525912e+01 6.626850e-01 1.072421e+00 2.218168e+00 2.502451e+00 2.660276e+00 5.201930e+00 2.900941e+00 3.003820e+00 2.627784e+00 2.699079e+00 2.757212e+00 2.385435e+00 5.195700e-01 1.785343e-01 2.543511e-01 3.513640e-01 3.334018e-01 4.585018e-01 7.732652e-01 6.366748e-01 5.237936e-01 4.753446e-01 5.551492e-01 5.255851e-01 4.707736e-01 1.664538e-01
<GCONST> 1.261887e+02
<STATE> 4
<MEAN> 39
 3.920455e+00 -5.934548e+00 -6.588530e+00 -4.606560e-01 -1.747308e+00 -5.552987e+00 -1.387950e+00 -3.859233e+00 -9.580528e-01 -4.030363e+00 -4.812776e+00 4.262286e-01 6.611382e+01 -1.444990e-01 3.253548e-01 6.109163e-01 3.522007e-01 -1.067733e-01 -3.075491e-01 -1.520245e-01 -1.991133e-01 -1.701881e-01 2.202107e-01 1.517251e-01 -2.980422e-03 -2.575471e-01 -3.206917e-02 9.053424e-02 8.391123e-02 6.039095e-02 -6.643908e-03 9.952535e-03 2.891074e-02 -4.128104e-02 -3.033716e-02 -5.672126e-03 8.477133e-04 -6.465035e-02 -5.563566e-02
<VARIANCE> 39
 3.138751e+01 1.094663e+02 8.462941e+01 5.637933e+01 1.189906e+02 1.059290e+02 1.344511e+02 6.282644e+01 4.659808e+01 5.673790e+01 6.253958e+01 4.512160e+01 5.865609e+01 1.794125e-01 6.718460e-01 1.297003e+00 1.428699e+00 1.868525e+00 1.607034e+00 2.055477e+00 1.601165e+00 1.774811e+00 1.705952e+00 1.817197e+00 1.178232e+00 1.936297e-01 2.894429e-02 8.321927e-02 1.372352e-01 1.711708e-01 1.955010e-01 2.663374e-01 2.882193e-01 2.579937e-01 2.689135e-01 2.717168e-01 2.745478e-01 1.875311e-01 2.156269e-02
<GCONST> 1.029356e+02
<TRANSP> 5
 0.000000e+00 1.000000e+00 0.000000e+00 0.000000e+00 0.000000e+00
 0.000000e+00 7.071192e-01 2.928808e-01 0.000000e+00 0.000000e+00
 0.000000e+00 0.000000e+00 8.148634e-01 1.851367e-01 0.000000e+00
 0.000000e+00 0.000000e+00 0.000000e+00 9.251421e-01 7.485787e-02
 0.000000e+00 0.000000e+00 0.000000e+00 0.000000e+00 0.000000e+00
<ENDHMM>
~h "eh"
<BEGINHMM>
<NUMSTATES> 5
<STATE> 2
<MEAN> 39
 -9.778779e+00 1.422031e+00 7.257137e-01 1.526570e+00 3.720754e+00 2.416720e-01 5.208345e+00 -6.061794e+00 -3.626162e-01 -2.239861e+00 5.658972e-01 -2.948295e+00 6.485751e+01 1.516959e+00 -3.430819e-01 -6.288384e-01 4.181192e-02 -2.604171e-01 -8.332288e-01 -1.126989e-01 -2.948199e-01 -6.209320e-01 1.231976e-01 -2.671644e-01 1.896967e-01 8.138696e-01 1.181048e-01 -9.138457e-02 -4.657964e-02 3.383774e-03 -6.152632e-02 -1.347084e-01 -2.456553e-02 1.723138e-01 -1.523010e-02 9.287203e-03 1.567774e-03 -3.208544e-02 8.914581e-02
<VARIANCE> 39
 1.426371e+02 4.776606e+01 1.058943e+02 8.305404e+01 7.156039e+01 8.535217e+01 6.973714e+01 7.502142e+01 4.885239e+01 3.963696e+01 4.106310e+01 5.647377e+01 1.074300e+02 1.195150e+01 2.980582e+00 5.556289e+00 2.989871e+00 3.241872e+00 4.525725e+00 3.163559e+00 4.262295e+00 4.726727e+00 3.621103e+00 3.020472e+00 2.418634e+00 2.433307e+00 1.373098e+00 3.968253e-01 4.785165e-01 4.665353e-01 4.589593e-01 5.580326e-01 4.350533e-01 7.076613e-01 7.202150e-01 5.820400e-01 4.539398e-01 3.694822e-01 3.762624e-01
<GCONST> 1.359691e+02
<STATE> 3
<MEAN> 39
 -5.361821e+00 -6.697956e+00 -2.530112e+00 -2.637458e-01 3.603298e-01 -5.754400e+00 4.173990e+00 1.881061e+00 -2.260029e+00 -1.114093e+00 9.568958e-01 -2.490751e-01 7.382449e+01 4.835020e-01 -3.112006e-01 -3.083220e-01 2.482079e-01 -4.052304e-01 -6.306908e-02 1.012608e-01 3.927040e-01 2.558161e-01 -1.787819e-01 -1.391922e-01 -9.197402e-02 -1.111233e-01 -8.354244e-02 1.920143e-01 5.250638e-02 1.027406e-01 8.555352e-02 1.971985e-01 5.392786e-02 -8.164599e-02 -2.286593e-02 -2.566672e-02 -1.756677e-02 1.062495e-02 -2.048293e-01
<VARIANCE> 39
 9.082178e+01 7.879256e+01 7.818426e+01 6.495708e+01 9.031393e+01 9.394048e+01 5.829798e+01 1.247549e+02 9.191405e+01 5.745324e+01 4.872890e+01 5.760150e+01 1.981232e+02 1.761316e+00 2.346253e+00 2.474647e+00 2.810150e+00 3.195142e+00 3.138622e+00 2.030605e+00 3.850909e+00 3.682885e+00 2.463285e+00 2.721627e+00 3.290657e+00 1.377667e+00 4.984523e-01 3.811035e-01 3.510436e-01 4.601456e-01 6.233404e-01 5.604551e-01 4.497041e-01 6.867717e-01 8.943649e-01 5.625224e-01 5.788937e-01 5.281339e-01 2.554391e-01
<GCONST> 1.323149e+02
<STATE> 4
<MEAN> 39
 -1.184017e+00 -3.533590e-01 -6.606847e+00 8.983660e+00 -2.116850e+00 6.248568e+00 3.230898e+00 1.065225e+00 -8.170639e-01 -1.252331e+00 -1.682436e+00 -3.995941e+00 6.845049e+01 4.885044e-02 9.383898e-02 6.403664e-02 8.630275e-02 1.028247e-01 1.216163e-01 -9.310926e-02 -1.773496e-02 5.662530e-02 7.297628e-03 -1.064387e-01 -5.707406e-02 -1.433514e-01 1.598526e-02 6.894649e-02 3.583048e-02 -1.687720e-02 -1.654451e-02 -9.007598e-02 -5.152779e-02 5.707652e-03 -4.098254e-02 -4.894192e-03 3.047145e-02 -3.324703e-02 -2.127704e-02
<VARIANCE> 39
 4.921016e+01 3.401934e+01 6.852592e+01 7.132473e+01 5.885993e+01 1.050325e+02 5.087807e+01 4.741830e+01 4.850230e+01 3.753642e+01 3.610710e+01 4.364559e+01 4.450968e+01 6.069041e-01 1.179413e+00 1.156161e+00 1.280071e+00 1.886950e+00 2.043683e+00 2.052537e+00 2.171633e+00 1.705500e+00 1.577734e+00 2.051492e+00 1.564762e+00 2.790586e-01 1.807292e-01 1.769545e-01 2.463223e-01 2.769074e-01 3.929758e-01 4.012676e-01 3.983015e-01 4.157615e-01 2.877175e-01 2.885107e-01 4.066522e-01 2.947401e-01 4.427750e-02
<GCONST> 1.090589e+02
<TRANSP> 5
 0.000000e+00 1.000000e+00 0.000000e+00 0.000000e+00 0.000000e+00
 0.000000e+00 7.148356e-01 2.851644e-01 0.000000e+00 0.000000e+00
 0.000000e+00 0.000000e+00 6.111747e-01 3.888254e-01 0.000000e+00
 0.000000e+00 0.000000e+00 0.000000e+00 8.406160e-01 1.593840e-01
 0.000000e+00 0.000000e+00 0.000000e+00 0.000000e+00 0.000000e+00
<ENDHMM>
~h "er"
<BEGINHMM>
<NUMSTATES> 5
<STATE> 2
<MEAN> 39
 -2.658379e+00 2.514863e+00 -3.289433e+00 5.743480e+00 -8.857112e-02 -3.184965e+00 -4.344268e-01 -1.499212e+01 -8.616066e+00 -3.349949e+00 2.168871e+00 7.845848e-01 6.233307e+01 -6.850159e-01 -5.990024e-01 6.090503e-01 1.152364e-01 -1.832470e-01 -1.788356e-01 2.090198e-01 4.132440e-01 5.362988e-01 3.027755e-01 4.564055e-02 -3.750347e-02 -2.088664e-02 -1.811951e-01 -4.942861e-04 1.847634e-01 3.164297e-03 -2.019274e-02 4.048603e-02 9.585994e-02 1.232347e-01 1.489879e-01 2.262658e-02 -7.514343e-02 2.007726e-02 -6.186254e-02
<VARIANCE> 39
 7.674600e+01 6.356442e+01 7.045627e+01 4.435522e+01 5.794022e+01 4.858514e+01 4.588270e+01 5.024886e+01 5.823494e+01 6.604491e+01 3.872142e+01 2.748022e+01 1.472369e+01 3.168110e+00 3.919749e+00 3.127739e+00 2.604445e+00 2.325157e+00 3.812361e+00 3.479687e+00 2.015770e+00 2.331409e+00 2.064311e+00 1.930207e+00 1.284948e+00 9.688870e-01 3.080598e-01 6.109841e-01 3.345990e-01 4.103933e-01 4.417441e-01 7.252482e-01 5.293003e-01 3.366092e-01 4.361791e-01 3.951821e-01 3.274698e-01 2.559316e-01 1.800784e-01
<GCONST> 1.205410e+02
<STATE> 3
<MEAN> 39
 -1.504049e+01 -4.700191e+00 4.355795e+00 5.641104e+00 -2.274313e+00 -1.702448e-01 7.078654e+00 -7.802856e+00 1.759486e-01 1.662407e+00 2.850186e+00 4.618622e-01 5.974863e+01 -1.439631e-01 4.119598e-01 -1.140916e-01 1.803452e-01 -4.666095e-02 1.886526e-01 1.000001e-01 3.887795e-01 3.736456e-01 -1.089852e-01 -9.591015e-02 9.093956e-02 -5.293006e-01 5.010001e-02 6.357042e-02 -3.486368e-02 8.390131e-02 4.282741e-02 -5.625815e-02 -1.342625e-02 6.508408e-03 -9.018778e-03 4.941206e-03 -3.986196e-03 8.973980e-03 -2.430681e-02
<VARIANCE> 39
 7.947104e+01 5.197910e+01 1.806529e+02 6.129421e+01 5.344898e+01 7.081371e+01 5.941378e+01 4.014842e+01 4.040715e+01 5.714420e+01 4.480258e+01 3.451047e+01 2.881342e+01 1.147690e+00 2.397125e+00 2.931530e+00 2.238293e+00 1.956124e+00 2.221406e+00 2.461767e+00 2.340056e+00 2.240333e+00 1.972599e+00 2.068440e+00 1.090752e+00 1.013617e+00 1.421434e-01 4.649563e-01 4.176445e-01 3.311308e-01 3.307748e-01 3.416855e-01 3.789241e-01 4.305397e-01 4.128692e-01 3.910374e-01 3.467468e-01 2.160708e-01 1.953179e-01
<GCONST> 1.174707e+02
<STATE> 4
<MEAN> 39
 -1.645942e+01 3.447278e+00 -8.110434e-01 1.007145e+01 1.048810e-01 2.019769e+00 5.949916e+00 -1.615166e+00 4.942256e+00 -2.732321e+00 8.574727e-01 -1.847997e+00 4.845090e+01 -3.563464e-02 1.761733e-02 2.772973e-02 2.129206e-04 6.156037e-03 3.648744e-03 2.399578e-02 4.838701e-02 3.858555e-02 2.089990e-02 -4.112798e-02 -7.277063e-03 -7.679335e-02 1.250141e-02 -1.479916e-02 -1.036269e-02 3.859398e-03 3.816877e-03 -3.594651e-03 -8.349370e-03 -2.233425e-02 -9.192479e-03 4.149916e-03 6.402528e-03 -1.432913e-03 1.631282e-02
<VARIANCE> 39
 1.204216e+01 1.657556e+01 1.430284e+01 1.655220e+01 2.832210e+01 2.775036e+01 1.564732e+01 1.727851e+01 1.781969e+01 3.099852e+01 1.545261e+01 3.611301e+01 2.514463e+01 1.591873e-01 4.004388e-01 5.214311e-01 6.557664e-01 8.625373e-01 1.008815e+00 1.105944e+00 1.242844e+00 1.285870e+00 1.293358e+00 1.205598e+00 1.011791e+00 7.925001e-02 3.258204e-02 7.093803e-02 9.787652e-02 1.246934e-01 1.649951e-01 1.887026e-01 2.106368e-01 2.330613e-01 2.608480e-01 2.567495e-01 2.429367e-01 2.012443e-01 1.634283e-02
<GCONST> 7.830070e+01
<TRANSP> 5
 0.000000e+00 1.000000e+00 0.000000e+00 0.000000e+00 0.000000e+00
 0.000000e+00 8.365219e-01 1.634781e-01 0.000000e+00 0.000000e+00
 0.000000e+00 0.000000e+00 8.549498e-01 1.450502e-01 0.000000e+00
 0.000000e+00 0.000000e+00 0.000000e+00 9.701815e-01 2.981856e-02
 0.000000e+00 0.000000e+00 0.000000e+00 0.000000e+00 0.000000e+00
<ENDHMM>
~h "ey"
<BEGINHMM>
<NUMSTATES> 5
<STATE> 2
<MEAN> 39
 -8.655568e+00 -2.213242e+00 -9.138770e-01 3.886055e+00 1.188748e+00 -2.981303e+00 -2.471395e+00 -3.574248e+00 -4.814914e-01 -5.512674e-01 9.632628e-01 -1.894826e+00 5.200214e+01 1.387759e+00 -1.065412e+00 4.757913e-01 -6.675243e-01 -7.051851e-01 -2.441254e+00 -8.984230e-01 -7.090183e-01 -6.873212e-01 2.065180e-01 -3.221688e-01 -6.422753e-01 2.755421e+00 1.109115e-01 9.175083e-03 1.463413e-01 -8.270510e-02 3.648024e-02 -1.568930e-01 -1.281444e-01 -4.758860e-02 -4.138714e-02 -1.946063e-02 2.851138e-02 -1.105856e-01 2.329359e-01
<VARIANCE> 39
 7.620035e+01 8.938206e+01 1.101158e+02 1.591406e+02 2.127332e+02 2.124826e+02 1.199149e+02 8.200594e+01 7.355403e+01 1.129309e+02 6.993010e+01 5.079697e+01 1.976128e+02 5.087213e+00 5.179935e+00 8.625962e+00 1.155684e+01 1.273409e+01 1.308839e+01 8.986013e+00 6.551406e+00 6.736167e+00 8.500762e+00 5.419750e+00 3.791176e+00 6.690791e+00 6.412261e-01 9.117528e-01 1.099594e+00 1.569751e+00 1.832507e+00 2.097577e+00 1.263052e+00 1.092514e+00 1.193646e+00 1.288364e+00 8.651953e-01 6.037247e-01 1.290550e+00
<GCONST> 1.604233e+02
<STATE> 3
<MEAN> 39
 -1.770913e+00 -1.636510e+00 2.553721e+00 1.483947e+01 6.989638e+00 -2.371032e+01 -9.242143e+00 -8.302535e+00 -6.454412e+00 -2.395993e+00 -1.093463e-01 -9.473822e+00 6.705874e+01 -3.169738e-01 5.941303e-01 4.987417e-01 5.544971e-02 -1.831851e-01 6.164287e-01 4.213013e-02 -5.667649e-02 4.941349e-01 -2.459934e-01 -3.568096e-01 -1.092855e-01 -4.670647e-01 -1.651844e-01 1.387622e-01 -5.720647e-02 -8.146141e-02 -3.885189e-02 4.288290e-01 1.670969e-01 1.134337e-02 8.824142e-02 -3.162147e-02 7.412416e-03 1.817571e-01 -3.076085e-01
<VARIANCE> 39
 3.329505e+01 4.207123e+01 2.745696e+01 1.528654e+02 1.640057e+02 1.254488e+02 1.089820e+02 6.426836e+01 7.566891e+01 4.178565e+01 5.749799e+01 4.925608e+01 3.979633e+01 9.285727e-01 1.081534e+00 1.235886e+00 2.289149e+00 2.623477e+00 3.754436e+00 2.258371e+00 2.159044e+00 3.227608e+00 2.250931e+00 2.326940e+00 2.145937e+00 9.656714e-01 2.077107e-01 2.430418e-01 2.321804e-01 4.943801e-01 5.767865e-01 4.955570e-01 4.508072e-01 3.950125e-01 5.832157e-01 4.435622e-01 3.278601e-01 3.516319e-01 2.787572e-01
<GCONST> 1.212954e+02
<STATE> 4
<MEAN> 39
 -6.975443e+00 2.015305e+00 1.217015e+01 -7.120769e+00 -9.713451e+00 -3.743175e+00 -7.858727e+00 -1.067876e+01 -2.320585e+00 -2.235026e+00 1.104867e+00 -1.556133e+00 5.523719e+01 -4.153460e-01 3.639656e-01 -2.980590e-01 2.477251e-01 5.835626e-01 4.535398e-01 -7.109088e-02 3.137441e-02 -6.320112e-02 -1.775034e-02 7.998216e-02 2.114388e-01 -9.005466e-01 -5.947867e-02 -1.082508e-01 -6.681588e-02 1.134472e-01 6.703512e-02 -2.012623e-02 1.273099e-01 1.207008e-01 -4.864982e-02 -1.213604e-02 1.535319e-02 7.254753e-04 -3.157414e-02
<VARIANCE> 39
 6.775182e+01 6.222282e+01 1.315829e+02 1.674910e+02 2.587965e+02 1.059422e+02 8.154710e+01 8.200291e+01 6.912568e+01 8.111161e+01 1.290944e+02 5.317699e+01 1.416720e+02 8.857841e-01 2.162299e+00 3.022001e+00 3.566334e+00 4.523986e+00 3.673187e+00 4.963100e+00 5.430106e+00 3.626940e+00 3.155645e+00 3.894241e+00 2.236540e+00 1.256510e+00 1.278515e-01 3.274322e-01 4.153011e-01 5.006605e-01 6.725302e-01 5.111540e-01 7.267545e-01 7.889628e-01 6.457801e-01 5.414401e-01 7.222254e-01 4.352090e-01 2.009004e-01
<GCONST> 1.352518e+02
<TRANSP> 5
 0.000000e+00 1.000000e+00 0.000000e+00 0.000000e+00 0.000000e+00
 0.000000e+00 7.925759e-01 2.074241e-01 0.000000e+00 0.000000e+00
 0.000000e+00 0.000000e+00 8.378394e-01 1.621606e-01 0.000000e+00
 0.000000e+00 0.000000e+00 0.000000e+00 8.488867e-01 1.511133e-01
 0.000000e+00 0.000000e+00 0.000000e+00 0.000000e+00 0.000000e+00
<ENDHMM>
~h "hh"
<BEGINHMM>
<NUMSTATES> 5
<STATE> 2
<MEAN> 39
 5.454279e+00 1.104587e+00 -4.247319e+00 -1.588724e+00 -8.812490e+00 -2.147934e+01 9.100183e+00 1.067715e+01 -9.206413e-01 -6.678215e+00 -2.912074e+00 1.101556e+00 7.328046e+01 -2.530381e-02 3.967077e-01 3.404936e-01 1.438253e-01 -1.990173e-01 1.853327e-01 -2.223432e-01 2.848003e-02 3.520682e-01 -9.841871e-02 7.687751e-02 -1.285524e-01 -3.476207e-01 -2.591369e-02 1.818369e-02 1.846007e-02 9.088840e-02 5.596197e-02 1.378367e-01 3.065508e-02 -7.014289e-02 -3.307371e-02 1.132486e-02 1.237091e-02 -2.664809e-02 -3.842687e-02
<VARIANCE> 39
 1.974867e+01 4.042946e+01 4.257939e+01 1.148262e+01 6.761018e+01 8.190744e+01 2.469795e+02 4.824598e+01 5.952134e+01 1.413385e+02 2.396496e+01 1.187982e+02 2.881085e+01 6.135710e-01 1.153782e+00 1.827791e+00 1.293379e+00 1.814063e+00 3.986442e+00 3.480166e+00 1.800009e+00 2.465197e+00 3.352322e+00 1.840700e+00 1.633466e+00 6.366010e-01 8.405413e-02 1.361831e-01 2.617629e-01 1.779130e-01 2.930624e-01 4.577160e-01 5.386835e-01 2.612092e-01 4.271918e-01 5.786895e-01 3.201033e-01 3.729531e-01 8.511827e-02
<GCONST> 1.125053e+02
<STATE> 3
<MEAN> 39
 6.544380e+00 1.039268e+01 4.673881e+00 2.447809e+00 -1.327067e+01 -9.917942e+00 -4.636332e+00 -2.493055e+00 8.785354e+00 -3.604449e+00 -7.787646e+00 -2.232721e-01 6.474639e+01 -2.818601e-01 2.751676e-01 1.491847e-01 2.547869e-01 3.633654e-01 4.553875e-01 3.192026e-01 -9.976735e-02 -1.144569e-01 2.534548e-01 3.483722e-02 -1.093859e-01 -3.394122e-01 -3.326965e-02 -1.982747e-02 6.087057e-03 -2.603176e-02 3.442002e-02 -2.826354e-02 1.156154e-02 1.451394e-03 -8.195665e-02 -4.316665e-03 1.866186e-02 6.399655e-03 3.007576e-02
<VARIANCE> 39
 1.889206e+01 3.720512e+01 1.894251e+01 1.640059e+01 4.715052e+01 6.350097e+01 1.446140e+02 4.077239e+01 3.015545e+01 2.184974e+01 3.920840e+01 3.616807e+01 6.713126e+00 5.996854e-01 8.819671e-01 1.012577e+00 1.132534e+00 1.422504e+00 2.700669e+00 2.948703e+00 1.636633e+00 1.611724e+00 1.846242e+00 1.155279e+00 1.433592e+00 4.240390e-01 5.197287e-02 1.628799e-01 1.260620e-01 1.566883e-01 2.339701e-01 3.614702e-01 3.312347e-01 2.209502e-01 2.288214e-01 2.113942e-01 2.269564e-01 2.564760e-01 4.658400e-02
<GCONST> 9.674606e+01
<STATE> 4
<MEAN> 39
 -1.073027e+00 5.300117e+00 1.808724e+00 6.603406e+00 4.515581e-01 -2.114392e-01 3.813521e+00 -1.025600e+00 2.601094e+00 -4.050788e+00 1.074821e+00 -9.845096e-01 6.246349e+01 -4.620124e-02 2.010690e-02 2.855354e-02 8.645214e-03 4.349501e-02 7.498802e-02 -5.543749e-02 -9.370613e-02 3.178800e-03 -7.306541e-03 1.733004e-02 4.632510e-02 -2.440962e-02 3.938997e-03 -1.336207e-02 -1.601589e-03 -1.106397e-02 -8.194121e-03 -1.237761e-02 -1.479977e-03 6.279418e-03 3.775033e-03 3.756472e-04 6.850120e-03 3.578178e-03 1.119273e-02
<VARIANCE> 39
 1.659691e+01 9.196074e+00 2.344437e+01 1.587482e+01 6.431629e+01 4.042187e+01 2.622379e+01 2.814480e+01 3.215821e+01 2.850655e+01 1.771425e+01 3.817234e+01 5.572397e+00 3.966087e-01 4.900090e-01 7.809324e-01 8.658202e-01 1.372405e+00 1.318173e+00 1.992874e+00 1.815515e+00 2.130507e+00 1.587203e+00 1.366812e+00 1.452218e+00 1.409049e-01 6.954500e-02 9.561205e-02 1.515018e-01 1.636272e-01 2.636000e-01 2.460258e-01 3.592620e-01 3.380489e-01 4.024110e-01 2.995548e-01 2.494664e-01 2.630536e-01 2.692547e-02
<GCONST> 8.993168e+01
<TRANSP> 5
 0.000000e+00 1.000000e+00 0.000000e+00 0.000000e+00 0.000000e+00
 0.000000e+00 9.065101e-01 9.348996e-02 0.000000e+00 0.000000e+00
 0.000000e+00 0.000000e+00 9.033843e-01 9.661575e-02 0.000000e+00
 0.000000e+00 0.000000e+00 0.000000e+00 9.808869e-01 1.911304e-02
 0.000000e+00 0.000000e+00 0.000000e+00 0.000000e+00 0.000000e+00
<ENDHMM>
~h "ih"
<BEGINHMM>
<NUMSTATES> 5
<STATE> 2
<MEAN> 39
 -1.322755e+01 6.953179e-01 3.607308e+00 3.044253e+00 7.162700e+00 -7.454681e+00 -2.580096e+00 -1.158942e+01 -3.569396e+00 -5.448583e+00 5.742959e-01 -6.101573e+00 6.673297e+01 2.001119e+00 2.258845e-02 -3.014902e-01 9.021606e-01 3.819248e-01 -1.282561e+00 -1.130128e+00 -5.287593e-01 -1.157314e+00 -9.624652e-02 -1.656730e-01 -1.486004e-01 6.937382e-01 2.435177e-01 -1.353289e-01 -6.279261e-02 3.214138e-02 1.206586e-01 -3.645203e-01 -9.364184e-02 1.129583e-01 -1.667257e-01 9.475183e-02 1.161540e-01 -9.627737e-02 2.879518e-01
<VARIANCE> 39
 1.407937e+02 6.544949e+01 9.863846e+01 9.966987e+01 1.564781e+02 1.427789e+02 8.764832e+01 6.514044e+01 1.335279e+02 4.199519e+01 5.128785e+01 6.286970e+01 1.224189e+02 1.103224e+01 5.922811e+00 4.687662e+00 3.883115e+00 4.404926e+00 7.481066e+00 5.709328e+00 3.602381e+00 7.015737e+00 2.521185e+00 3.805083e+00 2.549795e+00 2.740424e+00 1.278612e+00 7.965537e-01 4.276679e-01 4.843817e-01 7.176481e-01 9.980423e-01 9.174545e-01 6.910203e-01 9.899201e-01 4.649245e-01 6.618486e-01 3.476961e-01 5.156967e-01
<GCONST> 1.446815e+02
<STATE> 3
<MEAN> 39
 -3.683463e+00 -1.503235e+00 -4.380167e-01 1.158496e+01 1.318703e+01 -1.493506e+01 -4.262080e+00 -9.555389e+00 -4.204255e+00 -4.033900e+00 1.087538e+00 -7.510325e+00 6.799431e+01 1.292798e-01 1.466609e-02 -1.403865e-01 -1.662643e-01 -9.494302e-02 1.582037e-01 1.002350e-01 -1.824438e-01 -3.117029e-02 -1.722654e-02 1.213686e-01 2.410004e-01 5.630368e-04 -1.742846e-01 2.800321e-02 6.419497e-02 -1.919399e-01 -1.054047e-01 2.538653e-01 1.397000e-01 -9.516364e-03 1.048661e-01 -2.223742e-02 -3.091976e-02 5.172870e-02 -3.965804e-02
<VARIANCE> 39
 6.491753e+01 6.968831e+01 4.840093e+01 7.131840e+01 8.951349e+01 1.620361e+02 8.034054e+01 7.857699e+01 7.132778e+01 4.659196e+01 4.246500e+01 8.058422e+01 6.638833e+01 4.642979e+00 5.334596e+00 3.113773e+00 4.886716e+00 5.158787e+00 1.103943e+01 5.175211e+00 4.361235e+00 4.869301e+00 4.049936e+00 3.245835e+00 3.734043e+00 3.487473e+00 6.534595e-01 9.723353e-01 4.332372e-01 8.487620e-01 7.912608e-01 1.675727e+00 8.940786e-01 8.344331e-01 9.696317e-01 8.062381e-01 6.200727e-01 5.614021e-01 6.286202e-01
<GCONST> 1.436017e+02
<STATE> 4
<MEAN> 39
 -4.433772e+00 -4.771867e+00 2.571356e+00 -7.440164e-02 -6.009580e+00 -8.639257e+00 -3.925161e+00 -5.180797e+00 -1.047543e+00 -2.384246e+00 3.025957e+00 -6.994533e-01 6.167421e+01 -4.030382e-01 -5.807744e-01 3.732601e-01 -1.399769e-01 1.671427e-02 1.414662e-01 5.045384e-01 -2.174165e-01 4.438779e-02 2.869195e-01 -2.991825e-02 -1.314898e-01 4.097669e-01 -2.574309e-01 1.379547e-01 9.313270e-02 2.163468e-01 1.673974e-01 1.421907e-01 2.023935e-02 1.034998e-01 1.652174e-01 -2.177623e-02 -2.840556e-02 -1.347052e-01 -1.312184e-01
<VARIANCE> 39
 9.260114e+01 1.427377e+02 1.400031e+02 9.030429e+01 2.789554e+02 2.109900e+02 3.040798e+02 1.528168e+02 6.902836e+01 9.565545e+01 7.602289e+01 7.233401e+01 1.117377e+02 6.342390e+00 5.463102e+00 8.804991e+00 7.583085e+00 8.160226e+00 1.072330e+01 6.480083e+00 5.464764e+00 4.902278e+00 5.096180e+00 3.419804e+00 3.503917e+00 5.262260e+00 6.370009e-01 8.350728e-01 1.151806e+00 8.058403e-01 1.280268e+00 1.581498e+00 1.215210e+00 9.725698e-01 8.345847e-01 9.961069e-01 7.004961e-01 7.737789e-01 5.972692e-01
<GCONST> 1.564662e+02
<TRANSP> 5
 0.000000e+00 1.000000e+00 0.000000e+00 0.000000e+00 0.000000e+00
 0.000000e+00 6.983052e-01 3.016947e-01 0.000000e+00 0.000000e+00
 0.000000e+00 0.000000e+00 8.513009e-01 1.486991e-01 0.000000e+00
 0.000000e+00 0.000000e+00 0.000000e+00 8.041522e-01 1.958478e-01
 0.000000e+00 0.000000e+00 0.000000e+00 0.000000e+00 0.000000e+00
<ENDHMM>
~h "iy"
<BEGINHMM>
<NUMSTATES> 5
<STATE> 2
<MEAN> 39
 -1.332921e+00 -3.990487e+00 9.958646e+00 9.608999e+00 -6.387975e+00 -1.191138e+01 -1.277294e+01 -5.956306e+00 -4.655709e+00 -7.226933e+00 3.615198e-01 -5.455278e+00 5.869800e+01 -1.878522e-01 3.093976e-01 -4.075547e-01 2.674702e-02 2.691268e-01 5.932086e-01 5.221061e-01 1.303731e-01 2.550615e-01 2.129779e-01 -5.904680e-01 6.232113e-02 -6.206349e-01 -1.181704e-01 2.712196e-02 -1.719740e-01 -1.123474e-01 4.896533e-02 1.974675e-01 2.072952e-01 -5.074227e-02 -1.839390e-02 8.035195e-02 3.624554e-03 1.013796e-01 -1.052706e-01
<VARIANCE> 39
 4.972614e+01 1.337007e+02 7.152131e+01 1.898664e+02 2.902137e+02 1.404575e+02 1.115491e+02 7.865099e+01 6.927969e+01 7.285645e+01 6.191116e+01 7.763549e+01 7.849371e+01 1.405717e+00 1.905453e+00 3.202365e+00 1.959680e+00 2.775549e+00 4.043298e+00 3.964055e+00 2.345107e+00 3.142889e+00 3.387842e+00 2.582480e+00 2.481853e+00 1.214107e+00 1.329002e-01 2.981670e-01 2.877455e-01 3.338396e-01 3.966413e-01 6.057575e-01 6.302482e-01 4.218613e-01 5.957659e-01 5.591409e-01 4.772919e-01 4.460121e-01 1.159661e-01
<GCONST> 1.298221e+02
<STATE> 3
<MEAN> 39
 -5.185603e+00 3.619262e+00 8.602380e+00 1.042693e+01 -2.643888e+00 -5.207719e+00 -6.696029e+00 -9.971738e+00 -4.004260e+00 -1.123075e+00 -4.544631e+00 -2.429877e+00 5.576389e+01 -4.168558e-01 -1.381686e-01 -1.010851e+00 -5.438875e-01 -2.371131e-01 6.044049e-01 1.080627e+00 8.133970e-02 1.656585e-01 2.573343e-01 6.915040e-02 1.295443e-01 -6.378362e-01 2.239388e-03 -1.434906e-01 -7.276457e-02 -1.334252e-01 -1.393079e-01 -6.332769e-02 9.026426e-03 1.823689e-01 -2.854708e-02 -5.260379e-02 1.681132e-01 7.777324e-02 6.954753e-02
<VARIANCE> 39
 5.700849e+01 6.192636e+01 1.168063e+02 1.030805e+02 1.773635e+02 7.188326e+01 1.005178e+02 6.848228e+01 4.009850e+01 9.187682e+01 3.869922e+01 4.474143e+01 8.626606e+01 1.252913e+00 1.606028e+00 2.333346e+00 2.770260e+00 2.310590e+00 2.810977e+00 3.313565e+00 2.215324e+00 3.022113e+00 2.161711e+00 2.181356e+00 2.105252e+00 4.476835e-01 1.196850e-01 2.704011e-01 3.209155e-01 3.365578e-01 3.783416e-01 4.609005e-01 7.066500e-01 3.674928e-01 3.960337e-01 4.593354e-01 3.790590e-01 2.854616e-01 7.244938e-02
<GCONST> 1.213821e+02
<STATE> 4
<MEAN> 39
 -6.016840e+00 -9.912038e-01 2.896993e+00 6.930576e+00 -1.474017e+00 2.492620e+00 8.686668e-01 -1.225848e+00 3.384298e-01 -3.290774e+00 -1.197500e+00 -9.436657e-01 4.971409e+01 -1.361370e-01 -1.676289e-01 -5.287490e-01 1.092022e-01 2.253139e-01 2.132178e-01 3.238811e-01 4.479971e-01 9.393525e-02 -1.729975e-03 2.369383e-01 1.523715e-01 -2.595109e-01 2.722257e-02 -1.283439e-02 1.359930e-02 -3.741036e-02 -2.323581e-03 -5.828252e-02 -4.423068e-02 -3.070558e-02 -4.492031e-02 -5.702898e-02 9.170849e-03 2.144319e-02 6.813181e-02
<VARIANCE> 39
 4.520649e+01 9.679424e+01 3.517162e+01 6.322034e+01 1.177979e+02 8.778088e+01 8.029517e+01 5.797471e+01 3.530077e+01 4.210844e+01 4.034264e+01 3.433856e+01 1.197846e+02 6.178499e-01 1.161445e+00 1.702069e+00 2.250824e+00 2.358576e+00 2.606014e+00 2.441653e+00 2.184360e+00 2.634392e+00 2.284666e+00 2.156953e+00 1.812431e+00 2.635252e-01 1.044352e-01 2.008924e-01 2.931633e-01 3.997628e-01 4.158098e-01 4.182944e-01 4.008138e-01 3.423025e-01 4.362742e-01 4.755093e-01 4.228042e-01 3.316302e-01 5.785404e-02
<GCONST> 1.149760e+02
<TRANSP> 5
 0.000000e+00 1.000000e+00 0.000000e+00 0.000000e+00 0.000000e+00
 0.000000e+00 6.929516e-01 3.070484e-01 0.000000e+00 0.000000e+00
 0.000000e+00 0.000000e+00 5.553890e-01 4.446110e-01 0.000000e+00
 0.000000e+00 0.000000e+00 0.000000e+00 7.466779e-01 2.533220e-01
 0.000000e+00 0.000000e+00 0.000000e+00 0.000000e+00 0.000000e+00
<ENDHMM>
~h "ng"
<BEGINHMM>
<NUMSTATES> 5
<STATE> 2
<MEAN> 39
 -6.295427e+00 -5.554916e+00 6.069887e+00 8.769186e+00 5.492734e+00 -9.214116e+00 8.869793e+00 -5.482257e+00 -2.951653e+00 3.320848e+00 -2.608308e-01 -1.062364e+01 6.988097e+01 2.846683e-01 1.327224e-01 -1.141653e-01 4.100284e-02 -1.453352e-01 2.371363e-01 -3.397438e-01 -7.847052e-03 -1.802396e-01 -1.168064e-02 -6.219951e-02 -1.422434e-01 -3.496150e-01 1.447320e-01 8.291478e-02 -1.320255e-01 4.210703e-02 -6.528406e-02 2.228371e-03 -4.966379e-02 5.787694e-02 1.168593e-01 -1.117133e-01 -6.553770e-02 1.322623e-01 -8.810887e-02
<VARIANCE> 39
 7.121904e+01 4.541178e+01 2.600380e+01 3.587360e+01 3.344967e+01 5.014452e+01 4.560547e+01 5.181448e+01 6.030782e+01 1.013624e+02 3.204331e+01 2.393027e+01 3.391024e+01 8.565346e+00 3.560226e+00 3.100876e+00 2.372918e+00 2.681043e+00 5.901377e+00 3.646876e+00 4.625325e+00 6.480434e+00 8.640877e+00 2.308025e+00 2.951802e+00 3.253081e+00 1.449183e+00 5.822827e-01 5.204508e-01 4.153347e-01 5.744730e-01 1.035871e+00 6.386505e-01 7.845877e-01 1.112827e+00 1.280073e+00 4.120822e-01 5.633447e-01 5.881686e-01
<GCONST> 1.342487e+02
<STATE> 3
<MEAN> 39
 -4.779595e+00 4.033150e+00 7.817695e+00 1.575027e+01 -2.063898e+00 -5.438460e+00 1.417207e+00 -6.306129e+00 -5.734223e-01 -2.949897e+00 -3.583733e+00 -1.614509e+00 6.131730e+01 -1.642586e-01 1.862088e-01 1.221133e-01 1.539155e-01 1.733038e-01 3.375584e-01 2.282292e-01 1.704520e-01 2.855216e-02 -2.040828e-01 -6.133163e-02 9.274757e-02 -1.908906e-01 -6.384395e-02 -9.726786e-02 -4.126231e-02 -6.351308e-02 3.967826e-02 1.723731e-02 4.397690e-02 8.157907e-03 -1.835216e-03 1.158471e-01 7.329492e-02 3.077118e-02 -4.183412e-03
<VARIANCE> 39
 2.316478e+01 6.778967e+01 2.899771e+01 1.725496e+01 3.800927e+01 3.703061e+01 3.724559e+01 2.121912e+01 2.540461e+01 2.992908e+01 1.974250e+01 2.468542e+01 7.408663e+00 1.589377e+00 6.055743e+00 2.760970e+00 1.742662e+00 1.964957e+00 3.510145e+00 3.434733e+00 2.181844e+00 2.620090e+00 3.066420e+00 1.925693e+00 1.471677e+00 9.038712e-01 2.285954e-01 9.490024e-01 5.541558e-01 3.482644e-01 3.860120e-01 6.296862e-01 6.679888e-01 4.254710e-01 5.065489e-01 5.870029e-01 4.170220e-01 2.786637e-01 1.960740e-01
<GCONST> 1.139637e+02
<STATE> 4
<MEAN> 39
 -9.714531e+00 2.013651e+00 2.388783e+00 1.084184e+01 2.251204e+00 3.084071e+00 8.407360e+00 -5.183557e-01 2.925083e+00 -3.898976e-01 1.318508e+00 -2.777151e-01 5.580455e+01 -1.006177e-01 -1.419991e-01 -1.454387e-01 -1.519011e-01 -1.050943e-01 -3.347682e-03 1.016092e-02 2.587695e-02 4.785513e-02 2.230180e-02 8.115655e-02 7.805957e-02 -7.800825e-02 2.291412e-02 -2.966236e-03 6.433401e-03 2.044344e-02 -5.489628e-03 -2.048229e-02 -1.821649e-02 -1.971002e-02 -1.521020e-02 -6.425786e-04 -1.411561e-02 -1.988574e-02 2.270237e-02
<VARIANCE> 39
 2.480667e+01 2.646963e+01 1.259288e+01 1.973573e+01 4.420548e+01 3.187245e+01 2.183397e+01 2.313416e+01 2.389621e+01 3.187093e+01 1.394825e+01 2.618047e+01 5.102626e+00 2.526252e-01 6.684885e-01 6.295943e-01 9.364821e-01 1.116527e+00 1.473089e+00 1.445798e+00 1.212448e+00 1.328974e+00 1.150078e+00 9.425806e-01 1.011341e+00 1.111608e-01 3.260123e-02 1.080392e-01 1.207508e-01 1.879124e-01 2.378204e-01 3.224848e-01 2.977472e-01 2.061999e-01 2.270996e-01 2.193676e-01 1.592194e-01 1.795222e-01 1.877042e-02
<GCONST> 8.292979e+01
<TRANSP> 5
 0.000000e+00 1.000000e+00 0.000000e+00 0.000000e+00 0.000000e+00
 0.000000e+00 9.107854e-01 8.921456e-02 0.000000e+00 0.000000e+00
 0.000000e+00 0.000000e+00 9.494740e-01 5.052599e-02 0.000000e+00
 0.000000e+00 0.000000e+00 0.000000e+00 9.744410e-01 2.555905e-02
 0.000000e+00 0.000000e+00 0.000000e+00 0.000000e+00 0.000000e+00
<ENDHMM>
~h "ow"
<BEGINHMM>
<NUMSTATES> 5
<STATE> 2
<MEAN> 39
 -4.530161e+00 5.186870e-01 -6.211330e+00 -1.179683e+00 5.177556e-01 -7.013606e-01 2.037925e+00 -3.907558e+00 -2.834173e+00 -2.060463e+00 -5.279314e-01 -4.271936e+00 5.955687e+01 1.298586e+00 -6.465603e-01 -5.642374e-01 -1.428400e+00 -4.364751e-01 -1.167190e+00 -4.233805e-01 -4.178951e-01 -6.566780e-01 -7.906733e-02 -3.166653e-01 -4.873362e-01 2.164959e+00 1.165018e-01 9.003351e-02 6.527510e-02 2.007552e-01 -1.535706e-02 -9.245314e-02 -1.811312e-01 7.921950e-02 1.343263e-01 -1.618024e-01 -2.096944e-02 5.345993e-02 -1.218130e-01
<VARIANCE> 39
 1.018789e+02 8.625761e+01 6.872215e+01 1.150709e+02 1.955380e+02 1.265248e+02 1.334791e+02 1.050820e+02 1.092500e+02 7.839637e+01 7.327248e+01 6.529529e+01 2.289768e+02 7.390444e+00 3.365307e+00 3.760915e+00 9.027642e+00 6.823304e+00 9.638171e+00 7.965955e+00 7.036793e+00 8.424712e+00 5.485727e+00 6.739388e+00 4.481161e+00 7.479166e+00 1.112944e+00 5.462872e-01 6.487769e-01 1.494706e+00 1.109994e+00 1.400607e+00 1.207274e+00 1.193437e+00 1.232580e+00 8.993343e-01 1.186834e+00 8.322145e-01 1.396483e+00
<GCONST> 1.572680e+02
<STATE> 3
<MEAN> 39
 3.310499e+00 4.148479e+00 -7.201154e+00 -4.213002e+00 -4.045403e+00 -3.183673e+00 2.389115e+00 -7.492612e+00 -6.675013e+00 -6.722541e+00 1.890424e+00 -4.558116e+00 6.415416e+01 -2.429873e-01 3.849253e-01 3.508191e-01 4.648567e-01 -1.432163e-01 7.698333e-02 -6.276791e-03 4.312280e-01 5.590041e-03 -6.054152e-01 -2.536156e-01 3.166930e-01 -5.888127e-01 -1.601271e-01 5.778759e-02 1.069847e-01 1.436761e-01 9.464312e-02 6.823498e-02 -1.788646e-02 -1.660108e-04 9.231435e-02 8.991291e-02 -5.680806e-02 -4.127340e-02 -1.593085e-01
<VARIANCE> 39
 4.719444e+01 6.420636e+01 5.244727e+01 1.464142e+02 1.069794e+02 1.810551e+02 1.094413e+02 1.302851e+02 1.057903e+02 7.027940e+01 1.372572e+02 9.028831e+01 1.092906e+02 8.479644e-01 1.306825e+00 1.568848e+00 2.567807e+00 2.451536e+00 3.541291e+00 2.395754e+00 3.803643e+00 3.189833e+00 2.369401e+00 3.345378e+00 2.533678e+00 7.496985e-01 1.172867e-01 2.020883e-01 2.229006e-01 4.172408e-01 4.548143e-01 5.019664e-01 4.572456e-01 6.966481e-01 5.676316e-01 4.709373e-01 5.117843e-01 5.187362e-01 9.448195e-02
<GCONST> 1.271047e+02
<STATE> 4
<MEAN> 39
 1.416071e+00 3.501051e+00 -6.391911e+00 -6.698031e+00 -8.643565e+00 -2.846958e-01 -4.454221e+00 -1.639255e+00 -2.192703e+00 -3.114094e+00 -2.336303e+00 -8.137926e-02 5.234712e+01 -5.112060e-01 1.801434e-01 2.119053e-01 4.707597e-01 1.496065e-01 2.013601e-01 1.427636e-01 2.730864e-02 2.489397e-03 1.829194e-02 7.831986e-02 6.103075e-02 -6.780674e-01 -4.109139e-02 -5.674397e-02 -2.396550e-02 3.632733e-02 8.038294e-02 7.858299e-03 2.370295e-02 -4.361517e-02 -1.451770e-02 5.140588e-02 4.462921e-02 -8.208015e-03 4.752518e-03
<VARIANCE> 39
 6.558257e+01 8.142249e+01 5.432036e+01 9.583461e+01 1.436044e+02 1.284798e+02 9.319834e+01 5.702896e+01 5.400259e+01 7.418074e+01 4.158666e+01 4.917011e+01 1.297401e+02 7.517081e-01 1.270557e+00 1.225059e+00 1.772303e+00 2.189637e+00 2.109834e+00 2.188341e+00 1.971624e+00 1.971511e+00 2.025471e+00 1.737085e+00 1.461429e+00 3.494608e-01 6.339464e-02 1.555301e-01 1.729860e-01 2.359117e-01 3.099048e-01 3.630230e-01 3.479232e-01 3.429945e-01 3.223683e-01 3.311879e-01 3.043458e-01 2.549753e-01 4.228938e-02
<GCONST> 1.129042e+02
<TRANSP> 5
 0.000000e+00 1.000000e+00 0.000000e+00 0.000000e+00 0.000000e+00
 0.000000e+00 7.417520e-01 2.582480e-01 0.000000e+00 0.000000e+00
 0.000000e+00 0.000000e+00 7.208505e-01 2.791495e-01 0.000000e+00
 0.000000e+00 0.000000e+00 0.000000e+00 8.745802e-01 1.254198e-01
 0.000000e+00 0.000000e+00 0.000000e+00 0.000000e+00 0.000000e+00
<ENDHMM>
~h "sh"
<BEGINHMM>
<NUMSTATES> 5
<STATE> 2
<MEAN> 39
 -4.379380e+00 2.574056e+00 7.522867e+00 7.631413e+00 -1.205522e+00 -1.065813e+01 1.871037e+00 -2.811404e+00 -5.322321e-01 -6.148656e+00 -3.102203e+00 -2.534142e+00 6.647601e+01 -6.611323e-01 -1.013416e+00 2.757930e-01 3.518252e-01 3.660798e-01 3.344090e-01 -1.132300e-01 1.886308e-01 6.981326e-01 5.607014e-01 1.114254e-01 2.794471e-01 -2.252234e-01 -1.322442e-03 -1.236844e-01 2.573195e-03 1.240546e-01 8.258177e-02 -2.379816e-02 7.139787e-05 -4.175798e-02 -2.380116e-02 3.729207e-02 1.057430e-02 -5.624554e-03 -1.272980e-04
<VARIANCE> 39
