~o
<STREAMINFO> 1 39
<VECSIZE> 39<NULLD><MFCC_D_A_0><DIAGC>
~h "b"
<BEGINHMM>
<NUMSTATES> 5
<STATE> 2
<MEAN> 39
 -7.562762e-01 7.425782e+00 -2.101223e+00 5.602191e+00 2.398841e+00 -3.675387e+00 4.958970e-02 -5.175986e+00 -4.156773e+00 -6.516785e+00 -1.935504e+00 -2.606672e+00 6.250232e+01 -1.454332e-01 -2.706712e-02 3.446124e-02 9.054136e-03 3.288089e-02 4.115408e-02 4.787413e-02 3.194992e-02 1.920072e-02 -2.552653e-02 2.217150e-02 2.705338e-02 -8.838439e-02 1.528927e-04 -6.018356e-03 -2.042493e-03 7.738546e-04 -2.054747e-03 -4.159410e-03 -2.317064e-03 -6.350227e-03 -3.676311e-03 1.506931e-03 5.148886e-03 2.429889e-03 3.339888e-03
<VARIANCE> 39
 4.999752e+01 4.706915e+01 5.619005e+01 5.587712e+01 8.795039e+01 6.359148e+01 5.244350e+01 4.487056e+01 6.502721e+01 3.106450e+01 2.116593e+01 3.203649e+01 5.703296e+01 2.563097e+00 2.766544e+00 2.131245e+00 2.885277e+00 4.161494e+00 4.091879e+00 3.303037e+00 3.548408e+00 3.430588e+00 1.975225e+00 1.318962e+00 1.207489e+00 2.293799e+00 4.073694e-01 4.549068e-01 3.030746e-01 4.526270e-01 7.266054e-01 7.251949e-01 5.507233e-01 6.952842e-01 5.703405e-01 3.332452e-01 2.314115e-01 2.065559e-01 3.874672e-01
<GCONST> 1.234175e+02
<STATE> 3
<MEAN> 39
 -1.237592e+00 7.299082e+00 -2.001687e+00 5.625634e+00 2.489185e+00 -3.563592e+00 2.039105e-01 -5.112611e+00 -4.127605e+00 -6.593426e+00 -1.826864e+00 -2.498528e+00 6.223649e+01 -1.418313e-01 -4.502393e-02 2.708005e-02 1.027986e-02 2.192143e-02 2.758354e-02 4.073570e-02 1.119944e-02 6.959915e-03 -2.161126e-02 3.852436e-02 3.423594e-02 -7.683613e-02 1.884249e-03 -4.568431e-03 -2.755492e-03 6.711653e-05 -3.976738e-03 -3.923575e-03 -2.026692e-03 -5.531261e-03 -3.384229e-03 1.374736e-03 4.605003e-03 1.678043e-03 3.052753e-03
<VARIANCE> 39
 5.162118e+01 4.631282e+01 5.400702e+01 5.508333e+01 8.738595e+01 6.320374e+01 5.053579e+01 4.371754e+01 6.887467e+01 3.034781e+01 2.043188e+01 3.210152e+01 5.960263e+01 2.595707e+00 2.853607e+00 2.135788e+00 2.866842e+00 4.157337e+00 4.119979e+00 3.265231e+00 3.444066e+00 3.497767e+00 1.924199e+00 1.328319e+00 1.205946e+00 2.357194e+00 4.199607e-01 4.782237e-01 3.081106e-01 4.542061e-01 7.290142e-01 7.457969e-01 5.539771e-01 6.758572e-01 5.835064e-01 3.288342e-01 2.387920e-01 2.064173e-01 3.962557e-01
<GCONST> 1.235507e+02
<STATE> 4
<MEAN> 39
 -1.572609e+00 7.165125e+00 -1.842080e+00 5.557815e+00 2.547418e+00 -3.767652e+00 1.749194e-01 -5.140056e+00 -4.362032e+00 -6.826581e+00 -1.663652e+00 -2.205697e+00 6.221346e+01 -1.273513e-01 -6.002846e-02 1.620442e-02 7.859157e-03 -4.363024e-03 1.189256e-02 3.549331e-02 -1.304247e-02 -9.556821e-03 -1.783489e-02 5.548224e-02 4.029778e-02 -6.047808e-02 2.989788e-03 -2.613141e-03 -2.595560e-03 1.770181e-04 -5.385189e-03 -2.899718e-03 -1.394636e-03 -3.972364e-03 -2.304453e-03 1.184473e-03 3.059712e-03 7.240889e-04 2.016197e-03
<VARIANCE> 39
 5.433180e+01 4.650461e+01 5.281886e+01 5.438543e+01 8.991569e+01 6.331581e+01 4.853207e+01 4.242216e+01 7.370798e+01 3.022479e+01 2.022728e+01 3.260520e+01 6.262642e+01 2.695245e+00 2.992893e+00 2.155594e+00 2.849783e+00 4.191142e+00 4.252777e+00 3.295457e+00 3.338670e+00 3.617817e+00 1.886270e+00 1.347267e+00 1.214126e+00 2.471019e+00 4.453904e-01 5.128521e-01 3.169530e-01 4.569477e-01 7.405344e-01 7.880019e-01 5.738963e-01 6.561844e-01 6.032535e-01 3.301421e-01 2.478064e-01 2.082890e-01 4.144768e-01
<GCONST> 1.242057e+02
<TRANSP> 5
 0.000000e+00 1.000000e+00 0.000000e+00 0.000000e+00 0.000000e+00
 0.000000e+00 7.061935e-01 2.938065e-01 0.000000e+00 0.000000e+00
 0.000000e+00 0.000000e+00 7.061938e-01 2.938062e-01 0.000000e+00
 0.000000e+00 0.000000e+00 0.000000e+00 8.239613e-01 1.760388e-01
 0.000000e+00 0.000000e+00 0.000000e+00 0.000000e+00 0.000000e+00
<ENDHMM>
~h "d"
<BEGINHMM>
<NUMSTATES> 5
<STATE> 2
<MEAN> 39
 -1.237139e+01 1.165748e+00 -1.161810e+00 9.186864e+00 -7.949373e-01 -1.778572e-01 4.980704e+00 -1.760097e+00 2.852141e+00 -3.726636e+00 -7.242204e-01 -1.510552e+00 5.376976e+01 -1.260786e-01 -9.543036e-02 8.544090e-02 9.095690e-02 -4.690047e-02 2.411563e-02 4.797983e-02 5.401628e-02 8.299997e-02 -1.696259e-02 -1.596711e-02 1.574667e-02 -7.421118e-02 7.388762e-03 2.820879e-03 -3.427968e-03 1.387217e-03 2.333057e-03 -5.879317e-03 -7.230032e-03 -3.591442e-03 -5.241196e-03 -5.851255e-03 -3.841237e-03 -2.910982e-03 3.914376e-03
<VARIANCE> 39
 3.530776e+01 2.899312e+01 3.662173e+01 3.243877e+01 3.819258e+01 3.739197e+01 3.122636e+01 4.007563e+01 4.271479e+01 2.875556e+01 2.134157e+01 4.424104e+01 5.981130e+01 7.096372e-01 1.452366e+00 9.684440e-01 1.118178e+00 1.249018e+00 1.602816e+00 1.885903e+00 1.528647e+00 1.809080e+00 1.277373e+00 1.492632e+00 1.454409e+00 2.928865e-01 8.010971e-02 2.638166e-01 1.204058e-01 1.972238e-01 2.171334e-01 2.812098e-01 3.266112e-01 3.056218e-01 3.146451e-01 2.529067e-01 2.822148e-01 2.663017e-01 4.244943e-02
<GCONST> 9.941073e+01
<STATE> 3
<MEAN> 39
 -1.276336e+01 8.426822e-01 -8.940682e-01 9.494313e+00 -9.470485e-01 -1.068303e-01 5.123331e+00 -1.587043e+00 3.122073e+00 -3.789962e+00 -7.764771e-01 -1.466920e+00 5.354487e+01 -1.003601e-01 -8.514139e-02 7.218405e-02 9.324425e-02 -3.995920e-02 4.422002e-03 2.249129e-02 4.051528e-02 6.517118e-02 -3.528123e-02 -2.898183e-02 5.283043e-03 -6.100244e-02 7.063108e-03 3.989613e-03 -4.835934e-03 6.952054e-04 3.090735e-03 -6.231623e-03 -7.929736e-03 -3.392492e-03 -4.459265e-03 -4.285087e-03 -3.845658e-03 -3.859070e-03 2.646895e-03
<VARIANCE> 39
 3.061969e+01 3.036701e+01 3.508823e+01 3.266045e+01 3.711805e+01 3.887457e+01 3.213144e+01 3.852297e+01 3.922778e+01 2.921741e+01 2.070300e+01 4.446552e+01 5.901474e+01 6.852502e-01 1.413034e+00 9.264759e-01 1.088044e+00 1.193647e+00 1.538981e+00 1.893125e+00 1.557116e+00 1.802072e+00 1.313259e+00 1.463811e+00 1.409015e+00 2.784879e-01 7.859357e-02 2.563964e-01 1.164219e-01 1.921945e-01 2.043304e-01 2.666205e-01 3.267122e-01 3.114208e-01 3.244612e-01 2.608487e-01 2.816294e-01 2.595950e-01 4.048749e-02
<GCONST> 9.867921e+01
<STATE> 4
<MEAN> 39
 -1.308002e+01 4.135264e-01 -8.011421e-01 9.699871e+00 -1.197718e+00 -1.392464e-01 5.342957e+00 -1.239094e+00 3.526164e+00 -3.840222e+00 -8.474550e-01 -1.363649e+00 5.348826e+01 -7.112483e-02 -7.248648e-02 5.022186e-02 8.773827e-02 -3.269408e-02 -1.415798e-02 -5.619347e-03 2.507558e-02 4.926568e-02 -4.398655e-02 -3.825611e-02 -8.615598e-03 -4.719018e-02 5.788505e-03 4.892644e-03 -5.364956e-03 -9.987541e-04 3.241827e-03 -5.536259e-03 -7.212031e-03 -2.976014e-03 -3.800939e-03 -1.639047e-03 -2.612845e-03 -4.105312e-03 1.065717e-03
<VARIANCE> 39
 2.485876e+01 3.153049e+01 3.212349e+01 3.268048e+01 3.553333e+01 3.998478e+01 3.277063e+01 3.562283e+01 3.534431e+01 3.028670e+01 2.001399e+01 4.472836e+01 5.646420e+01 6.283460e-01 1.316482e+00 8.474458e-01 1.033125e+00 1.119503e+00 1.469034e+00 1.901118e+00 1.587491e+00 1.769136e+00 1.334414e+00 1.419257e+00 1.325134e+00 2.686186e-01 7.520002e-02 2.411089e-01 1.116807e-01 1.836755e-01 1.886121e-01 2.510047e-01 3.307020e-01 3.174699e-01 3.294967e-01 2.643925e-01 2.767975e-01 2.452792e-01 3.918139e-02
<GCONST> 9.731039e+01
<TRANSP> 5
 0.000000e+00 1.000000e+00 0.000000e+00 0.000000e+00 0.000000e+00
 0.000000e+00 7.061240e-01 2.938760e-01 0.000000e+00 0.000000e+00
 0.000000e+00 0.000000e+00 7.061240e-01 2.938760e-01 0.000000e+00
 0.000000e+00 0.000000e+00 0.000000e+00 8.238302e-01 1.761698e-01
 0.000000e+00 0.000000e+00 0.000000e+00 0.000000e+00 0.000000e+00
<ENDHMM>
~h "f"
<BEGINHMM>
<NUMSTATES> 5
<STATE> 2
<MEAN> 39
 -8.418430e+00 9.013695e-01 -3.640914e+00 4.058615e+00 -1.844135e-02 -1.458647e+00 1.678485e+00 -3.797428e+00 -1.133497e+00 -2.120102e+00 3.932520e-01 -1.694934e+00 5.335265e+01 1.626152e-01 -6.834194e-02 -5.452325e-02 -1.179297e-01 -1.917914e-02 -4.651981e-02 -4.685477e-02 -5.570357e-02 -1.268811e-02 -5.662812e-03 -2.444433e-02 -6.463410e-02 2.315121e-01 3.166084e-03 5.368985e-03 5.479434e-03 1.988696e-03 1.877963e-03 2.430418e-03 -1.485447e-03 3.344114e-03 -1.025411e-03 -1.800881e-03 -1.747133e-03 -1.816098e-03 -6.698378e-03
<VARIANCE> 39
 1.321367e+02 8.294677e+01 7.695549e+01 9.922600e+01 1.035359e+02 1.150259e+02 8.654148e+01 7.017775e+01 5.712529e+01 5.753382e+01 4.197313e+01 4.602136e+01 2.523005e+02 3.526839e+00 2.139980e+00 1.940922e+00 3.046761e+00 3.245811e+00 3.433669e+00 3.162811e+00 2.808416e+00 2.746713e+00 2.632358e+00 2.236838e+00 2.138686e+00 1.555752e+00 4.550189e-01 3.436081e-01 2.867227e-01 4.462557e-01 5.423378e-01 5.555401e-01 5.294204e-01 5.099362e-01 4.619711e-01 4.643416e-01 4.079712e-01 3.919671e-01 2.068070e-01
<GCONST> 1.302206e+02
<STATE> 3
<MEAN> 39
 -7.674880e+00 6.342847e-01 -3.829197e+00 3.552843e+00 -1.366936e-01 -1.632984e+00 1.460340e+00 -4.030194e+00 -1.169498e+00 -2.240052e+00 2.394463e-01 -1.954318e+00 5.437955e+01 1.667088e-01 -5.357568e-02 -3.769227e-02 -1.084352e-01 -2.038449e-02 -3.722158e-02 -4.509353e-02 -4.779032e-02 -1.159274e-02 -1.637539e-02 -3.134543e-02 -5.923833e-02 2.143446e-01 -1.499284e-03 3.460030e-03 6.620503e-03 5.414243e-03 -1.458984e-03 1.750051e-03 8.232003e-04 3.391824e-03 -7.397588e-04 -2.502971e-03 -9.780098e-04 2.738447e-03 -7.068967e-03
<VARIANCE> 39
 1.336124e+02 8.722521e+01 7.995477e+01 1.104690e+02 1.078188e+02 1.178230e+02 9.087679e+01 6.991397e+01 5.775368e+01 5.513626e+01 4.187608e+01 4.712886e+01 2.372748e+02 3.572787e+00 2.201898e+00 1.907649e+00 3.138263e+00 3.228611e+00 3.506918e+00 3.151648e+00 2.802932e+00 2.769168e+00 2.595167e+00 2.221555e+00 2.132350e+00 1.543239e+00 4.604072e-01 3.518437e-01 2.822337e-01 4.474975e-01 5.301685e-01 5.616444e-01 5.228557e-01 5.025612e-01 4.571246e-01 4.571476e-01 4.022600e-01 3.918730e-01 2.061938e-01
<GCONST> 1.304459e+02
<STATE> 4
<MEAN> 39
 -6.547845e+00 -6.573995e-01 -4.216024e+00 1.261487e+00 -1.287875e+00 -5.788335e-01 2.633007e-01 -3.263944e+00 -6.704668e-01 -2.565123e+00 -2.910223e-01 -1.720677e+00 5.300762e+01 1.702657e-01 -4.951077e-02 -1.886414e-02 -1.221261e-01 -5.323539e-02 -3.478711e-02 -2.708965e-02 -3.403325e-02 -7.853320e-04 -2.654432e-02 -3.211868e-02 -3.827462e-02 2.028484e-01 -4.815850e-03 6.743019e-04 5.317955e-03 4.369483e-03 -1.945208e-03 9.855427e-05 2.643559e-03 4.163824e-03 -4.418703e-04 -2.037418e-04 1.224598e-03 3.141815e-03 -8.207423e-03
<VARIANCE> 39
 1.325301e+02 9.543073e+01 8.042919e+01 1.376772e+02 1.285206e+02 1.174626e+02 9.805751e+01 7.294920e+01 5.592594e+01 5.004933e+01 4.165800e+01 4.388225e+01 2.124635e+02 3.437449e+00 2.149736e+00 1.841776e+00 3.368121e+00 2.990225e+00 3.304519e+00 3.037282e+00 2.809233e+00 2.672712e+00 2.522559e+00 2.267779e+00 2.089996e+00 1.707502e+00 4.466392e-01 3.372047e-01 2.624043e-01 4.525142e-01 4.731852e-01 5.143315e-01 4.988824e-01 4.813434e-01 4.308193e-01 4.446714e-01 4.086602e-01 3.824178e-01 2.136627e-01
<GCONST> 1.300826e+02
<TRANSP> 5
 0.000000e+00 1.000000e+00 0.000000e+00 0.000000e+00 0.000000e+00
 0.000000e+00 7.552338e-01 2.447662e-01 0.000000e+00 0.000000e+00
 0.000000e+00 0.000000e+00 7.552329e-01 2.447671e-01 0.000000e+00
 0.000000e+00 0.000000e+00 0.000000e+00 9.008464e-01 9.915365e-02
 0.000000e+00 0.000000e+00 0.000000e+00 0.000000e+00 0.000000e+00
<ENDHMM>
~h "g"
<BEGINHMM>
<NUMSTATES> 5
<STATE> 2
<MEAN> 39
 -6.240246e+00 6.199009e+00 -3.170002e+00 7.937359e+00 -9.598774e-01 4.110924e-01 5.510584e+00 -3.025259e+00 2.161369e+00 -4.413498e+00 1.871947e+00 -3.755017e+00 6.085136e+01 9.306693e-02 4.842583e-03 1.079613e-02 -4.641423e-03 3.105962e-02 -5.510264e-02 -3.862688e-02 1.450647e-02 3.333584e-03 1.638223e-02 4.187406e-03 -1.184435e-03 1.130500e-01 -3.018208e-03 -2.206404e-04 -1.469490e-03 -2.352831e-03 2.675190e-03 -7.341041e-04 -1.270149e-03 -5.545188e-03 -8.980049e-03 -6.058704e-03 1.315390e-05 1.215404e-03 -4.030977e-03
<VARIANCE> 39
 7.353286e+01 4.704191e+01 4.844102e+01 3.756471e+01 5.872405e+01 7.024073e+01 4.453767e+01 6.514297e+01 6.901764e+01 5.492497e+01 3.318572e+01 6.527988e+01 6.479357e+01 1.277258e+00 1.641006e+00 1.743097e+00 1.828423e+00 2.006779e+00 2.495581e+00 2.636282e+00 2.484500e+00 3.296608e+00 2.646780e+00 2.098494e+00 1.921033e+00 1.097967e+00 1.987214e-01 2.621634e-01 2.948599e-01 3.435063e-01 3.440671e-01 3.981068e-01 4.559089e-01 4.494216e-01 5.810547e-01 4.725410e-01 3.638757e-01 3.562128e-01 1.773131e-01
<GCONST> 1.188826e+02
<STATE> 3
<MEAN> 39
 -5.827374e+00 6.223828e+00 -3.159382e+00 7.868884e+00 -8.077978e-01 1.167679e-01 5.331466e+00 -3.018482e+00 2.038814e+00 -4.479016e+00 1.846261e+00 -3.784949e+00 6.132297e+01 8.009040e-02 5.564985e-04 2.650210e-03 -1.583574e-02 3.427092e-02 -6.408544e-02 -4.773460e-02 -5.149905e-03 -3.155690e-02 -1.719787e-02 -3.818327e-03 -2.779107e-03 1.008137e-01 -2.686130e-03 -4.660469e-05 -2.821225e-03 -2.219262e-03 4.507251e-04 -1.282772e-03 -4.674020e-04 -2.694895e-03 -8.426481e-03 -9.620078e-03 -2.371808e-03 2.779776e-04 -3.736506e-03
<VARIANCE> 39
 7.506109e+01 4.586798e+01 5.085427e+01 3.836316e+01 6.004121e+01 7.420466e+01 4.952255e+01 6.946021e+01 6.952516e+01 5.565268e+01 3.549650e+01 6.613032e+01 6.614085e+01 1.279781e+00 1.460390e+00 1.700842e+00 1.869328e+00 1.973621e+00 2.591600e+00 2.709847e+00 2.521942e+00 3.245040e+00 2.533443e+00 2.122342e+00 1.882952e+00 1.131289e+00 1.989239e-01 2.326677e-01 2.890443e-01 3.435233e-01 3.391879e-01 4.049682e-01 4.649541e-01 4.632083e-01 5.679786e-01 4.493622e-01 3.662797e-01 3.483576e-01 1.756772e-01
<GCONST> 1.190408e+02
<STATE> 4
<MEAN> 39
 -4.405956e+00 5.893377e+00 -3.084011e+00 7.378452e+00 -5.989383e-01 -1.049985e+00 5.094345e+00 -2.433627e+00 1.608408e+00 -4.860710e+00 1.202265e+00 -3.720775e+00 6.274078e+01 8.094513e-02 -1.752463e-03 -1.267712e-03 -4.890386e-02 1.332554e-02 -1.132190e-01 -4.176173e-02 -1.102388e-02 -7.593175e-02 -5.072008e-02 -4.468866e-02 -2.044146e-02 1.068231e-01 -7.754380e-04 -6.302848e-04 -1.010561e-03 -1.732941e-03 -1.861361e-03 -3.972445e-03 1.319102e-03 7.930293e-04 -3.900523e-03 -4.069380e-03 -3.675251e-03 -1.002393e-03 -9.506519e-04
<VARIANCE> 39
 7.667534e+01 4.350094e+01 4.836368e+01 4.041024e+01 6.563061e+01 9.166376e+01 6.611015e+01 6.522626e+01 7.148952e+01 5.424209e+01 4.149990e+01 6.569557e+01 7.326388e+01 1.366464e+00 1.414005e+00 1.687626e+00 1.990188e+00 2.054617e+00 2.954065e+00 2.945081e+00 2.486582e+00 3.232921e+00 2.511112e+00 2.168198e+00 1.874309e+00 1.315928e+00 2.129648e-01 2.177777e-01 2.903654e-01 3.574417e-01 3.556521e-01 4.533995e-01 5.086449e-01 4.662407e-01 5.566718e-01 4.534467e-01 3.770528e-01 3.450115e-01 1.987928e-01
<GCONST> 1.207100e+02
<TRANSP> 5
 0.000000e+00 1.000000e+00 0.000000e+00 0.000000e+00 0.000000e+00
 0.000000e+00 7.784020e-01 2.215980e-01 0.000000e+00 0.000000e+00
 0.000000e+00 0.000000e+00 7.784017e-01 2.215983e-01 0.000000e+00
 0.000000e+00 0.000000e+00 0.000000e+00 9.124430e-01 8.755696e-02
 0.000000e+00 0.000000e+00 0.000000e+00 0.000000e+00 0.000000e+00
<ENDHMM>
~h "k"
<BEGINHMM>
<NUMSTATES> 5
<STATE> 2
<MEAN> 39
 -1.179190e+01 1.372949e+00 3.651621e-01 5.524690e+00 -5.258375e-01 -1.900343e+00 1.559821e+00 -3.641565e+00 9.450648e-01 -3.223681e+00 3.070700e-01 -1.887805e+00 5.454820e+01 -8.507489e-02 -1.836367e-02 -1.940942e-02 -2.737652e-02 6.856072e-02 4.005276e-02 7.245290e-02 1.620571e-02 1.645378e-02 -1.940495e-02 -6.831238e-03 2.379244e-02 -7.959584e-02 -1.486116e-03 5.970291e-04 -5.295525e-03 -3.011642e-03 7.843695e-03 4.225284e-04 2.021808e-03 -2.776435e-03 3.003486e-03 9.498110e-04 5.436932e-03 2.922294e-04 3.078153e-03
<VARIANCE> 39
 9.750173e+01 7.307666e+01 8.693218e+01 8.648879e+01 8.929867e+01 1.190779e+02 1.019600e+02 6.964742e+01 5.752640e+01 5.161044e+01 3.852802e+01 5.378123e+01 1.240237e+02 2.295985e+00 1.930282e+00 2.290822e+00 2.240990e+00 2.555885e+00 3.569530e+00 3.049011e+00 2.358971e+00 2.690264e+00 2.292698e+00 2.050087e+00 1.825460e+00 1.398631e+00 2.587636e-01 2.940253e-01 3.197792e-01 3.179100e-01 4.441442e-01 5.550954e-01 5.331762e-01 4.282576e-01 4.731615e-01 4.271706e-01 3.806971e-01 3.209248e-01 1.795775e-01
<GCONST> 1.256919e+02
<STATE> 3
<MEAN> 39
 -1.210912e+01 1.315946e+00 2.734779e-01 5.412007e+00 -2.144682e-01 -1.728353e+00 1.833834e+00 -3.586044e+00 1.040282e+00 -3.265297e+00 3.304198e-01 -1.805243e+00 5.423528e+01 -8.018620e-02 -2.047703e-02 -3.125918e-02 -3.535768e-02 8.766504e-02 4.118993e-02 7.709187e-02 1.382222e-02 2.527466e-02 -1.269735e-02 7.715055e-03 2.204587e-02 -6.607850e-02 3.171731e-03 -7.661672e-04 -5.177856e-03 -6.716687e-04 4.710653e-03 -1.823849e-03 7.435827e-04 -1.542253e-04 1.855534e-03 1.954260e-03 4.354835e-03 -6.051469e-04 4.807472e-03
<VARIANCE> 39
 9.599577e+01 7.222247e+01 8.725940e+01 8.591813e+01 8.586363e+01 1.130772e+02 9.630265e+01 6.758598e+01 5.763932e+01 4.953262e+01 3.767547e+01 5.156818e+01 1.257367e+02 2.251923e+00 1.877666e+00 2.227503e+00 2.189387e+00 2.486784e+00 3.428406e+00 2.961999e+00 2.320770e+00 2.652588e+00 2.234330e+00 2.009763e+00 1.788476e+00 1.256716e+00 2.498896e-01 2.896802e-01 3.117044e-01 3.135549e-01 4.312586e-01 5.350558e-01 5.151801e-01 4.258459e-01 4.715174e-01 4.186729e-01 3.728362e-01 3.162552e-01 1.652877e-01
<GCONST> 1.246579e+02
<STATE> 4
<MEAN> 39
 -1.269956e+01 1.012881e+00 -4.484313e-01 4.945200e+00 -3.283694e-01 -7.955804e-01 2.027076e+00 -2.783636e+00 1.312277e+00 -3.087401e+00 5.599379e-01 -1.209573e+00 5.242486e+01 -3.896660e-02 -1.698554e-02 -4.207672e-02 -1.985598e-02 9.250247e-02 4.309238e-02 6.475218e-02 2.526617e-02 3.165511e-02 7.488686e-03 7.981041e-03 1.002274e-02 -6.457520e-02 7.302715e-03 7.737499e-04 -3.424759e-03 3.303974e-03 -1.099272e-03 -1.209505e-03 -1.725030e-03 1.656355e-03 -3.820968e-04 1.521976e-03 -3.620168e-04 -1.654370e-03 2.209380e-03
<VARIANCE> 39
 8.545580e+01 6.812503e+01 8.483951e+01 8.046285e+01 8.455628e+01 1.017820e+02 9.263244e+01 6.216211e+01 5.672921e+01 4.696778e+01 3.526707e+01 4.665654e+01 1.316405e+02 1.906316e+00 1.660601e+00 2.039933e+00 1.913447e+00 2.231852e+00 3.073663e+00 2.671887e+00 2.190897e+00 2.494296e+00 2.094515e+00 1.933936e+00 1.661311e+00 1.013788e+00 2.138919e-01 2.602715e-01 2.902567e-01 2.795872e-01 3.865033e-01 4.844371e-01 4.642001e-01 4.102443e-01 4.516437e-01 3.941272e-01 3.622867e-01 2.993447e-01 1.397922e-01
<GCONST> 1.214599e+02
<TRANSP> 5
 0.000000e+00 1.000000e+00 0.000000e+00 0.000000e+00 0.000000e+00
 0.000000e+00 7.392722e-01 2.607279e-01 0.000000e+00 0.000000e+00
 0.000000e+00 0.000000e+00 7.392718e-01 2.607282e-01 0.000000e+00
 0.000000e+00 0.000000e+00 0.000000e+00 8.720510e-01 1.279490e-01
 0.000000e+00 0.000000e+00 0.000000e+00 0.000000e+00 0.000000e+00
<ENDHMM>
~h "l"
<BEGINHMM>
<NUMSTATES> 5
<STATE> 2
<MEAN> 39
 -8.999592e+00 1.816476e+00 1.876005e+00 8.511993e+00 1.813000e+00 -3.860214e-01 4.169259e+00 -2.908425e+00 2.288873e+00 -4.401235e+00 2.724905e-02 -2.445101e+00 5.739032e+01 -9.012167e-03 9.691651e-03 -2.377825e-02 -5.962774e-03 -2.444724e-02 1.008354e-01 4.493635e-02 6.950799e-02 4.553220e-02 3.179894e-02 -2.290842e-03 -1.029350e-02 -9.191983e-02 4.550943e-03 -5.206041e-03 -7.199376e-03 -3.173331e-03 -1.617451e-04 2.318686e-03 6.033225e-03 7.589372e-03 4.659870e-03 8.106398e-04 -1.925078e-03 5.252573e-04 6.140968e-03
<VARIANCE> 39
 8.253549e+01 4.783492e+01 3.662619e+01 4.083708e+01 6.841852e+01 5.839980e+01 4.849952e+01 5.197355e+01 4.377964e+01 3.186249e+01 2.596684e+01 3.689284e+01 7.905353e+01 1.659711e+00 1.822024e+00 1.701211e+00 1.573782e+00 1.711884e+00 1.884304e+00 2.468905e+00 2.530294e+00 2.571658e+00 1.916671e+00 1.788740e+00 1.549886e+00 6.283752e-01 2.131090e-01 2.528890e-01 2.757361e-01 2.602464e-01 2.984481e-01 3.454911e-01 4.345715e-01 4.237435e-01 4.482191e-01 3.520914e-01 3.295633e-01 2.806520e-01 1.002190e-01
<GCONST> 1.130677e+02
<STATE> 3
<MEAN> 39
 -8.987491e+00 1.830946e+00 1.787382e+00 8.477876e+00 1.743245e+00 -3.108915e-02 4.340541e+00 -2.603218e+00 2.470670e+00 -4.271594e+00 9.485907e-03 -2.466809e+00 5.707497e+01 7.184111e-03 -9.947696e-03 -5.085228e-02 -1.504837e-02 -2.267819e-02 1.074322e-01 6.361303e-02 9.312428e-02 5.796625e-02 3.324968e-02 -7.478399e-03 -8.398184e-03 -6.952512e-02 2.921892e-03 -6.942161e-03 -7.498122e-03 -2.531256e-03 2.188662e-03 6.945728e-04 3.355751e-03 5.403753e-03 3.481465e-03 3.041993e-04 -2.571476e-03 1.852612e-03 6.009055e-03
<VARIANCE> 39
 8.089262e+01 4.454453e+01 3.683395e+01 4.126468e+01 6.586212e+01 5.624807e+01 4.589103e+01 5.212806e+01 4.238640e+01 3.029388e+01 2.549865e+01 3.600908e+01 7.832441e+01 1.573308e+00 1.773893e+00 1.782184e+00 1.591605e+00 1.673284e+00 1.839976e+00 2.397399e+00 2.492009e+00 2.561244e+00 1.844538e+00 1.843824e+00 1.541255e+00 7.223989e-01 2.087022e-01 2.555920e-01 3.005104e-01 2.652293e-01 2.941817e-01 3.420438e-01 4.234501e-01 4.217787e-01 4.551487e-01 3.385578e-01 3.441178e-01 2.788364e-01 1.192192e-01
<GCONST> 1.129642e+02
<STATE> 4
<MEAN> 39
 -7.216986e+00 2.271865e+00 1.569023e+00 7.776558e+00 1.646959e+00 8.770682e-01 4.906155e+00 -1.384743e+00 3.164181e+00 -3.980778e+00 -1.202646e-01 -2.446362e+00 5.804302e+01 2.352084e-02 -3.266279e-02 -6.314360e-02 -1.448314e-02 -2.254945e-03 8.476900e-02 5.552424e-02 9.672814e-02 4.657507e-02 3.201768e-02 -4.083636e-03 6.826187e-04 -4.355131e-02 -1.764151e-03 -3.889600e-03 -1.693372e-03 8.241507e-04 2.497228e-03 -3.426038e-03 -2.896497e-03 -1.796258e-03 -1.813597e-03 8.424619e-04 9.537354e-04 1.522095e-03 1.893002e-03
<VARIANCE> 39
 7.577019e+01 3.414548e+01 3.532414e+01 3.699108e+01 5.895115e+01 4.959671e+01 3.745781e+01 4.817034e+01 3.775729e+01 2.730513e+01 2.426300e+01 3.541076e+01 6.904732e+01 1.189607e+00 1.449554e+00 1.674759e+00 1.432649e+00 1.569785e+00 1.717136e+00 2.115658e+00 2.262726e+00 2.391493e+00 1.656754e+00 1.820211e+00 1.505378e+00 6.636168e-01 1.700566e-01 2.245836e-01 2.999096e-01 2.479452e-01 2.814149e-01 3.266740e-01 3.863498e-01 3.984750e-01 4.473845e-01 3.094691e-01 3.454956e-01 2.717812e-01 1.160710e-01
<GCONST> 1.094526e+02
<TRANSP> 5
 0.000000e+00 1.000000e+00 0.000000e+00 0.000000e+00 0.000000e+00
 0.000000e+00 7.361517e-01 2.638483e-01 0.000000e+00 0.000000e+00
 0.000000e+00 0.000000e+00 7.361521e-01 2.638478e-01 0.000000e+00
 0.000000e+00 0.000000e+00 0.000000e+00 8.763235e-01 1.236765e-01
 0.000000e+00 0.000000e+00 0.000000e+00 0.000000e+00 0.000000e+00
<ENDHMM>
~h "m"
<BEGINHMM>
<NUMSTATES> 5
<STATE> 2
<MEAN> 39
 -5.577843e+00 3.930256e+00 -1.082355e-01 8.856848e+00 3.850451e-01 -4.000186e+00 1.353664e+00 -5.072136e+00 -8.741254e-01 -4.399704e+00 -1.006325e+00 -3.070534e+00 6.168817e+01 -5.144021e-02 -3.540928e-02 -2.032695e-02 -9.618958e-03 9.520509e-03 3.572774e-02 6.971869e-03 5.060802e-02 1.585802e-02 -1.044655e-02 1.557382e-02 9.087938e-04 -7.138083e-02 1.116618e-03 1.913146e-03 2.790892e-03 2.955585e-03 1.879265e-03 -3.608828e-04 1.075576e-03 5.558766e-04 1.558439e-03 1.295224e-03 -7.049278e-04 -8.600235e-04 3.302004e-04
<VARIANCE> 39
 1.008529e+02 6.773691e+01 9.009453e+01 4.743774e+01 6.647157e+01 7.124048e+01 5.360905e+01 4.486412e+01 5.446781e+01 4.466427e+01 3.354195e+01 3.603605e+01 7.566056e+01 2.165705e+00 2.255307e+00 1.972848e+00 1.903675e+00 2.080830e+00 3.273499e+00 2.642529e+00 2.325785e+00 2.531646e+00 2.409101e+00 1.664184e+00 1.508017e+00 9.961546e-01 2.809014e-01 3.242534e-01 3.053441e-01 3.243212e-01 3.605067e-01 4.859743e-01 4.463269e-01 4.204048e-01 4.473146e-01 4.403180e-01 2.923917e-01 2.753980e-01 1.564429e-01
<GCONST> 1.195810e+02
<STATE> 3
<MEAN> 39
 -5.771834e+00 3.802712e+00 -1.869705e-01 8.838704e+00 4.487806e-01 -3.884700e+00 1.388344e+00 -4.885994e+00 -8.237590e-01 -4.410920e+00 -9.345033e-01 -3.055692e+00 6.141185e+01 -4.559765e-02 -2.959977e-02 -8.623273e-03 2.045306e-03 1.624185e-02 3.388510e-02 1.154206e-02 5.153840e-02 2.327414e-02 -4.305768e-03 1.410737e-02 -1.618195e-04 -6.560151e-02 1.119978e-03 9.784639e-04 2.785285e-03 4.020839e-03 2.671670e-03 -6.758629e-04 7.794425e-04 -3.940057e-04 1.660708e-03 1.964978e-03 -2.414691e-05 2.422522e-04 1.111895e-03
<VARIANCE> 39
 1.002359e+02 6.744881e+01 8.846146e+01 4.599112e+01 6.673193e+01 7.083428e+01 5.329916e+01 4.440858e+01 5.373173e+01 4.518303e+01 3.330794e+01 3.670980e+01 7.527685e+01 2.081948e+00 2.298738e+00 1.954759e+00 1.915250e+00 2.103744e+00 3.297312e+00 2.630968e+00 2.419915e+00 2.524234e+00 2.462725e+00 1.705327e+00 1.515514e+00 1.028606e+00 2.742878e-01 3.330964e-01 3.053357e-01 3.285745e-01 3.625880e-01 4.897588e-01 4.445426e-01 4.401398e-01 4.446242e-01 4.506439e-01 3.006089e-01 2.751441e-01 1.618233e-01
<GCONST> 1.197677e+02
<STATE> 4
<MEAN> 39
 -6.397345e+00 3.070052e+00 -3.481230e-01 8.492340e+00 -1.144281e-01 -3.470698e+00 2.046690e+00 -4.174753e+00 4.014810e-02 -3.839505e+00 -3.060995e-01 -2.351970e+00 6.052799e+01 -2.886478e-02 -3.286282e-02 2.774645e-04 1.934780e-02 2.806847e-02 2.815314e-02 1.688192e-02 3.794715e-02 3.090913e-02 1.331890e-02 2.257422e-02 1.397237e-02 -3.403341e-02 9.998262e-04 -1.124850e-03 1.678505e-03 3.964198e-03 3.113845e-03 7.167624e-05 -3.531445e-05 -1.348332e-03 1.843994e-03 2.091514e-03 3.345108e-04 1.388377e-03 2.577541e-03
<VARIANCE> 39
 8.977336e+01 5.996224e+01 7.486069e+01 3.859880e+01 6.607423e+01 6.313142e+01 4.762720e+01 3.968768e+01 5.099275e+01 4.581572e+01 3.093329e+01 3.821228e+01 6.540511e+01 1.638580e+00 2.048251e+00 1.735626e+00 1.726688e+00 1.917906e+00 3.029882e+00 2.393801e+00 2.373894e+00 2.405147e+00 2.429355e+00 1.745506e+00 1.480165e+00 9.697917e-01 2.201269e-01 3.026238e-01 2.822385e-01 3.025918e-01 3.327577e-01 4.587752e-01 4.131980e-01 4.452569e-01 4.313188e-01 4.534891e-01 3.176428e-01 2.674029e-01 1.529520e-01
<GCONST> 1.169019e+02
<TRANSP> 5
 0.000000e+00 1.000000e+00 0.000000e+00 0.000000e+00 0.000000e+00
 0.000000e+00 7.455795e-01 2.544204e-01 0.000000e+00 0.000000e+00
 0.000000e+00 0.000000e+00 7.455798e-01 2.544203e-01 0.000000e+00
 0.000000e+00 0.000000e+00 0.000000e+00 8.849697e-01 1.150304e-01
 0.000000e+00 0.000000e+00 0.000000e+00 0.000000e+00 0.000000e+00
<ENDHMM>
~h "n"
<BEGINHMM>
<NUMSTATES> 5
<STATE> 2
<MEAN> 39
 -4.843512e+00 6.873440e-01 -4.028298e-01 6.112030e+00 2.405754e-01 -3.994271e+00 -7.630414e-01 -4.615983e+00 -1.539947e+00 -3.314164e+00 -1.319341e+00 -1.427182e+00 5.635498e+01 -2.318442e-02 1.027772e-02 3.857230e-02 7.273663e-02 1.637268e-02 3.052092e-02 7.549438e-03 -1.528380e-02 -1.667142e-02 -9.309265e-04 -1.737463e-02 -7.701436e-03 2.433935e-03 -8.438881e-04 -1.407290e-03 -5.743386e-03 -5.609947e-03 6.481680e-03 3.634796e-03 2.425312e-03 4.987019e-03 2.498972e-03 1.154881e-03 2.208978e-03 1.483377e-03 -1.339894e-02
<VARIANCE> 39
 1.030070e+02 8.729812e+01 7.546885e+01 7.195968e+01 1.097042e+02 1.067476e+02 9.921483e+01 7.149303e+01 6.213646e+01 5.413298e+01 4.897386e+01 4.898979e+01 1.755473e+02 2.297880e+00 2.839524e+00 2.358427e+00 2.481951e+00 2.720943e+00 3.786227e+00 3.410083e+00 3.144348e+00 3.066213e+00 2.648583e+00 2.395524e+00 2.148632e+00 1.736807e+00 2.787185e-01 3.903382e-01 3.451412e-01 3.762079e-01 4.448565e-01 6.245902e-01 5.847189e-01 5.455607e-01 5.302988e-01 4.694740e-01 4.184225e-01 3.712761e-01 2.271852e-01
<GCONST> 1.299027e+02
<STATE> 3
<MEAN> 39
 -4.964170e+00 7.023693e-01 -3.009481e-01 6.339117e+00 3.373460e-01 -3.862113e+00 -7.185814e-01 -4.630064e+00 -1.577007e+00 -3.311471e+00 -1.346350e+00 -1.424613e+00 5.624956e+01 -3.132121e-02 7.325084e-03 1.956419e-02 5.193093e-02 3.334666e-02 3.952084e-02 1.510232e-02 2.015052e-03 -3.946279e-03 1.627633e-03 -1.014046e-02 -4.676866e-04 -2.789499e-02 -3.324701e-03 -7.362524e-04 -5.665089e-03 -5.538051e-03 4.573049e-03 1.276569e-03 3.121058e-03 5.432585e-03 3.750720e-03 2.960610e-04 2.774065e-03 2.085187e-03 -7.813413e-03
<VARIANCE> 39
 1.019296e+02 8.758118e+01 7.506762e+01 6.942861e+01 1.073902e+02 1.071024e+02 9.829069e+01 7.020311e+01 6.189287e+01 5.376637e+01 4.760886e+01 4.825361e+01 1.749817e+02 2.266161e+00 2.825185e+00 2.340370e+00 2.473059e+00 2.696948e+00 3.754199e+00 3.353602e+00 3.065708e+00 3.052911e+00 2.634261e+00 2.386559e+00 2.137551e+00 1.523716e+00 2.742413e-01 3.893659e-01 3.466930e-01 3.778436e-01 4.489286e-01 6.232397e-01 5.747093e-01 5.317062e-01 5.314280e-01 4.675496e-01 4.204820e-01 3.729687e-01 2.096464e-01
<GCONST> 1.293934e+02
<STATE> 4
<MEAN> 39
 -5.593137e+00 3.301765e-01 -1.031770e+00 5.655674e+00 -6.227328e-02 -2.175788e+00 -1.060688e+00 -3.419130e+00 -1.331249e+00 -3.170788e+00 -1.322088e+00 -1.035264e+00 5.338716e+01 -4.815131e-02 -1.334497e-02 -8.125753e-03 1.913648e-02 3.456511e-02 3.542788e-02 2.317385e-02 1.589188e-02 1.138708e-02 8.711993e-03 4.121499e-03 3.831726e-03 -3.359980e-02 -2.801369e-03 -1.548944e-03 -3.462882e-03 -2.988555e-03 -2.334255e-05 -8.853452e-04 1.785531e-03 2.674186e-03 2.757371e-03 6.695617e-04 1.535139e-03 -2.333697e-04 -2.187758e-03
<VARIANCE> 39
 9.744768e+01 8.934939e+01 7.691856e+01 6.845870e+01 1.099336e+02 1.065464e+02 1.028344e+02 6.889955e+01 6.204434e+01 5.347383e+01 4.657743e+01 4.463132e+01 2.029370e+02 2.006083e+00 2.616524e+00 2.194346e+00 2.278411e+00 2.702323e+00 3.458998e+00 3.160321e+00 2.899794e+00 2.941083e+00 2.594299e+00 2.340322e+00 2.075636e+00 1.394105e+00 2.424814e-01 3.634591e-01 3.295154e-01 3.530486e-01 4.591456e-01 5.757298e-01 5.434218e-01 5.066485e-01 5.203594e-01 4.651039e-01 4.148301e-01 3.714092e-01 1.906204e-01
<GCONST> 1.281275e+02
<TRANSP> 5
 0.000000e+00 1.000000e+00 0.000000e+00 0.000000e+00 0.000000e+00
 0.000000e+00 7.337905e-01 2.662095e-01 0.000000e+00 0.000000e+00
 0.000000e+00 0.000000e+00 7.337911e-01 2.662089e-01 0.000000e+00
 0.000000e+00 0.000000e+00 0.000000e+00 8.756850e-01 1.243150e-01
 0.000000e+00 0.000000e+00 0.000000e+00 0.000000e+00 0.000000e+00
<ENDHMM>
~h "r"
<BEGINHMM>
<NUMSTATES> 5
<STATE> 2
<MEAN> 39
 -5.022754e+00 5.535196e-01 -1.047639e+00 4.061910e+00 -2.272672e+00 -4.221972e+00 -1.446076e+00 -3.955804e+00 -2.259372e+00 -3.070124e+00 -1.926501e-01 -1.664440e+00 5.600579e+01 -1.921397e-02 -1.216144e-02 -5.841035e-03 2.018351e-02 5.602817e-02 5.431052e-02 1.602937e-02 2.132533e-02 -1.281457e-02 1.475240e-02 3.334261e-02 -1.350579e-02 -5.736564e-02 -1.194451e-02 5.690831e-03 2.258369e-03 2.745770e-03 4.106526e-03 4.775995e-03 6.227845e-03 -1.165183e-03 3.943216e-03 1.522329e-03 -2.660951e-04 -1.896562e-03 -9.972134e-03
<VARIANCE> 39
 1.156262e+02 8.714372e+01 1.066586e+02 1.087316e+02 1.198318e+02 1.146532e+02 1.096006e+02 7.693086e+01 7.739473e+01 4.725373e+01 4.569770e+01 4.546737e+01 1.366899e+02 2.191574e+00 2.164988e+00 2.376243e+00 2.608433e+00 2.741887e+00 3.487378e+00 3.172534e+00 2.937367e+00 3.079397e+00 2.489567e+00 2.210039e+00 1.918189e+00 1.129363e+00 2.568193e-01 3.180419e-01 3.081623e-01 3.707550e-01 4.271865e-01 5.078619e-01 5.119095e-01 4.888425e-01 5.085254e-01 4.374657e-01 3.926036e-01 3.399751e-01 1.494641e-01
<GCONST> 1.280514e+02
<STATE> 3
<MEAN> 39
 -5.177530e+00 5.386692e-01 -1.068466e+00 4.210841e+00 -2.015285e+00 -4.005204e+00 -1.336836e+00 -3.875565e+00 -2.280263e+00 -2.990327e+00 -8.104869e-02 -1.725093e+00 5.568530e+01 -6.285535e-02 9.420532e-03 1.821340e-03 3.406524e-02 6.849223e-02 7.125200e-02 4.136485e-02 1.675033e-02 1.893674e-03 2.019338e-02 2.717170e-02 -1.720121e-02 -9.679611e-02 -9.412645e-03 4.120145e-03 1.480145e-03 3.541631e-03 2.793574e-03 3.192145e-03 5.989511e-03 -1.233598e-03 4.350135e-03 1.181811e-03 -2.633659e-03 -4.619078e-04 -8.228621e-03
<VARIANCE> 39
 1.125570e+02 8.454953e+01 1.065143e+02 1.059388e+02 1.215362e+02 1.097613e+02 1.097359e+02 7.539999e+01 7.740356e+01 4.820038e+01 4.640763e+01 4.578444e+01 1.378523e+02 2.082060e+00 2.119692e+00 2.250383e+00 2.510075e+00 2.652722e+00 3.380359e+00 3.114681e+00 2.842057e+00 3.010797e+00 2.445207e+00 2.212412e+00 1.911023e+00 1.082813e+00 2.439181e-01 3.122261e-01 2.979613e-01 3.592918e-01 4.162696e-01 4.931771e-01 5.025795e-01 4.712328e-01 4.995636e-01 4.320531e-01 3.926113e-01 3.386627e-01 1.439791e-01
<GCONST> 1.272864e+02
<STATE> 4
<MEAN> 39
 -5.806962e+00 -3.231235e-02 -1.823098e+00 3.417171e+00 -2.599227e+00 -2.632127e+00 -1.909294e+00 -2.696874e+00 -1.893955e+00 -2.632456e+00 -6.025948e-02 -1.318479e+00 5.217776e+01 -1.179724e-01 2.589696e-02 1.745560e-03 6.440128e-02 7.991804e-02 8.139549e-02 6.974895e-02 1.677509e-02 2.045410e-02 2.146968e-02 9.419391e-03 -3.242825e-03 -1.530828e-01 -5.587659e-03 7.935815e-04 -8.587530e-04 2.469189e-03 1.457085e-03 1.843530e-03 3.341456e-03 -2.629518e-04 3.184439e-03 -2.184077e-04 -3.256947e-03 1.362405e-03 -4.806510e-03
<VARIANCE> 39
 1.072569e+02 8.302761e+01 1.085608e+02 1.022469e+02 1.319942e+02 1.013382e+02 1.141091e+02 7.250695e+01 7.437665e+01 5.106823e+01 4.422703e+01 4.429074e+01 1.688342e+02 1.773507e+00 1.942573e+00 2.033676e+00 2.318372e+00 2.517847e+00 3.095708e+00 2.892887e+00 2.684636e+00 2.885751e+00 2.469623e+00 2.213577e+00 1.927793e+00 9.775910e-01 2.057601e-01 2.918715e-01 2.855487e-01 3.340317e-01 4.045305e-01 4.602726e-01 4.722646e-01 4.472852e-01 4.922484e-01 4.424648e-01 3.964474e-01 3.502828e-01 1.239668e-01
<GCONST> 1.258586e+02
<TRANSP> 5
 0.000000e+00 1.000000e+00 0.000000e+00 0.000000e+00 0.000000e+00
 0.000000e+00 7.399338e-01 2.600661e-01 0.000000e+00 0.000000e+00
 0.000000e+00 0.000000e+00 7.399332e-01 2.600668e-01 0.000000e+00
 0.000000e+00 0.000000e+00 0.000000e+00 8.848139e-01 1.151861e-01
 0.000000e+00 0.000000e+00 0.000000e+00 0.000000e+00 0.000000e+00
<ENDHMM>
~h "s"
<BEGINHMM>
<NUMSTATES> 5
<STATE> 2
<MEAN> 39
 -1.246898e+01 8.023255e-01 -1.583019e-01 5.158832e+00 5.362695e-01 -2.016344e+00 1.676439e+00 -4.388924e+00 -5.234100e-01 -2.275566e+00 7.583218e-01 -1.789143e+00 5.314967e+01 -2.648208e-02 -1.061658e-02 -3.203597e-02 5.651732e-03 -1.372227e-02 -4.227963e-02 1.212578e-02 -4.021317e-02 2.026953e-02 -1.382390e-02 5.461905e-03 -9.471461e-03 1.407555e-01 9.174330e-03 -2.849978e-03 3.408505e-03 3.472493e-03 -7.699756e-03 1.170602e-02 -9.994733e-03 7.757927e-03 -8.316667e-04 2.629061e-03 1.511081e-03 2.184513e-03 -2.008991e-02
<VARIANCE> 39
 1.123090e+02 8.055468e+01 1.034903e+02 9.102726e+01 1.053398e+02 1.102771e+02 9.639780e+01 8.921210e+01 7.082227e+01 4.863694e+01 4.107650e+01 5.064557e+01 2.079961e+02 3.085711e+00 2.400019e+00 2.631453e+00 2.935075e+00 2.779323e+00 3.786365e+00 3.244322e+00 2.936217e+00 3.344279e+00 2.501637e+00 2.287193e+00 1.865170e+00 1.909980e+00 3.564798e-01 3.753011e-01 3.750895e-01 4.462266e-01 4.636951e-01 6.161578e-01 5.593144e-01 5.314879e-01 5.864611e-01 4.620088e-01 4.229526e-01 3.258720e-01 2.482311e-01
<GCONST> 1.314103e+02
<STATE> 3
<MEAN> 39
 -1.249263e+01 7.452558e-01 -2.013136e-01 5.146301e+00 4.589043e-01 -2.071084e+00 1.640728e+00 -4.457205e+00 -4.359508e-01 -2.342585e+00 7.332548e-01 -1.798190e+00 5.349680e+01 1.208917e-03 -1.438761e-02 -2.210639e-02 3.382836e-03 -2.683228e-02 -1.486336e-02 -1.078528e-02 -1.316043e-02 2.103533e-02 -8.685948e-03 1.962931e-03 -2.850209e-03 9.443756e-02 9.127648e-03 -1.821184e-03 4.993276e-03 -1.303890e-03 -4.996864e-03 9.047773e-03 -6.912859e-03 7.644580e-03 5.619103e-04 2.660415e-03 -1.487756e-03 1.863739e-03 -1.436298e-02
<VARIANCE> 39
 1.130968e+02 7.969883e+01 1.003595e+02 9.029684e+01 1.058679e+02 1.098409e+02 9.477576e+01 8.688103e+01 7.047256e+01 4.794737e+01 4.180899e+01 5.059170e+01 1.952579e+02 2.966802e+00 2.371336e+00 2.623454e+00 2.920476e+00 2.632659e+00 3.674750e+00 3.287309e+00 2.909705e+00 3.264936e+00 2.505311e+00 2.285604e+00 1.881279e+00 1.553543e+00 3.473240e-01 3.662277e-01 3.776700e-01 4.469740e-01 4.425853e-01 5.953842e-01 5.670837e-01 5.310792e-01 5.781213e-01 4.604574e-01 4.244835e-01 3.307138e-01 2.108280e-01
<GCONST> 1.306266e+02
<STATE> 4
<MEAN> 39
 -1.249612e+01 3.424656e-01 -5.920865e-01 4.596108e+00 -3.349589e-01 -1.271373e+00 9.503372e-01 -3.471005e+00 -2.304684e-01 -2.326358e+00 5.538585e-01 -1.286928e+00 5.210014e+01 5.140975e-02 -2.518042e-02 1.031522e-02 -2.568809e-02 -4.432584e-02 -6.296081e-03 -3.594856e-02 3.347720e-03 2.624223e-02 -8.980271e-03 -1.554882e-02 2.284758e-05 8.670735e-02 8.179604e-03 -1.534795e-03 5.392026e-03 -2.894887e-03 -1.556675e-03 1.893712e-03 -3.991846e-03 4.098622e-03 9.569889e-04 1.630036e-03 -1.900568e-03 4.651606e-04 -3.100395e-03
<VARIANCE> 39
 1.098623e+02 7.713600e+01 9.647749e+01 8.816061e+01 1.100149e+02 1.111772e+02 1.011163e+02 8.145119e+01 6.564923e+01 4.874982e+01 4.037119e+01 4.975417e+01 1.976941e+02 2.739790e+00 2.258613e+00 2.598404e+00 2.835479e+00 2.488889e+00 3.669230e+00 3.259558e+00 2.889621e+00 3.020603e+00 2.494083e+00 2.261144e+00 1.918558e+00 1.462695e+00 3.241493e-01 3.460935e-01 3.758487e-01 4.419943e-01 4.190030e-01 5.878186e-01 5.676592e-01 5.257363e-01 5.374115e-01 4.552537e-01 4.225054e-01 3.432268e-01 1.996270e-01
<GCONST> 1.297597e+02
<TRANSP> 5
 0.000000e+00 1.000000e+00 0.000000e+00 0.000000e+00 0.000000e+00
 0.000000e+00 7.260665e-01 2.739335e-01 0.000000e+00 0.000000e+00
 0.000000e+00 0.000000e+00 7.260648e-01 2.739352e-01 0.000000e+00
 0.000000e+00 0.000000e+00 0.000000e+00 8.596761e-01 1.403238e-01
 0.000000e+00 0.000000e+00 0.000000e+00 0.000000e+00 0.000000e+00
<ENDHMM>
~h "t"
<BEGINHMM>
<NUMSTATES> 5
<STATE> 2
<MEAN> 39
 -7.697280e+00 1.815088e+00 -1.986692e-01 6.529705e+00 6.605463e-02 -4.204073e+00 1.606357e+00 -4.341105e+00 -9.779362e-01 -3.481497e+00 1.604328e-01 -1.884814e+00 5.735825e+01 1.763752e-02 -1.493241e-02 -3.445005e-02 -1.992596e-02 1.027042e-02 5.826863e-02 1.112368e-03 2.431124e-02 2.825254e-02 2.154698e-02 4.367004e-03 2.663272e-02 -2.562518e-02 -1.828058e-03 6.321628e-05 -1.649171e-03 -7.379770e-04 1.593795e-03 7.821850e-03 3.541427e-03 1.035533e-03 3.353914e-04 2.695331e-03 -5.461948e-04 2.196554e-03 -3.836724e-03
<VARIANCE> 39
 1.046125e+02 7.306264e+01 6.740115e+01 7.099700e+01 9.555447e+01 1.135254e+02 1.064606e+02 6.872749e+01 7.295533e+01 5.798115e+01 4.681373e+01 5.226355e+01 1.464188e+02 1.968023e+00 2.291682e+00 2.170332e+00 2.345521e+00 2.499588e+00 3.520252e+00 3.192018e+00 2.671875e+00 3.060890e+00 2.608545e+00 2.180747e+00 2.013274e+00 1.693431e+00 2.578810e-01 3.512852e-01 3.317240e-01 3.823901e-01 4.143190e-01 5.620534e-01 5.421110e-01 4.695905e-01 5.332396e-01 4.631612e-01 3.944966e-01 3.598781e-01 2.525192e-01
<GCONST> 1.279376e+02
<STATE> 3
<MEAN> 39
 -7.649101e+00 1.769467e+00 -3.151249e-01 6.468097e+00 1.280816e-01 -3.957806e+00 1.604823e+00 -4.267890e+00 -8.641080e-01 -3.374434e+00 1.886870e-01 -1.789542e+00 5.721931e+01 1.181300e-02 -1.183729e-02 -4.002588e-02 -1.863228e-02 1.482380e-02 8.377562e-02 1.285153e-02 2.665358e-02 3.332969e-02 3.039078e-02 2.422666e-03 3.436333e-02 -4.130796e-02 -2.079971e-03 1.982164e-03 -1.698181e-03 9.718303e-04 2.105228e-03 6.846220e-03 4.093946e-03 7.008212e-04 1.164824e-03 1.660505e-03 -1.721601e-03 2.877362e-03 -5.670897e-03
<VARIANCE> 39
 1.045336e+02 7.312692e+01 6.533132e+01 6.942076e+01 9.586294e+01 1.103427e+02 1.087464e+02 6.902383e+01 7.303464e+01 5.818975e+01 4.658259e+01 5.201746e+01 1.459949e+02 1.940393e+00 2.255872e+00 2.147971e+00 2.282261e+00 2.474195e+00 3.415224e+00 3.141907e+00 2.704361e+00 3.039873e+00 2.603901e+00 2.176632e+00 2.013129e+00 1.622686e+00 2.545726e-01 3.433512e-01 3.300745e-01 3.717696e-01 4.116116e-01 5.486438e-01 5.338966e-01 4.738940e-01 5.280870e-01 4.601975e-01 3.936637e-01 3.586310e-01 2.445228e-01
<GCONST> 1.275518e+02
<STATE> 4
<MEAN> 39
 -7.704230e+00 1.647785e+00 -8.883460e-01 5.408763e+00 -3.431791e-01 -2.922720e+00 1.369624e+00 -3.342267e+00 -9.893516e-01 -3.109921e+00 1.906042e-01 -1.368357e+00 5.549395e+01 -7.927093e-03 1.019048e-03 -4.493012e-02 3.756484e-04 2.217920e-02 1.048081e-01 2.336598e-02 2.131600e-02 4.214800e-02 3.247571e-02 1.030972e-03 3.253871e-02 -7.983794e-02 -3.234525e-03 2.260391e-03 -4.160299e-04 1.939782e-03 4.177997e-04 3.769322e-03 3.508735e-03 1.128453e-04 1.557959e-03 -1.498777e-04 -2.111716e-03 1.103864e-03 -5.805008e-03
<VARIANCE> 39
 1.016650e+02 7.335900e+01 6.694834e+01 7.084315e+01 9.944444e+01 1.066855e+02 1.166083e+02 7.170850e+01 7.432211e+01 6.265748e+01 4.459022e+01 5.106659e+01 1.823499e+02 1.793785e+00 2.132913e+00 2.007180e+00 2.126107e+00 2.445601e+00 3.233686e+00 3.053148e+00 2.758554e+00 2.976172e+00 2.644186e+00 2.163125e+00 2.013384e+00 1.519356e+00 2.351979e-01 3.235501e-01 3.138150e-01 3.481347e-01 4.085481e-01 5.239076e-01 5.215278e-01 4.802117e-01 5.181264e-01 4.654472e-01 3.951037e-01 3.591843e-01 2.271902e-01
<GCONST> 1.271138e+02
<TRANSP> 5
 0.000000e+00 1.000000e+00 0.000000e+00 0.000000e+00 0.000000e+00
 0.000000e+00 7.348742e-01 2.651257e-01 0.000000e+00 0.000000e+00
 0.000000e+00 0.000000e+00 7.348750e-01 2.651251e-01 0.000000e+00
 0.000000e+00 0.000000e+00 0.000000e+00 8.750683e-01 1.249317e-01
 0.000000e+00 0.000000e+00 0.000000e+00 0.000000e+00 0.000000e+00
<ENDHMM>
~h "v"
<BEGINHMM>
<NUMSTATES> 5
<STATE> 2
<MEAN> 39
 -6.230493e+00 -2.629442e+00 -2.426956e+00 1.348177e+00 -1.974347e+00 -3.178910e+00 -1.185756e-01 -3.383930e+00 -1.913243e-01 -2.778908e+00 -8.200615e-01 -1.386377e+00 5.796098e+01 6.847701e-02 6.278758e-02 1.153789e-01 9.352265e-02 -5.848267e-02 -8.858252e-02 -9.796646e-02 2.781369e-02 9.085949e-03 3.578065e-02 -1.806565e-02 5.592895e-02 -8.358237e-02 -7.305190e-03 1.041330e-02 -6.123838e-03 1.092630e-02 8.798346e-03 4.457164e-03 -1.397499e-03 -7.004227e-03 -3.785986e-03 3.750880e-03 3.947758e-03 2.796847e-03 -1.734393e-02
<VARIANCE> 39
 1.249819e+02 8.768506e+01 9.240191e+01 1.032890e+02 1.229855e+02 1.116747e+02 1.037972e+02 8.553877e+01 7.818793e+01 5.045615e+01 5.446902e+01 5.680709e+01 1.758802e+02 3.459138e+00 2.372682e+00 2.260134e+00 3.051432e+00 2.908058e+00 4.173001e+00 3.422543e+00 3.069913e+00 3.040016e+00 2.710270e+00 2.692627e+00 2.130040e+00 1.731341e+00 4.061235e-01 3.475442e-01 3.144866e-01 4.313242e-01 4.587260e-01 6.539642e-01 5.911561e-01 5.291076e-01 4.990919e-01 4.789728e-01 4.816563e-01 3.731160e-01 2.136478e-01
<GCONST> 1.325251e+02
<STATE> 3
<MEAN> 39
 -6.096777e+00 -2.286521e+00 -2.045206e+00 1.793024e+00 -2.137851e+00 -3.476337e+00 -4.325992e-01 -3.292647e+00 -1.810631e-01 -2.610879e+00 -8.715919e-01 -1.166487e+00 5.743527e+01 3.459866e-02 9.087847e-02 8.486652e-02 1.233704e-01 -2.023752e-02 -6.002266e-02 -9.752206e-02 5.543084e-03 -4.432667e-03 4.425274e-02 -6.440011e-03 5.955656e-02 -1.406931e-01 -9.133379e-03 5.672700e-03 -8.548645e-03 6.303774e-03 9.822252e-03 8.187923e-03 2.884523e-03 -5.426115e-03 -3.750453e-03 2.805701e-04 3.392585e-03 -2.800255e-04 -1.213416e-02
<VARIANCE> 39
 1.210882e+02 8.581992e+01 9.004501e+01 9.664529e+01 1.212453e+02 1.095692e+02 1.008718e+02 8.511719e+01 7.860572e+01 5.226064e+01 5.307332e+01 5.477780e+01 1.779563e+02 3.350121e+00 2.326643e+00 2.251189e+00 2.930310e+00 2.893946e+00 4.148637e+00 3.345207e+00 3.057532e+00 3.053383e+00 2.770835e+00 2.668816e+00 2.042799e+00 1.675255e+00 3.893385e-01 3.452721e-01 3.146884e-01 4.222745e-01 4.623396e-01 6.528747e-01 5.824144e-01 5.267134e-01 5.009352e-01 4.865635e-01 4.790993e-01 3.551554e-01 2.105565e-01
<GCONST> 1.319794e+02
<STATE> 4
<MEAN> 39
 -6.902442e+00 -1.905450e+00 -2.331862e+00 2.034924e+00 -2.598962e+00 -2.068258e+00 -9.561279e-01 -1.724316e+00 1.822887e-01 -2.282879e+00 -7.256820e-01 -3.612577e-01 5.250575e+01 -4.111989e-02 9.545658e-02 2.266513e-02 1.190992e-01 3.977000e-02 1.097734e-02 -3.329071e-02 5.436347e-04 -2.103627e-02 3.338213e-02 9.734044e-03 3.797219e-02 -1.916343e-01 -5.888327e-03 1.468162e-04 -6.185440e-03 -1.831776e-04 5.185653e-03 8.337533e-03 7.364138e-03 -1.854165e-03 -4.040646e-03 -2.959308e-03 2.582862e-03 -2.982116e-03 -3.599505e-03
<VARIANCE> 39
 1.099580e+02 8.802919e+01 8.158786e+01 7.699078e+01 1.182760e+02 9.984866e+01 9.226340e+01 7.938387e+01 7.634107e+01 5.240802e+01 4.797775e+01 4.683341e+01 2.130866e+02 2.551782e+00 2.105388e+00 1.984711e+00 2.438034e+00 2.665317e+00 3.877430e+00 2.957546e+00 2.862574e+00 2.952616e+00 2.703523e+00 2.570024e+00 1.939163e+00 1.452162e+00 2.985317e-01 3.183420e-01 2.902870e-01 3.692834e-01 4.362749e-01 6.306822e-01 5.237334e-01 5.039933e-01 4.929867e-01 4.780828e-01 4.717934e-01 3.426684e-01 1.889638e-01
<GCONST> 1.288926e+02
<TRANSP> 5
 0.000000e+00 1.000000e+00 0.000000e+00 0.000000e+00 0.000000e+00
 0.000000e+00 7.465193e-01 2.534807e-01 0.000000e+00 0.000000e+00
 0.000000e+00 0.000000e+00 7.465197e-01 2.534803e-01 0.000000e+00
 0.000000e+00 0.000000e+00 0.000000e+00 8.930256e-01 1.069744e-01
 0.000000e+00 0.000000e+00 0.000000e+00 0.000000e+00 0.000000e+00
<ENDHMM>
~h "w"
<BEGINHMM>
<NUMSTATES> 5
<STATE> 2
<MEAN> 39
 -7.551388e+00 2.227037e+00 -2.411428e+00 4.960120e+00 -1.763247e+00 -2.623613e+00 1.127395e+00 -4.010496e+00 -4.949809e-01 -2.447511e+00 -7.568056e-01 -2.454239e+00 5.317487e+01 1.356203e-01 7.256707e-03 1.728763e-02 -7.787587e-02 -6.052514e-03 -3.732174e-02 -5.777066e-02 -3.173647e-02 8.542395e-03 -3.979275e-02 -3.287480e-02 -4.455895e-02 1.776349e-01 3.190133e-03 6.190147e-03 -2.161378e-03 2.725618e-03 3.111432e-03 1.522268e-03 -8.185945e-03 2.304004e-03 -5.159686e-03 -7.710006e-03 5.014970e-03 3.304163e-03 -6.628911e-03
<VARIANCE> 39
 1.306773e+02 8.204514e+01 6.443742e+01 8.522049e+01 8.915632e+01 1.015832e+02 9.291987e+01 6.436690e+01 6.599854e+01 6.223166e+01 4.226769e+01 4.893420e+01 2.127969e+02 2.165167e+00 2.574862e+00 2.025553e+00 2.418003e+00 3.155832e+00 3.423031e+00 3.166760e+00 3.024760e+00 2.991650e+00 2.751999e+00 2.443148e+00 2.010168e+00 1.475746e+00 2.810664e-01 3.742001e-01 2.995534e-01 3.659924e-01 4.967358e-01 4.972591e-01 5.410760e-01 4.858537e-01 4.993626e-01 4.766513e-01 4.227879e-01 3.684323e-01 1.839984e-01
<GCONST> 1.285416e+02
<STATE> 3
<MEAN> 39
 -6.961173e+00 2.323074e+00 -2.368071e+00 4.674848e+00 -1.837598e+00 -2.738507e+00 8.752995e-01 -4.070151e+00 -5.038107e-01 -2.667927e+00 -8.492955e-01 -2.596216e+00 5.381498e+01 1.417854e-01 1.846937e-02 3.937733e-03 -7.047417e-02 -8.619490e-03 -3.274267e-02 -6.907937e-02 -6.627064e-03 5.991485e-04 -5.897507e-02 -1.543565e-02 -3.663102e-02 1.625268e-01 -5.028698e-04 7.481825e-04 -2.862950e-03 3.819992e-03 -1.083747e-03 5.537880e-04 -1.179992e-03 7.605877e-03 -1.512431e-03 -3.421332e-03 3.935110e-03 2.080520e-03 -5.583987e-03
<VARIANCE> 39
 1.302846e+02 8.326395e+01 6.498634e+01 8.682851e+01 9.059325e+01 1.027326e+02 9.885101e+01 6.421923e+01 6.449390e+01 5.978291e+01 4.244147e+01 4.826921e+01 2.009518e+02 2.172579e+00 2.588529e+00 2.084565e+00 2.361592e+00 3.127328e+00 3.371194e+00 3.251208e+00 3.089934e+00 3.005739e+00 2.723725e+00 2.446691e+00 1.992979e+00 1.357094e+00 2.717354e-01 3.718593e-01 3.066341e-01 3.433114e-01 4.715204e-01 4.778618e-01 5.470762e-01 4.964319e-01 4.997190e-01 4.688899e-01 4.144933e-01 3.666036e-01 1.663585e-01
<GCONST> 1.281965e+02
<STATE> 4
<MEAN> 39
 -6.131805e+00 2.105537e+00 -2.751098e+00 3.729429e+00 -2.669186e+00 -2.195079e+00 -8.694892e-02 -3.286448e+00 -6.369813e-01 -3.268701e+00 -8.443643e-01 -2.437046e+00 5.285310e+01 1.360112e-01 3.786461e-03 5.639833e-03 -3.970725e-02 -1.592792e-02 -7.174674e-03 -4.161044e-02 2.326145e-02 1.337350e-02 -5.672863e-02 -1.955163e-03 -1.812855e-02 1.369177e-01 -5.525024e-03 -2.954046e-03 1.872107e-03 7.350152e-03 5.105610e-04 2.599849e-03 3.463409e-03 2.786472e-03 1.038316e-04 1.910014e-03 1.303761e-03 2.369394e-03 -7.236407e-03
<VARIANCE> 39
 1.326269e+02 8.300635e+01 6.857726e+01 9.361357e+01 9.727962e+01 9.754948e+01 9.954742e+01 6.936384e+01 6.243941e+01 5.531095e+01 4.174537e+01 4.450260e+01 1.911071e+02 1.947239e+00 2.423963e+00 2.091147e+00 2.421822e+00 2.868179e+00 3.098818e+00 3.108555e+00 3.104278e+00 2.985557e+00 2.705280e+00 2.339863e+00 2.049105e+00 1.267345e+00 2.266751e-01 3.279743e-01 3.020275e-01 3.320795e-01 4.263094e-01 4.412384e-01 5.153576e-01 5.009784e-01 5.075343e-01 4.715355e-01 3.993247e-01 3.729769e-01 1.419270e-01
<GCONST> 1.269849e+02
<TRANSP> 5
 0.000000e+00 1.000000e+00 0.000000e+00 0.000000e+00 0.000000e+00
 0.000000e+00 7.532670e-01 2.467329e-01 0.000000e+00 0.000000e+00
 0.000000e+00 0.000000e+00 7.532670e-01 2.467329e-01 0.000000e+00
 0.000000e+00 0.000000e+00 0.000000e+00 8.895004e-01 1.104996e-01
 0.000000e+00 0.000000e+00 0.000000e+00 0.000000e+00 0.000000e+00
<ENDHMM>
~h "z"
<BEGINHMM>
<NUMSTATES> 5
<STATE> 2
<MEAN> 39
 -1.056871e+01 3.576630e+00 1.159560e+00 3.919220e+00 -1.455199e+00 -3.988604e+00 -1.778006e+00 -3.951096e+00 -2.444543e+00 -2.707030e+00 -4.184231e-01 -9.528418e-01 5.032801e+01 1.440428e-01 1.306597e-02 8.753712e-02 -1.773616e-02 -9.129094e-02 -2.071703e-01 -1.030621e-01 -2.317079e-02 -2.088246e-02 -1.612291e-01 -1.146030e-02 5.265879e-02 3.176588e-01 1.556619e-02 -3.120430e-02 -4.746058e-03 1.659178e-02 -4.159269e-03 2.790348e-02 -2.272761e-02 6.941313e-03 7.514570e-03 8.122393e-04 5.010609e-03 1.250782e-02 -4.499948e-03
<VARIANCE> 39
 1.325659e+02 8.989231e+01 1.096169e+02 6.393414e+01 1.151689e+02 1.427418e+02 8.002190e+01 8.961411e+01 6.493339e+01 4.447370e+01 4.847822e+01 4.291697e+01 2.670424e+02 2.594200e+00 2.381514e+00 2.903727e+00 2.340045e+00 3.052172e+00 4.316587e+00 3.475528e+00 3.476094e+00 3.379479e+00 2.367074e+00 2.300231e+00 2.187695e+00 1.404657e+00 3.062873e-01 3.088278e-01 3.574736e-01 3.520147e-01 4.634481e-01 6.574780e-01 6.014692e-01 5.984627e-01 5.772467e-01 4.040010e-01 3.935637e-01 3.904426e-01 1.678275e-01
<GCONST> 1.307865e+02
<STATE> 3
<MEAN> 39
 -9.773175e+00 3.384883e+00 1.617761e+00 3.946405e+00 -2.051364e+00 -4.609679e+00 -2.395709e+00 -4.092402e+00 -2.497387e+00 -3.270696e+00 -4.956307e-01 -6.933623e-01 5.166167e+01 2.175980e-01 -8.554064e-02 1.024064e-01 1.700388e-02 -1.386957e-01 -1.258637e-01 -1.598219e-01 -1.336839e-03 -5.153529e-03 -1.282465e-01 -1.016503e-02 8.017551e-02 3.019435e-01 2.033505e-02 -2.666987e-02 2.595116e-03 7.109943e-03 -1.289901e-02 2.374797e-02 -1.296837e-02 4.357230e-03 2.797659e-03 1.068061e-02 -9.228205e-04 5.544105e-03 -7.884822e-03
<VARIANCE> 39
 1.375065e+02 9.725462e+01 1.164334e+02 6.418511e+01 1.154197e+02 1.478702e+02 8.226395e+01 8.845940e+01 6.679011e+01 4.496396e+01 5.327992e+01 4.415392e+01 2.537430e+02 2.697308e+00 2.391338e+00 3.180707e+00 2.282259e+00 3.425401e+00 4.154058e+00 3.589851e+00 3.470029e+00 3.360417e+00 2.324822e+00 2.309055e+00 2.166544e+00 1.288599e+00 3.115781e-01 3.075296e-01 3.761621e-01 3.382027e-01 4.978488e-01 6.496429e-01 6.272461e-01 5.877590e-01 5.693752e-01 4.110854e-01 3.791806e-01 3.822381e-01 1.569686e-01
<GCONST> 1.312157e+02
<STATE> 4
<MEAN> 39
 -8.228309e+00 1.730344e+00 7.848822e-01 3.156492e+00 -4.475841e+00 -3.407300e+00 -4.289780e+00 -3.165329e+00 -1.774200e+00 -3.322691e+00 -4.455824e-01 1.471050e-01 5.084007e+01 3.180769e-01 -1.326910e-01 6.673623e-02 -2.509172e-02 -1.746393e-01 -8.665552e-02 -1.607430e-01 -1.196836e-02 -2.089220e-02 -4.997879e-02 -9.252306e-03 3.156312e-02 2.964706e-01 1.219217e-02 -9.094067e-03 -1.042053e-02 -3.740211e-03 5.205219e-05 8.422975e-03 1.105478e-03 2.175850e-03 -2.902992e-03 9.930173e-03 -3.372291e-05 -4.226013e-03 -7.297736e-03
<VARIANCE> 39
 1.524246e+02 9.872117e+01 1.337374e+02 6.467200e+01 1.146344e+02 1.418821e+02 1.049948e+02 8.618514e+01 6.869551e+01 4.707479e+01 4.954772e+01 4.276788e+01 2.334904e+02 2.539767e+00 2.360690e+00 3.600385e+00 2.522468e+00 3.619314e+00 4.413030e+00 3.808994e+00 3.500771e+00 3.254869e+00 2.464048e+00 2.173565e+00 2.110119e+00 1.250562e+00 2.875001e-01 3.091260e-01 4.027261e-01 3.572430e-01 5.256917e-01 6.617824e-01 6.787289e-01 5.791079e-01 5.529879e-01 4.491096e-01 3.564239e-01 3.759891e-01 1.427423e-01
<GCONST> 1.318505e+02
<TRANSP> 5
 0.000000e+00 1.000000e+00 0.000000e+00 0.000000e+00 0.000000e+00
 0.000000e+00 7.493305e-01 2.506696e-01 0.000000e+00 0.000000e+00
 0.000000e+00 0.000000e+00 7.493302e-01 2.506698e-01 0.000000e+00
 0.000000e+00 0.000000e+00 0.000000e+00 8.958628e-01 1.041372e-01
 0.000000e+00 0.000000e+00 0.000000e+00 0.000000e+00 0.000000e+00
<ENDHMM>
~h "aa"
<BEGINHMM>
<NUMSTATES> 5
<STATE> 2
<MEAN> 39
 -7.270979e+00 1.202774e+00 1.890898e+00 8.350000e+00 1.642482e+00 -6.507827e+00 1.880750e+00 -4.884881e+00 -1.302416e-01 -4.202062e+00 -9.315616e-01 -2.424204e+00 6.086843e+01 -9.493432e-02 -1.229587e-02 2.090087e-02 5.366935e-02 -8.086473e-03 7.271318e-02 1.648108e-02 -7.147648e-03 5.614200e-03 2.255298e-02 2.413488e-02 -1.159910e-02 -1.016014e-01 2.046896e-03 1.421889e-03 -2.548469e-03 -5.032686e-04 -2.406287e-03 3.474485e-03 2.172056e-03 3.303901e-03 2.194014e-04 1.158225e-03 -4.423364e-04 -4.679912e-04 -2.428646e-03
<VARIANCE> 39
 1.237917e+02 1.008435e+02 6.297949e+01 5.623554e+01 9.346791e+01 9.578834e+01 1.005425e+02 6.163002e+01 6.795004e+01 4.853431e+01 3.898936e+01 4.434548e+01 9.315929e+01 3.702593e+00 3.823450e+00 2.847227e+00 2.543688e+00 2.831616e+00 3.826381e+00 3.672776e+00 3.658827e+00 3.847293e+00 2.833380e+00 2.231158e+00 1.793063e+00 1.390841e+00 4.486059e-01 5.157400e-01 4.039040e-01 4.067755e-01 4.668096e-01 6.230094e-01 6.264634e-01 5.824724e-01 6.477176e-01 4.981963e-01 3.987074e-01 3.240564e-01 2.233711e-01
<GCONST> 1.307308e+02
<STATE> 3
<MEAN> 39
 -7.577255e+00 1.152537e+00 1.955856e+00 8.535308e+00 1.612133e+00 -6.263557e+00 1.948088e+00 -4.894718e+00 -1.197873e-01 -4.122836e+00 -8.533918e-01 -2.460202e+00 6.053514e+01 -8.847089e-02 -8.610793e-03 1.336705e-02 5.287386e-02 -1.611954e-02 8.412608e-02 2.360172e-02 2.649698e-03 5.965855e-03 2.640169e-02 2.259876e-02 -1.345425e-02 -1.089389e-01 1.586095e-03 3.138338e-04 -2.430886e-03 -9.881568e-04 -2.850782e-03 3.548450e-03 3.284940e-03 3.684689e-03 1.091022e-03 1.130494e-03 -5.660671e-04 -5.237223e-04 -1.558112e-03
<VARIANCE> 39
 1.200254e+02 9.787772e+01 6.140166e+01 5.607845e+01 9.249030e+01 9.441518e+01 9.826531e+01 6.238257e+01 6.776398e+01 4.757663e+01 3.762219e+01 4.398631e+01 9.524626e+01 3.639010e+00 3.868220e+00 2.817999e+00 2.493449e+00 2.801050e+00 3.756194e+00 3.621299e+00 3.603618e+00 3.843699e+00 2.794361e+00 2.182876e+00 1.774316e+00 1.378709e+00 4.447541e-01 5.253847e-01 4.010579e-01 3.991483e-01 4.639651e-01 6.148229e-01 6.187341e-01 5.714399e-01 6.486442e-01 4.931287e-01 3.930948e-01 3.215939e-01 2.212795e-01
<GCONST> 1.303042e+02
<STATE> 4
<MEAN> 39
 -7.698656e+00 1.209940e+00 1.846266e+00 8.627082e+00 1.490642e+00 -6.005916e+00 2.229538e+00 -4.631717e+00 -3.989936e-02 -3.965765e+00 -8.078201e-01 -2.599322e+00 6.032581e+01 -8.094324e-02 -1.299856e-02 6.757365e-03 5.383766e-02 -2.413639e-02 9.398855e-02 3.476650e-02 1.380591e-02 7.061704e-03 2.981159e-02 1.992906e-02 -1.442250e-02 -1.085373e-01 1.207293e-03 -1.342705e-03 -2.211881e-03 -9.575601e-04 -2.228969e-03 3.677140e-03 3.973854e-03 3.731936e-03 2.370140e-03 8.618088e-04 -6.888765e-04 -4.389638e-04 5.670333e-05
<VARIANCE> 39
 1.149513e+02 9.265649e+01 6.058893e+01 5.497422e+01 8.928406e+01 9.480028e+01 9.540598e+01 6.285839e+01 6.764745e+01 4.703362e+01 3.573422e+01 4.423304e+01 9.731073e+01 3.539566e+00 3.885128e+00 2.789597e+00 2.399218e+00 2.770447e+00 3.756469e+00 3.545579e+00 3.516177e+00 3.825295e+00 2.750472e+00 2.130470e+00 1.752740e+00 1.394829e+00 4.414344e-01 5.345467e-01 3.981249e-01 3.845421e-01 4.622307e-01 6.153741e-01 6.085544e-01 5.609182e-01 6.502725e-01 4.873101e-01 3.876174e-01 3.179602e-01 2.254035e-01
<GCONST> 1.298189e+02
<TRANSP> 5
 0.000000e+00 1.000000e+00 0.000000e+00 0.000000e+00 0.000000e+00
 0.000000e+00 7.017597e-01 2.982403e-01 0.000000e+00 0.000000e+00
 0.000000e+00 0.000000e+00 7.017602e-01 2.982398e-01 0.000000e+00
 0.000000e+00 0.000000e+00 0.000000e+00 8.207972e-01 1.792028e-01
 0.000000e+00 0.000000e+00 0.000000e+00 0.000000e+00 0.000000e+00
<ENDHMM>
~h "ae"
<BEGINHMM>
<NUMSTATES> 5
<STATE> 2
<MEAN> 39
 -4.468253e+00 -2.447069e-01 -1.609163e-01 7.821019e+00 3.257629e+00 -8.044379e+00 1.058456e+00 -5.137059e+00 4.194107e-01 -5.534859e+00 -1.862138e+00 -1.531000e+00 6.294912e+01 -1.271945e-01 2.861556e-02 7.030693e-02 -1.641078e-02 -9.105500e-02 6.586060e-02 6.177203e-02 8.314147e-02 1.101172e-02 -1.041426e-02 1.462036e-02 -1.938582e-02 -1.148353e-01 -2.888081e-03 -3.644330e-03 -2.516542e-03 3.571720e-03 3.854780e-03 -1.722196e-03 -8.434521e-04 -3.539269e-03 -1.448574e-03 2.528508e-03 2.883329e-03 3.077507e-03 -1.307914e-03
<VARIANCE> 39
 1.199668e+02 1.266794e+02 8.101574e+01 5.330108e+01 8.415421e+01 8.331101e+01 9.868899e+01 5.737294e+01 6.370067e+01 5.085042e+01 4.337277e+01 3.921699e+01 5.140899e+01 4.551538e+00 5.274444e+00 3.614406e+00 3.000101e+00 2.563979e+00 4.151031e+00 3.902906e+00 3.778355e+00 4.055970e+00 2.489473e+00 2.216307e+00 2.207299e+00 1.230894e+00 5.160202e-01 6.650671e-01 5.380306e-01 5.165605e-01 4.079584e-01 7.397493e-01 6.653209e-01 6.544051e-01 6.950741e-01 4.525787e-01 3.702270e-01 4.092026e-01 2.241022e-01
<GCONST> 1.324420e+02
<STATE> 3
<MEAN> 39
 -4.893353e+00 -1.405790e-01 4.692547e-02 7.777143e+00 2.949043e+00 -7.830598e+00 1.263196e+00 -4.869929e+00 4.693708e-01 -5.547788e+00 -1.798948e+00 -1.589518e+00 6.254501e+01 -1.384529e-01 1.416400e-02 6.234151e-02 -3.802259e-03 -7.709904e-02 6.101937e-02 5.905887e-02 7.054769e-02 6.816265e-03 -1.483044e-03 2.461357e-02 -9.395760e-03 -1.192443e-01 -3.142293e-03 -4.841635e-03 -2.427167e-03 3.940324e-03 5.040027e-03 -9.300093e-04 -1.103064e-03 -4.978457e-03 -1.057074e-03 2.938739e-03 2.893332e-03 2.864898e-03 -7.212641e-04
<VARIANCE> 39
 1.218415e+02 1.235415e+02 7.749459e+01 5.162463e+01 8.360231e+01 8.343393e+01 9.702517e+01 5.792886e+01 6.458009e+01 5.155852e+01 4.432718e+01 3.862650e+01 5.486024e+01 4.493530e+00 5.124405e+00 3.504832e+00 2.939262e+00 2.547547e+00 4.037996e+00 3.865748e+00 3.882530e+00 4.073789e+00 2.487930e+00 2.245272e+00 2.182116e+00 1.207978e+00 5.093362e-01 6.485353e-01 5.258499e-01 5.086321e-01 4.013947e-01 7.215818e-01 6.522475e-01 6.660914e-01 6.997849e-01 4.516017e-01 3.719004e-01 4.063693e-01 2.201241e-01
<GCONST> 1.321842e+02
<STATE> 4
<MEAN> 39
 -5.309087e+00 7.849339e-02 5.109391e-02 7.682412e+00 2.623883e+00 -7.504623e+00 1.571903e+00 -4.514898e+00 7.358841e-01 -5.525181e+00 -1.785479e+00 -1.758178e+00 6.214765e+01 -1.564279e-01 -1.777441e-04 5.273638e-02 1.183706e-02 -6.405970e-02 6.229728e-02 5.777593e-02 5.431595e-02 7.370143e-03 1.313743e-02 3.932397e-02 -1.694713e-05 -1.322074e-01 -3.504389e-03 -5.368254e-03 -1.462313e-03 4.086404e-03 5.926535e-03 -3.608378e-06 -1.337219e-03 -6.119858e-03 -9.335387e-04 2.920720e-03 2.819160e-03 2.395577e-03 -1.935827e-04
<VARIANCE> 39
 1.231598e+02 1.183440e+02 7.255486e+01 4.986524e+01 8.370690e+01 8.252515e+01 9.476147e+01 5.920364e+01 6.536443e+01 5.213800e+01 4.526604e+01 3.846663e+01 5.962651e+01 4.345079e+00 4.855830e+00 3.345252e+00 2.830130e+00 2.536281e+00 3.884853e+00 3.857058e+00 4.051946e+00 4.029980e+00 2.480416e+00 2.265126e+00 2.114775e+00 1.168136e+00 4.939522e-01 6.187063e-01 5.057881e-01 4.888411e-01 3.980005e-01 6.949029e-01 6.464696e-01 6.877455e-01 6.924245e-01 4.495459e-01 3.734833e-01 3.957018e-01 2.118513e-01
<GCONST> 1.316636e+02
<TRANSP> 5
 0.000000e+00 1.000000e+00 0.000000e+00 0.000000e+00 0.000000e+00
 0.000000e+00 6.870151e-01 3.129849e-01 0.000000e+00 0.000000e+00
 0.000000e+00 0.000000e+00 6.870155e-01 3.129845e-01 0.000000e+00
 0.000000e+00 0.000000e+00 0.000000e+00 8.044360e-01 1.955641e-01
 0.000000e+00 0.000000e+00 0.000000e+00 0.000000e+00 0.000000e+00
<ENDHMM>
~h "ah"
<BEGINHMM>
<NUMSTATES> 5
<STATE> 2
<MEAN> 39
 -5.004283e+00 7.872488e-01 -1.034130e+00 4.024520e+00 -2.268191e+00 -3.524641e+00 -5.444492e-01 -3.960443e+00 -7.850657e-01 -3.544766e+00 -1.066725e+00 -1.640225e+00 5.651902e+01 4.956550e-02 2.875390e-02 4.229955e-02 7.604447e-02 1.014475e-02 8.220289e-03 -3.434936e-02 -3.534213e-02 -3.108719e-02 -1.752787e-02 1.489795e-02 1.569329e-02 -1.783987e-02 -1.087396e-02 -1.111718e-04 3.771743e-03 1.057539e-02 3.227706e-03 7.759097e-03 6.348534e-03 -3.679252e-03 -1.790921e-03 1.767109e-03 -2.983973e-03 -1.466656e-04 -1.113131e-02
<VARIANCE> 39
 1.165306e+02 8.702155e+01 7.798148e+01 9.171658e+01 1.085541e+02 9.853719e+01 1.033088e+02 7.019786e+01 6.574657e+01 5.432397e+01 5.235004e+01 4.497407e+01 1.419927e+02 2.478801e+00 2.660017e+00 2.250751e+00 2.544536e+00 2.785945e+00 3.479083e+00 3.294869e+00 3.188282e+00 3.093640e+00 2.752228e+00 2.426493e+00 1.930741e+00 1.304608e+00 2.879221e-01 3.609847e-01 3.154737e-01 3.589135e-01 4.292395e-01 5.446178e-01 5.508245e-01 5.407838e-01 5.259839e-01 4.845809e-01 4.094360e-01 3.368039e-01 1.582274e-01
<GCONST> 1.287518e+02
<STATE> 3
<MEAN> 39
 -4.882914e+00 8.900286e-01 -8.810264e-01 4.342884e+00 -2.190352e+00 -3.414382e+00 -6.032818e-01 -4.104797e+00 -8.956681e-01 -3.593702e+00 -1.024343e+00 -1.560265e+00 5.637743e+01 7.100628e-03 2.905494e-02 5.666613e-02 1.144091e-01 2.523001e-02 3.716235e-02 -1.615467e-02 -4.914439e-02 -3.377260e-02 -7.736853e-03 2.014871e-03 1.641903e-02 -6.197516e-02 -9.580288e-03 1.652840e-03 3.266768e-03 9.664920e-03 4.800055e-03 9.101667e-03 4.892424e-03 -4.287375e-03 -9.515702e-04 3.882036e-03 -5.513604e-03 -8.803005e-04 -1.206394e-02
<VARIANCE> 39
 1.137382e+02 8.392709e+01 7.760282e+01 8.904592e+01 1.063594e+02 9.762080e+01 1.013643e+02 7.165475e+01 6.456815e+01 5.376287e+01 5.377343e+01 4.464483e+01 1.389853e+02 2.342982e+00 2.607063e+00 2.220169e+00 2.495961e+00 2.699492e+00 3.431119e+00 3.215520e+00 3.216168e+00 3.087898e+00 2.759591e+00 2.428467e+00 1.957394e+00 1.254914e+00 2.715771e-01 3.496743e-01 3.123501e-01 3.479178e-01 4.193286e-01 5.428361e-01 5.358532e-01 5.451785e-01 5.291438e-01 4.856433e-01 4.094640e-01 3.405204e-01 1.528256e-01
<GCONST> 1.282113e+02
<STATE> 4
<MEAN> 39
 -4.734099e+00 1.150151e+00 -1.312770e+00 4.211661e+00 -2.683348e+00 -2.263489e+00 -1.171876e+00 -3.426919e+00 -1.149246e+00 -3.688684e+00 -1.176732e+00 -1.220831e+00 5.374504e+01 -6.878719e-02 2.254472e-02 5.443917e-02 1.338012e-01 5.433653e-02 7.119047e-02 1.000322e-02 -4.689122e-02 -2.298756e-02 1.503683e-02 -6.707947e-03 2.124632e-02 -1.269283e-01 -8.039545e-03 1.266661e-03 4.555891e-04 3.660278e-03 4.447639e-03 5.325658e-03 2.192468e-03 -2.909733e-04 1.028920e-03 3.371169e-03 -2.744300e-03 -1.344712e-03 -8.433536e-03
<VARIANCE> 39
 1.069625e+02 8.389644e+01 7.988570e+01 8.488181e+01 1.071804e+02 9.001905e+01 9.479029e+01 7.451457e+01 6.226408e+01 5.276227e+01 5.044215e+01 4.094082e+01 1.564032e+02 1.936443e+00 2.458870e+00 2.084270e+00 2.346656e+00 2.644770e+00 3.229542e+00 3.019382e+00 3.135220e+00 3.012764e+00 2.676373e+00 2.389929e+00 1.970017e+00 1.151649e+00 2.203008e-01 3.207899e-01 2.923082e-01 3.208683e-01 4.172990e-01 5.287043e-01 5.074918e-01 5.329005e-01 5.308543e-01 4.764499e-01 4.136592e-01 3.443978e-01 1.360080e-01
<GCONST> 1.265856e+02
<TRANSP> 5
 0.000000e+00 1.000000e+00 0.000000e+00 0.000000e+00 0.000000e+00
 0.000000e+00 7.294919e-01 2.705080e-01 0.000000e+00 0.000000e+00
 0.000000e+00 0.000000e+00 7.294920e-01 2.705080e-01 0.000000e+00
 0.000000e+00 0.000000e+00 0.000000e+00 8.672035e-01 1.327965e-01
 0.000000e+00 0.000000e+00 0.000000e+00 0.000000e+00 0.000000e+00
<ENDHMM>
~h "ao"
<BEGINHMM>
<NUMSTATES> 5
<STATE> 2
<MEAN> 39
 -3.104603e+00 2.831321e+00 -4.538594e+00 7.869184e-01 -2.593594e+00 -3.067842e+00 4.927057e-01 -4.227527e+00 -1.875145e+00 -2.906206e+00 -2.839981e-01 -2.999213e+00 5.666956e+01 1.610006e-01 -4.750287e-02 1.043976e-02 -6.568277e-02 -3.330048e-02 -2.020739e-02 -1.757277e-02 -8.687407e-03 -5.216094e-02 -1.321323e-02 -1.124285e-02 -4.147401e-02 1.329252e-01 -1.828804e-02 -7.615497e-03 6.272160e-03 7.017101e-03 5.646605e-03 3.698449e-03 6.337220e-03 4.908738e-03 -1.093758e-03 -4.582698e-03 5.585075e-03 5.444540e-03 -1.060271e-02
<VARIANCE> 39
 1.169163e+02 9.890224e+01 6.411639e+01 1.592256e+02 1.413892e+02 1.606854e+02 1.118568e+02 8.227131e+01 7.151032e+01 4.408513e+01 3.991096e+01 5.345986e+01 1.551403e+02 3.277761e+00 2.316412e+00 1.739759e+00 3.681062e+00 3.577310e+00 4.139972e+00 3.185565e+00 3.213931e+00 3.181959e+00 2.668695e+00 2.308376e+00 2.201579e+00 1.283544e+00 3.997593e-01 3.453699e-01 2.404782e-01 4.835879e-01 5.322520e-01 5.841727e-01 5.108666e-01 5.359576e-01 4.709151e-01 4.702006e-01 4.076873e-01 3.944387e-01 1.703422e-01
<GCONST> 1.314075e+02
<STATE> 3
<MEAN> 39
 -2.501216e+00 2.598621e+00 -4.566019e+00 4.880567e-01 -2.701977e+00 -3.117949e+00 4.737678e-01 -4.202750e+00 -2.034435e+00 -2.987937e+00 -3.218015e-01 -3.144663e+00 5.716937e+01 8.347058e-02 -7.234520e-02 2.750585e-02 -2.784419e-02 -2.977306e-03 -1.473145e-02 7.770538e-03 1.335842e-02 -5.479684e-02 -2.122164e-02 7.683543e-03 -2.319966e-02 8.470202e-02 -1.973389e-02 -6.064321e-03 4.907109e-03 7.436326e-03 7.007401e-03 1.990199e-03 4.826655e-03 4.268742e-03 2.084969e-04 -1.834597e-03 4.892230e-03 4.197679e-03 -1.061949e-02
<VARIANCE> 39
 1.119019e+02 1.006521e+02 6.831704e+01 1.634288e+02 1.446210e+02 1.625450e+02 1.118786e+02 8.453872e+01 7.555221e+01 4.377768e+01 4.054783e+01 5.368484e+01 1.451073e+02 3.110857e+00 2.351216e+00 1.833170e+00 3.578777e+00 3.416908e+00 4.166264e+00 3.185626e+00 3.280835e+00 3.253458e+00 2.682248e+00 2.273772e+00 2.180377e+00 1.256936e+00 3.748303e-01 3.467796e-01 2.485008e-01 4.651649e-01 5.024381e-01 5.829542e-01 5.123996e-01 5.393348e-01 4.758005e-01 4.714383e-01 4.021377e-01 3.884348e-01 1.656817e-01
<GCONST> 1.313221e+02
<STATE> 4
<MEAN> 39
 -2.461189e+00 1.247814e+00 -5.176934e+00 -1.204181e+00 -3.631982e+00 -1.889470e+00 -5.174432e-01 -2.489027e+00 -1.642312e+00 -2.807333e+00 -5.648896e-01 -2.421857e+00 5.405758e+01 -3.867199e-02 -8.206943e-02 1.490032e-02 6.680375e-02 5.747114e-02 -1.578262e-02 8.936455e-03 5.511233e-02 -3.096945e-02 3.630493e-03 1.626384e-02 6.315275e-04 -2.882601e-02 -1.599179e-02 -1.974343e-03 3.798801e-03 9.531378e-03 5.973522e-03 -5.993112e-04 6.382721e-04 2.999644e-03 1.812712e-03 2.388224e-03 1.874509e-03 2.243074e-03 -1.118831e-02
<VARIANCE> 39
 1.137339e+02 1.002260e+02 7.286781e+01 1.709618e+02 1.531306e+02 1.456816e+02 1.034451e+02 8.852161e+01 7.640472e+01 4.356078e+01 3.851541e+01 4.980665e+01 1.651092e+02 2.659991e+00 2.207519e+00 1.795475e+00 3.329766e+00 3.024479e+00 3.749053e+00 2.871542e+00 3.273442e+00 3.156609e+00 2.635695e+00 2.235872e+00 2.149988e+00 1.134749e+00 3.121112e-01 3.202654e-01 2.447876e-01 4.123012e-01 4.488770e-01 5.191618e-01 4.690427e-01 5.280921e-01 4.772173e-01 4.653400e-01 3.972074e-01 3.872361e-01 1.360638e-01
<GCONST> 1.295822e+02
<TRANSP> 5
 0.000000e+00 1.000000e+00 0.000000e+00 0.000000e+00 0.000000e+00
 0.000000e+00 7.533070e-01 2.466929e-01 0.000000e+00 0.000000e+00
 0.000000e+00 0.000000e+00 7.533071e-01 2.466929e-01 0.000000e+00
 0.000000e+00 0.000000e+00 0.000000e+00 8.981978e-01 1.018022e-01
 0.000000e+00 0.000000e+00 0.000000e+00 0.000000e+00 0.000000e+00
<ENDHMM>
~h "ay"
<BEGINHMM>
<NUMSTATES> 5
<STATE> 2
<MEAN> 39
 -4.043927e+00 -2.336726e+00 -3.601750e+00 1.965384e+00 2.579323e-01 -1.990701e+00 -5.406823e-01 -3.860297e+00 -8.150019e-01 -3.221549e+00 -1.455457e+00 -1.665846e+00 5.832743e+01 1.000770e-01 -2.995710e-02 6.077047e-02 -4.944781e-02 -2.935657e-02 -6.935164e-02 2.006023e-02 1.784232e-03 8.246051e-03 -7.863154e-03 -3.375984e-02 1.199419e-02 1.461481e-01 -7.181195e-03 9.047264e-03 1.326541e-02 1.540156e-02 -5.183714e-03 -6.411781e-03 2.033560e-03 1.007351e-04 3.822622e-04 5.414322e-03 1.283061e-03 2.573017e-04 -1.793094e-02
<VARIANCE> 39
 1.140090e+02 9.963974e+01 8.584542e+01 1.195706e+02 1.141089e+02 1.175998e+02 1.151286e+02 7.289404e+01 6.567041e+01 5.846319e+01 5.422987e+01 5.571869e+01 1.825164e+02 2.936017e+00 2.364202e+00 2.237196e+00 2.927244e+00 3.034418e+00 3.590313e+00 3.434505e+00 2.926706e+00 2.906788e+00 2.586354e+00 2.530372e+00 2.310450e+00 1.878798e+00 3.784493e-01 3.345716e-01 3.281950e-01 3.912167e-01 4.839254e-01 5.686640e-01 5.773339e-01 4.915422e-01 4.788921e-01 4.448012e-01 4.435786e-01 4.118799e-01 2.239317e-01
<GCONST> 1.317792e+02
<STATE> 3
<MEAN> 39
 -3.664346e+00 -2.420015e+00 -3.267320e+00 1.862040e+00 6.132488e-02 -2.345228e+00 -4.426246e-01 -3.875404e+00 -7.841429e-01 -3.205342e+00 -1.595976e+00 -1.635645e+00 5.881515e+01 6.546316e-02 7.752527e-03 1.078946e-01 1.399007e-02 -4.971999e-02 -9.203188e-02 2.447909e-02 5.938455e-03 4.603708e-03 1.371520e-02 -2.484750e-02 1.323978e-02 6.546518e-02 -7.258801e-03 8.694279e-03 1.049388e-02 1.521197e-02 -4.563740e-03 -5.385752e-03 -1.439692e-03 -2.573093e-04 -1.164718e-03 3.831133e-03 2.687781e-03 2.463813e-04 -1.777318e-02
<VARIANCE> 39
 1.100295e+02 1.012645e+02 8.740260e+01 1.204776e+02 1.167692e+02 1.188793e+02 1.178608e+02 7.466901e+01 6.685571e+01 5.834515e+01 5.400172e+01 5.693311e+01 1.694273e+02 2.816120e+00 2.377563e+00 2.209424e+00 2.886063e+00 3.032073e+00 3.662133e+00 3.463974e+00 2.953968e+00 2.954431e+00 2.595712e+00 2.582238e+00 2.313391e+00 1.787926e+00 3.569328e-01 3.313707e-01 3.157012e-01 3.858139e-01 4.721244e-01 5.700373e-01 5.795562e-01 4.941402e-01 4.828302e-01 4.454821e-01 4.501160e-01 4.098777e-01 2.116691e-01
<GCONST> 1.316207e+02
<STATE> 4
<MEAN> 39
 -4.010101e+00 -2.811172e+00 -2.786220e+00 1.415812e+00 -1.120630e+00 -1.234708e+00 -1.048597e+00 -2.670804e+00 -3.140749e-01 -3.023765e+00 -1.711464e+00 -1.119992e+00 5.542747e+01 -2.692719e-02 5.983403e-02 1.037672e-01 8.258774e-02 -4.831326e-02 -7.242355e-02 3.235349e-02 2.752206e-02 -1.021267e-02 3.880559e-02 1.305498e-02 2.564706e-02 -9.760772e-02 -7.771483e-03 5.578270e-03 1.853422e-04 8.265595e-03 1.303313e-03 1.738994e-03 -2.639382e-03 4.237443e-04 -1.579734e-03 1.379029e-03 3.118604e-03 1.344583e-03 -1.463760e-02
<VARIANCE> 39
 1.036086e+02 1.068297e+02 8.657919e+01 1.064334e+02 1.282439e+02 1.112792e+02 1.242051e+02 7.690009e+01 6.661388e+01 5.954118e+01 5.463522e+01 5.108995e+01 1.887060e+02 2.293823e+00 2.245560e+00 2.115272e+00 2.723953e+00 3.008945e+00 3.564168e+00 3.390046e+00 2.916341e+00 2.962919e+00 2.652641e+00 2.632391e+00 2.240422e+00 1.548646e+00 2.875676e-01 3.002164e-01 2.944596e-01 3.662260e-01 4.584751e-01 5.454036e-01 5.651144e-01 4.928486e-01 4.860027e-01 4.555059e-01 4.610710e-01 4.002563e-01 1.711507e-01
<GCONST> 1.303320e+02
<TRANSP> 5
 0.000000e+00 1.000000e+00 0.000000e+00 0.000000e+00 0.000000e+00
 0.000000e+00 7.585412e-01 2.414588e-01 0.000000e+00 0.000000e+00
 0.000000e+00 0.000000e+00 7.585413e-01 2.414586e-01 0.000000e+00
 0.000000e+00 0.000000e+00 0.000000e+00 9.055401e-01 9.445991e-02
 0.000000e+00 0.000000e+00 0.000000e+00 0.000000e+00 0.000000e+00
<ENDHMM>
~h "eh"
<BEGINHMM>
<NUMSTATES> 5
<STATE> 2
<MEAN> 39
 -8.221914e+00 5.780317e-01 -8.232670e-01 4.332859e+00 -4.848366e-01 -1.159169e+00 1.981467e+00 -3.325383e+00 -9.537000e-03 -3.443273e+00 4.393301e-02 -1.587222e+00 5.795016e+01 1.182855e-01 -1.008034e-01 4.993232e-02 -9.056031e-02 -5.523143e-02 -2.677318e-02 -1.141411e-01 3.912248e-02 7.419594e-02 -3.413675e-02 -6.790558e-02 1.399673e-02 1.979290e-01 1.220482e-02 9.495946e-04 1.489089e-03 -8.801251e-04 -7.918530e-04 -1.590888e-03 1.781606e-03 5.539217e-03 5.569160e-04 -1.172427e-03 -1.621156e-03 -4.467136e-03 -5.431186e-03
<VARIANCE> 39
 1.196348e+02 6.187468e+01 8.262757e+01 7.680188e+01 9.403039e+01 8.435577e+01 8.248902e+01 7.531709e+01 6.949321e+01 4.390154e+01 4.694275e+01 5.081026e+01 1.634576e+02 3.007931e+00 1.788517e+00 2.204549e+00 2.461459e+00 2.375566e+00 3.052985e+00 3.146399e+00 2.755270e+00 2.849044e+00 2.304701e+00 2.254063e+00 1.923464e+00 1.268268e+00 3.745035e-01 2.661391e-01 3.236295e-01 4.077791e-01 4.018971e-01 5.037665e-01 5.532609e-01 4.936206e-01 5.001934e-01 4.147406e-01 4.107500e-01 3.405728e-01 1.729196e-01
<GCONST> 1.265328e+02
<STATE> 3
<MEAN> 39
 -7.688206e+00 2.613312e-01 -6.588640e-01 4.010985e+00 -6.958793e-01 -1.298186e+00 1.605452e+00 -3.204149e+00 2.747847e-01 -3.586726e+00 -2.218958e-01 -1.564625e+00 5.866275e+01 1.555148e-01 -8.308475e-02 5.107541e-02 -8.049719e-02 -5.929309e-02 -3.457619e-02 -1.066328e-01 4.796726e-02 7.209089e-02 -3.115461e-02 -6.843447e-02 -2.074195e-04 1.760835e-01 7.514826e-03 8.118698e-03 4.840409e-04 5.741274e-03 1.021685e-03 -1.450351e-03 3.115753e-03 4.340638e-04 -1.835058e-03 1.839389e-03 1.867168e-03 -3.451994e-03 -1.052180e-02
<VARIANCE> 39
 1.190541e+02 6.498476e+01 8.149949e+01 7.880394e+01 9.687959e+01 8.411017e+01 8.606304e+01 7.317927e+01 6.943568e+01 4.449520e+01 4.796668e+01 5.107148e+01 1.506510e+02 3.003720e+00 1.841599e+00 2.187496e+00 2.466855e+00 2.398483e+00 3.204109e+00 3.166233e+00 2.762116e+00 2.837167e+00 2.331633e+00 2.260505e+00 1.915003e+00 1.288504e+00 3.739931e-01 2.720917e-01 3.181903e-01 3.991477e-01 4.022734e-01 5.246214e-01 5.579715e-01 4.910591e-01 4.953260e-01 4.186582e-01 4.077231e-01 3.366726e-01 1.722257e-01
<GCONST> 1.267017e+02
<STATE> 4
<MEAN> 39
 -5.832049e+00 2.858205e-01 -4.924728e-01 3.782772e+00 -1.291419e+00 -8.624267e-01 9.662091e-01 -2.267395e+00 1.008859e+00 -3.813785e+00 -6.705979e-01 -1.487585e+00 5.921576e+01 1.734095e-01 -1.655215e-02 3.458469e-02 -3.541829e-02 -5.253189e-02 -4.973754e-02 -7.856045e-02 3.033252e-02 4.601934e-02 -1.024709e-02 -5.940768e-02 -5.458755e-03 1.040805e-01 1.347369e-03 1.052206e-02 1.098191e-04 8.418869e-03 1.637349e-03 -1.587181e-03 2.010429e-03 -1.962548e-03 -3.928230e-03 4.408352e-03 3.031207e-03 2.603319e-04 -1.354863e-02
<VARIANCE> 39
 1.113110e+02 6.924524e+01 7.575329e+01 7.474494e+01 1.035330e+02 8.438396e+01 9.462024e+01 6.497703e+01 6.293806e+01 4.554095e+01 4.653770e+01 5.156071e+01 1.357511e+02 2.599029e+00 1.856467e+00 2.055340e+00 2.374012e+00 2.381471e+00 3.489797e+00 2.952690e+00 2.644259e+00 2.675127e+00 2.394735e+00 2.306703e+00 1.878199e+00 1.348773e+00 3.290460e-01 2.732724e-01 3.095332e-01 3.800618e-01 4.041218e-01 5.787913e-01 5.319479e-01 4.680273e-01 4.670822e-01 4.249340e-01 4.175252e-01 3.250424e-01 1.775581e-01
<GCONST> 1.259417e+02
<TRANSP> 5
 0.000000e+00 1.000000e+00 0.000000e+00 0.000000e+00 0.000000e+00
 0.000000e+00 7.418424e-01 2.581575e-01 0.000000e+00 0.000000e+00
 0.000000e+00 0.000000e+00 7.418424e-01 2.581576e-01 0.000000e+00
 0.000000e+00 0.000000e+00 0.000000e+00 8.810455e-01 1.189544e-01
 0.000000e+00 0.000000e+00 0.000000e+00 0.000000e+00 0.000000e+00
<ENDHMM>
~h "er"
<BEGINHMM>
<NUMSTATES> 5
<STATE> 2
<MEAN> 39
 -8.712494e+00 5.276893e-01 -8.203473e-01 8.506175e+00 2.056280e+00 -3.416991e+00 3.046032e+00 -5.585514e+00 8.548701e-01 -3.166633e+00 6.688388e-02 -1.292927e+00 5.848742e+01 -8.193994e-02 -1.221014e-02 3.235254e-02 2.192806e-02 -2.888718e-02 6.649569e-02 4.395143e-02 1.026092e-01 1.044846e-01 5.762475e-04 -1.808672e-02 1.115106e-02 -1.058097e-01 1.750998e-03 4.756902e-03 1.400239e-03 1.048710e-04 -3.765982e-04 -1.110108e-03 -3.178437e-04 5.953918e-04 -3.564130e-03 -2.460366e-03 -8.387584e-04 -2.423810e-03 -1.030642e-03
<VARIANCE> 39
 1.099633e+02 7.024480e+01 7.387011e+01 4.760218e+01 7.140795e+01 9.279164e+01 7.294408e+01 5.738565e+01 5.438859e+01 4.899994e+01 3.127974e+01 4.141209e+01 8.970731e+01 2.336282e+00 2.916548e+00 2.630081e+00 2.188648e+00 2.008226e+00 3.100659e+00 2.859483e+00 2.703198e+00 2.681370e+00 2.110318e+00 1.949494e+00 1.654669e+00 1.070371e+00 2.768576e-01 4.158247e-01 3.802722e-01 3.701971e-01 3.488602e-01 5.514897e-01 5.067477e-01 4.773878e-01 4.640703e-01 3.973673e-01 3.652554e-01 3.084267e-01 1.872240e-01
<GCONST> 1.232602e+02
<STATE> 3
<MEAN> 39
 -9.010048e+00 5.329273e-01 -6.866102e-01 8.603409e+00 1.956345e+00 -3.179759e+00 3.198588e+00 -5.195549e+00 1.239024e+00 -3.179421e+00 -3.202805e-03 -1.252784e+00 5.806187e+01 -7.348246e-02 4.935032e-03 3.507798e-02 2.036717e-02 -3.028366e-02 6.108307e-02 4.282304e-02 1.041471e-01 9.105037e-02 -8.332928e-03 -2.167249e-02 3.387168e-03 -1.082437e-01 1.746876e-03 4.326905e-03 8.342482e-04 -7.374315e-04 -6.242222e-04 -1.384818e-03 -5.981455e-04 -7.552732e-05 -3.908134e-03 -2.264338e-03 -5.898179e-04 -1.843948e-03 -6.891981e-04
<VARIANCE> 39
 1.079985e+02 7.039542e+01 7.125939e+01 4.555724e+01 6.886053e+01 9.036951e+01 7.120056e+01 5.469672e+01 5.173694e+01 4.794818e+01 3.081717e+01 4.051597e+01 9.094826e+01 2.334548e+00 2.913745e+00 2.565024e+00 2.123711e+00 1.937176e+00 2.976630e+00 2.756067e+00 2.605112e+00 2.622695e+00 2.051000e+00 1.912692e+00 1.612874e+00 1.001598e+00 2.747318e-01 4.088140e-01 3.737136e-01 3.591465e-01 3.347885e-01 5.294062e-01 4.874607e-01 4.611179e-01 4.572590e-01 3.870648e-01 3.574382e-01 3.017061e-01 1.749904e-01
<GCONST> 1.221853e+02
<STATE> 4
<MEAN> 39
 -1.002557e+01 7.688609e-01 -6.818222e-01 8.723014e+00 1.540602e+00 -2.215474e+00 3.793384e+00 -4.399786e+00 2.015491e+00 -3.048951e+00 6.051919e-03 -1.327052e+00 5.674537e+01 -5.970198e-02 2.816561e-02 3.359631e-02 1.622412e-02 -2.911898e-02 4.825677e-02 3.591360e-02 9.951503e-02 7.347360e-02 -1.824113e-02 -2.439138e-02 -2.848683e-04 -1.109504e-01 1.682940e-03 2.749393e-03 -4.478622e-04 -1.606837e-03 -8.555143e-04 -1.785512e-03 -8.797515e-04 -9.961628e-04 -3.737042e-03 -1.554289e-03 -1.236510e-04 -9.520246e-04 2.447495e-04
<VARIANCE> 39
 9.961813e+01 6.314852e+01 6.165162e+01 3.961504e+01 6.187378e+01 8.124611e+01 6.116195e+01 5.040985e+01 4.669533e+01 4.505767e+01 2.877164e+01 3.887909e+01 9.166582e+01 2.022794e+00 2.596637e+00 2.264467e+00 1.884366e+00 1.761634e+00 2.585148e+00 2.425986e+00 2.397729e+00 2.422879e+00 1.936094e+00 1.820562e+00 1.496833e+00 8.388476e-01 2.376832e-01 3.633613e-01 3.367855e-01 3.214765e-01 3.056408e-01 4.576752e-01 4.281071e-01 4.239623e-01 4.329418e-01 3.681641e-01 3.423375e-01 2.848424e-01 1.459082e-01
<GCONST> 1.182948e+02
<TRANSP> 5
 0.000000e+00 1.000000e+00 0.000000e+00 0.000000e+00 0.000000e+00
 0.000000e+00 7.307115e-01 2.692885e-01 0.000000e+00 0.000000e+00
 0.000000e+00 0.000000e+00 7.307118e-01 2.692883e-01 0.000000e+00
 0.000000e+00 0.000000e+00 0.000000e+00 8.595480e-01 1.404520e-01
 0.000000e+00 0.000000e+00 0.000000e+00 0.000000e+00 0.000000e+00
<ENDHMM>
~h "ey"
<BEGINHMM>
<NUMSTATES> 5
<STATE> 2
<MEAN> 39
 -7.811751e+00 2.259511e+00 1.859634e+00 5.436319e+00 2.924894e-01 -4.673944e+00 -1.790275e+00 -4.911908e+00 -1.342697e+00 -2.525779e+00 -5.476750e-01 -1.776894e+00 5.430328e+01 1.196490e-01 1.054792e-02 8.188242e-02 -6.890708e-02 -1.500318e-01 -1.095908e-01 -1.369563e-02 -7.433494e-02 -4.203098e-02 -8.194423e-02 -3.645815e-02 -6.068604e-02 3.098297e-01 -2.553072e-03 5.399068e-03 -5.853097e-03 5.014758e-03 -6.206666e-04 1.856194e-02 1.036340e-02 4.565227e-03 8.897822e-04 6.841808e-03 1.014392e-02 2.727768e-04 -4.012213e-02
<VARIANCE> 39
 1.153227e+02 8.084467e+01 9.450330e+01 1.223110e+02 1.332186e+02 1.598243e+02 1.042210e+02 7.782893e+01 6.056521e+01 5.786496e+01 4.834290e+01 5.081054e+01 2.181664e+02 2.603597e+00 2.557429e+00 2.588171e+00 3.465127e+00 3.779326e+00 4.658223e+00 3.489172e+00 3.053108e+00 3.613794e+00 3.436989e+00 2.484876e+00 2.084345e+00 3.263162e+00 3.206967e-01 3.821223e-01 3.530205e-01 5.343992e-01 6.264088e-01 6.600708e-01 5.836463e-01 5.388861e-01 6.816184e-01 6.128790e-01 4.349279e-01 3.657290e-01 4.011984e-01
<GCONST> 1.357320e+02
<STATE> 3
<MEAN> 39
 -7.363931e+00 2.340949e+00 2.172310e+00 5.118433e+00 -2.754958e-01 -4.969573e+00 -1.778717e+00 -5.245829e+00 -1.484778e+00 -2.752406e+00 -6.596001e-01 -1.913374e+00 5.525399e+01 9.586486e-02 3.089924e-02 6.433515e-02 -4.674819e-02 -1.241557e-01 -6.524794e-02 8.834904e-03 -7.416005e-02 -3.950588e-02 -4.592096e-02 -1.040227e-02 -3.414716e-02 1.920186e-01 -1.006853e-02 7.526454e-03 -3.856517e-03 6.049552e-03 8.321436e-03 1.772638e-02 4.807481e-03 4.393624e-04 2.881046e-04 1.186790e-02 5.746888e-03 1.128150e-02 -3.843978e-02
<VARIANCE> 39
 1.151926e+02 8.291637e+01 9.766273e+01 1.286546e+02 1.382524e+02 1.571879e+02 1.067409e+02 7.744336e+01 5.839634e+01 5.889790e+01 4.999557e+01 5.103640e+01 1.981965e+02 2.432239e+00 2.567810e+00 2.585469e+00 3.550447e+00 3.684009e+00 4.688637e+00 3.476103e+00 3.009102e+00 3.635091e+00 3.453421e+00 2.515149e+00 2.084859e+00 2.882857e+00 3.027809e-01 3.861225e-01 3.494288e-01 5.470220e-01 6.068616e-01 6.773965e-01 5.722766e-01 5.292044e-01 6.854112e-01 6.159102e-01 4.357624e-01 3.657419e-01 3.686589e-01
<GCONST> 1.354736e+02
<STATE> 4
<MEAN> 39
 -7.726189e+00 2.639253e+00 1.801715e+00 2.724336e+00 -1.238363e+00 -2.783968e+00 -6.204418e-01 -4.306539e+00 -1.669901e+00 -2.880176e+00 -6.436381e-01 -8.897585e-01 5.306993e+01 4.226720e-02 3.544980e-02 2.577919e-02 -3.097738e-02 -4.619814e-02 -4.628361e-02 1.869838e-02 -5.338924e-02 -3.619424e-02 -1.946537e-02 5.997926e-03 1.168933e-02 9.327911e-02 -8.529824e-03 8.212255e-04 -6.027521e-03 4.305854e-03 1.081418e-02 6.829294e-03 1.065309e-03 3.325399e-03 2.244504e-03 4.345758e-03 1.468020e-03 6.050241e-03 -1.777786e-02
<VARIANCE> 39
 1.066461e+02 7.555842e+01 1.034587e+02 1.368979e+02 1.396272e+02 1.597507e+02 1.086715e+02 8.482571e+01 5.911193e+01 5.933018e+01 5.202309e+01 4.831166e+01 1.941925e+02 2.200377e+00 2.296017e+00 2.509353e+00 3.627499e+00 3.473339e+00 4.463542e+00 3.487306e+00 3.111303e+00 3.354822e+00 3.284888e+00 2.549211e+00 2.058640e+00 3.111442e+00 2.800464e-01 3.505306e-01 3.424531e-01 5.669346e-01 5.607499e-01 6.480345e-01 5.514650e-01 5.520563e-01 6.274410e-01 5.921745e-01 4.510316e-01 3.651103e-01 3.833677e-01
<GCONST> 1.348642e+02
<TRANSP> 5
 0.000000e+00 1.000000e+00 0.000000e+00 0.000000e+00 0.000000e+00
 0.000000e+00 7.419804e-01 2.580196e-01 0.000000e+00 0.000000e+00
 0.000000e+00 0.000000e+00 7.419804e-01 2.580196e-01 0.000000e+00
 0.000000e+00 0.000000e+00 0.000000e+00 8.908487e-01 1.091513e-01
 0.000000e+00 0.000000e+00 0.000000e+00 0.000000e+00 0.000000e+00
<ENDHMM>
~h "hh"
<BEGINHMM>
<NUMSTATES> 5
<STATE> 2
<MEAN> 39
 -1.110322e+00 4.920541e+00 1.014970e+00 5.387841e+00 -2.225474e+00 -3.188116e+00 4.804435e+00 -1.151509e-01 2.587178e+00 -3.443904e+00 -8.110803e-01 -3.531979e+00 6.529958e+01 -7.240627e-02 1.605633e-02 3.316003e-02 6.293555e-02 5.671729e-02 1.038103e-01 -2.165956e-02 -7.574552e-02 2.036977e-02 -1.832684e-02 3.249389e-02 1.684136e-02 -1.140222e-01 -1.856941e-03 -4.348687e-03 -2.702214e-03 -2.823158e-04 6.168336e-04 -1.159531e-03 2.851197e-03 1.225492e-03 -1.702417e-03 -2.581377e-04 5.954145e-04 1.327838e-03 1.342996e-03
<VARIANCE> 39
 4.333084e+01 5.090540e+01 4.275273e+01 4.760909e+01 7.163129e+01 8.227505e+01 9.552268e+01 5.777496e+01 5.779636e+01 3.876446e+01 3.748318e+01 5.924242e+01 6.390712e+01 1.062266e+00 1.190161e+00 1.335605e+00 1.529994e+00 1.872785e+00 2.458745e+00 2.790777e+00 2.247766e+00 2.435691e+00 2.085922e+00 1.801018e+00 1.765858e+00 6.941659e-01 1.594126e-01 1.786556e-01 2.234925e-01 2.452715e-01 3.351147e-01 3.578451e-01 4.473376e-01 3.761718e-01 4.168526e-01 3.745601e-01 3.155278e-01 3.085404e-01 9.000390e-02
<GCONST> 1.136395e+02
<STATE> 3
<MEAN> 39
 -1.491980e+00 4.964182e+00 1.168617e+00 5.708943e+00 -1.936519e+00 -2.669701e+00 4.728153e+00 -4.897634e-01 2.674687e+00 -3.541146e+00 -6.447989e-01 -3.451464e+00 6.473425e+01 -8.015408e-02 -4.981284e-03 2.037584e-02 6.137587e-02 5.986053e-02 9.894129e-02 -9.979580e-03 -6.918735e-02 1.334636e-02 -1.993666e-02 3.454868e-02 2.291548e-02 -1.074720e-01 -1.025423e-03 -3.913375e-03 -2.301902e-03 -7.717424e-04 1.805832e-04 -1.068883e-03 2.340640e-03 1.843664e-03 -1.040435e-03 -2.438300e-04 -4.682799e-05 9.931752e-04 1.462089e-03
<VARIANCE> 39
 4.517819e+01 4.729691e+01 4.125837e+01 4.618509e+01 7.129956e+01 7.621399e+01 8.708711e+01 5.404359e+01 5.506537e+01 3.764673e+01 3.526989e+01 5.561155e+01 5.840937e+01 1.016788e+00 1.165312e+00 1.296678e+00 1.462692e+00 1.831176e+00 2.310416e+00 2.658511e+00 2.152592e+00 2.352515e+00 2.054068e+00 1.727853e+00 1.719466e+00 6.213493e-01 1.545858e-01 1.752229e-01 2.178346e-01 2.360816e-01 3.305864e-01 3.428444e-01 4.307217e-01 3.619822e-01 4.054919e-01 3.727534e-01 3.065357e-01 3.026373e-01 8.187052e-02
<GCONST> 1.120426e+02
<STATE> 4
<MEAN> 39
 -2.032997e+00 4.676332e+00 1.464143e+00 6.010452e+00 -1.556351e+00 -1.973163e+00 4.854200e+00 -9.779130e-01 2.657838e+00 -3.493386e+00 -4.304707e-01 -3.218575e+00 6.414159e+01 -8.513422e-02 -2.887761e-02 9.725743e-03 5.921049e-02 6.220428e-02 9.687097e-02 -4.623748e-03 -5.829674e-02 1.336570e-02 -2.169176e-02 3.174593e-02 2.644504e-02 -1.020597e-01 4.113164e-04 -2.386937e-03 -1.506122e-03 -1.758631e-03 -6.976346e-04 -1.258175e-03 1.125399e-03 2.730800e-03 1.564289e-04 2.364708e-04 -8.713383e-04 8.124007e-04 1.382196e-03
<VARIANCE> 39
 4.666685e+01 4.415018e+01 3.917648e+01 4.215730e+01 7.131493e+01 6.739316e+01 7.418661e+01 4.961343e+01 4.951284e+01 3.641543e+01 3.222718e+01 5.055579e+01 5.234359e+01 9.558129e-01 1.157792e+00 1.260806e+00 1.361649e+00 1.733465e+00 2.113942e+00 2.418549e+00 2.051904e+00 2.269018e+00 2.001292e+00 1.665986e+00 1.661206e+00 5.203025e-01 1.483328e-01 1.728571e-01 2.149365e-01 2.213442e-01 3.158788e-01 3.261572e-01 3.980734e-01 3.490620e-01 3.968018e-01 3.662445e-01 3.018593e-01 2.926466e-01 7.020509e-02
<GCONST> 1.097098e+02
<TRANSP> 5
 0.000000e+00 1.000000e+00 0.000000e+00 0.000000e+00 0.000000e+00
 0.000000e+00 8.002993e-01 1.997007e-01 0.000000e+00 0.000000e+00
 0.000000e+00 0.000000e+00 8.002994e-01 1.997006e-01 0.000000e+00
 0.000000e+00 0.000000e+00 0.000000e+00 9.323452e-01 6.765476e-02
 0.000000e+00 0.000000e+00 0.000000e+00 0.000000e+00 0.000000e+00
<ENDHMM>
~h "ih"
<BEGINHMM>
<NUMSTATES> 5
<STATE> 2
<MEAN> 39
 -8.471125e+00 1.630651e+00 2.605334e-01 6.156307e+00 1.241649e+00 -5.581543e+00 -6.078516e-01 -5.900884e+00 -1.070659e+00 -2.295857e+00 3.015810e-01 -3.000848e+00 5.844616e+01 5.543608e-02 -6.013416e-02 1.041539e-01 3.871896e-02 -1.372454e-02 -3.835483e-02 -3.504309e-02 -8.585466e-03 6.434199e-03 -1.079392e-02 1.836593e-03 -4.835452e-04 1.277081e-01 6.758109e-03 -1.980381e-03 9.017261e-03 -9.428088e-03 -4.708123e-03 2.107331e-04 -1.669115e-03 4.511400e-03 1.233348e-04 1.968095e-03 -6.732167e-03 3.932611e-03 -1.309134e-03
<VARIANCE> 39
 1.352775e+02 8.385599e+01 9.760177e+01 1.020672e+02 1.316976e+02 1.455550e+02 1.259163e+02 9.496623e+01 7.185726e+01 5.676145e+01 4.787159e+01 6.029391e+01 1.526097e+02 3.607415e+00 3.348932e+00 3.382106e+00 3.478875e+00 3.442413e+00 5.361692e+00 4.426131e+00 3.503600e+00 3.690650e+00 2.996929e+00 2.493675e+00 2.322290e+00 2.192965e+00 4.628618e-01 5.196229e-01 4.594168e-01 5.159398e-01 5.646592e-01 8.683080e-01 7.806532e-01 6.058921e-01 6.358292e-01 5.380419e-01 4.719207e-01 4.077265e-01 3.254296e-01
<GCONST> 1.381688e+02
<STATE> 3
<MEAN> 39
 -8.224244e+00 1.393757e+00 7.199948e-01 6.192207e+00 1.167190e+00 -5.754210e+00 -7.729111e-01 -5.931037e+00 -1.049535e+00 -2.329088e+00 2.649133e-01 -2.980386e+00 5.896564e+01 7.270863e-02 -6.706948e-02 1.207695e-01 1.582327e-02 -2.743943e-02 -4.223794e-02 -3.870560e-02 3.004355e-03 -6.730141e-04 -7.909692e-03 -1.731213e-02 1.272318e-02 1.181671e-01 2.837502e-03 -2.104627e-03 4.465854e-03 -7.976803e-03 -5.336395e-03 -2.899733e-04 8.555853e-04 4.305440e-03 -2.170426e-03 -2.395271e-04 -6.949113e-03 4.257755e-03 -3.316722e-03
<VARIANCE> 39
 1.319035e+02 8.590297e+01 9.934686e+01 1.064479e+02 1.361790e+02 1.505710e+02 1.282761e+02 9.295282e+01 7.070219e+01 5.877521e+01 4.809196e+01 6.181916e+01 1.403333e+02 3.710693e+00 3.440589e+00 3.478416e+00 3.455588e+00 3.593013e+00 5.515776e+00 4.508155e+00 3.527994e+00 3.670762e+00 3.078159e+00 2.497300e+00 2.352283e+00 2.320877e+00 4.720782e-01 5.331917e-01 4.705684e-01 5.087551e-01 5.846795e-01 8.889596e-01 7.888717e-01 6.089430e-01 6.289782e-01 5.489553e-01 4.744825e-01 4.135246e-01 3.414727e-01
<GCONST> 1.387278e+02
<STATE> 4
<MEAN> 39
 -8.428888e+00 4.739223e-01 1.033557e+00 5.415606e+00 -5.933774e-02 -5.006127e+00 -1.360499e+00 -5.114361e+00 -8.907999e-01 -2.318125e+00 7.918233e-02 -2.375300e+00 5.823471e+01 5.742964e-02 -6.274948e-02 8.784655e-02 8.987138e-03 -3.011334e-02 -3.301720e-02 -3.093581e-02 7.913871e-03 -1.314281e-02 -1.386142e-02 -1.888130e-02 2.990366e-02 8.223360e-02 -5.140652e-03 5.511109e-04 -5.433203e-03 -1.684257e-03 1.951390e-04 3.865019e-03 5.451725e-03 3.318714e-03 -1.665872e-03 -1.750843e-03 -2.258249e-03 3.266311e-03 -9.710060e-03
<VARIANCE> 39
 1.274605e+02 9.276442e+01 1.065824e+02 1.134459e+02 1.500458e+02 1.638995e+02 1.461314e+02 9.026241e+01 6.787055e+01 6.385820e+01 4.528283e+01 6.526467e+01 1.427715e+02 3.698940e+00 3.365098e+00 3.557933e+00 3.361135e+00 3.720069e+00 5.682231e+00 4.388215e+00 3.600537e+00 3.722487e+00 3.152588e+00 2.518086e+00 2.390039e+00 2.530202e+00 4.658615e-01 5.144262e-01 4.837489e-01 4.857089e-01 6.080563e-01 8.901030e-01 7.667459e-01 6.277751e-01 6.366023e-01 5.654929e-01 4.796142e-01 4.171393e-01 3.588603e-01
<GCONST> 1.395018e+02
<TRANSP> 5
 0.000000e+00 1.000000e+00 0.000000e+00 0.000000e+00 0.000000e+00
 0.000000e+00 7.196683e-01 2.803316e-01 0.000000e+00 0.000000e+00
 0.000000e+00 0.000000e+00 7.196686e-01 2.803314e-01 0.000000e+00
 0.000000e+00 0.000000e+00 0.000000e+00 8.507469e-01 1.492531e-01
 0.000000e+00 0.000000e+00 0.000000e+00 0.000000e+00 0.000000e+00
<ENDHMM>
~h "iy"
<BEGINHMM>
<NUMSTATES> 5
<STATE> 2
<MEAN> 39
 -7.457613e+00 1.012537e+00 2.064551e+00 6.107604e+00 -2.465505e+00 -4.054653e+00 -2.158931e+00 -4.339088e+00 -1.685685e+00 -3.163568e+00 -2.252767e-01 -1.062148e+00 5.430566e+01 6.288704e-02 -5.099729e-02 -5.774381e-02 4.079254e-02 1.936014e-02 8.058819e-02 1.774489e-02 3.720205e-02 2.894215e-02 1.494471e-02 -2.432660e-02 7.404361e-04 -4.371656e-02 -4.733891e-04 -3.016801e-03 -1.582754e-02 -2.136979e-03 8.339480e-03 3.660794e-03 3.839921e-03 9.074600e-04 -1.757410e-03 3.573133e-03 -2.894983e-03 -1.186569e-03 -6.411837e-03
<VARIANCE> 39
 1.063726e+02 7.759174e+01 1.065449e+02 8.241129e+01 1.249137e+02 1.069991e+02 1.198284e+02 7.160110e+01 7.023933e+01 5.384627e+01 4.850047e+01 4.701105e+01 1.346134e+02 1.931575e+00 2.104895e+00 2.633732e+00 2.310964e+00 2.861793e+00 3.185016e+00 3.101532e+00 2.746024e+00 2.861289e+00 2.385482e+00 2.172788e+00 1.918729e+00 1.127007e+00 2.235603e-01 2.981957e-01 3.284170e-01 3.508415e-01 4.339595e-01 4.969034e-01 5.134996e-01 4.642928e-01 4.923911e-01 4.300628e-01 3.819677e-01 3.377700e-01 1.434826e-01
<GCONST> 1.268559e+02
<STATE> 3
<MEAN> 39
 -7.217769e+00 8.066101e-01 1.709422e+00 6.207570e+00 -2.339225e+00 -3.765029e+00 -2.050320e+00 -4.180125e+00 -1.591951e+00 -3.079961e+00 -3.186535e-01 -1.075126e+00 5.411641e+01 5.334223e-02 -5.567576e-02 -1.210162e-01 2.701241e-02 5.789186e-02 9.227899e-02 3.187807e-02 4.312050e-02 2.257659e-02 2.446733e-02 -2.791156e-02 -2.681589e-03 -6.860029e-02 -2.722376e-03 1.073891e-03 -1.447427e-02 -4.660617e-03 8.817138e-03 1.668201e-03 2.613913e-03 -1.651165e-04 -1.873453e-03 2.265082e-03 4.205132e-04 -1.434805e-03 -4.635397e-03
<VARIANCE> 39
 1.047317e+02 7.723851e+01 1.045090e+02 8.203847e+01 1.241768e+02 1.032755e+02 1.189646e+02 7.258829e+01 6.939506e+01 5.366724e+01 4.654774e+01 4.581119e+01 1.328392e+02 1.838215e+00 1.996662e+00 2.611837e+00 2.292238e+00 2.833954e+00 3.107812e+00 3.030798e+00 2.663436e+00 2.771034e+00 2.345547e+00 2.153164e+00 1.864019e+00 1.074394e+00 2.135773e-01 2.876327e-01 3.192891e-01 3.469289e-01 4.266357e-01 4.819350e-01 5.034406e-01 4.470728e-01 4.755758e-01 4.222301e-01 3.809739e-01 3.273722e-01 1.381060e-01
<GCONST> 1.259885e+02
<STATE> 4
<MEAN> 39
 -6.813950e+00 1.235359e-01 -1.622365e-01 5.002383e+00 -2.926441e+00 -2.459040e+00 -2.452325e+00 -2.987798e+00 -1.423576e+00 -2.794575e+00 -3.397612e-01 -7.360678e-01 5.150676e+01 9.541659e-03 -3.066369e-02 -1.725826e-01 -1.015859e-02 9.522127e-02 8.734865e-02 5.651189e-02 4.243768e-02 7.645155e-03 3.177676e-02 -5.848800e-03 -5.503621e-03 -9.799933e-02 -4.541551e-03 4.529657e-03 -4.214371e-03 -4.627453e-03 3.458540e-03 7.201976e-04 1.483113e-03 -2.018042e-03 -9.637400e-04 4.225693e-04 2.461977e-03 -1.177014e-03 -2.838006e-03
<VARIANCE> 39
 1.033221e+02 7.983746e+01 1.093333e+02 8.493357e+01 1.307575e+02 9.979536e+01 1.221094e+02 7.155674e+01 6.640211e+01 5.254263e+01 4.287443e+01 4.154037e+01 1.488400e+02 1.517169e+00 1.806881e+00 2.384678e+00 2.235685e+00 2.560789e+00 3.021305e+00 2.885620e+00 2.559017e+00 2.671911e+00 2.342282e+00 2.132616e+00 1.787900e+00 1.002040e+00 1.753002e-01 2.695464e-01 2.918325e-01 3.339763e-01 3.924649e-01 4.516048e-01 4.856825e-01 4.224428e-01 4.628121e-01 4.243046e-01 3.867561e-01 3.192289e-01 1.286849e-01
<GCONST> 1.244655e+02
<TRANSP> 5
 0.000000e+00 1.000000e+00 0.000000e+00 0.000000e+00 0.000000e+00
 0.000000e+00 7.371850e-01 2.628149e-01 0.000000e+00 0.000000e+00
 0.000000e+00 0.000000e+00 7.371851e-01 2.628149e-01 0.000000e+00
 0.000000e+00 0.000000e+00 0.000000e+00 8.827028e-01 1.172972e-01
 0.000000e+00 0.000000e+00 0.000000e+00 0.000000e+00 0.000000e+00
<ENDHMM>
~h "ng"
<BEGINHMM>
<NUMSTATES> 5
<STATE> 2
<MEAN> 39
 -5.612545e+00 7.654772e-01 5.341696e+00 1.184026e+01 4.903366e-01 -5.412239e+00 4.520792e+00 -3.256685e+00 5.684540e-01 -8.618445e-01 -1.585359e+00 -3.550089e+00 6.281388e+01 -1.099114e-01 2.126625e-02 1.089199e-02 2.120476e-02 3.230705e-02 2.584229e-01 1.257078e-01 1.112504e-02 -9.329465e-03 -3.122064e-02 4.434688e-02 5.760091e-02 -1.840385e-01 1.256678e-03 -1.380774e-03 -1.077084e-02 -8.216861e-03 -3.297150e-03 -1.214936e-03 -9.818207e-04 2.414586e-03 3.306203e-03 -4.446383e-04 7.494740e-04 3.004649e-03 -9.159507e-04
<VARIANCE> 39
 5.019619e+01 8.210390e+01 4.305533e+01 3.613718e+01 5.314380e+01 9.016198e+01 7.752087e+01 5.505722e+01 4.919026e+01 5.006693e+01 2.967777e+01 4.465263e+01 4.649034e+01 3.421875e+00 5.069259e+00 2.610629e+00 1.864087e+00 2.168196e+00 3.817057e+00 3.001296e+00 3.068314e+00 3.921776e+00 3.405453e+00 1.688469e+00 1.851185e+00 1.340128e+00 5.052605e-01 6.951557e-01 3.911416e-01 3.101276e-01 3.854875e-01 6.411712e-01 5.459812e-01 5.360212e-01 6.972612e-01 5.965405e-01 3.173972e-01 3.322146e-01 2.334281e-01
<GCONST> 1.254518e+02
<STATE> 3
<MEAN> 39
 -5.995184e+00 8.495680e-01 5.345231e+00 1.188690e+01 6.068152e-01 -4.465765e+00 4.953512e+00 -3.218230e+00 5.582459e-01 -9.801357e-01 -1.424280e+00 -3.325638e+00 6.213300e+01 -1.054486e-01 1.467836e-02 -2.936186e-02 -8.874821e-03 1.878706e-02 2.516213e-01 1.210403e-01 2.011190e-02 3.000398e-03 -3.142063e-02 4.737491e-02 6.821641e-02 -1.861230e-01 7.059560e-04 -3.394386e-03 -1.101873e-02 -7.979528e-03 -4.256758e-03 -3.322471e-03 -2.217385e-03 2.078102e-03 3.615579e-03 8.419478e-04 1.117697e-03 2.487768e-03 2.933396e-04
<VARIANCE> 39
 4.588152e+01 7.532496e+01 3.793716e+01 3.387543e+01 5.300673e+01 8.545553e+01 6.813525e+01 5.097726e+01 4.718133e+01 4.925744e+01 2.816365e+01 4.330557e+01 4.446798e+01 3.073811e+00 4.607111e+00 2.356073e+00 1.800070e+00 2.046162e+00 3.524006e+00 2.853522e+00 2.862034e+00 3.714297e+00 3.385822e+00 1.611424e+00 1.797630e+00 1.232833e+00 4.650245e-01 6.327093e-01 3.607758e-01 2.996151e-01 3.675510e-01 6.015794e-01 5.308897e-01 5.075805e-01 6.583047e-01 5.982897e-01 3.013738e-01 3.257052e-01 2.148293e-01
<GCONST> 1.231234e+02
<STATE> 4
<MEAN> 39
 -6.338241e+00 8.185256e-01 5.140196e+00 1.175226e+01 7.901782e-01 -3.401500e+00 5.532094e+00 -3.086128e+00 5.573080e-01 -1.111595e+00 -1.207402e+00 -3.134939e+00 6.144079e+01 -9.806032e-02 2.825133e-03 -7.447872e-02 -4.127985e-02 1.005765e-03 2.358304e-01 1.039845e-01 2.649571e-02 2.004204e-02 -2.798330e-02 5.142150e-02 7.885718e-02 -1.841283e-01 4.565505e-04 -4.752249e-03 -1.009803e-02 -7.101784e-03 -4.979285e-03 -5.569803e-03 -3.610114e-03 1.415607e-03 3.123902e-03 1.644453e-03 1.456277e-03 1.823416e-03 1.687813e-03
<VARIANCE> 39
 4.180940e+01 6.706081e+01 3.296335e+01 3.234502e+01 5.386288e+01 7.913233e+01 5.768935e+01 4.717916e+01 4.490659e+01 4.889407e+01 2.653504e+01 4.209541e+01 4.191104e+01 2.683411e+00 3.982259e+00 2.052412e+00 1.754702e+00 1.924052e+00 3.213285e+00 2.718402e+00 2.667474e+00 3.479186e+00 3.410238e+00 1.526806e+00 1.728416e+00 1.105288e+00 4.176535e-01 5.477225e-01 3.192738e-01 2.910664e-01 3.490756e-01 5.591619e-01 5.207502e-01 4.800324e-01 6.132903e-01 6.082998e-01 2.830417e-01 3.163068e-01 1.919045e-01
<GCONST> 1.203787e+02
<TRANSP> 5
 0.000000e+00 1.000000e+00 0.000000e+00 0.000000e+00 0.000000e+00
 0.000000e+00 7.270038e-01 2.729962e-01 0.000000e+00 0.000000e+00
 0.000000e+00 0.000000e+00 7.270038e-01 2.729962e-01 0.000000e+00
 0.000000e+00 0.000000e+00 0.000000e+00 8.467775e-01 1.532225e-01
 0.000000e+00 0.000000e+00 0.000000e+00 0.000000e+00 0.000000e+00
<ENDHMM>
~h "ow"
<BEGINHMM>
<NUMSTATES> 5
<STATE> 2
<MEAN> 39
 -4.388323e+00 2.856925e+00 -3.532792e+00 2.781989e+00 -2.389948e+00 -1.060620e+00 6.755359e-01 -2.869520e+00 -5.360165e-01 -3.294488e+00 2.385592e-01 -2.427688e+00 5.627406e+01 2.000597e-02 5.589877e-02 -1.211565e-02 -6.652328e-02 5.381413e-03 1.009794e-02 3.582514e-02 -4.082235e-02 -5.890836e-02 -3.894503e-02 8.551965e-03 2.390900e-03 -5.261187e-03 -7.980491e-03 -9.177874e-04 4.789185e-03 1.182584e-02 3.608739e-04 -7.227223e-03 2.934544e-03 4.840656e-03 5.026862e-03 -2.950442e-03 -7.199787e-03 3.812497e-03 -9.147136e-03
<VARIANCE> 39
 1.084115e+02 7.561190e+01 7.002162e+01 1.039837e+02 1.105539e+02 1.034546e+02 9.309730e+01 7.509606e+01 7.800957e+01 5.775002e+01 6.083691e+01 5.381502e+01 1.760967e+02 1.738329e+00 1.471025e+00 1.790928e+00 2.631864e+00 2.441634e+00 3.016422e+00 2.926208e+00 2.559842e+00 3.036011e+00 2.386297e+00 2.611884e+00 2.014869e+00 1.690311e+00 2.237263e-01 2.111409e-01 2.765863e-01 4.071684e-01 3.902905e-01 4.629070e-01 4.879023e-01 4.377292e-01 5.179422e-01 4.181775e-01 4.472829e-01 3.672878e-01 2.187888e-01
<GCONST> 1.267753e+02
<STATE> 3
<MEAN> 39
 -4.325083e+00 3.104865e+00 -3.498512e+00 2.551366e+00 -2.402519e+00 -1.090812e+00 8.133864e-01 -3.007607e+00 -7.621859e-01 -3.463674e+00 2.193460e-01 -2.362281e+00 5.621069e+01 -1.535949e-02 4.679330e-02 8.914219e-03 -2.088734e-02 5.279073e-03 -1.117063e-02 4.462184e-02 -1.870911e-02 -3.882488e-02 -3.538363e-02 -2.134352e-02 1.693376e-02 -4.266521e-02 -6.237577e-03 -4.183994e-03 3.140127e-03 1.185971e-02 -7.893164e-04 -4.658861e-03 -6.161236e-04 6.337457e-03 6.446911e-03 2.444228e-03 -7.857098e-03 2.602432e-03 -7.766299e-03
<VARIANCE> 39
 1.061494e+02 7.245192e+01 6.563336e+01 1.042381e+02 1.177351e+02 1.051962e+02 9.250288e+01 7.578222e+01 7.820201e+01 5.697519e+01 5.992670e+01 5.427463e+01 1.791916e+02 1.676827e+00 1.522369e+00 1.767659e+00 2.482279e+00 2.522745e+00 2.991325e+00 2.909132e+00 2.584923e+00 2.920042e+00 2.449262e+00 2.492453e+00 1.920964e+00 1.587094e+00 2.166917e-01 2.174741e-01 2.788987e-01 3.875410e-01 4.049083e-01 4.626909e-01 4.882516e-01 4.462007e-01 4.943270e-01 4.316926e-01 4.284565e-01 3.481908e-01 2.086480e-01
<GCONST> 1.263699e+02
<STATE> 4
<MEAN> 39
 -4.888540e+00 2.766952e+00 -3.623340e+00 1.566355e+00 -3.519489e+00 -9.830468e-01 3.877783e-01 -1.774735e+00 -6.463192e-01 -3.181881e+00 8.173426e-02 -1.545772e+00 5.325529e+01 -6.516086e-02 1.021827e-02 2.585300e-02 5.300753e-02 1.472834e-02 -1.452837e-02 4.555853e-02 1.761800e-02 -1.920402e-02 1.735875e-03 -1.728836e-02 2.319452e-02 -8.450241e-02 -4.594236e-03 -4.620771e-03 3.479563e-04 8.021008e-03 1.213763e-03 -4.474800e-04 -1.486358e-03 4.488450e-03 3.626190e-03 3.212130e-03 -7.378596e-04 -5.642211e-04 -4.353617e-03
<VARIANCE> 39
 1.037730e+02 7.153174e+01 5.738811e+01 9.615961e+01 1.288902e+02 9.962840e+01 9.773095e+01 7.160238e+01 7.299258e+01 5.680505e+01 4.896519e+01 5.301746e+01 2.191513e+02 1.515461e+00 1.533189e+00 1.541841e+00 2.175421e+00 2.322352e+00 2.844934e+00 2.691526e+00 2.499452e+00 2.716536e+00 2.581928e+00 2.259306e+00 1.861490e+00 1.468301e+00 1.984027e-01 2.240968e-01 2.506460e-01 3.371241e-01 3.797123e-01 4.547477e-01 4.634471e-01 4.418830e-01 4.686748e-01 4.636489e-01 3.990429e-01 3.350368e-01 1.888379e-01
<GCONST> 1.245849e+02
<TRANSP> 5
 0.000000e+00 1.000000e+00 0.000000e+00 0.000000e+00 0.000000e+00
 0.000000e+00 7.772149e-01 2.227850e-01 0.000000e+00 0.000000e+00
 0.000000e+00 0.000000e+00 7.772152e-01 2.227849e-01 0.000000e+00
 0.000000e+00 0.000000e+00 0.000000e+00 9.226366e-01 7.736336e-02
 0.000000e+00 0.000000e+00 0.000000e+00 0.000000e+00 0.000000e+00
<ENDHMM>
~h "sh"
<BEGINHMM>
<NUMSTATES> 5
<STATE> 2
<MEAN> 39
 -4.773270e+00 5.256959e-01 1.376374e+00 8.226532e+00 1.322786e+00 -8.562720e+00 1.771761e+00 -3.932911e+00 7.225352e-01 -4.040431e+00 -1.863430e+00 -2.468324e+00 6.316206e+01 -1.555413e-01 -5.277201e-02 5.667478e-02 6.634281e-02 -9.467420e-03 7.828400e-02 5.697564e-02 1.670578e-02 -3.694845e-03 4.124049e-02 4.377816e-02 8.000487e-03 -1.086469e-01 -2.517646e-03 -1.568348e-03 1.623596e-03 2.483572e-03 3.950419e-03 3.182006e-03 2.481820e-04 -5.238805e-03 -1.208563e-03 8.116366e-04 1.614558e-03 7.361616e-04 -7.966111e-04
<VARIANCE> 39
 1.173458e+02 1.147819e+02 7.124628e+01 5.241554e+01 8.276838e+01 9.463964e+01 1.144648e+02 6.556236e+01 6.557407e+01 5.822208e+01 4.451328e+01 4.616704e+01 6.220502e+01 4.361918e+00 5.073679e+00 3.324950e+00 2.663693e+00 2.722123e+00 4.420063e+00 3.904981e+00 4.137543e+00 4.240972e+00 2.822908e+00 2.323188e+00 2.059626e+00 1.290905e+00 5.089872e-01 6.655804e-01 4.802174e-01 4.549578e-01 4.221506e-01 7.346807e-01 6.590719e-01 6.702980e-01 7.373725e-01 4.939037e-01 3.933062e-01 3.776313e-01 2.265298e-01
<GCONST> 1.331644e+02
