~o
<STREAMINFO> 1 39
<VECSIZE> 39<NULLD><MFCC_D_A_0><DIAGC>
~h "b"
<BEGINHMM>
<NUMSTATES> 5
<STATE> 2
<MEAN> 39
 3.161481e+00 7.990706e+00 -5.481141e+00 2.798073e+00 1.010834e+01 -5.066323e+00 -1.196222e-01 -5.797581e+00 -1.302955e+01 -5.806602e+00 -2.199654e+00 -7.503269e-01 6.816092e+01 -2.051980e+00 -8.469056e-02 6.468527e-01 5.833473e-01 5.248957e-01 6.775427e-01 1.964018e+00 1.501867e-01 3.253027e-02 -3.208211e-03 2.746491e-01 7.498766e-01 -1.265051e+00 -1.978084e-01 -3.097262e-01 -1.415311e-01 -4.553049e-01 -7.375197e-01 4.080228e-03 3.287968e-02 3.448871e-01 8.221836e-01 3.871566e-02 4.306246e-02 1.567729e-02 -3.450229e-01
<VARIANCE> 39
 2.837089e+01 6.573579e+01 1.318117e+02 5.551842e+01 1.036349e+02 9.998499e+00 3.106420e+01 2.245146e+01 1.146563e+01 5.607941e+01 1.001289e+00 3.622088e+01 5.330418e+01 5.299015e-01 3.563762e+00 3.354299e+00 4.012732e+00 2.161651e+00 2.676127e+00 2.094318e+00 5.398268e+00 2.988279e+00 1.736553e+00 2.520640e-01 1.452282e+00 1.703274e+00 2.282509e-01 2.850415e-01 6.133446e-01 2.815958e-01 4.690816e-01 6.057045e-01 5.516396e-01 1.308534e+00 1.925937e-01 4.519011e-01 4.657892e-02 5.237681e-01 1.949783e-01
<GCONST> 1.103579e+02
<STATE> 3
<MEAN> 39
 -2.519503e+00 6.905677e+00 -7.819957e+00 1.168499e+00 3.925564e+00 -1.491023e+00 5.950721e+00 -7.852840e+00 -5.165645e+00 -2.946037e+00 -1.031110e+00 -1.919461e+00 6.104274e+01 -1.067496e+00 -1.381091e+00 -8.767733e-01 -7.227754e-01 -1.188658e+00 1.865772e-01 -5.439574e-01 -1.890604e+00 9.102783e-01 2.141398e-01 1.294190e+00 -2.210916e-01 -6.912368e-01 2.728906e-01 3.833377e-02 3.872263e-01 -4.113803e-02 4.540813e-01 -6.867786e-01 -3.397679e-01 -2.223743e-01 -6.588002e-01 -6.717513e-02 1.340377e-01 4.705827e-04 7.186704e-01
<VARIANCE> 39
 3.586741e+01 1.301652e+01 1.117606e+02 9.418492e+01 2.680621e+01 2.746703e+01 8.286280e+00 4.042992e+01 1.941469e+01 2.140221e+01 6.477174e+00 3.116696e+01 2.107737e+01 7.086611e-01 2.441285e+00 2.628165e+00 2.887254e+00 6.023200e+00 6.116263e+00 1.154141e+00 4.090435e+00 2.259939e+00 2.778916e+00 7.155909e-01 1.886841e+00 2.031847e+00 3.237032e-01 5.814788e-01 7.123315e-01 7.973689e-01 9.628853e-01 1.586912e+00 5.892462e-01 8.326237e-01 4.501321e-01 3.108509e-01 2.589827e-01 2.741576e-01 4.684979e-01
<GCONST> 1.165721e+02
<STATE> 4
<MEAN> 39
 -3.219566e+00 7.320998e+00 1.082602e+00 4.541585e+00 8.195655e+00 -6.123190e+00 -1.655289e+00 -9.111802e+00 -9.593508e+00 -8.371351e+00 1.568077e+00 -2.186754e+00 6.488097e+01 5.766625e-02 2.489255e-01 6.083082e-01 5.052294e-01 8.884000e-02 -2.553930e-01 -4.572502e-02 5.327347e-02 5.880367e-02 -8.984062e-02 -2.156418e-01 1.930000e-02 1.630481e-01 3.342136e-02 -5.294092e-02 -1.474575e-03 1.069556e-01 -4.621412e-02 -2.694300e-02 1.008766e-01 1.347487e-01 8.361838e-02 6.842933e-03 -1.809827e-01 -9.161830e-03 6.676172e-02
<VARIANCE> 39
 2.981902e+01 5.942977e+01 4.050724e+01 7.680421e+01 6.870188e+01 6.489677e+01 2.893532e+01 1.823368e+01 6.975266e+01 2.520051e+01 1.681591e+01 2.234196e+01 4.453046e+01 4.605810e+00 6.748385e+00 2.252707e+00 4.147654e+00 6.776181e+00 1.067730e+01 4.832385e+00 2.879338e+00 8.212805e+00 3.198659e+00 1.798618e+00 1.003291e+00 5.770311e+00 1.066010e+00 1.353510e+00 2.433916e-01 6.084163e-01 1.091022e+00 2.028233e+00 1.120785e+00 4.875212e-01 1.038871e+00 6.977149e-01 2.596582e-01 1.962860e-01 1.060454e+00
<GCONST> 1.326716e+02
<TRANSP> 5
 0.000000e+00 1.000000e+00 0.000000e+00 0.000000e+00 0.000000e+00
 0.000000e+00 6.377586e-01 3.622414e-01 0.000000e+00 0.000000e+00
 0.000000e+00 0.000000e+00 6.498168e-01 3.501833e-01 0.000000e+00
 0.000000e+00 0.000000e+00 0.000000e+00 8.529844e-01 1.470155e-01
 0.000000e+00 0.000000e+00 0.000000e+00 0.000000e+00 0.000000e+00
<ENDHMM>
~h "d"
<BEGINHMM>
<NUMSTATES> 5
<STATE> 2
<MEAN> 39
 -7.218346e+00 6.395796e+00 -2.869714e+00 4.940334e+00 -2.441777e+00 2.751206e+00 1.018694e+01 4.210267e+00 8.934288e+00 -4.745185e+00 -4.364743e+00 -8.086117e+00 5.661200e+01 -8.034616e-01 -7.786993e-01 -2.709482e-01 8.583130e-01 1.007578e+00 -1.645427e-01 -8.977980e-01 -7.138701e-02 7.850778e-01 5.262942e-01 1.488663e-01 4.742067e-01 -4.947392e-01 1.708354e-01 6.097530e-02 2.043498e-03 1.100843e-01 -4.224964e-02 -2.064682e-01 -3.190938e-01 -4.549213e-01 -6.478667e-01 -2.759619e-01 7.675385e-02 9.184384e-02 8.143570e-02
<VARIANCE> 39
 2.289262e+01 3.175110e+01 4.056739e+01 2.370309e+01 1.246552e+01 2.446484e+01 2.165385e+01 1.090633e+01 1.584322e+01 2.025896e+01 1.292910e+01 2.810069e+01 2.173764e+00 5.232685e-01 4.023744e-01 6.599523e-01 1.269670e+00 1.436865e+00 1.552660e+00 1.855234e+00 1.733698e+00 3.217795e+00 8.546610e-01 1.864504e+00 8.266775e-01 1.820612e-01 1.011241e-01 9.376103e-02 9.287230e-02 1.841371e-01 3.205621e-01 2.275818e-01 2.081878e-01 1.371914e-01 2.164084e-01 1.433879e-01 2.759389e-01 1.318648e-01 2.781504e-02
<GCONST> 8.346987e+01
<STATE> 3
<MEAN> 39
 -1.257255e+01 3.556503e+00 -4.694197e+00 6.642480e+00 1.370162e+00 2.699143e+00 6.184764e+00 1.902513e+00 7.160420e+00 -6.579692e+00 -1.152259e+00 -6.485519e+00 5.194592e+01 -1.422811e-01 -3.003013e-02 -1.463560e-02 -3.312352e-02 -6.979981e-02 -2.509997e-02 -1.204396e-02 -3.159533e-02 -5.646441e-02 -1.018760e-02 9.288380e-02 7.635701e-02 -1.560471e-01 2.384127e-02 1.460447e-02 4.741106e-03 -1.428634e-02 -3.780141e-02 8.311013e-03 2.579698e-02 4.559491e-02 2.347282e-02 4.393581e-03 -2.016037e-02 -2.430014e-02 1.142079e-02
<VARIANCE> 39
 3.825831e+00 4.992838e+00 1.266126e+01 1.368437e+01 1.322918e+01 1.565724e+01 1.395986e+01 1.689100e+01 1.329222e+01 1.239578e+01 1.297541e+01 1.188864e+01 5.579516e+00 2.331731e-01 3.704017e-01 6.924509e-01 9.077879e-01 1.042438e+00 9.132573e-01 1.030515e+00 1.409947e+00 1.214616e+00 8.668984e-01 1.159747e+00 9.854246e-01 8.659595e-02 3.645443e-02 6.438416e-02 1.115628e-01 1.812685e-01 2.328122e-01 1.658791e-01 1.683073e-01 2.433630e-01 2.370840e-01 1.640337e-01 2.357045e-01 1.545397e-01 1.326453e-02
<GCONST> 7.030318e+01
<STATE> 4
<MEAN> 39
 -1.507971e+01 3.186325e-01 -1.903615e-01 1.052131e+01 -5.602697e-01 1.368685e+00 6.088552e+00 -5.607793e-01 4.646120e+00 -2.313310e+00 1.643033e-01 -8.114737e-01 4.956271e+01 -2.947828e-02 2.176370e-02 1.918222e-02 3.203413e-02 2.517044e-02 5.041923e-02 4.337641e-02 4.936302e-02 2.268009e-02 -7.752332e-03 8.747687e-03 1.457632e-02 -7.274990e-02 5.444865e-03 -1.126659e-02 -5.651121e-03 3.577835e-03 1.753096e-02 2.310161e-03 -2.396095e-03 -6.557213e-03 -6.430568e-03 -1.257775e-02 -9.354385e-03 4.576173e-03 9.684798e-03
<VARIANCE> 39
 6.756956e+00 2.642157e+01 5.832104e+00 1.040100e+01 4.015777e+01 3.241454e+01 1.502237e+01 1.491465e+01 1.732804e+01 2.580356e+01 1.386922e+01 4.075065e+01 5.996978e+01 1.882895e-01 6.637674e-01 5.130323e-01 9.200429e-01 8.322474e-01 1.075640e+00 1.398626e+00 1.282472e+00 1.472333e+00 1.061278e+00 1.207607e+00 1.172694e+00 2.388381e-01 4.070097e-02 1.547327e-01 1.088908e-01 1.965183e-01 1.615223e-01 1.936712e-01 2.895055e-01 2.648109e-01 3.173472e-01 2.244416e-01 2.439067e-01 2.125599e-01 4.130203e-02
<GCONST> 8.335665e+01
<TRANSP> 5
 0.000000e+00 1.000000e+00 0.000000e+00 0.000000e+00 0.000000e+00
 0.000000e+00 7.644517e-01 2.355484e-01 0.000000e+00 0.000000e+00
 0.000000e+00 0.000000e+00 9.560837e-01 4.391626e-02 0.000000e+00
 0.000000e+00 0.000000e+00 0.000000e+00 9.764972e-01 2.350277e-02
 0.000000e+00 0.000000e+00 0.000000e+00 0.000000e+00 0.000000e+00
<ENDHMM>
~h "f"
<BEGINHMM>
<NUMSTATES> 5
<STATE> 2
<MEAN> 39
 -1.522037e+01 1.057995e+00 -5.084175e+00 7.891309e+00 4.695336e+00 9.867747e-01 7.692537e+00 -3.126779e+00 2.306231e+00 -3.306075e+00 9.444453e-01 -9.456049e-01 5.913830e+01 -6.267217e-01 -2.186454e-01 -8.094541e-02 -9.939967e-02 2.180110e-01 -1.138807e-01 9.333348e-02 6.289896e-02 2.280622e-01 -2.289011e-02 -1.136243e-03 1.894624e-01 2.685358e-01 1.863430e-01 5.526559e-02 2.742314e-03 -4.991077e-02 -2.293760e-02 -8.455622e-02 -1.111569e-01 -6.040716e-02 -9.918678e-02 -1.083213e-02 -2.474724e-02 -8.502536e-02 8.659354e-03
<VARIANCE> 39
 5.452123e+01 5.594362e+01 4.869696e+01 6.107339e+01 8.947808e+01 8.785179e+01 4.508035e+01 5.270381e+01 6.003540e+01 5.773690e+01 3.796238e+01 5.089533e+01 9.956699e+01 2.322479e+00 2.164039e+00 1.561637e+00 1.692192e+00 2.630898e+00 2.551490e+00 2.888226e+00 2.639273e+00 2.958892e+00 2.318477e+00 2.308886e+00 2.058090e+00 9.941730e-01 3.930426e-01 4.000297e-01 2.865757e-01 3.356101e-01 5.124386e-01 4.822460e-01 5.901537e-01 5.059524e-01 5.073938e-01 4.431152e-01 4.530990e-01 4.034343e-01 1.493890e-01
<GCONST> 1.228674e+02
<STATE> 3
<MEAN> 39
 -1.868057e+01 -3.489179e-01 -4.242130e+00 4.742603e+00 7.971225e+00 -1.450597e+00 5.392385e+00 -4.797419e+00 -1.639224e+00 -2.158772e+00 1.546821e+00 -7.870727e-01 5.626822e+01 2.584298e+00 8.426109e-01 -5.678788e-01 -1.422657e+00 -9.584159e-01 -7.045344e-01 -7.661667e-01 -3.862541e-01 -3.464943e-01 -2.370495e-01 -6.455128e-01 -7.053830e-01 5.603536e-01 1.180934e+00 3.218851e-01 -1.182574e-01 -5.247870e-01 -7.871335e-01 -3.319262e-01 -1.884477e-01 -1.052144e-01 -1.010046e-01 -3.052219e-02 -2.455297e-01 -2.150696e-01 5.060167e-01
<VARIANCE> 39
 5.637904e+01 5.314478e+01 4.601511e+01 5.053232e+01 1.126171e+02 6.596214e+01 7.114331e+01 5.909405e+01 5.998862e+01 1.119024e+02 4.966478e+01 4.222425e+01 1.490996e+02 1.008184e+01 6.106477e+00 3.666715e+00 6.819357e+00 7.303747e+00 5.500665e+00 4.753376e+00 4.268270e+00 5.085029e+00 5.066366e+00 2.557945e+00 3.173597e+00 3.003248e+00 8.357247e-01 7.918320e-01 5.931034e-01 9.952886e-01 1.262292e+00 1.199796e+00 9.933996e-01 8.175219e-01 1.012084e+00 1.015127e+00 5.359910e-01 6.849835e-01 5.007718e-01
<GCONST> 1.442411e+02
<STATE> 4
<MEAN> 39
 -2.080025e+00 -3.560261e+00 -2.793839e+00 -5.645322e+00 -8.117231e+00 -3.037626e-01 -2.413210e+00 -5.754312e+00 -1.012479e+00 -5.594956e+00 -1.167037e+00 -2.259135e+00 5.463115e+01 4.244302e+00 9.221815e-01 -6.863689e-01 -2.458304e+00 -2.145267e+00 -8.892789e-01 -6.062530e-01 -4.152919e-01 -3.953828e-01 -3.998741e-01 -3.214780e-01 -7.898867e-01 2.408242e+00 -5.041862e-01 -3.648049e-01 -1.593454e-02 3.032808e-01 1.221988e-01 -7.499560e-02 1.124678e-01 1.958415e-01 1.469309e-01 1.396327e-01 2.057354e-01 1.716238e-02 4.005991e-02
<VARIANCE> 39
 6.524951e+01 2.459221e+02 8.176681e+01 1.332084e+02 1.565876e+02 9.058735e+01 7.008382e+01 6.931071e+01 4.528021e+01 3.461323e+01 3.723619e+01 3.192667e+01 1.398544e+02 1.084099e+01 7.290009e+00 3.979044e+00 1.036422e+01 7.599641e+00 8.701523e+00 5.127835e+00 5.442116e+00 4.315069e+00 4.447839e+00 4.316919e+00 4.110103e+00 5.543668e+00 1.316608e+00 9.088280e-01 4.448410e-01 1.186125e+00 7.970917e-01 7.000743e-01 4.808742e-01 6.754703e-01 4.992017e-01 6.234986e-01 4.798039e-01 5.584625e-01 5.691737e-01
<GCONST> 1.460203e+02
<TRANSP> 5
 0.000000e+00 1.000000e+00 0.000000e+00 0.000000e+00 0.000000e+00
 0.000000e+00 8.929102e-01 1.070898e-01 0.000000e+00 0.000000e+00
 0.000000e+00 0.000000e+00 6.643335e-01 3.356665e-01 0.000000e+00
 0.000000e+00 0.000000e+00 0.000000e+00 5.789257e-01 4.210743e-01
 0.000000e+00 0.000000e+00 0.000000e+00 0.000000e+00 0.000000e+00
<ENDHMM>
~h "g"
<BEGINHMM>
<NUMSTATES> 5
<STATE> 2
<MEAN> 39
 -6.536054e+00 5.786742e+00 -3.576806e+00 9.958809e+00 2.599900e+00 1.773120e+00 6.019868e+00 -1.785982e+00 4.959350e+00 -6.084936e+00 1.520393e-01 -4.590405e+00 6.203432e+01 4.054965e-01 5.348125e-01 2.956549e-01 2.474597e-01 5.496182e-01 -1.836265e-02 -1.597625e-01 -1.223136e-01 -2.391737e-01 -1.092864e-01 -7.636071e-02 -1.765941e-01 1.165823e-01 -1.075334e-02 3.574577e-03 6.620862e-02 -5.079372e-02 -6.525072e-02 1.024600e-02 -2.608071e-04 4.920068e-02 -1.397177e-02 8.624232e-02 1.830646e-01 4.357991e-02 -4.306134e-02
<VARIANCE> 39
 4.657362e+01 5.470248e+01 6.653835e+01 2.934607e+01 5.194821e+01 2.816521e+01 3.327533e+01 4.588245e+01 4.887411e+01 3.345410e+01 1.775773e+01 4.466159e+01 2.979216e+01 1.494264e+00 2.964393e+00 2.693118e+00 2.061244e+00 1.774329e+00 1.442173e+00 2.757713e+00 2.357463e+00 2.848839e+00 1.828035e+00 2.091867e+00 2.101108e+00 5.988814e-01 2.559148e-01 3.911572e-01 4.272582e-01 3.958165e-01 2.949190e-01 1.916744e-01 5.725856e-01 4.496317e-01 5.478557e-01 3.028430e-01 2.798172e-01 4.261813e-01 9.626416e-02
<GCONST> 1.132457e+02
<STATE> 3
<MEAN> 39
 -6.159989e+00 8.750511e+00 -1.055179e+00 1.090237e+01 2.077599e+00 4.001005e+00 7.402296e+00 -2.736965e-01 5.632957e+00 -4.333049e+00 3.330277e+00 -4.170704e+00 5.955544e+01 -1.386626e-02 -2.046489e-02 4.853575e-02 -5.793464e-02 -8.543892e-02 4.445068e-02 -4.685116e-02 2.795113e-01 1.909571e-02 1.260775e-01 1.372828e-01 1.717992e-01 -8.236060e-02 -3.763306e-02 -1.277017e-01 -1.417587e-01 -9.301086e-02 -3.043241e-02 -2.269196e-02 -1.133135e-02 -1.950586e-02 -9.734271e-02 -1.582912e-02 -1.149620e-01 4.192360e-03 7.690209e-02
<VARIANCE> 39
 8.970551e+01 3.850149e+01 6.206192e+01 3.665596e+01 4.263395e+01 2.606261e+01 2.875922e+01 3.188208e+01 4.168551e+01 3.990625e+01 2.565692e+01 3.311288e+01 2.534614e+01 1.989654e-01 3.333239e-01 5.330169e-01 7.916386e-01 1.104622e+00 1.191287e+00 1.330802e+00 1.079870e+00 1.501399e+00 1.667918e+00 1.597740e+00 1.017536e+00 8.293351e-02 1.006155e-01 1.351632e-01 1.680391e-01 2.243566e-01 2.554674e-01 2.472033e-01 2.490007e-01 2.599167e-01 4.616612e-01 3.754975e-01 3.164539e-01 2.305401e-01 5.823763e-02
<GCONST> 9.446835e+01
<STATE> 4
<MEAN> 39
 -2.325952e+00 6.899576e+00 -5.464980e+00 6.255666e+00 2.657954e+00 6.070772e-01 4.666212e+00 6.561267e-01 1.506869e+00 -9.401476e+00 2.294023e+00 -6.881324e+00 6.544114e+01 -4.435119e-02 -2.238086e-01 -1.215915e-01 -2.370006e-01 -2.009794e-01 -7.076164e-02 -5.041897e-02 4.981857e-02 -2.915902e-02 1.967907e-02 -2.925484e-02 1.495831e-02 2.177053e-01 -4.245176e-02 -1.311681e-01 -1.231246e-01 -2.448623e-01 -4.975781e-03 -8.188968e-02 2.342443e-01 -1.346360e-01 -2.016392e-01 2.103495e-02 -3.450065e-02 -3.224038e-02 2.801264e-01
<VARIANCE> 39
 5.427047e+01 3.159930e+01 4.769624e+01 3.619131e+01 3.634958e+01 8.659942e+01 2.930470e+01 3.502319e+01 3.487768e+01 6.872564e+01 2.384513e+01 3.267594e+01 5.117033e+01 2.168971e+00 1.544235e+00 1.968960e+00 2.112807e+00 2.602083e+00 3.920305e+00 2.670600e+00 2.555663e+00 2.668290e+00 3.933177e+00 2.694098e+00 2.210394e+00 9.778122e-01 5.344011e-01 2.668728e-01 3.620032e-01 4.976723e-01 5.909700e-01 7.715611e-01 6.921555e-01 6.275796e-01 6.290965e-01 8.234881e-01 6.355153e-01 4.518202e-01 4.088529e-01
<GCONST> 1.228511e+02
<TRANSP> 5
 0.000000e+00 1.000000e+00 0.000000e+00 0.000000e+00 0.000000e+00
 0.000000e+00 8.032445e-01 1.967556e-01 0.000000e+00 0.000000e+00
 0.000000e+00 0.000000e+00 7.977989e-01 2.022011e-01 0.000000e+00
 0.000000e+00 0.000000e+00 0.000000e+00 7.954587e-01 2.045412e-01
 0.000000e+00 0.000000e+00 0.000000e+00 0.000000e+00 0.000000e+00
<ENDHMM>
~h "k"
<BEGINHMM>
<NUMSTATES> 5
<STATE> 2
<MEAN> 39
 -1.282717e+01 1.430016e+00 2.027091e+00 2.818936e+00 -4.547525e-01 1.142780e+00 2.729443e+00 -3.780728e+00 6.570186e-01 -4.159508e+00 -5.266987e-01 -2.216763e+00 5.530267e+01 -6.506015e-01 4.042719e-01 2.505897e-01 -6.596155e-02 -2.217458e-01 -4.057062e-02 2.132619e-01 4.803735e-01 -1.633522e-01 2.036441e-03 3.015696e-01 1.544483e-01 -6.218964e-01 1.088371e-01 -4.649925e-02 4.222018e-02 6.689706e-02 -6.864619e-02 -2.627042e-01 -1.162815e-01 -2.649850e-01 -3.214625e-02 2.413033e-01 1.225894e-01 1.328241e-02 8.278850e-02
<VARIANCE> 39
 1.063752e+02 6.609671e+01 1.139821e+02 6.783218e+01 8.413838e+01 1.123081e+02 1.058070e+02 8.072504e+01 3.850266e+01 6.160340e+01 4.792286e+01 4.276633e+01 1.338368e+02 4.074565e-01 1.523049e+00 2.923387e+00 1.647712e+00 2.330296e+00 1.714166e+00 2.240305e+00 2.128424e+00 2.008855e+00 2.273139e+00 1.749190e+00 1.507085e+00 4.945575e-01 1.026913e-01 2.402603e-01 3.959163e-01 3.105452e-01 3.978835e-01 4.429384e-01 5.473683e-01 5.103982e-01 3.490617e-01 3.279247e-01 4.418383e-01 2.216531e-01 9.701054e-02
<GCONST> 1.181811e+02
<STATE> 3
<MEAN> 39
 -1.480717e+01 -6.547119e-02 1.797353e+00 1.718493e+00 -2.425208e+00 -1.288990e+00 8.856694e-01 -4.519715e+00 1.372153e+00 -3.023870e+00 -2.328090e-01 -1.166234e+00 5.370929e+01 -4.787155e-01 1.924541e-01 6.202142e-02 1.413564e-01 -1.087075e-01 -1.123404e-01 5.960090e-02 1.723121e-01 9.920194e-02 3.906715e-01 1.418012e-01 1.675756e-01 -4.951925e-01 1.613409e-01 -9.221660e-02 -2.073373e-02 1.385796e-01 1.101193e-01 -1.007127e-01 1.051879e-02 -2.564653e-01 -3.376226e-02 8.952940e-02 -1.226357e-02 -1.032194e-02 1.404766e-01
<VARIANCE> 39
 1.080191e+02 6.242393e+01 1.152786e+02 5.692391e+01 5.482857e+01 1.080910e+02 9.951316e+01 6.179607e+01 4.292373e+01 5.317503e+01 4.030292e+01 4.346058e+01 1.635691e+02 3.343136e-01 1.094902e+00 2.007039e+00 1.700075e+00 1.754695e+00 1.879130e+00 2.838220e+00 2.195799e+00 2.293954e+00 1.823941e+00 2.336229e+00 1.281515e+00 3.566400e-01 6.254168e-02 1.441288e-01 2.385658e-01 2.044454e-01 2.390677e-01 2.154783e-01 2.576874e-01 4.365537e-01 2.818850e-01 3.086620e-01 2.581993e-01 2.079776e-01 4.553929e-02
<GCONST> 1.103988e+02
<STATE> 4
<MEAN> 39
 -4.897609e+00 2.492767e-01 -1.817129e+00 5.888170e+00 3.385272e+00 5.747523e+00 5.279468e+00 4.076588e-01 3.151451e+00 -4.778155e+00 1.115841e+00 -3.070747e+00 5.463281e+01 -2.845148e-02 3.495600e-02 1.000795e-02 6.768268e-02 5.861806e-02 1.053703e-02 3.439152e-02 -3.670925e-02 1.905533e-02 5.655216e-02 6.304617e-03 3.573734e-02 -4.132266e-02 1.477047e-02 -2.938237e-02 -2.308098e-02 2.910918e-04 1.068865e-02 -1.249946e-03 1.576593e-02 -4.315066e-03 1.721207e-03 -1.696292e-02 -1.837405e-02 -7.242635e-03 1.508902e-02
<VARIANCE> 39
 8.808253e+01 4.846322e+01 2.716395e+01 2.763271e+01 4.662649e+01 3.350034e+01 3.416776e+01 2.671269e+01 2.546575e+01 3.066988e+01 2.358285e+01 2.762369e+01 1.193715e+02 2.530901e-01 5.075245e-01 7.089123e-01 1.006213e+00 1.131498e+00 1.447450e+00 1.534031e+00 1.687003e+00 1.885262e+00 1.778047e+00 1.730967e+00 1.278786e+00 1.016375e-01 4.918277e-02 9.882293e-02 1.423979e-01 1.677935e-01 2.180208e-01 2.992495e-01 2.875986e-01 3.169060e-01 3.840690e-01 3.780069e-01 3.715284e-01 2.538130e-01 2.125230e-02
<GCONST> 9.519326e+01
<TRANSP> 5
 0.000000e+00 1.000000e+00 0.000000e+00 0.000000e+00 0.000000e+00
 0.000000e+00 2.582251e-03 9.974178e-01 0.000000e+00 0.000000e+00
 0.000000e+00 0.000000e+00 2.803319e-01 7.196681e-01 0.000000e+00
 0.000000e+00 0.000000e+00 0.000000e+00 8.846241e-01 1.153759e-01
 0.000000e+00 0.000000e+00 0.000000e+00 0.000000e+00 0.000000e+00
<ENDHMM>
~h "l"
<BEGINHMM>
<NUMSTATES> 5
<STATE> 2
<MEAN> 39
 -5.169823e+00 7.027528e+00 2.941407e+00 7.896740e+00 8.428904e-01 1.124195e+00 5.515643e+00 -1.386134e+00 3.527939e+00 -5.428098e+00 -2.156092e+00 -4.988796e+00 5.732920e+01 -4.245180e-01 -6.035753e-02 1.401951e-01 1.215404e-01 1.066324e-01 3.536952e-01 1.869417e-01 3.588296e-01 3.706195e-01 1.403793e-01 -1.187033e-02 -5.544607e-02 -3.508849e-01 -3.011316e-02 -8.837161e-02 -2.168708e-02 2.604954e-02 2.274514e-02 -1.940699e-02 -3.010575e-02 -7.916979e-02 -6.971814e-02 1.598428e-02 5.267017e-02 3.533203e-02 7.281094e-03
<VARIANCE> 39
 2.548196e+01 3.598180e+01 3.177787e+01 5.223788e+01 5.441146e+01 3.438010e+01 2.814974e+01 4.160785e+01 2.998056e+01 2.787663e+01 1.736713e+01 3.359045e+01 2.344948e+01 5.473871e-01 1.058185e+00 1.628134e+00 1.370958e+00 1.495306e+00 1.543903e+00 1.841833e+00 1.956653e+00 2.031043e+00 1.711338e+00 1.228986e+00 1.115073e+00 1.832564e-01 6.507502e-02 1.425073e-01 2.258415e-01 2.416329e-01 2.448538e-01 2.926838e-01 3.446459e-01 3.479716e-01 3.727737e-01 2.818501e-01 1.798170e-01 2.004672e-01 2.460336e-02
<GCONST> 9.737784e+01
<STATE> 3
<MEAN> 39
 -1.373112e+01 8.794812e-01 -1.182402e+00 6.534229e+00 -5.541543e+00 -2.616172e+00 5.317818e+00 -3.954573e+00 2.543660e+00 4.632745e-01 -5.206552e-01 2.285454e+00 5.362929e+01 -1.044180e-01 -3.123099e-02 -3.187355e-02 6.210867e-03 3.219384e-02 4.545266e-02 3.765348e-02 5.042902e-02 7.662252e-02 1.570844e-02 5.776114e-02 2.972994e-02 -1.126015e-01 2.191290e-02 1.297429e-02 2.967452e-02 1.742806e-02 4.594322e-03 4.959902e-03 4.159941e-03 1.874854e-05 -1.430937e-02 -1.730581e-02 -3.217620e-02 -4.267043e-02 1.747105e-02
<VARIANCE> 39
 1.080967e+01 2.036754e+01 8.726681e+00 9.767594e+00 1.924747e+01 1.495825e+01 1.663718e+01 1.754390e+01 1.570090e+01 1.623630e+01 1.388363e+01 1.677541e+01 1.258167e+01 2.881516e-01 6.520290e-01 5.632814e-01 7.113626e-01 9.282658e-01 1.129196e+00 1.564685e+00 1.569692e+00 1.419178e+00 1.464783e+00 1.418831e+00 1.271381e+00 2.258079e-01 5.191676e-02 1.070516e-01 9.512569e-02 1.315820e-01 1.695413e-01 2.196833e-01 3.337005e-01 3.158614e-01 2.851596e-01 3.443905e-01 2.956341e-01 2.253536e-01 3.802438e-02
<GCONST> 8.116029e+01
<STATE> 4
<MEAN> 39
 -1.220390e+01 3.310785e+00 5.288139e-01 9.964484e+00 4.085813e+00 4.872786e+00 5.700808e+00 -5.634482e-04 4.373337e+00 -6.133765e+00 5.693073e-01 -5.121405e+00 4.988705e+01 -3.180665e-02 -8.888590e-03 1.232157e-02 3.114464e-02 3.565909e-03 3.439865e-02 1.429524e-02 3.842315e-02 -1.501504e-02 -2.157210e-02 -7.017849e-03 -2.061841e-02 -8.565971e-02 6.721489e-04 -9.820929e-03 -1.003416e-02 -9.954652e-03 -8.337011e-03 -1.050973e-02 -7.251617e-03 -1.543523e-02 -9.611383e-03 9.890547e-03 4.622163e-03 9.602616e-03 6.402036e-03
<VARIANCE> 39
 8.265590e+01 8.315264e+00 1.309730e+01 1.990245e+01 1.265597e+01 1.311349e+01 1.380968e+01 1.923270e+01 1.487388e+01 1.487969e+01 1.587668e+01 1.308295e+01 8.015306e+01 1.192991e-01 2.547232e-01 4.471693e-01 5.483335e-01 8.473725e-01 1.024759e+00 1.192469e+00 1.343561e+00 1.169780e+00 1.135329e+00 1.054779e+00 9.743392e-01 3.777223e-02 2.149767e-02 5.018111e-02 8.905862e-02 1.047701e-01 1.665903e-01 1.997792e-01 2.396119e-01 2.728530e-01 2.582075e-01 2.216634e-01 2.059891e-01 1.930335e-01 7.070969e-03
<GCONST> 7.337855e+01
<TRANSP> 5
 0.000000e+00 1.000000e+00 0.000000e+00 0.000000e+00 0.000000e+00
 0.000000e+00 8.495827e-01 1.504174e-01 0.000000e+00 0.000000e+00
 0.000000e+00 0.000000e+00 9.191459e-01 8.085398e-02 0.000000e+00
 0.000000e+00 0.000000e+00 0.000000e+00 9.630666e-01 3.693347e-02
 0.000000e+00 0.000000e+00 0.000000e+00 0.000000e+00 0.000000e+00
<ENDHMM>
~h "m"
<BEGINHMM>
<NUMSTATES> 5
<STATE> 2
<MEAN> 39
 4.092127e+00 1.194684e+01 5.826228e+00 7.832437e+00 -6.307487e+00 -8.687424e+00 -2.145286e+00 -8.165993e+00 -3.500515e+00 -7.833854e+00 -6.691631e+00 -1.959174e-01 6.464448e+01 6.435058e-03 7.592642e-02 6.915552e-02 6.220952e-02 1.207463e-02 4.237461e-02 -1.551912e-02 -1.015180e-02 -1.918364e-02 -6.189205e-02 -7.266849e-02 5.516847e-03 -1.793509e-02 -2.215134e-02 -2.370160e-02 -1.171555e-02 3.889879e-03 3.758844e-02 2.888282e-02 1.747696e-02 -1.067090e-03 -1.065324e-02 4.194189e-03 2.318116e-02 1.598869e-02 -7.257225e-03
<VARIANCE> 39
 4.378376e+01 3.035106e+01 5.445605e+01 4.128300e+01 4.256861e+01 3.499513e+01 6.032436e+01 2.640224e+01 3.862086e+01 2.289901e+01 2.029464e+01 3.535618e+01 1.199768e+01 1.416867e+00 1.077158e+00 1.808032e+00 1.630127e+00 1.745459e+00 1.960015e+00 2.966376e+00 1.669992e+00 2.443780e+00 1.294250e+00 1.182649e+00 1.845680e+00 3.104802e-01 1.600851e-01 1.636221e-01 1.863697e-01 1.894313e-01 2.382018e-01 2.493067e-01 3.719468e-01 2.858848e-01 4.066434e-01 1.866225e-01 1.936596e-01 2.669190e-01 4.028869e-02
<GCONST> 1.014048e+02
<STATE> 3
<MEAN> 39
 -6.135976e+00 7.189689e+00 7.285896e+00 1.509026e+01 -6.050923e-01 -6.033924e+00 2.407063e+00 -7.141799e+00 -1.870955e+00 -4.583670e+00 -3.200858e+00 -2.373233e+00 5.954969e+01 -2.025677e-01 -3.950628e-01 -1.736861e-01 3.860794e-02 9.997766e-02 9.266116e-03 6.513203e-02 1.589591e-01 7.337150e-02 3.348725e-02 5.204492e-02 4.891602e-02 -4.395127e-02 -1.653296e-02 -3.719459e-02 -3.477553e-02 -9.566972e-02 -6.045859e-02 -5.952476e-02 -1.748212e-02 1.515000e-02 1.824243e-02 3.803961e-02 3.286192e-03 1.221755e-03 7.498317e-03
<VARIANCE> 39
 3.549740e+01 7.603956e+01 3.279893e+01 2.473220e+01 3.107278e+01 9.191822e+01 5.391847e+01 3.083202e+01 2.625297e+01 3.619776e+01 1.729286e+01 2.966849e+01 1.520049e+01 1.831274e+00 3.624059e+00 1.893839e+00 1.956516e+00 1.853107e+00 3.675323e+00 2.846387e+00 2.062688e+00 1.838491e+00 2.557310e+00 1.774995e+00 1.045427e+00 7.890894e-01 1.947758e-01 4.844519e-01 2.941007e-01 3.149601e-01 3.857560e-01 5.552693e-01 4.626505e-01 2.799794e-01 3.284163e-01 4.387619e-01 3.249258e-01 1.625450e-01 1.151401e-01
<GCONST> 1.109240e+02
<STATE> 4
<MEAN> 39
 -1.363086e+01 -1.965747e-01 -1.581107e+00 7.665876e+00 -4.440228e+00 -8.891976e-01 4.621515e+00 -3.678235e+00 3.595723e+00 -1.275564e+00 -1.182919e-01 4.668871e-01 5.303989e+01 -9.063756e-02 -4.721605e-02 -5.657200e-02 -7.638629e-02 -5.744706e-02 -2.523420e-02 3.615090e-02 6.784028e-03 4.170989e-02 8.251579e-02 1.109362e-01 8.113957e-02 -9.824263e-02 3.059889e-02 3.071297e-03 -2.067169e-04 6.427700e-03 1.805526e-02 -3.114520e-03 5.314237e-03 1.036806e-02 1.019541e-02 -9.714641e-03 -2.447156e-02 -2.315050e-02 1.767191e-02
<VARIANCE> 39
 1.475996e+01 3.089255e+01 1.122750e+01 1.883133e+01 4.749665e+01 3.239392e+01 1.508746e+01 1.588823e+01 1.640774e+01 3.079397e+01 1.422779e+01 3.110462e+01 2.904988e+01 2.162523e-01 7.073410e-01 6.749634e-01 6.062160e-01 8.974218e-01 1.109229e+00 1.577931e+00 1.292898e+00 1.569867e+00 1.520549e+00 1.257527e+00 9.771219e-01 2.223335e-01 4.779844e-02 1.371473e-01 1.333033e-01 1.068791e-01 1.735468e-01 2.224066e-01 3.173585e-01 2.577745e-01 3.171012e-01 3.274544e-01 2.678810e-01 1.851073e-01 4.629042e-02
<GCONST> 8.578960e+01
<TRANSP> 5
 0.000000e+00 1.000000e+00 0.000000e+00 0.000000e+00 0.000000e+00
 0.000000e+00 9.423471e-01 5.765288e-02 0.000000e+00 0.000000e+00
 0.000000e+00 0.000000e+00 9.073295e-01 9.267046e-02 0.000000e+00
 0.000000e+00 0.000000e+00 0.000000e+00 9.333413e-01 6.665865e-02
 0.000000e+00 0.000000e+00 0.000000e+00 0.000000e+00 0.000000e+00
<ENDHMM>
~h "n"
<BEGINHMM>
<NUMSTATES> 5
<STATE> 2
<MEAN> 39
 -9.260364e-01 2.000348e+00 2.121675e+00 4.414705e+00 -1.829918e-01 -5.775937e+00 -1.985012e+00 -4.979279e+00 -1.937709e+00 -2.230658e+00 -2.954842e+00 -2.394292e+00 5.754515e+01 1.262655e-01 1.112881e+00 8.092608e-01 5.854273e-01 -1.564754e-01 3.079050e-01 -1.316442e-01 -4.556865e-01 -2.735725e-01 -1.228772e-01 -3.024702e-01 -3.753352e-01 -5.237718e-01 -1.473847e-02 -5.980767e-02 -7.172369e-02 4.425884e-02 -2.924361e-02 1.795851e-01 9.204475e-03 7.011964e-02 3.586730e-02 -5.224422e-02 6.076678e-02 -4.714958e-02 -5.871908e-03
<VARIANCE> 39
 5.181330e+01 8.925064e+01 1.024713e+02 1.125667e+02 1.519354e+02 1.114431e+02 1.195230e+02 7.124556e+01 6.875153e+01 7.055186e+01 4.832516e+01 6.455379e+01 1.045363e+02 2.053427e+00 2.254393e+00 2.684688e+00 3.736725e+00 4.498911e+00 5.872270e+00 5.180887e+00 4.399898e+00 4.174526e+00 4.053875e+00 3.026513e+00 2.501419e+00 1.711872e+00 1.667329e-01 3.290935e-01 4.613602e-01 5.707793e-01 6.488504e-01 8.329728e-01 7.698527e-01 7.789460e-01 6.975562e-01 5.782381e-01 5.573958e-01 4.822637e-01 1.446736e-01
<GCONST> 1.355484e+02
<STATE> 3
<MEAN> 39
 2.018855e+00 8.946472e+00 3.428078e+00 1.088172e+01 1.475754e-01 -6.972205e+00 -5.701967e+00 -9.432101e+00 -1.633188e+00 -5.297656e+00 -6.249079e+00 -2.846184e+00 6.121858e+01 -3.117243e-01 2.987677e-01 2.436340e-01 1.253787e-01 -2.574956e-01 7.665697e-01 5.064642e-01 2.678654e-01 9.184603e-02 -1.476856e-01 3.394816e-02 -2.157998e-01 -3.870046e-01 -1.373325e-01 -2.995979e-01 -1.018162e-01 -7.701650e-02 -1.487220e-02 -9.587736e-02 1.156956e-01 1.810502e-01 1.480286e-02 7.047091e-02 1.780629e-01 1.182040e-01 5.519097e-02
<VARIANCE> 39
 3.846056e+01 4.344112e+01 3.115986e+01 3.259109e+01 6.147145e+01 5.641896e+01 7.008051e+01 3.634542e+01 3.996097e+01 3.199889e+01 3.564301e+01 4.545662e+01 5.666366e+01 1.017700e+00 1.694529e+00 1.539778e+00 1.803353e+00 1.761082e+00 3.423097e+00 3.745070e+00 2.626991e+00 2.741401e+00 2.090395e+00 2.067911e+00 3.472518e+00 7.598017e-01 1.431833e-01 3.088863e-01 2.311808e-01 2.971568e-01 3.104544e-01 5.962216e-01 6.309535e-01 4.247513e-01 4.899498e-01 3.889428e-01 3.709215e-01 6.062338e-01 1.122381e-01
<GCONST> 1.155508e+02
<STATE> 4
<MEAN> 39
 -5.379357e+00 -5.977807e-01 2.957571e+00 7.786582e+00 -4.022475e+00 3.407037e-02 -1.506228e+00 -3.745009e+00 1.617628e-01 -4.939027e+00 -1.599469e+00 -1.351399e+00 4.820574e+01 -7.053645e-01 -6.031357e-01 -3.219599e-01 -1.513081e-01 -2.393545e-02 4.237169e-01 5.344150e-01 4.322949e-01 2.183946e-01 2.046085e-01 4.660068e-01 2.769480e-01 -3.453102e-01 1.380138e-02 -2.471873e-01 -1.015700e-01 -1.752936e-01 -2.506510e-02 -2.204581e-01 -1.009897e-01 -5.655717e-02 -3.580714e-03 8.201316e-02 2.497234e-02 6.015768e-02 1.947447e-01
<VARIANCE> 39
 4.567183e+01 1.462911e+02 3.431929e+01 4.248909e+01 9.434238e+01 4.280032e+01 6.037178e+01 3.740324e+01 3.724871e+01 3.311739e+01 3.247260e+01 2.901851e+01 1.331700e+02 1.109390e+00 1.968414e+00 1.707648e+00 2.083695e+00 2.351239e+00 2.589129e+00 2.492998e+00 2.380481e+00 2.833191e+00 2.327598e+00 2.292496e+00 1.945406e+00 7.042993e-01 2.098714e-01 4.426101e-01 3.231602e-01 4.121604e-01 5.551795e-01 5.578900e-01 5.250503e-01 5.443233e-01 4.829631e-01 4.655323e-01 4.462813e-01 3.542328e-01 1.764819e-01
<GCONST> 1.194324e+02
<TRANSP> 5
 0.000000e+00 1.000000e+00 0.000000e+00 0.000000e+00 0.000000e+00
 0.000000e+00 6.183411e-01 3.816589e-01 0.000000e+00 0.000000e+00
 0.000000e+00 0.000000e+00 6.554807e-01 3.445193e-01 0.000000e+00
 0.000000e+00 0.000000e+00 0.000000e+00 6.702470e-01 3.297530e-01
 0.000000e+00 0.000000e+00 0.000000e+00 0.000000e+00 0.000000e+00
<ENDHMM>
~h "r"
<BEGINHMM>
<NUMSTATES> 5
<STATE> 2
<MEAN> 39
 5.554930e+00 7.821974e-01 -6.757043e+00 2.715636e+00 -1.464658e+00 -7.069224e+00 -5.231676e+00 -5.970258e+00 -6.213983e+00 -4.250216e+00 -3.389444e-01 -2.160730e+00 6.147685e+01 -2.919578e-02 3.609319e-01 -4.562718e-01 5.297223e-02 6.183044e-01 3.906952e-01 -8.171156e-02 -1.808070e-01 -1.767237e-01 6.382772e-02 1.272449e-01 8.589385e-02 -3.765452e-01 -1.592849e-01 3.453226e-02 2.537853e-01 -1.269287e-02 -7.066452e-02 -4.668353e-02 -2.737139e-02 5.054546e-02 1.400194e-01 5.787225e-02 -3.461224e-02 2.110189e-02 -2.807677e-02
<VARIANCE> 39
 4.800764e+01 9.841145e+01 7.420608e+01 1.048727e+02 1.161317e+02 8.116260e+01 1.303244e+02 1.069435e+02 9.436311e+01 6.511296e+01 5.191053e+01 5.074517e+01 6.423557e+01 7.867976e-01 1.603661e+00 2.980223e+00 2.639208e+00 3.298271e+00 3.506239e+00 4.704259e+00 4.358670e+00 3.681599e+00 2.614878e+00 2.565807e+00 2.008585e+00 6.621363e-01 8.806417e-02 2.454709e-01 3.476717e-01 3.791568e-01 4.980541e-01 5.646377e-01 8.194622e-01 7.386664e-01 5.098073e-01 4.824866e-01 4.308867e-01 3.989882e-01 7.583436e-02
<GCONST> 1.264349e+02
<STATE> 3
<MEAN> 39
 2.212509e+00 4.786095e+00 -1.645523e+00 1.044729e+01 3.260348e+00 -1.164188e+01 -6.929763e+00 -1.273305e+01 -1.046677e+01 -3.398320e+00 2.358561e-01 -3.590937e+00 6.434898e+01 -1.834200e-01 1.324399e-01 2.530319e-01 -1.010615e-02 3.135312e-02 -1.754422e-01 7.894102e-02 4.287284e-01 2.519793e-01 -8.442269e-04 -1.906352e-01 -7.846911e-02 -1.010681e-01 -4.387634e-02 9.999493e-03 7.523276e-02 -2.731325e-02 -8.201049e-02 6.235886e-02 9.029838e-02 6.296146e-02 8.744869e-02 -6.207228e-02 -8.827382e-02 -1.268313e-02 -2.438931e-02
<VARIANCE> 39
 3.026244e+01 5.807591e+01 7.240894e+01 1.076002e+02 1.053526e+02 9.751622e+01 1.013699e+02 5.101764e+01 5.778274e+01 4.214196e+01 4.806689e+01 5.331541e+01 3.649348e+01 2.615319e-01 5.541632e-01 1.143366e+00 1.616532e+00 1.315895e+00 2.040993e+00 1.737327e+00 1.784968e+00 1.893322e+00 1.558239e+00 1.469436e+00 1.248369e+00 1.537506e-01 3.029568e-02 7.845438e-02 1.335269e-01 1.618689e-01 1.606004e-01 2.388185e-01 2.306675e-01 2.887585e-01 2.755928e-01 2.127112e-01 2.594520e-01 2.057361e-01 1.668661e-02
<GCONST> 1.000539e+02
<STATE> 4
<MEAN> 39
 4.819092e-01 -4.868490e+00 -3.136443e+00 -2.987203e-01 -4.468626e+00 -3.375014e+00 -2.256431e+00 -2.797524e-01 -2.464762e-01 -3.557907e+00 -1.726942e+00 -1.939787e+00 5.188269e+01 -3.889133e-01 2.411925e-01 3.008810e-01 7.590298e-02 8.444174e-02 4.382353e-01 1.964163e-01 -1.050106e-02 1.801196e-01 -7.355942e-02 -8.062294e-02 -6.305012e-03 -3.970754e-01 -2.962911e-02 3.052755e-03 1.156437e-04 -7.692907e-03 -1.285418e-02 6.191648e-02 1.074590e-02 -2.141567e-02 -1.017178e-02 8.535611e-03 3.872132e-02 1.424839e-02 -2.054218e-02
<VARIANCE> 39
 2.905368e+01 1.122228e+02 1.049844e+02 1.131988e+02 9.885709e+01 8.603671e+01 9.657626e+01 7.538110e+01 7.399787e+01 4.594485e+01 3.323183e+01 3.472585e+01 1.163073e+02 3.846313e-01 9.636229e-01 1.101640e+00 1.497671e+00 1.538296e+00 2.169197e+00 2.365378e+00 2.243676e+00 2.278287e+00 1.942404e+00 1.925964e+00 1.558826e+00 3.236204e-01 5.775898e-02 1.390802e-01 1.664979e-01 1.930956e-01 2.534343e-01 3.506860e-01 3.428223e-01 3.449382e-01 3.816104e-01 3.460904e-01 3.223365e-01 2.982657e-01 3.415350e-02
<GCONST> 1.103104e+02
<TRANSP> 5
 0.000000e+00 1.000000e+00 0.000000e+00 0.000000e+00 0.000000e+00
 0.000000e+00 6.791804e-01 3.208196e-01 0.000000e+00 0.000000e+00
 0.000000e+00 0.000000e+00 8.017596e-01 1.982405e-01 0.000000e+00
 0.000000e+00 0.000000e+00 0.000000e+00 8.042862e-01 1.957137e-01
 0.000000e+00 0.000000e+00 0.000000e+00 0.000000e+00 0.000000e+00
<ENDHMM>
~h "s"
<BEGINHMM>
<NUMSTATES> 5
<STATE> 2
<MEAN> 39
 -1.254171e+01 -1.160199e+00 8.447961e-01 1.916993e+00 -3.864519e-02 3.434346e-01 -4.069832e-01 -4.174276e+00 -5.358713e-01 -2.185340e+00 5.345635e-01 -9.841130e-01 5.497110e+01 -1.074309e+00 -6.939448e-01 8.131723e-01 -6.331529e-01 -9.028637e-02 1.021690e-03 5.187781e-01 -4.056757e-01 6.441863e-01 9.221021e-02 3.308513e-01 4.495176e-02 1.075442e+00 -2.353049e-01 -1.017671e-02 4.594785e-02 -1.091629e-01 3.180465e-02 -7.504611e-02 1.489105e-01 3.141773e-02 4.434558e-02 -2.523354e-02 7.985222e-02 2.351311e-02 1.220226e-01
<VARIANCE> 39
 9.546034e+01 7.028711e+01 1.198447e+02 1.115467e+02 1.750101e+02 1.369229e+02 1.641494e+02 9.110687e+01 6.526257e+01 7.733855e+01 4.205184e+01 8.648479e+01 2.010876e+02 6.178954e+00 4.248118e+00 8.432920e+00 6.682775e+00 5.236534e+00 8.131021e+00 5.795715e+00 4.075444e+00 4.438315e+00 4.246767e+00 3.389480e+00 3.300699e+00 3.326303e+00 6.149996e-01 6.368916e-01 1.037853e+00 9.356198e-01 8.096613e-01 1.164821e+00 9.200978e-01 7.116405e-01 7.118178e-01 6.912446e-01 6.576912e-01 6.082318e-01 4.984758e-01
<GCONST> 1.487110e+02
<STATE> 3
<MEAN> 39
 -2.015219e+01 2.146765e-01 4.132171e+00 4.381752e+00 -1.227928e+00 -7.297175e-01 6.539911e+00 -5.710256e+00 4.616096e+00 -1.814220e+00 3.573768e+00 -1.725767e+00 5.901519e+01 -1.160438e+00 -2.545426e-01 2.977888e-01 -4.984803e-01 -1.196432e-01 -1.485529e-01 3.741077e-01 1.988426e-01 1.132708e-01 -9.807693e-02 2.375552e-01 2.145196e-01 4.909780e-01 4.155402e-01 1.490676e-01 -2.219275e-01 9.647572e-02 8.209470e-02 2.494986e-02 -2.847725e-01 1.131892e-01 -2.441600e-01 -1.549299e-01 -2.217133e-01 -1.250576e-02 -2.216555e-01
<VARIANCE> 39
 7.191851e+01 9.156477e+01 1.777404e+02 9.972966e+01 9.680867e+01 9.593031e+01 8.119463e+01 7.007929e+01 6.157814e+01 4.815708e+01 4.096255e+01 4.871051e+01 1.181888e+02 2.906079e+00 2.864929e+00 2.718831e+00 3.706194e+00 2.729030e+00 2.952265e+00 3.169086e+00 3.078781e+00 2.272756e+00 1.924643e+00 2.435365e+00 1.826113e+00 1.139779e+00 3.905283e-01 3.085133e-01 6.486266e-01 8.131317e-01 6.532100e-01 5.203687e-01 7.142850e-01 6.367972e-01 5.552363e-01 3.902640e-01 3.413053e-01 3.509843e-01 1.800854e-01
<GCONST> 1.303054e+02
<STATE> 4
<MEAN> 39
 -2.405953e+01 -1.696177e+00 4.508091e+00 -1.743946e+00 9.753443e-01 -9.164924e-01 5.207259e+00 -5.052138e+00 3.889352e+00 -1.752696e+00 1.770368e+00 1.737639e-01 5.734671e+01 5.724088e-02 -9.123567e-02 -1.631477e-01 2.509863e-02 -6.065848e-02 4.407082e-02 -8.014583e-02 7.412997e-02 -3.940096e-03 -1.167364e-01 -1.242897e-01 4.035152e-02 -1.192021e-01 3.036969e-01 -1.051884e-02 -6.484394e-02 1.101599e-01 -4.201578e-02 -3.947514e-02 -1.158351e-01 -8.307866e-02 -8.835232e-02 -1.121004e-02 -8.885051e-02 -1.986248e-02 -5.922397e-02
<VARIANCE> 39
 6.019162e+01 9.201994e+01 1.913096e+02 1.073396e+02 8.680305e+01 9.485532e+01 7.333016e+01 5.038272e+01 4.703233e+01 4.508472e+01 4.043573e+01 4.697600e+01 1.342022e+02 1.017793e+00 1.091874e+00 1.504119e+00 1.634718e+00 1.670676e+00 1.963172e+00 2.198040e+00 2.265232e+00 2.031175e+00 1.734799e+00 1.524543e+00 1.352227e+00 6.885456e-01 2.002295e-01 2.290715e-01 2.287791e-01 2.738194e-01 3.053179e-01 3.638007e-01 3.854930e-01 4.271043e-01 3.946390e-01 3.182946e-01 3.036529e-01 2.533507e-01 8.383443e-02
<GCONST> 1.160012e+02
<TRANSP> 5
 0.000000e+00 1.000000e+00 0.000000e+00 0.000000e+00 0.000000e+00
 0.000000e+00 7.271038e-01 2.728962e-01 0.000000e+00 0.000000e+00
 0.000000e+00 0.000000e+00 4.730835e-01 5.269164e-01 0.000000e+00
 0.000000e+00 0.000000e+00 0.000000e+00 7.946804e-01 2.053196e-01
 0.000000e+00 0.000000e+00 0.000000e+00 0.000000e+00 0.000000e+00
<ENDHMM>
~h "t"
<BEGINHMM>
<NUMSTATES> 5
<STATE> 2
<MEAN> 39
 -3.600628e+00 1.266479e+00 1.258940e+00 1.054272e+01 3.758653e+00 -6.971089e+00 -1.940388e+00 -8.682583e+00 -3.592395e+00 -3.439743e+00 -3.080366e-01 -4.328813e+00 6.281207e+01 8.805351e-01 4.933398e-01 -7.951623e-01 -3.906053e-01 -3.255382e-01 -2.978576e-01 -2.945496e-01 -1.736585e-01 -5.556915e-01 -4.046966e-01 3.321223e-01 1.570252e-01 8.106961e-02 -4.427664e-01 -2.976145e-01 -9.215156e-02 -3.097693e-01 -2.895901e-01 1.586991e-01 3.358381e-01 2.839077e-01 2.467237e-01 1.176871e-01 8.819954e-02 1.132789e-01 -1.317896e-01
<VARIANCE> 39
 6.779147e+01 7.217648e+01 5.997772e+01 7.477768e+01 1.092436e+02 9.670478e+01 1.038325e+02 8.257345e+01 8.507069e+01 6.233874e+01 4.974937e+01 7.801904e+01 1.044891e+02 2.297313e+00 4.122483e+00 2.709773e+00 2.444957e+00 1.987152e+00 5.213431e+00 4.215839e+00 3.413118e+00 5.368352e+00 3.492893e+00 2.776142e+00 2.227102e+00 1.226972e+00 4.554436e-01 7.096466e-01 5.240188e-01 4.122390e-01 4.695992e-01 5.572506e-01 7.012976e-01 7.419221e-01 5.641217e-01 5.872438e-01 5.982466e-01 4.493552e-01 2.722233e-01
<GCONST> 1.341177e+02
<STATE> 3
<MEAN> 39
 -4.180080e+00 8.130076e-01 1.650087e-01 9.334131e+00 1.619350e+00 -8.976116e+00 -1.950102e+00 -8.033950e+00 -3.805610e+00 -2.695179e+00 3.711540e-01 -2.797332e+00 6.187802e+01 1.893487e-01 1.209439e-01 -6.298817e-01 -5.079636e-01 -5.005582e-01 7.163393e-02 3.905524e-01 3.747718e-01 -6.991152e-02 -1.498533e-01 6.583988e-02 2.008079e-01 -2.941711e-01 -2.845290e-01 -9.252648e-02 9.694339e-02 -6.673058e-02 -9.033024e-02 2.681532e-01 2.015368e-01 1.248589e-01 1.872760e-01 2.962220e-02 -5.151669e-02 -1.242656e-02 -1.496266e-01
<VARIANCE> 39
 7.932063e+01 6.175785e+01 6.441282e+01 6.798878e+01 1.090030e+02 1.171532e+02 1.304610e+02 8.103037e+01 1.025941e+02 6.977646e+01 4.550491e+01 6.374953e+01 1.137869e+02 1.273364e+00 1.588431e+00 1.678389e+00 1.689394e+00 2.156389e+00 3.682555e+00 3.084291e+00 2.621455e+00 3.014901e+00 3.288880e+00 2.376041e+00 2.079081e+00 8.269347e-01 2.453559e-01 4.521033e-01 3.362076e-01 2.816576e-01 3.475972e-01 4.131089e-01 4.409150e-01 5.602599e-01 6.769881e-01 5.673779e-01 4.323946e-01 3.256296e-01 1.414506e-01
<GCONST> 1.257046e+02
<STATE> 4
<MEAN> 39
 -2.155704e+00 1.336706e+00 -6.192682e+00 2.013509e-01 -1.559366e+00 -3.829341e+00 4.618294e+00 -2.178503e+00 -3.198918e+00 -5.168666e+00 -1.198824e+00 -1.431699e+00 6.354780e+01 1.262488e-01 6.152529e-02 -1.046760e-01 -1.514082e-01 -3.871536e-01 2.957978e-01 5.625457e-02 4.324276e-01 1.615288e-01 -2.086816e-01 6.337827e-02 -2.932810e-02 -4.452022e-01 -7.132901e-02 3.353718e-02 1.524427e-01 1.012685e-01 6.134890e-02 2.591570e-02 -5.971772e-02 -5.129917e-03 4.063096e-02 7.400759e-02 -1.152690e-02 -7.484048e-02 -5.054643e-02
<VARIANCE> 39
 9.019922e+01 1.044256e+02 7.592833e+01 1.053537e+02 8.832060e+01 1.517086e+02 1.038274e+02 7.088127e+01 1.010453e+02 6.408885e+01 5.105492e+01 5.539998e+01 1.965362e+02 1.363248e+00 1.074173e+00 1.404553e+00 1.482374e+00 1.735808e+00 2.865087e+00 2.339000e+00 2.254149e+00 2.347834e+00 2.353391e+00 1.887090e+00 1.866338e+00 7.554459e-01 1.910210e-01 2.303025e-01 2.215374e-01 2.297592e-01 2.488919e-01 5.123133e-01 4.349588e-01 3.263226e-01 5.102109e-01 3.888524e-01 3.244282e-01 2.759185e-01 8.768342e-02
<GCONST> 1.207166e+02
<TRANSP> 5
 0.000000e+00 1.000000e+00 0.000000e+00 0.000000e+00 0.000000e+00
 0.000000e+00 2.780585e-01 7.219415e-01 0.000000e+00 0.000000e+00
 0.000000e+00 0.000000e+00 1.887409e-01 8.112591e-01 0.000000e+00
 0.000000e+00 0.000000e+00 0.000000e+00 6.033669e-01 3.966331e-01
 0.000000e+00 0.000000e+00 0.000000e+00 0.000000e+00 0.000000e+00
<ENDHMM>
~h "v"
<BEGINHMM>
<NUMSTATES> 5
<STATE> 2
<MEAN> 39
 1.648005e-01 -5.656828e+00 -5.635622e+00 4.651404e-01 -5.785798e-01 -1.003690e+01 -3.917752e+00 -3.824786e+00 -2.198966e+00 -2.531794e+00 2.631578e+00 -3.933745e+00 6.864928e+01 -4.629040e-01 2.186868e-01 4.937477e-01 1.811553e-01 1.137181e-02 -3.699779e-01 -3.561861e-01 -5.201844e-02 -1.618872e-01 -1.970014e-01 2.386826e-01 1.141134e-01 -1.795371e-01 -1.761634e-02 -7.634907e-03 2.163620e-02 -2.350090e-02 2.540729e-02 5.954478e-02 -1.664402e-02 -2.882999e-02 -2.634946e-02 -9.115511e-03 -8.047170e-02 1.970688e-02 -4.606968e-02
<VARIANCE> 39
 1.076767e+02 1.068470e+02 1.078895e+02 9.371300e+01 2.122876e+02 1.055865e+02 1.161535e+02 9.746039e+01 8.122955e+01 5.765965e+01 7.390265e+01 5.789105e+01 9.776561e+01 5.961871e+00 3.389103e+00 2.487975e+00 5.075005e+00 3.990840e+00 7.336652e+00 4.443721e+00 3.650699e+00 4.015937e+00 4.529455e+00 4.102152e+00 2.503303e+00 3.052892e+00 8.355207e-01 5.247195e-01 4.666762e-01 7.794560e-01 6.389714e-01 1.409906e+00 8.258315e-01 6.340801e-01 7.193971e-01 8.799421e-01 8.204054e-01 3.572549e-01 4.750356e-01
<GCONST> 1.440317e+02
<STATE> 3
<MEAN> 39
 -3.996184e+00 -4.236158e+00 -1.653666e+00 1.250993e+00 -2.134348e+00 -7.579662e+00 -5.412152e+00 -9.389118e+00 -7.918694e-01 -3.233140e+00 -2.497314e+00 -2.944485e+00 6.071775e+01 -2.848505e-01 1.064787e+00 5.300657e-01 5.839905e-01 5.930692e-02 1.024601e+00 3.032629e-01 -9.240187e-02 1.188018e-01 5.163878e-02 -2.733984e-01 -1.132139e-03 -1.463836e+00 -4.555738e-02 1.659692e-01 -7.810152e-02 -1.114951e-02 7.480396e-02 2.115782e-01 1.637948e-01 1.952164e-01 2.015143e-01 1.827776e-03 6.119473e-02 4.081458e-02 -1.089603e-01
<VARIANCE> 39
 1.441908e+02 6.616744e+01 6.184830e+01 1.195882e+02 1.930984e+02 9.860066e+01 1.339383e+02 1.205499e+02 9.124123e+01 1.145634e+02 8.493847e+01 4.932316e+01 1.195977e+02 2.219609e+00 3.170112e+00 2.148993e+00 3.729050e+00 4.504905e+00 5.524677e+00 4.019163e+00 5.328178e+00 4.211732e+00 5.882411e+00 4.603730e+00 2.251061e+00 1.309186e+00 2.415846e-01 3.720869e-01 3.171548e-01 5.590362e-01 5.812222e-01 6.819057e-01 6.674178e-01 7.631608e-01 6.469350e-01 8.697731e-01 7.574630e-01 4.216741e-01 1.833134e-01
<GCONST> 1.386482e+02
<STATE> 4
<MEAN> 39
 -3.625364e+00 -5.358779e+00 1.782878e+00 1.388414e+00 -7.209988e+00 -1.226443e+00 -2.168024e+00 -7.235940e-01 2.269489e+00 -4.130593e+00 -1.068280e+00 9.566547e-01 4.798317e+01 -4.901747e-01 2.349147e-01 -1.852566e-02 2.857145e-01 3.134137e-01 3.403394e-01 5.575259e-02 1.673084e-01 2.073064e-01 2.248470e-01 2.808771e-01 1.504903e-01 -5.838565e-01 6.579245e-03 -2.382438e-01 -6.247564e-02 -6.879248e-02 -7.328552e-02 -1.506502e-01 3.424117e-02 -3.128229e-02 -6.115173e-02 6.801157e-02 8.710804e-03 -4.222978e-02 1.713345e-01
<VARIANCE> 39
 4.759539e+01 1.275587e+02 4.052305e+01 5.912793e+01 1.044549e+02 5.894071e+01 6.101458e+01 4.006964e+01 6.392959e+01 3.614927e+01 3.356897e+01 2.916888e+01 1.154871e+02 1.318552e+00 1.766800e+00 1.949720e+00 1.981165e+00 3.405196e+00 3.075860e+00 2.703588e+00 2.404287e+00 3.490734e+00 2.158998e+00 2.127832e+00 1.863507e+00 9.060861e-01 1.708162e-01 2.906394e-01 2.772042e-01 3.341329e-01 5.856041e-01 5.016721e-01 5.364001e-01 4.796588e-01 5.894585e-01 4.042236e-01 4.145402e-01 3.754776e-01 1.382986e-01
<GCONST> 1.205576e+02
<TRANSP> 5
 0.000000e+00 1.000000e+00 0.000000e+00 0.000000e+00 0.000000e+00
 0.000000e+00 7.881258e-01 2.118743e-01 0.000000e+00 0.000000e+00
 0.000000e+00 0.000000e+00 7.464794e-01 2.535206e-01 0.000000e+00
 0.000000e+00 0.000000e+00 0.000000e+00 8.458630e-01 1.541369e-01
 0.000000e+00 0.000000e+00 0.000000e+00 0.000000e+00 0.000000e+00
<ENDHMM>
~h "w"
<BEGINHMM>
<NUMSTATES> 5
<STATE> 2
<MEAN> 39
 -1.005277e+01 4.711600e+00 -1.213683e+00 7.604985e+00 -1.783208e-01 -3.169415e+00 3.253740e-01 -6.677420e+00 -1.957646e+00 -2.682948e+00 9.164923e-01 -2.488299e+00 5.102582e+01 1.774547e+00 9.802592e-01 4.621585e-01 -3.726713e-01 -6.854566e-01 -1.021825e+00 -6.878799e-01 -6.664478e-01 -4.666451e-01 -1.706536e-01 -3.902909e-01 -1.077870e-01 1.070205e+00 3.810575e-01 -4.483671e-02 -1.569163e-01 -2.806719e-01 -2.575410e-01 -2.348439e-01 -1.311822e-01 -3.961290e-02 -5.586171e-02 4.350026e-02 1.839461e-02 -3.268157e-02 2.849254e-01
<VARIANCE> 39
 7.369524e+01 1.164434e+02 6.075843e+01 6.913742e+01 1.028849e+02 1.065943e+02 7.046400e+01 1.015559e+02 5.419674e+01 7.694846e+01 4.375893e+01 3.773385e+01 1.676163e+02 5.413368e+00 7.444513e+00 5.116905e+00 5.002595e+00 7.366799e+00 7.116689e+00 6.540227e+00 5.206222e+00 3.869760e+00 4.010346e+00 3.315491e+00 2.207123e+00 3.505451e+00 7.614210e-01 1.300264e+00 1.019811e+00 9.626194e-01 1.163886e+00 1.062442e+00 1.282713e+00 1.158344e+00 7.963128e-01 7.750872e-01 4.334875e-01 4.455264e-01 5.833130e-01
<GCONST> 1.464492e+02
<STATE> 3
<MEAN> 39
 4.030121e+00 1.189380e+01 2.162358e+00 5.177667e-01 -1.139774e+01 -1.026231e+01 -6.940018e+00 -5.428359e+00 -1.470370e+00 -2.165873e+00 -2.562757e+00 -2.302832e+00 5.556983e+01 1.108714e+00 -6.583809e-01 -1.226182e+00 -1.732720e+00 -1.157668e+00 -1.037858e+00 7.875499e-01 1.082812e+00 4.488179e-01 6.244215e-02 -2.657452e-01 -9.507623e-02 1.351002e+00 -3.056599e-01 -4.787439e-01 -3.438711e-01 -6.299667e-02 4.320219e-01 4.097253e-01 5.132274e-01 2.172602e-01 -5.671594e-02 -1.754214e-01 -5.871050e-03 6.475862e-03 7.071814e-03
<VARIANCE> 39
 3.890369e+01 5.968235e+01 3.385462e+01 7.854259e+01 9.224989e+01 1.014580e+02 1.300233e+02 6.476786e+01 6.285678e+01 7.608325e+01 3.703346e+01 4.536474e+01 8.217644e+01 1.018397e+00 2.476452e+00 2.402508e+00 3.064255e+00 3.847824e+00 6.222279e+00 7.084599e+00 5.632392e+00 4.392581e+00 3.603290e+00 1.842088e+00 2.916660e+00 9.363573e-01 1.860837e-01 3.031268e-01 3.487826e-01 3.388664e-01 7.682299e-01 6.875573e-01 9.509400e-01 7.025991e-01 7.265022e-01 6.281072e-01 3.849169e-01 4.690345e-01 8.941276e-02
<GCONST> 1.290016e+02
<STATE> 4
<MEAN> 39
 6.735091e+00 1.584126e+00 -1.063120e+01 -7.302637e+00 -9.571537e+00 -8.104513e+00 2.959540e+00 2.817958e+00 -6.391800e-01 -6.760135e+00 -2.284622e+00 -2.821782e+00 6.365757e+01 -2.892677e-03 -1.519216e+00 -1.262622e+00 -2.109680e-01 1.711996e+00 1.494447e+00 2.335818e-01 -3.702056e-01 -6.678647e-01 -5.030513e-01 6.510661e-01 1.512775e-01 7.241323e-01 -1.746704e-01 1.488998e-01 3.922791e-01 4.619835e-01 1.957399e-01 8.535273e-03 -4.423514e-01 -3.937410e-01 -3.342818e-03 2.161981e-01 1.201190e-01 -4.077648e-02 -1.993836e-01
<VARIANCE> 39
 3.505624e+01 8.634597e+01 5.645370e+01 1.221660e+02 1.202930e+02 2.572104e+02 1.877050e+02 1.078385e+02 7.746612e+01 5.248682e+01 5.922881e+01 4.772047e+01 7.598080e+01 4.807739e-01 1.783447e+00 1.863258e+00 2.541683e+00 3.847293e+00 3.617328e+00 5.560191e+00 3.656577e+00 3.696276e+00 3.509082e+00 3.102611e+00 3.010209e+00 8.285225e-01 9.798925e-02 2.060735e-01 2.017899e-01 3.093211e-01 5.611365e-01 7.840155e-01 7.103025e-01 5.098474e-01 6.092367e-01 5.250946e-01 4.940323e-01 5.034035e-01 6.677369e-02
<GCONST> 1.272789e+02
<TRANSP> 5
 0.000000e+00 1.000000e+00 0.000000e+00 0.000000e+00 0.000000e+00
 0.000000e+00 7.352493e-01 2.647508e-01 0.000000e+00 0.000000e+00
 0.000000e+00 0.000000e+00 7.544960e-01 2.455040e-01 0.000000e+00
 0.000000e+00 0.000000e+00 0.000000e+00 7.851179e-01 2.148821e-01
 0.000000e+00 0.000000e+00 0.000000e+00 0.000000e+00 0.000000e+00
<ENDHMM>
~h "z"
<BEGINHMM>
<NUMSTATES> 5
<STATE> 2
<MEAN> 39
 -9.224781e+00 8.148879e+00 -1.401225e+00 3.061169e+00 1.622089e+00 -5.473417e+00 -1.155145e+00 -3.250951e+00 -4.213565e+00 -3.063033e+00 -3.024887e-01 -2.606438e+00 4.959922e+01 1.267236e-03 1.193291e+00 1.090024e+00 -6.653622e-01 -3.278262e-01 -1.163453e+00 -1.877833e-01 -1.224767e+00 1.709344e-01 -9.389502e-01 -2.857866e-01 -1.293799e-01 1.374986e+00 -6.310634e-02 -8.211078e-02 2.143470e-01 -1.413596e-01 -1.620724e-01 8.110324e-02 -2.011771e-02 -1.580717e-01 1.757990e-01 -5.068415e-02 -4.973846e-02 9.193003e-02 1.474760e-01
<VARIANCE> 39
 1.001091e+02 7.623701e+01 8.382776e+01 6.386504e+01 1.884921e+02 1.374740e+02 6.092609e+01 8.939761e+01 1.032031e+02 8.556449e+01 2.595349e+01 4.967670e+01 1.824541e+02 3.769074e+00 3.586267e+00 3.516983e+00 4.412310e+00 6.390409e+00 1.115909e+01 5.382180e+00 4.776896e+00 6.096260e+00 4.654184e+00 2.001904e+00 3.297609e+00 2.422107e+00 6.490112e-01 5.850362e-01 8.198232e-01 8.702320e-01 1.081844e+00 1.649102e+00 1.048957e+00 1.117341e+00 1.033536e+00 7.425622e-01 3.979373e-01 7.195029e-01 4.222758e-01
<GCONST> 1.454538e+02
<STATE> 3
<MEAN> 39
 -1.674650e+01 7.502195e+00 1.079572e+01 3.173667e-01 2.921907e+00 -6.681103e+00 1.178009e+00 -9.666271e+00 -1.034320e+00 -5.346448e+00 -1.049206e+00 2.742287e-01 6.295278e+01 -2.022453e-03 -9.672955e-01 1.183711e+00 -2.682343e-01 -5.655823e-01 -2.109556e-01 -4.505883e-01 -1.904679e-01 2.114877e-01 2.211026e-01 -9.929348e-02 4.087893e-01 6.167895e-01 4.065181e-01 -1.149526e-01 -1.477026e-01 1.716617e-01 -1.196922e-01 -6.771808e-02 -2.280185e-01 3.554153e-02 -2.821958e-01 5.371388e-02 7.215136e-02 -7.217161e-02 -2.620146e-02
<VARIANCE> 39
 1.137030e+02 8.962781e+01 2.048555e+02 8.458533e+01 1.082353e+02 2.275183e+02 7.488821e+01 7.438844e+01 8.233994e+01 4.938907e+01 1.053871e+02 7.299340e+01 1.197053e+02 8.773088e+00 2.488270e+00 7.778118e+00 5.829381e+00 4.800465e+00 6.898127e+00 4.803946e+00 5.059676e+00 5.696860e+00 3.101044e+00 3.385725e+00 2.695879e+00 8.977577e-01 8.369726e-01 3.362990e-01 9.006394e-01 6.807814e-01 7.509974e-01 9.794884e-01 8.127423e-01 8.756673e-01 6.494156e-01 5.890974e-01 6.146006e-01 4.713115e-01 1.511127e-01
<GCONST> 1.435166e+02
<STATE> 4
<MEAN> 39
 -6.852476e+00 -3.898695e+00 1.780167e+01 6.062437e-01 -1.025236e+01 -2.246666e+00 -1.446565e+01 -9.950054e+00 -6.207569e+00 -2.710657e+00 -1.018299e+00 7.382018e-01 6.200817e+01 2.393355e+00 -1.568866e+00 -6.326204e-01 8.958667e-01 -8.609210e-01 -1.212234e+00 -1.066846e+00 5.966019e-01 -3.505850e-01 6.280214e-02 4.093516e-01 -4.276696e-01 1.003510e+00 -3.299719e-01 1.024719e-01 -7.110417e-01 1.280862e-01 4.907378e-01 -4.825138e-02 4.362682e-01 3.692144e-01 4.469647e-01 -3.672196e-02 7.628240e-02 -6.898025e-02 -2.129029e-01
<VARIANCE> 39
 6.526463e+01 7.242065e+01 8.988252e+01 9.365319e+01 1.113339e+02 2.654431e+02 1.362605e+02 1.103498e+02 1.598712e+02 5.027953e+01 5.004115e+01 5.421223e+01 1.002469e+02 4.659968e+00 3.325673e+00 1.110368e+01 7.701285e+00 6.610430e+00 9.571250e+00 6.113180e+00 6.927041e+00 5.662364e+00 4.294783e+00 3.821004e+00 2.789502e+00 2.424218e+00 6.046096e-01 6.092231e-01 5.389678e-01 8.159779e-01 7.748445e-01 1.388858e+00 9.066439e-01 9.043682e-01 7.965435e-01 7.809064e-01 4.581451e-01 4.547706e-01 1.605169e-01
<GCONST> 1.463015e+02
<TRANSP> 5
 0.000000e+00 1.000000e+00 0.000000e+00 0.000000e+00 0.000000e+00
 0.000000e+00 7.305201e-01 2.694800e-01 0.000000e+00 0.000000e+00
 0.000000e+00 0.000000e+00 8.568671e-01 1.431330e-01 0.000000e+00
 0.000000e+00 0.000000e+00 0.000000e+00 7.437334e-01 2.562666e-01
 0.000000e+00 0.000000e+00 0.000000e+00 0.000000e+00 0.000000e+00
<ENDHMM>
~h "aa"
<BEGINHMM>
<NUMSTATES> 5
<STATE> 2
<MEAN> 39
 -9.279174e+00 -1.563745e+00 2.228896e+00 5.174889e+00 3.503614e+00 -4.346576e+00 1.000076e+01 -5.340860e+00 -1.793134e+00 -7.285959e-01 3.729582e-01 -5.413774e+00 6.267873e+01 -1.557856e+00 -8.696073e-01 1.960738e+00 -1.959509e-01 9.837268e-02 -4.080668e-01 -2.385135e-01 -8.350167e-01 -4.870010e-01 2.059220e-01 1.846581e-01 -3.102263e-01 8.414562e-01 -7.137726e-02 8.360330e-03 9.473033e-02 4.383368e-02 -4.083980e-02 -9.953747e-02 -1.518465e-01 8.419573e-02 2.122290e-02 -9.200400e-02 8.346634e-02 -1.585204e-02 5.349791e-02
<VARIANCE> 39
 1.196871e+02 6.978429e+01 1.239520e+02 7.325362e+01 6.179284e+01 9.255519e+01 1.253291e+02 9.139321e+01 4.395547e+01 6.714039e+01 4.136404e+01 4.218620e+01 9.577222e+01 5.345257e+00 5.313574e+00 6.703646e+00 8.408016e+00 5.848579e+00 7.117636e+00 6.234148e+00 9.678441e+00 4.456743e+00 6.465020e+00 3.593333e+00 2.367264e+00 4.777736e+00 7.842596e-01 8.439553e-01 9.643390e-01 1.443443e+00 8.785044e-01 1.081997e+00 8.841592e-01 1.634072e+00 8.641101e-01 1.066495e+00 5.948503e-01 3.644636e-01 7.857311e-01
<GCONST> 1.484918e+02
<STATE> 3
<MEAN> 39
 -1.872686e+01 -9.083316e+00 1.111362e+01 3.319268e+00 -3.257343e-01 -6.496801e+00 5.919529e+00 -6.619810e+00 -2.338319e+00 9.332657e-01 3.371567e+00 -2.969321e+00 6.551519e+01 7.466630e-01 1.839259e-01 -1.480003e-01 9.417105e-01 1.901269e-01 6.413531e-02 -7.723250e-01 4.767726e-02 -5.988182e-01 3.958031e-01 -1.589632e-01 -2.134926e-02 -7.481196e-01 5.488115e-01 3.919314e-01 -3.531527e-01 2.428141e-01 -8.585124e-02 1.050679e-01 -5.165309e-02 -5.512770e-02 -6.441595e-02 -7.773171e-02 -9.983011e-02 -1.584417e-01 -2.435246e-01
<VARIANCE> 39
 9.446751e+01 4.477651e+01 4.894074e+01 6.706811e+01 8.892581e+01 5.839861e+01 6.332683e+01 5.215535e+01 4.494836e+01 5.480494e+01 3.437607e+01 4.840430e+01 3.878725e+01 4.628597e+00 2.785434e+00 2.759579e+00 2.127493e+00 2.174059e+00 3.036650e+00 2.782185e+00 2.155856e+00 2.653719e+00 2.093566e+00 2.059556e+00 1.585169e+00 1.185964e+00 4.565181e-01 3.578696e-01 6.242734e-01 4.411485e-01 3.952341e-01 5.566217e-01 4.462473e-01 4.934212e-01 7.042967e-01 4.458634e-01 4.598452e-01 3.173994e-01 2.020127e-01
<GCONST> 1.239286e+02
<STATE> 4
<MEAN> 39
 -6.202303e+00 6.782194e-01 2.614253e+00 1.083706e+01 1.244610e+00 -4.539392e+00 3.999593e-01 -8.647384e+00 -6.277930e+00 -1.633790e+00 2.400522e+00 -5.301070e+00 5.939494e+01 9.560735e-01 1.151786e+00 -1.296921e+00 -9.275568e-02 -4.116207e-01 6.815702e-01 4.082844e-01 2.675253e-01 4.291264e-01 -7.653081e-01 2.606413e-01 2.862531e-01 -5.743597e-01 -4.022272e-01 -1.285805e-01 5.721758e-02 -3.614980e-01 8.694550e-02 5.696922e-02 1.392589e-01 2.125089e-01 5.389991e-01 3.477351e-02 -9.068552e-02 2.174631e-01 1.658263e-02
<VARIANCE> 39
 7.842619e+01 8.123466e+01 4.717870e+01 4.235529e+01 5.319961e+01 5.527581e+01 5.417537e+01 5.066981e+01 4.363279e+01 6.233697e+01 5.260003e+01 5.885367e+01 4.920485e+01 3.602772e+00 3.507341e+00 3.506614e+00 4.157187e+00 2.173543e+00 3.756652e+00 3.437754e+00 3.757623e+00 7.937006e+00 3.295137e+00 2.256189e+00 2.414039e+00 1.535281e+00 3.309077e-01 6.917032e-01 6.391694e-01 4.826607e-01 3.844063e-01 6.934261e-01 6.565937e-01 5.279712e-01 1.273397e+00 4.833770e-01 4.097819e-01 4.828284e-01 2.412305e-01
<GCONST> 1.304854e+02
<TRANSP> 5
 0.000000e+00 1.000000e+00 0.000000e+00 0.000000e+00 0.000000e+00
 0.000000e+00 7.800086e-01 2.199915e-01 0.000000e+00 0.000000e+00
 0.000000e+00 0.000000e+00 7.560824e-01 2.439177e-01 0.000000e+00
 0.000000e+00 0.000000e+00 0.000000e+00 6.937240e-01 3.062760e-01
 0.000000e+00 0.000000e+00 0.000000e+00 0.000000e+00 0.000000e+00
<ENDHMM>
~h "ae"
<BEGINHMM>
<NUMSTATES> 5
<STATE> 2
<MEAN> 39
 -1.234720e+01 -1.275907e+01 3.321481e+00 7.673462e+00 1.065654e+01 -1.210822e+01 3.791982e+00 -4.525177e+00 -4.294466e+00 -7.289157e+00 3.453957e+00 -6.609914e-01 6.638471e+01 -6.162536e-01 -4.076963e-01 6.020355e-01 3.941888e-01 3.195647e-01 -2.272225e-01 -6.700909e-01 2.528180e-01 -2.259944e-02 -2.697542e-01 1.309901e-02 -9.727146e-02 -1.078392e-02 1.686132e-01 6.146706e-02 -2.723491e-01 -1.258016e-01 1.174039e-01 -7.125821e-02 -3.293915e-02 -1.134516e-01 2.362591e-01 1.172634e-01 -2.355120e-01 7.975072e-02 2.124631e-02
<VARIANCE> 39
 1.409154e+02 1.297626e+02 6.351985e+01 2.879088e+01 6.037642e+01 5.283598e+01 8.421078e+01 4.124137e+01 8.000118e+01 2.434439e+01 2.959751e+01 3.343311e+01 2.603011e+01 1.416948e+01 8.988894e+00 8.169869e+00 3.375968e+00 3.024451e+00 4.564778e+00 3.651507e+00 4.406706e+00 8.442040e+00 2.561610e+00 3.387353e+00 1.989753e+00 2.049063e+00 1.515831e+00 7.621242e-01 1.097858e+00 7.137868e-01 4.312804e-01 1.070446e+00 7.764472e-01 7.157696e-01 1.403260e+00 4.851229e-01 4.970510e-01 3.834879e-01 4.436442e-01
<GCONST> 1.379061e+02
<STATE> 3
<MEAN> 39
 -6.035954e+00 -5.942176e+00 2.903113e+00 1.644934e+01 1.616142e+00 -1.226385e+01 -7.855324e+00 -7.044408e+00 7.660081e+00 -2.608349e+00 -8.153049e+00 -8.822500e-01 6.443697e+01 7.918343e-02 3.080514e-01 -3.235445e-01 -7.176209e-01 -2.496144e-01 1.128283e-01 1.198357e-01 6.841787e-02 1.624855e-01 -1.108070e-02 -3.387818e-01 -3.767221e-01 -3.629833e-02 2.444288e-01 1.746073e-01 -1.085206e-01 -4.078794e-01 -3.144927e-01 -1.320831e-01 2.381661e-02 5.697767e-02 -2.201946e-01 -1.100261e-01 1.068381e-01 1.107678e-01 1.132024e-01
<VARIANCE> 39
 4.935461e+01 1.704558e+02 2.426031e+01 2.931046e+01 4.609225e+01 2.675677e+01 5.620386e+01 1.931919e+01 7.634472e+01 3.469757e+01 3.360638e+01 2.725807e+01 1.355942e+01 4.036824e+00 1.287265e+01 2.793113e+00 3.418667e+00 3.117292e+00 2.856118e+00 4.133260e+00 2.371641e+00 4.533083e+00 2.880493e+00 3.348468e+00 1.803799e+00 1.335296e+00 2.915486e-01 1.061266e+00 5.195155e-01 5.166349e-01 3.923334e-01 5.035954e-01 7.967864e-01 4.340399e-01 5.458730e-01 3.553127e-01 3.785170e-01 2.739841e-01 1.747643e-01
<GCONST> 1.232086e+02
<STATE> 4
<MEAN> 39
 -8.638039e+00 -5.420696e+00 8.421907e-02 3.284113e+00 5.105736e+00 -1.553290e+01 4.133668e+00 -1.545422e+00 -2.482219e+00 -1.382406e+01 -1.176007e+00 6.562644e-01 6.553855e+01 -9.520023e-01 -9.175035e-01 6.661286e-01 -1.189331e-01 -2.653835e-01 -5.005001e-01 1.995213e-01 2.802172e-01 2.531267e-01 7.239858e-02 5.234762e-01 6.150695e-02 2.513496e-01 -2.763582e-02 6.196281e-02 1.144186e-01 2.002346e-01 1.357563e-01 1.250492e-01 -8.808202e-02 -1.348530e-01 -2.230723e-02 1.220773e-01 8.263207e-02 -5.168333e-02 -9.023177e-02
<VARIANCE> 39
 2.155178e+02 1.674493e+02 9.714408e+01 1.616339e+01 1.147914e+02 3.634066e+01 5.575245e+01 5.977156e+01 6.307158e+01 3.245474e+01 9.430496e+01 1.584867e+01 1.639517e+01 4.509452e+00 3.604422e+00 2.998439e+00 2.253298e+00 4.207153e+00 3.475329e+00 3.003701e+00 4.891073e+00 4.454800e+00 2.369139e+00 3.252490e+00 1.451109e+00 1.108616e+00 4.573713e-01 4.078887e-01 5.376636e-01 3.563252e-01 5.593164e-01 6.955494e-01 5.000780e-01 7.351047e-01 7.653084e-01 3.721403e-01 4.299755e-01 2.321017e-01 1.712420e-01
<GCONST> 1.271865e+02
<TRANSP> 5
 0.000000e+00 1.000000e+00 0.000000e+00 0.000000e+00 0.000000e+00
 0.000000e+00 8.705648e-01 1.294352e-01 0.000000e+00 0.000000e+00
 0.000000e+00 0.000000e+00 8.232807e-01 1.767194e-01 0.000000e+00
 0.000000e+00 0.000000e+00 0.000000e+00 8.813868e-01 1.186132e-01
 0.000000e+00 0.000000e+00 0.000000e+00 0.000000e+00 0.000000e+00
<ENDHMM>
~h "ah"
<BEGINHMM>
<NUMSTATES> 5
<STATE> 2
<MEAN> 39
 3.003704e+00 -4.294936e+00 -5.196464e+00 -2.765930e+00 -1.501926e+00 -1.979369e+00 -5.134458e+00 -4.021803e+00 -1.734344e+00 -4.842876e+00 -9.614021e-01 -3.636928e+00 5.984126e+01 -2.676041e-01 -2.066465e-01 5.497831e-01 8.561241e-01 -2.414820e-02 -5.715281e-01 1.582288e-01 1.562375e-01 -1.258292e-01 1.861957e-01 -2.713027e-01 -1.265928e-01 -2.148831e-01 -1.153501e-01 3.330667e-01 1.469410e-01 8.455683e-02 -5.913126e-03 1.186829e-01 3.002743e-02 -9.904671e-03 3.545341e-02 -2.752262e-02 -3.514841e-02 -1.740784e-02 -2.517423e-01
<VARIANCE> 39
 2.526848e+01 7.761104e+01 7.211665e+01 1.286103e+02 1.388030e+02 1.160688e+02 1.159079e+02 8.666857e+01 7.727407e+01 6.533367e+01 1.221479e+02 8.190326e+01 7.393182e+01 6.298013e-01 2.899194e+00 1.687461e+00 2.808820e+00 3.132039e+00 4.057863e+00 3.372753e+00 4.122460e+00 3.858817e+00 3.763913e+00 3.554765e+00 2.762317e+00 1.267616e+00 1.317441e-01 3.011359e-01 3.202558e-01 2.944194e-01 5.554682e-01 6.795406e-01 5.743461e-01 7.482796e-01 6.608963e-01 6.944330e-01 6.770762e-01 4.903429e-01 9.802865e-02
<GCONST> 1.302551e+02
<STATE> 3
<MEAN> 39
 5.839456e-01 6.698076e-01 -2.773199e+00 6.216786e+00 3.034296e+00 -6.276046e+00 5.690048e-01 -8.394978e+00 -7.814227e+00 -3.810235e+00 1.114758e+00 -5.032199e+00 6.202660e+01 -2.960338e-01 1.115161e+00 7.364799e-01 9.648640e-01 1.539062e-01 5.298766e-01 -7.530074e-01 -5.166002e-01 6.142594e-01 -1.766724e-01 -4.475056e-01 -1.724585e-01 -9.923899e-01 -1.951812e-02 5.149101e-02 1.095575e-01 1.305476e-02 -8.531493e-02 5.421118e-03 -1.002250e-01 8.959028e-02 1.554216e-01 -1.687826e-01 -1.733789e-01 9.756269e-02 -3.630682e-02
<VARIANCE> 39
 1.921863e+01 7.505013e+01 5.138519e+01 1.004030e+02 1.039041e+02 5.915704e+01 1.125743e+02 9.604810e+01 4.657184e+01 5.548173e+01 5.321279e+01 4.261184e+01 7.339121e+01 4.798918e-01 1.066915e+00 1.014374e+00 2.100191e+00 2.266364e+00 2.423778e+00 3.176739e+00 3.498015e+00 2.713049e+00 3.283560e+00 3.166142e+00 1.928174e+00 4.672031e-01 6.408269e-02 2.018355e-01 1.614779e-01 3.457443e-01 3.354966e-01 5.144705e-01 5.372278e-01 5.562487e-01 3.624993e-01 4.579494e-01 4.034684e-01 2.803679e-01 9.069648e-02
<GCONST> 1.162515e+02
<STATE> 4
<MEAN> 39
 3.723186e+00 9.344140e+00 3.919709e+00 8.740618e+00 -3.939243e+00 -6.975951e+00 -7.205595e+00 -9.156453e+00 -1.451894e+00 -6.270686e+00 -4.981680e+00 -1.062736e+00 6.009198e+01 -2.763040e-01 3.489755e-01 3.472128e-01 1.846967e-01 2.853548e-02 2.148092e-01 1.566937e-01 7.026504e-02 1.847925e-01 3.383737e-02 -1.148134e-01 -3.181702e-02 -3.314518e-01 -4.361086e-02 -6.404838e-02 -2.109453e-02 -3.663522e-02 1.159052e-02 2.660430e-02 8.887168e-02 4.273316e-03 -7.675197e-02 4.677419e-02 4.856230e-02 -5.293822e-03 8.185750e-03
<VARIANCE> 39
 3.006041e+01 6.751324e+01 3.379944e+01 6.052779e+01 8.611998e+01 4.639260e+01 6.341309e+01 3.629288e+01 3.427423e+01 4.555020e+01 3.396749e+01 2.451297e+01 5.841660e+01 4.235165e-01 8.840033e-01 8.390300e-01 1.330682e+00 1.311520e+00 1.293015e+00 1.771056e+00 1.707248e+00 1.903729e+00 1.683946e+00 1.580808e+00 1.606960e+00 3.161709e-01 5.127383e-02 1.215953e-01 1.238449e-01 2.036271e-01 1.974425e-01 2.194150e-01 3.114289e-01 3.360987e-01 3.440853e-01 3.199778e-01 2.915245e-01 2.715079e-01 4.019500e-02
<GCONST> 1.006934e+02
<TRANSP> 5
 0.000000e+00 1.000000e+00 0.000000e+00 0.000000e+00 0.000000e+00
 0.000000e+00 6.790982e-01 3.209018e-01 0.000000e+00 0.000000e+00
 0.000000e+00 0.000000e+00 6.827722e-01 3.172278e-01 0.000000e+00
 0.000000e+00 0.000000e+00 0.000000e+00 8.414211e-01 1.585789e-01
 0.000000e+00 0.000000e+00 0.000000e+00 0.000000e+00 0.000000e+00
<ENDHMM>
~h "ao"
<BEGINHMM>
<NUMSTATES> 5
<STATE> 2
<MEAN> 39
 5.079738e+00 1.145951e+01 -2.747741e+00 -4.206560e+00 -1.133179e+01 -1.535585e+01 -5.705004e-01 -3.268315e+00 -4.653339e-01 -2.377080e+00 -4.595041e+00 -8.067573e+00 6.420493e+01 2.138094e+00 5.388902e-01 3.305582e-01 -3.261543e-01 -2.600044e+00 -2.403083e+00 -1.146692e+00 6.901500e-01 4.957741e-03 1.092029e+00 -1.422660e-01 -7.391322e-01 6.799696e-01 -1.304306e+00 -7.980502e-01 -2.261616e-01 4.006706e-01 1.188216e+00 9.066651e-01 4.337334e-01 7.902194e-02 -1.316568e-02 -8.453609e-02 2.062387e-01 4.162479e-01 -2.757589e-01
<VARIANCE> 39
 2.279936e+01 7.633009e+01 2.950908e+01 1.104619e+02 5.232708e+01 1.625447e+02 1.190266e+02 3.516877e+01 3.926346e+01 4.408353e+01 2.463466e+01 6.504217e+01 4.100124e+01 4.610648e+00 3.699215e+00 1.131536e+00 2.819391e+00 6.773169e+00 6.373792e+00 4.094931e+00 2.630081e+00 3.455787e+00 2.991359e+00 1.495155e+00 1.960253e+00 6.656669e-01 3.705007e-01 5.776904e-01 2.791550e-01 5.642471e-01 8.365170e-01 7.351969e-01 6.361346e-01 3.504293e-01 4.228337e-01 4.756694e-01 3.785734e-01 4.109076e-01 1.752100e-01
<GCONST> 1.257249e+02
<STATE> 3
<MEAN> 39
 6.615559e+00 1.273735e+01 -3.318143e+00 8.558068e-01 -1.351298e+01 -1.676069e+01 -3.788106e+00 -3.823909e+00 7.356880e-01 -4.238869e+00 -4.039238e+00 -8.135693e+00 6.418900e+01 1.273237e-01 -4.004146e-01 -5.822340e-01 -3.574291e-01 3.664409e-01 8.091504e-01 4.568936e-01 -1.475933e-01 -6.825891e-01 -2.629013e-01 2.605318e-01 5.019991e-02 1.430748e-01 -6.749558e-02 -5.830006e-02 -1.196871e-01 -4.489933e-02 3.157141e-01 2.232507e-01 1.042443e-01 -1.708471e-01 -2.136360e-01 5.686493e-03 6.134324e-02 1.144348e-01 -1.055390e-03
<VARIANCE> 39
 1.482467e+01 5.947652e+01 3.184964e+01 6.679988e+01 3.651762e+01 7.922424e+01 1.394318e+02 2.671447e+01 5.379432e+01 4.968888e+01 2.814928e+01 4.494760e+01 2.431680e+01 1.517587e-01 5.322538e-01 8.438411e-01 8.253621e-01 1.455801e+00 1.584667e+00 1.971258e+00 1.606789e+00 2.077310e+00 1.320676e+00 1.220598e+00 1.243851e+00 1.433192e-01 5.543183e-02 7.935265e-02 1.043736e-01 1.662621e-01 2.370544e-01 3.116124e-01 3.697710e-01 2.743436e-01 2.354060e-01 2.421204e-01 2.781715e-01 2.218621e-01 2.650988e-02
<GCONST> 9.548057e+01
<STATE> 4
<MEAN> 39
 7.549897e+00 -9.756207e-01 -8.728414e+00 -1.471840e+01 -9.636834e+00 -4.849361e-01 2.340509e-01 -2.831146e+00 -3.978205e+00 1.741085e-01 -7.949400e-01 -4.581140e+00 6.178256e+01 -1.055108e-03 -8.043761e-01 -5.194754e-01 8.608037e-01 7.824786e-01 -2.715719e-02 3.548513e-02 -7.811888e-02 -4.415896e-01 4.353526e-01 3.771956e-01 -8.829321e-05 -2.622355e-02 -1.872215e-02 9.838893e-03 3.245599e-02 1.650544e-01 3.928608e-02 -1.059360e-01 -5.922517e-02 4.159849e-03 7.001980e-02 -1.561199e-02 1.036146e-02 -2.115786e-02 -2.502841e-02
<VARIANCE> 39
 1.214368e+01 1.011534e+02 4.443684e+01 1.166367e+02 1.424311e+02 2.884090e+02 9.342505e+01 1.213501e+02 9.439158e+01 6.275611e+01 5.239507e+01 6.632376e+01 8.520429e+01 1.787708e-01 1.353873e+00 1.025421e+00 2.124396e+00 2.502455e+00 3.884372e+00 2.169725e+00 5.563076e+00 3.089054e+00 3.008744e+00 3.522430e+00 2.500399e+00 3.063865e-01 3.010981e-02 1.922585e-01 1.515982e-01 1.704807e-01 3.062565e-01 4.557380e-01 4.229795e-01 6.421803e-01 4.101247e-01 5.965493e-01 5.419604e-01 4.259624e-01 3.101078e-02
<GCONST> 1.175077e+02
<TRANSP> 5
 0.000000e+00 1.000000e+00 0.000000e+00 0.000000e+00 0.000000e+00
 0.000000e+00 5.898428e-01 4.101572e-01 0.000000e+00 0.000000e+00
 0.000000e+00 0.000000e+00 8.309197e-01 1.690803e-01 0.000000e+00
 0.000000e+00 0.000000e+00 0.000000e+00 8.717179e-01 1.282821e-01
 0.000000e+00 0.000000e+00 0.000000e+00 0.000000e+00 0.000000e+00
<ENDHMM>
~h "ay"
<BEGINHMM>
<NUMSTATES> 5
<STATE> 2
<MEAN> 39
 3.576814e+00 -1.336820e+00 -3.317939e+00 1.569846e+00 -2.908685e+00 -5.758759e+00 -3.649275e+00 -4.716372e+00 -3.022361e+00 -3.277228e+00 -2.138052e+00 -2.812232e+00 6.243095e+01 1.272472e+00 -2.350687e+00 -1.647168e+00 -2.035256e+00 -6.744667e-02 -6.560035e-01 5.230180e-01 7.729242e-01 -1.089806e-01 1.665624e-01 4.404617e-02 3.682941e-01 2.556241e+00 -5.674555e-01 -1.294180e-01 2.411801e-02 2.148882e-02 3.527751e-01 3.721025e-01 1.138139e-01 1.400408e-01 1.959950e-01 -9.447627e-03 -8.551544e-03 2.012879e-02 -3.112465e-01
<VARIANCE> 39
 4.625834e+01 1.074924e+02 1.114352e+02 1.159856e+02 1.296034e+02 1.116788e+02 1.285352e+02 9.231346e+01 5.930567e+01 6.249283e+01 8.146806e+01 5.783384e+01 1.458000e+02 5.368218e+00 6.298306e+00 6.336373e+00 4.491066e+00 9.511212e+00 7.347023e+00 8.741653e+00 7.510840e+00 5.139718e+00 6.192758e+00 6.176519e+00 5.834243e+00 2.349022e+00 1.065726e+00 1.150192e+00 1.118658e+00 9.542998e-01 1.451066e+00 1.197872e+00 1.199211e+00 1.372570e+00 9.105775e-01 8.740978e-01 9.730839e-01 8.465681e-01 7.279586e-01
<GCONST> 1.540549e+02
<STATE> 3
<MEAN> 39
 6.434715e+00 -1.077410e+01 -1.167711e+01 -7.666445e+00 2.557163e+00 -4.660694e+00 -2.136917e+00 -1.872786e+00 -1.017838e-01 -1.702094e+00 -1.529415e+00 -4.712218e+00 7.010027e+01 5.329185e-03 -1.422835e-01 8.008823e-03 4.429913e-01 1.812114e-01 -1.397373e-03 -1.560522e-01 2.884523e-02 2.891790e-01 -1.568045e-01 -2.450373e-01 1.296805e-01 -2.398269e-01 -6.570884e-02 2.263413e-01 1.250116e-01 2.155092e-01 -3.730893e-03 -7.808479e-02 -1.008981e-01 -3.176710e-02 -1.364061e-02 3.537064e-02 2.323773e-02 1.417743e-02 -1.811363e-01
<VARIANCE> 39
 2.307077e+01 6.940320e+01 7.532585e+01 1.376278e+02 1.098107e+02 2.188752e+02 2.432068e+02 6.998835e+01 7.243724e+01 8.747827e+01 8.075756e+01 7.698424e+01 4.339059e+01 6.758390e-01 1.137856e+00 2.289628e+00 2.447253e+00 2.816868e+00 5.127635e+00 2.978004e+00 2.984245e+00 2.626363e+00 2.720214e+00 2.893313e+00 2.688184e+00 5.180807e-01 1.788878e-01 2.463036e-01 3.653407e-01 3.728353e-01 4.682483e-01 7.433865e-01 6.427440e-01 5.421585e-01 4.827513e-01 5.573511e-01 5.274023e-01 5.071349e-01 1.690478e-01
<GCONST> 1.274321e+02
<STATE> 4
<MEAN> 39
 4.169045e+00 -5.367904e+00 -8.256975e+00 2.963243e-01 -3.088106e-01 -5.967262e+00 -1.340833e+00 -4.425817e+00 -1.032319e+00 -3.821645e+00 -4.829645e+00 4.299234e-01 6.686927e+01 -1.383522e-01 1.370893e-01 4.577097e-01 4.580132e-01 9.960315e-02 -3.500820e-01 -2.823910e-01 -1.241087e-01 -1.300190e-01 1.477093e-01 1.352368e-01 -1.896269e-02 -1.490587e-01 -4.318069e-02 8.342516e-02 1.460426e-01 6.496089e-02 -4.534617e-02 -1.003870e-02 5.444939e-02 -3.194023e-02 -5.435383e-02 -1.657423e-02 -3.311258e-04 -5.290172e-02 -4.401854e-02
<VARIANCE> 39
 3.186420e+01 1.017424e+02 6.497828e+01 4.780593e+01 1.010596e+02 1.095074e+02 1.259733e+02 5.774697e+01 4.405727e+01 5.374426e+01 6.200909e+01 4.559402e+01 5.480310e+01 1.568104e-01 4.404752e-01 1.043396e+00 1.152153e+00 1.410376e+00 1.403603e+00 1.703999e+00 1.384287e+00 1.548085e+00 1.422665e+00 1.447703e+00 1.095870e+00 1.341275e-01 2.526405e-02 6.641120e-02 1.043945e-01 1.429283e-01 1.605608e-01 2.235035e-01 2.400378e-01 2.073839e-01 2.155619e-01 2.217166e-01 2.127582e-01 1.799058e-01 1.972245e-02
<GCONST> 9.686879e+01
<TRANSP> 5
 0.000000e+00 1.000000e+00 0.000000e+00 0.000000e+00 0.000000e+00
 0.000000e+00 7.094489e-01 2.905511e-01 0.000000e+00 0.000000e+00
 0.000000e+00 0.000000e+00 8.357013e-01 1.642987e-01 0.000000e+00
 0.000000e+00 0.000000e+00 0.000000e+00 9.112566e-01 8.874337e-02
 0.000000e+00 0.000000e+00 0.000000e+00 0.000000e+00 0.000000e+00
<ENDHMM>
~h "eh"
<BEGINHMM>
<NUMSTATES> 5
<STATE> 2
<MEAN> 39
 -1.048285e+01 1.162433e+00 2.392610e+00 1.918075e+00 2.707598e+00 -9.891644e-01 3.641074e+00 -7.033820e+00 2.402589e-01 -1.935361e+00 -4.298449e-02 -2.113787e+00 6.306110e+01 2.522932e+00 -3.306524e-01 -5.016733e-01 -4.411627e-02 -4.704427e-01 -1.259500e+00 -9.637809e-01 -2.386796e-01 -7.789938e-01 -1.255625e-01 -5.045501e-01 9.786426e-02 9.795145e-01 2.106327e-01 -1.055477e-01 -1.534362e-01 -3.309100e-02 -8.542556e-02 -1.752561e-01 -9.056236e-02 2.818208e-01 6.972928e-02 -8.740187e-02 -1.214941e-02 -9.319310e-03 1.496701e-01
<VARIANCE> 39
 1.381182e+02 4.630142e+01 8.803155e+01 9.318942e+01 7.953480e+01 9.260260e+01 9.114956e+01 8.354527e+01 5.272951e+01 3.713779e+01 5.657883e+01 5.694495e+01 9.607957e+01 1.149711e+01 4.280542e+00 5.311012e+00 4.154641e+00 4.410172e+00 6.654535e+00 5.568338e+00 5.241076e+00 5.444224e+00 3.929459e+00 3.604175e+00 2.382242e+00 2.811006e+00 1.540634e+00 5.518779e-01 4.606297e-01 4.740381e-01 5.398999e-01 9.986762e-01 7.619925e-01 8.376284e-01 8.082243e-01 5.771735e-01 4.982916e-01 3.581060e-01 4.323175e-01
<GCONST> 1.414325e+02
<STATE> 3
<MEAN> 39
 -1.055148e+00 -7.251818e+00 -3.395273e+00 -2.062053e+00 -1.248598e+00 -7.747102e+00 1.461271e+00 2.454869e+00 -1.907212e+00 -2.332892e+00 -1.035045e-01 -4.939753e-01 7.415015e+01 6.045919e-01 -4.661517e-01 -6.091615e-01 6.937961e-02 -8.629476e-02 2.134004e-01 4.758283e-02 4.443700e-01 3.224093e-01 -3.283867e-01 -2.706032e-01 -1.513577e-01 -2.738345e-02 -4.036983e-01 2.107397e-01 9.137546e-02 1.371029e-01 1.735712e-01 3.247860e-01 1.149534e-01 -1.496733e-01 2.773817e-02 3.995030e-02 5.269625e-02 3.499394e-02 -2.900702e-01
<VARIANCE> 39
 4.076326e+01 6.804816e+01 4.093923e+01 7.693950e+01 9.735841e+01 6.539581e+01 7.175758e+01 1.191809e+02 8.852184e+01 5.580711e+01 7.238779e+01 6.007476e+01 1.619086e+02 1.489992e+00 2.888778e+00 2.316223e+00 2.886352e+00 4.049575e+00 4.031450e+00 2.321184e+00 4.037266e+00 3.035103e+00 2.625825e+00 2.736436e+00 3.222866e+00 1.710708e+00 5.422073e-01 4.049844e-01 2.993556e-01 4.589958e-01 8.570298e-01 6.999680e-01 6.403501e-01 6.500044e-01 7.609504e-01 5.467427e-01 6.145830e-01 5.480886e-01 2.913744e-01
<GCONST> 1.325357e+02
<STATE> 4
<MEAN> 39
 2.014082e-02 -4.770208e-01 -6.344558e+00 8.647568e+00 -1.385912e+00 4.368094e+00 2.294851e+00 4.447647e-01 -5.410275e-01 -1.792865e+00 -1.839875e+00 -4.782854e+00 6.829692e+01 7.453764e-02 5.347704e-02 -8.415767e-02 3.965243e-02 6.118810e-02 5.722050e-04 -9.334487e-02 5.323201e-03 1.247220e-01 5.178150e-02 -1.668078e-01 -3.954069e-02 -8.182718e-02 -4.444731e-02 8.532252e-02 7.138123e-02 -1.362005e-02 3.395354e-04 -4.296284e-02 -6.352891e-03 3.265548e-03 -9.681336e-03 4.629866e-02 5.782566e-02 -2.821802e-02 -3.201657e-02
<VARIANCE> 39
 1.992436e+01 3.643659e+01 6.238982e+01 8.575497e+01 6.071624e+01 1.054721e+02 5.513985e+01 4.787875e+01 4.920328e+01 4.266383e+01 3.950730e+01 4.291268e+01 4.200190e+01 4.838454e-01 9.348835e-01 1.051816e+00 1.242249e+00 1.748314e+00 1.764359e+00 2.111038e+00 1.828636e+00 1.465768e+00 1.710972e+00 1.939333e+00 1.641371e+00 1.911196e-01 1.158011e-01 1.756642e-01 2.286324e-01 2.656669e-01 3.957563e-01 3.564815e-01 3.874013e-01 3.855999e-01 2.604657e-01 3.176614e-01 3.914959e-01 3.036340e-01 4.001349e-02
<GCONST> 1.062931e+02
<TRANSP> 5
 0.000000e+00 1.000000e+00 0.000000e+00 0.000000e+00 0.000000e+00
 0.000000e+00 7.754692e-01 2.245307e-01 0.000000e+00 0.000000e+00
 0.000000e+00 0.000000e+00 6.673116e-01 3.326884e-01 0.000000e+00
 0.000000e+00 0.000000e+00 0.000000e+00 8.521287e-01 1.478713e-01
 0.000000e+00 0.000000e+00 0.000000e+00 0.000000e+00 0.000000e+00
<ENDHMM>
~h "er"
<BEGINHMM>
<NUMSTATES> 5
<STATE> 2
<MEAN> 39
 -1.141546e+00 4.220010e+00 -5.498628e+00 6.013969e+00 1.365455e+00 -2.185809e+00 -1.278072e+00 -1.643918e+01 -9.213965e+00 -3.356346e+00 2.950309e+00 -3.043572e-01 6.180596e+01 -9.660593e-01 -7.964926e-01 7.069301e-01 4.499405e-01 -1.469261e-01 -2.037110e-01 1.396652e-01 4.646934e-01 7.532346e-01 3.126644e-01 -1.448427e-01 -4.357807e-02 -1.997626e-01 -2.843876e-01 -8.275612e-02 2.846635e-01 1.400097e-02 -3.399387e-02 4.892887e-02 2.050051e-01 2.475631e-01 2.407897e-01 5.401273e-02 -9.438314e-02 6.593142e-02 -7.232922e-02
<VARIANCE> 39
 5.207024e+01 4.006078e+01 6.069122e+01 4.279390e+01 5.435136e+01 5.356551e+01 4.857371e+01 4.800591e+01 6.872601e+01 7.379028e+01 4.146772e+01 2.876440e+01 2.009072e+01 1.748644e+00 2.685353e+00 2.599270e+00 1.734468e+00 2.230019e+00 3.823440e+00 3.719146e+00 2.494322e+00 1.984076e+00 2.079719e+00 1.637773e+00 1.031641e+00 7.788388e-01 2.197161e-01 4.569921e-01 2.682543e-01 3.548141e-01 4.117008e-01 7.431303e-01 6.509242e-01 4.041843e-01 4.102148e-01 3.651925e-01 2.975383e-01 2.234407e-01 1.595143e-01
<GCONST> 1.170291e+02
<STATE> 3
<MEAN> 39
 -1.499675e+01 -5.010556e+00 4.592333e+00 6.026888e+00 -2.677145e+00 -9.472975e-01 6.931772e+00 -7.519854e+00 1.974732e-01 1.743309e+00 2.813947e+00 6.629091e-01 5.993869e+01 -2.249359e-01 3.292583e-01 -1.621401e-02 7.830741e-03 -6.783199e-02 1.976722e-01 1.630197e-01 3.733090e-01 3.680379e-01 -6.750137e-02 -1.202029e-01 9.649789e-02 -4.439112e-01 7.248201e-02 1.185545e-01 -5.260768e-02 6.405328e-02 7.498235e-02 -2.487836e-02 -4.323577e-02 -3.353753e-02 -4.099747e-02 -3.969947e-02 -2.156177e-02 1.093187e-03 -3.855796e-02
<VARIANCE> 39
 7.579593e+01 4.856627e+01 1.666741e+02 5.957462e+01 5.360245e+01 7.482737e+01 5.700913e+01 3.576952e+01 4.095273e+01 5.413538e+01 4.349296e+01 3.331908e+01 2.879859e+01 1.472022e+00 2.560879e+00 3.405760e+00 2.559542e+00 2.043636e+00 2.532923e+00 2.556360e+00 2.304156e+00 2.188041e+00 1.956654e+00 2.359693e+00 1.255778e+00 1.209362e+00 1.563873e-01 4.773124e-01 4.071116e-01 3.261096e-01 3.521611e-01 4.061557e-01 3.852085e-01 4.014584e-01 3.880470e-01 4.079705e-01 3.560564e-01 2.144405e-01 2.081475e-01
<GCONST> 1.185812e+02
<STATE> 4
<MEAN> 39
 -1.646230e+01 3.482888e+00 -7.937033e-01 1.009688e+01 1.306986e-01 2.036110e+00 5.919481e+00 -1.635733e+00 4.942143e+00 -2.788889e+00 8.219908e-01 -1.882945e+00 4.843150e+01 -2.932641e-02 2.051491e-02 2.965494e-02 7.074464e-03 1.749743e-02 1.071705e-02 2.181004e-02 4.069442e-02 3.554155e-02 1.920847e-02 -3.942616e-02 -8.752474e-03 -7.421694e-02 1.140767e-02 -1.278282e-02 -1.202707e-02 3.173721e-03 2.265158e-03 -3.874459e-03 -6.008757e-03 -1.774657e-02 -7.164512e-03 6.392111e-03 1.254938e-02 1.843847e-04 1.480379e-02
<VARIANCE> 39
 1.210130e+01 1.626240e+01 1.413807e+01 1.674921e+01 2.798593e+01 2.736181e+01 1.575900e+01 1.735439e+01 1.773830e+01 3.107370e+01 1.530545e+01 3.592379e+01 2.527279e+01 1.546230e-01 3.981580e-01 5.251622e-01 6.517308e-01 8.523305e-01 1.006518e+00 1.107358e+00 1.239961e+00 1.288383e+00 1.278054e+00 1.196629e+00 1.006362e+00 7.669262e-02 3.202767e-02 7.003701e-02 9.891342e-02 1.240997e-01 1.661211e-01 1.848282e-01 2.108883e-01 2.308843e-01 2.595920e-01 2.553579e-01 2.444142e-01 2.016466e-01 1.601845e-02
<GCONST> 7.808711e+01
<TRANSP> 5
 0.000000e+00 1.000000e+00 0.000000e+00 0.000000e+00 0.000000e+00
 0.000000e+00 7.882739e-01 2.117261e-01 0.000000e+00 0.000000e+00
 0.000000e+00 0.000000e+00 8.634400e-01 1.365599e-01 0.000000e+00
 0.000000e+00 0.000000e+00 0.000000e+00 9.700463e-01 2.995366e-02
 0.000000e+00 0.000000e+00 0.000000e+00 0.000000e+00 0.000000e+00
<ENDHMM>
~h "ey"
<BEGINHMM>
<NUMSTATES> 5
<STATE> 2
<MEAN> 39
 -8.425251e+00 -2.979147e+00 1.511288e-01 3.791087e+00 4.182918e-01 -4.673456e+00 -3.191128e+00 -4.087689e+00 -4.220012e-01 -2.854560e-01 1.296633e+00 -2.188633e+00 5.340528e+01 1.264406e+00 -9.683253e-01 4.904974e-01 -5.403084e-01 -5.527844e-01 -2.324816e+00 -9.220741e-01 -6.283333e-01 -5.428060e-01 2.887098e-01 -1.393662e-01 -6.543004e-01 2.533439e+00 1.677783e-02 6.148370e-02 1.015534e-01 -1.145707e-02 7.012442e-02 -7.950538e-02 -7.084692e-02 -2.043229e-02 -6.854211e-03 -2.024481e-02 4.032258e-02 -6.877887e-02 6.587526e-02
<VARIANCE> 39
 7.200723e+01 7.608512e+01 1.104978e+02 1.656065e+02 2.314301e+02 2.129195e+02 1.117434e+02 8.180241e+01 6.542445e+01 1.046502e+02 6.890717e+01 4.746939e+01 2.090228e+02 4.437652e+00 5.057453e+00 8.057025e+00 1.041644e+01 1.200607e+01 1.234743e+01 8.307557e+00 6.200173e+00 6.384219e+00 7.552148e+00 4.893884e+00 3.087822e+00 6.326134e+00 6.731759e-01 9.001625e-01 1.061340e+00 1.573043e+00 1.841556e+00 2.100754e+00 1.258389e+00 1.051706e+00 1.153730e+00 1.225590e+00 7.854114e-01 5.571058e-01 1.440427e+00
<GCONST> 1.587399e+02
<STATE> 3
<MEAN> 39
 -1.474560e+00 -1.683318e+00 2.812226e+00 1.500071e+01 6.715487e+00 -2.447153e+01 -8.953932e+00 -7.359909e+00 -6.474890e+00 -2.300742e+00 -5.970371e-02 -1.000936e+01 6.746377e+01 -3.368675e-01 6.938449e-01 5.603033e-01 2.295739e-01 -1.774918e-01 6.927938e-01 -1.777896e-02 -4.365573e-02 5.069085e-01 -3.666514e-01 -3.797820e-01 -9.783978e-02 -5.921154e-01 -1.206838e-01 1.451947e-01 -2.786887e-02 -1.103611e-01 -6.171930e-02 4.125304e-01 1.364005e-01 -5.771128e-02 1.000191e-01 -4.474640e-02 -2.787982e-02 2.101155e-01 -2.517919e-01
<VARIANCE> 39
 2.480426e+01 4.549760e+01 3.001469e+01 1.558903e+02 1.643551e+02 1.180810e+02 1.065188e+02 6.817821e+01 7.628420e+01 3.434560e+01 5.983591e+01 5.216699e+01 3.678566e+01 5.015939e-01 9.431247e-01 9.302652e-01 1.993820e+00 2.524677e+00 3.453457e+00 2.069962e+00 2.049635e+00 2.942179e+00 2.230156e+00 1.992554e+00 2.034835e+00 6.702221e-01 1.468336e-01 2.142520e-01 2.051964e-01 3.490569e-01 4.570154e-01 4.148324e-01 4.000208e-01 3.824752e-01 4.586509e-01 3.916993e-01 3.558279e-01 3.327274e-01 1.449400e-01
<GCONST> 1.163860e+02
<STATE> 4
<MEAN> 39
 -5.615957e+00 3.247801e+00 1.258575e+01 -3.786197e+00 -1.176372e+01 -5.542328e+00 -7.101480e+00 -1.109151e+01 -2.528254e+00 -3.120795e+00 -1.487635e+00 -7.932763e-01 5.485312e+01 -4.774631e-01 5.494979e-01 -2.687308e-01 2.420970e-01 3.524003e-01 5.712159e-01 -1.956400e-01 -9.858014e-02 -2.270071e-01 -9.497672e-02 -1.702263e-02 2.837352e-01 -1.168355e+00 -3.413709e-02 -1.217270e-01 -9.071571e-02 5.735374e-02 8.759823e-02 -1.678914e-03 1.378704e-01 1.078895e-01 -5.528742e-02 3.533258e-02 5.670395e-02 -2.638333e-02 1.169099e-02
<VARIANCE> 39
 3.518535e+01 5.550961e+01 1.216715e+02 1.985613e+02 1.291962e+02 1.069237e+02 6.226684e+01 5.255787e+01 6.425407e+01 5.523082e+01 7.378246e+01 4.397482e+01 1.375238e+02 6.276121e-01 1.517586e+00 2.016654e+00 2.890922e+00 2.290791e+00 3.180416e+00 2.788734e+00 3.445019e+00 3.088091e+00 1.748980e+00 2.657010e+00 2.225111e+00 7.756689e-01 7.229929e-02 1.898395e-01 2.603182e-01 4.267436e-01 4.169628e-01 3.842327e-01 4.758690e-01 4.968355e-01 6.666635e-01 3.365738e-01 4.750389e-01 3.924491e-01 1.189218e-01
<GCONST> 1.222661e+02
<TRANSP> 5
 0.000000e+00 1.000000e+00 0.000000e+00 0.000000e+00 0.000000e+00
 0.000000e+00 8.107052e-01 1.892948e-01 0.000000e+00 0.000000e+00
 0.000000e+00 0.000000e+00 8.249739e-01 1.750262e-01 0.000000e+00
 0.000000e+00 0.000000e+00 0.000000e+00 8.369123e-01 1.630877e-01
 0.000000e+00 0.000000e+00 0.000000e+00 0.000000e+00 0.000000e+00
<ENDHMM>
~h "hh"
<BEGINHMM>
<NUMSTATES> 5
<STATE> 2
<MEAN> 39
 5.151324e+00 4.996767e-01 -4.883645e+00 -1.087539e+00 -6.885872e+00 -2.040863e+01 1.123403e+01 9.885077e+00 -1.640373e+00 -5.446955e+00 -2.912180e+00 8.690319e-01 7.332851e+01 5.734875e-02 2.969258e-01 2.042404e-01 1.313689e-01 -1.560190e-01 -1.378210e-02 -3.520426e-01 1.527908e-01 3.660717e-01 -2.911577e-01 6.916869e-02 -1.091381e-01 -2.837982e-01 -2.617447e-02 3.992808e-02 6.174017e-02 7.576150e-02 -9.758397e-04 1.088812e-01 -2.589694e-02 -6.161219e-02 -2.095849e-03 -7.168663e-03 3.284193e-02 -4.191213e-02 -3.657590e-02
<VARIANCE> 39
 1.948325e+01 3.747610e+01 4.231604e+01 1.744490e+01 7.047559e+01 9.369856e+01 2.432238e+02 6.069034e+01 4.909492e+01 1.488355e+02 2.405087e+01 1.146197e+02 2.806215e+01 6.150296e-01 1.233277e+00 1.956700e+00 1.527411e+00 1.736820e+00 3.720867e+00 3.159861e+00 1.872705e+00 2.622462e+00 3.388405e+00 1.614920e+00 1.722346e+00 5.826186e-01 8.268967e-02 1.521214e-01 2.556650e-01 2.357422e-01 2.996798e-01 4.689054e-01 5.120622e-01 2.618682e-01 4.825953e-01 5.575813e-01 2.780753e-01 3.601674e-01 8.683498e-02
<GCONST> 1.133384e+02
<STATE> 3
<MEAN> 39
 7.192057e+00 1.183328e+01 5.014278e+00 1.492776e+00 -1.489283e+01 -1.235395e+01 -7.501578e+00 -2.573170e+00 8.992525e+00 -4.100999e+00 -8.254773e+00 1.120779e+00 6.484171e+01 -3.015181e-01 2.872394e-01 1.907482e-01 2.443149e-01 2.187429e-01 4.315948e-01 3.841243e-01 -1.158979e-01 6.419347e-02 3.821049e-01 2.558457e-01 -1.300321e-01 -2.616780e-01 -3.511960e-02 -3.578404e-02 -9.914790e-03 3.312719e-02 5.928203e-02 4.642343e-02 8.370801e-02 -8.877539e-03 -6.078093e-02 3.241847e-02 5.655307e-03 7.812275e-03 1.961763e-03
<VARIANCE> 39
 1.762267e+01 2.125355e+01 1.967426e+01 1.005127e+01 3.559999e+01 6.613811e+01 1.079718e+02 5.166891e+01 3.020353e+01 2.589222e+01 3.271247e+01 2.991815e+01 6.555608e+00 6.627629e-01 9.128107e-01 1.009739e+00 9.134974e-01 1.532489e+00 2.869200e+00 3.029804e+00 1.657264e+00 1.461028e+00 1.410975e+00 1.098964e+00 1.213076e+00 4.019341e-01 5.188954e-02 1.536982e-01 1.297764e-01 1.131021e-01 1.946756e-01 3.488803e-01 2.966948e-01 2.196116e-01 1.814886e-01 1.686347e-01 2.168246e-01 2.338167e-01 4.545722e-02
<GCONST> 9.328726e+01
<STATE> 4
<MEAN> 39
 -1.156704e+00 5.443762e+00 2.008799e+00 6.535160e+00 -1.456580e-01 -2.565401e-01 3.921823e+00 -1.044078e+00 2.698663e+00 -3.953072e+00 1.104989e+00 -8.261153e-01 6.246248e+01 -4.842888e-02 2.687537e-02 1.971840e-02 1.057385e-02 4.572344e-02 6.443904e-02 -6.329350e-02 -1.011273e-01 -1.742673e-02 5.009343e-03 3.771925e-02 4.440608e-02 -3.472530e-02 4.743607e-03 -1.440487e-02 -6.842435e-04 -1.450348e-02 2.455801e-03 -1.897939e-02 4.132294e-03 7.365913e-03 -7.415746e-03 -3.984812e-03 7.601858e-03 -1.420000e-04 1.639411e-02
<VARIANCE> 39
 1.682821e+01 8.692008e+00 2.266422e+01 1.539252e+01 6.207927e+01 4.239057e+01 2.522254e+01 2.828127e+01 3.219092e+01 2.852096e+01 1.743930e+01 3.944308e+01 5.385368e+00 4.007567e-01 4.777364e-01 7.617196e-01 7.997029e-01 1.136130e+00 1.282113e+00 1.902627e+00 1.803418e+00 2.086882e+00 1.560586e+00 1.357937e+00 1.432341e+00 1.342277e-01 7.124171e-02 9.640514e-02 1.529614e-01 1.538170e-01 2.294838e-01 2.437967e-01 3.564406e-01 3.411089e-01 4.025406e-01 2.965740e-01 2.509468e-01 2.557921e-01 2.584110e-02
<GCONST> 8.905223e+01
<TRANSP> 5
 0.000000e+00 1.000000e+00 0.000000e+00 0.000000e+00 0.000000e+00
 0.000000e+00 9.048285e-01 9.517154e-02 0.000000e+00 0.000000e+00
 0.000000e+00 0.000000e+00 8.941582e-01 1.058418e-01 0.000000e+00
 0.000000e+00 0.000000e+00 0.000000e+00 9.800186e-01 1.998137e-02
 0.000000e+00 0.000000e+00 0.000000e+00 0.000000e+00 0.000000e+00
<ENDHMM>
~h "ih"
<BEGINHMM>
<NUMSTATES> 5
<STATE> 2
<MEAN> 39
 -1.319107e+01 4.079555e-01 5.770560e+00 2.344145e+00 1.846848e+00 -4.710427e+00 -2.825142e+00 -1.005603e+01 -1.648887e-01 -3.786616e+00 -5.722052e-01 -2.431846e+00 6.098370e+01 3.592710e+00 5.669126e-02 -6.517196e-01 1.347532e+00 3.931303e-01 -1.894129e+00 -2.057403e+00 -6.823370e-01 -1.714943e+00 -2.952652e-01 -1.025233e-01 -2.200110e-01 9.049702e-01 2.667111e-01 -2.394245e-01 -1.146742e-01 -2.100703e-02 2.045806e-01 -4.545419e-01 -8.553623e-02 9.826755e-02 -2.306514e-01 2.250490e-01 1.725572e-01 -1.208552e-01 4.612586e-01
<VARIANCE> 39
 1.395130e+02 7.487152e+01 9.072005e+01 1.141523e+02 1.017568e+02 9.920609e+01 1.135236e+02 7.882722e+01 6.040823e+01 3.873624e+01 3.860869e+01 3.449469e+01 9.567737e+01 8.526964e+00 7.169089e+00 6.579562e+00 4.819529e+00 5.611836e+00 7.709712e+00 5.157773e+00 4.206437e+00 5.173573e+00 2.796719e+00 3.598015e+00 2.883316e+00 2.951815e+00 1.560580e+00 9.335306e-01 4.994031e-01 6.618751e-01 7.418906e-01 1.148025e+00 1.165208e+00 7.452323e-01 8.560196e-01 5.496029e-01 5.317068e-01 3.885062e-01 3.994210e-01
<GCONST> 1.442353e+02
<STATE> 3
<MEAN> 39
 -2.448298e+00 -7.374197e-01 3.656591e-02 1.231635e+01 1.275735e+01 -1.561386e+01 -6.330332e+00 -1.021379e+01 -5.741501e+00 -4.183750e+00 1.852765e+00 -6.667038e+00 6.657946e+01 8.654156e-02 8.962729e-02 -1.811956e-01 -1.499129e-01 -1.291609e-01 4.083100e-01 2.905478e-01 -3.011549e-01 -5.844021e-02 6.125088e-02 7.475276e-02 3.360992e-01 -1.046994e-01 -2.784684e-01 4.564219e-02 7.975679e-02 -2.606444e-01 -1.553046e-01 3.933495e-01 1.859412e-01 -2.982933e-02 1.737606e-01 -2.667951e-02 -8.594305e-02 7.330039e-02 -1.100637e-01
<VARIANCE> 39
 3.043366e+01 6.735451e+01 2.787817e+01 6.501022e+01 1.046458e+02 1.579402e+02 7.831606e+01 7.481929e+01 5.847847e+01 5.942841e+01 4.313158e+01 7.643645e+01 5.485827e+01 2.753701e+00 5.456276e+00 2.295322e+00 5.003515e+00 5.336215e+00 1.131370e+01 4.349701e+00 3.580277e+00 4.738886e+00 4.598081e+00 3.160855e+00 3.746631e+00 3.884384e+00 5.880327e-01 1.081602e+00 3.758624e-01 8.973930e-01 8.546121e-01 1.871738e+00 9.663026e-01 7.447954e-01 9.778483e-01 9.142740e-01 6.375778e-01 5.984793e-01 7.260588e-01
<GCONST> 1.415655e+02
<STATE> 4
<MEAN> 39
 -4.972757e+00 -4.650763e+00 5.221155e+00 7.664787e-01 -5.343273e+00 -5.818704e+00 -1.023524e+01 -8.090405e+00 -2.112583e+00 -6.358276e+00 4.030182e+00 -2.772258e+00 6.029351e+01 -5.612222e-01 -8.602811e-01 5.393459e-01 -9.079879e-01 -2.116963e-01 -8.324587e-02 5.178251e-01 -8.273595e-02 1.090474e-01 2.425626e-01 -1.570796e-01 -1.571181e-01 7.245955e-01 -2.334327e-01 1.058943e-01 1.543349e-01 2.585297e-01 1.106500e-01 4.741404e-03 9.151291e-02 1.314437e-01 2.623442e-01 1.867253e-02 -6.720291e-02 -1.418571e-01 -1.018017e-01
<VARIANCE> 39
 8.949368e+01 1.850907e+02 1.167022e+02 9.875771e+01 3.279014e+02 2.119187e+02 2.067027e+02 1.328873e+02 7.232987e+01 6.833800e+01 8.015005e+01 6.114809e+01 9.053522e+01 7.344659e+00 5.870721e+00 9.814616e+00 8.867021e+00 8.331220e+00 1.117669e+01 6.263993e+00 6.403491e+00 5.671809e+00 5.034194e+00 3.176907e+00 4.146037e+00 5.578640e+00 7.962619e-01 9.254802e-01 1.411580e+00 9.263561e-01 1.163147e+00 1.637662e+00 1.157780e+00 1.154981e+00 1.009480e+00 9.898400e-01 6.765037e-01 9.276922e-01 6.861584e-01
<GCONST> 1.577819e+02
<TRANSP> 5
 0.000000e+00 1.000000e+00 0.000000e+00 0.000000e+00 0.000000e+00
 0.000000e+00 6.196839e-01 3.803161e-01 0.000000e+00 0.000000e+00
 0.000000e+00 0.000000e+00 8.191323e-01 1.808677e-01 0.000000e+00
 0.000000e+00 0.000000e+00 0.000000e+00 7.032592e-01 2.967407e-01
 0.000000e+00 0.000000e+00 0.000000e+00 0.000000e+00 0.000000e+00
<ENDHMM>
~h "iy"
<BEGINHMM>
<NUMSTATES> 5
<STATE> 2
<MEAN> 39
 1.906440e+00 -9.028612e+00 9.863491e+00 5.449242e+00 -1.343715e+01 -1.159455e+01 -1.512145e+01 -2.476796e+00 -2.543181e+00 -8.681473e+00 2.991838e+00 -3.766677e+00 5.715065e+01 1.856926e-02 2.819676e-01 -2.515186e-01 1.433637e-01 4.663169e-02 3.835692e-01 3.604448e-01 9.640869e-02 2.089062e-03 1.625856e-01 -2.854878e-01 -4.867005e-03 -4.429928e-01 -1.089907e-01 6.221051e-02 -1.046546e-01 -9.172436e-02 7.125469e-02 2.015261e-01 1.761761e-01 -8.784351e-02 -1.383490e-02 1.299330e-01 -2.792676e-02 3.952610e-02 -9.614909e-02
<VARIANCE> 39
 5.334535e+01 1.237387e+02 7.772302e+01 1.706185e+02 2.264911e+02 9.372694e+01 1.116121e+02 6.821852e+01 7.255817e+01 6.882977e+01 7.343517e+01 7.178897e+01 9.786860e+01 1.157692e+00 1.533033e+00 3.535715e+00 1.780327e+00 3.035637e+00 3.216743e+00 3.490703e+00 2.894109e+00 3.779805e+00 3.415690e+00 3.143031e+00 2.347164e+00 1.284775e+00 1.436370e-01 2.120896e-01 2.484056e-01 3.349999e-01 3.983337e-01 5.513262e-01 6.526281e-01 5.338221e-01 7.235081e-01 5.431870e-01 5.669440e-01 4.619707e-01 1.219093e-01
<GCONST> 1.294213e+02
<STATE> 3
<MEAN> 39
 -6.466627e+00 4.208986e+00 1.002467e+01 8.990514e+00 -3.576978e+00 -3.787914e+00 -6.202939e+00 -1.034626e+01 -4.715253e+00 -1.441042e-01 -3.668966e+00 -2.708365e+00 5.452369e+01 -7.719063e-01 -2.719510e-01 -8.903089e-01 -6.563490e-01 -5.035576e-03 1.114571e+00 1.144711e+00 5.539919e-02 3.842064e-01 2.752683e-01 -1.383800e-01 3.751960e-01 -7.544675e-01 -1.889559e-04 -1.391164e-01 -1.271705e-01 -7.478897e-02 -7.739697e-02 -8.904224e-02 1.962516e-02 1.996886e-01 4.422060e-02 -1.058260e-01 1.562214e-01 9.051429e-02 3.980435e-02
<VARIANCE> 39
 4.162618e+01 5.355762e+01 1.166304e+02 1.132961e+02 1.784690e+02 7.034546e+01 8.501456e+01 7.133097e+01 4.233055e+01 8.145748e+01 3.742782e+01 5.231356e+01 8.330849e+01 1.336781e+00 2.410922e+00 2.802739e+00 2.822872e+00 2.801068e+00 3.816735e+00 3.877125e+00 2.640839e+00 2.812919e+00 2.847785e+00 2.266409e+00 2.684090e+00 5.426098e-01 1.379401e-01 3.982509e-01 4.048321e-01 3.656033e-01 4.798626e-01 5.911373e-01 6.611387e-01 4.060487e-01 4.059640e-01 5.637748e-01 3.582164e-01 3.428931e-01 8.422863e-02
<GCONST> 1.249478e+02
<STATE> 4
<MEAN> 39
 -7.381938e+00 -4.136320e+00 3.255172e+00 6.156128e+00 -4.791146e+00 7.858211e-01 -1.820026e+00 -2.505013e+00 1.544684e-01 -2.670143e+00 -2.118157e+00 -2.722570e-01 4.666053e+01 -1.897640e-01 -2.312068e-01 -7.585207e-01 5.184549e-02 2.737399e-01 4.417012e-01 5.267270e-01 5.692050e-01 2.401227e-01 1.647114e-03 4.000904e-01 2.738927e-01 -3.322306e-01 6.863301e-02 1.337798e-02 5.809751e-02 -2.162128e-02 -1.807176e-02 -1.474916e-01 -6.919952e-02 -2.914228e-02 -6.956513e-02 -5.382059e-02 1.650562e-02 -4.079048e-02 1.227575e-01
<VARIANCE> 39
 4.890339e+01 1.073704e+02 3.118184e+01 7.204691e+01 1.068679e+02 9.272293e+01 6.950710e+01 6.009871e+01 3.818465e+01 4.417004e+01 4.593756e+01 3.972926e+01 1.366084e+02 8.507918e-01 1.245176e+00 1.834802e+00 2.442624e+00 2.235224e+00 2.463391e+00 2.785883e+00 2.021520e+00 2.844058e+00 2.789728e+00 2.339011e+00 1.999586e+00 2.898869e-01 1.033698e-01 2.009505e-01 2.975018e-01 3.606203e-01 3.591560e-01 4.227493e-01 3.578725e-01 3.597490e-01 4.202044e-01 6.097956e-01 4.737422e-01 3.585256e-01 8.429405e-02
<GCONST> 1.170744e+02
<TRANSP> 5
 0.000000e+00 1.000000e+00 0.000000e+00 0.000000e+00 0.000000e+00
 0.000000e+00 7.374366e-01 2.625634e-01 0.000000e+00 0.000000e+00
 0.000000e+00 0.000000e+00 6.711707e-01 3.288293e-01 0.000000e+00
 0.000000e+00 0.000000e+00 0.000000e+00 6.375614e-01 3.624386e-01
 0.000000e+00 0.000000e+00 0.000000e+00 0.000000e+00 0.000000e+00
<ENDHMM>
~h "ng"
<BEGINHMM>
<NUMSTATES> 5
<STATE> 2
<MEAN> 39
 -5.053050e+00 -7.337400e+00 4.387369e+00 6.081922e+00 7.114627e+00 -1.070891e+01 6.592503e+00 -9.801796e+00 -3.119646e+00 8.458145e+00 -3.732849e-02 -9.681974e+00 6.954316e+01 6.692834e-01 8.238634e-02 -3.864018e-01 5.938774e-01 9.267554e-02 1.605860e-01 -3.643785e-01 -1.326707e-01 -5.936660e-01 -3.251942e-02 -4.961309e-01 -1.023244e-01 -3.623130e-01 2.892938e-01 2.643488e-01 -4.975200e-02 2.651420e-01 -1.351774e-01 1.098368e-01 -2.085668e-01 1.864521e-01 1.933159e-02 -2.657743e-01 -4.533054e-02 2.164955e-01 -2.568626e-01
<VARIANCE> 39
 6.048822e+01 4.410271e+01 2.565865e+01 3.430931e+01 3.272066e+01 4.792665e+01 4.555540e+01 3.770999e+01 8.005754e+01 8.985281e+01 3.726419e+01 2.261190e+01 2.423540e+01 6.592640e+00 3.709868e+00 1.732876e+00 2.494599e+00 2.676896e+00 6.468123e+00 4.899976e+00 6.925683e+00 9.726355e+00 1.282435e+01 1.559212e+00 2.665898e+00 3.111317e+00 1.532540e+00 5.151855e-01 2.766449e-01 3.560942e-01 5.217756e-01 1.061188e+00 9.881375e-01 1.055093e+00 1.769815e+00 1.817577e+00 3.809750e-01 3.884632e-01 5.539505e-01
<GCONST> 1.339449e+02
<STATE> 3
<MEAN> 39
 -5.262653e+00 4.693386e+00 8.104535e+00 1.577605e+01 -2.031518e+00 -4.768544e+00 1.806970e+00 -6.235256e+00 -5.486012e-01 -3.006529e+00 -3.707963e+00 -1.568597e+00 6.084398e+01 -2.791476e-01 -5.338761e-03 2.569548e-02 2.334790e-02 1.041631e-01 3.346671e-01 3.273004e-01 1.803190e-01 1.756031e-02 -3.233699e-02 1.057638e-01 1.214378e-01 -2.070593e-01 -4.531571e-02 -1.167369e-01 -7.461246e-02 -7.011032e-02 -9.545390e-03 -5.044404e-03 1.668454e-02 1.525158e-02 3.061914e-02 7.104532e-02 8.331438e-02 3.455209e-02 -1.667521e-03
<VARIANCE> 39
 2.246217e+01 6.288270e+01 2.450140e+01 1.665771e+01 3.868499e+01 3.941270e+01 3.768040e+01 1.953176e+01 2.491104e+01 2.815170e+01 1.878755e+01 2.327144e+01 8.121195e+00 1.457352e+00 5.766559e+00 2.703171e+00 1.603907e+00 1.930124e+00 3.489384e+00 3.122151e+00 1.948886e+00 2.492396e+00 2.375411e+00 1.883510e+00 1.563844e+00 8.341818e-01 2.034972e-01 8.803768e-01 5.273586e-01 3.512319e-01 3.723977e-01 5.847234e-01 6.252666e-01 3.738945e-01 5.059668e-01 4.925548e-01 3.872306e-01 2.981966e-01 1.732418e-01
<GCONST> 1.119018e+02
<STATE> 4
<MEAN> 39
 -9.892643e+00 1.656732e+00 2.013369e+00 1.052915e+01 2.359940e+00 3.307818e+00 8.636572e+00 -2.033057e-01 3.225090e+00 -1.838573e-01 1.719184e+00 -1.392899e-01 5.566508e+01 -5.787571e-02 -9.988267e-02 -1.158740e-01 -1.552281e-01 -1.186372e-01 -2.929360e-02 -1.290875e-02 1.173398e-03 2.913519e-02 -1.193660e-02 2.017511e-02 5.357123e-02 -5.251543e-02 1.865378e-02 1.491751e-02 2.020543e-02 2.878936e-02 1.136109e-02 -1.023180e-02 -1.816439e-02 -2.293035e-02 -2.663192e-02 -7.777833e-03 -3.141109e-02 -2.523020e-02 1.447421e-02
<VARIANCE> 39
 2.471122e+01 2.513043e+01 1.051863e+01 1.819900e+01 4.438519e+01 3.157616e+01 2.156742e+01 2.261577e+01 2.306346e+01 3.230000e+01 1.155154e+01 2.638946e+01 4.620614e+00 2.260648e-01 6.466081e-01 6.309909e-01 9.423778e-01 1.102963e+00 1.351027e+00 1.373029e+00 1.204957e+00 1.270680e+00 1.147167e+00 8.871698e-01 9.181294e-01 1.025265e-01 3.225348e-02 9.866253e-02 1.051401e-01 1.732460e-01 2.232979e-01 2.964553e-01 2.824616e-01 2.063881e-01 2.053323e-01 2.152663e-01 1.527916e-01 1.681779e-01 1.817931e-02
<GCONST> 8.091460e+01
<TRANSP> 5
 0.000000e+00 1.000000e+00 0.000000e+00 0.000000e+00 0.000000e+00
 0.000000e+00 8.384096e-01 1.615904e-01 0.000000e+00 0.000000e+00
 0.000000e+00 0.000000e+00 9.540699e-01 4.593009e-02 0.000000e+00
 0.000000e+00 0.000000e+00 0.000000e+00 9.724346e-01 2.756534e-02
 0.000000e+00 0.000000e+00 0.000000e+00 0.000000e+00 0.000000e+00
<ENDHMM>
~h "ow"
<BEGINHMM>
<NUMSTATES> 5
<STATE> 2
<MEAN> 39
 -4.968100e+00 9.842611e-01 -5.919891e+00 -9.375644e-01 8.700903e-01 -1.054993e+00 2.853457e+00 -3.661875e+00 -3.329037e+00 -2.138583e+00 -5.631968e-01 -3.961964e+00 5.980850e+01 1.349849e+00 -6.839581e-01 -5.501061e-01 -1.405463e+00 -3.829582e-01 -1.286833e+00 -3.916959e-01 -4.254007e-01 -8.392819e-01 -1.044032e-02 -3.616959e-01 -5.502575e-01 2.309711e+00 1.772820e-01 7.881112e-02 5.889153e-02 2.332626e-01 -2.511753e-02 -9.714643e-02 -2.462241e-01 6.623507e-02 1.721443e-01 -1.447836e-01 -2.428515e-02 -4.858126e-03 -1.058112e-01
<VARIANCE> 39
 9.835963e+01 8.096995e+01 6.584621e+01 1.079196e+02 1.877549e+02 1.276615e+02 1.306455e+02 9.784835e+01 1.098500e+02 7.445010e+01 6.605945e+01 6.619440e+01 2.341198e+02 7.768621e+00 3.549466e+00 3.808339e+00 9.191948e+00 7.046064e+00 9.742772e+00 8.108158e+00 7.281312e+00 8.821969e+00 5.811531e+00 6.876903e+00 4.299892e+00 7.537522e+00 1.131086e+00 5.420344e-01 6.535454e-01 1.492127e+00 1.112198e+00 1.427064e+00 1.222931e+00 1.202912e+00 1.322381e+00 9.424183e-01 1.194439e+00 7.980204e-01 1.452688e+00
<GCONST> 1.573197e+02
<STATE> 3
<MEAN> 39
 4.146591e+00 3.888001e+00 -7.339982e+00 -3.393886e+00 -3.717893e+00 -6.419053e+00 2.757901e+00 -6.243508e+00 -7.251619e+00 -7.345881e+00 5.841404e-01 -5.015005e+00 6.655154e+01 -1.013130e-01 2.599578e-01 9.252850e-02 4.571166e-01 1.604893e-02 1.558770e-01 -1.858335e-01 1.197438e-01 1.257091e-01 -5.677509e-01 -5.671000e-02 3.722107e-01 -4.890194e-01 -2.094838e-01 9.516808e-02 1.130310e-01 1.248201e-01 8.604793e-02 1.913265e-01 3.880118e-02 -4.370576e-02 8.277533e-02 7.601868e-02 2.090856e-03 1.590333e-02 -1.985949e-01
<VARIANCE> 39
 3.896433e+01 5.476255e+01 5.090008e+01 1.279663e+02 9.587227e+01 1.931474e+02 1.070323e+02 1.228938e+02 9.727062e+01 7.534463e+01 1.386989e+02 9.946629e+01 1.035823e+02 8.886316e-01 1.239214e+00 1.629663e+00 2.557180e+00 2.673693e+00 4.074673e+00 2.593573e+00 3.825217e+00 3.525504e+00 2.503674e+00 3.357583e+00 2.434034e+00 8.806026e-01 1.322443e-01 1.979425e-01 2.299846e-01 4.274995e-01 5.104454e-01 5.998474e-01 4.770828e-01 6.941109e-01 5.964915e-01 4.886372e-01 5.482963e-01 4.912696e-01 1.145817e-01
<GCONST> 1.279033e+02
<STATE> 4
<MEAN> 39
 8.146284e-01 1.862614e+00 -6.083088e+00 -6.290844e+00 -9.127751e+00 2.310361e-01 -4.619304e+00 -1.676624e+00 -2.021725e+00 -3.208897e+00 -1.980654e+00 -1.291958e-02 5.078771e+01 -5.058867e-01 1.612696e-01 1.968659e-01 4.785697e-01 1.227206e-01 2.198270e-01 1.479493e-01 4.587245e-02 2.777648e-02 3.344981e-02 1.118268e-01 6.042262e-02 -6.717281e-01 -3.725258e-02 -5.202745e-02 -1.270818e-02 2.289073e-02 5.277944e-02 -7.040896e-03 2.234271e-02 -2.760198e-02 -4.185442e-05 4.749434e-02 3.772372e-02 -7.915476e-03 3.814057e-03
<VARIANCE> 39
 6.257049e+01 1.081340e+02 5.576787e+01 9.471098e+01 1.372867e+02 1.152773e+02 8.721334e+01 5.733215e+01 5.591734e+01 6.947298e+01 4.220789e+01 4.598891e+01 1.436985e+02 7.747549e-01 1.299561e+00 1.230063e+00 1.745307e+00 2.156945e+00 2.157993e+00 2.091067e+00 1.992059e+00 1.967070e+00 1.969869e+00 1.889831e+00 1.540654e+00 3.859089e-01 6.316282e-02 1.581744e-01 1.777196e-01 2.409094e-01 3.087422e-01 3.494461e-01 3.397004e-01 3.310884e-01 3.093721e-01 3.325151e-01 3.288679e-01 2.595569e-01 4.111304e-02
<GCONST> 1.131704e+02
<TRANSP> 5
 0.000000e+00 1.000000e+00 0.000000e+00 0.000000e+00 0.000000e+00
 0.000000e+00 7.464460e-01 2.535541e-01 0.000000e+00 0.000000e+00
 0.000000e+00 0.000000e+00 7.597975e-01 2.402025e-01 0.000000e+00
 0.000000e+00 0.000000e+00 0.000000e+00 8.830680e-01 1.169321e-01
 0.000000e+00 0.000000e+00 0.000000e+00 0.000000e+00 0.000000e+00
<ENDHMM>
~h "sh"
<BEGINHMM>
<NUMSTATES> 5
<STATE> 2
<MEAN> 39
 -6.603425e+00 -8.352492e-01 8.896734e+00 9.891530e+00 -2.491170e+00 -1.072355e+01 5.096070e-01 -2.390817e+00 1.781332e+00 -5.556944e+00 -2.257873e+00 -1.304824e-02 6.558310e+01 -1.573178e+00 -2.146095e+00 6.016983e-01 4.947573e-01 9.271817e-01 2.325028e-01 5.136635e-01 2.013849e-01 6.693679e-01 3.948494e-01 2.256743e-01 6.086114e-01 8.101949e-02 -3.308745e-02 2.923991e-02 -1.452576e-02 -3.479361e-02 1.053287e-01 -1.154786e-01 -7.928200e-02 -1.046625e-01 -9.538783e-02 -1.419977e-01 -1.194298e-01 4.669461e-02 2.229294e-02
<VARIANCE> 39
 1.132695e+02 1.522518e+02 5.670515e+01 2.637016e+01 6.777226e+01 3.600703e+01 7.204316e+01 3.331030e+01 4.177633e+01 1.635697e+01 3.132847e+01 5.573373e+01 1.217354e+01 5.070356e+00 8.953098e+00 3.506061e+00 3.643871e+00 2.202727e+00 2.490846e+00 5.237477e+00 3.039807e+00 6.609030e+00 2.583571e+00 1.955285e+00 1.741214e+00 1.006875e+00 7.084610e-01 1.341534e+00 5.453807e-01 6.228052e-01 4.276883e-01 5.734817e-01 8.965233e-01 5.872288e-01 6.821218e-01 2.857548e-01 4.396910e-01 4.944837e-01 2.763081e-01
