~o
<STREAMINFO> 1 39
<VECSIZE> 39<NULLD><MFCC_D_A_0><DIAGC>
~h "b"
<BEGINHMM>
<NUMSTATES> 5
<STATE> 2
<MEAN> 39
 3.208782e+00 7.877612e+00 -5.585402e+00 2.714985e+00 1.014897e+01 -5.057059e+00 -1.473102e-01 -5.742961e+00 -1.297616e+01 -5.762165e+00 -2.205614e+00 -8.317290e-01 6.823247e+01 -2.037431e+00 -8.465252e-02 6.400453e-01 5.903002e-01 5.280916e-01 6.792750e-01 1.961185e+00 1.155276e-01 1.565918e-02 7.636289e-03 2.748611e-01 7.356747e-01 -1.254838e+00 -2.013640e-01 -3.013347e-01 -1.409488e-01 -4.493259e-01 -7.233664e-01 -2.497143e-03 3.298523e-02 3.396913e-01 8.093597e-01 3.730449e-02 4.374281e-02 2.583839e-02 -3.412746e-01
<VARIANCE> 39
 2.838883e+01 6.666007e+01 1.319505e+02 5.584693e+01 1.029408e+02 9.923402e+00 3.088782e+01 2.260653e+01 1.169899e+01 5.583014e+01 9.968817e-01 3.668196e+01 5.344432e+01 5.499995e-01 3.533336e+00 3.331025e+00 3.984003e+00 2.144405e+00 2.653600e+00 2.077362e+00 5.491804e+00 2.995954e+00 1.735401e+00 2.499169e-01 1.463336e+00 1.700871e+00 2.277748e-01 2.907920e-01 6.081500e-01 2.833448e-01 4.883607e-01 6.055595e-01 5.469463e-01 1.300502e+00 2.100529e-01 4.482737e-01 4.623475e-02 5.312988e-01 1.949460e-01
<GCONST> 1.105258e+02
<STATE> 3
<MEAN> 39
 -2.883087e+00 6.911493e+00 -7.258983e+00 1.591526e+00 3.662773e+00 -1.566005e+00 5.799407e+00 -7.854480e+00 -5.352147e+00 -3.196427e+00 -9.120737e-01 -1.817480e+00 6.067624e+01 -1.041960e+00 -1.374154e+00 -8.659706e-01 -8.222415e-01 -1.064937e+00 -9.487153e-02 -5.848770e-01 -1.755460e+00 9.892560e-01 2.550626e-01 1.271185e+00 -2.475130e-01 -5.595859e-01 3.206685e-01 8.518654e-02 3.937169e-01 -4.475579e-02 4.769265e-01 -6.782435e-01 -3.537243e-01 -2.050694e-01 -6.174672e-01 -7.096145e-02 1.035802e-01 -3.415553e-03 7.401444e-01
<VARIANCE> 39
 3.682117e+01 1.240289e+01 1.128012e+02 9.332670e+01 2.693012e+01 2.628712e+01 8.355002e+00 3.851633e+01 1.920003e+01 2.164820e+01 6.457395e+00 2.990414e+01 2.278063e+01 6.887260e-01 2.326980e+00 2.505916e+00 2.949352e+00 6.047644e+00 7.422606e+00 1.133465e+00 4.264712e+00 2.277464e+00 2.681184e+00 6.921399e-01 1.811628e+00 2.285480e+00 3.543072e-01 5.982037e-01 6.795229e-01 7.599605e-01 9.278240e-01 1.513739e+00 5.651943e-01 7.993312e-01 4.632511e-01 2.964181e-01 2.654276e-01 2.614988e-01 4.556266e-01
<GCONST> 1.164256e+02
<STATE> 4
<MEAN> 39
 -3.301634e+00 7.444888e+00 9.872153e-01 4.527992e+00 8.049604e+00 -6.004010e+00 -1.543832e+00 -9.099999e+00 -9.392974e+00 -8.635743e+00 1.487360e+00 -2.358939e+00 6.477860e+01 -1.074478e-01 -6.479651e-03 6.462161e-01 4.619222e-01 2.297147e-01 -2.951350e-01 4.534532e-02 1.310113e-02 1.691786e-02 -1.048977e-01 -2.920769e-01 -7.372374e-02 3.203109e-01 3.211270e-02 -1.035002e-01 1.443588e-02 1.555265e-01 1.143902e-02 -3.301530e-02 5.871030e-02 8.914033e-02 5.589485e-02 3.128731e-02 -1.259621e-01 -7.524881e-03 1.002358e-01
<VARIANCE> 39
 2.956252e+01 5.869421e+01 3.958706e+01 7.499290e+01 6.858067e+01 6.432948e+01 2.934194e+01 1.908373e+01 6.978391e+01 2.658482e+01 1.713154e+01 2.229334e+01 4.389558e+01 5.295055e+00 8.608617e+00 2.190533e+00 4.169597e+00 7.352034e+00 1.045377e+01 4.798795e+00 2.839761e+00 7.928952e+00 3.120413e+00 1.880174e+00 1.272706e+00 6.579875e+00 1.049339e+00 1.344353e+00 2.510456e-01 6.526536e-01 1.205577e+00 1.999386e+00 1.181573e+00 5.307642e-01 1.038238e+00 6.955782e-01 3.106867e-01 1.944112e-01 1.101917e+00
<GCONST> 1.339684e+02
<TRANSP> 5
 0.000000e+00 1.000000e+00 0.000000e+00 0.000000e+00 0.000000e+00
 0.000000e+00 6.408580e-01 3.591420e-01 0.000000e+00 0.000000e+00
 0.000000e+00 0.000000e+00 6.663575e-01 3.336425e-01 0.000000e+00
 0.000000e+00 0.000000e+00 0.000000e+00 8.557519e-01 1.442481e-01
 0.000000e+00 0.000000e+00 0.000000e+00 0.000000e+00 0.000000e+00
<ENDHMM>
~h "d"
<BEGINHMM>
<NUMSTATES> 5
<STATE> 2
<MEAN> 39
 -6.804496e+00 6.957775e+00 -3.076004e+00 4.998090e+00 -1.629477e+00 3.837392e+00 9.921370e+00 3.299720e+00 8.189877e+00 -5.691460e+00 -5.430343e+00 -9.344893e+00 5.655589e+01 -1.022349e+00 -9.539784e-01 -2.430091e-01 7.946621e-01 8.258788e-01 -1.633640e-01 -8.197102e-01 -7.938968e-02 7.820765e-01 5.522631e-01 4.402945e-01 5.964921e-01 -5.944573e-01 1.228471e-01 3.357062e-02 -8.585648e-02 -3.317371e-02 -7.531614e-03 -2.453170e-01 -3.154857e-01 -3.042302e-01 -5.072651e-01 -2.078268e-01 1.264722e-01 1.767898e-01 6.713820e-02
<VARIANCE> 39
 1.860438e+01 2.879602e+01 3.458779e+01 2.302261e+01 1.406646e+01 1.932158e+01 2.245469e+01 1.554111e+01 1.773812e+01 1.935199e+01 2.246840e+01 2.362894e+01 3.176872e+00 7.142056e-01 5.495766e-01 6.155221e-01 1.209586e+00 1.628818e+00 1.386315e+00 1.816908e+00 2.259834e+00 3.601460e+00 7.649488e-01 2.005312e+00 9.637513e-01 2.213930e-01 8.682519e-02 1.027664e-01 1.476068e-01 2.784417e-01 2.258608e-01 2.549354e-01 2.809407e-01 2.260039e-01 2.929772e-01 1.369239e-01 3.298457e-01 1.489100e-01 2.332456e-02
<GCONST> 8.702093e+01
<STATE> 3
<MEAN> 39
 -1.321261e+01 3.516573e+00 -4.053886e+00 7.344392e+00 1.960950e+00 3.364986e+00 6.144552e+00 1.673078e+00 6.942229e+00 -6.271914e+00 -7.696633e-01 -6.046089e+00 5.067609e+01 -1.240490e-01 1.109974e-02 3.712476e-02 1.073591e-02 -2.244445e-02 1.508477e-02 3.803907e-02 5.624172e-02 -1.672613e-02 -2.408093e-02 4.640418e-02 5.734491e-02 -1.684317e-01 2.318748e-02 1.257238e-02 2.065807e-03 -7.567026e-04 -2.770556e-02 -7.771688e-03 -4.214085e-03 1.259308e-02 3.600974e-03 2.664855e-04 -1.938152e-02 -2.822565e-02 1.214107e-02
<VARIANCE> 39
 4.187723e+00 4.232145e+00 1.299028e+01 1.466744e+01 1.340214e+01 1.435150e+01 1.343453e+01 1.545558e+01 1.216349e+01 1.290551e+01 1.219904e+01 1.111844e+01 1.139062e+01 1.880601e-01 3.008417e-01 5.717916e-01 8.282612e-01 9.620011e-01 8.874519e-01 9.319229e-01 1.167130e+00 9.794587e-01 7.926187e-01 1.040105e+00 8.168245e-01 6.882511e-02 3.411923e-02 6.002811e-02 9.622562e-02 1.617354e-01 2.220183e-01 1.653571e-01 1.647530e-01 2.274362e-01 2.055288e-01 1.522213e-01 2.126838e-01 1.350107e-01 1.177094e-02
<GCONST> 6.761021e+01
<STATE> 4
<MEAN> 39
 -1.497176e+01 -2.753096e-01 -3.540130e-02 1.046036e+01 -1.521235e+00 4.486392e-01 6.152351e+00 -7.191535e-01 4.423895e+00 -1.784327e+00 8.526034e-02 -8.418716e-02 5.036211e+01 -1.520686e-02 -1.005094e-02 -1.918335e-02 2.732109e-02 9.499000e-03 3.786930e-02 2.723432e-02 2.566183e-02 1.768006e-02 3.980447e-03 -9.252571e-03 -1.561605e-03 -4.802505e-02 1.230781e-02 -1.084595e-02 -3.674398e-03 1.370442e-02 2.826554e-02 1.445429e-02 4.883052e-03 -5.956517e-04 -5.270463e-03 -1.625171e-02 -2.636055e-03 5.111269e-03 1.746793e-02
<VARIANCE> 39
 7.534544e+00 2.782848e+01 5.741834e+00 1.048822e+01 3.988836e+01 3.308932e+01 1.599528e+01 1.604690e+01 1.891216e+01 2.646850e+01 1.473842e+01 4.323870e+01 6.552863e+01 2.055725e-01 7.643110e-01 5.887123e-01 9.637533e-01 8.538249e-01 1.124699e+00 1.533806e+00 1.383158e+00 1.679227e+00 1.163121e+00 1.276711e+00 1.297233e+00 2.708244e-01 4.807528e-02 1.741162e-01 1.221158e-01 2.048000e-01 1.692368e-01 1.997383e-01 3.191141e-01 2.833242e-01 3.611338e-01 2.468075e-01 2.623171e-01 2.455627e-01 5.141472e-02
<GCONST> 8.648116e+01
<TRANSP> 5
 0.000000e+00 1.000000e+00 0.000000e+00 0.000000e+00 0.000000e+00
 0.000000e+00 7.962748e-01 2.037252e-01 0.000000e+00 0.000000e+00
 0.000000e+00 0.000000e+00 9.645173e-01 3.548270e-02 0.000000e+00
 0.000000e+00 0.000000e+00 0.000000e+00 9.726592e-01 2.734088e-02
 0.000000e+00 0.000000e+00 0.000000e+00 0.000000e+00 0.000000e+00
<ENDHMM>
~h "f"
<BEGINHMM>
<NUMSTATES> 5
<STATE> 2
<MEAN> 39
 -1.511806e+01 1.050432e+00 -5.161413e+00 7.954963e+00 4.633699e+00 9.477847e-01 7.684191e+00 -3.321489e+00 2.178109e+00 -3.483706e+00 8.589588e-01 -1.029617e+00 5.927253e+01 -6.101968e-01 -2.193553e-01 -7.724214e-02 -1.067180e-01 2.009131e-01 -9.047364e-02 9.227157e-02 6.613245e-02 2.493356e-01 -8.437124e-03 4.131819e-03 2.017819e-01 2.384147e-01 1.919424e-01 5.750293e-02 1.707378e-03 -5.274523e-02 -2.471098e-02 -8.824877e-02 -1.139262e-01 -6.139820e-02 -9.435911e-02 -1.186830e-02 -2.263358e-02 -8.525054e-02 7.282138e-03
<VARIANCE> 39
 5.512107e+01 5.603132e+01 4.900640e+01 6.126651e+01 9.063039e+01 8.813525e+01 4.531870e+01 5.017702e+01 5.919669e+01 5.584895e+01 3.738460e+01 5.006360e+01 9.826581e+01 2.300950e+00 2.217417e+00 1.565313e+00 1.698566e+00 2.552375e+00 2.570718e+00 2.906055e+00 2.599952e+00 2.858036e+00 2.310576e+00 2.304897e+00 2.055633e+00 9.490789e-01 3.847741e-01 3.965125e-01 2.869688e-01 3.281897e-01 5.110859e-01 4.821852e-01 5.907491e-01 4.998961e-01 4.964903e-01 4.442830e-01 4.509608e-01 3.985433e-01 1.441007e-01
<GCONST> 1.225345e+02
<STATE> 3
<MEAN> 39
 -1.849700e+01 -4.106364e-01 -4.410287e+00 4.126394e+00 7.700513e+00 -1.154443e+00 4.917954e+00 -5.139961e+00 -1.482148e+00 -2.262477e+00 1.087250e+00 -6.941137e-01 5.595613e+01 2.653220e+00 8.840880e-01 -5.530438e-01 -1.435733e+00 -9.782696e-01 -6.803641e-01 -7.523798e-01 -4.083513e-01 -3.139035e-01 -1.915886e-01 -6.261822e-01 -6.624951e-01 6.491169e-01 1.179200e+00 3.560146e-01 -9.333400e-02 -4.589199e-01 -7.888272e-01 -3.648941e-01 -1.798933e-01 -7.726516e-02 -1.210168e-01 -3.320644e-02 -2.056513e-01 -2.309599e-01 4.931284e-01
<VARIANCE> 39
 5.450016e+01 5.494096e+01 4.737688e+01 6.268386e+01 1.103773e+02 7.266110e+01 7.686344e+01 6.276417e+01 5.781719e+01 1.081417e+02 5.120594e+01 4.294946e+01 1.508217e+02 1.029052e+01 6.237410e+00 3.684938e+00 6.947583e+00 7.686409e+00 5.785540e+00 4.746285e+00 4.611177e+00 5.048419e+00 5.053517e+00 2.503584e+00 3.232438e+00 3.203316e+00 8.307511e-01 8.376505e-01 5.915923e-01 1.095711e+00 1.248413e+00 1.200287e+00 9.689704e-01 8.628642e-01 9.781311e-01 9.942665e-01 5.615469e-01 7.189564e-01 5.007291e-01
<GCONST> 1.451839e+02
<STATE> 4
<MEAN> 39
 -7.142825e-01 -2.980260e+00 -2.654619e+00 -5.582171e+00 -8.840001e+00 -9.140661e-01 -2.378043e+00 -5.467546e+00 -1.336809e+00 -5.688763e+00 -9.088941e-01 -2.385557e+00 5.554342e+01 4.125738e+00 8.425266e-01 -6.867080e-01 -2.396079e+00 -2.163644e+00 -1.009507e+00 -6.771239e-01 -4.104719e-01 -4.555029e-01 -4.381027e-01 -2.846023e-01 -8.443998e-01 2.373192e+00 -6.873655e-01 -5.013414e-01 -3.157854e-02 2.924026e-01 2.352423e-01 2.367939e-02 1.368748e-01 1.775312e-01 1.704093e-01 1.618812e-01 1.931750e-01 7.994854e-02 -1.897080e-02
<VARIANCE> 39
 5.433348e+01 2.507646e+02 8.117783e+01 1.367314e+02 1.510764e+02 8.584740e+01 6.799230e+01 6.624427e+01 4.749446e+01 3.453761e+01 3.668065e+01 3.022069e+01 1.321680e+02 1.058593e+01 7.052711e+00 3.846837e+00 1.006392e+01 7.446853e+00 8.244503e+00 5.236451e+00 4.820651e+00 4.204739e+00 4.298352e+00 4.388800e+00 3.888877e+00 5.398952e+00 1.085425e+00 7.346692e-01 4.372946e-01 1.126952e+00 6.654102e-01 6.187348e-01 4.714184e-01 6.025478e-01 4.757864e-01 5.859154e-01 4.671208e-01 4.447601e-01 5.679437e-01
<GCONST> 1.439305e+02
<TRANSP> 5
 0.000000e+00 1.000000e+00 0.000000e+00 0.000000e+00 0.000000e+00
 0.000000e+00 8.924221e-01 1.075779e-01 0.000000e+00 0.000000e+00
 0.000000e+00 0.000000e+00 6.865150e-01 3.134850e-01 0.000000e+00
 0.000000e+00 0.000000e+00 0.000000e+00 5.823261e-01 4.176740e-01
 0.000000e+00 0.000000e+00 0.000000e+00 0.000000e+00 0.000000e+00
<ENDHMM>
~h "g"
<BEGINHMM>
<NUMSTATES> 5
<STATE> 2
<MEAN> 39
 -6.869714e+00 5.306621e+00 -3.123506e+00 9.832350e+00 2.121102e+00 1.949612e+00 5.723672e+00 -2.163543e+00 5.077614e+00 -6.014760e+00 1.934704e-01 -4.101420e+00 6.226623e+01 3.448374e-01 4.927411e-01 2.532985e-01 2.260090e-01 4.454330e-01 -2.153152e-02 -1.910740e-01 -5.896575e-02 -1.111773e-01 -1.100258e-01 -7.738055e-02 -1.733445e-01 1.100606e-01 -1.045827e-02 1.664069e-02 4.988683e-02 -5.136568e-02 -4.237394e-02 1.843268e-03 -2.598605e-03 5.285314e-02 -2.505647e-03 6.168567e-02 1.419690e-01 4.482900e-02 -3.435919e-02
<VARIANCE> 39
 4.474803e+01 5.543860e+01 6.241917e+01 2.742890e+01 5.187919e+01 3.138865e+01 3.307057e+01 4.156433e+01 4.533413e+01 3.345658e+01 1.674515e+01 4.524628e+01 3.307381e+01 1.400048e+00 2.786831e+00 2.598345e+00 1.955494e+00 1.759323e+00 1.410248e+00 2.742005e+00 2.251184e+00 3.001712e+00 1.761435e+00 1.798897e+00 2.088636e+00 5.556840e-01 2.368056e-01 3.742342e-01 4.169806e-01 3.801574e-01 3.030646e-01 2.351734e-01 5.685762e-01 4.492107e-01 5.712827e-01 3.002309e-01 2.786710e-01 4.303292e-01 9.197000e-02
<GCONST> 1.125890e+02
<STATE> 3
<MEAN> 39
 -6.150900e+00 8.667383e+00 -1.114741e+00 1.128801e+01 1.634089e+00 3.855999e+00 7.019735e+00 -2.224459e-02 6.137159e+00 -4.561762e+00 3.515110e+00 -4.431198e+00 5.947037e+01 -2.325624e-02 -1.226368e-02 9.373706e-02 -9.917935e-02 -1.023477e-01 -2.595662e-02 -1.402636e-02 2.983245e-01 4.978537e-02 1.776395e-01 4.136708e-02 1.474196e-01 -8.622647e-02 -3.985555e-02 -1.321591e-01 -1.408839e-01 -1.061200e-01 7.694895e-05 -2.840677e-02 9.595266e-03 -3.191233e-02 -1.257536e-01 -2.494458e-02 -1.316560e-01 3.347065e-02 8.092245e-02
<VARIANCE> 39
 9.164479e+01 4.350331e+01 6.398851e+01 3.055749e+01 4.087829e+01 2.709140e+01 2.821875e+01 3.088135e+01 3.546175e+01 4.158814e+01 2.362850e+01 3.643174e+01 2.660583e+01 1.882509e-01 3.400182e-01 5.558702e-01 7.599654e-01 1.145477e+00 1.224774e+00 1.229951e+00 1.102544e+00 1.518325e+00 1.611661e+00 1.577525e+00 1.103771e+00 8.053308e-02 9.646320e-02 1.294294e-01 1.566942e-01 2.058115e-01 2.572002e-01 2.076515e-01 2.269604e-01 2.622170e-01 4.887144e-01 3.877529e-01 3.023367e-01 2.452248e-01 4.899472e-02
<GCONST> 9.377460e+01
<STATE> 4
<MEAN> 39
 -3.163676e+00 6.574872e+00 -4.236084e+00 7.002534e+00 2.108241e+00 -1.104883e+00 4.121781e+00 1.212229e+00 2.809296e+00 -9.254617e+00 1.884811e+00 -7.002559e+00 6.574751e+01 -4.808999e-02 -2.763788e-01 -1.872964e-01 -3.741812e-01 -2.082541e-01 -1.634528e-01 -6.908181e-02 4.075299e-03 -1.669086e-01 -5.013311e-02 -1.141343e-01 1.283626e-01 2.865041e-01 -2.688183e-02 -1.730267e-01 -1.913233e-01 -3.467397e-01 -1.316339e-02 -7.148959e-02 3.042832e-01 -2.469002e-01 -3.373294e-01 -3.197232e-02 -3.520053e-02 -4.340334e-02 3.862849e-01
<VARIANCE> 39
 7.064388e+01 3.779361e+01 5.455977e+01 4.173268e+01 3.765585e+01 8.546354e+01 3.097250e+01 3.457243e+01 3.133968e+01 8.312703e+01 2.293863e+01 3.955929e+01 6.854995e+01 2.503708e+00 1.707727e+00 2.361850e+00 2.344986e+00 2.266007e+00 3.595377e+00 2.967797e+00 2.363423e+00 2.882616e+00 4.314075e+00 2.574362e+00 2.119024e+00 1.117171e+00 6.413558e-01 3.080760e-01 4.330504e-01 5.489144e-01 5.550229e-01 8.027430e-01 8.176917e-01 6.581127e-01 7.143680e-01 9.714434e-01 6.609275e-01 4.275165e-01 4.781675e-01
<GCONST> 1.259386e+02
<TRANSP> 5
 0.000000e+00 1.000000e+00 0.000000e+00 0.000000e+00 0.000000e+00
 0.000000e+00 8.244858e-01 1.755142e-01 0.000000e+00 0.000000e+00
 0.000000e+00 0.000000e+00 7.917967e-01 2.082033e-01 0.000000e+00
 0.000000e+00 0.000000e+00 0.000000e+00 7.340992e-01 2.659008e-01
 0.000000e+00 0.000000e+00 0.000000e+00 0.000000e+00 0.000000e+00
<ENDHMM>
~h "k"
<BEGINHMM>
<NUMSTATES> 5
<STATE> 2
<MEAN> 39
 -1.281962e+01 1.393309e+00 2.184828e+00 3.224365e+00 9.692461e-02 1.269668e+00 2.695307e+00 -3.896532e+00 2.562807e-01 -4.414764e+00 -7.316153e-01 -2.093166e+00 5.540687e+01 -6.712891e-01 4.650726e-01 3.261493e-01 -9.063759e-03 -1.938612e-01 -2.054404e-02 1.493103e-01 5.452223e-01 -3.190182e-01 -2.480589e-02 1.420984e-01 8.853666e-02 -6.355355e-01 7.915276e-02 -2.487922e-02 3.359712e-02 3.699443e-02 -7.632285e-02 -2.544969e-01 -1.256682e-01 -2.549342e-01 2.896772e-02 2.944139e-01 1.789899e-01 2.660916e-02 4.974361e-02
<VARIANCE> 39
 1.060422e+02 6.738391e+01 1.139221e+02 7.210706e+01 8.251394e+01 1.143922e+02 1.103358e+02 8.102343e+01 4.234146e+01 5.550438e+01 4.736435e+01 4.331702e+01 1.345506e+02 4.441520e-01 1.547325e+00 2.999434e+00 1.711163e+00 2.715640e+00 1.610606e+00 2.039312e+00 2.235607e+00 1.545254e+00 2.300526e+00 2.062416e+00 1.548478e+00 5.096267e-01 1.231086e-01 2.440199e-01 4.090907e-01 2.974884e-01 4.288247e-01 4.580100e-01 5.821919e-01 5.213566e-01 4.048074e-01 3.653500e-01 4.180719e-01 2.316162e-01 1.098605e-01
<GCONST> 1.192295e+02
<STATE> 3
<MEAN> 39
 -1.412185e+01 -1.058618e-01 1.114313e+00 2.183293e+00 -2.345452e+00 -1.912390e+00 4.601985e-01 -4.703602e+00 6.699322e-01 -3.279449e+00 -6.416479e-01 -1.002901e+00 5.311255e+01 -5.139515e-01 2.889107e-01 6.742993e-02 2.251310e-01 -2.092699e-02 -9.745085e-02 -5.123107e-03 2.433641e-01 1.897344e-01 5.030841e-01 2.098374e-01 2.005583e-01 -5.730140e-01 1.495862e-01 -9.008458e-02 -3.380065e-02 1.207965e-01 1.022643e-01 -7.357422e-02 5.268880e-02 -2.425300e-01 3.905171e-02 1.141078e-01 4.024665e-02 -2.026837e-02 1.311293e-01
<VARIANCE> 39
 9.923768e+01 5.728223e+01 1.076077e+02 5.600712e+01 5.380247e+01 1.117079e+02 9.753854e+01 6.219569e+01 4.111412e+01 4.827300e+01 3.986895e+01 3.488441e+01 1.628804e+02 3.759131e-01 1.123373e+00 2.132970e+00 1.632692e+00 1.995083e+00 1.647463e+00 2.876393e+00 2.357410e+00 2.529024e+00 1.973492e+00 2.188249e+00 1.260457e+00 3.998035e-01 6.645732e-02 1.364515e-01 2.366397e-01 1.937103e-01 2.660004e-01 2.778374e-01 2.559124e-01 4.670282e-01 2.782458e-01 2.983211e-01 2.640879e-01 1.978363e-01 4.549903e-02
<GCONST> 1.105119e+02
<STATE> 4
<MEAN> 39
 -3.785723e+00 1.371626e-01 -1.817083e+00 5.541681e+00 3.455890e+00 5.820261e+00 5.213269e+00 5.550953e-01 2.990761e+00 -4.814571e+00 8.223280e-01 -3.069412e+00 5.568167e+01 -3.316027e-02 3.651047e-02 1.593293e-02 7.349733e-02 6.474897e-02 1.360160e-02 3.397781e-02 -5.206238e-02 2.595946e-02 5.867666e-02 1.095301e-02 1.977524e-02 -4.555128e-02 1.575802e-02 -3.253821e-02 -2.318305e-02 -1.846176e-03 4.598904e-03 -7.434686e-03 1.512038e-02 -1.165699e-02 -2.960017e-03 -2.200112e-02 -8.252738e-03 1.163052e-03 1.738191e-02
<VARIANCE> 39
 7.613934e+01 5.144404e+01 2.887885e+01 2.776187e+01 4.795785e+01 3.442293e+01 3.569191e+01 2.764034e+01 2.511491e+01 3.187721e+01 2.354427e+01 2.764582e+01 1.110683e+02 2.592742e-01 5.227438e-01 7.309422e-01 1.042409e+00 1.122234e+00 1.399312e+00 1.529976e+00 1.697067e+00 1.921287e+00 1.845203e+00 1.786057e+00 1.277130e+00 1.032608e-01 4.989178e-02 1.005141e-01 1.469086e-01 1.733776e-01 2.169728e-01 2.915578e-01 2.850810e-01 3.153621e-01 3.857049e-01 3.866118e-01 3.858855e-01 2.510874e-01 2.286942e-02
<GCONST> 9.561863e+01
<TRANSP> 5
 0.000000e+00 1.000000e+00 0.000000e+00 0.000000e+00 0.000000e+00
 0.000000e+00 1.968356e-05 9.999803e-01 0.000000e+00 0.000000e+00
 0.000000e+00 0.000000e+00 2.975436e-01 7.024565e-01 0.000000e+00
 0.000000e+00 0.000000e+00 0.000000e+00 8.759118e-01 1.240882e-01
 0.000000e+00 0.000000e+00 0.000000e+00 0.000000e+00 0.000000e+00
<ENDHMM>
~h "l"
<BEGINHMM>
<NUMSTATES> 5
<STATE> 2
<MEAN> 39
 -4.835322e+00 5.351410e+00 3.178394e+00 7.777761e+00 2.184516e+00 2.425944e+00 6.270049e+00 -1.537714e-01 3.451703e+00 -4.980561e+00 -1.404731e+00 -4.769060e+00 5.759821e+01 -3.304703e-01 -8.581586e-02 5.438978e-02 2.018952e-02 6.118651e-02 2.764273e-01 1.234666e-01 2.459861e-01 3.001952e-01 1.342214e-01 5.906761e-02 -6.283751e-02 -2.932720e-01 -1.473761e-02 -4.745992e-02 5.561760e-03 3.986185e-02 1.278644e-02 -4.222229e-02 -6.650785e-02 -8.154713e-02 -5.753415e-02 -3.450029e-02 1.719322e-03 1.363050e-02 7.356202e-03
<VARIANCE> 39
 2.406958e+01 2.967420e+01 2.952392e+01 4.160981e+01 5.584664e+01 3.145614e+01 2.110454e+01 3.698916e+01 2.528487e+01 2.632101e+01 1.738154e+01 2.948620e+01 2.145769e+01 5.226440e-01 9.194840e-01 1.514190e+00 1.314873e+00 1.887541e+00 1.466820e+00 1.801466e+00 1.732811e+00 1.939544e+00 1.578351e+00 1.191586e+00 1.151477e+00 1.870488e-01 6.766093e-02 1.433033e-01 2.224993e-01 2.573273e-01 3.345714e-01 2.833831e-01 3.470254e-01 3.401407e-01 3.393746e-01 2.653986e-01 1.814616e-01 1.906423e-01 2.500332e-02
<GCONST> 9.572172e+01
<STATE> 3
<MEAN> 39
 -1.383400e+01 9.178994e-01 -1.129928e+00 6.591532e+00 -5.449569e+00 -2.616491e+00 5.297561e+00 -3.954987e+00 2.514468e+00 3.907905e-01 -5.771670e-01 2.257110e+00 5.349672e+01 -1.142308e-01 -1.076938e-02 -3.113246e-02 3.430402e-03 2.911982e-02 2.432061e-02 1.639426e-03 3.697007e-03 7.200961e-02 4.270430e-02 5.919010e-02 1.809334e-02 -1.322648e-01 2.077543e-02 1.904971e-02 2.872027e-02 2.563783e-02 1.905829e-02 1.446943e-02 2.152188e-02 8.383269e-03 -1.404759e-02 -1.643950e-02 -4.352950e-02 -3.566898e-02 1.803049e-02
<VARIANCE> 39
 1.087297e+01 2.019222e+01 8.620869e+00 9.362634e+00 1.818248e+01 1.520337e+01 1.677220e+01 1.747222e+01 1.520160e+01 1.734209e+01 1.304504e+01 1.748481e+01 1.244137e+01 2.708868e-01 5.887578e-01 5.286372e-01 6.800439e-01 8.506233e-01 1.118745e+00 1.573270e+00 1.562813e+00 1.373660e+00 1.447040e+00 1.393214e+00 1.253721e+00 2.026080e-01 5.112393e-02 8.890633e-02 8.786264e-02 1.251289e-01 1.707872e-01 2.181139e-01 3.370731e-01 3.147633e-01 2.798185e-01 3.374199e-01 3.044862e-01 2.280427e-01 3.533329e-02
<GCONST> 8.011891e+01
<STATE> 4
<MEAN> 39
 -1.112651e+01 3.787419e+00 7.794111e-01 1.014425e+01 3.935157e+00 4.825766e+00 5.673645e+00 1.041355e-01 4.390433e+00 -6.168629e+00 1.293991e-01 -5.314161e+00 5.109185e+01 -3.245713e-02 -1.445233e-02 -1.709177e-03 3.152379e-02 3.434378e-02 6.363307e-02 3.723361e-02 6.736545e-02 4.051641e-04 1.188513e-02 5.945554e-03 5.007458e-03 -7.497435e-02 1.543253e-03 4.236200e-04 -5.541252e-03 -6.748558e-03 1.102743e-02 -9.353448e-03 3.517669e-03 6.789643e-03 -5.893315e-03 7.106455e-03 -3.295272e-03 5.561694e-04 8.817428e-03
<VARIANCE> 39
 8.875220e+01 8.370705e+00 1.376715e+01 2.260535e+01 1.269503e+01 1.387821e+01 1.459561e+01 1.978787e+01 1.585637e+01 1.530420e+01 1.625919e+01 1.355765e+01 8.651956e+01 1.112406e-01 2.389010e-01 4.505157e-01 5.353513e-01 8.457800e-01 1.095736e+00 1.258195e+00 1.290694e+00 1.160121e+00 1.179352e+00 1.026199e+00 9.675605e-01 3.962643e-02 1.992851e-02 4.629896e-02 9.086611e-02 1.055489e-01 1.647105e-01 2.190488e-01 2.602677e-01 2.663320e-01 2.562860e-01 2.328950e-01 2.052546e-01 1.927819e-01 8.283942e-03
<GCONST> 7.418216e+01
<TRANSP> 5
 0.000000e+00 1.000000e+00 0.000000e+00 0.000000e+00 0.000000e+00
 0.000000e+00 8.765932e-01 1.234068e-01 0.000000e+00 0.000000e+00
 0.000000e+00 0.000000e+00 9.154885e-01 8.451146e-02 0.000000e+00
 0.000000e+00 0.000000e+00 0.000000e+00 9.520515e-01 4.794857e-02
 0.000000e+00 0.000000e+00 0.000000e+00 0.000000e+00 0.000000e+00
<ENDHMM>
~h "m"
<BEGINHMM>
<NUMSTATES> 5
<STATE> 2
<MEAN> 39
 5.442863e+00 1.252343e+01 6.541337e+00 6.789164e+00 -7.718740e+00 -9.191371e+00 -1.657179e+00 -7.766577e+00 -3.335146e+00 -8.482578e+00 -6.943034e+00 5.841334e-01 6.539664e+01 -6.375344e-03 3.639646e-02 4.280958e-02 5.798556e-02 5.272066e-03 4.660505e-03 3.394292e-03 3.516071e-02 4.035290e-02 4.768717e-03 -1.913219e-02 -1.965732e-02 -1.897213e-02 -2.206757e-02 -2.930384e-02 -1.051071e-02 1.912861e-02 4.874467e-02 1.673245e-02 2.835210e-03 -7.776989e-03 -2.174334e-02 3.461056e-03 7.658309e-03 1.695164e-02 -5.787277e-03
<VARIANCE> 39
 4.050011e+01 2.783793e+01 5.835657e+01 4.128127e+01 3.765892e+01 3.613729e+01 6.785995e+01 2.782492e+01 4.291675e+01 2.318199e+01 2.056154e+01 3.715287e+01 9.155650e+00 1.636036e+00 1.140285e+00 1.988314e+00 1.841933e+00 1.911953e+00 2.061542e+00 3.130696e+00 1.685105e+00 2.629049e+00 1.342949e+00 1.255134e+00 2.118756e+00 2.853751e-01 1.843171e-01 1.701095e-01 1.907145e-01 2.020475e-01 2.886459e-01 2.395124e-01 3.855217e-01 3.028467e-01 4.432456e-01 1.944021e-01 2.101517e-01 3.043475e-01 4.109977e-02
<GCONST> 1.030178e+02
<STATE> 3
<MEAN> 39
 -5.948035e+00 7.418422e+00 7.056981e+00 1.476345e+01 -6.844438e-01 -5.965996e+00 2.140494e+00 -7.223041e+00 -2.021712e+00 -4.369757e+00 -3.136370e+00 -2.532639e+00 5.952192e+01 -2.226654e-01 -3.413074e-01 -1.192412e-01 5.888603e-02 1.149895e-01 4.663209e-02 5.968130e-02 9.821799e-02 4.511699e-04 -2.053256e-02 -1.909555e-02 7.981575e-02 -5.852430e-02 -1.535124e-02 -1.848426e-02 -3.711804e-02 -1.203922e-01 -7.238619e-02 -1.435623e-02 4.337737e-03 4.171203e-03 2.921392e-03 2.201711e-02 1.086130e-02 1.527520e-02 -5.614518e-03
<VARIANCE> 39
 3.408698e+01 7.557150e+01 3.387094e+01 2.560286e+01 2.911152e+01 8.737454e+01 5.310249e+01 3.066548e+01 2.531495e+01 3.300541e+01 1.648257e+01 2.917291e+01 1.509305e+01 1.663779e+00 3.373864e+00 1.823530e+00 1.864115e+00 1.768328e+00 3.361549e+00 2.757177e+00 2.117677e+00 1.890079e+00 2.371127e+00 1.648051e+00 9.871444e-01 7.467687e-01 1.811800e-01 4.565977e-01 2.807471e-01 2.770241e-01 3.317199e-01 5.008549e-01 4.395829e-01 2.899256e-01 3.276054e-01 4.053198e-01 3.051765e-01 1.551828e-01 9.532751e-02
<GCONST> 1.090207e+02
<STATE> 4
<MEAN> 39
 -1.362862e+01 -2.050885e-01 -1.596474e+00 7.675995e+00 -4.433886e+00 -9.110039e-01 4.595483e+00 -3.684471e+00 3.579690e+00 -1.279264e+00 -1.564212e-01 4.601549e-01 5.303922e+01 -8.998324e-02 -4.507057e-02 -5.262599e-02 -7.368017e-02 -5.953872e-02 -3.368939e-02 2.727798e-02 -2.794597e-04 3.076094e-02 7.960172e-02 1.095772e-01 8.277600e-02 -9.814459e-02 2.957701e-02 4.561323e-03 -2.124419e-04 5.007716e-03 1.703906e-02 -1.978094e-03 7.589488e-03 1.024770e-02 9.131248e-03 -1.157811e-02 -2.317492e-02 -2.224848e-02 1.622959e-02
<VARIANCE> 39
 1.475526e+01 3.100121e+01 1.113774e+01 1.911454e+01 4.769049e+01 3.242425e+01 1.489683e+01 1.597767e+01 1.642703e+01 3.060983e+01 1.422272e+01 3.111649e+01 2.918195e+01 2.144161e-01 7.101469e-01 6.785429e-01 6.117228e-01 8.949818e-01 1.091618e+00 1.561279e+00 1.285351e+00 1.540250e+00 1.521255e+00 1.264711e+00 9.825236e-01 2.209426e-01 4.698258e-02 1.366773e-01 1.329148e-01 1.073724e-01 1.728321e-01 2.229508e-01 3.167774e-01 2.567376e-01 3.186862e-01 3.281733e-01 2.649924e-01 1.855512e-01 4.554776e-02
<GCONST> 8.571430e+01
<TRANSP> 5
 0.000000e+00 1.000000e+00 0.000000e+00 0.000000e+00 0.000000e+00
 0.000000e+00 9.304116e-01 6.958846e-02 0.000000e+00 0.000000e+00
 0.000000e+00 0.000000e+00 9.129973e-01 8.700269e-02 0.000000e+00
 0.000000e+00 0.000000e+00 0.000000e+00 9.330395e-01 6.696053e-02
 0.000000e+00 0.000000e+00 0.000000e+00 0.000000e+00 0.000000e+00
<ENDHMM>
~h "n"
<BEGINHMM>
<NUMSTATES> 5
<STATE> 2
<MEAN> 39
 -4.495512e-01 1.378181e+00 1.360268e+00 4.677413e+00 5.546093e-01 -6.455311e+00 -1.965290e+00 -5.033709e+00 -2.022871e+00 -2.541234e+00 -3.135210e+00 -2.421314e+00 5.866294e+01 1.347243e-01 1.209211e+00 9.036475e-01 5.878143e-01 -2.198778e-01 4.257419e-01 -1.330325e-01 -5.615802e-01 -2.265801e-01 -6.148370e-02 -2.731709e-01 -3.199340e-01 -5.969805e-01 -8.982539e-03 -3.281704e-02 -6.146282e-02 5.062190e-02 -3.855982e-02 2.052412e-01 2.428588e-02 6.156771e-02 5.019301e-02 -3.777024e-02 6.354336e-02 -6.953806e-02 -1.693487e-02
<VARIANCE> 39
 5.113868e+01 9.553594e+01 1.048936e+02 1.174398e+02 1.569026e+02 1.209603e+02 1.260758e+02 7.247525e+01 6.835804e+01 7.000836e+01 4.714001e+01 6.738399e+01 1.033194e+02 1.825155e+00 2.042811e+00 2.527575e+00 3.660939e+00 4.149851e+00 5.979292e+00 4.646302e+00 3.987612e+00 3.918836e+00 3.968938e+00 3.094599e+00 2.528224e+00 1.542222e+00 1.570291e-01 3.275630e-01 4.478225e-01 5.453423e-01 6.179264e-01 8.148897e-01 6.851218e-01 6.982893e-01 6.266559e-01 5.563805e-01 5.333223e-01 4.926297e-01 1.263695e-01
<GCONST> 1.343831e+02
<STATE> 3
<MEAN> 39
 2.112316e+00 9.299917e+00 3.575223e+00 1.061446e+01 -3.187853e-01 -6.476252e+00 -5.394794e+00 -9.397669e+00 -1.754547e+00 -5.404713e+00 -6.389966e+00 -2.762721e+00 6.118290e+01 -3.316529e-01 2.360964e-01 2.176629e-01 1.392576e-01 -2.096858e-01 6.465104e-01 5.440468e-01 3.208549e-01 1.350376e-01 -9.711688e-02 2.685279e-02 -2.273853e-01 -3.521653e-01 -1.439240e-01 -3.017741e-01 -1.002603e-01 -6.531639e-02 -1.196329e-02 -1.005392e-01 1.044719e-01 1.826300e-01 2.268042e-02 6.639159e-02 1.852397e-01 1.191524e-01 5.526925e-02
<VARIANCE> 39
 3.746995e+01 4.299514e+01 3.093910e+01 3.267915e+01 5.694726e+01 5.363730e+01 6.781983e+01 3.349553e+01 4.033073e+01 3.424057e+01 3.604217e+01 4.344817e+01 5.486958e+01 1.041474e+00 1.674908e+00 1.523840e+00 1.691264e+00 1.538978e+00 2.968934e+00 3.475778e+00 2.489324e+00 2.596038e+00 1.964117e+00 1.981673e+00 3.409907e+00 7.374829e-01 1.373101e-01 3.053449e-01 2.364297e-01 2.954415e-01 2.838858e-01 5.482321e-01 5.949429e-01 4.066924e-01 4.869651e-01 3.786102e-01 3.649947e-01 5.911185e-01 1.045145e-01
<GCONST> 1.141451e+02
<STATE> 4
<MEAN> 39
 -4.217979e+00 -7.655056e-01 3.195446e+00 7.200027e+00 -5.006325e+00 -2.258646e-02 -2.142175e+00 -3.520257e+00 -1.326155e-01 -4.716308e+00 -1.899410e+00 -1.013441e+00 4.733184e+01 -7.295882e-01 -5.973992e-01 -2.895188e-01 -4.394187e-02 5.536089e-02 3.787085e-01 4.978592e-01 4.118484e-01 8.845028e-02 1.307922e-01 4.511200e-01 2.633262e-01 -3.555063e-01 -1.798147e-03 -2.514354e-01 -1.067038e-01 -1.979136e-01 -3.580247e-02 -1.772691e-01 -8.908057e-02 -3.984634e-02 5.938547e-03 8.056781e-02 3.789316e-02 7.137209e-02 1.794596e-01
<VARIANCE> 39
 3.280457e+01 1.559022e+02 3.676277e+01 4.549547e+01 9.789639e+01 4.681164e+01 6.467194e+01 4.064777e+01 4.054804e+01 3.655333e+01 3.229703e+01 2.861526e+01 1.406729e+02 1.128625e+00 1.938143e+00 1.838638e+00 2.022339e+00 2.632921e+00 2.882564e+00 2.640547e+00 2.517596e+00 3.128834e+00 2.638858e+00 2.366302e+00 2.038729e+00 7.016900e-01 2.085689e-01 4.243561e-01 3.148569e-01 3.914667e-01 5.858386e-01 6.071865e-01 5.213737e-01 5.840250e-01 5.319371e-01 5.018317e-01 4.540950e-01 3.494544e-01 1.703291e-01
<GCONST> 1.206950e+02
<TRANSP> 5
 0.000000e+00 1.000000e+00 0.000000e+00 0.000000e+00 0.000000e+00
 0.000000e+00 6.172269e-01 3.827731e-01 0.000000e+00 0.000000e+00
 0.000000e+00 0.000000e+00 6.678525e-01 3.321475e-01 0.000000e+00
 0.000000e+00 0.000000e+00 0.000000e+00 6.452941e-01 3.547059e-01
 0.000000e+00 0.000000e+00 0.000000e+00 0.000000e+00 0.000000e+00
<ENDHMM>
~h "r"
<BEGINHMM>
<NUMSTATES> 5
<STATE> 2
<MEAN> 39
 5.604812e+00 1.898279e-01 -6.614298e+00 2.705176e+00 -1.224679e+00 -7.375275e+00 -5.592546e+00 -6.411366e+00 -6.174682e+00 -3.945025e+00 -1.039670e-01 -2.194638e+00 6.217721e+01 3.403575e-03 3.353613e-01 -4.708026e-01 1.018986e-01 6.048835e-01 2.889460e-01 -8.094011e-02 -3.093885e-02 -1.949462e-01 1.648367e-03 1.442725e-01 9.125359e-02 -3.860988e-01 -1.612301e-01 5.762900e-02 2.548954e-01 -2.048705e-02 -5.752586e-02 -2.743500e-02 -1.563263e-02 4.880838e-02 1.094492e-01 4.974326e-02 -4.270825e-02 1.666121e-02 -3.644554e-02
<VARIANCE> 39
 5.063197e+01 1.030961e+02 7.898643e+01 1.025924e+02 1.158771e+02 8.026466e+01 1.338452e+02 1.028608e+02 9.552596e+01 7.036398e+01 5.411946e+01 5.111826e+01 5.361398e+01 7.856374e-01 1.644152e+00 2.963535e+00 2.648839e+00 3.357269e+00 3.573608e+00 4.755736e+00 4.264735e+00 3.695698e+00 2.830703e+00 2.532420e+00 2.151461e+00 6.416373e-01 8.662214e-02 2.330701e-01 3.422284e-01 3.770905e-01 4.927440e-01 5.713996e-01 8.252156e-01 6.889160e-01 5.161003e-01 4.880318e-01 4.440431e-01 4.044296e-01 7.188765e-02
<GCONST> 1.265249e+02
<STATE> 3
<MEAN> 39
 2.129585e+00 4.567568e+00 -1.441825e+00 1.053944e+01 3.310949e+00 -1.192661e+01 -7.088099e+00 -1.277734e+01 -1.053796e+01 -3.226412e+00 2.765057e-01 -3.621290e+00 6.446700e+01 -1.701228e-01 1.518498e-01 2.491542e-01 -2.466130e-02 3.904701e-03 -1.467004e-01 8.773692e-02 4.341415e-01 2.002417e-01 -9.777496e-03 -1.898872e-01 -7.187841e-02 -1.143453e-01 -4.296482e-02 1.377944e-02 6.816072e-02 -2.836452e-02 -8.224922e-02 7.748195e-02 9.696734e-02 5.292262e-02 8.173092e-02 -6.713894e-02 -8.245389e-02 -1.714135e-02 -2.571326e-02
<VARIANCE> 39
 3.157181e+01 6.168683e+01 7.367645e+01 1.095286e+02 1.045717e+02 9.545826e+01 1.005695e+02 5.107167e+01 5.547034e+01 4.256872e+01 4.847936e+01 5.398439e+01 3.267832e+01 2.679490e-01 5.438448e-01 1.081136e+00 1.593243e+00 1.299076e+00 2.021402e+00 1.680324e+00 1.730709e+00 1.877358e+00 1.492998e+00 1.411877e+00 1.194052e+00 1.685498e-01 3.063997e-02 8.235560e-02 1.391140e-01 1.645922e-01 1.586654e-01 2.437031e-01 2.312285e-01 2.859469e-01 2.731311e-01 2.127331e-01 2.615170e-01 2.109224e-01 1.790542e-02
<GCONST> 1.000530e+02
<STATE> 4
<MEAN> 39
 4.240255e-01 -4.648006e+00 -3.824438e+00 -1.048879e-01 -4.069607e+00 -4.769687e+00 -3.015610e+00 2.641369e-01 -6.635068e-01 -2.852919e+00 -1.387379e+00 -1.992476e+00 5.102413e+01 -4.241187e-01 3.084968e-01 3.182198e-01 1.248441e-01 8.658803e-02 4.727715e-01 2.167884e-01 -4.237636e-03 1.871728e-01 -1.101273e-01 -4.960660e-02 5.025477e-02 -4.624753e-01 -3.007661e-02 -1.275292e-02 -1.447114e-02 -5.467304e-03 -2.242857e-02 8.055976e-02 3.753487e-02 -3.269074e-02 1.313896e-02 1.290155e-02 4.032139e-02 5.187270e-03 -1.542336e-02
<VARIANCE> 39
 3.247350e+01 1.222104e+02 1.044054e+02 1.244523e+02 9.284531e+01 8.709147e+01 9.105186e+01 8.547514e+01 7.937247e+01 4.684363e+01 3.299358e+01 3.452331e+01 1.087592e+02 4.227555e-01 9.668028e-01 1.233367e+00 1.671379e+00 1.576367e+00 2.339572e+00 2.394351e+00 2.233292e+00 2.385738e+00 1.986861e+00 1.826430e+00 1.564700e+00 3.319499e-01 5.399670e-02 1.375323e-01 1.809339e-01 2.016185e-01 2.498967e-01 3.681566e-01 3.326724e-01 3.365465e-01 3.862976e-01 3.420333e-01 2.898574e-01 3.109598e-01 3.163753e-02
<GCONST> 1.109817e+02
<TRANSP> 5
 0.000000e+00 1.000000e+00 0.000000e+00 0.000000e+00 0.000000e+00
 0.000000e+00 6.773055e-01 3.226945e-01 0.000000e+00 0.000000e+00
 0.000000e+00 0.000000e+00 7.972143e-01 2.027856e-01 0.000000e+00
 0.000000e+00 0.000000e+00 0.000000e+00 7.870290e-01 2.129710e-01
 0.000000e+00 0.000000e+00 0.000000e+00 0.000000e+00 0.000000e+00
<ENDHMM>
~h "s"
<BEGINHMM>
<NUMSTATES> 5
<STATE> 2
<MEAN> 39
 -1.262920e+01 -1.196367e+00 7.865454e-01 1.869273e+00 -1.129520e-01 3.402511e-01 -3.520841e-01 -4.143663e+00 -6.074938e-01 -2.192241e+00 5.198250e-01 -1.061776e+00 5.487503e+01 -1.051100e+00 -7.295324e-01 8.460208e-01 -6.883989e-01 -8.695022e-02 4.676079e-03 5.199977e-01 -4.020660e-01 6.024138e-01 1.044423e-01 3.141168e-01 9.445935e-03 1.096626e+00 -2.450490e-01 -2.869695e-02 6.926395e-02 -1.219134e-01 2.073451e-02 -8.546372e-02 1.504578e-01 1.847590e-02 6.413325e-02 -2.245515e-02 8.623219e-02 3.162720e-02 1.351429e-01
<VARIANCE> 39
 9.636140e+01 6.959141e+01 1.190552e+02 1.114932e+02 1.720446e+02 1.357423e+02 1.638540e+02 8.803030e+01 6.408475e+01 7.774011e+01 4.231911e+01 8.611975e+01 1.944168e+02 6.028057e+00 4.182152e+00 8.462523e+00 6.849609e+00 5.336812e+00 8.021252e+00 5.862036e+00 4.139802e+00 4.460192e+00 4.420754e+00 3.465999e+00 3.229241e+00 3.419350e+00 5.990220e-01 6.330312e-01 1.036854e+00 9.844600e-01 8.309648e-01 1.163742e+00 9.342018e-01 6.995491e-01 7.037698e-01 7.065846e-01 6.623010e-01 6.117991e-01 5.074228e-01
<GCONST> 1.487719e+02
<STATE> 3
<MEAN> 39
 -2.061041e+01 -2.101489e-01 4.982913e+00 3.743911e+00 -5.744802e-01 -9.451395e-01 6.405526e+00 -6.138512e+00 4.424220e+00 -2.247830e+00 3.411093e+00 -2.210607e+00 5.990630e+01 -1.200498e+00 -2.685335e-01 3.731308e-01 -5.618653e-01 -4.697248e-02 -1.799736e-01 4.585451e-01 2.848395e-01 1.511350e-01 -1.437364e-01 2.667540e-01 2.387464e-01 4.595976e-01 4.741632e-01 1.529331e-01 -2.599442e-01 1.162841e-01 2.300302e-02 1.471979e-02 -3.013013e-01 9.818308e-02 -2.605493e-01 -1.401532e-01 -2.161940e-01 1.030784e-03 -2.291817e-01
<VARIANCE> 39
 7.043896e+01 9.558733e+01 1.812379e+02 1.087220e+02 1.059233e+02 9.468716e+01 8.455495e+01 7.127552e+01 6.426851e+01 4.503843e+01 4.038510e+01 4.556900e+01 1.184948e+02 3.041930e+00 2.925188e+00 2.595450e+00 3.928518e+00 2.800002e+00 3.053317e+00 3.025338e+00 3.093755e+00 2.386726e+00 1.982329e+00 2.412270e+00 1.897892e+00 1.035125e+00 3.604650e-01 3.418725e-01 6.584808e-01 8.916458e-01 7.454853e-01 5.247577e-01 7.018132e-01 7.049522e-01 5.633428e-01 4.017696e-01 3.191167e-01 3.649328e-01 2.053423e-01
<GCONST> 1.310736e+02
<STATE> 4
<MEAN> 39
 -2.405690e+01 -1.673407e+00 4.470763e+00 -1.613292e+00 1.043674e+00 -6.929364e-01 5.313122e+00 -5.041504e+00 3.706218e+00 -1.731453e+00 1.661965e+00 3.551651e-01 5.761043e+01 1.153090e-01 -8.064585e-02 -1.503113e-01 2.992867e-02 -6.248451e-02 3.064639e-02 -9.117696e-02 7.488485e-02 -1.332925e-02 -7.838491e-02 -1.224533e-01 4.281326e-02 -1.501452e-01 3.060366e-01 -1.359123e-02 -6.232068e-02 1.071021e-01 -4.310906e-02 -5.286581e-02 -1.190405e-01 -7.988916e-02 -8.409517e-02 -7.252810e-03 -8.414082e-02 -2.744654e-02 -5.004111e-02
<VARIANCE> 39
 5.842003e+01 9.032487e+01 1.887319e+02 1.092611e+02 8.536163e+01 9.756796e+01 7.459509e+01 5.141426e+01 4.752956e+01 4.543106e+01 4.096037e+01 4.828223e+01 1.276556e+02 1.031509e+00 1.176728e+00 1.587478e+00 1.700759e+00 1.763040e+00 1.971647e+00 2.240100e+00 2.237087e+00 2.039023e+00 1.782901e+00 1.527548e+00 1.391552e+00 7.386029e-01 2.061152e-01 2.316450e-01 2.320886e-01 3.125042e-01 3.233573e-01 3.891902e-01 3.938739e-01 4.310375e-01 3.996642e-01 3.346051e-01 3.169073e-01 2.525420e-01 9.608045e-02
<GCONST> 1.169733e+02
<TRANSP> 5
 0.000000e+00 1.000000e+00 0.000000e+00 0.000000e+00 0.000000e+00
 0.000000e+00 7.266879e-01 2.733121e-01 0.000000e+00 0.000000e+00
 0.000000e+00 0.000000e+00 4.777981e-01 5.222018e-01 0.000000e+00
 0.000000e+00 0.000000e+00 0.000000e+00 7.987852e-01 2.012148e-01
 0.000000e+00 0.000000e+00 0.000000e+00 0.000000e+00 0.000000e+00
<ENDHMM>
~h "t"
<BEGINHMM>
<NUMSTATES> 5
<STATE> 2
<MEAN> 39
 -4.185996e+00 1.587214e+00 2.115908e+00 1.053131e+01 3.790556e+00 -7.596133e+00 -2.547841e+00 -9.719756e+00 -4.616488e+00 -3.279058e+00 9.269419e-02 -4.535444e+00 6.345927e+01 1.250774e+00 6.904086e-01 -7.926948e-01 -1.960796e-01 -9.766206e-02 -6.471195e-01 -4.718032e-01 -3.759054e-01 -8.952852e-01 -3.581492e-01 3.695361e-01 2.639948e-02 2.246690e-01 -4.756001e-01 -4.007756e-01 -1.312267e-01 -3.421858e-01 -3.184753e-01 1.683628e-01 3.633540e-01 3.445548e-01 2.705235e-01 1.069544e-01 5.240436e-02 1.221664e-01 -1.159341e-01
<VARIANCE> 39
 7.761791e+01 7.302492e+01 5.799677e+01 8.441584e+01 1.202788e+02 9.186521e+01 1.155186e+02 7.081580e+01 8.211232e+01 5.825650e+01 4.549195e+01 7.812457e+01 9.394030e+01 2.997263e+00 4.859000e+00 2.859404e+00 2.576726e+00 2.627066e+00 5.473778e+00 4.735274e+00 3.823748e+00 5.928327e+00 3.700745e+00 2.582619e+00 2.681575e+00 1.321674e+00 5.068625e-01 7.312737e-01 4.831708e-01 3.969049e-01 4.879721e-01 6.193966e-01 7.809538e-01 5.762165e-01 5.473326e-01 5.435669e-01 4.765215e-01 4.327497e-01 2.350436e-01
<GCONST> 1.349891e+02
<STATE> 3
<MEAN> 39
 -4.484196e+00 8.552723e-02 -5.006553e-01 8.548325e+00 2.364084e+00 -1.038556e+01 7.713431e-03 -8.611399e+00 -4.542243e+00 -9.229829e-01 9.014373e-01 -3.583179e+00 6.447399e+01 2.844402e-01 -4.730384e-03 -7.007077e-01 -5.463144e-01 -5.506025e-01 2.708425e-01 3.935626e-01 5.812829e-01 5.819320e-02 -4.416410e-02 -6.044219e-02 3.097976e-01 -2.014979e-01 -2.417750e-01 -1.061902e-01 9.345343e-02 -7.643197e-02 -9.142673e-02 2.912453e-01 1.355281e-01 1.903800e-01 2.110559e-01 -9.241768e-02 -6.127556e-02 2.993550e-02 -1.407603e-01
<VARIANCE> 39
 8.370620e+01 6.313593e+01 6.342157e+01 6.628754e+01 1.097600e+02 1.137932e+02 1.384917e+02 7.472641e+01 8.887218e+01 7.301515e+01 4.538337e+01 6.832784e+01 1.326751e+02 9.798859e-01 1.861434e+00 1.340253e+00 1.805241e+00 2.471129e+00 3.825779e+00 3.350193e+00 2.918495e+00 3.468778e+00 3.213117e+00 2.193656e+00 2.184216e+00 6.619555e-01 2.644630e-01 4.341044e-01 3.258674e-01 3.200653e-01 3.671342e-01 4.807742e-01 4.733009e-01 5.961445e-01 6.204380e-01 5.714320e-01 3.815648e-01 3.635219e-01 1.434105e-01
<GCONST> 1.261735e+02
<STATE> 4
<MEAN> 39
 -3.579207e+00 4.476092e+00 -6.728956e+00 -2.368813e+00 -2.450644e+00 -4.165437e-01 5.864669e+00 -1.766081e+00 -4.576684e+00 -5.655506e+00 -6.261795e-01 -2.848243e-02 6.021757e+01 2.205354e-01 5.181929e-02 -8.929328e-02 -4.991904e-02 -2.266438e-01 2.164864e-01 1.571552e-02 3.143910e-01 1.774051e-01 -2.331279e-01 5.065499e-02 -5.260538e-02 -3.605672e-01 -5.919519e-02 3.080278e-02 1.128744e-01 8.319080e-02 4.455166e-02 -1.133103e-03 -4.211348e-02 -3.519151e-03 3.640997e-02 5.190203e-02 -5.130493e-02 -6.637353e-02 -4.846521e-02
<VARIANCE> 39
 9.096501e+01 1.326222e+02 7.049501e+01 1.227520e+02 7.643093e+01 1.609657e+02 9.001156e+01 6.289270e+01 9.667716e+01 5.796101e+01 4.861386e+01 5.164875e+01 1.802214e+02 1.478237e+00 9.207215e-01 1.142003e+00 1.279612e+00 1.462928e+00 2.611827e+00 2.072067e+00 1.853949e+00 2.089308e+00 2.275488e+00 1.822771e+00 1.759361e+00 9.558733e-01 2.064947e-01 2.047223e-01 1.925542e-01 2.233133e-01 2.370043e-01 4.611594e-01 3.745356e-01 3.329959e-01 4.796096e-01 3.860739e-01 3.174093e-01 2.762666e-01 1.051016e-01
<GCONST> 1.189279e+02
<TRANSP> 5
 0.000000e+00 1.000000e+00 0.000000e+00 0.000000e+00 0.000000e+00
 0.000000e+00 3.109925e-01 6.890075e-01 0.000000e+00 0.000000e+00
 0.000000e+00 0.000000e+00 2.925008e-01 7.074992e-01 0.000000e+00
 0.000000e+00 0.000000e+00 0.000000e+00 6.600610e-01 3.399390e-01
 0.000000e+00 0.000000e+00 0.000000e+00 0.000000e+00 0.000000e+00
<ENDHMM>
~h "v"
<BEGINHMM>
<NUMSTATES> 5
<STATE> 2
<MEAN> 39
 1.064972e-01 -6.666193e+00 -5.945725e+00 1.290963e+00 -1.694901e-02 -1.159000e+01 -3.306155e+00 -3.730794e+00 -2.929919e+00 -2.512329e+00 2.952418e+00 -5.090271e+00 6.933758e+01 -4.319769e-01 3.942110e-01 5.477819e-01 3.167602e-01 6.980792e-02 -3.116301e-02 -3.415004e-01 -1.220695e-01 -1.468591e-01 -2.576479e-01 1.032567e-01 4.407888e-02 -3.819325e-01 -2.777519e-02 6.289692e-02 4.463240e-02 -1.805290e-02 2.703907e-02 1.910451e-01 6.416369e-03 -1.700357e-03 6.099924e-02 -3.389106e-02 -1.067465e-01 3.927410e-02 -1.048793e-01
<VARIANCE> 39
 1.220606e+02 1.040434e+02 1.031055e+02 8.991875e+01 2.471341e+02 1.069945e+02 1.149935e+02 9.972717e+01 9.070854e+01 6.632360e+01 7.310540e+01 5.584028e+01 9.191570e+01 4.856059e+00 3.013523e+00 2.274159e+00 4.403150e+00 3.735774e+00 7.734703e+00 4.195679e+00 3.661197e+00 4.379874e+00 4.754357e+00 4.432683e+00 2.456288e+00 3.023998e+00 7.416132e-01 4.816183e-01 4.435551e-01 7.359825e-01 6.115478e-01 1.341618e+00 7.780483e-01 6.329475e-01 8.117620e-01 9.185818e-01 7.790963e-01 3.774169e-01 4.522602e-01
<GCONST> 1.435755e+02
<STATE> 3
<MEAN> 39
 -3.642057e+00 -2.076625e+00 -1.584730e+00 3.037661e-01 -2.597157e+00 -4.777052e+00 -6.112138e+00 -9.758841e+00 -1.559794e-02 -3.302859e+00 -3.725469e+00 -1.058510e+00 5.805695e+01 -5.236829e-01 1.096622e+00 6.872054e-01 3.575633e-01 -7.738375e-02 9.771521e-01 5.045950e-01 7.016020e-02 2.479477e-01 1.926661e-01 -4.441362e-02 4.723321e-02 -1.454458e+00 -4.207839e-02 4.639295e-02 -1.032030e-01 -3.124170e-02 5.384665e-02 1.359750e-02 1.109846e-01 1.485636e-01 9.496254e-02 6.135610e-02 1.428708e-01 1.637270e-02 1.503703e-02
<VARIANCE> 39
 1.220275e+02 6.384844e+01 5.413106e+01 1.227240e+02 1.407617e+02 7.522120e+01 1.338367e+02 1.087008e+02 7.223209e+01 1.025628e+02 6.684825e+01 4.202475e+01 9.298939e+01 2.054448e+00 3.556997e+00 2.252656e+00 4.113278e+00 4.700726e+00 5.284252e+00 3.759416e+00 5.267193e+00 3.827424e+00 5.316384e+00 4.405365e+00 2.254748e+00 1.263043e+00 1.854396e-01 4.064597e-01 2.902774e-01 5.096360e-01 5.814809e-01 6.333422e-01 6.694309e-01 7.636691e-01 5.416108e-01 7.480890e-01 7.211548e-01 4.305691e-01 1.821701e-01
<GCONST> 1.356894e+02
<STATE> 4
<MEAN> 39
 -4.171205e+00 -5.209151e+00 2.082311e+00 1.699081e+00 -7.014709e+00 -7.936341e-01 -1.508685e+00 -8.750123e-01 2.009012e+00 -3.943366e+00 -8.900381e-01 1.054500e+00 4.838940e+01 -4.430108e-01 1.411546e-01 -3.926754e-02 2.641302e-01 3.002746e-01 1.691287e-01 -2.162838e-02 1.303042e-01 1.937970e-01 1.857715e-01 2.557439e-01 1.670963e-01 -5.107394e-01 5.184860e-02 -2.056576e-01 -7.199052e-02 -3.683195e-02 -6.455950e-02 -1.596518e-01 8.843246e-03 -5.170302e-02 -1.004086e-01 5.890023e-02 1.701556e-02 -3.315965e-02 1.546271e-01
<VARIANCE> 39
 4.862825e+01 1.238978e+02 4.011591e+01 5.732896e+01 1.008446e+02 5.640016e+01 6.394220e+01 4.799369e+01 6.355403e+01 3.630831e+01 3.314303e+01 2.789301e+01 1.138808e+02 1.406440e+00 1.655813e+00 1.865730e+00 1.847201e+00 3.185571e+00 2.850348e+00 2.777559e+00 2.358498e+00 3.306045e+00 2.128156e+00 2.020792e+00 1.882326e+00 7.822097e-01 1.686260e-01 2.807537e-01 2.753974e-01 3.284489e-01 5.548078e-01 4.916097e-01 5.291376e-01 4.714855e-01 5.851517e-01 4.096789e-01 4.146384e-01 3.523499e-01 1.285823e-01
<GCONST> 1.197708e+02
<TRANSP> 5
 0.000000e+00 1.000000e+00 0.000000e+00 0.000000e+00 0.000000e+00
 0.000000e+00 8.156015e-01 1.843985e-01 0.000000e+00 0.000000e+00
 0.000000e+00 0.000000e+00 7.415219e-01 2.584781e-01 0.000000e+00
 0.000000e+00 0.000000e+00 0.000000e+00 8.554530e-01 1.445470e-01
 0.000000e+00 0.000000e+00 0.000000e+00 0.000000e+00 0.000000e+00
<ENDHMM>
~h "w"
<BEGINHMM>
<NUMSTATES> 5
<STATE> 2
<MEAN> 39
 -8.814925e+00 5.556603e+00 -1.019442e+00 7.361129e+00 -1.194626e+00 -3.881532e+00 -5.773550e-01 -6.487130e+00 -2.570712e+00 -3.076471e+00 4.954654e-01 -2.896333e+00 5.092907e+01 1.856653e+00 1.013658e+00 4.982104e-01 -4.932944e-01 -8.139560e-01 -1.053385e+00 -6.783497e-01 -6.663563e-01 -4.011287e-01 -9.707662e-02 -3.929707e-01 -2.106586e-01 1.161905e+00 2.935085e-01 -6.399076e-02 -1.413463e-01 -2.717780e-01 -2.184060e-01 -1.934430e-01 -8.128320e-02 1.223166e-02 5.492949e-03 4.994296e-02 -4.260957e-03 -2.589143e-03 2.294785e-01
<VARIANCE> 39
 8.077107e+01 1.216967e+02 6.037848e+01 7.016679e+01 1.085193e+02 1.053840e+02 7.550271e+01 9.574454e+01 5.665945e+01 7.504779e+01 4.611966e+01 3.273071e+01 1.686390e+02 5.267948e+00 7.333051e+00 5.027822e+00 5.284554e+00 7.837675e+00 7.317375e+00 6.660802e+00 5.144480e+00 3.933708e+00 3.965543e+00 3.299169e+00 2.200610e+00 3.365717e+00 8.202844e-01 1.325779e+00 9.970492e-01 9.637754e-01 1.230358e+00 1.055107e+00 1.356009e+00 1.116198e+00 7.605162e-01 7.836294e-01 4.581231e-01 4.601580e-01 5.666713e-01
<GCONST> 1.467923e+02
<STATE> 3
<MEAN> 39
 4.782036e+00 1.187361e+01 1.748133e+00 -5.116776e-01 -1.184760e+01 -1.048891e+01 -6.852704e+00 -5.408047e+00 -1.457738e+00 -2.409281e+00 -2.989017e+00 -2.605531e+00 5.621669e+01 9.422616e-01 -7.806301e-01 -1.343816e+00 -1.752404e+00 -9.271271e-01 -8.240463e-01 9.384258e-01 1.231419e+00 4.930774e-01 -4.692444e-02 -3.199172e-01 -6.375690e-03 1.267838e+00 -2.911927e-01 -4.489096e-01 -3.182555e-01 -8.171917e-03 4.677626e-01 4.291090e-01 4.714116e-01 1.887261e-01 -9.776177e-02 -2.003156e-01 4.372419e-02 6.128601e-02 -6.633714e-03
<VARIANCE> 39
 3.030994e+01 5.901824e+01 3.755640e+01 8.539022e+01 9.451452e+01 1.056282e+02 1.303623e+02 6.942834e+01 6.414705e+01 7.750916e+01 3.550466e+01 4.477660e+01 7.995221e+01 8.659248e-01 2.158678e+00 2.013436e+00 3.039526e+00 3.684889e+00 6.559357e+00 6.993507e+00 4.934089e+00 4.126665e+00 3.774685e+00 1.727378e+00 2.938694e+00 8.825708e-01 1.472229e-01 2.603635e-01 3.299150e-01 3.488450e-01 7.431207e-01 6.910493e-01 9.426330e-01 7.036429e-01 7.580763e-01 6.397182e-01 3.953737e-01 4.436334e-01 7.524557e-02
<GCONST> 1.276802e+02
<STATE> 4
<MEAN> 39
 6.616514e+00 1.855885e+00 -1.058824e+01 -6.622720e+00 -9.472236e+00 -8.870098e+00 3.351194e+00 2.876550e+00 -8.602952e-01 -6.930918e+00 -2.547394e+00 -2.975954e+00 6.430106e+01 -1.947349e-02 -1.451926e+00 -1.261805e+00 -1.366891e-01 1.738462e+00 1.552589e+00 2.251044e-01 -4.557249e-01 -7.723767e-01 -4.872828e-01 7.884313e-01 3.188264e-01 6.327152e-01 -1.496279e-01 1.766296e-01 3.876075e-01 4.546306e-01 1.818465e-01 -1.068148e-03 -4.740063e-01 -4.490882e-01 -3.080120e-02 2.336318e-01 1.612846e-01 -1.392058e-02 -1.938321e-01
<VARIANCE> 39
 3.368929e+01 8.454195e+01 5.547411e+01 1.137344e+02 1.133721e+02 2.457858e+02 1.862710e+02 1.074909e+02 8.075152e+01 4.696279e+01 5.432431e+01 4.693641e+01 6.822620e+01 3.882925e-01 1.644559e+00 1.799266e+00 2.117412e+00 3.721937e+00 3.335781e+00 5.390078e+00 3.534956e+00 3.652174e+00 3.358360e+00 3.335600e+00 2.864548e+00 6.712630e-01 8.362747e-02 1.830183e-01 1.844818e-01 3.050736e-01 5.100054e-01 7.795693e-01 6.839843e-01 4.156565e-01 5.593826e-01 4.998533e-01 4.745604e-01 5.044091e-01 6.205762e-02
<GCONST> 1.248282e+02
<TRANSP> 5
 0.000000e+00 1.000000e+00 0.000000e+00 0.000000e+00 0.000000e+00
 0.000000e+00 7.388896e-01 2.611104e-01 0.000000e+00 0.000000e+00
 0.000000e+00 0.000000e+00 7.516023e-01 2.483977e-01 0.000000e+00
 0.000000e+00 0.000000e+00 0.000000e+00 7.772221e-01 2.227779e-01
 0.000000e+00 0.000000e+00 0.000000e+00 0.000000e+00 0.000000e+00
<ENDHMM>
~h "z"
<BEGINHMM>
<NUMSTATES> 5
<STATE> 2
<MEAN> 39
 -9.161838e+00 8.219853e+00 -1.951681e+00 2.784956e+00 1.170819e+00 -4.834862e+00 -6.524190e-01 -3.863238e+00 -4.341378e+00 -3.088556e+00 -4.292414e-01 -2.964655e+00 4.797352e+01 2.473642e-01 6.881318e-01 1.383845e+00 -1.051603e+00 -3.957172e-01 -8.320109e-01 -1.798426e-01 -1.138100e+00 5.261740e-01 -6.318597e-01 -2.831976e-01 3.149940e-01 1.323220e+00 -2.787589e-02 -1.419469e-01 3.162819e-01 -2.254690e-01 -2.038052e-01 4.192134e-02 -1.038236e-01 -2.709808e-01 1.558362e-01 -3.786856e-02 -1.327185e-01 1.714082e-01 2.090082e-01
<VARIANCE> 39
 1.050298e+02 8.149924e+01 8.514865e+01 6.851139e+01 1.915469e+02 1.172415e+02 5.654428e+01 8.267416e+01 1.029540e+02 8.284346e+01 2.576418e+01 4.296970e+01 2.277067e+02 4.604089e+00 4.946692e+00 3.823751e+00 5.269189e+00 6.599257e+00 1.035332e+01 4.322189e+00 5.072655e+00 6.607310e+00 4.635614e+00 1.999352e+00 4.019056e+00 2.457805e+00 7.534836e-01 5.795473e-01 7.550668e-01 9.262009e-01 1.108058e+00 1.314677e+00 8.302757e-01 9.049004e-01 9.758280e-01 6.685399e-01 3.493310e-01 7.086397e-01 3.530340e-01
<GCONST> 1.452469e+02
<STATE> 3
<MEAN> 39
 -1.727856e+01 6.943512e+00 1.189176e+01 1.975038e-02 4.073268e+00 -6.337703e+00 1.234458e+00 -9.934484e+00 -1.014505e+00 -5.240367e+00 -1.133195e+00 3.497697e-02 6.325481e+01 -5.798817e-02 -8.727992e-01 1.103610e+00 -8.940537e-02 -5.269240e-01 -2.405629e-01 -4.532203e-01 -1.642246e-01 1.223752e-01 1.123447e-01 -2.340547e-02 2.321425e-01 6.382610e-01 4.338090e-01 -7.519156e-02 -1.945705e-01 2.283358e-01 -1.398167e-01 -9.619354e-02 -2.346261e-01 5.262544e-02 -3.215483e-01 5.174303e-02 1.110090e-01 -1.256762e-01 -5.032573e-02
<VARIANCE> 39
 1.111126e+02 9.397003e+01 2.037882e+02 8.430859e+01 9.860960e+01 2.486882e+02 7.466256e+01 7.998142e+01 8.703579e+01 5.068952e+01 1.130257e+02 7.806204e+01 1.184918e+02 9.334136e+00 2.653558e+00 7.906401e+00 5.506677e+00 5.258274e+00 7.060452e+00 5.189496e+00 5.210170e+00 5.525553e+00 3.111386e+00 3.448842e+00 2.375039e+00 9.893406e-01 8.670444e-01 3.754488e-01 9.156902e-01 6.659550e-01 7.768345e-01 1.041469e+00 8.354921e-01 1.007388e+00 6.986921e-01 5.901560e-01 6.594007e-01 4.621715e-01 1.836120e-01
<GCONST> 1.447977e+02
<STATE> 4
<MEAN> 39
 -7.744932e+00 -3.140952e+00 1.759523e+01 6.266393e-02 -9.716178e+00 -1.412006e+00 -1.420376e+01 -1.084228e+01 -6.815634e+00 -2.521187e+00 -1.237005e+00 5.912146e-01 6.149780e+01 2.484921e+00 -1.634798e+00 -4.001168e-01 8.204347e-01 -1.024471e+00 -1.311116e+00 -1.121570e+00 4.620082e-01 -5.538885e-01 8.942934e-02 4.445857e-01 -3.634706e-01 1.078089e+00 -3.374571e-01 7.769699e-02 -7.285535e-01 1.507327e-01 4.727398e-01 -4.287541e-02 4.480275e-01 4.469937e-01 4.838868e-01 -4.037803e-02 5.000841e-02 -8.526950e-02 -2.195974e-01
<VARIANCE> 39
 5.921637e+01 7.616339e+01 9.337438e+01 8.983824e+01 1.045937e+02 2.630206e+02 1.426932e+02 9.173142e+01 1.543235e+02 4.668089e+01 4.431943e+01 5.249019e+01 1.041335e+02 4.795633e+00 3.515077e+00 1.116736e+01 8.178078e+00 6.357666e+00 9.714127e+00 6.047279e+00 7.212962e+00 5.706174e+00 4.304054e+00 3.978143e+00 2.838496e+00 2.380560e+00 6.488483e-01 6.613660e-01 5.437995e-01 8.205751e-01 7.619752e-01 1.450078e+00 9.607109e-01 8.389621e-01 7.743049e-01 7.844880e-01 4.277318e-01 4.541433e-01 1.751043e-01
<GCONST> 1.461901e+02
<TRANSP> 5
 0.000000e+00 1.000000e+00 0.000000e+00 0.000000e+00 0.000000e+00
 0.000000e+00 7.320252e-01 2.679748e-01 0.000000e+00 0.000000e+00
 0.000000e+00 0.000000e+00 8.442064e-01 1.557936e-01 0.000000e+00
 0.000000e+00 0.000000e+00 0.000000e+00 7.285602e-01 2.714398e-01
 0.000000e+00 0.000000e+00 0.000000e+00 0.000000e+00 0.000000e+00
<ENDHMM>
~h "aa"
<BEGINHMM>
<NUMSTATES> 5
<STATE> 2
<MEAN> 39
 -4.754271e+00 -4.307378e-01 7.005765e-01 8.122160e+00 4.332390e+00 -5.372709e+00 9.862409e+00 -5.598666e+00 -2.349890e+00 -5.209709e-01 -3.158365e-01 -4.944757e+00 6.476294e+01 -1.459685e+00 -6.671968e-01 1.542971e+00 5.492163e-01 2.089338e-01 1.538634e-01 -2.259245e-01 -4.775506e-01 -1.593235e-01 2.915716e-01 2.909523e-01 -1.792930e-01 7.525647e-02 -1.012062e-01 3.585802e-02 1.172226e-01 -1.191107e-01 -1.966427e-01 -1.035885e-01 -1.949072e-01 1.006958e-01 1.494500e-02 -1.403634e-01 7.132150e-02 -7.918702e-02 5.990373e-02
<VARIANCE> 39
 8.667271e+01 7.770782e+01 1.376810e+02 5.275251e+01 5.641724e+01 1.045793e+02 1.691397e+02 9.842641e+01 4.300436e+01 7.555643e+01 4.109260e+01 3.871367e+01 6.713618e+01 5.207675e+00 5.784706e+00 6.959183e+00 4.963536e+00 5.512269e+00 7.229125e+00 7.532611e+00 1.055888e+01 4.012471e+00 6.702967e+00 2.897625e+00 2.384104e+00 2.792455e+00 7.905510e-01 9.728073e-01 7.150851e-01 7.937154e-01 6.508073e-01 9.844503e-01 8.880917e-01 1.671208e+00 7.720790e-01 1.175038e+00 5.279986e-01 3.195947e-01 4.642087e-01
<GCONST> 1.451875e+02
<STATE> 3
<MEAN> 39
 -1.543537e+01 -6.795802e+00 9.229677e+00 7.233675e+00 -2.971097e+00 -5.123277e+00 6.777582e+00 -4.420598e+00 -6.619653e-01 -1.500295e+00 2.333856e+00 -2.113050e+00 6.609383e+01 2.299184e-02 3.154033e-01 5.262834e-01 3.130162e-01 -1.077751e-01 -8.356681e-02 -2.911439e-01 2.365313e-01 -2.820599e-01 -4.806253e-02 -1.875953e-01 -6.026308e-02 -5.136694e-01 6.395332e-01 5.052852e-01 -2.494405e-01 2.367263e-01 7.043946e-02 -3.483323e-02 -1.712371e-01 -6.182632e-02 -7.804718e-02 2.235151e-02 -1.801876e-01 -1.548565e-01 -2.274939e-01
<VARIANCE> 39
 6.725864e+01 3.815963e+01 5.722808e+01 4.176721e+01 9.615067e+01 5.969066e+01 5.863396e+01 4.078275e+01 3.816596e+01 5.490232e+01 3.276876e+01 6.217479e+01 6.185108e+01 6.704561e+00 2.537752e+00 3.001994e+00 3.183082e+00 2.662537e+00 3.029303e+00 3.135966e+00 2.152865e+00 2.772809e+00 2.113575e+00 1.892879e+00 1.533585e+00 1.684207e+00 4.305432e-01 3.671993e-01 6.354186e-01 4.354086e-01 4.458869e-01 5.701037e-01 2.608117e-01 4.303962e-01 7.271346e-01 5.045317e-01 3.747854e-01 3.221093e-01 2.156202e-01
<GCONST> 1.242394e+02
<STATE> 4
<MEAN> 39
 -3.204201e+00 4.065784e+00 4.523437e+00 1.261118e+01 1.739183e-01 -7.247869e+00 -2.882247e-01 -6.407078e+00 -5.101029e+00 -4.520261e+00 -1.098556e+00 -5.737783e+00 6.128532e+01 1.033120e+00 8.467670e-01 -1.085935e+00 -7.421899e-01 -5.089394e-01 6.167376e-01 2.513319e-01 -7.198040e-03 -1.932070e-01 -1.356960e-01 2.787610e-01 2.244399e-01 -3.134600e-01 -3.644895e-01 -2.176143e-01 -1.766799e-01 -2.793886e-01 7.930027e-02 1.873190e-01 1.724503e-01 1.313890e-02 4.929864e-01 1.284240e-01 1.263480e-01 2.246625e-01 1.559509e-02
<VARIANCE> 39
 4.880253e+01 4.205447e+01 4.797969e+01 4.290052e+01 5.419666e+01 4.875481e+01 6.185787e+01 5.496245e+01 4.072470e+01 4.593441e+01 2.684264e+01 6.884002e+01 4.217078e+01 4.845255e+00 3.768000e+00 3.662266e+00 3.943279e+00 2.002491e+00 3.857915e+00 3.974162e+00 3.535467e+00 6.930092e+00 2.420897e+00 1.749614e+00 2.315198e+00 1.419519e+00 4.417797e-01 7.157654e-01 5.938959e-01 5.857842e-01 3.576701e-01 6.417110e-01 7.838042e-01 5.944725e-01 1.254445e+00 3.662276e-01 3.007538e-01 4.632211e-01 2.762410e-01
<GCONST> 1.280952e+02
<TRANSP> 5
 0.000000e+00 1.000000e+00 0.000000e+00 0.000000e+00 0.000000e+00
 0.000000e+00 7.063697e-01 2.936302e-01 0.000000e+00 0.000000e+00
 0.000000e+00 0.000000e+00 6.905777e-01 3.094223e-01 0.000000e+00
 0.000000e+00 0.000000e+00 0.000000e+00 6.524779e-01 3.475221e-01
 0.000000e+00 0.000000e+00 0.000000e+00 0.000000e+00 0.000000e+00
<ENDHMM>
~h "ae"
<BEGINHMM>
<NUMSTATES> 5
<STATE> 2
<MEAN> 39
 -1.264611e+01 -1.286869e+01 3.646540e+00 7.446361e+00 1.059165e+01 -1.213797e+01 4.267302e+00 -4.373552e+00 -4.556957e+00 -7.257731e+00 3.628266e+00 -9.808711e-01 6.672976e+01 -4.984556e-01 -2.719187e-01 5.636879e-01 3.445745e-01 2.490336e-01 -1.795320e-01 -7.213424e-01 2.461478e-01 -3.744706e-02 -2.811309e-01 7.193974e-02 -7.320585e-02 -5.258229e-02 1.865688e-01 9.612691e-02 -2.784685e-01 -1.061526e-01 1.212867e-01 -4.555970e-02 -3.482074e-02 -1.245303e-01 2.445757e-01 1.182503e-01 -2.354612e-01 8.781243e-02 -9.538514e-04
<VARIANCE> 39
 1.377558e+02 1.264766e+02 6.352979e+01 2.720017e+01 5.963969e+01 5.167344e+01 8.471108e+01 4.003601e+01 8.147975e+01 2.321905e+01 2.960887e+01 3.105426e+01 2.806915e+01 1.404392e+01 8.272507e+00 8.064252e+00 2.820772e+00 2.684799e+00 4.435001e+00 3.743956e+00 4.300787e+00 8.444188e+00 2.472123e+00 3.115682e+00 2.043992e+00 2.147630e+00 1.496706e+00 6.873311e-01 1.077479e+00 7.048483e-01 4.499236e-01 1.024981e+00 7.708087e-01 6.831489e-01 1.393790e+00 4.762298e-01 5.213211e-01 3.768882e-01 4.358540e-01
<GCONST> 1.370239e+02
<STATE> 3
<MEAN> 39
 -5.707687e+00 -5.461134e+00 3.082834e+00 1.655948e+01 1.408797e+00 -1.226224e+01 -7.964783e+00 -7.052651e+00 7.530302e+00 -2.641284e+00 -7.859517e+00 -4.862846e-01 6.439702e+01 -4.362804e-02 1.382649e-01 -3.116016e-01 -5.245941e-01 -8.106168e-02 1.050116e-01 8.908177e-02 9.294373e-02 2.903933e-01 1.420174e-02 -4.650468e-01 -3.882600e-01 -7.132644e-02 2.144386e-01 9.627818e-02 -1.183364e-01 -4.178436e-01 -2.780618e-01 -1.492896e-01 2.214722e-02 5.085068e-02 -1.935675e-01 -1.066556e-01 6.029052e-02 9.409303e-02 1.358658e-01
<VARIANCE> 39
 4.971888e+01 1.699638e+02 2.194555e+01 2.539359e+01 4.561527e+01 2.757492e+01 5.167161e+01 1.982072e+01 7.488714e+01 3.212766e+01 3.504766e+01 3.142546e+01 1.299007e+01 4.336234e+00 1.342486e+01 2.683357e+00 4.151916e+00 3.683806e+00 2.797850e+00 3.752303e+00 2.270806e+00 4.765759e+00 2.794797e+00 3.459891e+00 1.720280e+00 1.255267e+00 3.109676e-01 1.178583e+00 5.104130e-01 5.028721e-01 4.005117e-01 5.397032e-01 8.343315e-01 4.600030e-01 6.098370e-01 3.518199e-01 4.002802e-01 2.815536e-01 1.786484e-01
<GCONST> 1.237179e+02
<STATE> 4
<MEAN> 39
 -7.808880e+00 -4.328593e+00 -4.109838e-02 3.362866e+00 4.694651e+00 -1.520423e+01 3.800987e+00 -1.718330e+00 -2.432650e+00 -1.376829e+01 -1.581267e+00 4.984928e-01 6.534980e+01 -9.317969e-01 -8.702719e-01 6.602627e-01 -1.812332e-01 -2.875246e-01 -5.118219e-01 2.454818e-01 2.661391e-01 2.192568e-01 1.066515e-01 5.154704e-01 4.904376e-02 2.481801e-01 -3.785266e-02 4.737361e-02 1.526415e-01 2.281443e-01 1.291507e-01 1.081000e-01 -6.758798e-02 -1.062764e-01 -3.282866e-02 1.361897e-01 1.015875e-01 -6.735263e-02 -8.441980e-02
<VARIANCE> 39
 2.113182e+02 1.677471e+02 9.475201e+01 1.653707e+01 1.161758e+02 3.896763e+01 5.712613e+01 5.943190e+01 6.342431e+01 3.223802e+01 9.204228e+01 1.668858e+01 1.587905e+01 4.364499e+00 3.583842e+00 3.006906e+00 2.358743e+00 4.133418e+00 3.557204e+00 3.055174e+00 4.852061e+00 4.416387e+00 2.362820e+00 3.254726e+00 1.449728e+00 1.094726e+00 4.508232e-01 4.006644e-01 5.373809e-01 3.555188e-01 5.498639e-01 6.804576e-01 4.953959e-01 7.118790e-01 8.049971e-01 3.684577e-01 4.223102e-01 2.308103e-01 1.694271e-01
<GCONST> 1.271526e+02
<TRANSP> 5
 0.000000e+00 1.000000e+00 0.000000e+00 0.000000e+00 0.000000e+00
 0.000000e+00 8.735345e-01 1.264655e-01 0.000000e+00 0.000000e+00
 0.000000e+00 0.000000e+00 8.295507e-01 1.704494e-01 0.000000e+00
 0.000000e+00 0.000000e+00 0.000000e+00 8.841376e-01 1.158624e-01
 0.000000e+00 0.000000e+00 0.000000e+00 0.000000e+00 0.000000e+00
<ENDHMM>
~h "ah"
<BEGINHMM>
<NUMSTATES> 5
<STATE> 2
<MEAN> 39
 2.939801e+00 -4.449612e+00 -5.160775e+00 -2.828609e+00 -1.200475e+00 -1.877404e+00 -4.734150e+00 -3.848279e+00 -2.000481e+00 -4.774540e+00 -9.297280e-01 -3.712062e+00 5.979035e+01 -2.677220e-01 -1.269707e-01 5.573875e-01 8.910489e-01 2.818271e-02 -4.992844e-01 1.219357e-01 1.869471e-02 -1.585195e-01 2.632946e-01 -1.648948e-01 -1.610183e-01 -2.602898e-01 -9.062287e-02 3.087905e-01 1.429261e-01 9.031005e-02 -3.362729e-02 1.060557e-01 2.945975e-02 -6.294440e-03 4.610532e-02 -3.105165e-02 -6.441533e-02 -2.292864e-02 -2.332486e-01
<VARIANCE> 39
 2.456864e+01 7.824104e+01 7.061696e+01 1.276917e+02 1.339003e+02 1.154493e+02 1.172626e+02 8.354774e+01 7.635991e+01 6.532430e+01 1.204981e+02 7.677724e+01 7.291719e+01 6.274990e-01 2.816404e+00 1.597412e+00 2.478236e+00 3.335589e+00 4.128209e+00 3.225116e+00 4.132473e+00 3.767587e+00 3.664388e+00 3.541525e+00 2.699234e+00 1.257178e+00 1.283542e-01 2.828333e-01 3.069116e-01 2.813930e-01 5.608316e-01 7.002484e-01 5.526374e-01 7.337301e-01 6.456594e-01 6.719856e-01 6.661077e-01 4.584175e-01 1.007901e-01
<GCONST> 1.294686e+02
<STATE> 3
<MEAN> 39
 5.317249e-01 1.617746e+00 -2.549201e+00 7.053469e+00 3.019367e+00 -6.575881e+00 4.027768e-01 -9.284880e+00 -7.905934e+00 -3.788590e+00 9.063585e-01 -5.226906e+00 6.194300e+01 -2.792547e-01 1.154005e+00 7.676926e-01 9.860483e-01 1.261344e-01 6.159974e-01 -8.616316e-01 -5.077850e-01 7.129349e-01 -2.582635e-01 -5.339770e-01 -1.427646e-01 -1.017670e+00 -4.447753e-02 3.342678e-02 1.162800e-01 4.121753e-03 -6.115954e-02 2.525446e-02 -8.826235e-02 1.283471e-01 1.470221e-01 -1.920801e-01 -1.513426e-01 1.086654e-01 -3.573309e-02
<VARIANCE> 39
 1.883288e+01 6.905798e+01 5.086680e+01 1.035679e+02 1.041400e+02 5.641313e+01 1.122128e+02 9.503382e+01 4.406575e+01 5.938768e+01 5.074291e+01 4.127658e+01 7.649923e+01 4.564008e-01 9.660223e-01 9.662175e-01 2.297988e+00 2.075065e+00 2.349135e+00 3.138098e+00 3.378783e+00 2.574998e+00 3.276931e+00 2.962762e+00 1.980504e+00 4.391000e-01 5.994252e-02 2.129357e-01 1.509365e-01 3.634901e-01 3.119679e-01 4.952583e-01 5.356305e-01 5.403358e-01 3.401081e-01 4.651493e-01 3.712409e-01 2.846734e-01 8.523643e-02
<GCONST> 1.153025e+02
<STATE> 4
<MEAN> 39
 3.395399e+00 9.554253e+00 3.952641e+00 8.836736e+00 -3.792583e+00 -6.964468e+00 -7.206615e+00 -9.222787e+00 -1.326670e+00 -5.789387e+00 -4.920562e+00 -1.278400e+00 6.000976e+01 -2.440051e-01 3.350778e-01 3.315306e-01 1.789891e-01 2.612144e-02 2.229449e-01 1.463886e-01 6.570607e-02 1.448995e-01 -1.689973e-02 -1.244678e-01 -9.974266e-04 -3.070543e-01 -3.759549e-02 -6.138813e-02 -2.222408e-02 -3.252038e-02 1.572741e-02 2.057670e-02 9.176713e-02 2.083337e-03 -8.439897e-02 2.883065e-02 4.423762e-02 -5.623396e-04 1.387441e-02
<VARIANCE> 39
 3.031378e+01 6.364029e+01 3.305676e+01 5.794603e+01 8.514001e+01 4.382856e+01 6.134089e+01 3.510854e+01 3.232193e+01 4.358607e+01 3.391849e+01 2.294596e+01 5.694516e+01 3.800274e-01 8.475948e-01 8.006374e-01 1.298523e+00 1.321711e+00 1.244139e+00 1.817882e+00 1.663958e+00 1.900190e+00 1.690831e+00 1.593202e+00 1.448616e+00 2.941528e-01 4.779573e-02 1.179140e-01 1.214696e-01 1.995651e-01 1.922414e-01 2.048830e-01 3.064319e-01 3.264390e-01 3.305694e-01 3.192207e-01 2.889281e-01 2.430368e-01 3.844184e-02
<GCONST> 9.934061e+01
<TRANSP> 5
 0.000000e+00 1.000000e+00 0.000000e+00 0.000000e+00 0.000000e+00
 0.000000e+00 7.149455e-01 2.850546e-01 0.000000e+00 0.000000e+00
 0.000000e+00 0.000000e+00 6.496637e-01 3.503363e-01 0.000000e+00
 0.000000e+00 0.000000e+00 0.000000e+00 8.368847e-01 1.631153e-01
 0.000000e+00 0.000000e+00 0.000000e+00 0.000000e+00 0.000000e+00
<ENDHMM>
~h "ao"
<BEGINHMM>
<NUMSTATES> 5
<STATE> 2
<MEAN> 39
 5.203918e+00 1.170892e+01 -2.786443e+00 -3.982609e+00 -1.133228e+01 -1.618174e+01 -1.284267e-01 -3.131722e+00 -2.283819e-01 -1.910541e+00 -4.609934e+00 -8.608206e+00 6.452876e+01 1.838095e+00 3.196797e-01 2.959609e-01 -1.738575e-01 -2.309027e+00 -2.201578e+00 -9.654639e-01 7.573593e-01 6.090058e-02 1.121966e+00 -1.120626e-01 -6.863140e-01 5.534880e-01 -1.235614e+00 -7.365837e-01 -2.184703e-01 3.643088e-01 1.199264e+00 9.417811e-01 4.266473e-01 5.577763e-02 -7.076104e-03 -1.250932e-01 1.987052e-01 4.035425e-01 -2.636359e-01
<VARIANCE> 39
 1.976863e+01 7.854812e+01 2.764637e+01 1.054796e+02 4.819121e+01 1.572565e+02 1.195304e+02 3.488004e+01 3.906281e+01 4.579662e+01 2.554213e+01 6.271783e+01 3.976118e+01 4.100389e+00 3.202185e+00 1.073800e+00 1.985182e+00 6.825109e+00 6.454010e+00 3.625505e+00 2.547134e+00 3.481164e+00 2.867803e+00 1.458091e+00 1.952487e+00 5.518095e-01 3.881407e-01 5.791816e-01 2.598750e-01 4.764724e-01 8.150325e-01 6.785327e-01 6.228231e-01 3.372184e-01 4.038232e-01 4.815385e-01 3.710247e-01 3.936805e-01 1.346225e-01
<GCONST> 1.236147e+02
<STATE> 3
<MEAN> 39
 6.766857e+00 1.261870e+01 -3.583734e+00 -3.342540e-01 -1.361512e+01 -1.600617e+01 -3.746454e+00 -3.705929e+00 4.238717e-01 -4.405104e+00 -4.330840e+00 -7.427397e+00 6.341862e+01 1.212724e-01 -3.736085e-01 -5.693150e-01 -3.673282e-01 3.513001e-01 8.225358e-01 4.924828e-01 -1.589383e-01 -6.743606e-01 -2.562202e-01 2.616606e-01 2.227323e-02 1.224712e-01 -5.374491e-02 -5.746252e-02 -1.272017e-01 -6.213526e-02 2.908987e-01 2.020784e-01 1.094896e-01 -1.670263e-01 -2.163322e-01 1.247271e-02 6.673071e-02 1.008798e-01 1.008567e-02
<VARIANCE> 39
 1.488292e+01 5.671598e+01 3.252493e+01 9.606368e+01 3.664795e+01 8.421111e+01 1.290721e+02 2.617556e+01 5.458340e+01 4.551809e+01 2.812971e+01 5.064556e+01 3.560565e+01 1.382800e-01 4.962732e-01 7.893534e-01 8.043925e-01 1.418666e+00 1.531779e+00 1.890882e+00 1.491384e+00 1.913244e+00 1.259547e+00 1.197846e+00 1.181263e+00 1.415181e-01 4.285908e-02 7.260580e-02 9.731021e-02 1.579916e-01 2.171432e-01 2.861489e-01 3.480003e-01 2.695327e-01 2.321735e-01 2.186241e-01 2.583570e-01 2.172454e-01 2.381305e-02
<GCONST> 9.453430e+01
<STATE> 4
<MEAN> 39
 7.404806e+00 -9.146829e-01 -8.720915e+00 -1.427578e+01 -9.675785e+00 7.250959e-02 8.545640e-01 -3.704412e+00 -4.144894e+00 3.352781e-01 -2.141650e-01 -5.011630e+00 6.265115e+01 -1.057583e-02 -9.149210e-01 -5.811953e-01 8.638424e-01 8.997285e-01 1.192380e-02 -3.551652e-02 -2.222658e-01 -5.126731e-01 5.559155e-01 4.499436e-01 -1.530332e-02 1.321094e-02 -1.645671e-02 1.001104e-02 5.927400e-02 2.024237e-01 2.776377e-02 -1.540566e-01 -8.979570e-02 3.874385e-02 9.737758e-02 -2.998618e-02 -2.039570e-02 -2.129607e-02 -2.997007e-02
<VARIANCE> 39
 1.231329e+01 1.000888e+02 4.569649e+01 1.175048e+02 1.453016e+02 2.972238e+02 9.787254e+01 1.173720e+02 1.015748e+02 6.496378e+01 5.264628e+01 6.770354e+01 8.175504e+01 1.754680e-01 1.276036e+00 1.031076e+00 2.187921e+00 2.468978e+00 3.989604e+00 2.236001e+00 5.861234e+00 3.246279e+00 2.819523e+00 3.713873e+00 2.590487e+00 2.961483e-01 3.132810e-02 2.002255e-01 1.552384e-01 1.656576e-01 3.147257e-01 4.491619e-01 4.348173e-01 6.803528e-01 4.327105e-01 6.019689e-01 5.679176e-01 4.437722e-01 3.231331e-02
<GCONST> 1.181582e+02
<TRANSP> 5
 0.000000e+00 1.000000e+00 0.000000e+00 0.000000e+00 0.000000e+00
 0.000000e+00 5.893868e-01 4.106132e-01 0.000000e+00 0.000000e+00
 0.000000e+00 0.000000e+00 8.342082e-01 1.657919e-01 0.000000e+00
 0.000000e+00 0.000000e+00 0.000000e+00 8.618858e-01 1.381142e-01
 0.000000e+00 0.000000e+00 0.000000e+00 0.000000e+00 0.000000e+00
<ENDHMM>
~h "ay"
<BEGINHMM>
<NUMSTATES> 5
<STATE> 2
<MEAN> 39
 3.557465e+00 -1.271545e+00 -3.279571e+00 1.798219e+00 -2.582129e+00 -5.522689e+00 -3.653422e+00 -4.766033e+00 -3.130405e+00 -3.360539e+00 -2.166919e+00 -2.711263e+00 6.229088e+01 1.245802e+00 -2.335599e+00 -1.619550e+00 -2.027274e+00 -1.145474e-01 -6.372647e-01 5.258621e-01 7.563241e-01 -1.309731e-01 2.041812e-01 7.016420e-02 3.726435e-01 2.528388e+00 -5.480214e-01 -1.178905e-01 3.332629e-02 1.014755e-02 3.162698e-01 3.531907e-01 1.167151e-01 1.262288e-01 2.100630e-01 1.577292e-02 -1.363282e-02 -4.734956e-03 -2.969778e-01
<VARIANCE> 39
 4.699682e+01 1.080831e+02 1.091968e+02 1.160674e+02 1.309697e+02 1.135773e+02 1.294700e+02 9.191468e+01 5.913279e+01 6.264517e+01 8.150060e+01 5.875974e+01 1.476249e+02 5.298844e+00 6.368689e+00 6.350990e+00 4.607471e+00 9.483552e+00 7.348827e+00 8.814894e+00 7.580360e+00 5.321383e+00 6.180070e+00 6.224173e+00 5.795223e+00 2.325716e+00 1.067321e+00 1.149066e+00 1.114655e+00 9.547089e-01 1.446224e+00 1.202006e+00 1.238396e+00 1.390623e+00 9.261249e-01 8.930346e-01 9.866730e-01 8.684047e-01 7.329912e-01
<GCONST> 1.543070e+02
<STATE> 3
<MEAN> 39
 6.368187e+00 -1.077208e+01 -1.169567e+01 -7.824090e+00 2.554817e+00 -4.426045e+00 -1.795832e+00 -1.806687e+00 7.574622e-02 -1.750226e+00 -1.528954e+00 -4.960611e+00 7.021289e+01 2.844798e-02 -1.665600e-01 -4.441005e-02 4.536076e-01 2.084999e-01 -2.861207e-02 -1.643732e-01 1.105273e-03 2.655982e-01 -1.702897e-01 -2.644258e-01 1.495181e-01 -2.186540e-01 -6.032103e-02 2.281384e-01 1.182040e-01 2.246106e-01 5.778627e-03 -1.035971e-01 -1.057976e-01 -1.726312e-02 -2.060834e-02 3.419499e-02 5.070202e-03 1.308059e-02 -1.787664e-01
<VARIANCE> 39
 2.355385e+01 6.625588e+01 7.646221e+01 1.380128e+02 1.023102e+02 2.185842e+02 2.438623e+02 6.873890e+01 7.052995e+01 8.678947e+01 8.288578e+01 7.437747e+01 4.394892e+01 6.782369e-01 1.074187e+00 2.239578e+00 2.469228e+00 2.871565e+00 4.834101e+00 2.917408e+00 2.994797e+00 2.616738e+00 2.627644e+00 2.736337e+00 2.677483e+00 4.805593e-01 1.806108e-01 2.419039e-01 3.677868e-01 3.761156e-01 4.792487e-01 7.285395e-01 6.148708e-01 5.488755e-01 4.716864e-01 5.506163e-01 5.176337e-01 5.070812e-01 1.684907e-01
<GCONST> 1.269300e+02
<STATE> 4
<MEAN> 39
 4.324923e+00 -5.168720e+00 -8.734084e+00 2.458764e-01 -7.428709e-02 -6.098995e+00 -1.529062e+00 -4.324593e+00 -9.888696e-01 -3.984659e+00 -4.801858e+00 5.482680e-01 6.708198e+01 -1.276488e-01 8.960190e-02 4.131886e-01 4.394626e-01 1.295262e-01 -3.350042e-01 -2.799412e-01 -1.043487e-01 -1.248607e-01 1.595922e-01 1.235107e-01 -3.583996e-02 -1.252132e-01 -4.723652e-02 7.816938e-02 1.585253e-01 6.915805e-02 -4.613634e-02 -1.683853e-02 5.398893e-02 -2.824942e-02 -5.175651e-02 -1.352287e-02 -8.756126e-03 -5.791435e-02 -4.209871e-02
<VARIANCE> 39
 3.286192e+01 1.031509e+02 6.013272e+01 4.611330e+01 9.713858e+01 1.073741e+02 1.259949e+02 5.666788e+01 4.449226e+01 5.291882e+01 6.274400e+01 4.635358e+01 5.430152e+01 1.531416e-01 3.952941e-01 9.616171e-01 1.086084e+00 1.311868e+00 1.385132e+00 1.581177e+00 1.363674e+00 1.439946e+00 1.412330e+00 1.388312e+00 1.053223e+00 1.264600e-01 2.469905e-02 6.264533e-02 9.625478e-02 1.360062e-01 1.568559e-01 2.128955e-01 2.384033e-01 1.988618e-01 2.031788e-01 2.148170e-01 1.999265e-01 1.741013e-01 1.960308e-02
<GCONST> 9.554276e+01
<TRANSP> 5
 0.000000e+00 1.000000e+00 0.000000e+00 0.000000e+00 0.000000e+00
 0.000000e+00 7.094376e-01 2.905624e-01 0.000000e+00 0.000000e+00
 0.000000e+00 0.000000e+00 8.317738e-01 1.682262e-01 0.000000e+00
 0.000000e+00 0.000000e+00 0.000000e+00 9.063935e-01 9.360643e-02
 0.000000e+00 0.000000e+00 0.000000e+00 0.000000e+00 0.000000e+00
<ENDHMM>
~h "eh"
<BEGINHMM>
<NUMSTATES> 5
<STATE> 2
<MEAN> 39
 -9.965947e+00 9.018736e-01 2.409300e+00 2.684907e+00 2.378661e+00 -1.444155e+00 3.449162e+00 -7.141506e+00 -6.589104e-02 -1.878864e+00 -1.841175e-01 -1.962791e+00 6.331109e+01 2.637474e+00 -1.830246e-01 -5.494831e-01 7.027750e-02 -4.898023e-01 -1.355951e+00 -1.031778e+00 -2.314906e-01 -7.575845e-01 -1.697323e-01 -4.958773e-01 1.112554e-01 9.374191e-01 2.125241e-01 -7.752746e-02 -1.513742e-01 -6.813787e-02 -9.258877e-02 -1.908630e-01 -1.230178e-01 2.776409e-01 9.866437e-02 -1.097190e-01 -3.152440e-02 -9.896802e-04 1.466523e-01
<VARIANCE> 39
 1.369560e+02 4.742865e+01 8.102580e+01 9.134125e+01 8.218072e+01 9.321762e+01 9.351973e+01 8.144583e+01 5.443144e+01 3.479881e+01 5.698824e+01 5.469210e+01 9.379404e+01 1.148481e+01 4.368596e+00 5.172564e+00 4.361325e+00 4.452844e+00 6.845327e+00 5.841210e+00 5.104446e+00 5.333842e+00 3.892811e+00 3.581259e+00 2.288237e+00 2.708309e+00 1.530137e+00 6.306887e-01 4.535654e-01 4.938082e-01 5.369412e-01 9.866070e-01 8.159713e-01 8.287468e-01 8.326632e-01 5.591053e-01 5.054320e-01 3.197678e-01 4.133839e-01
<GCONST> 1.413276e+02
<STATE> 3
<MEAN> 39
 -5.706804e-01 -7.096703e+00 -3.460465e+00 -2.438855e+00 -1.434883e+00 -7.819188e+00 8.311026e-01 2.396461e+00 -1.397726e+00 -2.296271e+00 -6.933529e-01 -3.716720e-01 7.382341e+01 5.972120e-01 -5.092719e-01 -6.320379e-01 -2.882985e-03 -2.689333e-02 2.990818e-01 1.070579e-02 4.576952e-01 3.719215e-01 -3.514392e-01 -2.913605e-01 -1.383748e-01 7.379573e-03 -4.740516e-01 1.823538e-01 1.007526e-01 1.382211e-01 1.526951e-01 3.386080e-01 1.545624e-01 -1.725980e-01 5.447970e-03 4.526207e-02 7.746621e-02 2.963823e-02 -2.985656e-01
<VARIANCE> 39
 3.682978e+01 6.867971e+01 3.883408e+01 8.015121e+01 9.579171e+01 6.544728e+01 7.767076e+01 1.174675e+02 9.004042e+01 5.599984e+01 8.027947e+01 6.215406e+01 1.609500e+02 1.448229e+00 2.945058e+00 2.164366e+00 2.872617e+00 3.875252e+00 3.704885e+00 2.408655e+00 4.027989e+00 2.981431e+00 2.633281e+00 2.688743e+00 3.186081e+00 1.837586e+00 5.254014e-01 3.482921e-01 3.014561e-01 4.520924e-01 8.251570e-01 7.040935e-01 6.257957e-01 6.087541e-01 6.784005e-01 5.411123e-01 5.834567e-01 5.713075e-01 2.898957e-01
<GCONST> 1.320331e+02
<STATE> 4
<MEAN> 39
 1.671313e-01 -3.516372e-01 -6.559620e+00 8.774779e+00 -1.461904e+00 4.281222e+00 2.101496e+00 5.436748e-01 -5.780792e-01 -2.036116e+00 -1.759339e+00 -4.665014e+00 6.840155e+01 6.274746e-02 4.192183e-02 -9.650118e-02 4.963663e-02 5.415912e-02 -3.600521e-03 -6.719951e-02 -2.981198e-03 1.228475e-01 7.405694e-02 -1.600244e-01 -1.626362e-02 -7.704365e-02 -4.953066e-02 8.312698e-02 8.714516e-02 -2.276981e-02 1.190673e-03 -2.648006e-02 -2.082556e-04 -6.015338e-03 -1.427688e-02 4.714561e-02 5.398268e-02 -2.835331e-02 -3.446398e-02
<VARIANCE> 39
 1.861258e+01 3.538763e+01 5.974860e+01 8.607986e+01 6.005281e+01 1.115511e+02 5.660542e+01 4.756284e+01 5.005434e+01 4.173739e+01 3.859330e+01 4.291531e+01 4.120366e+01 4.767186e-01 8.820531e-01 1.052902e+00 1.250101e+00 1.762061e+00 1.696916e+00 2.008724e+00 1.811974e+00 1.474300e+00 1.698201e+00 1.942128e+00 1.644926e+00 1.888397e-01 1.068877e-01 1.773238e-01 2.278089e-01 2.630733e-01 3.973743e-01 3.630664e-01 3.899166e-01 3.789977e-01 2.575267e-01 3.204223e-01 3.934937e-01 2.999717e-01 3.737142e-02
<GCONST> 1.058573e+02
<TRANSP> 5
 0.000000e+00 1.000000e+00 0.000000e+00 0.000000e+00 0.000000e+00
 0.000000e+00 7.785275e-01 2.214725e-01 0.000000e+00 0.000000e+00
 0.000000e+00 0.000000e+00 6.799777e-01 3.200224e-01 0.000000e+00
 0.000000e+00 0.000000e+00 0.000000e+00 8.488718e-01 1.511283e-01
 0.000000e+00 0.000000e+00 0.000000e+00 0.000000e+00 0.000000e+00
<ENDHMM>
~h "er"
<BEGINHMM>
<NUMSTATES> 5
<STATE> 2
<MEAN> 39
 -6.486811e-01 5.708951e+00 -6.352603e+00 5.604440e+00 1.101124e+00 -1.866985e+00 -2.126431e+00 -1.747298e+01 -1.108536e+01 -2.168077e+00 4.365605e+00 2.453367e-01 6.161703e+01 -7.954809e-01 -3.225793e-01 4.713177e-01 6.767799e-01 2.450420e-01 6.999123e-02 -8.345363e-02 3.924150e-01 7.705523e-01 2.402863e-01 -1.327901e-01 8.548047e-03 -4.669610e-01 -2.111096e-01 -1.002031e-01 1.998674e-01 6.969723e-02 -5.448483e-02 -2.886542e-02 2.067110e-01 2.650239e-01 2.338247e-01 -1.482478e-04 -1.621555e-01 -5.276849e-04 -5.213105e-02
<VARIANCE> 39
 4.183435e+01 1.648704e+01 4.202024e+01 3.241660e+01 4.354090e+01 3.851716e+01 4.112860e+01 4.238853e+01 5.972314e+01 6.761418e+01 3.833786e+01 3.182472e+01 1.976112e+01 8.003225e-01 1.288121e+00 1.369613e+00 1.104187e+00 1.344276e+00 1.790439e+00 2.624747e+00 2.575296e+00 1.914874e+00 1.962807e+00 1.775547e+00 1.090405e+00 4.580358e-01 1.422339e-01 2.772529e-01 1.727545e-01 2.274615e-01 3.214233e-01 4.786657e-01 5.246263e-01 3.019422e-01 3.020542e-01 3.263223e-01 3.054112e-01 2.272626e-01 7.344297e-02
<GCONST> 1.053698e+02
<STATE> 3
<MEAN> 39
 -1.436206e+01 -4.239639e+00 3.383904e+00 6.568741e+00 -2.060587e+00 -1.001524e+00 6.255036e+00 -7.880712e+00 -3.383412e-01 1.974888e+00 3.050197e+00 1.000470e+00 5.948144e+01 -3.286541e-01 -8.359956e-02 5.251661e-02 -1.148642e-01 -2.124383e-01 5.220526e-02 3.166478e-01 3.540876e-01 3.334194e-01 3.812931e-02 -5.538966e-02 9.216970e-02 -2.242399e-01 5.683239e-02 1.076406e-01 -2.173255e-02 -1.957957e-03 5.054993e-02 -1.308053e-02 -4.916654e-02 -5.045678e-02 -5.364977e-02 -1.815172e-02 2.225364e-03 -6.281476e-03 -1.138572e-02
<VARIANCE> 39
 6.838252e+01 4.936017e+01 1.488683e+02 5.495364e+01 5.190416e+01 6.757883e+01 5.361694e+01 3.590362e+01 4.313666e+01 5.030846e+01 4.163213e+01 3.116182e+01 3.020012e+01 2.156791e+00 3.556717e+00 3.858682e+00 2.482307e+00 2.226173e+00 3.265656e+00 2.881326e+00 2.657840e+00 2.606217e+00 2.111857e+00 2.317403e+00 1.467885e+00 1.599596e+00 2.079065e-01 5.011928e-01 4.618737e-01 3.680567e-01 3.462695e-01 4.742718e-01 4.203882e-01 4.695574e-01 4.603437e-01 4.010038e-01 3.643936e-01 2.598906e-01 2.570717e-01
<GCONST> 1.216434e+02
<STATE> 4
<MEAN> 39
 -1.646160e+01 3.480878e+00 -8.029921e-01 1.010030e+01 1.364754e-01 2.043053e+00 5.932746e+00 -1.617985e+00 4.948944e+00 -2.794327e+00 8.338687e-01 -1.880489e+00 4.843526e+01 -2.982202e-02 2.032411e-02 2.469008e-02 5.421496e-03 1.777618e-02 8.038681e-03 2.112663e-02 4.646904e-02 3.848377e-02 1.421391e-02 -4.088405e-02 -6.597790e-03 -7.483552e-02 1.212346e-02 -1.422341e-02 -1.168814e-02 2.877227e-03 1.854197e-03 -4.618754e-03 -6.927739e-03 -1.937827e-02 -8.524869e-03 8.202880e-03 1.253369e-02 3.305900e-04 1.586880e-02
<VARIANCE> 39
 1.217900e+01 1.623301e+01 1.439959e+01 1.672931e+01 2.805882e+01 2.736103e+01 1.575814e+01 1.740015e+01 1.773596e+01 3.105325e+01 1.530878e+01 3.586718e+01 2.530550e+01 1.545487e-01 3.990017e-01 5.164389e-01 6.522049e-01 8.560384e-01 1.003189e+00 1.106357e+00 1.219162e+00 1.287215e+00 1.276045e+00 1.196065e+00 1.008195e+00 7.700557e-02 3.259473e-02 7.000870e-02 9.969226e-02 1.236988e-01 1.652853e-01 1.855411e-01 2.105748e-01 2.319783e-01 2.593099e-01 2.558706e-01 2.455926e-01 2.014204e-01 1.626438e-02
<GCONST> 7.812852e+01
<TRANSP> 5
 0.000000e+00 1.000000e+00 0.000000e+00 0.000000e+00 0.000000e+00
 0.000000e+00 8.251857e-01 1.748144e-01 0.000000e+00 0.000000e+00
 0.000000e+00 0.000000e+00 8.890524e-01 1.109475e-01 0.000000e+00
 0.000000e+00 0.000000e+00 0.000000e+00 9.701304e-01 2.986955e-02
 0.000000e+00 0.000000e+00 0.000000e+00 0.000000e+00 0.000000e+00
<ENDHMM>
~h "ey"
<BEGINHMM>
<NUMSTATES> 5
<STATE> 2
<MEAN> 39
 -8.423687e+00 -3.186380e+00 1.731939e-01 3.897340e+00 5.005049e-01 -5.010051e+00 -3.355791e+00 -4.149383e+00 -3.235326e-01 -2.659433e-01 1.295756e+00 -2.282299e+00 5.365763e+01 1.260852e+00 -9.673197e-01 5.030642e-01 -5.411172e-01 -5.520480e-01 -2.322238e+00 -9.387758e-01 -6.160305e-01 -5.445507e-01 2.826633e-01 -1.415748e-01 -6.470572e-01 2.519343e+00 4.784136e-03 7.993504e-02 1.029091e-01 -5.890660e-03 6.429630e-02 -6.588706e-02 -5.843839e-02 -1.409289e-02 -9.993421e-03 -4.228181e-02 3.298270e-02 -6.923489e-02 4.370673e-02
<VARIANCE> 39
 7.580842e+01 7.327929e+01 1.120040e+02 1.646676e+02 2.330976e+02 2.129212e+02 1.099641e+02 8.127949e+01 6.636410e+01 1.057813e+02 7.054288e+01 4.901883e+01 2.106818e+02 4.401607e+00 5.009256e+00 7.973310e+00 1.032960e+01 1.185784e+01 1.227466e+01 8.214174e+00 6.203630e+00 6.360558e+00 7.439176e+00 4.895226e+00 3.082494e+00 6.292319e+00 6.795596e-01 9.105299e-01 1.066770e+00 1.561039e+00 1.821683e+00 2.104672e+00 1.256625e+00 1.043660e+00 1.155038e+00 1.233637e+00 8.111382e-01 5.578994e-01 1.442139e+00
<GCONST> 1.587863e+02
<STATE> 3
<MEAN> 39
 -1.554321e+00 -1.961716e+00 2.863635e+00 1.513927e+01 6.738525e+00 -2.487046e+01 -9.003675e+00 -7.296150e+00 -6.564649e+00 -2.304541e+00 1.444058e-01 -9.999537e+00 6.764228e+01 -3.210959e-01 6.918001e-01 5.665851e-01 3.018098e-01 -1.613953e-01 6.748052e-01 -3.409624e-02 -1.011478e-02 5.190720e-01 -3.920912e-01 -3.639874e-01 -9.530388e-02 -5.923601e-01 -1.178256e-01 1.428010e-01 -2.627658e-02 -1.082239e-01 -7.742579e-02 4.287342e-01 1.334581e-01 -6.186968e-02 1.180398e-01 -3.386710e-02 -4.284419e-02 2.011291e-01 -2.609473e-01
<VARIANCE> 39
 3.073639e+01 4.194832e+01 2.977775e+01 1.572224e+02 1.674589e+02 1.151171e+02 1.052233e+02 6.816948e+01 7.791451e+01 3.351838e+01 5.847750e+01 5.327251e+01 3.928135e+01 4.600627e-01 8.849934e-01 9.099486e-01 1.868710e+00 2.388396e+00 3.155359e+00 1.954891e+00 2.012304e+00 2.816197e+00 2.138165e+00 1.868496e+00 1.882360e+00 6.041523e-01 1.380525e-01 2.052901e-01 1.987422e-01 3.486354e-01 4.389480e-01 3.834361e-01 3.976659e-01 3.905077e-01 4.504513e-01 3.770714e-01 3.486890e-01 3.259951e-01 1.298831e-01
<GCONST> 1.153228e+02
<STATE> 4
<MEAN> 39
 -5.548889e+00 3.303862e+00 1.239891e+01 -3.114342e+00 -1.137274e+01 -5.779858e+00 -7.266110e+00 -1.106743e+01 -2.718894e+00 -3.058598e+00 -1.623695e+00 -1.042768e+00 5.493820e+01 -4.981535e-01 5.821043e-01 -2.289185e-01 1.598056e-01 2.514698e-01 6.147330e-01 -1.931721e-01 -1.191355e-01 -2.424593e-01 -8.899060e-02 -4.397447e-02 2.639209e-01 -1.197556e+00 -4.222354e-02 -1.271801e-01 -8.807296e-02 4.058465e-02 6.945046e-02 -2.925974e-03 1.380979e-01 1.141605e-01 -4.173806e-02 4.730646e-02 4.871409e-02 -2.422185e-02 7.381222e-03
<VARIANCE> 39
 3.764887e+01 5.373404e+01 1.176723e+02 2.070681e+02 1.318386e+02 1.026138e+02 6.116812e+01 5.265977e+01 6.018822e+01 5.467001e+01 7.251692e+01 4.454160e+01 1.358763e+02 6.320754e-01 1.541967e+00 2.001007e+00 2.982516e+00 2.352674e+00 3.204625e+00 2.816304e+00 3.399451e+00 3.144136e+00 1.751603e+00 2.768182e+00 2.368038e+00 7.426684e-01 6.549563e-02 1.878740e-01 2.226733e-01 4.129384e-01 3.894671e-01 3.700618e-01 4.569637e-01 4.756817e-01 6.247160e-01 3.173238e-01 4.545836e-01 3.842655e-01 1.049293e-01
<GCONST> 1.215350e+02
<TRANSP> 5
 0.000000e+00 1.000000e+00 0.000000e+00 0.000000e+00 0.000000e+00
 0.000000e+00 8.124452e-01 1.875548e-01 0.000000e+00 0.000000e+00
 0.000000e+00 0.000000e+00 8.173919e-01 1.826080e-01 0.000000e+00
 0.000000e+00 0.000000e+00 0.000000e+00 8.381484e-01 1.618516e-01
 0.000000e+00 0.000000e+00 0.000000e+00 0.000000e+00 0.000000e+00
<ENDHMM>
~h "hh"
<BEGINHMM>
<NUMSTATES> 5
<STATE> 2
<MEAN> 39
 5.035766e+00 3.686962e-01 -4.865041e+00 -8.084426e-01 -6.440831e+00 -1.987397e+01 1.171150e+01 9.573342e+00 -1.595946e+00 -5.227963e+00 -2.880471e+00 6.361406e-01 7.330901e+01 7.084102e-02 3.083315e-01 1.810346e-01 1.022350e-01 -1.464644e-01 1.423388e-02 -3.390326e-01 1.698489e-01 3.125240e-01 -3.213137e-01 5.254574e-02 -6.883713e-02 -2.916477e-01 -2.341426e-02 3.550349e-02 5.509503e-02 6.421449e-02 -2.128833e-03 8.365491e-02 -4.029851e-02 -5.438839e-02 6.399606e-03 -2.794449e-03 3.731187e-02 -4.333245e-02 -3.176426e-02
<VARIANCE> 39
 1.938809e+01 3.651148e+01 4.232114e+01 2.048683e+01 7.122141e+01 9.706451e+01 2.428348e+02 6.337268e+01 4.860042e+01 1.496792e+02 2.404446e+01 1.142561e+02 2.781824e+01 6.190011e-01 1.251461e+00 1.996161e+00 1.620509e+00 1.762491e+00 3.661127e+00 3.092446e+00 1.876190e+00 2.714772e+00 3.306442e+00 1.632938e+00 1.781237e+00 5.854952e-01 8.287773e-02 1.527226e-01 2.602455e-01 2.446573e-01 3.044380e-01 4.624858e-01 5.120226e-01 2.626490e-01 4.792386e-01 5.601439e-01 2.813934e-01 3.608746e-01 8.700030e-02
<GCONST> 1.137571e+02
<STATE> 3
<MEAN> 39
 7.234552e+00 1.178462e+01 4.969474e+00 1.453104e+00 -1.498930e+01 -1.264811e+01 -7.539916e+00 -2.342805e+00 8.899831e+00 -4.260840e+00 -8.282932e+00 1.227385e+00 6.489049e+01 -3.057830e-01 2.806310e-01 1.961893e-01 2.334028e-01 2.161477e-01 4.260208e-01 3.510120e-01 -1.160071e-01 7.426318e-02 3.959774e-01 2.614512e-01 -1.382929e-01 -2.612265e-01 -3.759679e-02 -3.643867e-02 -1.038495e-02 3.200134e-02 5.764564e-02 5.775597e-02 8.519442e-02 -1.742896e-02 -6.130294e-02 3.341065e-02 1.531500e-02 8.245699e-03 1.100771e-03
<VARIANCE> 39
 1.736526e+01 2.089747e+01 1.989508e+01 1.004908e+01 3.443261e+01 7.216145e+01 1.041444e+02 5.630183e+01 3.061678e+01 2.709540e+01 3.206796e+01 2.995259e+01 6.622182e+00 6.522224e-01 8.785151e-01 9.976374e-01 9.094608e-01 1.555597e+00 2.929227e+00 3.072908e+00 1.646597e+00 1.463523e+00 1.447764e+00 1.090897e+00 1.207105e+00 3.974712e-01 5.161616e-02 1.522284e-01 1.286966e-01 1.116439e-01 1.950340e-01 3.606605e-01 2.949714e-01 2.256349e-01 1.860893e-01 1.650539e-01 2.238474e-01 2.335755e-01 4.514012e-02
<GCONST> 9.344451e+01
<STATE> 4
<MEAN> 39
 -1.167904e+00 5.452982e+00 2.004415e+00 6.522019e+00 -1.508297e-01 -2.533847e-01 3.902743e+00 -1.050286e+00 2.699307e+00 -3.944468e+00 1.116591e+00 -8.084626e-01 6.245113e+01 -4.794245e-02 2.507471e-02 1.839425e-02 1.027531e-02 4.344773e-02 5.938100e-02 -6.357290e-02 -1.014993e-01 -1.278912e-02 5.422824e-03 3.850816e-02 4.141957e-02 -3.240659e-02 5.245599e-03 -1.385818e-02 -5.408629e-04 -1.317295e-02 1.993586e-03 -1.810249e-02 5.150154e-03 7.016619e-03 -8.096673e-03 -5.057564e-03 6.004907e-03 -1.986977e-04 1.630031e-02
<VARIANCE> 39
 1.679809e+01 8.671501e+00 2.260831e+01 1.534678e+01 6.214793e+01 4.248092e+01 2.500569e+01 2.829936e+01 3.224017e+01 2.851950e+01 1.739460e+01 3.938792e+01 5.354295e+00 4.011953e-01 4.769411e-01 7.613257e-01 7.988594e-01 1.132679e+00 1.275356e+00 1.901417e+00 1.806323e+00 2.080450e+00 1.559244e+00 1.358608e+00 1.431124e+00 1.319358e-01 7.125162e-02 9.637378e-02 1.530386e-01 1.537351e-01 2.295426e-01 2.440557e-01 3.563049e-01 3.412089e-01 4.026783e-01 2.963986e-01 2.498338e-01 2.560428e-01 2.589057e-02
<GCONST> 8.899778e+01
<TRANSP> 5
 0.000000e+00 1.000000e+00 0.000000e+00 0.000000e+00 0.000000e+00
 0.000000e+00 9.054897e-01 9.451029e-02 0.000000e+00 0.000000e+00
 0.000000e+00 0.000000e+00 8.958815e-01 1.041185e-01 0.000000e+00
 0.000000e+00 0.000000e+00 0.000000e+00 9.799839e-01 2.001615e-02
 0.000000e+00 0.000000e+00 0.000000e+00 0.000000e+00 0.000000e+00
<ENDHMM>
~h "ih"
<BEGINHMM>
<NUMSTATES> 5
<STATE> 2
<MEAN> 39
 -1.319152e+01 4.394921e-01 5.552955e+00 2.446354e+00 1.738980e+00 -4.741345e+00 -2.770496e+00 -9.991037e+00 -8.028582e-02 -3.769644e+00 -6.110617e-01 -2.223720e+00 6.088969e+01 3.584718e+00 6.305028e-03 -5.949703e-01 1.306041e+00 3.428919e-01 -1.901504e+00 -2.075671e+00 -6.334360e-01 -1.619370e+00 -2.725771e-01 -1.262366e-01 -2.125541e-01 9.046419e-01 2.726280e-01 -2.403968e-01 -1.035540e-01 -1.276029e-02 2.160608e-01 -4.620356e-01 -9.496602e-02 1.029731e-01 -2.321822e-01 2.252674e-01 1.784630e-01 -1.347627e-01 4.772576e-01
<VARIANCE> 39
 1.367220e+02 7.551261e+01 9.118414e+01 1.137046e+02 9.994582e+01 9.825462e+01 1.146209e+02 7.841074e+01 5.923952e+01 3.822604e+01 3.803774e+01 3.493543e+01 9.286730e+01 8.491629e+00 7.275591e+00 6.884145e+00 5.313270e+00 6.005471e+00 7.607245e+00 5.226398e+00 4.005337e+00 5.289375e+00 2.759023e+00 3.599796e+00 2.856885e+00 2.924123e+00 1.545447e+00 9.280108e-01 5.068865e-01 6.759406e-01 7.524004e-01 1.124168e+00 1.167289e+00 7.462651e-01 8.464361e-01 5.481490e-01 5.391686e-01 3.853847e-01 3.956457e-01
<GCONST> 1.442981e+02
<STATE> 3
<MEAN> 39
 -2.407242e+00 -7.813909e-01 1.020930e-01 1.229408e+01 1.278298e+01 -1.576738e+01 -6.396012e+00 -1.007220e+01 -5.710580e+00 -4.077905e+00 1.886353e+00 -6.769640e+00 6.664618e+01 1.045341e-01 9.689269e-02 -1.800730e-01 -1.362925e-01 -1.171908e-01 3.793990e-01 2.701023e-01 -2.968312e-01 -4.192133e-02 5.350701e-02 6.757032e-02 3.128295e-01 -9.002278e-02 -2.849081e-01 4.715546e-02 6.891823e-02 -2.622791e-01 -1.516754e-01 4.051522e-01 1.904031e-01 -4.159128e-02 1.681055e-01 -3.379595e-02 -9.245667e-02 7.636383e-02 -1.133174e-01
<VARIANCE> 39
 2.995666e+01 6.751864e+01 2.744231e+01 6.589394e+01 1.050501e+02 1.559121e+02 7.776661e+01 7.539941e+01 5.830042e+01 5.917781e+01 4.307331e+01 7.668890e+01 5.537946e+01 2.832797e+00 5.521924e+00 2.239160e+00 4.997110e+00 5.382993e+00 1.160451e+01 4.315131e+00 3.670562e+00 4.821886e+00 4.625577e+00 3.163003e+00 3.743341e+00 3.937027e+00 5.877901e-01 1.084864e+00 3.787840e-01 8.881359e-01 8.520527e-01 1.841966e+00 9.749451e-01 7.312740e-01 9.763163e-01 9.103613e-01 6.349537e-01 6.000663e-01 7.193263e-01
<GCONST> 1.416023e+02
<STATE> 4
<MEAN> 39
 -5.015492e+00 -3.966234e+00 5.055298e+00 1.133420e+00 -4.595672e+00 -5.779095e+00 -1.057448e+01 -8.751025e+00 -2.120999e+00 -6.550497e+00 3.879393e+00 -3.185151e+00 6.033770e+01 -6.027347e-01 -8.582935e-01 5.046195e-01 -8.427154e-01 -1.953380e-01 -1.308247e-01 5.151799e-01 -1.524423e-01 2.181409e-02 2.050151e-01 -1.247549e-01 -1.486856e-01 7.856632e-01 -2.286297e-01 8.488937e-02 1.750893e-01 2.357212e-01 7.041878e-02 8.629549e-03 1.064972e-01 1.489563e-01 2.504489e-01 3.911912e-02 -3.545276e-02 -1.259875e-01 -8.814215e-02
<VARIANCE> 39
 9.350652e+01 1.767996e+02 1.163915e+02 9.807897e+01 3.333547e+02 2.167687e+02 2.069885e+02 1.200881e+02 7.333714e+01 6.270755e+01 8.134441e+01 6.003563e+01 9.296692e+01 7.633525e+00 5.942181e+00 1.013398e+01 8.869276e+00 8.214750e+00 1.085676e+01 6.304794e+00 6.571284e+00 5.767690e+00 5.119091e+00 3.123588e+00 4.376945e+00 5.790437e+00 8.191535e-01 9.407666e-01 1.434222e+00 9.325995e-01 1.178522e+00 1.662478e+00 1.165008e+00 1.113644e+00 1.034393e+00 1.018886e+00 6.786165e-01 9.311593e-01 6.977406e-01
<GCONST> 1.579828e+02
<TRANSP> 5
 0.000000e+00 1.000000e+00 0.000000e+00 0.000000e+00 0.000000e+00
 0.000000e+00 6.249547e-01 3.750453e-01 0.000000e+00 0.000000e+00
 0.000000e+00 0.000000e+00 8.179076e-01 1.820924e-01 0.000000e+00
 0.000000e+00 0.000000e+00 0.000000e+00 6.907203e-01 3.092798e-01
 0.000000e+00 0.000000e+00 0.000000e+00 0.000000e+00 0.000000e+00
<ENDHMM>
~h "iy"
<BEGINHMM>
<NUMSTATES> 5
<STATE> 2
<MEAN> 39
 2.195963e+00 -1.050718e+01 9.868713e+00 5.112207e+00 -1.463166e+01 -1.125975e+01 -1.527822e+01 -2.345999e+00 -2.611978e+00 -8.600398e+00 3.015094e+00 -2.855938e+00 5.661857e+01 1.108983e-01 2.053355e-01 -2.783538e-01 1.209967e-01 -8.490880e-03 3.811266e-01 2.742312e-01 2.499131e-02 4.699770e-02 6.221605e-02 -2.730575e-01 -6.112496e-02 -3.477386e-01 -1.030008e-01 9.467242e-02 -1.180511e-01 -1.012908e-01 9.143516e-02 2.173456e-01 1.826919e-01 -9.257797e-02 1.203926e-02 1.057289e-01 -4.531263e-02 1.764573e-02 -9.578850e-02
<VARIANCE> 39
 5.098006e+01 1.072712e+02 7.427974e+01 1.542990e+02 2.048757e+02 8.759476e+01 9.896632e+01 6.890965e+01 7.311161e+01 6.843503e+01 6.983012e+01 6.895671e+01 1.172934e+02 1.155394e+00 1.656277e+00 3.682291e+00 1.766901e+00 2.926967e+00 3.281589e+00 3.525319e+00 3.104719e+00 3.560609e+00 3.251072e+00 3.114241e+00 2.369328e+00 1.290777e+00 1.510425e-01 2.298591e-01 2.604239e-01 3.183292e-01 4.104996e-01 5.333504e-01 6.295747e-01 5.623377e-01 7.187919e-01 5.207850e-01 5.872846e-01 4.169843e-01 1.262032e-01
<GCONST> 1.290279e+02
<STATE> 3
<MEAN> 39
 -5.446183e+00 4.029904e+00 1.072676e+01 8.506083e+00 -3.650066e+00 -4.013324e+00 -6.489199e+00 -1.083457e+01 -5.119527e+00 4.429614e-02 -3.093315e+00 -2.880716e+00 5.587965e+01 -7.492803e-01 -7.441704e-02 -7.849018e-01 -5.880405e-01 7.575448e-03 1.257466e+00 1.164841e+00 4.442541e-03 4.590730e-01 3.549225e-01 -2.547401e-01 2.922432e-01 -8.249117e-01 -5.600633e-02 -1.334990e-01 -1.291738e-01 -9.368701e-02 -4.860303e-02 -9.859546e-02 3.594514e-02 2.074798e-01 6.571598e-02 -1.020111e-01 1.365947e-01 1.207426e-01 1.155675e-02
<VARIANCE> 39
 4.117811e+01 5.908694e+01 1.181030e+02 1.276580e+02 1.934547e+02 7.741650e+01 8.188413e+01 6.468341e+01 4.402003e+01 7.805672e+01 3.750945e+01 5.541059e+01 7.338898e+01 1.375250e+00 2.497285e+00 3.114470e+00 3.066620e+00 3.140527e+00 4.089586e+00 4.082508e+00 2.810104e+00 3.121830e+00 3.228913e+00 2.508546e+00 2.940500e+00 5.847608e-01 1.315728e-01 3.933594e-01 3.844791e-01 3.648107e-01 5.422695e-01 6.101889e-01 6.974220e-01 4.410671e-01 4.587562e-01 6.149489e-01 3.490050e-01 4.220761e-01 8.377226e-02
<GCONST> 1.267461e+02
<STATE> 4
<MEAN> 39
 -7.159853e+00 -3.880693e+00 2.759970e+00 4.548124e+00 -6.018384e+00 6.659154e-01 -2.692600e+00 -3.256405e+00 -2.634378e-01 -2.952303e+00 -3.070119e+00 -2.612373e-02 4.626850e+01 -2.883220e-01 -2.562618e-01 -8.725258e-01 -7.898791e-03 3.131256e-01 4.985307e-01 5.012281e-01 5.578945e-01 3.352450e-01 -4.490839e-02 3.476177e-01 2.620571e-01 -4.108613e-01 6.017028e-02 3.979389e-02 8.952969e-02 1.769859e-02 -1.299686e-02 -1.628613e-01 -6.340862e-02 -1.576343e-02 -5.944053e-02 -9.922410e-03 9.651938e-02 -3.343907e-02 1.045945e-01
<VARIANCE> 39
 5.359112e+01 1.032162e+02 3.497047e+01 9.401579e+01 1.107252e+02 8.404890e+01 6.789806e+01 6.616801e+01 4.021377e+01 4.866977e+01 5.472152e+01 4.286323e+01 1.293280e+02 9.810991e-01 1.489926e+00 1.829083e+00 2.562630e+00 2.125361e+00 2.315081e+00 2.901585e+00 2.080765e+00 2.809940e+00 2.889471e+00 2.675503e+00 1.990959e+00 3.568768e-01 1.032701e-01 1.852215e-01 2.614691e-01 3.518170e-01 3.288077e-01 4.014610e-01 3.668008e-01 3.528377e-01 4.248819e-01 6.226628e-01 5.412821e-01 3.745444e-01 7.606535e-02
<GCONST> 1.182824e+02
<TRANSP> 5
 0.000000e+00 1.000000e+00 0.000000e+00 0.000000e+00 0.000000e+00
 0.000000e+00 7.494224e-01 2.505776e-01 0.000000e+00 0.000000e+00
 0.000000e+00 0.000000e+00 6.859531e-01 3.140469e-01 0.000000e+00
 0.000000e+00 0.000000e+00 0.000000e+00 6.772767e-01 3.227233e-01
 0.000000e+00 0.000000e+00 0.000000e+00 0.000000e+00 0.000000e+00
<ENDHMM>
~h "ng"
<BEGINHMM>
<NUMSTATES> 5
<STATE> 2
<MEAN> 39
 -5.047667e+00 -7.455859e+00 4.332111e+00 5.764492e+00 7.202162e+00 -1.091947e+01 6.546810e+00 -1.015536e+01 -3.500388e+00 9.065806e+00 -3.799777e-02 -9.740413e+00 6.965405e+01 9.254121e-01 2.529599e-01 -4.823267e-01 6.783359e-01 3.972423e-02 2.623125e-01 -4.527580e-01 -3.504872e-02 -7.552513e-01 -1.414814e-01 -5.294809e-01 1.171749e-02 -5.773357e-01 2.872497e-01 2.704141e-01 -4.653382e-02 2.885936e-01 -1.448339e-01 1.175793e-01 -2.246613e-01 2.279230e-01 6.877214e-02 -3.314449e-01 -6.670415e-02 2.380775e-01 -2.533581e-01
<VARIANCE> 39
 6.120031e+01 4.506270e+01 2.553935e+01 3.279630e+01 3.327544e+01 4.745840e+01 4.771267e+01 3.643736e+01 8.083111e+01 8.658980e+01 3.586706e+01 2.334029e+01 2.221346e+01 5.280377e+00 3.122523e+00 1.621985e+00 2.200176e+00 2.497051e+00 6.613148e+00 4.873181e+00 6.924583e+00 9.584663e+00 1.306362e+01 1.581293e+00 2.478910e+00 2.180061e+00 1.572413e+00 5.283014e-01 2.841567e-01 3.584861e-01 5.205515e-01 1.109913e+00 1.008993e+00 1.050898e+00 1.786298e+00 1.790931e+00 3.657888e-01 3.916544e-01 5.604854e-01
<GCONST> 1.328942e+02
<STATE> 3
<MEAN> 39
 -5.225753e+00 4.659675e+00 8.067858e+00 1.577737e+01 -1.972444e+00 -4.752481e+00 1.812458e+00 -6.206930e+00 -5.293849e-01 -3.013127e+00 -3.715416e+00 -1.591484e+00 6.085622e+01 -2.775159e-01 -6.722874e-03 2.804496e-02 3.075259e-02 1.016156e-01 3.273231e-01 3.237349e-01 1.854409e-01 1.954849e-02 -3.177037e-02 1.060796e-01 1.207524e-01 -2.053338e-01 -4.678419e-02 -1.171844e-01 -7.352715e-02 -7.122977e-02 -1.294335e-02 -8.304796e-03 2.087932e-02 1.226765e-02 2.748347e-02 7.730992e-02 8.629224e-02 3.463671e-02 -9.910952e-04
<VARIANCE> 39
 2.271473e+01 6.296510e+01 2.475746e+01 1.661105e+01 3.922991e+01 3.931665e+01 3.751378e+01 1.961377e+01 2.495834e+01 2.802279e+01 1.875475e+01 2.328222e+01 8.167951e+00 1.452559e+00 5.742411e+00 2.700736e+00 1.625826e+00 1.925903e+00 3.492673e+00 3.126675e+00 1.946297e+00 2.482826e+00 2.374668e+00 1.878351e+00 1.560213e+00 8.314605e-01 2.035360e-01 8.759415e-01 5.253128e-01 3.502443e-01 3.728733e-01 5.846062e-01 6.282595e-01 3.773653e-01 5.094028e-01 4.998974e-01 3.869058e-01 2.971825e-01 1.724790e-01
<GCONST> 1.119430e+02
<STATE> 4
<MEAN> 39
 -9.887221e+00 1.665678e+00 2.000659e+00 1.052352e+01 2.366349e+00 3.307865e+00 8.636711e+00 -1.930467e-01 3.233181e+00 -1.756661e-01 1.728454e+00 -1.380795e-01 5.566467e+01 -5.670789e-02 -9.923102e-02 -1.150368e-01 -1.555391e-01 -1.198872e-01 -3.024787e-02 -1.359481e-02 1.394471e-03 2.780530e-02 -1.148429e-02 2.020678e-02 5.292828e-02 -5.157325e-02 1.804176e-02 1.454701e-02 2.099062e-02 2.866102e-02 1.103389e-02 -9.996336e-03 -1.800533e-02 -2.365311e-02 -2.781290e-02 -8.611291e-03 -3.253641e-02 -2.596779e-02 1.436329e-02
<VARIANCE> 39
 2.461699e+01 2.501850e+01 1.046894e+01 1.820532e+01 4.432612e+01 3.163375e+01 2.154996e+01 2.260739e+01 2.307286e+01 3.232282e+01 1.149843e+01 2.637042e+01 4.624898e+00 2.255998e-01 6.462170e-01 6.294033e-01 9.404917e-01 1.103542e+00 1.352527e+00 1.374940e+00 1.202367e+00 1.268056e+00 1.147290e+00 8.854004e-01 9.182178e-01 1.022085e-01 3.212586e-02 9.840888e-02 1.049160e-01 1.732598e-01 2.226592e-01 2.949831e-01 2.816975e-01 2.063533e-01 2.049538e-01 2.153201e-01 1.521604e-01 1.681038e-01 1.817856e-02
<GCONST> 8.085912e+01
<TRANSP> 5
 0.000000e+00 1.000000e+00 0.000000e+00 0.000000e+00 0.000000e+00
 0.000000e+00 8.297169e-01 1.702831e-01 0.000000e+00 0.000000e+00
 0.000000e+00 0.000000e+00 9.543201e-01 4.567992e-02 0.000000e+00
 0.000000e+00 0.000000e+00 0.000000e+00 9.723708e-01 2.762919e-02
 0.000000e+00 0.000000e+00 0.000000e+00 0.000000e+00 0.000000e+00
<ENDHMM>
~h "ow"
<BEGINHMM>
<NUMSTATES> 5
<STATE> 2
<MEAN> 39
 -5.098965e+00 9.088960e-01 -5.907393e+00 -8.417709e-01 9.663731e-01 -1.053260e+00 2.911966e+00 -3.445728e+00 -3.249729e+00 -2.204175e+00 -5.986077e-01 -3.883948e+00 5.974551e+01 1.338042e+00 -6.797988e-01 -5.459418e-01 -1.403429e+00 -3.870978e-01 -1.246886e+00 -3.659674e-01 -4.339401e-01 -8.495166e-01 -1.921159e-02 -4.079267e-01 -5.401623e-01 2.302938e+00 1.814956e-01 8.301360e-02 6.962646e-02 2.463738e-01 -1.877897e-02 -9.733104e-02 -2.657365e-01 6.588853e-02 1.610722e-01 -1.282583e-01 -1.242461e-02 -8.095033e-03 -1.000212e-01
<VARIANCE> 39
 9.812907e+01 8.290482e+01 6.541656e+01 1.075939e+02 1.866936e+02 1.287909e+02 1.289056e+02 9.837762e+01 1.103023e+02 7.378222e+01 6.532085e+01 6.526884e+01 2.377172e+02 7.766292e+00 3.543025e+00 3.860270e+00 9.175417e+00 7.092053e+00 9.742384e+00 8.070614e+00 7.442021e+00 8.946266e+00 5.874463e+00 6.878782e+00 4.307586e+00 7.498087e+00 1.121454e+00 5.443130e-01 6.580170e-01 1.480014e+00 1.117923e+00 1.418975e+00 1.206124e+00 1.215998e+00 1.320143e+00 9.328597e-01 1.191014e+00 7.881892e-01 1.444193e+00
<GCONST> 1.573242e+02
<STATE> 3
<MEAN> 39
 4.043824e+00 3.832270e+00 -7.311179e+00 -2.969917e+00 -3.483981e+00 -7.279571e+00 3.210268e+00 -5.924789e+00 -7.730886e+00 -7.707472e+00 3.403788e-01 -5.488424e+00 6.751742e+01 -4.432714e-02 2.023743e-01 5.656302e-03 4.486154e-01 9.296971e-02 2.407308e-01 -2.305502e-01 3.063434e-02 7.582130e-02 -5.607800e-01 5.182789e-02 4.383444e-01 -4.246959e-01 -2.144146e-01 9.116939e-02 1.096939e-01 1.332906e-01 9.589980e-02 2.419811e-01 4.088704e-02 -3.763759e-02 1.228299e-01 1.042147e-01 2.320948e-02 3.523630e-02 -2.185329e-01
<VARIANCE> 39
 3.777879e+01 5.532669e+01 4.980163e+01 1.219771e+02 9.099317e+01 1.909408e+02 1.059511e+02 1.129962e+02 9.452773e+01 7.358517e+01 1.349902e+02 9.874633e+01 1.032221e+02 9.051238e-01 1.226730e+00 1.739766e+00 2.500330e+00 2.682153e+00 4.166456e+00 2.768943e+00 3.870970e+00 3.529362e+00 2.527006e+00 3.542996e+00 2.548435e+00 8.832736e-01 1.365983e-01 1.900832e-01 2.405812e-01 4.355445e-01 5.289053e-01 6.287731e-01 5.199431e-01 6.959875e-01 6.328760e-01 4.893218e-01 5.532322e-01 4.912426e-01 1.199630e-01
<GCONST> 1.281743e+02
<STATE> 4
<MEAN> 39
 7.518365e-01 1.951810e+00 -6.038832e+00 -6.233485e+00 -9.051095e+00 3.295687e-01 -4.627211e+00 -1.860796e+00 -2.055328e+00 -3.322293e+00 -1.849420e+00 2.428167e-02 5.066787e+01 -5.066769e-01 1.682974e-01 2.047839e-01 4.964072e-01 1.332170e-01 2.405727e-01 1.463222e-01 7.378948e-02 6.115997e-02 5.204705e-02 1.132572e-01 7.701529e-02 -6.911598e-01 -3.949874e-02 -5.261883e-02 -1.172586e-02 1.355735e-02 4.782147e-02 -8.355637e-03 2.656770e-02 -2.195513e-02 1.314192e-02 5.684913e-02 3.036537e-02 -1.070943e-02 6.262630e-03
<VARIANCE> 39
 6.303128e+01 1.079425e+02 5.552472e+01 9.536694e+01 1.386578e+02 1.146087e+02 8.606334e+01 6.087932e+01 5.672675e+01 7.024113e+01 4.348706e+01 4.513055e+01 1.455212e+02 8.014464e-01 1.345571e+00 1.241694e+00 1.758928e+00 2.229024e+00 2.434853e+00 2.109577e+00 2.040230e+00 2.126100e+00 1.963953e+00 1.908360e+00 1.555914e+00 4.228661e-01 6.433476e-02 1.614069e-01 1.812773e-01 2.403355e-01 3.059685e-01 3.454758e-01 3.345418e-01 3.251361e-01 3.102215e-01 3.408445e-01 3.368895e-01 2.574013e-01 4.003337e-02
<GCONST> 1.137551e+02
<TRANSP> 5
 0.000000e+00 1.000000e+00 0.000000e+00 0.000000e+00 0.000000e+00
 0.000000e+00 7.492236e-01 2.507765e-01 0.000000e+00 0.000000e+00
 0.000000e+00 0.000000e+00 7.619202e-01 2.380799e-01 0.000000e+00
 0.000000e+00 0.000000e+00 0.000000e+00 8.859138e-01 1.140863e-01
 0.000000e+00 0.000000e+00 0.000000e+00 0.000000e+00 0.000000e+00
<ENDHMM>
~h "sh"
<BEGINHMM>
<NUMSTATES> 5
<STATE> 2
<MEAN> 39
 -7.757141e+00 -2.529943e+00 9.306276e+00 1.020682e+01 -3.232127e+00 -1.092634e+01 -1.206281e-01 -2.190697e+00 2.928951e+00 -5.100798e+00 -2.159437e+00 1.038590e+00 6.532939e+01 -1.965973e+00 -2.626903e+00 7.109925e-01 6.051136e-01 1.057405e+00 1.850153e-01 5.933652e-01 1.993050e-01 7.372276e-01 3.354916e-01 2.596636e-01 7.193331e-01 2.139703e-01 -6.408224e-03 1.070913e-01 -1.260048e-01 -5.535033e-02 1.250173e-01 -1.385054e-01 -1.489785e-01 -1.426380e-01 -1.101158e-01 -2.265819e-01 -1.842315e-01 4.762472e-02 -1.199724e-02
<VARIANCE> 39
 1.107676e+02 1.555827e+02 5.866519e+01 2.777755e+01 6.316274e+01 3.451357e+01 6.282039e+01 3.095885e+01 2.381376e+01 1.909905e+01 2.689997e+01 5.484411e+01 6.447077e+00 4.164789e+00 8.537702e+00 3.419596e+00 3.883714e+00 1.981077e+00 2.416139e+00 5.433988e+00 3.266148e+00 6.117984e+00 2.823508e+00 1.757781e+00 1.619793e+00 8.294356e-01 7.198061e-01 1.578196e+00 5.605294e-01 6.853330e-01 4.801500e-01 5.828243e-01 8.893275e-01 6.177319e-01 5.419149e-01 2.814930e-01 4.181695e-01 5.372984e-01 2.941447e-01
