~o
<STREAMINFO> 1 39
<VECSIZE> 39<NULLD><MFCC_D_A_0><DIAGC>
~h "proto"
<BEGINHMM>
<NUMSTATES> 5
<STATE> 2
<MEAN> 39
 -8.236943e+00 1.003132e+00 -1.685969e+00 4.566512e+00 -1.026407e+00 -1.374398e+00 4.764341e-01 -2.685910e+00 -4.391699e-01 -2.685188e+00 1.375062e-02 -1.341913e+00 5.204913e+01 4.965344e-03 -4.068558e-03 2.061778e-03 1.238864e-02 4.301090e-03 7.035139e-03 7.955038e-03 6.433040e-03 -2.506492e-03 -5.063433e-03 -3.311605e-03 2.839998e-03 5.529390e-02 -1.610180e-03 -1.155575e-03 1.870495e-03 6.992401e-04 7.952856e-04 -2.443153e-04 -1.703035e-03 2.257881e-04 2.501280e-03 4.594996e-03 1.391147e-03 -6.381426e-05 -2.564155e-03
<VARIANCE> 39
 1.097933e+02 7.527126e+01 7.758192e+01 8.167500e+01 1.037544e+02 1.033964e+02 9.750657e+01 7.081661e+01 6.659499e+01 5.345671e+01 4.305471e+01 4.694265e+01 2.173764e+02 2.065421e+00 2.128901e+00 2.062942e+00 2.384005e+00 2.603149e+00 3.304444e+00 3.020426e+00 2.781751e+00 2.927603e+00 2.563669e+00 2.250536e+00 1.958266e+00 1.865741e+00 2.597551e-01 3.177445e-01 3.060642e-01 3.700252e-01 4.276704e-01 5.271053e-01 5.141115e-01 4.846792e-01 5.060375e-01 4.596415e-01 4.057938e-01 3.504777e-01 2.547387e-01
<GCONST> 1.278906e+02
<STATE> 3
<MEAN> 39
 -8.236943e+00 1.003132e+00 -1.685969e+00 4.566512e+00 -1.026407e+00 -1.374398e+00 4.764341e-01 -2.685910e+00 -4.391699e-01 -2.685188e+00 1.375062e-02 -1.341913e+00 5.204913e+01 4.965344e-03 -4.068558e-03 2.061778e-03 1.238864e-02 4.301090e-03 7.035139e-03 7.955038e-03 6.433040e-03 -2.506492e-03 -5.063433e-03 -3.311605e-03 2.839998e-03 5.529390e-02 -1.610180e-03 -1.155575e-03 1.870495e-03 6.992401e-04 7.952856e-04 -2.443153e-04 -1.703035e-03 2.257881e-04 2.501280e-03 4.594996e-03 1.391147e-03 -6.381426e-05 -2.564155e-03
<VARIANCE> 39
 1.097933e+02 7.527126e+01 7.758192e+01 8.167500e+01 1.037544e+02 1.033964e+02 9.750657e+01 7.081661e+01 6.659499e+01 5.345671e+01 4.305471e+01 4.694265e+01 2.173764e+02 2.065421e+00 2.128901e+00 2.062942e+00 2.384005e+00 2.603149e+00 3.304444e+00 3.020426e+00 2.781751e+00 2.927603e+00 2.563669e+00 2.250536e+00 1.958266e+00 1.865741e+00 2.597551e-01 3.177445e-01 3.060642e-01 3.700252e-01 4.276704e-01 5.271053e-01 5.141115e-01 4.846792e-01 5.060375e-01 4.596415e-01 4.057938e-01 3.504777e-01 2.547387e-01
<GCONST> 1.278906e+02
<STATE> 4
<MEAN> 39
 -8.236943e+00 1.003132e+00 -1.685969e+00 4.566512e+00 -1.026407e+00 -1.374398e+00 4.764341e-01 -2.685910e+00 -4.391699e-01 -2.685188e+00 1.375062e-02 -1.341913e+00 5.204913e+01 4.965344e-03 -4.068558e-03 2.061778e-03 1.238864e-02 4.301090e-03 7.035139e-03 7.955038e-03 6.433040e-03 -2.506492e-03 -5.063433e-03 -3.311605e-03 2.839998e-03 5.529390e-02 -1.610180e-03 -1.155575e-03 1.870495e-03 6.992401e-04 7.952856e-04 -2.443153e-04 -1.703035e-03 2.257881e-04 2.501280e-03 4.594996e-03 1.391147e-03 -6.381426e-05 -2.564155e-03
<VARIANCE> 39
 1.097933e+02 7.527126e+01 7.758192e+01 8.167500e+01 1.037544e+02 1.033964e+02 9.750657e+01 7.081661e+01 6.659499e+01 5.345671e+01 4.305471e+01 4.694265e+01 2.173764e+02 2.065421e+00 2.128901e+00 2.062942e+00 2.384005e+00 2.603149e+00 3.304444e+00 3.020426e+00 2.781751e+00 2.927603e+00 2.563669e+00 2.250536e+00 1.958266e+00 1.865741e+00 2.597551e-01 3.177445e-01 3.060642e-01 3.700252e-01 4.276704e-01 5.271053e-01 5.141115e-01 4.846792e-01 5.060375e-01 4.596415e-01 4.057938e-01 3.504777e-01 2.547387e-01
<GCONST> 1.278906e+02
<TRANSP> 5
 0.000000e+00 1.000000e+00 0.000000e+00 0.000000e+00 0.000000e+00
 0.000000e+00 6.000000e-01 4.000000e-01 0.000000e+00 0.000000e+00
 0.000000e+00 0.000000e+00 6.000000e-01 4.000000e-01 0.000000e+00
 0.000000e+00 0.000000e+00 0.000000e+00 7.000000e-01 3.000000e-01
 0.000000e+00 0.000000e+00 0.000000e+00 0.000000e+00 0.000000e+00
<ENDHMM>
